stripid,w1c,w2c,w3c,w4c,w5c
237640,-0.65625,-0.515625,0.25,0.515625,0.40625
229640,-0.65625,-0.515625,0.25,0.515625,0.40625
229576,-0.65625,-0.515625,0.25,0.515625,0.40625
229512,-0.65625,-0.515625,0.25,0.515625,0.40625
229448,-0.65625,-0.515625,0.25,0.515625,0.40625
221448,-0.65625,-0.515625,0.25,0.515625,0.40625
229648,-0.65625,-0.515625,0.25,0.515625,0.40625
229584,-0.65625,-0.515625,0.25,0.515625,0.40625
229520,-0.65625,-0.515625,0.25,0.515625,0.40625
229456,-0.65625,-0.515625,0.25,0.515625,0.40625
229656,-0.65625,-0.515625,0.25,0.515625,0.40625
229592,-0.65625,-0.515625,0.25,0.515625,0.40625
229528,-0.65625,-0.515625,0.25,0.515625,0.40625
229464,-0.65625,-0.515625,0.25,0.515625,0.40625
237704,-0.65625,-0.515625,0.25,0.515625,0.40625
237648,-0.65625,-0.515625,0.25,0.515625,0.40625
229896,-0.65625,-0.515625,0.25,0.515625,0.40625
229832,-0.65625,-0.515625,0.25,0.515625,0.40625
229768,-0.65625,-0.515625,0.25,0.515625,0.40625
229704,-0.65625,-0.515625,0.25,0.515625,0.40625
221456,-0.65625,-0.515625,0.25,0.515625,0.40625
221384,-0.65625,-0.515625,0.25,0.515625,0.40625
229840,-0.65625,-0.515625,0.25,0.515625,0.40625
229776,-0.65625,-0.515625,0.25,0.515625,0.40625
237832,-0.65625,-0.515625,0.25,0.515625,0.40625
237768,-0.65625,-0.515625,0.25,0.515625,0.40625
237968,-0.65625,-0.515625,0.25,0.515625,0.40625
237960,-0.65625,-0.515625,0.25,0.515625,0.40625
237904,-0.65625,-0.515625,0.25,0.515625,0.40625
237896,-0.65625,-0.515625,0.25,0.515625,0.40625
229912,-0.65625,-0.515625,0.25,0.515625,0.40625
229904,-0.65625,-0.515625,0.25,0.515625,0.40625
229848,-0.65625,-0.515625,0.25,0.515625,0.40625
229784,-0.65625,-0.515625,0.25,0.515625,0.40625
229720,-0.65625,-0.515625,0.25,0.515625,0.40625
229712,-0.65625,-0.515625,0.25,0.515625,0.40625
221712,-0.65625,-0.515625,0.25,0.515625,0.40625
221704,-0.65625,-0.515625,0.25,0.515625,0.40625
221648,-0.65625,-0.515625,0.25,0.515625,0.40625
221640,-0.65625,-0.515625,0.25,0.515625,0.40625
221320,-0.65625,-0.515625,0.25,0.515625,0.40625
221256,-0.65625,-0.515625,0.25,0.515625,0.40625
237840,-0.65625,-0.515625,0.25,0.515625,0.40625
238024,-0.65625,-0.515625,0.25,0.515625,0.40625
237976,-0.65625,-0.515625,0.25,0.515625,0.40625
230152,-0.65625,-0.515625,0.25,0.515625,0.40625
230088,-0.65625,-0.515625,0.25,0.515625,0.40625
230024,-0.65625,-0.515625,0.25,0.515625,0.40625
229960,-0.65625,-0.515625,0.25,0.515625,0.40625
221656,-0.65625,-0.515625,0.25,0.515625,0.40625
221576,-0.65625,-0.515625,0.25,0.515625,0.40625
221264,-0.65625,-0.515625,0.25,0.515625,0.40625
237848,-0.65625,-0.515625,0.25,0.515625,0.40625
238088,-0.65625,-0.515625,0.25,0.515625,0.40625
238032,-0.65625,-0.515625,0.25,0.515625,0.40625
238160,-0.65625,-0.515625,0.25,0.515625,0.40625
238152,-0.65625,-0.515625,0.25,0.515625,0.40625
230160,-0.65625,-0.515625,0.25,0.515625,0.40625
229968,-0.65625,-0.515625,0.25,0.515625,0.40625
221968,-0.65625,-0.515625,0.25,0.515625,0.40625
221960,-0.65625,-0.515625,0.25,0.515625,0.40625
221584,-0.65625,-0.515625,0.25,0.515625,0.40625
221520,-0.65625,-0.515625,0.25,0.515625,0.40625
221272,-0.65625,-0.515625,0.25,0.515625,0.40625
245896,-0.65625,-0.515625,0.25,0.515625,0.40625
245832,-0.65625,-0.515625,0.25,0.515625,0.40625
238096,-0.65625,-0.515625,0.25,0.515625,0.40625
238216,-0.65625,-0.515625,0.25,0.515625,0.40625
230168,-0.65625,-0.515625,0.25,0.515625,0.40625
230096,-0.65625,-0.515625,0.25,0.515625,0.40625
230032,-0.65625,-0.515625,0.25,0.515625,0.40625
229976,-0.65625,-0.515625,0.25,0.515625,0.40625
221896,-0.65625,-0.515625,0.25,0.515625,0.40625
221528,-0.65625,-0.515625,0.25,0.515625,0.40625
213256,-0.65625,-0.515625,0.25,0.515625,0.40625
213192,-0.65625,-0.515625,0.25,0.515625,0.40625
238040,-0.65625,-0.515625,0.25,0.515625,0.40625
221592,-0.65625,-0.515625,0.25,0.515625,0.40625
245904,-0.65625,-0.515625,0.25,0.515625,0.40625
246096,-0.65625,-0.515625,0.25,0.515625,0.40625
246088,-0.65625,-0.515625,0.25,0.515625,0.40625
238104,-0.65625,-0.515625,0.25,0.515625,0.40625
238344,-0.65625,-0.515625,0.25,0.515625,0.40625
238280,-0.65625,-0.515625,0.25,0.515625,0.40625
238224,-0.65625,-0.515625,0.25,0.515625,0.40625
238168,-0.65625,-0.515625,0.25,0.515625,0.40625
230176,-0.65625,-0.515625,0.25,0.515625,0.40625
230104,-0.65625,-0.515625,0.25,0.515625,0.40625
230040,-0.65625,-0.515625,0.25,0.515625,0.40625
229984,-0.65625,-0.515625,0.25,0.515625,0.40625
221976,-0.65625,-0.515625,0.25,0.515625,0.40625
221904,-0.65625,-0.515625,0.25,0.515625,0.40625
221832,-0.65625,-0.515625,0.25,0.515625,0.40625
221768,-0.65625,-0.515625,0.25,0.515625,0.40625
221512,-0.65625,-0.515625,0.25,0.515625,0.40625
213520,-0.65625,-0.515625,0.25,0.515625,0.40625
213512,-0.65625,-0.515625,0.25,0.515625,0.40625
213200,-0.65625,-0.515625,0.25,0.515625,0.40625
246176,-0.65625,-0.515625,0.25,0.515625,0.40625
238288,-0.65625,-0.515625,0.25,0.515625,0.40625
238232,-0.65625,-0.515625,0.25,0.515625,0.40625
230408,-0.65625,-0.515625,0.25,0.515625,0.40625
230344,-0.65625,-0.515625,0.25,0.515625,0.40625
230280,-0.65625,-0.515625,0.25,0.515625,0.40625
230216,-0.65625,-0.515625,0.25,0.515625,0.40625
221912,-0.65625,-0.515625,0.25,0.515625,0.40625
221840,-0.65625,-0.515625,0.25,0.515625,0.40625
213448,-0.65625,-0.515625,0.25,0.515625,0.40625
246104,-0.65625,-0.515625,0.25,0.515625,0.40625
238352,-0.65625,-0.515625,0.25,0.515625,0.40625
238536,-0.65625,-0.515625,0.25,0.515625,0.40625
238472,-0.65625,-0.515625,0.25,0.515625,0.40625
238408,-0.65625,-0.515625,0.25,0.515625,0.40625
230416,-0.65625,-0.515625,0.25,0.515625,0.40625
230352,-0.65625,-0.515625,0.25,0.515625,0.40625
230288,-0.65625,-0.515625,0.25,0.515625,0.40625
230224,-0.65625,-0.515625,0.25,0.515625,0.40625
222216,-0.65625,-0.515625,0.25,0.515625,0.40625
222152,-0.65625,-0.515625,0.25,0.515625,0.40625
222088,-0.65625,-0.515625,0.25,0.515625,0.40625
221776,-0.65625,-0.515625,0.25,0.515625,0.40625
213528,-0.65625,-0.515625,0.25,0.515625,0.40625
245960,-0.65625,-0.515625,0.25,0.515625,0.40625
246216,-0.65625,-0.515625,0.25,0.515625,0.40625
246152,-0.65625,-0.515625,0.25,0.515625,0.40625
246344,-0.65625,-0.515625,0.25,0.515625,0.40625
238360,-0.65625,-0.515625,0.25,0.515625,0.40625
238544,-0.65625,-0.515625,0.25,0.515625,0.40625
238480,-0.65625,-0.515625,0.25,0.515625,0.40625
238416,-0.65625,-0.515625,0.25,0.515625,0.40625
82120,-0.65625,-0.515625,0.25,0.515625,0.40625
82056,-0.65625,-0.515625,0.25,0.515625,0.40625
222224,-0.65625,-0.515625,0.25,0.515625,0.40625
222160,-0.65625,-0.515625,0.25,0.515625,0.40625
222096,-0.65625,-0.515625,0.25,0.515625,0.40625
221784,-0.65625,-0.515625,0.25,0.515625,0.40625
213768,-0.65625,-0.515625,0.25,0.515625,0.40625
213456,-0.65625,-0.515625,0.25,0.515625,0.40625
213384,-0.65625,-0.515625,0.25,0.515625,0.40625
213128,-0.65625,-0.515625,0.25,0.515625,0.40625
246160,-0.65625,-0.515625,0.25,0.515625,0.40625
213464,-0.65625,-0.515625,0.25,0.515625,0.40625
246024,-0.65625,-0.515625,0.25,0.515625,0.40625
246280,-0.65625,-0.515625,0.25,0.515625,0.40625
246232,-0.65625,-0.515625,0.25,0.515625,0.40625
246224,-0.65625,-0.515625,0.25,0.515625,0.40625
246168,-0.65625,-0.515625,0.25,0.515625,0.40625
246416,-0.65625,-0.515625,0.25,0.515625,0.40625
246408,-0.65625,-0.515625,0.25,0.515625,0.40625
246352,-0.65625,-0.515625,0.25,0.515625,0.40625
238600,-0.65625,-0.515625,0.25,0.515625,0.40625
238552,-0.65625,-0.515625,0.25,0.515625,0.40625
90256,-0.65625,-0.515625,0.25,0.515625,0.40625
90248,-0.65625,-0.515625,0.25,0.515625,0.40625
90184,-0.65625,-0.515625,0.25,0.515625,0.40625
82192,-0.65625,-0.515625,0.25,0.515625,0.40625
82184,-0.65625,-0.515625,0.25,0.515625,0.40625
82128,-0.65625,-0.515625,0.25,0.515625,0.40625
82064,-0.65625,-0.515625,0.25,0.515625,0.40625
82000,-0.65625,-0.515625,0.25,0.515625,0.40625
81992,-0.65625,-0.515625,0.25,0.515625,0.40625
73992,-0.65625,-0.515625,0.25,0.515625,0.40625
73936,-0.65625,-0.515625,0.25,0.515625,0.40625
73928,-0.65625,-0.515625,0.25,0.515625,0.40625
222104,-0.65625,-0.515625,0.25,0.515625,0.40625
222024,-0.65625,-0.515625,0.25,0.515625,0.40625
213776,-0.65625,-0.515625,0.25,0.515625,0.40625
213712,-0.65625,-0.515625,0.25,0.515625,0.40625
213704,-0.65625,-0.515625,0.25,0.515625,0.40625
213472,-0.65625,-0.515625,0.25,0.515625,0.40625
213400,-0.65625,-0.515625,0.25,0.515625,0.40625
213392,-0.65625,-0.515625,0.25,0.515625,0.40625
213064,-0.65625,-0.515625,0.25,0.515625,0.40625
246240,-0.65625,-0.515625,0.25,0.515625,0.40625
246360,-0.65625,-0.515625,0.25,0.515625,0.40625
246600,-0.65625,-0.515625,0.25,0.515625,0.40625
238608,-0.65625,-0.515625,0.25,0.515625,0.40625
82376,-0.65625,-0.515625,0.25,0.515625,0.40625
82312,-0.65625,-0.515625,0.25,0.515625,0.40625
222032,-0.65625,-0.515625,0.25,0.515625,0.40625
214024,-0.65625,-0.515625,0.25,0.515625,0.40625
213784,-0.65625,-0.515625,0.25,0.515625,0.40625
213408,-0.65625,-0.515625,0.25,0.515625,0.40625
213344,-0.65625,-0.515625,0.25,0.515625,0.40625
246288,-0.65625,-0.515625,0.25,0.515625,0.40625
246472,-0.65625,-0.515625,0.25,0.515625,0.40625
246608,-0.65625,-0.515625,0.25,0.515625,0.40625
238616,-0.65625,-0.515625,0.25,0.515625,0.40625
90312,-0.65625,-0.515625,0.25,0.515625,0.40625
90264,-0.65625,-0.515625,0.25,0.515625,0.40625
90192,-0.65625,-0.515625,0.25,0.515625,0.40625
82440,-0.65625,-0.515625,0.25,0.515625,0.40625
82256,-0.65625,-0.515625,0.25,0.515625,0.40625
74000,-0.65625,-0.515625,0.25,0.515625,0.40625
73944,-0.65625,-0.515625,0.25,0.515625,0.40625
73864,-0.65625,-0.515625,0.25,0.515625,0.40625
222040,-0.65625,-0.515625,0.25,0.515625,0.40625
214032,-0.65625,-0.515625,0.25,0.515625,0.40625
213640,-0.65625,-0.515625,0.25,0.515625,0.40625
213416,-0.65625,-0.515625,0.25,0.515625,0.40625
213328,-0.65625,-0.515625,0.25,0.515625,0.40625
246296,-0.65625,-0.515625,0.25,0.515625,0.40625
246664,-0.65625,-0.515625,0.25,0.515625,0.40625
90376,-0.65625,-0.515625,0.25,0.515625,0.40625
90320,-0.65625,-0.515625,0.25,0.515625,0.40625
90440,-0.65625,-0.515625,0.25,0.515625,0.40625
82384,-0.65625,-0.515625,0.25,0.515625,0.40625
82320,-0.65625,-0.515625,0.25,0.515625,0.40625
74248,-0.65625,-0.515625,0.25,0.515625,0.40625
73872,-0.65625,-0.515625,0.25,0.515625,0.40625
73800,-0.65625,-0.515625,0.25,0.515625,0.40625
213960,-0.65625,-0.515625,0.25,0.515625,0.40625
213336,-0.65625,-0.515625,0.25,0.515625,0.40625
246304,-0.65625,-0.515625,0.25,0.515625,0.40625
246480,-0.65625,-0.515625,0.25,0.515625,0.40625
213648,-0.65625,-0.515625,0.25,0.515625,0.40625
254032,-0.65625,-0.515625,0.25,0.515625,0.40625
254024,-0.65625,-0.515625,0.25,0.515625,0.40625
254296,-0.65625,-0.515625,0.25,0.515625,0.40625
246312,-0.65625,-0.515625,0.25,0.515625,0.40625
246536,-0.65625,-0.515625,0.25,0.515625,0.40625
246488,-0.65625,-0.515625,0.25,0.515625,0.40625
246728,-0.65625,-0.515625,0.25,0.515625,0.40625
246672,-0.65625,-0.515625,0.25,0.515625,0.40625
98440,-0.65625,-0.515625,0.25,0.515625,0.40625
98376,-0.65625,-0.515625,0.25,0.515625,0.40625
90384,-0.65625,-0.515625,0.25,0.515625,0.40625
90632,-0.65625,-0.515625,0.25,0.515625,0.40625
90568,-0.65625,-0.515625,0.25,0.515625,0.40625
90504,-0.65625,-0.515625,0.25,0.515625,0.40625
90448,-0.65625,-0.515625,0.25,0.515625,0.40625
82448,-0.65625,-0.515625,0.25,0.515625,0.40625
82392,-0.65625,-0.515625,0.25,0.515625,0.40625
82328,-0.65625,-0.515625,0.25,0.515625,0.40625
82248,-0.65625,-0.515625,0.25,0.515625,0.40625
74256,-0.65625,-0.515625,0.25,0.515625,0.40625
74184,-0.65625,-0.515625,0.25,0.515625,0.40625
74120,-0.65625,-0.515625,0.25,0.515625,0.40625
74056,-0.65625,-0.515625,0.25,0.515625,0.40625
73808,-0.65625,-0.515625,0.25,0.515625,0.40625
65800,-0.65625,-0.515625,0.25,0.515625,0.40625
65736,-0.65625,-0.515625,0.25,0.515625,0.40625
213968,-0.65625,-0.515625,0.25,0.515625,0.40625
213896,-0.65625,-0.515625,0.25,0.515625,0.40625
213656,-0.65625,-0.515625,0.25,0.515625,0.40625
213584,-0.65625,-0.515625,0.25,0.515625,0.40625
213592,-0.65625,-0.515625,0.25,0.515625,0.40625
213320,-0.65625,-0.515625,0.25,0.515625,0.40625
205344,-0.65625,-0.515625,0.25,0.515625,0.40625
205072,-0.65625,-0.515625,0.25,0.515625,0.40625
205064,-0.65625,-0.515625,0.25,0.515625,0.40625
254280,-0.65625,-0.515625,0.25,0.515625,0.40625
254304,-0.65625,-0.515625,0.25,0.515625,0.40625
246544,-0.65625,-0.515625,0.25,0.515625,0.40625
246736,-0.65625,-0.515625,0.25,0.515625,0.40625
90576,-0.65625,-0.515625,0.25,0.515625,0.40625
74128,-0.65625,-0.515625,0.25,0.515625,0.40625
213904,-0.65625,-0.515625,0.25,0.515625,0.40625
205328,-0.65625,-0.515625,0.25,0.515625,0.40625
205336,-0.65625,-0.515625,0.25,0.515625,0.40625
254088,-0.65625,-0.515625,0.25,0.515625,0.40625
246552,-0.65625,-0.515625,0.25,0.515625,0.40625
246744,-0.65625,-0.515625,0.25,0.515625,0.40625
98448,-0.65625,-0.515625,0.25,0.515625,0.40625
98384,-0.65625,-0.515625,0.25,0.515625,0.40625
98632,-0.65625,-0.515625,0.25,0.515625,0.40625
90760,-0.65625,-0.515625,0.25,0.515625,0.40625
90696,-0.65625,-0.515625,0.25,0.515625,0.40625
82696,-0.65625,-0.515625,0.25,0.515625,0.40625
82632,-0.65625,-0.515625,0.25,0.515625,0.40625
82568,-0.65625,-0.515625,0.25,0.515625,0.40625
82504,-0.65625,-0.515625,0.25,0.515625,0.40625
74504,-0.65625,-0.515625,0.25,0.515625,0.40625
74440,-0.65625,-0.515625,0.25,0.515625,0.40625
66056,-0.65625,-0.515625,0.25,0.515625,0.40625
65808,-0.65625,-0.515625,0.25,0.515625,0.40625
65744,-0.65625,-0.515625,0.25,0.515625,0.40625
213848,-0.65625,-0.515625,0.25,0.515625,0.40625
213576,-0.65625,-0.515625,0.25,0.515625,0.40625
205000,-0.65625,-0.515625,0.25,0.515625,0.40625
254344,-0.65625,-0.515625,0.25,0.515625,0.40625
254288,-0.65625,-0.515625,0.25,0.515625,0.40625
254536,-0.65625,-0.515625,0.25,0.515625,0.40625
246792,-0.65625,-0.515625,0.25,0.515625,0.40625
98504,-0.65625,-0.515625,0.25,0.515625,0.40625
98696,-0.65625,-0.515625,0.25,0.515625,0.40625
90640,-0.65625,-0.515625,0.25,0.515625,0.40625
90824,-0.65625,-0.515625,0.25,0.515625,0.40625
90768,-0.65625,-0.515625,0.25,0.515625,0.40625
82704,-0.65625,-0.515625,0.25,0.515625,0.40625
82512,-0.65625,-0.515625,0.25,0.515625,0.40625
74448,-0.65625,-0.515625,0.25,0.515625,0.40625
74376,-0.65625,-0.515625,0.25,0.515625,0.40625
74064,-0.65625,-0.515625,0.25,0.515625,0.40625
65992,-0.65625,-0.515625,0.25,0.515625,0.40625
65672,-0.65625,-0.515625,0.25,0.515625,0.40625
205584,-0.65625,-0.515625,0.25,0.515625,0.40625
205320,-0.65625,-0.515625,0.25,0.515625,0.40625
205272,-0.65625,-0.515625,0.25,0.515625,0.40625
213840,-0.65625,-0.515625,0.25,0.515625,0.40625
254152,-0.65625,-0.515625,0.25,0.515625,0.40625
254352,-0.65625,-0.515625,0.25,0.515625,0.40625
254600,-0.65625,-0.515625,0.25,0.515625,0.40625
254544,-0.65625,-0.515625,0.25,0.515625,0.40625
254800,-0.65625,-0.515625,0.25,0.515625,0.40625
254792,-0.65625,-0.515625,0.25,0.515625,0.40625
246800,-0.65625,-0.515625,0.25,0.515625,0.40625
98568,-0.65625,-0.515625,0.25,0.515625,0.40625
98512,-0.65625,-0.515625,0.25,0.515625,0.40625
98760,-0.65625,-0.515625,0.25,0.515625,0.40625
98888,-0.65625,-0.515625,0.25,0.515625,0.40625
90888,-0.65625,-0.515625,0.25,0.515625,0.40625
90832,-0.65625,-0.515625,0.25,0.515625,0.40625
91080,-0.65625,-0.515625,0.25,0.515625,0.40625
91016,-0.65625,-0.515625,0.25,0.515625,0.40625
90960,-0.65625,-0.515625,0.25,0.515625,0.40625
90952,-0.65625,-0.515625,0.25,0.515625,0.40625
82952,-0.65625,-0.515625,0.25,0.515625,0.40625
82888,-0.65625,-0.515625,0.25,0.515625,0.40625
82824,-0.65625,-0.515625,0.25,0.515625,0.40625
82760,-0.65625,-0.515625,0.25,0.515625,0.40625
74768,-0.65625,-0.515625,0.25,0.515625,0.40625
74760,-0.65625,-0.515625,0.25,0.515625,0.40625
74696,-0.65625,-0.515625,0.25,0.515625,0.40625
74632,-0.65625,-0.515625,0.25,0.515625,0.40625
74384,-0.65625,-0.515625,0.25,0.515625,0.40625
74312,-0.65625,-0.515625,0.25,0.515625,0.40625
66320,-0.65625,-0.515625,0.25,0.515625,0.40625
66312,-0.65625,-0.515625,0.25,0.515625,0.40625
66000,-0.65625,-0.515625,0.25,0.515625,0.40625
65928,-0.65625,-0.515625,0.25,0.515625,0.40625
65680,-0.65625,-0.515625,0.25,0.515625,0.40625
65616,-0.65625,-0.515625,0.25,0.515625,0.40625
65608,-0.65625,-0.515625,0.25,0.515625,0.40625
213832,-0.65625,-0.515625,0.25,0.515625,0.40625
205832,-0.65625,-0.515625,0.25,0.515625,0.40625
205840,-0.65625,-0.515625,0.25,0.515625,0.40625
205576,-0.65625,-0.515625,0.25,0.515625,0.40625
205520,-0.65625,-0.515625,0.25,0.515625,0.40625
205264,-0.65625,-0.515625,0.25,0.515625,0.40625
204952,-0.65625,-0.515625,0.25,0.515625,0.40625
254160,-0.65625,-0.515625,0.25,0.515625,0.40625
254408,-0.65625,-0.515625,0.25,0.515625,0.40625
254360,-0.65625,-0.515625,0.25,0.515625,0.40625
254608,-0.65625,-0.515625,0.25,0.515625,0.40625
98576,-0.65625,-0.515625,0.25,0.515625,0.40625
205528,-0.65625,-0.515625,0.25,0.515625,0.40625
205256,-0.65625,-0.515625,0.25,0.515625,0.40625
205208,-0.65625,-0.515625,0.25,0.515625,0.40625
204944,-0.65625,-0.515625,0.25,0.515625,0.40625
254168,-0.65625,-0.515625,0.25,0.515625,0.40625
254416,-0.65625,-0.515625,0.25,0.515625,0.40625
106568,-0.65625,-0.515625,0.25,0.515625,0.40625
98824,-0.65625,-0.515625,0.25,0.515625,0.40625
98768,-0.65625,-0.515625,0.25,0.515625,0.40625
91144,-0.65625,-0.515625,0.25,0.515625,0.40625
91024,-0.65625,-0.515625,0.25,0.515625,0.40625
83144,-0.65625,-0.515625,0.25,0.515625,0.40625
83080,-0.65625,-0.515625,0.25,0.515625,0.40625
74704,-0.65625,-0.515625,0.25,0.515625,0.40625
74568,-0.65625,-0.515625,0.25,0.515625,0.40625
66248,-0.65625,-0.515625,0.25,0.515625,0.40625
66184,-0.65625,-0.515625,0.25,0.515625,0.40625
57616,-0.65625,-0.515625,0.25,0.515625,0.40625
205200,-0.65625,-0.515625,0.25,0.515625,0.40625
204936,-0.65625,-0.515625,0.25,0.515625,0.40625
254424,-0.65625,-0.515625,0.25,0.515625,0.40625
254664,-0.65625,-0.515625,0.25,0.515625,0.40625
254616,-0.65625,-0.515625,0.25,0.515625,0.40625
254856,-0.65625,-0.515625,0.25,0.515625,0.40625
99144,-0.65625,-0.515625,0.25,0.515625,0.40625
91088,-0.65625,-0.515625,0.25,0.515625,0.40625
83208,-0.65625,-0.515625,0.25,0.515625,0.40625
83016,-0.65625,-0.515625,0.25,0.515625,0.40625
74640,-0.65625,-0.515625,0.25,0.515625,0.40625
66568,-0.65625,-0.515625,0.25,0.515625,0.40625
66256,-0.65625,-0.515625,0.25,0.515625,0.40625
65864,-0.65625,-0.515625,0.25,0.515625,0.40625
205776,-0.65625,-0.515625,0.25,0.515625,0.40625
205512,-0.65625,-0.515625,0.25,0.515625,0.40625
205464,-0.65625,-0.515625,0.25,0.515625,0.40625
205192,-0.65625,-0.515625,0.25,0.515625,0.40625
106576,-0.65625,-0.515625,0.25,0.515625,0.40625
65872,-0.65625,-0.515625,0.25,0.515625,0.40625
57608,-0.65625,-0.515625,0.25,0.515625,0.40625
254216,-0.65625,-0.515625,0.25,0.515625,0.40625
254472,-0.65625,-0.515625,0.25,0.515625,0.40625
254672,-0.65625,-0.515625,0.25,0.515625,0.40625
254920,-0.65625,-0.515625,0.25,0.515625,0.40625
254864,-0.65625,-0.515625,0.25,0.515625,0.40625
106632,-0.65625,-0.515625,0.25,0.515625,0.40625
106824,-0.65625,-0.515625,0.25,0.515625,0.40625
106832,-0.65625,-0.515625,0.25,0.515625,0.40625
99080,-0.65625,-0.515625,0.25,0.515625,0.40625
99024,-0.65625,-0.515625,0.25,0.515625,0.40625
99272,-0.65625,-0.515625,0.25,0.515625,0.40625
99208,-0.65625,-0.515625,0.25,0.515625,0.40625
99152,-0.65625,-0.515625,0.25,0.515625,0.40625
99400,-0.65625,-0.515625,0.25,0.515625,0.40625
91400,-0.65625,-0.515625,0.25,0.515625,0.40625
91336,-0.65625,-0.515625,0.25,0.515625,0.40625
91272,-0.65625,-0.515625,0.25,0.515625,0.40625
91208,-0.65625,-0.515625,0.25,0.515625,0.40625
83216,-0.65625,-0.515625,0.25,0.515625,0.40625
83152,-0.65625,-0.515625,0.25,0.515625,0.40625
83088,-0.65625,-0.515625,0.25,0.515625,0.40625
83024,-0.65625,-0.515625,0.25,0.515625,0.40625
75016,-0.65625,-0.515625,0.25,0.515625,0.40625
74952,-0.65625,-0.515625,0.25,0.515625,0.40625
74888,-0.65625,-0.515625,0.25,0.515625,0.40625
74824,-0.65625,-0.515625,0.25,0.515625,0.40625
66824,-0.65625,-0.515625,0.25,0.515625,0.40625
66576,-0.65625,-0.515625,0.25,0.515625,0.40625
66504,-0.65625,-0.515625,0.25,0.515625,0.40625
66440,-0.65625,-0.515625,0.25,0.515625,0.40625
66192,-0.65625,-0.515625,0.25,0.515625,0.40625
66120,-0.65625,-0.515625,0.25,0.515625,0.40625
66128,-0.65625,-0.515625,0.25,0.515625,0.40625
57872,-0.65625,-0.515625,0.25,0.515625,0.40625
57864,-0.65625,-0.515625,0.25,0.515625,0.40625
57552,-0.65625,-0.515625,0.25,0.515625,0.40625
205768,-0.65625,-0.515625,0.25,0.515625,0.40625
205720,-0.65625,-0.515625,0.25,0.515625,0.40625
205456,-0.65625,-0.515625,0.25,0.515625,0.40625
205128,-0.65625,-0.515625,0.25,0.515625,0.40625
204872,-0.65625,-0.515625,0.25,0.515625,0.40625
254480,-0.65625,-0.515625,0.25,0.515625,0.40625
254728,-0.65625,-0.515625,0.25,0.515625,0.40625
254680,-0.65625,-0.515625,0.25,0.515625,0.40625
106696,-0.65625,-0.515625,0.25,0.515625,0.40625
106640,-0.65625,-0.515625,0.25,0.515625,0.40625
107080,-0.65625,-0.515625,0.25,0.515625,0.40625
99088,-0.65625,-0.515625,0.25,0.515625,0.40625
58128,-0.65625,-0.515625,0.25,0.515625,0.40625
57544,-0.65625,-0.515625,0.25,0.515625,0.40625
57480,-0.65625,-0.515625,0.25,0.515625,0.40625
205448,-0.65625,-0.515625,0.25,0.515625,0.40625
205392,-0.65625,-0.515625,0.25,0.515625,0.40625
205144,-0.65625,-0.515625,0.25,0.515625,0.40625
254984,-0.65625,-0.515625,0.25,0.515625,0.40625
254928,-0.65625,-0.515625,0.25,0.515625,0.40625
106704,-0.65625,-0.515625,0.25,0.515625,0.40625
107144,-0.65625,-0.515625,0.25,0.515625,0.40625
99280,-0.65625,-0.515625,0.25,0.515625,0.40625
99464,-0.65625,-0.515625,0.25,0.515625,0.40625
91656,-0.65625,-0.515625,0.25,0.515625,0.40625
75144,-0.65625,-0.515625,0.25,0.515625,0.40625
66760,-0.65625,-0.515625,0.25,0.515625,0.40625
66384,-0.65625,-0.515625,0.25,0.515625,0.40625
58064,-0.65625,-0.515625,0.25,0.515625,0.40625
57488,-0.65625,-0.515625,0.25,0.515625,0.40625
205712,-0.65625,-0.515625,0.25,0.515625,0.40625
205656,-0.65625,-0.515625,0.25,0.515625,0.40625
262472,-0.65625,-0.515625,0.25,0.515625,0.40625
254488,-0.65625,-0.515625,0.25,0.515625,0.40625
254736,-0.65625,-0.515625,0.25,0.515625,0.40625
254936,-0.65625,-0.515625,0.25,0.515625,0.40625
106888,-0.65625,-0.515625,0.25,0.515625,0.40625
107088,-0.65625,-0.515625,0.25,0.515625,0.40625
99336,-0.65625,-0.515625,0.25,0.515625,0.40625
99528,-0.65625,-0.515625,0.25,0.515625,0.40625
91528,-0.65625,-0.515625,0.25,0.515625,0.40625
83464,-0.65625,-0.515625,0.25,0.515625,0.40625
83336,-0.65625,-0.515625,0.25,0.515625,0.40625
75272,-0.65625,-0.515625,0.25,0.515625,0.40625
66696,-0.65625,-0.515625,0.25,0.515625,0.40625
58120,-0.65625,-0.515625,0.25,0.515625,0.40625
57800,-0.65625,-0.515625,0.25,0.515625,0.40625
205704,-0.65625,-0.515625,0.25,0.515625,0.40625
205384,-0.65625,-0.515625,0.25,0.515625,0.40625
205136,-0.65625,-0.515625,0.25,0.515625,0.40625
197144,-0.65625,-0.515625,0.25,0.515625,0.40625
91664,-0.65625,-0.515625,0.25,0.515625,0.40625
75152,-0.65625,-0.515625,0.25,0.515625,0.40625
66376,-0.65625,-0.515625,0.25,0.515625,0.40625
262216,-0.65625,-0.515625,0.25,0.515625,0.40625
262480,-0.65625,-0.515625,0.25,0.515625,0.40625
262736,-0.65625,-0.515625,0.25,0.515625,0.40625
262728,-0.65625,-0.515625,0.25,0.515625,0.40625
255000,-0.65625,-0.515625,0.25,0.515625,0.40625
254992,-0.65625,-0.515625,0.25,0.515625,0.40625
106760,-0.65625,-0.515625,0.25,0.515625,0.40625
106952,-0.65625,-0.515625,0.25,0.515625,0.40625
107152,-0.65625,-0.515625,0.25,0.515625,0.40625
107400,-0.65625,-0.515625,0.25,0.515625,0.40625
107336,-0.65625,-0.515625,0.25,0.515625,0.40625
99600,-0.65625,-0.515625,0.25,0.515625,0.40625
99592,-0.65625,-0.515625,0.25,0.515625,0.40625
99536,-0.65625,-0.515625,0.25,0.515625,0.40625
99848,-0.65625,-0.515625,0.25,0.515625,0.40625
99720,-0.65625,-0.515625,0.25,0.515625,0.40625
91672,-0.65625,-0.515625,0.25,0.515625,0.40625
91784,-0.65625,-0.515625,0.25,0.515625,0.40625
83720,-0.65625,-0.515625,0.25,0.515625,0.40625
83592,-0.65625,-0.515625,0.25,0.515625,0.40625
75528,-0.65625,-0.515625,0.25,0.515625,0.40625
75160,-0.65625,-0.515625,0.25,0.515625,0.40625
67088,-0.65625,-0.515625,0.25,0.515625,0.40625
67080,-0.65625,-0.515625,0.25,0.515625,0.40625
66704,-0.65625,-0.515625,0.25,0.515625,0.40625
66640,-0.65625,-0.515625,0.25,0.515625,0.40625
58376,-0.65625,-0.515625,0.25,0.515625,0.40625
58320,-0.65625,-0.515625,0.25,0.515625,0.40625
58056,-0.65625,-0.515625,0.25,0.515625,0.40625
57744,-0.65625,-0.515625,0.25,0.515625,0.40625
57424,-0.65625,-0.515625,0.25,0.515625,0.40625
205640,-0.65625,-0.515625,0.25,0.515625,0.40625
205648,-0.65625,-0.515625,0.25,0.515625,0.40625
197400,-0.65625,-0.515625,0.25,0.515625,0.40625
197392,-0.65625,-0.515625,0.25,0.515625,0.40625
197136,-0.65625,-0.515625,0.25,0.515625,0.40625
196872,-0.65625,-0.515625,0.25,0.515625,0.40625
262488,-0.65625,-0.515625,0.25,0.515625,0.40625
262984,-0.65625,-0.515625,0.25,0.515625,0.40625
106768,-0.65625,-0.515625,0.25,0.515625,0.40625
107016,-0.65625,-0.515625,0.25,0.515625,0.40625
106960,-0.65625,-0.515625,0.25,0.515625,0.40625
107208,-0.65625,-0.515625,0.25,0.515625,0.40625
107408,-0.65625,-0.515625,0.25,0.515625,0.40625
91912,-0.65625,-0.515625,0.25,0.515625,0.40625
83728,-0.65625,-0.515625,0.25,0.515625,0.40625
83600,-0.65625,-0.515625,0.25,0.515625,0.40625
75400,-0.65625,-0.515625,0.25,0.515625,0.40625
66632,-0.65625,-0.515625,0.25,0.515625,0.40625
58312,-0.65625,-0.515625,0.25,0.515625,0.40625
57992,-0.65625,-0.515625,0.25,0.515625,0.40625
57736,-0.65625,-0.515625,0.25,0.515625,0.40625
57672,-0.65625,-0.515625,0.25,0.515625,0.40625
57416,-0.65625,-0.515625,0.25,0.515625,0.40625
197648,-0.65625,-0.515625,0.25,0.515625,0.40625
197128,-0.65625,-0.515625,0.25,0.515625,0.40625
262280,-0.65625,-0.515625,0.25,0.515625,0.40625
262744,-0.65625,-0.515625,0.25,0.515625,0.40625
114760,-0.65625,-0.515625,0.25,0.515625,0.40625
107272,-0.65625,-0.515625,0.25,0.515625,0.40625
107592,-0.65625,-0.515625,0.25,0.515625,0.40625
99976,-0.65625,-0.515625,0.25,0.515625,0.40625
91792,-0.65625,-0.515625,0.25,0.515625,0.40625
75536,-0.65625,-0.515625,0.25,0.515625,0.40625
67336,-0.65625,-0.515625,0.25,0.515625,0.40625
66952,-0.65625,-0.515625,0.25,0.515625,0.40625
58632,-0.65625,-0.515625,0.25,0.515625,0.40625
57928,-0.65625,-0.515625,0.25,0.515625,0.40625
49432,-0.65625,-0.515625,0.25,0.515625,0.40625
197384,-0.65625,-0.515625,0.25,0.515625,0.40625
196816,-0.65625,-0.515625,0.25,0.515625,0.40625
262536,-0.65625,-0.515625,0.25,0.515625,0.40625
262792,-0.65625,-0.515625,0.25,0.515625,0.40625
262992,-0.65625,-0.515625,0.25,0.515625,0.40625
107024,-0.65625,-0.515625,0.25,0.515625,0.40625
107280,-0.65625,-0.515625,0.25,0.515625,0.40625
107464,-0.65625,-0.515625,0.25,0.515625,0.40625
107656,-0.65625,-0.515625,0.25,0.515625,0.40625
107912,-0.65625,-0.515625,0.25,0.515625,0.40625
99856,-0.65625,-0.515625,0.25,0.515625,0.40625
99984,-0.65625,-0.515625,0.25,0.515625,0.40625
67344,-0.65625,-0.515625,0.25,0.515625,0.40625
58568,-0.65625,-0.515625,0.25,0.515625,0.40625
58248,-0.65625,-0.515625,0.25,0.515625,0.40625
57936,-0.65625,-0.515625,0.25,0.515625,0.40625
57680,-0.65625,-0.515625,0.25,0.515625,0.40625
197640,-0.65625,-0.515625,0.25,0.515625,0.40625
197336,-0.65625,-0.515625,0.25,0.515625,0.40625
197072,-0.65625,-0.515625,0.25,0.515625,0.40625
114768,-0.65625,-0.515625,0.25,0.515625,0.40625
66960,-0.65625,-0.515625,0.25,0.515625,0.40625
49424,-0.65625,-0.515625,0.25,0.515625,0.40625
262288,-0.65625,-0.515625,0.25,0.515625,0.40625
262544,-0.65625,-0.515625,0.25,0.515625,0.40625
262808,-0.65625,-0.515625,0.25,0.515625,0.40625
262800,-0.65625,-0.515625,0.25,0.515625,0.40625
263048,-0.65625,-0.515625,0.25,0.515625,0.40625
114776,-0.65625,-0.515625,0.25,0.515625,0.40625
115016,-0.65625,-0.515625,0.25,0.515625,0.40625
115272,-0.65625,-0.515625,0.25,0.515625,0.40625
107528,-0.65625,-0.515625,0.25,0.515625,0.40625
107720,-0.65625,-0.515625,0.25,0.515625,0.40625
108040,-0.65625,-0.515625,0.25,0.515625,0.40625
107920,-0.65625,-0.515625,0.25,0.515625,0.40625
108168,-0.65625,-0.515625,0.25,0.515625,0.40625
100104,-0.65625,-0.515625,0.25,0.515625,0.40625
99992,-0.65625,-0.515625,0.25,0.515625,0.40625
67208,-0.65625,-0.515625,0.25,0.515625,0.40625
59160,-0.65625,-0.515625,0.25,0.515625,0.40625
58888,-0.65625,-0.515625,0.25,0.515625,0.40625
58776,-0.65625,-0.515625,0.25,0.515625,0.40625
58504,-0.65625,-0.515625,0.25,0.515625,0.40625
58192,-0.65625,-0.515625,0.25,0.515625,0.40625
49936,-0.65625,-0.515625,0.25,0.515625,0.40625
49672,-0.65625,-0.515625,0.25,0.515625,0.40625
49416,-0.65625,-0.515625,0.25,0.515625,0.40625
197584,-0.65625,-0.515625,0.25,0.515625,0.40625
197320,-0.65625,-0.515625,0.25,0.515625,0.40625
197328,-0.65625,-0.515625,0.25,0.515625,0.40625
197064,-0.65625,-0.515625,0.25,0.515625,0.40625
196808,-0.65625,-0.515625,0.25,0.515625,0.40625
262344,-0.65625,-0.515625,0.25,0.515625,0.40625
263056,-0.65625,-0.515625,0.25,0.515625,0.40625
114824,-0.65625,-0.515625,0.25,0.515625,0.40625
115080,-0.65625,-0.515625,0.25,0.515625,0.40625
115280,-0.65625,-0.515625,0.25,0.515625,0.40625
115528,-0.65625,-0.515625,0.25,0.515625,0.40625
107536,-0.65625,-0.515625,0.25,0.515625,0.40625
107784,-0.65625,-0.515625,0.25,0.515625,0.40625
58440,-0.65625,-0.515625,0.25,0.515625,0.40625
58184,-0.65625,-0.515625,0.25,0.515625,0.40625
50192,-0.65625,-0.515625,0.25,0.515625,0.40625
49928,-0.65625,-0.515625,0.25,0.515625,0.40625
49608,-0.65625,-0.515625,0.25,0.515625,0.40625
49360,-0.65625,-0.515625,0.25,0.515625,0.40625
197576,-0.65625,-0.515625,0.25,0.515625,0.40625
196760,-0.65625,-0.515625,0.25,0.515625,0.40625
262352,-0.65625,-0.515625,0.25,0.515625,0.40625
262608,-0.65625,-0.515625,0.25,0.515625,0.40625
262600,-0.65625,-0.515625,0.25,0.515625,0.40625
262864,-0.65625,-0.515625,0.25,0.515625,0.40625
262856,-0.65625,-0.515625,0.25,0.515625,0.40625
114832,-0.65625,-0.515625,0.25,0.515625,0.40625
115088,-0.65625,-0.515625,0.25,0.515625,0.40625
108048,-0.65625,-0.515625,0.25,0.515625,0.40625
108176,-0.65625,-0.515625,0.25,0.515625,0.40625
59152,-0.65625,-0.515625,0.25,0.515625,0.40625
59144,-0.65625,-0.515625,0.25,0.515625,0.40625
58768,-0.65625,-0.515625,0.25,0.515625,0.40625
49616,-0.65625,-0.515625,0.25,0.515625,0.40625
49352,-0.65625,-0.515625,0.25,0.515625,0.40625
197272,-0.65625,-0.515625,0.25,0.515625,0.40625
197280,-0.65625,-0.515625,0.25,0.515625,0.40625
197016,-0.65625,-0.515625,0.25,0.515625,0.40625
197008,-0.65625,-0.515625,0.25,0.515625,0.40625
196752,-0.65625,-0.515625,0.25,0.515625,0.40625
262360,-0.65625,-0.515625,0.25,0.515625,0.40625
262872,-0.65625,-0.515625,0.25,0.515625,0.40625
263112,-0.65625,-0.515625,0.25,0.515625,0.40625
114888,-0.65625,-0.515625,0.25,0.515625,0.40625
115336,-0.65625,-0.515625,0.25,0.515625,0.40625
115536,-0.65625,-0.515625,0.25,0.515625,0.40625
115784,-0.65625,-0.515625,0.25,0.515625,0.40625
108056,-0.65625,-0.515625,0.25,0.515625,0.40625
108296,-0.65625,-0.515625,0.25,0.515625,0.40625
59016,-0.65625,-0.515625,0.25,0.515625,0.40625
58760,-0.65625,-0.515625,0.25,0.515625,0.40625
50440,-0.65625,-0.515625,0.25,0.515625,0.40625
50184,-0.65625,-0.515625,0.25,0.515625,0.40625
49864,-0.65625,-0.515625,0.25,0.515625,0.40625
49296,-0.65625,-0.515625,0.25,0.515625,0.40625
197520,-0.65625,-0.515625,0.25,0.515625,0.40625
197264,-0.65625,-0.515625,0.25,0.515625,0.40625
196744,-0.65625,-0.515625,0.25,0.515625,0.40625
115592,-0.65625,-0.515625,0.25,0.515625,0.40625
50128,-0.65625,-0.515625,0.25,0.515625,0.40625
262408,-0.65625,-0.515625,0.25,0.515625,0.40625
262664,-0.65625,-0.515625,0.25,0.515625,0.40625
262616,-0.65625,-0.515625,0.25,0.515625,0.40625
262880,-0.65625,-0.515625,0.25,0.515625,0.40625
262920,-0.65625,-0.515625,0.25,0.515625,0.40625
263120,-0.65625,-0.515625,0.25,0.515625,0.40625
114896,-0.65625,-0.515625,0.25,0.515625,0.40625
115152,-0.65625,-0.515625,0.25,0.515625,0.40625
115144,-0.65625,-0.515625,0.25,0.515625,0.40625
115400,-0.65625,-0.515625,0.25,0.515625,0.40625
115600,-0.65625,-0.515625,0.25,0.515625,0.40625
115912,-0.65625,-0.515625,0.25,0.515625,0.40625
115848,-0.65625,-0.515625,0.25,0.515625,0.40625
116104,-0.65625,-0.515625,0.25,0.515625,0.40625
116360,-0.65625,-0.515625,0.25,0.515625,0.40625
50960,-0.65625,-0.515625,0.25,0.515625,0.40625
50696,-0.65625,-0.515625,0.25,0.515625,0.40625
50376,-0.65625,-0.515625,0.25,0.515625,0.40625
50320,-0.65625,-0.515625,0.25,0.515625,0.40625
50120,-0.65625,-0.515625,0.25,0.515625,0.40625
49808,-0.65625,-0.515625,0.25,0.515625,0.40625
49544,-0.65625,-0.515625,0.25,0.515625,0.40625
49552,-0.65625,-0.515625,0.25,0.515625,0.40625
49288,-0.65625,-0.515625,0.25,0.515625,0.40625
197512,-0.65625,-0.515625,0.25,0.515625,0.40625
197200,-0.65625,-0.515625,0.25,0.515625,0.40625
197256,-0.65625,-0.515625,0.25,0.515625,0.40625
197000,-0.65625,-0.515625,0.25,0.515625,0.40625
196952,-0.65625,-0.515625,0.25,0.515625,0.40625
196696,-0.65625,-0.515625,0.25,0.515625,0.40625
262416,-0.65625,-0.515625,0.25,0.515625,0.40625
263176,-0.65625,-0.515625,0.25,0.515625,0.40625
114952,-0.65625,-0.515625,0.25,0.515625,0.40625
115408,-0.65625,-0.515625,0.25,0.515625,0.40625
115656,-0.65625,-0.515625,0.25,0.515625,0.40625
115920,-0.65625,-0.515625,0.25,0.515625,0.40625
116368,-0.65625,-0.515625,0.25,0.515625,0.40625
50952,-0.65625,-0.515625,0.25,0.515625,0.40625
50312,-0.65625,-0.515625,0.25,0.515625,0.40625
50056,-0.65625,-0.515625,0.25,0.515625,0.40625
49800,-0.65625,-0.515625,0.25,0.515625,0.40625
49224,-0.65625,-0.515625,0.25,0.515625,0.40625
197456,-0.65625,-0.515625,0.25,0.515625,0.40625
196688,-0.65625,-0.515625,0.25,0.515625,0.40625
262680,-0.65625,-0.515625,0.25,0.515625,0.40625
262672,-0.65625,-0.515625,0.25,0.515625,0.40625
262928,-0.65625,-0.515625,0.25,0.515625,0.40625
114960,-0.65625,-0.515625,0.25,0.515625,0.40625
115216,-0.65625,-0.515625,0.25,0.515625,0.40625
115208,-0.65625,-0.515625,0.25,0.515625,0.40625
116232,-0.65625,-0.515625,0.25,0.515625,0.40625
116488,-0.65625,-0.515625,0.25,0.515625,0.40625
50832,-0.65625,-0.515625,0.25,0.515625,0.40625
50568,-0.65625,-0.515625,0.25,0.515625,0.40625
49488,-0.65625,-0.515625,0.25,0.515625,0.40625
49496,-0.65625,-0.515625,0.25,0.515625,0.40625
49232,-0.65625,-0.515625,0.25,0.515625,0.40625
197208,-0.65625,-0.515625,0.25,0.515625,0.40625
196944,-0.65625,-0.515625,0.25,0.515625,0.40625
196936,-0.65625,-0.515625,0.25,0.515625,0.40625
262424,-0.65625,-0.515625,0.25,0.515625,0.40625
262936,-0.65625,-0.515625,0.25,0.515625,0.40625
263184,-0.65625,-0.515625,0.25,0.515625,0.40625
115224,-0.65625,-0.515625,0.25,0.515625,0.40625
115464,-0.65625,-0.515625,0.25,0.515625,0.40625
115720,-0.65625,-0.515625,0.25,0.515625,0.40625
115984,-0.65625,-0.515625,0.25,0.515625,0.40625
115976,-0.65625,-0.515625,0.25,0.515625,0.40625
116496,-0.65625,-0.515625,0.25,0.515625,0.40625
50824,-0.65625,-0.515625,0.25,0.515625,0.40625
50256,-0.65625,-0.515625,0.25,0.515625,0.40625
50248,-0.65625,-0.515625,0.25,0.515625,0.40625
49992,-0.65625,-0.515625,0.25,0.515625,0.40625
49736,-0.65625,-0.515625,0.25,0.515625,0.40625
49480,-0.65625,-0.515625,0.25,0.515625,0.40625
197448,-0.65625,-0.515625,0.25,0.515625,0.40625
197192,-0.65625,-0.515625,0.25,0.515625,0.40625
196680,-0.65625,-0.515625,0.25,0.515625,0.40625
270408,-0.65625,-0.515625,0.25,0.515625,0.40625
270672,-0.65625,-0.515625,0.25,0.515625,0.40625
270664,-0.65625,-0.515625,0.25,0.515625,0.40625
270928,-0.65625,-0.515625,0.25,0.515625,0.40625
270920,-0.65625,-0.515625,0.25,0.515625,0.40625
271176,-0.65625,-0.515625,0.25,0.515625,0.40625
122960,-0.65625,-0.515625,0.25,0.515625,0.40625
122952,-0.65625,-0.515625,0.25,0.515625,0.40625
123216,-0.65625,-0.515625,0.25,0.515625,0.40625
123208,-0.65625,-0.515625,0.25,0.515625,0.40625
123464,-0.65625,-0.515625,0.25,0.515625,0.40625
123976,-0.65625,-0.515625,0.25,0.515625,0.40625
124296,-0.65625,-0.515625,0.25,0.515625,0.40625
124552,-0.65625,-0.515625,0.25,0.515625,0.40625
42768,-0.65625,-0.515625,0.25,0.515625,0.40625
42504,-0.65625,-0.515625,0.25,0.515625,0.40625
42256,-0.65625,-0.515625,0.25,0.515625,0.40625
42248,-0.65625,-0.515625,0.25,0.515625,0.40625
41992,-0.65625,-0.515625,0.25,0.515625,0.40625
41736,-0.65625,-0.515625,0.25,0.515625,0.40625
41488,-0.65625,-0.515625,0.25,0.515625,0.40625
41496,-0.65625,-0.515625,0.25,0.515625,0.40625
41232,-0.65625,-0.515625,0.25,0.515625,0.40625
41224,-0.65625,-0.515625,0.25,0.515625,0.40625
189456,-0.65625,-0.515625,0.25,0.515625,0.40625
189192,-0.65625,-0.515625,0.25,0.515625,0.40625
189208,-0.65625,-0.515625,0.25,0.515625,0.40625
188952,-0.65625,-0.515625,0.25,0.515625,0.40625
188944,-0.65625,-0.515625,0.25,0.515625,0.40625
188696,-0.65625,-0.515625,0.25,0.515625,0.40625
270416,-0.65625,-0.515625,0.25,0.515625,0.40625
270936,-0.65625,-0.515625,0.25,0.515625,0.40625
123224,-0.65625,-0.515625,0.25,0.515625,0.40625
123528,-0.65625,-0.515625,0.25,0.515625,0.40625
124040,-0.65625,-0.515625,0.25,0.515625,0.40625
124560,-0.65625,-0.515625,0.25,0.515625,0.40625
42760,-0.65625,-0.515625,0.25,0.515625,0.40625
42192,-0.65625,-0.515625,0.25,0.515625,0.40625
41680,-0.65625,-0.515625,0.25,0.515625,0.40625
41480,-0.65625,-0.515625,0.25,0.515625,0.40625
189200,-0.65625,-0.515625,0.25,0.515625,0.40625
188688,-0.65625,-0.515625,0.25,0.515625,0.40625
270680,-0.65625,-0.515625,0.25,0.515625,0.40625
271184,-0.65625,-0.515625,0.25,0.515625,0.40625
123272,-0.65625,-0.515625,0.25,0.515625,0.40625
124424,-0.65625,-0.515625,0.25,0.515625,0.40625
124680,-0.65625,-0.515625,0.25,0.515625,0.40625
42640,-0.65625,-0.515625,0.25,0.515625,0.40625
42376,-0.65625,-0.515625,0.25,0.515625,0.40625
42184,-0.65625,-0.515625,0.25,0.515625,0.40625
41928,-0.65625,-0.515625,0.25,0.515625,0.40625
41424,-0.65625,-0.515625,0.25,0.515625,0.40625
189448,-0.65625,-0.515625,0.25,0.515625,0.40625
188936,-0.65625,-0.515625,0.25,0.515625,0.40625
270424,-0.65625,-0.515625,0.25,0.515625,0.40625
270728,-0.65625,-0.515625,0.25,0.515625,0.40625
270984,-0.65625,-0.515625,0.25,0.515625,0.40625
271240,-0.65625,-0.515625,0.25,0.515625,0.40625
123016,-0.65625,-0.515625,0.25,0.515625,0.40625
123280,-0.65625,-0.515625,0.25,0.515625,0.40625
123536,-0.65625,-0.515625,0.25,0.515625,0.40625
124104,-0.65625,-0.515625,0.25,0.515625,0.40625
124688,-0.65625,-0.515625,0.25,0.515625,0.40625
42632,-0.65625,-0.515625,0.25,0.515625,0.40625
42120,-0.65625,-0.515625,0.25,0.515625,0.40625
41872,-0.65625,-0.515625,0.25,0.515625,0.40625
41672,-0.65625,-0.515625,0.25,0.515625,0.40625
41416,-0.65625,-0.515625,0.25,0.515625,0.40625
41168,-0.65625,-0.515625,0.25,0.515625,0.40625
189392,-0.65625,-0.515625,0.25,0.515625,0.40625
189152,-0.65625,-0.515625,0.25,0.515625,0.40625
188888,-0.65625,-0.515625,0.25,0.515625,0.40625
188680,-0.65625,-0.515625,0.25,0.515625,0.40625
270472,-0.65625,-0.515625,0.25,0.515625,0.40625
270744,-0.65625,-0.515625,0.25,0.515625,0.40625
270736,-0.65625,-0.515625,0.25,0.515625,0.40625
271000,-0.65625,-0.515625,0.25,0.515625,0.40625
270992,-0.65625,-0.515625,0.25,0.515625,0.40625
271248,-0.65625,-0.515625,0.25,0.515625,0.40625
123024,-0.65625,-0.515625,0.25,0.515625,0.40625
123344,-0.65625,-0.515625,0.25,0.515625,0.40625
123336,-0.65625,-0.515625,0.25,0.515625,0.40625
123592,-0.65625,-0.515625,0.25,0.515625,0.40625
123856,-0.65625,-0.515625,0.25,0.515625,0.40625
124168,-0.65625,-0.515625,0.25,0.515625,0.40625
132496,-0.65625,-0.515625,0.25,0.515625,0.40625
132488,-0.65625,-0.515625,0.25,0.515625,0.40625
132744,-0.65625,-0.515625,0.25,0.515625,0.40625
34568,-0.65625,-0.515625,0.25,0.515625,0.40625
34320,-0.65625,-0.515625,0.25,0.515625,0.40625
34328,-0.65625,-0.515625,0.25,0.515625,0.40625
42056,-0.65625,-0.515625,0.25,0.515625,0.40625
41864,-0.65625,-0.515625,0.25,0.515625,0.40625
41608,-0.65625,-0.515625,0.25,0.515625,0.40625
41360,-0.65625,-0.515625,0.25,0.515625,0.40625
41352,-0.65625,-0.515625,0.25,0.515625,0.40625
41160,-0.65625,-0.515625,0.25,0.515625,0.40625
189384,-0.65625,-0.515625,0.25,0.515625,0.40625
189136,-0.65625,-0.515625,0.25,0.515625,0.40625
189144,-0.65625,-0.515625,0.25,0.515625,0.40625
188880,-0.65625,-0.515625,0.25,0.515625,0.40625
188872,-0.65625,-0.515625,0.25,0.515625,0.40625
188632,-0.65625,-0.515625,0.25,0.515625,0.40625
270480,-0.65625,-0.515625,0.25,0.515625,0.40625
271008,-0.65625,-0.515625,0.25,0.515625,0.40625
271304,-0.65625,-0.515625,0.25,0.515625,0.40625
123080,-0.65625,-0.515625,0.25,0.515625,0.40625
123656,-0.65625,-0.515625,0.25,0.515625,0.40625
123912,-0.65625,-0.515625,0.25,0.515625,0.40625
132872,-0.65625,-0.515625,0.25,0.515625,0.40625
34448,-0.65625,-0.515625,0.25,0.515625,0.40625
41808,-0.65625,-0.515625,0.25,0.515625,0.40625
41552,-0.65625,-0.515625,0.25,0.515625,0.40625
41104,-0.65625,-0.515625,0.25,0.515625,0.40625
189328,-0.65625,-0.515625,0.25,0.515625,0.40625
189128,-0.65625,-0.515625,0.25,0.515625,0.40625
188624,-0.65625,-0.515625,0.25,0.515625,0.40625
271048,-0.65625,-0.515625,0.25,0.515625,0.40625
123088,-0.65625,-0.515625,0.25,0.515625,0.40625
123400,-0.65625,-0.515625,0.25,0.515625,0.40625
123920,-0.65625,-0.515625,0.25,0.515625,0.40625
131912,-0.65625,-0.515625,0.25,0.515625,0.40625
132168,-0.65625,-0.515625,0.25,0.515625,0.40625
132504,-0.65625,-0.515625,0.25,0.515625,0.40625
26376,-0.65625,-0.515625,0.25,0.515625,0.40625
34312,-0.65625,-0.515625,0.25,0.515625,0.40625
34056,-0.65625,-0.515625,0.25,0.515625,0.40625
33808,-0.65625,-0.515625,0.25,0.515625,0.40625
41800,-0.65625,-0.515625,0.25,0.515625,0.40625
41288,-0.65625,-0.515625,0.25,0.515625,0.40625
41096,-0.65625,-0.515625,0.25,0.515625,0.40625
189080,-0.65625,-0.515625,0.25,0.515625,0.40625
270488,-0.65625,-0.515625,0.25,0.515625,0.40625
270792,-0.65625,-0.515625,0.25,0.515625,0.40625
271056,-0.65625,-0.515625,0.25,0.515625,0.40625
271312,-0.65625,-0.515625,0.25,0.515625,0.40625
123664,-0.65625,-0.515625,0.25,0.515625,0.40625
132232,-0.65625,-0.515625,0.25,0.515625,0.40625
132616,-0.65625,-0.515625,0.25,0.515625,0.40625
132888,-0.65625,-0.515625,0.25,0.515625,0.40625
140936,-0.65625,-0.515625,0.25,0.515625,0.40625
34440,-0.65625,-0.515625,0.25,0.515625,0.40625
34192,-0.65625,-0.515625,0.25,0.515625,0.40625
33992,-0.65625,-0.515625,0.25,0.515625,0.40625
41544,-0.65625,-0.515625,0.25,0.515625,0.40625
189320,-0.65625,-0.515625,0.25,0.515625,0.40625
189072,-0.65625,-0.515625,0.25,0.515625,0.40625
188816,-0.65625,-0.515625,0.25,0.515625,0.40625
188616,-0.65625,-0.515625,0.25,0.515625,0.40625
270536,-0.65625,-0.515625,0.25,0.515625,0.40625
123144,-0.65625,-0.515625,0.25,0.515625,0.40625
131920,-0.65625,-0.515625,0.25,0.515625,0.40625
26264,-0.65625,-0.515625,0.25,0.515625,0.40625
33800,-0.65625,-0.515625,0.25,0.515625,0.40625
41048,-0.65625,-0.515625,0.25,0.515625,0.40625
188560,-0.65625,-0.515625,0.25,0.515625,0.40625
270544,-0.65625,-0.515625,0.25,0.515625,0.40625
270800,-0.65625,-0.515625,0.25,0.515625,0.40625
271064,-0.65625,-0.515625,0.25,0.515625,0.40625
271112,-0.65625,-0.515625,0.25,0.515625,0.40625
271368,-0.65625,-0.515625,0.25,0.515625,0.40625
123152,-0.65625,-0.515625,0.25,0.515625,0.40625
131408,-0.65625,-0.515625,0.25,0.515625,0.40625
131664,-0.65625,-0.515625,0.25,0.515625,0.40625
131656,-0.65625,-0.515625,0.25,0.515625,0.40625
131976,-0.65625,-0.515625,0.25,0.515625,0.40625
132296,-0.65625,-0.515625,0.25,0.515625,0.40625
132360,-0.65625,-0.515625,0.25,0.515625,0.40625
140688,-0.65625,-0.515625,0.25,0.515625,0.40625
141072,-0.65625,-0.515625,0.25,0.515625,0.40625
149128,-0.65625,-0.515625,0.25,0.515625,0.40625
18184,-0.65625,-0.515625,0.25,0.515625,0.40625
26256,-0.65625,-0.515625,0.25,0.515625,0.40625
26128,-0.65625,-0.515625,0.25,0.515625,0.40625
34184,-0.65625,-0.515625,0.25,0.515625,0.40625
33864,-0.65625,-0.515625,0.25,0.515625,0.40625
33928,-0.65625,-0.515625,0.25,0.515625,0.40625
33736,-0.65625,-0.515625,0.25,0.515625,0.40625
33552,-0.65625,-0.515625,0.25,0.515625,0.40625
33544,-0.65625,-0.515625,0.25,0.515625,0.40625
33296,-0.65625,-0.515625,0.25,0.515625,0.40625
41040,-0.65625,-0.515625,0.25,0.515625,0.40625
189264,-0.65625,-0.515625,0.25,0.515625,0.40625
189016,-0.65625,-0.515625,0.25,0.515625,0.40625
189064,-0.65625,-0.515625,0.25,0.515625,0.40625
188808,-0.65625,-0.515625,0.25,0.515625,0.40625
188552,-0.65625,-0.515625,0.25,0.515625,0.40625
271376,-0.65625,-0.515625,0.25,0.515625,0.40625
123160,-0.65625,-0.515625,0.25,0.515625,0.40625
131144,-0.65625,-0.515625,0.25,0.515625,0.40625
131400,-0.65625,-0.515625,0.25,0.515625,0.40625
132040,-0.65625,-0.515625,0.25,0.515625,0.40625
140360,-0.65625,-0.515625,0.25,0.515625,0.40625
140680,-0.65625,-0.515625,0.25,0.515625,0.40625
141064,-0.65625,-0.515625,0.25,0.515625,0.40625
149264,-0.65625,-0.515625,0.25,0.515625,0.40625
9872,-0.65625,-0.515625,0.25,0.515625,0.40625
10000,-0.65625,-0.515625,0.25,0.515625,0.40625
18064,-0.65625,-0.515625,0.25,0.515625,0.40625
26248,-0.65625,-0.515625,0.25,0.515625,0.40625
33680,-0.65625,-0.515625,0.25,0.515625,0.40625
33288,-0.65625,-0.515625,0.25,0.515625,0.40625
33040,-0.65625,-0.515625,0.25,0.515625,0.40625
41032,-0.65625,-0.515625,0.25,0.515625,0.40625
189256,-0.65625,-0.515625,0.25,0.515625,0.40625
270600,-0.65625,-0.515625,0.25,0.515625,0.40625
270856,-0.65625,-0.515625,0.25,0.515625,0.40625
271128,-0.65625,-0.515625,0.25,0.515625,0.40625
271120,-0.65625,-0.515625,0.25,0.515625,0.40625
279368,-0.65625,-0.515625,0.25,0.515625,0.40625
131464,-0.65625,-0.515625,0.25,0.515625,0.40625
131720,-0.65625,-0.515625,0.25,0.515625,0.40625
132048,-0.65625,-0.515625,0.25,0.515625,0.40625
140368,-0.65625,-0.515625,0.25,0.515625,0.40625
140816,-0.65625,-0.515625,0.25,0.515625,0.40625
140808,-0.65625,-0.515625,0.25,0.515625,0.40625
149256,-0.65625,-0.515625,0.25,0.515625,0.40625
18056,-0.65625,-0.515625,0.25,0.515625,0.40625
25992,-0.65625,-0.515625,0.25,0.515625,0.40625
26120,-0.65625,-0.515625,0.25,0.515625,0.40625
25872,-0.65625,-0.515625,0.25,0.515625,0.40625
25864,-0.65625,-0.515625,0.25,0.515625,0.40625
33672,-0.65625,-0.515625,0.25,0.515625,0.40625
33480,-0.65625,-0.515625,0.25,0.515625,0.40625
33232,-0.65625,-0.515625,0.25,0.515625,0.40625
181272,-0.65625,-0.515625,0.25,0.515625,0.40625
189008,-0.65625,-0.515625,0.25,0.515625,0.40625
189000,-0.65625,-0.515625,0.25,0.515625,0.40625
188760,-0.65625,-0.515625,0.25,0.515625,0.40625
188488,-0.65625,-0.515625,0.25,0.515625,0.40625
270864,-0.65625,-0.515625,0.25,0.515625,0.40625
279376,-0.65625,-0.515625,0.25,0.515625,0.40625
131152,-0.65625,-0.515625,0.25,0.515625,0.40625
131784,-0.65625,-0.515625,0.25,0.515625,0.40625
132104,-0.65625,-0.515625,0.25,0.515625,0.40625
140432,-0.65625,-0.515625,0.25,0.515625,0.40625
148888,-0.65625,-0.515625,0.25,0.515625,0.40625
9864,-0.65625,-0.515625,0.25,0.515625,0.40625
9992,-0.65625,-0.515625,0.25,0.515625,0.40625
17944,-0.65625,-0.515625,0.25,0.515625,0.40625
25808,-0.65625,-0.515625,0.25,0.515625,0.40625
33608,-0.65625,-0.515625,0.25,0.515625,0.40625
33424,-0.65625,-0.515625,0.25,0.515625,0.40625
33032,-0.65625,-0.515625,0.25,0.515625,0.40625
181264,-0.65625,-0.515625,0.25,0.515625,0.40625
188752,-0.65625,-0.515625,0.25,0.515625,0.40625
131472,-0.65625,-0.515625,0.25,0.515625,0.40625
33224,-0.65625,-0.515625,0.25,0.515625,0.40625
270872,-0.65625,-0.515625,0.25,0.515625,0.40625
278864,-0.65625,-0.515625,0.25,0.515625,0.40625
279112,-0.65625,-0.515625,0.25,0.515625,0.40625
279384,-0.65625,-0.515625,0.25,0.515625,0.40625
279432,-0.65625,-0.515625,0.25,0.515625,0.40625
131216,-0.65625,-0.515625,0.25,0.515625,0.40625
131208,-0.65625,-0.515625,0.25,0.515625,0.40625
131528,-0.65625,-0.515625,0.25,0.515625,0.40625
131792,-0.65625,-0.515625,0.25,0.515625,0.40625
131848,-0.65625,-0.515625,0.25,0.515625,0.40625
140104,-0.65625,-0.515625,0.25,0.515625,0.40625
140424,-0.65625,-0.515625,0.25,0.515625,0.40625
140488,-0.65625,-0.515625,0.25,0.515625,0.40625
148880,-0.65625,-0.515625,0.25,0.515625,0.40625
149000,-0.65625,-0.515625,0.25,0.515625,0.40625
9608,-0.65625,-0.515625,0.25,0.515625,0.40625
9736,-0.65625,-0.515625,0.25,0.515625,0.40625
17800,-0.65625,-0.515625,0.25,0.515625,0.40625
17936,-0.65625,-0.515625,0.25,0.515625,0.40625
25736,-0.65625,-0.515625,0.25,0.515625,0.40625
25800,-0.65625,-0.515625,0.25,0.515625,0.40625
25552,-0.65625,-0.515625,0.25,0.515625,0.40625
25608,-0.65625,-0.515625,0.25,0.515625,0.40625
33360,-0.65625,-0.515625,0.25,0.515625,0.40625
33416,-0.65625,-0.515625,0.25,0.515625,0.40625
33160,-0.65625,-0.515625,0.25,0.515625,0.40625
32976,-0.65625,-0.515625,0.25,0.515625,0.40625
32968,-0.65625,-0.515625,0.25,0.515625,0.40625
181208,-0.65625,-0.515625,0.25,0.515625,0.40625
181256,-0.65625,-0.515625,0.25,0.515625,0.40625
181008,-0.65625,-0.515625,0.25,0.515625,0.40625
180760,-0.65625,-0.515625,0.25,0.515625,0.40625
188744,-0.65625,-0.515625,0.25,0.515625,0.40625
279120,-0.65625,-0.515625,0.25,0.515625,0.40625
279440,-0.65625,-0.515625,0.25,0.515625,0.40625
131272,-0.65625,-0.515625,0.25,0.515625,0.40625
131856,-0.65625,-0.515625,0.25,0.515625,0.40625
139848,-0.65625,-0.515625,0.25,0.515625,0.40625
140112,-0.65625,-0.515625,0.25,0.515625,0.40625
140168,-0.65625,-0.515625,0.25,0.515625,0.40625
140552,-0.65625,-0.515625,0.25,0.515625,0.40625
148872,-0.65625,-0.515625,0.25,0.515625,0.40625
148552,-0.65625,-0.515625,0.25,0.515625,0.40625
17928,-0.65625,-0.515625,0.25,0.515625,0.40625
17672,-0.65625,-0.515625,0.25,0.515625,0.40625
25672,-0.65625,-0.515625,0.25,0.515625,0.40625
25360,-0.65625,-0.515625,0.25,0.515625,0.40625
33352,-0.65625,-0.515625,0.25,0.515625,0.40625
32912,-0.65625,-0.515625,0.25,0.515625,0.40625
181200,-0.65625,-0.515625,0.25,0.515625,0.40625
181000,-0.65625,-0.515625,0.25,0.515625,0.40625
278600,-0.65625,-0.515625,0.25,0.515625,0.40625
278872,-0.65625,-0.515625,0.25,0.515625,0.40625
279176,-0.65625,-0.515625,0.25,0.515625,0.40625
279448,-0.65625,-0.515625,0.25,0.515625,0.40625
131600,-0.65625,-0.515625,0.25,0.515625,0.40625
131592,-0.65625,-0.515625,0.25,0.515625,0.40625
140232,-0.65625,-0.515625,0.25,0.515625,0.40625
148616,-0.65625,-0.515625,0.25,0.515625,0.40625
148680,-0.65625,-0.515625,0.25,0.515625,0.40625
148744,-0.65625,-0.515625,0.25,0.515625,0.40625
9296,-0.65625,-0.515625,0.25,0.515625,0.40625
9360,-0.65625,-0.515625,0.25,0.515625,0.40625
9424,-0.65625,-0.515625,0.25,0.515625,0.40625
9488,-0.65625,-0.515625,0.25,0.515625,0.40625
17480,-0.65625,-0.515625,0.25,0.515625,0.40625
17544,-0.65625,-0.515625,0.25,0.515625,0.40625
17608,-0.65625,-0.515625,0.25,0.515625,0.40625
25480,-0.65625,-0.515625,0.25,0.515625,0.40625
25544,-0.65625,-0.515625,0.25,0.515625,0.40625
33096,-0.65625,-0.515625,0.25,0.515625,0.40625
33104,-0.65625,-0.515625,0.25,0.515625,0.40625
181192,-0.65625,-0.515625,0.25,0.515625,0.40625
180952,-0.65625,-0.515625,0.25,0.515625,0.40625
180752,-0.65625,-0.515625,0.25,0.515625,0.40625
180488,-0.65625,-0.515625,0.25,0.515625,0.40625
278856,-0.65625,-0.515625,0.25,0.515625,0.40625
279496,-0.65625,-0.515625,0.25,0.515625,0.40625
131280,-0.65625,-0.515625,0.25,0.515625,0.40625
139856,-0.65625,-0.515625,0.25,0.515625,0.40625
139920,-0.65625,-0.515625,0.25,0.515625,0.40625
140304,-0.65625,-0.515625,0.25,0.515625,0.40625
25424,-0.65625,-0.515625,0.25,0.515625,0.40625
25296,-0.65625,-0.515625,0.25,0.515625,0.40625
25352,-0.65625,-0.515625,0.25,0.515625,0.40625
32904,-0.65625,-0.515625,0.25,0.515625,0.40625
181136,-0.65625,-0.515625,0.25,0.515625,0.40625
180744,-0.65625,-0.515625,0.25,0.515625,0.40625
279184,-0.65625,-0.515625,0.25,0.515625,0.40625
180944,-0.65625,-0.515625,0.25,0.515625,0.40625
278664,-0.65625,-0.515625,0.25,0.515625,0.40625
278928,-0.65625,-0.515625,0.25,0.515625,0.40625
278920,-0.65625,-0.515625,0.25,0.515625,0.40625
279192,-0.65625,-0.515625,0.25,0.515625,0.40625
279240,-0.65625,-0.515625,0.25,0.515625,0.40625
279504,-0.65625,-0.515625,0.25,0.515625,0.40625
131336,-0.65625,-0.515625,0.25,0.515625,0.40625
139600,-0.65625,-0.515625,0.25,0.515625,0.40625
139912,-0.65625,-0.515625,0.25,0.515625,0.40625
139984,-0.65625,-0.515625,0.25,0.515625,0.40625
140296,-0.65625,-0.515625,0.25,0.515625,0.40625
148296,-0.65625,-0.515625,0.25,0.515625,0.40625
148368,-0.65625,-0.515625,0.25,0.515625,0.40625
148432,-0.65625,-0.515625,0.25,0.515625,0.40625
148496,-0.65625,-0.515625,0.25,0.515625,0.40625
9288,-0.65625,-0.515625,0.25,0.515625,0.40625
9352,-0.65625,-0.515625,0.25,0.515625,0.40625
9416,-0.65625,-0.515625,0.25,0.515625,0.40625
9480,-0.65625,-0.515625,0.25,0.515625,0.40625
17224,-0.65625,-0.515625,0.25,0.515625,0.40625
17296,-0.65625,-0.515625,0.25,0.515625,0.40625
17360,-0.65625,-0.515625,0.25,0.515625,0.40625
17416,-0.65625,-0.515625,0.25,0.515625,0.40625
25416,-0.65625,-0.515625,0.25,0.515625,0.40625
25232,-0.65625,-0.515625,0.25,0.515625,0.40625
25288,-0.65625,-0.515625,0.25,0.515625,0.40625
25040,-0.65625,-0.515625,0.25,0.515625,0.40625
25096,-0.65625,-0.515625,0.25,0.515625,0.40625
32848,-0.65625,-0.515625,0.25,0.515625,0.40625
181128,-0.65625,-0.515625,0.25,0.515625,0.40625
180888,-0.65625,-0.515625,0.25,0.515625,0.40625
180936,-0.65625,-0.515625,0.25,0.515625,0.40625
180688,-0.65625,-0.515625,0.25,0.515625,0.40625
180696,-0.65625,-0.515625,0.25,0.515625,0.40625
180440,-0.65625,-0.515625,0.25,0.515625,0.40625
278936,-0.65625,-0.515625,0.25,0.515625,0.40625
279248,-0.65625,-0.515625,0.25,0.515625,0.40625
279560,-0.65625,-0.515625,0.25,0.515625,0.40625
131344,-0.65625,-0.515625,0.25,0.515625,0.40625
139336,-0.65625,-0.515625,0.25,0.515625,0.40625
139592,-0.65625,-0.515625,0.25,0.515625,0.40625
139976,-0.65625,-0.515625,0.25,0.515625,0.40625
140040,-0.65625,-0.515625,0.25,0.515625,0.40625
148488,-0.65625,-0.515625,0.25,0.515625,0.40625
17232,-0.65625,-0.515625,0.25,0.515625,0.40625
25168,-0.65625,-0.515625,0.25,0.515625,0.40625
25224,-0.65625,-0.515625,0.25,0.515625,0.40625
24848,-0.65625,-0.515625,0.25,0.515625,0.40625
24840,-0.65625,-0.515625,0.25,0.515625,0.40625
32840,-0.65625,-0.515625,0.25,0.515625,0.40625
181072,-0.65625,-0.515625,0.25,0.515625,0.40625
180872,-0.65625,-0.515625,0.25,0.515625,0.40625
180680,-0.65625,-0.515625,0.25,0.515625,0.40625
278672,-0.65625,-0.515625,0.25,0.515625,0.40625
278984,-0.65625,-0.515625,0.25,0.515625,0.40625
279256,-0.65625,-0.515625,0.25,0.515625,0.40625
279568,-0.65625,-0.515625,0.25,0.515625,0.40625
139344,-0.65625,-0.515625,0.25,0.515625,0.40625
139656,-0.65625,-0.515625,0.25,0.515625,0.40625
148040,-0.65625,-0.515625,0.25,0.515625,0.40625
148112,-0.65625,-0.515625,0.25,0.515625,0.40625
148360,-0.65625,-0.515625,0.25,0.515625,0.40625
9032,-0.65625,-0.515625,0.25,0.515625,0.40625
9096,-0.65625,-0.515625,0.25,0.515625,0.40625
9160,-0.65625,-0.515625,0.25,0.515625,0.40625
9224,-0.65625,-0.515625,0.25,0.515625,0.40625
17352,-0.65625,-0.515625,0.25,0.515625,0.40625
17104,-0.65625,-0.515625,0.25,0.515625,0.40625
17160,-0.65625,-0.515625,0.25,0.515625,0.40625
25032,-0.65625,-0.515625,0.25,0.515625,0.40625
181064,-0.65625,-0.515625,0.25,0.515625,0.40625
180880,-0.65625,-0.515625,0.25,0.515625,0.40625
180632,-0.65625,-0.515625,0.25,0.515625,0.40625
180432,-0.65625,-0.515625,0.25,0.515625,0.40625
278992,-0.65625,-0.515625,0.25,0.515625,0.40625
279304,-0.65625,-0.515625,0.25,0.515625,0.40625
287560,-0.65625,-0.515625,0.25,0.515625,0.40625
139408,-0.65625,-0.515625,0.25,0.515625,0.40625
139728,-0.65625,-0.515625,0.25,0.515625,0.40625
140048,-0.65625,-0.515625,0.25,0.515625,0.40625
148424,-0.65625,-0.515625,0.25,0.515625,0.40625
17288,-0.65625,-0.515625,0.25,0.515625,0.40625
25160,-0.65625,-0.515625,0.25,0.515625,0.40625
24976,-0.65625,-0.515625,0.25,0.515625,0.40625
24784,-0.65625,-0.515625,0.25,0.515625,0.40625
173072,-0.65625,-0.515625,0.25,0.515625,0.40625
180816,-0.65625,-0.515625,0.25,0.515625,0.40625
180624,-0.65625,-0.515625,0.25,0.515625,0.40625
278680,-0.65625,-0.515625,0.25,0.515625,0.40625
180424,-0.65625,-0.515625,0.25,0.515625,0.40625
278728,-0.65625,-0.515625,0.25,0.515625,0.40625
279000,-0.65625,-0.515625,0.25,0.515625,0.40625
279048,-0.65625,-0.515625,0.25,0.515625,0.40625
279312,-0.65625,-0.515625,0.25,0.515625,0.40625
287304,-0.65625,-0.515625,0.25,0.515625,0.40625
287568,-0.65625,-0.515625,0.25,0.515625,0.40625
139400,-0.65625,-0.515625,0.25,0.515625,0.40625
139472,-0.65625,-0.515625,0.25,0.515625,0.40625
139720,-0.65625,-0.515625,0.25,0.515625,0.40625
139784,-0.65625,-0.515625,0.25,0.515625,0.40625
147792,-0.65625,-0.515625,0.25,0.515625,0.40625
148104,-0.65625,-0.515625,0.25,0.515625,0.40625
148176,-0.65625,-0.515625,0.25,0.515625,0.40625
148232,-0.65625,-0.515625,0.25,0.515625,0.40625
8784,-0.65625,-0.515625,0.25,0.515625,0.40625
8840,-0.65625,-0.515625,0.25,0.515625,0.40625
8904,-0.65625,-0.515625,0.25,0.515625,0.40625
8976,-0.65625,-0.515625,0.25,0.515625,0.40625
16968,-0.65625,-0.515625,0.25,0.515625,0.40625
17040,-0.65625,-0.515625,0.25,0.515625,0.40625
17096,-0.65625,-0.515625,0.25,0.515625,0.40625
16912,-0.65625,-0.515625,0.25,0.515625,0.40625
24904,-0.65625,-0.515625,0.25,0.515625,0.40625
24968,-0.65625,-0.515625,0.25,0.515625,0.40625
24720,-0.65625,-0.515625,0.25,0.515625,0.40625
24776,-0.65625,-0.515625,0.25,0.515625,0.40625
173016,-0.65625,-0.515625,0.25,0.515625,0.40625
173064,-0.65625,-0.515625,0.25,0.515625,0.40625
172824,-0.65625,-0.515625,0.25,0.515625,0.40625
180808,-0.65625,-0.515625,0.25,0.515625,0.40625
180560,-0.65625,-0.515625,0.25,0.515625,0.40625
180616,-0.65625,-0.515625,0.25,0.515625,0.40625
180360,-0.65625,-0.515625,0.25,0.515625,0.40625
279056,-0.65625,-0.515625,0.25,0.515625,0.40625
287312,-0.65625,-0.515625,0.25,0.515625,0.40625
287576,-0.65625,-0.515625,0.25,0.515625,0.40625
287632,-0.65625,-0.515625,0.25,0.515625,0.40625
139536,-0.65625,-0.515625,0.25,0.515625,0.40625
148168,-0.65625,-0.515625,0.25,0.515625,0.40625
8776,-0.65625,-0.515625,0.25,0.515625,0.40625
8968,-0.65625,-0.515625,0.25,0.515625,0.40625
17032,-0.65625,-0.515625,0.25,0.515625,0.40625
24656,-0.65625,-0.515625,0.25,0.515625,0.40625
173008,-0.65625,-0.515625,0.25,0.515625,0.40625
172816,-0.65625,-0.515625,0.25,0.515625,0.40625
180552,-0.65625,-0.515625,0.25,0.515625,0.40625
278800,-0.65625,-0.515625,0.25,0.515625,0.40625
278792,-0.65625,-0.515625,0.25,0.515625,0.40625
279064,-0.65625,-0.515625,0.25,0.515625,0.40625
287320,-0.65625,-0.515625,0.25,0.515625,0.40625
287624,-0.65625,-0.515625,0.25,0.515625,0.40625
139464,-0.65625,-0.515625,0.25,0.515625,0.40625
147784,-0.65625,-0.515625,0.25,0.515625,0.40625
147856,-0.65625,-0.515625,0.25,0.515625,0.40625
16848,-0.65625,-0.515625,0.25,0.515625,0.40625
16904,-0.65625,-0.515625,0.25,0.515625,0.40625
24712,-0.65625,-0.515625,0.25,0.515625,0.40625
173000,-0.65625,-0.515625,0.25,0.515625,0.40625
172808,-0.65625,-0.515625,0.25,0.515625,0.40625
180576,-0.65625,-0.515625,0.25,0.515625,0.40625
180304,-0.65625,-0.515625,0.25,0.515625,0.40625
180296,-0.65625,-0.515625,0.25,0.515625,0.40625
279072,-0.65625,-0.515625,0.25,0.515625,0.40625
287048,-0.65625,-0.515625,0.25,0.515625,0.40625
287384,-0.65625,-0.515625,0.25,0.515625,0.40625
287696,-0.65625,-0.515625,0.25,0.515625,0.40625
139528,-0.65625,-0.515625,0.25,0.515625,0.40625
147536,-0.65625,-0.515625,0.25,0.515625,0.40625
147848,-0.65625,-0.515625,0.25,0.515625,0.40625
147912,-0.65625,-0.515625,0.25,0.515625,0.40625
147984,-0.65625,-0.515625,0.25,0.515625,0.40625
8520,-0.65625,-0.515625,0.25,0.515625,0.40625
8600,-0.65625,-0.515625,0.25,0.515625,0.40625
8664,-0.65625,-0.515625,0.25,0.515625,0.40625
8720,-0.65625,-0.515625,0.25,0.515625,0.40625
16720,-0.65625,-0.515625,0.25,0.515625,0.40625
16776,-0.65625,-0.515625,0.25,0.515625,0.40625
16840,-0.65625,-0.515625,0.25,0.515625,0.40625
16656,-0.65625,-0.515625,0.25,0.515625,0.40625
24648,-0.65625,-0.515625,0.25,0.515625,0.40625
172944,-0.65625,-0.515625,0.25,0.515625,0.40625
172760,-0.65625,-0.515625,0.25,0.515625,0.40625
172584,-0.65625,-0.515625,0.25,0.515625,0.40625
180568,-0.65625,-0.515625,0.25,0.515625,0.40625
287064,-0.65625,-0.515625,0.25,0.515625,0.40625
287056,-0.65625,-0.515625,0.25,0.515625,0.40625
287144,-0.65625,-0.515625,0.25,0.515625,0.40625
287376,-0.65625,-0.515625,0.25,0.515625,0.40625
287688,-0.65625,-0.515625,0.25,0.515625,0.40625
287760,-0.65625,-0.515625,0.25,0.515625,0.40625
287752,-0.65625,-0.515625,0.25,0.515625,0.40625
147528,-0.65625,-0.515625,0.25,0.515625,0.40625
147600,-0.65625,-0.515625,0.25,0.515625,0.40625
147672,-0.65625,-0.515625,0.25,0.515625,0.40625
147656,-0.65625,-0.515625,0.25,0.515625,0.40625
147976,-0.65625,-0.515625,0.25,0.515625,0.40625
8528,-0.65625,-0.515625,0.25,0.515625,0.40625
8592,-0.65625,-0.515625,0.25,0.515625,0.40625
8656,-0.65625,-0.515625,0.25,0.515625,0.40625
8712,-0.65625,-0.515625,0.25,0.515625,0.40625
16712,-0.65625,-0.515625,0.25,0.515625,0.40625
16528,-0.65625,-0.515625,0.25,0.515625,0.40625
16536,-0.65625,-0.515625,0.25,0.515625,0.40625
16592,-0.65625,-0.515625,0.25,0.515625,0.40625
16648,-0.65625,-0.515625,0.25,0.515625,0.40625
172872,-0.65625,-0.515625,0.25,0.515625,0.40625
172880,-0.65625,-0.515625,0.25,0.515625,0.40625
172936,-0.65625,-0.515625,0.25,0.515625,0.40625
172752,-0.65625,-0.515625,0.25,0.515625,0.40625
172576,-0.65625,-0.515625,0.25,0.515625,0.40625
172560,-0.65625,-0.515625,0.25,0.515625,0.40625
287072,-0.65625,-0.515625,0.25,0.515625,0.40625
287120,-0.65625,-0.515625,0.25,0.515625,0.40625
287368,-0.65625,-0.515625,0.25,0.515625,0.40625
287432,-0.65625,-0.515625,0.25,0.515625,0.40625
295768,-0.65625,-0.515625,0.25,0.515625,0.40625
147592,-0.65625,-0.515625,0.25,0.515625,0.40625
147728,-0.65625,-0.515625,0.25,0.515625,0.40625
8584,-0.65625,-0.515625,0.25,0.515625,0.40625
8648,-0.65625,-0.515625,0.25,0.515625,0.40625
16464,-0.65625,-0.515625,0.25,0.515625,0.40625
16584,-0.65625,-0.515625,0.25,0.515625,0.40625
164888,-0.65625,-0.515625,0.25,0.515625,0.40625
172688,-0.65625,-0.515625,0.25,0.515625,0.40625
172744,-0.65625,-0.515625,0.25,0.515625,0.40625
172504,-0.65625,-0.515625,0.25,0.515625,0.40625
172568,-0.65625,-0.515625,0.25,0.515625,0.40625
286792,-0.65625,-0.515625,0.25,0.515625,0.40625
287136,-0.65625,-0.515625,0.25,0.515625,0.40625
287440,-0.65625,-0.515625,0.25,0.515625,0.40625
287512,-0.65625,-0.515625,0.25,0.515625,0.40625
295760,-0.65625,-0.515625,0.25,0.515625,0.40625
147720,-0.65625,-0.515625,0.25,0.515625,0.40625
8264,-0.65625,-0.515625,0.25,0.515625,0.40625
8464,-0.65625,-0.515625,0.25,0.515625,0.40625
8456,-0.65625,-0.515625,0.25,0.515625,0.40625
16456,-0.65625,-0.515625,0.25,0.515625,0.40625
164880,-0.65625,-0.515625,0.25,0.515625,0.40625
172632,-0.65625,-0.515625,0.25,0.515625,0.40625
172680,-0.65625,-0.515625,0.25,0.515625,0.40625
172512,-0.65625,-0.515625,0.25,0.515625,0.40625
172552,-0.65625,-0.515625,0.25,0.515625,0.40625
172296,-0.65625,-0.515625,0.25,0.515625,0.40625
287200,-0.65625,-0.515625,0.25,0.515625,0.40625
287504,-0.65625,-0.515625,0.25,0.515625,0.40625
295832,-0.65625,-0.515625,0.25,0.515625,0.40625
147664,-0.65625,-0.515625,0.25,0.515625,0.40625
8272,-0.65625,-0.515625,0.25,0.515625,0.40625
8336,-0.65625,-0.515625,0.25,0.515625,0.40625
8400,-0.65625,-0.515625,0.25,0.515625,0.40625
16520,-0.65625,-0.515625,0.25,0.515625,0.40625
164824,-0.65625,-0.515625,0.25,0.515625,0.40625
172624,-0.65625,-0.515625,0.25,0.515625,0.40625
172440,-0.65625,-0.515625,0.25,0.515625,0.40625
172496,-0.65625,-0.515625,0.25,0.515625,0.40625
287128,-0.65625,-0.515625,0.25,0.515625,0.40625
295752,-0.65625,-0.515625,0.25,0.515625,0.40625
164872,-0.65625,-0.515625,0.25,0.515625,0.40625
286856,-0.65625,-0.515625,0.25,0.515625,0.40625
287112,-0.65625,-0.515625,0.25,0.515625,0.40625
287192,-0.65625,-0.515625,0.25,0.515625,0.40625
287496,-0.65625,-0.515625,0.25,0.515625,0.40625
295504,-0.65625,-0.515625,0.25,0.515625,0.40625
295512,-0.65625,-0.515625,0.25,0.515625,0.40625
295824,-0.65625,-0.515625,0.25,0.515625,0.40625
295816,-0.65625,-0.515625,0.25,0.515625,0.40625
295888,-0.65625,-0.515625,0.25,0.515625,0.40625
295952,-0.65625,-0.515625,0.25,0.515625,0.40625
156496,-0.65625,-0.515625,0.25,0.515625,0.40625
156488,-0.65625,-0.515625,0.25,0.515625,0.40625
8328,-0.65625,-0.515625,0.25,0.515625,0.40625
8392,-0.65625,-0.515625,0.25,0.515625,0.40625
156680,-0.65625,-0.515625,0.25,0.515625,0.40625
156688,-0.65625,-0.515625,0.25,0.515625,0.40625
164688,-0.65625,-0.515625,0.25,0.515625,0.40625
164752,-0.65625,-0.515625,0.25,0.515625,0.40625
164808,-0.65625,-0.515625,0.25,0.515625,0.40625
164816,-0.65625,-0.515625,0.25,0.515625,0.40625
164632,-0.65625,-0.515625,0.25,0.515625,0.40625
164624,-0.65625,-0.515625,0.25,0.515625,0.40625
172616,-0.65625,-0.515625,0.25,0.515625,0.40625
172488,-0.65625,-0.515625,0.25,0.515625,0.40625
172232,-0.65625,-0.515625,0.25,0.515625,0.40625
287184,-0.65625,-0.515625,0.25,0.515625,0.40625
287256,-0.65625,-0.515625,0.25,0.515625,0.40625
295880,-0.65625,-0.515625,0.25,0.515625,0.40625
295944,-0.65625,-0.515625,0.25,0.515625,0.40625
156560,-0.65625,-0.515625,0.25,0.515625,0.40625
156624,-0.65625,-0.515625,0.25,0.515625,0.40625
164680,-0.65625,-0.515625,0.25,0.515625,0.40625
164744,-0.65625,-0.515625,0.25,0.515625,0.40625
172376,-0.65625,-0.515625,0.25,0.515625,0.40625
286928,-0.65625,-0.515625,0.25,0.515625,0.40625
287176,-0.65625,-0.515625,0.25,0.515625,0.40625
287248,-0.65625,-0.515625,0.25,0.515625,0.40625
295496,-0.65625,-0.515625,0.25,0.515625,0.40625
295568,-0.65625,-0.515625,0.25,0.515625,0.40625
156552,-0.65625,-0.515625,0.25,0.515625,0.40625
156616,-0.65625,-0.515625,0.25,0.515625,0.40625
164560,-0.65625,-0.515625,0.25,0.515625,0.40625
164616,-0.65625,-0.515625,0.25,0.515625,0.40625
287240,-0.65625,-0.515625,0.25,0.515625,0.40625
295240,-0.65625,-0.515625,0.25,0.515625,0.40625
295560,-0.65625,-0.515625,0.25,0.515625,0.40625
295640,-0.65625,-0.515625,0.25,0.515625,0.40625
295704,-0.65625,-0.515625,0.25,0.515625,0.40625
156256,-0.65625,-0.515625,0.25,0.515625,0.40625
156448,-0.65625,-0.515625,0.25,0.515625,0.40625
164440,-0.65625,-0.515625,0.25,0.515625,0.40625
164504,-0.65625,-0.515625,0.25,0.515625,0.40625
164552,-0.65625,-0.515625,0.25,0.515625,0.40625
164376,-0.65625,-0.515625,0.25,0.515625,0.40625
172368,-0.65625,-0.515625,0.25,0.515625,0.40625
295632,-0.65625,-0.515625,0.25,0.515625,0.40625
156312,-0.65625,-0.515625,0.25,0.515625,0.40625
156376,-0.65625,-0.515625,0.25,0.515625,0.40625
164496,-0.65625,-0.515625,0.25,0.515625,0.40625
286920,-0.65625,-0.515625,0.25,0.515625,0.40625
286984,-0.65625,-0.515625,0.25,0.515625,0.40625
295000,-0.65625,-0.515625,0.25,0.515625,0.40625
295256,-0.65625,-0.515625,0.25,0.515625,0.40625
295320,-0.65625,-0.515625,0.25,0.515625,0.40625
295624,-0.65625,-0.515625,0.25,0.515625,0.40625
295696,-0.65625,-0.515625,0.25,0.515625,0.40625
295688,-0.65625,-0.515625,0.25,0.515625,0.40625
156248,-0.65625,-0.515625,0.25,0.515625,0.40625
156240,-0.65625,-0.515625,0.25,0.515625,0.40625
156304,-0.65625,-0.515625,0.25,0.515625,0.40625
156368,-0.65625,-0.515625,0.25,0.515625,0.40625
156432,-0.65625,-0.515625,0.25,0.515625,0.40625
156440,-0.65625,-0.515625,0.25,0.515625,0.40625
164432,-0.65625,-0.515625,0.25,0.515625,0.40625
164424,-0.65625,-0.515625,0.25,0.515625,0.40625
164488,-0.65625,-0.515625,0.25,0.515625,0.40625
164312,-0.65625,-0.515625,0.25,0.515625,0.40625
164368,-0.65625,-0.515625,0.25,0.515625,0.40625
164120,-0.65625,-0.515625,0.25,0.515625,0.40625
172104,-0.65625,-0.515625,0.25,0.515625,0.40625
172168,-0.65625,-0.515625,0.25,0.515625,0.40625
295248,-0.65625,-0.515625,0.25,0.515625,0.40625
295312,-0.65625,-0.515625,0.25,0.515625,0.40625
295376,-0.65625,-0.515625,0.25,0.515625,0.40625
295384,-0.65625,-0.515625,0.25,0.515625,0.40625
156232,-0.65625,-0.515625,0.25,0.515625,0.40625
156296,-0.65625,-0.515625,0.25,0.515625,0.40625
156360,-0.65625,-0.515625,0.25,0.515625,0.40625
156424,-0.65625,-0.515625,0.25,0.515625,0.40625
164248,-0.65625,-0.515625,0.25,0.515625,0.40625
164232,-0.65625,-0.515625,0.25,0.515625,0.40625
164304,-0.65625,-0.515625,0.25,0.515625,0.40625
164360,-0.65625,-0.515625,0.25,0.515625,0.40625
295304,-0.65625,-0.515625,0.25,0.515625,0.40625
295440,-0.65625,-0.515625,0.25,0.515625,0.40625
295432,-0.65625,-0.515625,0.25,0.515625,0.40625
155984,-0.65625,-0.515625,0.25,0.515625,0.40625
156184,-0.65625,-0.515625,0.25,0.515625,0.40625
164176,-0.65625,-0.515625,0.25,0.515625,0.40625
164168,-0.65625,-0.515625,0.25,0.515625,0.40625
164296,-0.65625,-0.515625,0.25,0.515625,0.40625
294992,-0.65625,-0.515625,0.25,0.515625,0.40625
295048,-0.65625,-0.515625,0.25,0.515625,0.40625
295368,-0.65625,-0.515625,0.25,0.515625,0.40625
155992,-0.65625,-0.515625,0.25,0.515625,0.40625
156056,-0.65625,-0.515625,0.25,0.515625,0.40625
156120,-0.65625,-0.515625,0.25,0.515625,0.40625
156176,-0.65625,-0.515625,0.25,0.515625,0.40625
164240,-0.65625,-0.515625,0.25,0.515625,0.40625
164040,-0.65625,-0.515625,0.25,0.515625,0.40625
164112,-0.65625,-0.515625,0.25,0.515625,0.40625
294984,-0.65625,-0.515625,0.25,0.515625,0.40625
164104,-0.65625,-0.515625,0.25,0.515625,0.40625
295112,-0.65625,-0.515625,0.25,0.515625,0.40625
295184,-0.65625,-0.515625,0.25,0.515625,0.40625
295176,-0.65625,-0.515625,0.25,0.515625,0.40625
155736,-0.65625,-0.515625,0.25,0.515625,0.40625
155976,-0.65625,-0.515625,0.25,0.515625,0.40625
156048,-0.65625,-0.515625,0.25,0.515625,0.40625
156112,-0.65625,-0.515625,0.25,0.515625,0.40625
156168,-0.65625,-0.515625,0.25,0.515625,0.40625
155928,-0.65625,-0.515625,0.25,0.515625,0.40625
163912,-0.65625,-0.515625,0.25,0.515625,0.40625
163920,-0.65625,-0.515625,0.25,0.515625,0.40625
163976,-0.65625,-0.515625,0.25,0.515625,0.40625
156040,-0.65625,-0.515625,0.25,0.515625,0.40625
156104,-0.65625,-0.515625,0.25,0.515625,0.40625
155728,-0.65625,-0.515625,0.25,0.515625,0.40625
155800,-0.65625,-0.515625,0.25,0.515625,0.40625
155864,-0.65625,-0.515625,0.25,0.515625,0.40625
155920,-0.65625,-0.515625,0.25,0.515625,0.40625
155720,-0.65625,-0.515625,0.25,0.515625,0.40625
155792,-0.65625,-0.515625,0.25,0.515625,0.40625
155856,-0.65625,-0.515625,0.25,0.515625,0.40625
155784,-0.65625,-0.515625,0.25,0.515625,0.40625
155848,-0.65625,-0.515625,0.25,0.515625,0.40625
155912,-0.65625,-0.515625,0.25,0.515625,0.40625
680008,-0.65625,-0.515625,0.25,0.515625,0.40625
672008,-0.65625,-0.515625,0.25,0.515625,0.40625
671944,-0.65625,-0.515625,0.25,0.515625,0.40625
671880,-0.65625,-0.515625,0.25,0.515625,0.40625
671816,-0.65625,-0.515625,0.25,0.515625,0.40625
663816,-0.65625,-0.515625,0.25,0.515625,0.40625
672016,-0.65625,-0.515625,0.25,0.515625,0.40625
671952,-0.65625,-0.515625,0.25,0.515625,0.40625
671888,-0.65625,-0.515625,0.25,0.515625,0.40625
671824,-0.65625,-0.515625,0.25,0.515625,0.40625
672024,-0.65625,-0.515625,0.25,0.515625,0.40625
671960,-0.65625,-0.515625,0.25,0.515625,0.40625
671896,-0.65625,-0.515625,0.25,0.515625,0.40625
671832,-0.65625,-0.515625,0.25,0.515625,0.40625
680072,-0.65625,-0.515625,0.25,0.515625,0.40625
680016,-0.65625,-0.515625,0.25,0.515625,0.40625
672264,-0.65625,-0.515625,0.25,0.515625,0.40625
672200,-0.65625,-0.515625,0.25,0.515625,0.40625
672136,-0.65625,-0.515625,0.25,0.515625,0.40625
672072,-0.65625,-0.515625,0.25,0.515625,0.40625
663824,-0.65625,-0.515625,0.25,0.515625,0.40625
663752,-0.65625,-0.515625,0.25,0.515625,0.40625
672208,-0.65625,-0.515625,0.25,0.515625,0.40625
672144,-0.65625,-0.515625,0.25,0.515625,0.40625
680200,-0.65625,-0.515625,0.25,0.515625,0.40625
680136,-0.65625,-0.515625,0.25,0.515625,0.40625
680336,-0.65625,-0.515625,0.25,0.515625,0.40625
680328,-0.65625,-0.515625,0.25,0.515625,0.40625
680272,-0.65625,-0.515625,0.25,0.515625,0.40625
680264,-0.65625,-0.515625,0.25,0.515625,0.40625
672280,-0.65625,-0.515625,0.25,0.515625,0.40625
672272,-0.65625,-0.515625,0.25,0.515625,0.40625
672216,-0.65625,-0.515625,0.25,0.515625,0.40625
672152,-0.65625,-0.515625,0.25,0.515625,0.40625
672088,-0.65625,-0.515625,0.25,0.515625,0.40625
672080,-0.65625,-0.515625,0.25,0.515625,0.40625
664080,-0.65625,-0.515625,0.25,0.515625,0.40625
664072,-0.65625,-0.515625,0.25,0.515625,0.40625
664016,-0.65625,-0.515625,0.25,0.515625,0.40625
664008,-0.65625,-0.515625,0.25,0.515625,0.40625
663688,-0.65625,-0.515625,0.25,0.515625,0.40625
663624,-0.65625,-0.515625,0.25,0.515625,0.40625
680208,-0.65625,-0.515625,0.25,0.515625,0.40625
680392,-0.65625,-0.515625,0.25,0.515625,0.40625
672520,-0.65625,-0.515625,0.25,0.515625,0.40625
672456,-0.65625,-0.515625,0.25,0.515625,0.40625
672392,-0.65625,-0.515625,0.25,0.515625,0.40625
672328,-0.65625,-0.515625,0.25,0.515625,0.40625
664024,-0.65625,-0.515625,0.25,0.515625,0.40625
663944,-0.65625,-0.515625,0.25,0.515625,0.40625
663632,-0.65625,-0.515625,0.25,0.515625,0.40625
680216,-0.65625,-0.515625,0.25,0.515625,0.40625
680456,-0.65625,-0.515625,0.25,0.515625,0.40625
680400,-0.65625,-0.515625,0.25,0.515625,0.40625
680344,-0.65625,-0.515625,0.25,0.515625,0.40625
680528,-0.65625,-0.515625,0.25,0.515625,0.40625
680520,-0.65625,-0.515625,0.25,0.515625,0.40625
672528,-0.65625,-0.515625,0.25,0.515625,0.40625
672336,-0.65625,-0.515625,0.25,0.515625,0.40625
664336,-0.65625,-0.515625,0.25,0.515625,0.40625
664328,-0.65625,-0.515625,0.25,0.515625,0.40625
663952,-0.65625,-0.515625,0.25,0.515625,0.40625
663888,-0.65625,-0.515625,0.25,0.515625,0.40625
663640,-0.65625,-0.515625,0.25,0.515625,0.40625
688264,-0.65625,-0.515625,0.25,0.515625,0.40625
688200,-0.65625,-0.515625,0.25,0.515625,0.40625
680464,-0.65625,-0.515625,0.25,0.515625,0.40625
680584,-0.65625,-0.515625,0.25,0.515625,0.40625
672536,-0.65625,-0.515625,0.25,0.515625,0.40625
672464,-0.65625,-0.515625,0.25,0.515625,0.40625
672400,-0.65625,-0.515625,0.25,0.515625,0.40625
672344,-0.65625,-0.515625,0.25,0.515625,0.40625
664264,-0.65625,-0.515625,0.25,0.515625,0.40625
663896,-0.65625,-0.515625,0.25,0.515625,0.40625
655624,-0.65625,-0.515625,0.25,0.515625,0.40625
655560,-0.65625,-0.515625,0.25,0.515625,0.40625
680408,-0.65625,-0.515625,0.25,0.515625,0.40625
663960,-0.65625,-0.515625,0.25,0.515625,0.40625
688272,-0.65625,-0.515625,0.25,0.515625,0.40625
688464,-0.65625,-0.515625,0.25,0.515625,0.40625
688456,-0.65625,-0.515625,0.25,0.515625,0.40625
680472,-0.65625,-0.515625,0.25,0.515625,0.40625
680712,-0.65625,-0.515625,0.25,0.515625,0.40625
680648,-0.65625,-0.515625,0.25,0.515625,0.40625
680592,-0.65625,-0.515625,0.25,0.515625,0.40625
680536,-0.65625,-0.515625,0.25,0.515625,0.40625
672544,-0.65625,-0.515625,0.25,0.515625,0.40625
672472,-0.65625,-0.515625,0.25,0.515625,0.40625
672408,-0.65625,-0.515625,0.25,0.515625,0.40625
672352,-0.65625,-0.515625,0.25,0.515625,0.40625
664344,-0.65625,-0.515625,0.25,0.515625,0.40625
664272,-0.65625,-0.515625,0.25,0.515625,0.40625
664200,-0.65625,-0.515625,0.25,0.515625,0.40625
664136,-0.65625,-0.515625,0.25,0.515625,0.40625
663880,-0.65625,-0.515625,0.25,0.515625,0.40625
655888,-0.65625,-0.515625,0.25,0.515625,0.40625
655880,-0.65625,-0.515625,0.25,0.515625,0.40625
655568,-0.65625,-0.515625,0.25,0.515625,0.40625
688544,-0.65625,-0.515625,0.25,0.515625,0.40625
680656,-0.65625,-0.515625,0.25,0.515625,0.40625
680600,-0.65625,-0.515625,0.25,0.515625,0.40625
672776,-0.65625,-0.515625,0.25,0.515625,0.40625
672712,-0.65625,-0.515625,0.25,0.515625,0.40625
672648,-0.65625,-0.515625,0.25,0.515625,0.40625
672584,-0.65625,-0.515625,0.25,0.515625,0.40625
664280,-0.65625,-0.515625,0.25,0.515625,0.40625
664208,-0.65625,-0.515625,0.25,0.515625,0.40625
655816,-0.65625,-0.515625,0.25,0.515625,0.40625
688472,-0.65625,-0.515625,0.25,0.515625,0.40625
680720,-0.65625,-0.515625,0.25,0.515625,0.40625
680904,-0.65625,-0.515625,0.25,0.515625,0.40625
680840,-0.65625,-0.515625,0.25,0.515625,0.40625
680776,-0.65625,-0.515625,0.25,0.515625,0.40625
672784,-0.65625,-0.515625,0.25,0.515625,0.40625
672720,-0.65625,-0.515625,0.25,0.515625,0.40625
672656,-0.65625,-0.515625,0.25,0.515625,0.40625
672592,-0.65625,-0.515625,0.25,0.515625,0.40625
664584,-0.65625,-0.515625,0.25,0.515625,0.40625
664520,-0.65625,-0.515625,0.25,0.515625,0.40625
664456,-0.65625,-0.515625,0.25,0.515625,0.40625
664144,-0.65625,-0.515625,0.25,0.515625,0.40625
655896,-0.65625,-0.515625,0.25,0.515625,0.40625
688328,-0.65625,-0.515625,0.25,0.515625,0.40625
688584,-0.65625,-0.515625,0.25,0.515625,0.40625
688520,-0.65625,-0.515625,0.25,0.515625,0.40625
688712,-0.65625,-0.515625,0.25,0.515625,0.40625
680728,-0.65625,-0.515625,0.25,0.515625,0.40625
680912,-0.65625,-0.515625,0.25,0.515625,0.40625
680848,-0.65625,-0.515625,0.25,0.515625,0.40625
680784,-0.65625,-0.515625,0.25,0.515625,0.40625
819400,-0.65625,-0.515625,0.25,0.515625,0.40625
819336,-0.65625,-0.515625,0.25,0.515625,0.40625
664592,-0.65625,-0.515625,0.25,0.515625,0.40625
664528,-0.65625,-0.515625,0.25,0.515625,0.40625
664464,-0.65625,-0.515625,0.25,0.515625,0.40625
664152,-0.65625,-0.515625,0.25,0.515625,0.40625
656136,-0.65625,-0.515625,0.25,0.515625,0.40625
655824,-0.65625,-0.515625,0.25,0.515625,0.40625
655752,-0.65625,-0.515625,0.25,0.515625,0.40625
655496,-0.65625,-0.515625,0.25,0.515625,0.40625
688528,-0.65625,-0.515625,0.25,0.515625,0.40625
655832,-0.65625,-0.515625,0.25,0.515625,0.40625
688392,-0.65625,-0.515625,0.25,0.515625,0.40625
688600,-0.65625,-0.515625,0.25,0.515625,0.40625
688592,-0.65625,-0.515625,0.25,0.515625,0.40625
688536,-0.65625,-0.515625,0.25,0.515625,0.40625
688784,-0.65625,-0.515625,0.25,0.515625,0.40625
688776,-0.65625,-0.515625,0.25,0.515625,0.40625
688720,-0.65625,-0.515625,0.25,0.515625,0.40625
680968,-0.65625,-0.515625,0.25,0.515625,0.40625
680920,-0.65625,-0.515625,0.25,0.515625,0.40625
827536,-0.65625,-0.515625,0.25,0.515625,0.40625
827528,-0.65625,-0.515625,0.25,0.515625,0.40625
827464,-0.65625,-0.515625,0.25,0.515625,0.40625
819472,-0.65625,-0.515625,0.25,0.515625,0.40625
819464,-0.65625,-0.515625,0.25,0.515625,0.40625
819408,-0.65625,-0.515625,0.25,0.515625,0.40625
819344,-0.65625,-0.515625,0.25,0.515625,0.40625
819280,-0.65625,-0.515625,0.25,0.515625,0.40625
819272,-0.65625,-0.515625,0.25,0.515625,0.40625
811272,-0.65625,-0.515625,0.25,0.515625,0.40625
811216,-0.65625,-0.515625,0.25,0.515625,0.40625
811208,-0.65625,-0.515625,0.25,0.515625,0.40625
664472,-0.65625,-0.515625,0.25,0.515625,0.40625
664392,-0.65625,-0.515625,0.25,0.515625,0.40625
656144,-0.65625,-0.515625,0.25,0.515625,0.40625
656080,-0.65625,-0.515625,0.25,0.515625,0.40625
656072,-0.65625,-0.515625,0.25,0.515625,0.40625
655840,-0.65625,-0.515625,0.25,0.515625,0.40625
655768,-0.65625,-0.515625,0.25,0.515625,0.40625
655760,-0.65625,-0.515625,0.25,0.515625,0.40625
655688,-0.65625,-0.515625,0.25,0.515625,0.40625
655432,-0.65625,-0.515625,0.25,0.515625,0.40625
688648,-0.65625,-0.515625,0.25,0.515625,0.40625
688608,-0.65625,-0.515625,0.25,0.515625,0.40625
688728,-0.65625,-0.515625,0.25,0.515625,0.40625
688968,-0.65625,-0.515625,0.25,0.515625,0.40625
680976,-0.65625,-0.515625,0.25,0.515625,0.40625
819656,-0.65625,-0.515625,0.25,0.515625,0.40625
819592,-0.65625,-0.515625,0.25,0.515625,0.40625
664400,-0.65625,-0.515625,0.25,0.515625,0.40625
656392,-0.65625,-0.515625,0.25,0.515625,0.40625
656152,-0.65625,-0.515625,0.25,0.515625,0.40625
655776,-0.65625,-0.515625,0.25,0.515625,0.40625
688656,-0.65625,-0.515625,0.25,0.515625,0.40625
688616,-0.65625,-0.515625,0.25,0.515625,0.40625
688840,-0.65625,-0.515625,0.25,0.515625,0.40625
688976,-0.65625,-0.515625,0.25,0.515625,0.40625
680984,-0.65625,-0.515625,0.25,0.515625,0.40625
827592,-0.65625,-0.515625,0.25,0.515625,0.40625
827544,-0.65625,-0.515625,0.25,0.515625,0.40625
827472,-0.65625,-0.515625,0.25,0.515625,0.40625
819720,-0.65625,-0.515625,0.25,0.515625,0.40625
819536,-0.65625,-0.515625,0.25,0.515625,0.40625
811280,-0.65625,-0.515625,0.25,0.515625,0.40625
811224,-0.65625,-0.515625,0.25,0.515625,0.40625
811144,-0.65625,-0.515625,0.25,0.515625,0.40625
664408,-0.65625,-0.515625,0.25,0.515625,0.40625
656400,-0.65625,-0.515625,0.25,0.515625,0.40625
656008,-0.65625,-0.515625,0.25,0.515625,0.40625
655704,-0.65625,-0.515625,0.25,0.515625,0.40625
688664,-0.65625,-0.515625,0.25,0.515625,0.40625
689032,-0.65625,-0.515625,0.25,0.515625,0.40625
827656,-0.65625,-0.515625,0.25,0.515625,0.40625
827600,-0.65625,-0.515625,0.25,0.515625,0.40625
827720,-0.65625,-0.515625,0.25,0.515625,0.40625
819664,-0.65625,-0.515625,0.25,0.515625,0.40625
819600,-0.65625,-0.515625,0.25,0.515625,0.40625
811528,-0.65625,-0.515625,0.25,0.515625,0.40625
811152,-0.65625,-0.515625,0.25,0.515625,0.40625
811080,-0.65625,-0.515625,0.25,0.515625,0.40625
656328,-0.65625,-0.515625,0.25,0.515625,0.40625
655720,-0.65625,-0.515625,0.25,0.515625,0.40625
688848,-0.65625,-0.515625,0.25,0.515625,0.40625
656016,-0.65625,-0.515625,0.25,0.515625,0.40625
655712,-0.65625,-0.515625,0.25,0.515625,0.40625
696400,-0.65625,-0.515625,0.25,0.515625,0.40625
696392,-0.65625,-0.515625,0.25,0.515625,0.40625
696664,-0.65625,-0.515625,0.25,0.515625,0.40625
688672,-0.65625,-0.515625,0.25,0.515625,0.40625
688912,-0.65625,-0.515625,0.25,0.515625,0.40625
688904,-0.65625,-0.515625,0.25,0.515625,0.40625
688856,-0.65625,-0.515625,0.25,0.515625,0.40625
689096,-0.65625,-0.515625,0.25,0.515625,0.40625
689040,-0.65625,-0.515625,0.25,0.515625,0.40625
835720,-0.65625,-0.515625,0.25,0.515625,0.40625
835656,-0.65625,-0.515625,0.25,0.515625,0.40625
827664,-0.65625,-0.515625,0.25,0.515625,0.40625
827912,-0.65625,-0.515625,0.25,0.515625,0.40625
827848,-0.65625,-0.515625,0.25,0.515625,0.40625
827784,-0.65625,-0.515625,0.25,0.515625,0.40625
827728,-0.65625,-0.515625,0.25,0.515625,0.40625
819728,-0.65625,-0.515625,0.25,0.515625,0.40625
819672,-0.65625,-0.515625,0.25,0.515625,0.40625
819608,-0.65625,-0.515625,0.25,0.515625,0.40625
819528,-0.65625,-0.515625,0.25,0.515625,0.40625
811536,-0.65625,-0.515625,0.25,0.515625,0.40625
811464,-0.65625,-0.515625,0.25,0.515625,0.40625
811400,-0.65625,-0.515625,0.25,0.515625,0.40625
811336,-0.65625,-0.515625,0.25,0.515625,0.40625
811088,-0.65625,-0.515625,0.25,0.515625,0.40625
803080,-0.65625,-0.515625,0.25,0.515625,0.40625
803016,-0.65625,-0.515625,0.25,0.515625,0.40625
656336,-0.65625,-0.515625,0.25,0.515625,0.40625
656264,-0.65625,-0.515625,0.25,0.515625,0.40625
656024,-0.65625,-0.515625,0.25,0.515625,0.40625
655960,-0.65625,-0.515625,0.25,0.515625,0.40625
655696,-0.65625,-0.515625,0.25,0.515625,0.40625
647712,-0.65625,-0.515625,0.25,0.515625,0.40625
647440,-0.65625,-0.515625,0.25,0.515625,0.40625
647432,-0.65625,-0.515625,0.25,0.515625,0.40625
696648,-0.65625,-0.515625,0.25,0.515625,0.40625
696672,-0.65625,-0.515625,0.25,0.515625,0.40625
689104,-0.65625,-0.515625,0.25,0.515625,0.40625
827856,-0.65625,-0.515625,0.25,0.515625,0.40625
811408,-0.65625,-0.515625,0.25,0.515625,0.40625
656272,-0.65625,-0.515625,0.25,0.515625,0.40625
655952,-0.65625,-0.515625,0.25,0.515625,0.40625
647696,-0.65625,-0.515625,0.25,0.515625,0.40625
647704,-0.65625,-0.515625,0.25,0.515625,0.40625
696456,-0.65625,-0.515625,0.25,0.515625,0.40625
688920,-0.65625,-0.515625,0.25,0.515625,0.40625
689160,-0.65625,-0.515625,0.25,0.515625,0.40625
835728,-0.65625,-0.515625,0.25,0.515625,0.40625
835664,-0.65625,-0.515625,0.25,0.515625,0.40625
835912,-0.65625,-0.515625,0.25,0.515625,0.40625
828040,-0.65625,-0.515625,0.25,0.515625,0.40625
827976,-0.65625,-0.515625,0.25,0.515625,0.40625
819976,-0.65625,-0.515625,0.25,0.515625,0.40625
819912,-0.65625,-0.515625,0.25,0.515625,0.40625
819848,-0.65625,-0.515625,0.25,0.515625,0.40625
819784,-0.65625,-0.515625,0.25,0.515625,0.40625
811784,-0.65625,-0.515625,0.25,0.515625,0.40625
811720,-0.65625,-0.515625,0.25,0.515625,0.40625
803336,-0.65625,-0.515625,0.25,0.515625,0.40625
803088,-0.65625,-0.515625,0.25,0.515625,0.40625
803024,-0.65625,-0.515625,0.25,0.515625,0.40625
656280,-0.65625,-0.515625,0.25,0.515625,0.40625
655944,-0.65625,-0.515625,0.25,0.515625,0.40625
647368,-0.65625,-0.515625,0.25,0.515625,0.40625
696712,-0.65625,-0.515625,0.25,0.515625,0.40625
696656,-0.65625,-0.515625,0.25,0.515625,0.40625
696904,-0.65625,-0.515625,0.25,0.515625,0.40625
835784,-0.65625,-0.515625,0.25,0.515625,0.40625
835976,-0.65625,-0.515625,0.25,0.515625,0.40625
827920,-0.65625,-0.515625,0.25,0.515625,0.40625
828104,-0.65625,-0.515625,0.25,0.515625,0.40625
828048,-0.65625,-0.515625,0.25,0.515625,0.40625
819984,-0.65625,-0.515625,0.25,0.515625,0.40625
819792,-0.65625,-0.515625,0.25,0.515625,0.40625
811728,-0.65625,-0.515625,0.25,0.515625,0.40625
811656,-0.65625,-0.515625,0.25,0.515625,0.40625
811344,-0.65625,-0.515625,0.25,0.515625,0.40625
803272,-0.65625,-0.515625,0.25,0.515625,0.40625
802952,-0.65625,-0.515625,0.25,0.515625,0.40625
656208,-0.65625,-0.515625,0.25,0.515625,0.40625
647952,-0.65625,-0.515625,0.25,0.515625,0.40625
647688,-0.65625,-0.515625,0.25,0.515625,0.40625
647640,-0.65625,-0.515625,0.25,0.515625,0.40625
689168,-0.65625,-0.515625,0.25,0.515625,0.40625
696520,-0.65625,-0.515625,0.25,0.515625,0.40625
696720,-0.65625,-0.515625,0.25,0.515625,0.40625
696968,-0.65625,-0.515625,0.25,0.515625,0.40625
696912,-0.65625,-0.515625,0.25,0.515625,0.40625
697168,-0.65625,-0.515625,0.25,0.515625,0.40625
697160,-0.65625,-0.515625,0.25,0.515625,0.40625
689176,-0.65625,-0.515625,0.25,0.515625,0.40625
835856,-0.65625,-0.515625,0.25,0.515625,0.40625
835848,-0.65625,-0.515625,0.25,0.515625,0.40625
835792,-0.65625,-0.515625,0.25,0.515625,0.40625
836040,-0.65625,-0.515625,0.25,0.515625,0.40625
835984,-0.65625,-0.515625,0.25,0.515625,0.40625
836176,-0.65625,-0.515625,0.25,0.515625,0.40625
836168,-0.65625,-0.515625,0.25,0.515625,0.40625
828168,-0.65625,-0.515625,0.25,0.515625,0.40625
828112,-0.65625,-0.515625,0.25,0.515625,0.40625
828360,-0.65625,-0.515625,0.25,0.515625,0.40625
828296,-0.65625,-0.515625,0.25,0.515625,0.40625
828240,-0.65625,-0.515625,0.25,0.515625,0.40625
828232,-0.65625,-0.515625,0.25,0.515625,0.40625
820232,-0.65625,-0.515625,0.25,0.515625,0.40625
820168,-0.65625,-0.515625,0.25,0.515625,0.40625
820104,-0.65625,-0.515625,0.25,0.515625,0.40625
820040,-0.65625,-0.515625,0.25,0.515625,0.40625
812048,-0.65625,-0.515625,0.25,0.515625,0.40625
812040,-0.65625,-0.515625,0.25,0.515625,0.40625
811976,-0.65625,-0.515625,0.25,0.515625,0.40625
811912,-0.65625,-0.515625,0.25,0.515625,0.40625
811664,-0.65625,-0.515625,0.25,0.515625,0.40625
811592,-0.65625,-0.515625,0.25,0.515625,0.40625
803600,-0.65625,-0.515625,0.25,0.515625,0.40625
803592,-0.65625,-0.515625,0.25,0.515625,0.40625
803280,-0.65625,-0.515625,0.25,0.515625,0.40625
803208,-0.65625,-0.515625,0.25,0.515625,0.40625
802960,-0.65625,-0.515625,0.25,0.515625,0.40625
802888,-0.65625,-0.515625,0.25,0.515625,0.40625
656200,-0.65625,-0.515625,0.25,0.515625,0.40625
648200,-0.65625,-0.515625,0.25,0.515625,0.40625
648208,-0.65625,-0.515625,0.25,0.515625,0.40625
647944,-0.65625,-0.515625,0.25,0.515625,0.40625
647888,-0.65625,-0.515625,0.25,0.515625,0.40625
647632,-0.65625,-0.515625,0.25,0.515625,0.40625
647320,-0.65625,-0.515625,0.25,0.515625,0.40625
696528,-0.65625,-0.515625,0.25,0.515625,0.40625
696776,-0.65625,-0.515625,0.25,0.515625,0.40625
696728,-0.65625,-0.515625,0.25,0.515625,0.40625
696976,-0.65625,-0.515625,0.25,0.515625,0.40625
647896,-0.65625,-0.515625,0.25,0.515625,0.40625
647624,-0.65625,-0.515625,0.25,0.515625,0.40625
647576,-0.65625,-0.515625,0.25,0.515625,0.40625
647312,-0.65625,-0.515625,0.25,0.515625,0.40625
696536,-0.65625,-0.515625,0.25,0.515625,0.40625
696784,-0.65625,-0.515625,0.25,0.515625,0.40625
843848,-0.65625,-0.515625,0.25,0.515625,0.40625
836296,-0.65625,-0.515625,0.25,0.515625,0.40625
836232,-0.65625,-0.515625,0.25,0.515625,0.40625
828424,-0.65625,-0.515625,0.25,0.515625,0.40625
828304,-0.65625,-0.515625,0.25,0.515625,0.40625
820424,-0.65625,-0.515625,0.25,0.515625,0.40625
820360,-0.65625,-0.515625,0.25,0.515625,0.40625
811984,-0.65625,-0.515625,0.25,0.515625,0.40625
811848,-0.65625,-0.515625,0.25,0.515625,0.40625
803528,-0.65625,-0.515625,0.25,0.515625,0.40625
803464,-0.65625,-0.515625,0.25,0.515625,0.40625
803216,-0.65625,-0.515625,0.25,0.515625,0.40625
803144,-0.65625,-0.515625,0.25,0.515625,0.40625
802896,-0.65625,-0.515625,0.25,0.515625,0.40625
794896,-0.65625,-0.515625,0.25,0.515625,0.40625
647568,-0.65625,-0.515625,0.25,0.515625,0.40625
647304,-0.65625,-0.515625,0.25,0.515625,0.40625
696792,-0.65625,-0.515625,0.25,0.515625,0.40625
697032,-0.65625,-0.515625,0.25,0.515625,0.40625
696984,-0.65625,-0.515625,0.25,0.515625,0.40625
697224,-0.65625,-0.515625,0.25,0.515625,0.40625
836104,-0.65625,-0.515625,0.25,0.515625,0.40625
836240,-0.65625,-0.515625,0.25,0.515625,0.40625
836424,-0.65625,-0.515625,0.25,0.515625,0.40625
828368,-0.65625,-0.515625,0.25,0.515625,0.40625
820488,-0.65625,-0.515625,0.25,0.515625,0.40625
820296,-0.65625,-0.515625,0.25,0.515625,0.40625
811920,-0.65625,-0.515625,0.25,0.515625,0.40625
803848,-0.65625,-0.515625,0.25,0.515625,0.40625
803536,-0.65625,-0.515625,0.25,0.515625,0.40625
648144,-0.65625,-0.515625,0.25,0.515625,0.40625
647880,-0.65625,-0.515625,0.25,0.515625,0.40625
647832,-0.65625,-0.515625,0.25,0.515625,0.40625
647560,-0.65625,-0.515625,0.25,0.515625,0.40625
843856,-0.65625,-0.515625,0.25,0.515625,0.40625
836112,-0.65625,-0.515625,0.25,0.515625,0.40625
794888,-0.65625,-0.515625,0.25,0.515625,0.40625
696584,-0.65625,-0.515625,0.25,0.515625,0.40625
696840,-0.65625,-0.515625,0.25,0.515625,0.40625
697040,-0.65625,-0.515625,0.25,0.515625,0.40625
843912,-0.65625,-0.515625,0.25,0.515625,0.40625
844104,-0.65625,-0.515625,0.25,0.515625,0.40625
844112,-0.65625,-0.515625,0.25,0.515625,0.40625
836368,-0.65625,-0.515625,0.25,0.515625,0.40625
836360,-0.65625,-0.515625,0.25,0.515625,0.40625
836304,-0.65625,-0.515625,0.25,0.515625,0.40625
836552,-0.65625,-0.515625,0.25,0.515625,0.40625
836488,-0.65625,-0.515625,0.25,0.515625,0.40625
836432,-0.65625,-0.515625,0.25,0.515625,0.40625
836680,-0.65625,-0.515625,0.25,0.515625,0.40625
828680,-0.65625,-0.515625,0.25,0.515625,0.40625
828616,-0.65625,-0.515625,0.25,0.515625,0.40625
828552,-0.65625,-0.515625,0.25,0.515625,0.40625
828488,-0.65625,-0.515625,0.25,0.515625,0.40625
820496,-0.65625,-0.515625,0.25,0.515625,0.40625
820432,-0.65625,-0.515625,0.25,0.515625,0.40625
820368,-0.65625,-0.515625,0.25,0.515625,0.40625
820304,-0.65625,-0.515625,0.25,0.515625,0.40625
812296,-0.65625,-0.515625,0.25,0.515625,0.40625
812232,-0.65625,-0.515625,0.25,0.515625,0.40625
812168,-0.65625,-0.515625,0.25,0.515625,0.40625
812104,-0.65625,-0.515625,0.25,0.515625,0.40625
804104,-0.65625,-0.515625,0.25,0.515625,0.40625
803856,-0.65625,-0.515625,0.25,0.515625,0.40625
803784,-0.65625,-0.515625,0.25,0.515625,0.40625
803720,-0.65625,-0.515625,0.25,0.515625,0.40625
803472,-0.65625,-0.515625,0.25,0.515625,0.40625
803408,-0.65625,-0.515625,0.25,0.515625,0.40625
795152,-0.65625,-0.515625,0.25,0.515625,0.40625
795144,-0.65625,-0.515625,0.25,0.515625,0.40625
794832,-0.65625,-0.515625,0.25,0.515625,0.40625
648136,-0.65625,-0.515625,0.25,0.515625,0.40625
648088,-0.65625,-0.515625,0.25,0.515625,0.40625
647824,-0.65625,-0.515625,0.25,0.515625,0.40625
647496,-0.65625,-0.515625,0.25,0.515625,0.40625
647240,-0.65625,-0.515625,0.25,0.515625,0.40625
696848,-0.65625,-0.515625,0.25,0.515625,0.40625
697096,-0.65625,-0.515625,0.25,0.515625,0.40625
697048,-0.65625,-0.515625,0.25,0.515625,0.40625
843920,-0.65625,-0.515625,0.25,0.515625,0.40625
844360,-0.65625,-0.515625,0.25,0.515625,0.40625
803400,-0.65625,-0.515625,0.25,0.515625,0.40625
795408,-0.65625,-0.515625,0.25,0.515625,0.40625
794824,-0.65625,-0.515625,0.25,0.515625,0.40625
794760,-0.65625,-0.515625,0.25,0.515625,0.40625
647816,-0.65625,-0.515625,0.25,0.515625,0.40625
647760,-0.65625,-0.515625,0.25,0.515625,0.40625
647512,-0.65625,-0.515625,0.25,0.515625,0.40625
697352,-0.65625,-0.515625,0.25,0.515625,0.40625
843984,-0.65625,-0.515625,0.25,0.515625,0.40625
844424,-0.65625,-0.515625,0.25,0.515625,0.40625
836616,-0.65625,-0.515625,0.25,0.515625,0.40625
836744,-0.65625,-0.515625,0.25,0.515625,0.40625
828872,-0.65625,-0.515625,0.25,0.515625,0.40625
812360,-0.65625,-0.515625,0.25,0.515625,0.40625
804040,-0.65625,-0.515625,0.25,0.515625,0.40625
803728,-0.65625,-0.515625,0.25,0.515625,0.40625
795344,-0.65625,-0.515625,0.25,0.515625,0.40625
794768,-0.65625,-0.515625,0.25,0.515625,0.40625
648080,-0.65625,-0.515625,0.25,0.515625,0.40625
648024,-0.65625,-0.515625,0.25,0.515625,0.40625
704840,-0.65625,-0.515625,0.25,0.515625,0.40625
696856,-0.65625,-0.515625,0.25,0.515625,0.40625
697104,-0.65625,-0.515625,0.25,0.515625,0.40625
844168,-0.65625,-0.515625,0.25,0.515625,0.40625
844368,-0.65625,-0.515625,0.25,0.515625,0.40625
836808,-0.65625,-0.515625,0.25,0.515625,0.40625
828744,-0.65625,-0.515625,0.25,0.515625,0.40625
820680,-0.65625,-0.515625,0.25,0.515625,0.40625
820552,-0.65625,-0.515625,0.25,0.515625,0.40625
812488,-0.65625,-0.515625,0.25,0.515625,0.40625
803976,-0.65625,-0.515625,0.25,0.515625,0.40625
803656,-0.65625,-0.515625,0.25,0.515625,0.40625
795400,-0.65625,-0.515625,0.25,0.515625,0.40625
795080,-0.65625,-0.515625,0.25,0.515625,0.40625
648072,-0.65625,-0.515625,0.25,0.515625,0.40625
647752,-0.65625,-0.515625,0.25,0.515625,0.40625
647504,-0.65625,-0.515625,0.25,0.515625,0.40625
639512,-0.65625,-0.515625,0.25,0.515625,0.40625
836624,-0.65625,-0.515625,0.25,0.515625,0.40625
828880,-0.65625,-0.515625,0.25,0.515625,0.40625
812368,-0.65625,-0.515625,0.25,0.515625,0.40625
704584,-0.65625,-0.515625,0.25,0.515625,0.40625
704848,-0.65625,-0.515625,0.25,0.515625,0.40625
705104,-0.65625,-0.515625,0.25,0.515625,0.40625
705096,-0.65625,-0.515625,0.25,0.515625,0.40625
697368,-0.65625,-0.515625,0.25,0.515625,0.40625
697360,-0.65625,-0.515625,0.25,0.515625,0.40625
844040,-0.65625,-0.515625,0.25,0.515625,0.40625
844232,-0.65625,-0.515625,0.25,0.515625,0.40625
844432,-0.65625,-0.515625,0.25,0.515625,0.40625
844680,-0.65625,-0.515625,0.25,0.515625,0.40625
844616,-0.65625,-0.515625,0.25,0.515625,0.40625
836872,-0.65625,-0.515625,0.25,0.515625,0.40625
836816,-0.65625,-0.515625,0.25,0.515625,0.40625
836944,-0.65625,-0.515625,0.25,0.515625,0.40625
836936,-0.65625,-0.515625,0.25,0.515625,0.40625
828888,-0.65625,-0.515625,0.25,0.515625,0.40625
829000,-0.65625,-0.515625,0.25,0.515625,0.40625
820936,-0.65625,-0.515625,0.25,0.515625,0.40625
820808,-0.65625,-0.515625,0.25,0.515625,0.40625
812744,-0.65625,-0.515625,0.25,0.515625,0.40625
812376,-0.65625,-0.515625,0.25,0.515625,0.40625
804296,-0.65625,-0.515625,0.25,0.515625,0.40625
804176,-0.65625,-0.515625,0.25,0.515625,0.40625
803984,-0.65625,-0.515625,0.25,0.515625,0.40625
803920,-0.65625,-0.515625,0.25,0.515625,0.40625
803912,-0.65625,-0.515625,0.25,0.515625,0.40625
795656,-0.65625,-0.515625,0.25,0.515625,0.40625
795600,-0.65625,-0.515625,0.25,0.515625,0.40625
795336,-0.65625,-0.515625,0.25,0.515625,0.40625
795024,-0.65625,-0.515625,0.25,0.515625,0.40625
794704,-0.65625,-0.515625,0.25,0.515625,0.40625
648008,-0.65625,-0.515625,0.25,0.515625,0.40625
648016,-0.65625,-0.515625,0.25,0.515625,0.40625
639768,-0.65625,-0.515625,0.25,0.515625,0.40625
639760,-0.65625,-0.515625,0.25,0.515625,0.40625
639504,-0.65625,-0.515625,0.25,0.515625,0.40625
639240,-0.65625,-0.515625,0.25,0.515625,0.40625
704856,-0.65625,-0.515625,0.25,0.515625,0.40625
705352,-0.65625,-0.515625,0.25,0.515625,0.40625
844048,-0.65625,-0.515625,0.25,0.515625,0.40625
844296,-0.65625,-0.515625,0.25,0.515625,0.40625
844240,-0.65625,-0.515625,0.25,0.515625,0.40625
844488,-0.65625,-0.515625,0.25,0.515625,0.40625
844688,-0.65625,-0.515625,0.25,0.515625,0.40625
836880,-0.65625,-0.515625,0.25,0.515625,0.40625
829128,-0.65625,-0.515625,0.25,0.515625,0.40625
820944,-0.65625,-0.515625,0.25,0.515625,0.40625
820816,-0.65625,-0.515625,0.25,0.515625,0.40625
812616,-0.65625,-0.515625,0.25,0.515625,0.40625
795592,-0.65625,-0.515625,0.25,0.515625,0.40625
795272,-0.65625,-0.515625,0.25,0.515625,0.40625
795016,-0.65625,-0.515625,0.25,0.515625,0.40625
794952,-0.65625,-0.515625,0.25,0.515625,0.40625
794696,-0.65625,-0.515625,0.25,0.515625,0.40625
640016,-0.65625,-0.515625,0.25,0.515625,0.40625
639496,-0.65625,-0.515625,0.25,0.515625,0.40625
705112,-0.65625,-0.515625,0.25,0.515625,0.40625
852040,-0.65625,-0.515625,0.25,0.515625,0.40625
844552,-0.65625,-0.515625,0.25,0.515625,0.40625
844872,-0.65625,-0.515625,0.25,0.515625,0.40625
837064,-0.65625,-0.515625,0.25,0.515625,0.40625
837192,-0.65625,-0.515625,0.25,0.515625,0.40625
829008,-0.65625,-0.515625,0.25,0.515625,0.40625
812752,-0.65625,-0.515625,0.25,0.515625,0.40625
804552,-0.65625,-0.515625,0.25,0.515625,0.40625
795912,-0.65625,-0.515625,0.25,0.515625,0.40625
795208,-0.65625,-0.515625,0.25,0.515625,0.40625
786712,-0.65625,-0.515625,0.25,0.515625,0.40625
639752,-0.65625,-0.515625,0.25,0.515625,0.40625
639184,-0.65625,-0.515625,0.25,0.515625,0.40625
704648,-0.65625,-0.515625,0.25,0.515625,0.40625
704904,-0.65625,-0.515625,0.25,0.515625,0.40625
705160,-0.65625,-0.515625,0.25,0.515625,0.40625
705360,-0.65625,-0.515625,0.25,0.515625,0.40625
844304,-0.65625,-0.515625,0.25,0.515625,0.40625
844560,-0.65625,-0.515625,0.25,0.515625,0.40625
844744,-0.65625,-0.515625,0.25,0.515625,0.40625
844936,-0.65625,-0.515625,0.25,0.515625,0.40625
837200,-0.65625,-0.515625,0.25,0.515625,0.40625
804560,-0.65625,-0.515625,0.25,0.515625,0.40625
804168,-0.65625,-0.515625,0.25,0.515625,0.40625
796112,-0.65625,-0.515625,0.25,0.515625,0.40625
795848,-0.65625,-0.515625,0.25,0.515625,0.40625
795528,-0.65625,-0.515625,0.25,0.515625,0.40625
795216,-0.65625,-0.515625,0.25,0.515625,0.40625
794960,-0.65625,-0.515625,0.25,0.515625,0.40625
640008,-0.65625,-0.515625,0.25,0.515625,0.40625
639704,-0.65625,-0.515625,0.25,0.515625,0.40625
639440,-0.65625,-0.515625,0.25,0.515625,0.40625
852048,-0.65625,-0.515625,0.25,0.515625,0.40625
837072,-0.65625,-0.515625,0.25,0.515625,0.40625
786704,-0.65625,-0.515625,0.25,0.515625,0.40625
704656,-0.65625,-0.515625,0.25,0.515625,0.40625
704912,-0.65625,-0.515625,0.25,0.515625,0.40625
705176,-0.65625,-0.515625,0.25,0.515625,0.40625
705168,-0.65625,-0.515625,0.25,0.515625,0.40625
705416,-0.65625,-0.515625,0.25,0.515625,0.40625
852056,-0.65625,-0.515625,0.25,0.515625,0.40625
852296,-0.65625,-0.515625,0.25,0.515625,0.40625
852552,-0.65625,-0.515625,0.25,0.515625,0.40625
844808,-0.65625,-0.515625,0.25,0.515625,0.40625
845000,-0.65625,-0.515625,0.25,0.515625,0.40625
845256,-0.65625,-0.515625,0.25,0.515625,0.40625
845128,-0.65625,-0.515625,0.25,0.515625,0.40625
845384,-0.65625,-0.515625,0.25,0.515625,0.40625
837320,-0.65625,-0.515625,0.25,0.515625,0.40625
804568,-0.65625,-0.515625,0.25,0.515625,0.40625
796368,-0.65625,-0.515625,0.25,0.515625,0.40625
796104,-0.65625,-0.515625,0.25,0.515625,0.40625
795992,-0.65625,-0.515625,0.25,0.515625,0.40625
795784,-0.65625,-0.515625,0.25,0.515625,0.40625
795472,-0.65625,-0.515625,0.25,0.515625,0.40625
787216,-0.65625,-0.515625,0.25,0.515625,0.40625
786952,-0.65625,-0.515625,0.25,0.515625,0.40625
786696,-0.65625,-0.515625,0.25,0.515625,0.40625
639952,-0.65625,-0.515625,0.25,0.515625,0.40625
639688,-0.65625,-0.515625,0.25,0.515625,0.40625
639696,-0.65625,-0.515625,0.25,0.515625,0.40625
639432,-0.65625,-0.515625,0.25,0.515625,0.40625
639176,-0.65625,-0.515625,0.25,0.515625,0.40625
704712,-0.65625,-0.515625,0.25,0.515625,0.40625
705424,-0.65625,-0.515625,0.25,0.515625,0.40625
852104,-0.65625,-0.515625,0.25,0.515625,0.40625
852360,-0.65625,-0.515625,0.25,0.515625,0.40625
852560,-0.65625,-0.515625,0.25,0.515625,0.40625
852808,-0.65625,-0.515625,0.25,0.515625,0.40625
844816,-0.65625,-0.515625,0.25,0.515625,0.40625
845064,-0.65625,-0.515625,0.25,0.515625,0.40625
804424,-0.65625,-0.515625,0.25,0.515625,0.40625
795720,-0.65625,-0.515625,0.25,0.515625,0.40625
795464,-0.65625,-0.515625,0.25,0.515625,0.40625
787472,-0.65625,-0.515625,0.25,0.515625,0.40625
787208,-0.65625,-0.515625,0.25,0.515625,0.40625
786888,-0.65625,-0.515625,0.25,0.515625,0.40625
786640,-0.65625,-0.515625,0.25,0.515625,0.40625
639944,-0.65625,-0.515625,0.25,0.515625,0.40625
639128,-0.65625,-0.515625,0.25,0.515625,0.40625
704720,-0.65625,-0.515625,0.25,0.515625,0.40625
704976,-0.65625,-0.515625,0.25,0.515625,0.40625
704968,-0.65625,-0.515625,0.25,0.515625,0.40625
705232,-0.65625,-0.515625,0.25,0.515625,0.40625
705224,-0.65625,-0.515625,0.25,0.515625,0.40625
852112,-0.65625,-0.515625,0.25,0.515625,0.40625
852368,-0.65625,-0.515625,0.25,0.515625,0.40625
845264,-0.65625,-0.515625,0.25,0.515625,0.40625
845400,-0.65625,-0.515625,0.25,0.515625,0.40625
845392,-0.65625,-0.515625,0.25,0.515625,0.40625
796360,-0.65625,-0.515625,0.25,0.515625,0.40625
795984,-0.65625,-0.515625,0.25,0.515625,0.40625
786896,-0.65625,-0.515625,0.25,0.515625,0.40625
786632,-0.65625,-0.515625,0.25,0.515625,0.40625
639640,-0.65625,-0.515625,0.25,0.515625,0.40625
639648,-0.65625,-0.515625,0.25,0.515625,0.40625
639384,-0.65625,-0.515625,0.25,0.515625,0.40625
639376,-0.65625,-0.515625,0.25,0.515625,0.40625
639120,-0.65625,-0.515625,0.25,0.515625,0.40625
704728,-0.65625,-0.515625,0.25,0.515625,0.40625
705240,-0.65625,-0.515625,0.25,0.515625,0.40625
705480,-0.65625,-0.515625,0.25,0.515625,0.40625
852168,-0.65625,-0.515625,0.25,0.515625,0.40625
852616,-0.65625,-0.515625,0.25,0.515625,0.40625
852816,-0.65625,-0.515625,0.25,0.515625,0.40625
853064,-0.65625,-0.515625,0.25,0.515625,0.40625
845272,-0.65625,-0.515625,0.25,0.515625,0.40625
845512,-0.65625,-0.515625,0.25,0.515625,0.40625
796232,-0.65625,-0.515625,0.25,0.515625,0.40625
