stripid,w1,w2,w3,w4,w5,w1c,w2c,w3c,w4c,w5c
8264.000000,-0.639888,-0.512330,0.271499,0.502280,0.378440,-0.640625,-0.515625,0.281250,0.500000,0.375000
8272.000000,-0.639888,-0.512330,0.271499,0.502280,0.378440,-0.640625,-0.515625,0.281250,0.500000,0.375000
8328.000000,-0.639888,-0.512330,0.271499,0.502280,0.378440,-0.640625,-0.515625,0.281250,0.500000,0.375000
8336.000000,-0.639888,-0.512330,0.271499,0.502280,0.378440,-0.640625,-0.515625,0.281250,0.500000,0.375000
8392.000000,-0.639888,-0.512330,0.271499,0.502280,0.378440,-0.640625,-0.515625,0.281250,0.500000,0.375000
8400.000000,-0.639888,-0.512330,0.271499,0.502280,0.378440,-0.640625,-0.515625,0.281250,0.500000,0.375000
8456.000000,-0.639888,-0.512330,0.271499,0.502280,0.378440,-0.640625,-0.515625,0.281250,0.500000,0.375000
8464.000000,-0.639888,-0.512330,0.271499,0.502280,0.378440,-0.640625,-0.515625,0.281250,0.500000,0.375000
8520.000000,-0.639888,-0.512330,0.271499,0.502280,0.378440,-0.640625,-0.515625,0.281250,0.500000,0.375000
8528.000000,-0.639888,-0.512330,0.271499,0.502280,0.378440,-0.640625,-0.515625,0.281250,0.500000,0.375000
8584.000000,-0.639888,-0.512330,0.271499,0.502280,0.378440,-0.640625,-0.515625,0.281250,0.500000,0.375000
8592.000000,-0.639888,-0.512330,0.271499,0.502280,0.378440,-0.640625,-0.515625,0.281250,0.500000,0.375000
8600.000000,-0.639888,-0.512330,0.271499,0.502280,0.378440,-0.640625,-0.515625,0.281250,0.500000,0.375000
8648.000000,-0.639888,-0.512330,0.271499,0.502280,0.378440,-0.640625,-0.515625,0.281250,0.500000,0.375000
8656.000000,-0.639888,-0.512330,0.271499,0.502280,0.378440,-0.640625,-0.515625,0.281250,0.500000,0.375000
8664.000000,-0.639888,-0.512330,0.271499,0.502280,0.378440,-0.640625,-0.515625,0.281250,0.500000,0.375000
8712.000000,-0.639888,-0.512330,0.271499,0.502280,0.378440,-0.640625,-0.515625,0.281250,0.500000,0.375000
8720.000000,-0.639888,-0.512330,0.271499,0.502280,0.378440,-0.640625,-0.515625,0.281250,0.500000,0.375000
8776.000000,-0.639888,-0.512330,0.271499,0.502280,0.378440,-0.640625,-0.515625,0.281250,0.500000,0.375000
8784.000000,-0.639888,-0.512330,0.271499,0.502280,0.378440,-0.640625,-0.515625,0.281250,0.500000,0.375000
8840.000000,-0.639888,-0.512330,0.271499,0.502280,0.378440,-0.640625,-0.515625,0.281250,0.500000,0.375000
8904.000000,-0.639888,-0.512330,0.271499,0.502280,0.378440,-0.640625,-0.515625,0.281250,0.500000,0.375000
8968.000000,-0.639888,-0.512330,0.271499,0.502280,0.378440,-0.640625,-0.515625,0.281250,0.500000,0.375000
8976.000000,-0.639888,-0.512330,0.271499,0.502280,0.378440,-0.640625,-0.515625,0.281250,0.500000,0.375000
9032.000000,-0.639888,-0.512330,0.271499,0.502280,0.378440,-0.640625,-0.515625,0.281250,0.500000,0.375000
9096.000000,-0.639888,-0.512330,0.271499,0.502280,0.378440,-0.640625,-0.515625,0.281250,0.500000,0.375000
9160.000000,-0.639888,-0.512330,0.271499,0.502280,0.378440,-0.640625,-0.515625,0.281250,0.500000,0.375000
9224.000000,-0.639888,-0.512330,0.271499,0.502280,0.378440,-0.640625,-0.515625,0.281250,0.500000,0.375000
9288.000000,-0.639888,-0.512330,0.271499,0.502280,0.378440,-0.640625,-0.515625,0.281250,0.500000,0.375000
9296.000000,-0.639888,-0.512330,0.271499,0.502280,0.378440,-0.640625,-0.515625,0.281250,0.500000,0.375000
9352.000000,-0.639888,-0.512330,0.271499,0.502280,0.378440,-0.640625,-0.515625,0.281250,0.500000,0.375000
9360.000000,-0.639888,-0.512330,0.271499,0.502280,0.378440,-0.640625,-0.515625,0.281250,0.500000,0.375000
9416.000000,-0.639888,-0.512330,0.271499,0.502280,0.378440,-0.640625,-0.515625,0.281250,0.500000,0.375000
9424.000000,-0.639888,-0.512330,0.271499,0.502280,0.378440,-0.640625,-0.515625,0.281250,0.500000,0.375000
9480.000000,-0.639888,-0.512330,0.271499,0.502280,0.378440,-0.640625,-0.515625,0.281250,0.500000,0.375000
9488.000000,-0.639888,-0.512330,0.271499,0.502280,0.378440,-0.640625,-0.515625,0.281250,0.500000,0.375000
9608.000000,-0.639888,-0.512330,0.271499,0.502280,0.378440,-0.640625,-0.515625,0.281250,0.500000,0.375000
9736.000000,-0.639888,-0.512330,0.271499,0.502280,0.378440,-0.640625,-0.515625,0.281250,0.500000,0.375000
9864.000000,-0.639888,-0.512330,0.271499,0.502280,0.378440,-0.640625,-0.515625,0.281250,0.500000,0.375000
9872.000000,-0.639888,-0.512330,0.271499,0.502280,0.378440,-0.640625,-0.515625,0.281250,0.500000,0.375000
9992.000000,-0.639888,-0.512330,0.271499,0.502280,0.378440,-0.640625,-0.515625,0.281250,0.500000,0.375000
10000.000000,-0.639888,-0.512330,0.271499,0.502280,0.378440,-0.640625,-0.515625,0.281250,0.500000,0.375000
16456.000000,-0.639888,-0.512330,0.271499,0.502280,0.378440,-0.640625,-0.515625,0.281250,0.500000,0.375000
16464.000000,-0.639888,-0.512330,0.271499,0.502280,0.378440,-0.640625,-0.515625,0.281250,0.500000,0.375000
16520.000000,-0.639888,-0.512330,0.271499,0.502280,0.378440,-0.640625,-0.515625,0.281250,0.500000,0.375000
16528.000000,-0.639888,-0.512330,0.271499,0.502280,0.378440,-0.640625,-0.515625,0.281250,0.500000,0.375000
16536.000000,-0.639888,-0.512330,0.271499,0.502280,0.378440,-0.640625,-0.515625,0.281250,0.500000,0.375000
16584.000000,-0.639888,-0.512330,0.271499,0.502280,0.378440,-0.640625,-0.515625,0.281250,0.500000,0.375000
16592.000000,-0.639888,-0.512330,0.271499,0.502280,0.378440,-0.640625,-0.515625,0.281250,0.500000,0.375000
16648.000000,-0.639888,-0.512330,0.271499,0.502280,0.378440,-0.640625,-0.515625,0.281250,0.500000,0.375000
16656.000000,-0.639888,-0.512330,0.271499,0.502280,0.378440,-0.640625,-0.515625,0.281250,0.500000,0.375000
16712.000000,-0.639888,-0.512330,0.271499,0.502280,0.378440,-0.640625,-0.515625,0.281250,0.500000,0.375000
16720.000000,-0.639888,-0.512330,0.271499,0.502280,0.378440,-0.640625,-0.515625,0.281250,0.500000,0.375000
16776.000000,-0.639888,-0.512330,0.271499,0.502280,0.378440,-0.640625,-0.515625,0.281250,0.500000,0.375000
16840.000000,-0.639888,-0.512330,0.271499,0.502280,0.378440,-0.640625,-0.515625,0.281250,0.500000,0.375000
16848.000000,-0.639888,-0.512330,0.271499,0.502280,0.378440,-0.640625,-0.515625,0.281250,0.500000,0.375000
16904.000000,-0.639888,-0.512330,0.271499,0.502280,0.378440,-0.640625,-0.515625,0.281250,0.500000,0.375000
16912.000000,-0.639888,-0.512330,0.271499,0.502280,0.378440,-0.640625,-0.515625,0.281250,0.500000,0.375000
16968.000000,-0.639888,-0.512330,0.271499,0.502280,0.378440,-0.640625,-0.515625,0.281250,0.500000,0.375000
17032.000000,-0.639888,-0.512330,0.271499,0.502280,0.378440,-0.640625,-0.515625,0.281250,0.500000,0.375000
17040.000000,-0.639888,-0.512330,0.271499,0.502280,0.378440,-0.640625,-0.515625,0.281250,0.500000,0.375000
17096.000000,-0.639888,-0.512330,0.271499,0.502280,0.378440,-0.640625,-0.515625,0.281250,0.500000,0.375000
17104.000000,-0.639888,-0.512330,0.271499,0.502280,0.378440,-0.640625,-0.515625,0.281250,0.500000,0.375000
17160.000000,-0.639888,-0.512330,0.271499,0.502280,0.378440,-0.640625,-0.515625,0.281250,0.500000,0.375000
17224.000000,-0.639888,-0.512330,0.271499,0.502280,0.378440,-0.640625,-0.515625,0.281250,0.500000,0.375000
17232.000000,-0.639888,-0.512330,0.271499,0.502280,0.378440,-0.640625,-0.515625,0.281250,0.500000,0.375000
17288.000000,-0.639888,-0.512330,0.271499,0.502280,0.378440,-0.640625,-0.515625,0.281250,0.500000,0.375000
17296.000000,-0.639888,-0.512330,0.271499,0.502280,0.378440,-0.640625,-0.515625,0.281250,0.500000,0.375000
17352.000000,-0.639888,-0.512330,0.271499,0.502280,0.378440,-0.640625,-0.515625,0.281250,0.500000,0.375000
17360.000000,-0.639888,-0.512330,0.271499,0.502280,0.378440,-0.640625,-0.515625,0.281250,0.500000,0.375000
17416.000000,-0.639888,-0.512330,0.271499,0.502280,0.378440,-0.640625,-0.515625,0.281250,0.500000,0.375000
17480.000000,-0.639888,-0.512330,0.271499,0.502280,0.378440,-0.640625,-0.515625,0.281250,0.500000,0.375000
17544.000000,-0.639888,-0.512330,0.271499,0.502280,0.378440,-0.640625,-0.515625,0.281250,0.500000,0.375000
17608.000000,-0.639888,-0.512330,0.271499,0.502280,0.378440,-0.640625,-0.515625,0.281250,0.500000,0.375000
17672.000000,-0.639888,-0.512330,0.271499,0.502280,0.378440,-0.640625,-0.515625,0.281250,0.500000,0.375000
17800.000000,-0.639888,-0.512330,0.271499,0.502280,0.378440,-0.640625,-0.515625,0.281250,0.500000,0.375000
17928.000000,-0.639888,-0.512330,0.271499,0.502280,0.378440,-0.640625,-0.515625,0.281250,0.500000,0.375000
17936.000000,-0.639888,-0.512330,0.271499,0.502280,0.378440,-0.640625,-0.515625,0.281250,0.500000,0.375000
17944.000000,-0.639888,-0.512330,0.271499,0.502280,0.378440,-0.640625,-0.515625,0.281250,0.500000,0.375000
18056.000000,-0.639888,-0.512330,0.271499,0.502280,0.378440,-0.640625,-0.515625,0.281250,0.500000,0.375000
18064.000000,-0.639888,-0.512330,0.271499,0.502280,0.378440,-0.640625,-0.515625,0.281250,0.500000,0.375000
18184.000000,-0.639888,-0.512330,0.271499,0.502280,0.378440,-0.640625,-0.515625,0.281250,0.500000,0.375000
24648.000000,-0.639888,-0.512330,0.271499,0.502280,0.378440,-0.640625,-0.515625,0.281250,0.500000,0.375000
24656.000000,-0.639888,-0.512330,0.271499,0.502280,0.378440,-0.640625,-0.515625,0.281250,0.500000,0.375000
24712.000000,-0.639888,-0.512330,0.271499,0.502280,0.378440,-0.640625,-0.515625,0.281250,0.500000,0.375000
24720.000000,-0.639888,-0.512330,0.271499,0.502280,0.378440,-0.640625,-0.515625,0.281250,0.500000,0.375000
24776.000000,-0.639888,-0.512330,0.271499,0.502280,0.378440,-0.640625,-0.515625,0.281250,0.500000,0.375000
24784.000000,-0.639888,-0.512330,0.271499,0.502280,0.378440,-0.640625,-0.515625,0.281250,0.500000,0.375000
24840.000000,-0.639888,-0.512330,0.271499,0.502280,0.378440,-0.640625,-0.515625,0.281250,0.500000,0.375000
24848.000000,-0.639888,-0.512330,0.271499,0.502280,0.378440,-0.640625,-0.515625,0.281250,0.500000,0.375000
24904.000000,-0.639888,-0.512330,0.271499,0.502280,0.378440,-0.640625,-0.515625,0.281250,0.500000,0.375000
24968.000000,-0.639888,-0.512330,0.271499,0.502280,0.378440,-0.640625,-0.515625,0.281250,0.500000,0.375000
24976.000000,-0.639888,-0.512330,0.271499,0.502280,0.378440,-0.640625,-0.515625,0.281250,0.500000,0.375000
25032.000000,-0.639888,-0.512330,0.271499,0.502280,0.378440,-0.640625,-0.515625,0.281250,0.500000,0.375000
25040.000000,-0.639888,-0.512330,0.271499,0.502280,0.378440,-0.640625,-0.515625,0.281250,0.500000,0.375000
25096.000000,-0.639888,-0.512330,0.271499,0.502280,0.378440,-0.640625,-0.515625,0.281250,0.500000,0.375000
25160.000000,-0.639888,-0.512330,0.271499,0.502280,0.378440,-0.640625,-0.515625,0.281250,0.500000,0.375000
25168.000000,-0.639888,-0.512330,0.271499,0.502280,0.378440,-0.640625,-0.515625,0.281250,0.500000,0.375000
25224.000000,-0.639888,-0.512330,0.271499,0.502280,0.378440,-0.640625,-0.515625,0.281250,0.500000,0.375000
25232.000000,-0.639888,-0.512330,0.271499,0.502280,0.378440,-0.640625,-0.515625,0.281250,0.500000,0.375000
25288.000000,-0.639888,-0.512330,0.271499,0.502280,0.378440,-0.640625,-0.515625,0.281250,0.500000,0.375000
25296.000000,-0.639888,-0.512330,0.271499,0.502280,0.378440,-0.640625,-0.515625,0.281250,0.500000,0.375000
25352.000000,-0.639888,-0.512330,0.271499,0.502280,0.378440,-0.640625,-0.515625,0.281250,0.500000,0.375000
25360.000000,-0.639888,-0.512330,0.271499,0.502280,0.378440,-0.640625,-0.515625,0.281250,0.500000,0.375000
25416.000000,-0.639888,-0.512330,0.271499,0.502280,0.378440,-0.640625,-0.515625,0.281250,0.500000,0.375000
25424.000000,-0.639888,-0.512330,0.271499,0.502280,0.378440,-0.640625,-0.515625,0.281250,0.500000,0.375000
25480.000000,-0.639888,-0.512330,0.271499,0.502280,0.378440,-0.640625,-0.515625,0.281250,0.500000,0.375000
25544.000000,-0.639888,-0.512330,0.271499,0.502280,0.378440,-0.640625,-0.515625,0.281250,0.500000,0.375000
25552.000000,-0.639888,-0.512330,0.271499,0.502280,0.378440,-0.640625,-0.515625,0.281250,0.500000,0.375000
25608.000000,-0.639888,-0.512330,0.271499,0.502280,0.378440,-0.640625,-0.515625,0.281250,0.500000,0.375000
25672.000000,-0.639888,-0.512330,0.271499,0.502280,0.378440,-0.640625,-0.515625,0.281250,0.500000,0.375000
25736.000000,-0.639888,-0.512330,0.271499,0.502280,0.378440,-0.640625,-0.515625,0.281250,0.500000,0.375000
25800.000000,-0.639888,-0.512330,0.271499,0.502280,0.378440,-0.640625,-0.515625,0.281250,0.500000,0.375000
25808.000000,-0.639888,-0.512330,0.271499,0.502280,0.378440,-0.640625,-0.515625,0.281250,0.500000,0.375000
25864.000000,-0.639888,-0.512330,0.271499,0.502280,0.378440,-0.640625,-0.515625,0.281250,0.500000,0.375000
25872.000000,-0.639888,-0.512330,0.271499,0.502280,0.378440,-0.640625,-0.515625,0.281250,0.500000,0.375000
25992.000000,-0.639888,-0.512330,0.271499,0.502280,0.378440,-0.640625,-0.515625,0.281250,0.500000,0.375000
26120.000000,-0.639888,-0.512330,0.271499,0.502280,0.378440,-0.640625,-0.515625,0.281250,0.500000,0.375000
26128.000000,-0.639888,-0.512330,0.271499,0.502280,0.378440,-0.640625,-0.515625,0.281250,0.500000,0.375000
26248.000000,-0.639888,-0.512330,0.271499,0.502280,0.378440,-0.640625,-0.515625,0.281250,0.500000,0.375000
26256.000000,-0.639888,-0.512330,0.271499,0.502280,0.378440,-0.640625,-0.515625,0.281250,0.500000,0.375000
26264.000000,-0.639888,-0.512330,0.271499,0.502280,0.378440,-0.640625,-0.515625,0.281250,0.500000,0.375000
26376.000000,-0.639888,-0.512330,0.271499,0.502280,0.378440,-0.640625,-0.515625,0.281250,0.500000,0.375000
32840.000000,-0.639888,-0.512330,0.271499,0.502280,0.378440,-0.640625,-0.515625,0.281250,0.500000,0.375000
32848.000000,-0.639888,-0.512330,0.271499,0.502280,0.378440,-0.640625,-0.515625,0.281250,0.500000,0.375000
32904.000000,-0.639888,-0.512330,0.271499,0.502280,0.378440,-0.640625,-0.515625,0.281250,0.500000,0.375000
32912.000000,-0.639888,-0.512330,0.271499,0.502280,0.378440,-0.640625,-0.515625,0.281250,0.500000,0.375000
32968.000000,-0.639888,-0.512330,0.271499,0.502280,0.378440,-0.640625,-0.515625,0.281250,0.500000,0.375000
32976.000000,-0.639888,-0.512330,0.271499,0.502280,0.378440,-0.640625,-0.515625,0.281250,0.500000,0.375000
33032.000000,-0.639888,-0.512330,0.271499,0.502280,0.378440,-0.640625,-0.515625,0.281250,0.500000,0.375000
33040.000000,-0.639888,-0.512330,0.271499,0.502280,0.378440,-0.640625,-0.515625,0.281250,0.500000,0.375000
33096.000000,-0.639888,-0.512330,0.271499,0.502280,0.378440,-0.640625,-0.515625,0.281250,0.500000,0.375000
33104.000000,-0.639888,-0.512330,0.271499,0.502280,0.378440,-0.640625,-0.515625,0.281250,0.500000,0.375000
33160.000000,-0.639888,-0.512330,0.271499,0.502280,0.378440,-0.640625,-0.515625,0.281250,0.500000,0.375000
33224.000000,-0.639888,-0.512330,0.271499,0.502280,0.378440,-0.640625,-0.515625,0.281250,0.500000,0.375000
33232.000000,-0.639888,-0.512330,0.271499,0.502280,0.378440,-0.640625,-0.515625,0.281250,0.500000,0.375000
33288.000000,-0.639888,-0.512330,0.271499,0.502280,0.378440,-0.640625,-0.515625,0.281250,0.500000,0.375000
33296.000000,-0.639888,-0.512330,0.271499,0.502280,0.378440,-0.640625,-0.515625,0.281250,0.500000,0.375000
33352.000000,-0.639888,-0.512330,0.271499,0.502280,0.378440,-0.640625,-0.515625,0.281250,0.500000,0.375000
33360.000000,-0.639888,-0.512330,0.271499,0.502280,0.378440,-0.640625,-0.515625,0.281250,0.500000,0.375000
33416.000000,-0.639888,-0.512330,0.271499,0.502280,0.378440,-0.640625,-0.515625,0.281250,0.500000,0.375000
33424.000000,-0.639888,-0.512330,0.271499,0.502280,0.378440,-0.640625,-0.515625,0.281250,0.500000,0.375000
33480.000000,-0.639888,-0.512330,0.271499,0.502280,0.378440,-0.640625,-0.515625,0.281250,0.500000,0.375000
33544.000000,-0.639888,-0.512330,0.271499,0.502280,0.378440,-0.640625,-0.515625,0.281250,0.500000,0.375000
33552.000000,-0.639888,-0.512330,0.271499,0.502280,0.378440,-0.640625,-0.515625,0.281250,0.500000,0.375000
33608.000000,-0.639888,-0.512330,0.271499,0.502280,0.378440,-0.640625,-0.515625,0.281250,0.500000,0.375000
33672.000000,-0.639888,-0.512330,0.271499,0.502280,0.378440,-0.640625,-0.515625,0.281250,0.500000,0.375000
33680.000000,-0.639888,-0.512330,0.271499,0.502280,0.378440,-0.640625,-0.515625,0.281250,0.500000,0.375000
33736.000000,-0.639888,-0.512330,0.271499,0.502280,0.378440,-0.640625,-0.515625,0.281250,0.500000,0.375000
33800.000000,-0.639888,-0.512330,0.271499,0.502280,0.378440,-0.640625,-0.515625,0.281250,0.500000,0.375000
33808.000000,-0.639888,-0.512330,0.271499,0.502280,0.378440,-0.640625,-0.515625,0.281250,0.500000,0.375000
33864.000000,-0.639888,-0.512330,0.271499,0.502280,0.378440,-0.640625,-0.515625,0.281250,0.500000,0.375000
33928.000000,-0.639888,-0.512330,0.271499,0.502280,0.378440,-0.640625,-0.515625,0.281250,0.500000,0.375000
33992.000000,-0.639888,-0.512330,0.271499,0.502280,0.378440,-0.640625,-0.515625,0.281250,0.500000,0.375000
34056.000000,-0.639888,-0.512330,0.271499,0.502280,0.378440,-0.640625,-0.515625,0.281250,0.500000,0.375000
34184.000000,-0.639888,-0.512330,0.271499,0.502280,0.378440,-0.640625,-0.515625,0.281250,0.500000,0.375000
34192.000000,-0.639888,-0.512330,0.271499,0.502280,0.378440,-0.640625,-0.515625,0.281250,0.500000,0.375000
34312.000000,-0.639888,-0.512330,0.271499,0.502280,0.378440,-0.640625,-0.515625,0.281250,0.500000,0.375000
34320.000000,-0.639888,-0.512330,0.271499,0.502280,0.378440,-0.640625,-0.515625,0.281250,0.500000,0.375000
34328.000000,-0.639888,-0.512330,0.271499,0.502280,0.378440,-0.640625,-0.515625,0.281250,0.500000,0.375000
34440.000000,-0.639888,-0.512330,0.271499,0.502280,0.378440,-0.640625,-0.515625,0.281250,0.500000,0.375000
34448.000000,-0.639888,-0.512330,0.271499,0.502280,0.378440,-0.640625,-0.515625,0.281250,0.500000,0.375000
34568.000000,-0.639888,-0.512330,0.271499,0.502280,0.378440,-0.640625,-0.515625,0.281250,0.500000,0.375000
41032.000000,-0.639888,-0.512330,0.271499,0.502280,0.378440,-0.640625,-0.515625,0.281250,0.500000,0.375000
41040.000000,-0.639888,-0.512330,0.271499,0.502280,0.378440,-0.640625,-0.515625,0.281250,0.500000,0.375000
41048.000000,-0.639888,-0.512330,0.271499,0.502280,0.378440,-0.640625,-0.515625,0.281250,0.500000,0.375000
41096.000000,-0.639888,-0.512330,0.271499,0.502280,0.378440,-0.640625,-0.515625,0.281250,0.500000,0.375000
41104.000000,-0.639888,-0.512330,0.271499,0.502280,0.378440,-0.640625,-0.515625,0.281250,0.500000,0.375000
41160.000000,-0.639888,-0.512330,0.271499,0.502280,0.378440,-0.640625,-0.515625,0.281250,0.500000,0.375000
41168.000000,-0.639888,-0.512330,0.271499,0.502280,0.378440,-0.640625,-0.515625,0.281250,0.500000,0.375000
41224.000000,-0.639888,-0.512330,0.271499,0.502280,0.378440,-0.640625,-0.515625,0.281250,0.500000,0.375000
41232.000000,-0.639888,-0.512330,0.271499,0.502280,0.378440,-0.640625,-0.515625,0.281250,0.500000,0.375000
41288.000000,-0.639888,-0.512330,0.271499,0.502280,0.378440,-0.640625,-0.515625,0.281250,0.500000,0.375000
41352.000000,-0.639888,-0.512330,0.271499,0.502280,0.378440,-0.640625,-0.515625,0.281250,0.500000,0.375000
41360.000000,-0.639888,-0.512330,0.271499,0.502280,0.378440,-0.640625,-0.515625,0.281250,0.500000,0.375000
41416.000000,-0.639888,-0.512330,0.271499,0.502280,0.378440,-0.640625,-0.515625,0.281250,0.500000,0.375000
41424.000000,-0.639888,-0.512330,0.271499,0.502280,0.378440,-0.640625,-0.515625,0.281250,0.500000,0.375000
41480.000000,-0.639888,-0.512330,0.271499,0.502280,0.378440,-0.640625,-0.515625,0.281250,0.500000,0.375000
41488.000000,-0.639888,-0.512330,0.271499,0.502280,0.378440,-0.640625,-0.515625,0.281250,0.500000,0.375000
41496.000000,-0.639888,-0.512330,0.271499,0.502280,0.378440,-0.640625,-0.515625,0.281250,0.500000,0.375000
41544.000000,-0.639888,-0.512330,0.271499,0.502280,0.378440,-0.640625,-0.515625,0.281250,0.500000,0.375000
41552.000000,-0.639888,-0.512330,0.271499,0.502280,0.378440,-0.640625,-0.515625,0.281250,0.500000,0.375000
41608.000000,-0.639888,-0.512330,0.271499,0.502280,0.378440,-0.640625,-0.515625,0.281250,0.500000,0.375000
41672.000000,-0.639888,-0.512330,0.271499,0.502280,0.378440,-0.640625,-0.515625,0.281250,0.500000,0.375000
41680.000000,-0.639888,-0.512330,0.271499,0.502280,0.378440,-0.640625,-0.515625,0.281250,0.500000,0.375000
41736.000000,-0.639888,-0.512330,0.271499,0.502280,0.378440,-0.640625,-0.515625,0.281250,0.500000,0.375000
41800.000000,-0.639888,-0.512330,0.271499,0.502280,0.378440,-0.640625,-0.515625,0.281250,0.500000,0.375000
41808.000000,-0.639888,-0.512330,0.271499,0.502280,0.378440,-0.640625,-0.515625,0.281250,0.500000,0.375000
41864.000000,-0.639888,-0.512330,0.271499,0.502280,0.378440,-0.640625,-0.515625,0.281250,0.500000,0.375000
41872.000000,-0.639888,-0.512330,0.271499,0.502280,0.378440,-0.640625,-0.515625,0.281250,0.500000,0.375000
41928.000000,-0.639888,-0.512330,0.271499,0.502280,0.378440,-0.640625,-0.515625,0.281250,0.500000,0.375000
41992.000000,-0.639888,-0.512330,0.271499,0.502280,0.378440,-0.640625,-0.515625,0.281250,0.500000,0.375000
42056.000000,-0.639888,-0.512330,0.271499,0.502280,0.378440,-0.640625,-0.515625,0.281250,0.500000,0.375000
42120.000000,-0.639888,-0.512330,0.271499,0.502280,0.378440,-0.640625,-0.515625,0.281250,0.500000,0.375000
42184.000000,-0.639888,-0.512330,0.271499,0.502280,0.378440,-0.640625,-0.515625,0.281250,0.500000,0.375000
42192.000000,-0.639888,-0.512330,0.271499,0.502280,0.378440,-0.640625,-0.515625,0.281250,0.500000,0.375000
42248.000000,-0.639888,-0.512330,0.271499,0.502280,0.378440,-0.640625,-0.515625,0.281250,0.500000,0.375000
42256.000000,-0.639888,-0.512330,0.271499,0.502280,0.378440,-0.640625,-0.515625,0.281250,0.500000,0.375000
42376.000000,-0.639888,-0.512330,0.271499,0.502280,0.378440,-0.640625,-0.515625,0.281250,0.500000,0.375000
42504.000000,-0.639888,-0.512330,0.271499,0.502280,0.378440,-0.640625,-0.515625,0.281250,0.500000,0.375000
42632.000000,-0.639888,-0.512330,0.271499,0.502280,0.378440,-0.640625,-0.515625,0.281250,0.500000,0.375000
42640.000000,-0.639888,-0.512330,0.271499,0.502280,0.378440,-0.640625,-0.515625,0.281250,0.500000,0.375000
42760.000000,-0.639888,-0.512330,0.271499,0.502280,0.378440,-0.640625,-0.515625,0.281250,0.500000,0.375000
42768.000000,-0.639888,-0.512330,0.271499,0.502280,0.378440,-0.640625,-0.515625,0.281250,0.500000,0.375000
49224.000000,-0.639888,-0.512330,0.271499,0.502280,0.378440,-0.640625,-0.515625,0.281250,0.500000,0.375000
49232.000000,-0.639888,-0.512330,0.271499,0.502280,0.378440,-0.640625,-0.515625,0.281250,0.500000,0.375000
49288.000000,-0.639888,-0.512330,0.271499,0.502280,0.378440,-0.640625,-0.515625,0.281250,0.500000,0.375000
49296.000000,-0.639888,-0.512330,0.271499,0.502280,0.378440,-0.640625,-0.515625,0.281250,0.500000,0.375000
49352.000000,-0.639888,-0.512330,0.271499,0.502280,0.378440,-0.640625,-0.515625,0.281250,0.500000,0.375000
49360.000000,-0.639888,-0.512330,0.271499,0.502280,0.378440,-0.640625,-0.515625,0.281250,0.500000,0.375000
49416.000000,-0.639888,-0.512330,0.271499,0.502280,0.378440,-0.640625,-0.515625,0.281250,0.500000,0.375000
49424.000000,-0.639888,-0.512330,0.271499,0.502280,0.378440,-0.640625,-0.515625,0.281250,0.500000,0.375000
49432.000000,-0.639888,-0.512330,0.271499,0.502280,0.378440,-0.640625,-0.515625,0.281250,0.500000,0.375000
49480.000000,-0.639888,-0.512330,0.271499,0.502280,0.378440,-0.640625,-0.515625,0.281250,0.500000,0.375000
49488.000000,-0.639888,-0.512330,0.271499,0.502280,0.378440,-0.640625,-0.515625,0.281250,0.500000,0.375000
49496.000000,-0.639888,-0.512330,0.271499,0.502280,0.378440,-0.640625,-0.515625,0.281250,0.500000,0.375000
49544.000000,-0.639888,-0.512330,0.271499,0.502280,0.378440,-0.640625,-0.515625,0.281250,0.500000,0.375000
49552.000000,-0.639888,-0.512330,0.271499,0.502280,0.378440,-0.640625,-0.515625,0.281250,0.500000,0.375000
49608.000000,-0.639888,-0.512330,0.271499,0.502280,0.378440,-0.640625,-0.515625,0.281250,0.500000,0.375000
49616.000000,-0.639888,-0.512330,0.271499,0.502280,0.378440,-0.640625,-0.515625,0.281250,0.500000,0.375000
49672.000000,-0.639888,-0.512330,0.271499,0.502280,0.378440,-0.640625,-0.515625,0.281250,0.500000,0.375000
49736.000000,-0.639888,-0.512330,0.271499,0.502280,0.378440,-0.640625,-0.515625,0.281250,0.500000,0.375000
49800.000000,-0.639888,-0.512330,0.271499,0.502280,0.378440,-0.640625,-0.515625,0.281250,0.500000,0.375000
49808.000000,-0.639888,-0.512330,0.271499,0.502280,0.378440,-0.640625,-0.515625,0.281250,0.500000,0.375000
49864.000000,-0.639888,-0.512330,0.271499,0.502280,0.378440,-0.640625,-0.515625,0.281250,0.500000,0.375000
49928.000000,-0.639888,-0.512330,0.271499,0.502280,0.378440,-0.640625,-0.515625,0.281250,0.500000,0.375000
49936.000000,-0.639888,-0.512330,0.271499,0.502280,0.378440,-0.640625,-0.515625,0.281250,0.500000,0.375000
49992.000000,-0.639888,-0.512330,0.271499,0.502280,0.378440,-0.640625,-0.515625,0.281250,0.500000,0.375000
50056.000000,-0.639888,-0.512330,0.271499,0.502280,0.378440,-0.640625,-0.515625,0.281250,0.500000,0.375000
50120.000000,-0.639888,-0.512330,0.271499,0.502280,0.378440,-0.640625,-0.515625,0.281250,0.500000,0.375000
50128.000000,-0.639888,-0.512330,0.271499,0.502280,0.378440,-0.640625,-0.515625,0.281250,0.500000,0.375000
50184.000000,-0.639888,-0.512330,0.271499,0.502280,0.378440,-0.640625,-0.515625,0.281250,0.500000,0.375000
50192.000000,-0.639888,-0.512330,0.271499,0.502280,0.378440,-0.640625,-0.515625,0.281250,0.500000,0.375000
50248.000000,-0.639888,-0.512330,0.271499,0.502280,0.378440,-0.640625,-0.515625,0.281250,0.500000,0.375000
50256.000000,-0.639888,-0.512330,0.271499,0.502280,0.378440,-0.640625,-0.515625,0.281250,0.500000,0.375000
50312.000000,-0.639888,-0.512330,0.271499,0.502280,0.378440,-0.640625,-0.515625,0.281250,0.500000,0.375000
50320.000000,-0.639888,-0.512330,0.271499,0.502280,0.378440,-0.640625,-0.515625,0.281250,0.500000,0.375000
50376.000000,-0.639888,-0.512330,0.271499,0.502280,0.378440,-0.640625,-0.515625,0.281250,0.500000,0.375000
50440.000000,-0.639888,-0.512330,0.271499,0.502280,0.378440,-0.640625,-0.515625,0.281250,0.500000,0.375000
50568.000000,-0.639888,-0.512330,0.271499,0.502280,0.378440,-0.640625,-0.515625,0.281250,0.500000,0.375000
50696.000000,-0.639888,-0.512330,0.271499,0.502280,0.378440,-0.640625,-0.515625,0.281250,0.500000,0.375000
50824.000000,-0.639888,-0.512330,0.271499,0.502280,0.378440,-0.640625,-0.515625,0.281250,0.500000,0.375000
50832.000000,-0.639888,-0.512330,0.271499,0.502280,0.378440,-0.640625,-0.515625,0.281250,0.500000,0.375000
50952.000000,-0.639888,-0.512330,0.271499,0.502280,0.378440,-0.640625,-0.515625,0.281250,0.500000,0.375000
50960.000000,-0.639888,-0.512330,0.271499,0.502280,0.378440,-0.640625,-0.515625,0.281250,0.500000,0.375000
57416.000000,-0.639888,-0.512330,0.271499,0.502280,0.378440,-0.640625,-0.515625,0.281250,0.500000,0.375000
57424.000000,-0.639888,-0.512330,0.271499,0.502280,0.378440,-0.640625,-0.515625,0.281250,0.500000,0.375000
57480.000000,-0.639888,-0.512330,0.271499,0.502280,0.378440,-0.640625,-0.515625,0.281250,0.500000,0.375000
57488.000000,-0.639888,-0.512330,0.271499,0.502280,0.378440,-0.640625,-0.515625,0.281250,0.500000,0.375000
57544.000000,-0.639888,-0.512330,0.271499,0.502280,0.378440,-0.640625,-0.515625,0.281250,0.500000,0.375000
57552.000000,-0.639888,-0.512330,0.271499,0.502280,0.378440,-0.640625,-0.515625,0.281250,0.500000,0.375000
57608.000000,-0.639888,-0.512330,0.271499,0.502280,0.378440,-0.640625,-0.515625,0.281250,0.500000,0.375000
57616.000000,-0.639888,-0.512330,0.271499,0.502280,0.378440,-0.640625,-0.515625,0.281250,0.500000,0.375000
57672.000000,-0.639888,-0.512330,0.271499,0.502280,0.378440,-0.640625,-0.515625,0.281250,0.500000,0.375000
57680.000000,-0.639888,-0.512330,0.271499,0.502280,0.378440,-0.640625,-0.515625,0.281250,0.500000,0.375000
57736.000000,-0.639888,-0.512330,0.271499,0.502280,0.378440,-0.640625,-0.515625,0.281250,0.500000,0.375000
57744.000000,-0.639888,-0.512330,0.271499,0.502280,0.378440,-0.640625,-0.515625,0.281250,0.500000,0.375000
57800.000000,-0.639888,-0.512330,0.271499,0.502280,0.378440,-0.640625,-0.515625,0.281250,0.500000,0.375000
57864.000000,-0.639888,-0.512330,0.271499,0.502280,0.378440,-0.640625,-0.515625,0.281250,0.500000,0.375000
57872.000000,-0.639888,-0.512330,0.271499,0.502280,0.378440,-0.640625,-0.515625,0.281250,0.500000,0.375000
57928.000000,-0.639888,-0.512330,0.271499,0.502280,0.378440,-0.640625,-0.515625,0.281250,0.500000,0.375000
57936.000000,-0.639888,-0.512330,0.271499,0.502280,0.378440,-0.640625,-0.515625,0.281250,0.500000,0.375000
57992.000000,-0.639888,-0.512330,0.271499,0.502280,0.378440,-0.640625,-0.515625,0.281250,0.500000,0.375000
58056.000000,-0.639888,-0.512330,0.271499,0.502280,0.378440,-0.640625,-0.515625,0.281250,0.500000,0.375000
58064.000000,-0.639888,-0.512330,0.271499,0.502280,0.378440,-0.640625,-0.515625,0.281250,0.500000,0.375000
58120.000000,-0.639888,-0.512330,0.271499,0.502280,0.378440,-0.640625,-0.515625,0.281250,0.500000,0.375000
58128.000000,-0.639888,-0.512330,0.271499,0.502280,0.378440,-0.640625,-0.515625,0.281250,0.500000,0.375000
58184.000000,-0.639888,-0.512330,0.271499,0.502280,0.378440,-0.640625,-0.515625,0.281250,0.500000,0.375000
58192.000000,-0.639888,-0.512330,0.271499,0.502280,0.378440,-0.640625,-0.515625,0.281250,0.500000,0.375000
58248.000000,-0.639888,-0.512330,0.271499,0.502280,0.378440,-0.640625,-0.515625,0.281250,0.500000,0.375000
58312.000000,-0.639888,-0.512330,0.271499,0.502280,0.378440,-0.640625,-0.515625,0.281250,0.500000,0.375000
58320.000000,-0.639888,-0.512330,0.271499,0.502280,0.378440,-0.640625,-0.515625,0.281250,0.500000,0.375000
58376.000000,-0.639888,-0.512330,0.271499,0.502280,0.378440,-0.640625,-0.515625,0.281250,0.500000,0.375000
58440.000000,-0.639888,-0.512330,0.271499,0.502280,0.378440,-0.640625,-0.515625,0.281250,0.500000,0.375000
58504.000000,-0.639888,-0.512330,0.271499,0.502280,0.378440,-0.640625,-0.515625,0.281250,0.500000,0.375000
58568.000000,-0.639888,-0.512330,0.271499,0.502280,0.378440,-0.640625,-0.515625,0.281250,0.500000,0.375000
58632.000000,-0.639888,-0.512330,0.271499,0.502280,0.378440,-0.640625,-0.515625,0.281250,0.500000,0.375000
58760.000000,-0.639888,-0.512330,0.271499,0.502280,0.378440,-0.640625,-0.515625,0.281250,0.500000,0.375000
58768.000000,-0.639888,-0.512330,0.271499,0.502280,0.378440,-0.640625,-0.515625,0.281250,0.500000,0.375000
58776.000000,-0.639888,-0.512330,0.271499,0.502280,0.378440,-0.640625,-0.515625,0.281250,0.500000,0.375000
58888.000000,-0.639888,-0.512330,0.271499,0.502280,0.378440,-0.640625,-0.515625,0.281250,0.500000,0.375000
59016.000000,-0.639888,-0.512330,0.271499,0.502280,0.378440,-0.640625,-0.515625,0.281250,0.500000,0.375000
59144.000000,-0.639888,-0.512330,0.271499,0.502280,0.378440,-0.640625,-0.515625,0.281250,0.500000,0.375000
59152.000000,-0.639888,-0.512330,0.271499,0.502280,0.378440,-0.640625,-0.515625,0.281250,0.500000,0.375000
59160.000000,-0.639888,-0.512330,0.271499,0.502280,0.378440,-0.640625,-0.515625,0.281250,0.500000,0.375000
65608.000000,-0.639888,-0.512330,0.271499,0.502280,0.378440,-0.640625,-0.515625,0.281250,0.500000,0.375000
65616.000000,-0.639888,-0.512330,0.271499,0.502280,0.378440,-0.640625,-0.515625,0.281250,0.500000,0.375000
65672.000000,-0.639888,-0.512330,0.271499,0.502280,0.378440,-0.640625,-0.515625,0.281250,0.500000,0.375000
65680.000000,-0.639888,-0.512330,0.271499,0.502280,0.378440,-0.640625,-0.515625,0.281250,0.500000,0.375000
65736.000000,-0.639888,-0.512330,0.271499,0.502280,0.378440,-0.640625,-0.515625,0.281250,0.500000,0.375000
65744.000000,-0.639888,-0.512330,0.271499,0.502280,0.378440,-0.640625,-0.515625,0.281250,0.500000,0.375000
65800.000000,-0.639888,-0.512330,0.271499,0.502280,0.378440,-0.640625,-0.515625,0.281250,0.500000,0.375000
65808.000000,-0.639888,-0.512330,0.271499,0.502280,0.378440,-0.640625,-0.515625,0.281250,0.500000,0.375000
65864.000000,-0.639888,-0.512330,0.271499,0.502280,0.378440,-0.640625,-0.515625,0.281250,0.500000,0.375000
65872.000000,-0.639888,-0.512330,0.271499,0.502280,0.378440,-0.640625,-0.515625,0.281250,0.500000,0.375000
65928.000000,-0.639888,-0.512330,0.271499,0.502280,0.378440,-0.640625,-0.515625,0.281250,0.500000,0.375000
65992.000000,-0.639888,-0.512330,0.271499,0.502280,0.378440,-0.640625,-0.515625,0.281250,0.500000,0.375000
66000.000000,-0.639888,-0.512330,0.271499,0.502280,0.378440,-0.640625,-0.515625,0.281250,0.500000,0.375000
66056.000000,-0.639888,-0.512330,0.271499,0.502280,0.378440,-0.640625,-0.515625,0.281250,0.500000,0.375000
66120.000000,-0.639888,-0.512330,0.271499,0.502280,0.378440,-0.640625,-0.515625,0.281250,0.500000,0.375000
66128.000000,-0.639888,-0.512330,0.271499,0.502280,0.378440,-0.640625,-0.515625,0.281250,0.500000,0.375000
66184.000000,-0.639888,-0.512330,0.271499,0.502280,0.378440,-0.640625,-0.515625,0.281250,0.500000,0.375000
66192.000000,-0.639888,-0.512330,0.271499,0.502280,0.378440,-0.640625,-0.515625,0.281250,0.500000,0.375000
66248.000000,-0.639888,-0.512330,0.271499,0.502280,0.378440,-0.640625,-0.515625,0.281250,0.500000,0.375000
66256.000000,-0.639888,-0.512330,0.271499,0.502280,0.378440,-0.640625,-0.515625,0.281250,0.500000,0.375000
66312.000000,-0.639888,-0.512330,0.271499,0.502280,0.378440,-0.640625,-0.515625,0.281250,0.500000,0.375000
66320.000000,-0.639888,-0.512330,0.271499,0.502280,0.378440,-0.640625,-0.515625,0.281250,0.500000,0.375000
66376.000000,-0.639888,-0.512330,0.271499,0.502280,0.378440,-0.640625,-0.515625,0.281250,0.500000,0.375000
66384.000000,-0.639888,-0.512330,0.271499,0.502280,0.378440,-0.640625,-0.515625,0.281250,0.500000,0.375000
66440.000000,-0.639888,-0.512330,0.271499,0.502280,0.378440,-0.640625,-0.515625,0.281250,0.500000,0.375000
66504.000000,-0.639888,-0.512330,0.271499,0.502280,0.378440,-0.640625,-0.515625,0.281250,0.500000,0.375000
66568.000000,-0.639888,-0.512330,0.271499,0.502280,0.378440,-0.640625,-0.515625,0.281250,0.500000,0.375000
66576.000000,-0.639888,-0.512330,0.271499,0.502280,0.378440,-0.640625,-0.515625,0.281250,0.500000,0.375000
66632.000000,-0.639888,-0.512330,0.271499,0.502280,0.378440,-0.640625,-0.515625,0.281250,0.500000,0.375000
66640.000000,-0.639888,-0.512330,0.271499,0.502280,0.378440,-0.640625,-0.515625,0.281250,0.500000,0.375000
66696.000000,-0.639888,-0.512330,0.271499,0.502280,0.378440,-0.640625,-0.515625,0.281250,0.500000,0.375000
66704.000000,-0.639888,-0.512330,0.271499,0.502280,0.378440,-0.640625,-0.515625,0.281250,0.500000,0.375000
66760.000000,-0.639888,-0.512330,0.271499,0.502280,0.378440,-0.640625,-0.515625,0.281250,0.500000,0.375000
66824.000000,-0.639888,-0.512330,0.271499,0.502280,0.378440,-0.640625,-0.515625,0.281250,0.500000,0.375000
66952.000000,-0.639888,-0.512330,0.271499,0.502280,0.378440,-0.640625,-0.515625,0.281250,0.500000,0.375000
66960.000000,-0.639888,-0.512330,0.271499,0.502280,0.378440,-0.640625,-0.515625,0.281250,0.500000,0.375000
67080.000000,-0.639888,-0.512330,0.271499,0.502280,0.378440,-0.640625,-0.515625,0.281250,0.500000,0.375000
67088.000000,-0.639888,-0.512330,0.271499,0.502280,0.378440,-0.640625,-0.515625,0.281250,0.500000,0.375000
67208.000000,-0.639888,-0.512330,0.271499,0.502280,0.378440,-0.640625,-0.515625,0.281250,0.500000,0.375000
67336.000000,-0.639888,-0.512330,0.271499,0.502280,0.378440,-0.640625,-0.515625,0.281250,0.500000,0.375000
67344.000000,-0.639888,-0.512330,0.271499,0.502280,0.378440,-0.640625,-0.515625,0.281250,0.500000,0.375000
73800.000000,-0.639888,-0.512330,0.271499,0.502280,0.378440,-0.640625,-0.515625,0.281250,0.500000,0.375000
73808.000000,-0.639888,-0.512330,0.271499,0.502280,0.378440,-0.640625,-0.515625,0.281250,0.500000,0.375000
73864.000000,-0.639888,-0.512330,0.271499,0.502280,0.378440,-0.640625,-0.515625,0.281250,0.500000,0.375000
73872.000000,-0.639888,-0.512330,0.271499,0.502280,0.378440,-0.640625,-0.515625,0.281250,0.500000,0.375000
73928.000000,-0.639888,-0.512330,0.271499,0.502280,0.378440,-0.640625,-0.515625,0.281250,0.500000,0.375000
73936.000000,-0.639888,-0.512330,0.271499,0.502280,0.378440,-0.640625,-0.515625,0.281250,0.500000,0.375000
73944.000000,-0.639888,-0.512330,0.271499,0.502280,0.378440,-0.640625,-0.515625,0.281250,0.500000,0.375000
73992.000000,-0.639888,-0.512330,0.271499,0.502280,0.378440,-0.640625,-0.515625,0.281250,0.500000,0.375000
74000.000000,-0.639888,-0.512330,0.271499,0.502280,0.378440,-0.640625,-0.515625,0.281250,0.500000,0.375000
74056.000000,-0.639888,-0.512330,0.271499,0.502280,0.378440,-0.640625,-0.515625,0.281250,0.500000,0.375000
74064.000000,-0.639888,-0.512330,0.271499,0.502280,0.378440,-0.640625,-0.515625,0.281250,0.500000,0.375000
74120.000000,-0.639888,-0.512330,0.271499,0.502280,0.378440,-0.640625,-0.515625,0.281250,0.500000,0.375000
74128.000000,-0.639888,-0.512330,0.271499,0.502280,0.378440,-0.640625,-0.515625,0.281250,0.500000,0.375000
74184.000000,-0.639888,-0.512330,0.271499,0.502280,0.378440,-0.640625,-0.515625,0.281250,0.500000,0.375000
74248.000000,-0.639888,-0.512330,0.271499,0.502280,0.378440,-0.640625,-0.515625,0.281250,0.500000,0.375000
74256.000000,-0.639888,-0.512330,0.271499,0.502280,0.378440,-0.640625,-0.515625,0.281250,0.500000,0.375000
74312.000000,-0.639888,-0.512330,0.271499,0.502280,0.378440,-0.640625,-0.515625,0.281250,0.500000,0.375000
74376.000000,-0.639888,-0.512330,0.271499,0.502280,0.378440,-0.640625,-0.515625,0.281250,0.500000,0.375000
74384.000000,-0.639888,-0.512330,0.271499,0.502280,0.378440,-0.640625,-0.515625,0.281250,0.500000,0.375000
74440.000000,-0.639888,-0.512330,0.271499,0.502280,0.378440,-0.640625,-0.515625,0.281250,0.500000,0.375000
74448.000000,-0.639888,-0.512330,0.271499,0.502280,0.378440,-0.640625,-0.515625,0.281250,0.500000,0.375000
74504.000000,-0.639888,-0.512330,0.271499,0.502280,0.378440,-0.640625,-0.515625,0.281250,0.500000,0.375000
74568.000000,-0.639888,-0.512330,0.271499,0.502280,0.378440,-0.640625,-0.515625,0.281250,0.500000,0.375000
74632.000000,-0.639888,-0.512330,0.271499,0.502280,0.378440,-0.640625,-0.515625,0.281250,0.500000,0.375000
74640.000000,-0.639888,-0.512330,0.271499,0.502280,0.378440,-0.640625,-0.515625,0.281250,0.500000,0.375000
74696.000000,-0.639888,-0.512330,0.271499,0.502280,0.378440,-0.640625,-0.515625,0.281250,0.500000,0.375000
74704.000000,-0.639888,-0.512330,0.271499,0.502280,0.378440,-0.640625,-0.515625,0.281250,0.500000,0.375000
74760.000000,-0.639888,-0.512330,0.271499,0.502280,0.378440,-0.640625,-0.515625,0.281250,0.500000,0.375000
74768.000000,-0.639888,-0.512330,0.271499,0.502280,0.378440,-0.640625,-0.515625,0.281250,0.500000,0.375000
74824.000000,-0.639888,-0.512330,0.271499,0.502280,0.378440,-0.640625,-0.515625,0.281250,0.500000,0.375000
74888.000000,-0.639888,-0.512330,0.271499,0.502280,0.378440,-0.640625,-0.515625,0.281250,0.500000,0.375000
74952.000000,-0.639888,-0.512330,0.271499,0.502280,0.378440,-0.640625,-0.515625,0.281250,0.500000,0.375000
75016.000000,-0.639888,-0.512330,0.271499,0.502280,0.378440,-0.640625,-0.515625,0.281250,0.500000,0.375000
75144.000000,-0.639888,-0.512330,0.271499,0.502280,0.378440,-0.640625,-0.515625,0.281250,0.500000,0.375000
75152.000000,-0.639888,-0.512330,0.271499,0.502280,0.378440,-0.640625,-0.515625,0.281250,0.500000,0.375000
75160.000000,-0.639888,-0.512330,0.271499,0.502280,0.378440,-0.640625,-0.515625,0.281250,0.500000,0.375000
75272.000000,-0.639888,-0.512330,0.271499,0.502280,0.378440,-0.640625,-0.515625,0.281250,0.500000,0.375000
75400.000000,-0.639888,-0.512330,0.271499,0.502280,0.378440,-0.640625,-0.515625,0.281250,0.500000,0.375000
75528.000000,-0.639888,-0.512330,0.271499,0.502280,0.378440,-0.640625,-0.515625,0.281250,0.500000,0.375000
75536.000000,-0.639888,-0.512330,0.271499,0.502280,0.378440,-0.640625,-0.515625,0.281250,0.500000,0.375000
81992.000000,-0.639888,-0.512330,0.271499,0.502280,0.378440,-0.640625,-0.515625,0.281250,0.500000,0.375000
82000.000000,-0.639888,-0.512330,0.271499,0.502280,0.378440,-0.640625,-0.515625,0.281250,0.500000,0.375000
82056.000000,-0.639888,-0.512330,0.271499,0.502280,0.378440,-0.640625,-0.515625,0.281250,0.500000,0.375000
82064.000000,-0.639888,-0.512330,0.271499,0.502280,0.378440,-0.640625,-0.515625,0.281250,0.500000,0.375000
82120.000000,-0.639888,-0.512330,0.271499,0.502280,0.378440,-0.640625,-0.515625,0.281250,0.500000,0.375000
82128.000000,-0.639888,-0.512330,0.271499,0.502280,0.378440,-0.640625,-0.515625,0.281250,0.500000,0.375000
82184.000000,-0.639888,-0.512330,0.271499,0.502280,0.378440,-0.640625,-0.515625,0.281250,0.500000,0.375000
82192.000000,-0.639888,-0.512330,0.271499,0.502280,0.378440,-0.640625,-0.515625,0.281250,0.500000,0.375000
82248.000000,-0.639888,-0.512330,0.271499,0.502280,0.378440,-0.640625,-0.515625,0.281250,0.500000,0.375000
82256.000000,-0.639888,-0.512330,0.271499,0.502280,0.378440,-0.640625,-0.515625,0.281250,0.500000,0.375000
82312.000000,-0.639888,-0.512330,0.271499,0.502280,0.378440,-0.640625,-0.515625,0.281250,0.500000,0.375000
82320.000000,-0.639888,-0.512330,0.271499,0.502280,0.378440,-0.640625,-0.515625,0.281250,0.500000,0.375000
82328.000000,-0.639888,-0.512330,0.271499,0.502280,0.378440,-0.640625,-0.515625,0.281250,0.500000,0.375000
82376.000000,-0.639888,-0.512330,0.271499,0.502280,0.378440,-0.640625,-0.515625,0.281250,0.500000,0.375000
82384.000000,-0.639888,-0.512330,0.271499,0.502280,0.378440,-0.640625,-0.515625,0.281250,0.500000,0.375000
82392.000000,-0.639888,-0.512330,0.271499,0.502280,0.378440,-0.640625,-0.515625,0.281250,0.500000,0.375000
82440.000000,-0.639888,-0.512330,0.271499,0.502280,0.378440,-0.640625,-0.515625,0.281250,0.500000,0.375000
82448.000000,-0.639888,-0.512330,0.271499,0.502280,0.378440,-0.640625,-0.515625,0.281250,0.500000,0.375000
82504.000000,-0.639888,-0.512330,0.271499,0.502280,0.378440,-0.640625,-0.515625,0.281250,0.500000,0.375000
82512.000000,-0.639888,-0.512330,0.271499,0.502280,0.378440,-0.640625,-0.515625,0.281250,0.500000,0.375000
82568.000000,-0.639888,-0.512330,0.271499,0.502280,0.378440,-0.640625,-0.515625,0.281250,0.500000,0.375000
82632.000000,-0.639888,-0.512330,0.271499,0.502280,0.378440,-0.640625,-0.515625,0.281250,0.500000,0.375000
82696.000000,-0.639888,-0.512330,0.271499,0.502280,0.378440,-0.640625,-0.515625,0.281250,0.500000,0.375000
82704.000000,-0.639888,-0.512330,0.271499,0.502280,0.378440,-0.640625,-0.515625,0.281250,0.500000,0.375000
82760.000000,-0.639888,-0.512330,0.271499,0.502280,0.378440,-0.640625,-0.515625,0.281250,0.500000,0.375000
82824.000000,-0.639888,-0.512330,0.271499,0.502280,0.378440,-0.640625,-0.515625,0.281250,0.500000,0.375000
82888.000000,-0.639888,-0.512330,0.271499,0.502280,0.378440,-0.640625,-0.515625,0.281250,0.500000,0.375000
82952.000000,-0.639888,-0.512330,0.271499,0.502280,0.378440,-0.640625,-0.515625,0.281250,0.500000,0.375000
83016.000000,-0.639888,-0.512330,0.271499,0.502280,0.378440,-0.640625,-0.515625,0.281250,0.500000,0.375000
83024.000000,-0.639888,-0.512330,0.271499,0.502280,0.378440,-0.640625,-0.515625,0.281250,0.500000,0.375000
83080.000000,-0.639888,-0.512330,0.271499,0.502280,0.378440,-0.640625,-0.515625,0.281250,0.500000,0.375000
83088.000000,-0.639888,-0.512330,0.271499,0.502280,0.378440,-0.640625,-0.515625,0.281250,0.500000,0.375000
83144.000000,-0.639888,-0.512330,0.271499,0.502280,0.378440,-0.640625,-0.515625,0.281250,0.500000,0.375000
83152.000000,-0.639888,-0.512330,0.271499,0.502280,0.378440,-0.640625,-0.515625,0.281250,0.500000,0.375000
83208.000000,-0.639888,-0.512330,0.271499,0.502280,0.378440,-0.640625,-0.515625,0.281250,0.500000,0.375000
83216.000000,-0.639888,-0.512330,0.271499,0.502280,0.378440,-0.640625,-0.515625,0.281250,0.500000,0.375000
83336.000000,-0.639888,-0.512330,0.271499,0.502280,0.378440,-0.640625,-0.515625,0.281250,0.500000,0.375000
83464.000000,-0.639888,-0.512330,0.271499,0.502280,0.378440,-0.640625,-0.515625,0.281250,0.500000,0.375000
83592.000000,-0.639888,-0.512330,0.271499,0.502280,0.378440,-0.640625,-0.515625,0.281250,0.500000,0.375000
83600.000000,-0.639888,-0.512330,0.271499,0.502280,0.378440,-0.640625,-0.515625,0.281250,0.500000,0.375000
83720.000000,-0.639888,-0.512330,0.271499,0.502280,0.378440,-0.640625,-0.515625,0.281250,0.500000,0.375000
83728.000000,-0.639888,-0.512330,0.271499,0.502280,0.378440,-0.640625,-0.515625,0.281250,0.500000,0.375000
90184.000000,-0.639888,-0.512330,0.271499,0.502280,0.378440,-0.640625,-0.515625,0.281250,0.500000,0.375000
90192.000000,-0.639888,-0.512330,0.271499,0.502280,0.378440,-0.640625,-0.515625,0.281250,0.500000,0.375000
90248.000000,-0.639888,-0.512330,0.271499,0.502280,0.378440,-0.640625,-0.515625,0.281250,0.500000,0.375000
90256.000000,-0.639888,-0.512330,0.271499,0.502280,0.378440,-0.640625,-0.515625,0.281250,0.500000,0.375000
90264.000000,-0.639888,-0.512330,0.271499,0.502280,0.378440,-0.640625,-0.515625,0.281250,0.500000,0.375000
90312.000000,-0.639888,-0.512330,0.271499,0.502280,0.378440,-0.640625,-0.515625,0.281250,0.500000,0.375000
90320.000000,-0.639888,-0.512330,0.271499,0.502280,0.378440,-0.640625,-0.515625,0.281250,0.500000,0.375000
90376.000000,-0.639888,-0.512330,0.271499,0.502280,0.378440,-0.640625,-0.515625,0.281250,0.500000,0.375000
90384.000000,-0.639888,-0.512330,0.271499,0.502280,0.378440,-0.640625,-0.515625,0.281250,0.500000,0.375000
90440.000000,-0.639888,-0.512330,0.271499,0.502280,0.378440,-0.640625,-0.515625,0.281250,0.500000,0.375000
90448.000000,-0.639888,-0.512330,0.271499,0.502280,0.378440,-0.640625,-0.515625,0.281250,0.500000,0.375000
90504.000000,-0.639888,-0.512330,0.271499,0.502280,0.378440,-0.640625,-0.515625,0.281250,0.500000,0.375000
90568.000000,-0.639888,-0.512330,0.271499,0.502280,0.378440,-0.640625,-0.515625,0.281250,0.500000,0.375000
90576.000000,-0.639888,-0.512330,0.271499,0.502280,0.378440,-0.640625,-0.515625,0.281250,0.500000,0.375000
90632.000000,-0.639888,-0.512330,0.271499,0.502280,0.378440,-0.640625,-0.515625,0.281250,0.500000,0.375000
90640.000000,-0.639888,-0.512330,0.271499,0.502280,0.378440,-0.640625,-0.515625,0.281250,0.500000,0.375000
90696.000000,-0.639888,-0.512330,0.271499,0.502280,0.378440,-0.640625,-0.515625,0.281250,0.500000,0.375000
90760.000000,-0.639888,-0.512330,0.271499,0.502280,0.378440,-0.640625,-0.515625,0.281250,0.500000,0.375000
90768.000000,-0.639888,-0.512330,0.271499,0.502280,0.378440,-0.640625,-0.515625,0.281250,0.500000,0.375000
90824.000000,-0.639888,-0.512330,0.271499,0.502280,0.378440,-0.640625,-0.515625,0.281250,0.500000,0.375000
90832.000000,-0.639888,-0.512330,0.271499,0.502280,0.378440,-0.640625,-0.515625,0.281250,0.500000,0.375000
90888.000000,-0.639888,-0.512330,0.271499,0.502280,0.378440,-0.640625,-0.515625,0.281250,0.500000,0.375000
90952.000000,-0.639888,-0.512330,0.271499,0.502280,0.378440,-0.640625,-0.515625,0.281250,0.500000,0.375000
90960.000000,-0.639888,-0.512330,0.271499,0.502280,0.378440,-0.640625,-0.515625,0.281250,0.500000,0.375000
91016.000000,-0.639888,-0.512330,0.271499,0.502280,0.378440,-0.640625,-0.515625,0.281250,0.500000,0.375000
91024.000000,-0.639888,-0.512330,0.271499,0.502280,0.378440,-0.640625,-0.515625,0.281250,0.500000,0.375000
91080.000000,-0.639888,-0.512330,0.271499,0.502280,0.378440,-0.640625,-0.515625,0.281250,0.500000,0.375000
91088.000000,-0.639888,-0.512330,0.271499,0.502280,0.378440,-0.640625,-0.515625,0.281250,0.500000,0.375000
91144.000000,-0.639888,-0.512330,0.271499,0.502280,0.378440,-0.640625,-0.515625,0.281250,0.500000,0.375000
91208.000000,-0.639888,-0.512330,0.271499,0.502280,0.378440,-0.640625,-0.515625,0.281250,0.500000,0.375000
91272.000000,-0.639888,-0.512330,0.271499,0.502280,0.378440,-0.640625,-0.515625,0.281250,0.500000,0.375000
91336.000000,-0.639888,-0.512330,0.271499,0.502280,0.378440,-0.640625,-0.515625,0.281250,0.500000,0.375000
91400.000000,-0.639888,-0.512330,0.271499,0.502280,0.378440,-0.640625,-0.515625,0.281250,0.500000,0.375000
91528.000000,-0.639888,-0.512330,0.271499,0.502280,0.378440,-0.640625,-0.515625,0.281250,0.500000,0.375000
91656.000000,-0.639888,-0.512330,0.271499,0.502280,0.378440,-0.640625,-0.515625,0.281250,0.500000,0.375000
91664.000000,-0.639888,-0.512330,0.271499,0.502280,0.378440,-0.640625,-0.515625,0.281250,0.500000,0.375000
91672.000000,-0.639888,-0.512330,0.271499,0.502280,0.378440,-0.640625,-0.515625,0.281250,0.500000,0.375000
91784.000000,-0.639888,-0.512330,0.271499,0.502280,0.378440,-0.640625,-0.515625,0.281250,0.500000,0.375000
91792.000000,-0.639888,-0.512330,0.271499,0.502280,0.378440,-0.640625,-0.515625,0.281250,0.500000,0.375000
91912.000000,-0.639888,-0.512330,0.271499,0.502280,0.378440,-0.640625,-0.515625,0.281250,0.500000,0.375000
98376.000000,-0.639888,-0.512330,0.271499,0.502280,0.378440,-0.640625,-0.515625,0.281250,0.500000,0.375000
98384.000000,-0.639888,-0.512330,0.271499,0.502280,0.378440,-0.640625,-0.515625,0.281250,0.500000,0.375000
98440.000000,-0.639888,-0.512330,0.271499,0.502280,0.378440,-0.640625,-0.515625,0.281250,0.500000,0.375000
98448.000000,-0.639888,-0.512330,0.271499,0.502280,0.378440,-0.640625,-0.515625,0.281250,0.500000,0.375000
98504.000000,-0.639888,-0.512330,0.271499,0.502280,0.378440,-0.640625,-0.515625,0.281250,0.500000,0.375000
98512.000000,-0.639888,-0.512330,0.271499,0.502280,0.378440,-0.640625,-0.515625,0.281250,0.500000,0.375000
98568.000000,-0.639888,-0.512330,0.271499,0.502280,0.378440,-0.640625,-0.515625,0.281250,0.500000,0.375000
98576.000000,-0.639888,-0.512330,0.271499,0.502280,0.378440,-0.640625,-0.515625,0.281250,0.500000,0.375000
98632.000000,-0.639888,-0.512330,0.271499,0.502280,0.378440,-0.640625,-0.515625,0.281250,0.500000,0.375000
98696.000000,-0.639888,-0.512330,0.271499,0.502280,0.378440,-0.640625,-0.515625,0.281250,0.500000,0.375000
98760.000000,-0.639888,-0.512330,0.271499,0.502280,0.378440,-0.640625,-0.515625,0.281250,0.500000,0.375000
98768.000000,-0.639888,-0.512330,0.271499,0.502280,0.378440,-0.640625,-0.515625,0.281250,0.500000,0.375000
98824.000000,-0.639888,-0.512330,0.271499,0.502280,0.378440,-0.640625,-0.515625,0.281250,0.500000,0.375000
98888.000000,-0.639888,-0.512330,0.271499,0.502280,0.378440,-0.640625,-0.515625,0.281250,0.500000,0.375000
99024.000000,-0.639888,-0.512330,0.271499,0.502280,0.378440,-0.640625,-0.515625,0.281250,0.500000,0.375000
99080.000000,-0.639888,-0.512330,0.271499,0.502280,0.378440,-0.640625,-0.515625,0.281250,0.500000,0.375000
99088.000000,-0.639888,-0.512330,0.271499,0.502280,0.378440,-0.640625,-0.515625,0.281250,0.500000,0.375000
99144.000000,-0.639888,-0.512330,0.271499,0.502280,0.378440,-0.640625,-0.515625,0.281250,0.500000,0.375000
99152.000000,-0.639888,-0.512330,0.271499,0.502280,0.378440,-0.640625,-0.515625,0.281250,0.500000,0.375000
99208.000000,-0.639888,-0.512330,0.271499,0.502280,0.378440,-0.640625,-0.515625,0.281250,0.500000,0.375000
99272.000000,-0.639888,-0.512330,0.271499,0.502280,0.378440,-0.640625,-0.515625,0.281250,0.500000,0.375000
99280.000000,-0.639888,-0.512330,0.271499,0.502280,0.378440,-0.640625,-0.515625,0.281250,0.500000,0.375000
99336.000000,-0.639888,-0.512330,0.271499,0.502280,0.378440,-0.640625,-0.515625,0.281250,0.500000,0.375000
99400.000000,-0.639888,-0.512330,0.271499,0.502280,0.378440,-0.640625,-0.515625,0.281250,0.500000,0.375000
99464.000000,-0.639888,-0.512330,0.271499,0.502280,0.378440,-0.640625,-0.515625,0.281250,0.500000,0.375000
99528.000000,-0.639888,-0.512330,0.271499,0.502280,0.378440,-0.640625,-0.515625,0.281250,0.500000,0.375000
99536.000000,-0.639888,-0.512330,0.271499,0.502280,0.378440,-0.640625,-0.515625,0.281250,0.500000,0.375000
99592.000000,-0.639888,-0.512330,0.271499,0.502280,0.378440,-0.640625,-0.515625,0.281250,0.500000,0.375000
99600.000000,-0.639888,-0.512330,0.271499,0.502280,0.378440,-0.640625,-0.515625,0.281250,0.500000,0.375000
99720.000000,-0.639888,-0.512330,0.271499,0.502280,0.378440,-0.640625,-0.515625,0.281250,0.500000,0.375000
99848.000000,-0.639888,-0.512330,0.271499,0.502280,0.378440,-0.640625,-0.515625,0.281250,0.500000,0.375000
99856.000000,-0.639888,-0.512330,0.271499,0.502280,0.378440,-0.640625,-0.515625,0.281250,0.500000,0.375000
99976.000000,-0.639888,-0.512330,0.271499,0.502280,0.378440,-0.640625,-0.515625,0.281250,0.500000,0.375000
99984.000000,-0.639888,-0.512330,0.271499,0.502280,0.378440,-0.640625,-0.515625,0.281250,0.500000,0.375000
99992.000000,-0.639888,-0.512330,0.271499,0.502280,0.378440,-0.640625,-0.515625,0.281250,0.500000,0.375000
100104.000000,-0.639888,-0.512330,0.271499,0.502280,0.378440,-0.640625,-0.515625,0.281250,0.500000,0.375000
106568.000000,-0.639888,-0.512330,0.271499,0.502280,0.378440,-0.640625,-0.515625,0.281250,0.500000,0.375000
106576.000000,-0.639888,-0.512330,0.271499,0.502280,0.378440,-0.640625,-0.515625,0.281250,0.500000,0.375000
106632.000000,-0.639888,-0.512330,0.271499,0.502280,0.378440,-0.640625,-0.515625,0.281250,0.500000,0.375000
106640.000000,-0.639888,-0.512330,0.271499,0.502280,0.378440,-0.640625,-0.515625,0.281250,0.500000,0.375000
106696.000000,-0.639888,-0.512330,0.271499,0.502280,0.378440,-0.640625,-0.515625,0.281250,0.500000,0.375000
106704.000000,-0.639888,-0.512330,0.271499,0.502280,0.378440,-0.640625,-0.515625,0.281250,0.500000,0.375000
106760.000000,-0.639888,-0.512330,0.271499,0.502280,0.378440,-0.640625,-0.515625,0.281250,0.500000,0.375000
106768.000000,-0.639888,-0.512330,0.271499,0.502280,0.378440,-0.640625,-0.515625,0.281250,0.500000,0.375000
106824.000000,-0.639888,-0.512330,0.271499,0.502280,0.378440,-0.640625,-0.515625,0.281250,0.500000,0.375000
106832.000000,-0.639888,-0.512330,0.271499,0.502280,0.378440,-0.640625,-0.515625,0.281250,0.500000,0.375000
106888.000000,-0.639888,-0.512330,0.271499,0.502280,0.378440,-0.640625,-0.515625,0.281250,0.500000,0.375000
106952.000000,-0.639888,-0.512330,0.271499,0.502280,0.378440,-0.640625,-0.515625,0.281250,0.500000,0.375000
106960.000000,-0.639888,-0.512330,0.271499,0.502280,0.378440,-0.640625,-0.515625,0.281250,0.500000,0.375000
107016.000000,-0.639888,-0.512330,0.271499,0.502280,0.378440,-0.640625,-0.515625,0.281250,0.500000,0.375000
107024.000000,-0.639888,-0.512330,0.271499,0.502280,0.378440,-0.640625,-0.515625,0.281250,0.500000,0.375000
107080.000000,-0.639888,-0.512330,0.271499,0.502280,0.378440,-0.640625,-0.515625,0.281250,0.500000,0.375000
107088.000000,-0.639888,-0.512330,0.271499,0.502280,0.378440,-0.640625,-0.515625,0.281250,0.500000,0.375000
107144.000000,-0.639888,-0.512330,0.271499,0.502280,0.378440,-0.640625,-0.515625,0.281250,0.500000,0.375000
107152.000000,-0.639888,-0.512330,0.271499,0.502280,0.378440,-0.640625,-0.515625,0.281250,0.500000,0.375000
107208.000000,-0.639888,-0.512330,0.271499,0.502280,0.378440,-0.640625,-0.515625,0.281250,0.500000,0.375000
107272.000000,-0.639888,-0.512330,0.271499,0.502280,0.378440,-0.640625,-0.515625,0.281250,0.500000,0.375000
107280.000000,-0.639888,-0.512330,0.271499,0.502280,0.378440,-0.640625,-0.515625,0.281250,0.500000,0.375000
107336.000000,-0.639888,-0.512330,0.271499,0.502280,0.378440,-0.640625,-0.515625,0.281250,0.500000,0.375000
107400.000000,-0.639888,-0.512330,0.271499,0.502280,0.378440,-0.640625,-0.515625,0.281250,0.500000,0.375000
107408.000000,-0.639888,-0.512330,0.271499,0.502280,0.378440,-0.640625,-0.515625,0.281250,0.500000,0.375000
107464.000000,-0.639888,-0.512330,0.271499,0.502280,0.378440,-0.640625,-0.515625,0.281250,0.500000,0.375000
107528.000000,-0.639888,-0.512330,0.271499,0.502280,0.378440,-0.640625,-0.515625,0.281250,0.500000,0.375000
107536.000000,-0.639888,-0.512330,0.271499,0.502280,0.378440,-0.640625,-0.515625,0.281250,0.500000,0.375000
107592.000000,-0.639888,-0.512330,0.271499,0.502280,0.378440,-0.640625,-0.515625,0.281250,0.500000,0.375000
107656.000000,-0.639888,-0.512330,0.271499,0.502280,0.378440,-0.640625,-0.515625,0.281250,0.500000,0.375000
107720.000000,-0.639888,-0.512330,0.271499,0.502280,0.378440,-0.640625,-0.515625,0.281250,0.500000,0.375000
107784.000000,-0.639888,-0.512330,0.271499,0.502280,0.378440,-0.640625,-0.515625,0.281250,0.500000,0.375000
107912.000000,-0.639888,-0.512330,0.271499,0.502280,0.378440,-0.640625,-0.515625,0.281250,0.500000,0.375000
107920.000000,-0.639888,-0.512330,0.271499,0.502280,0.378440,-0.640625,-0.515625,0.281250,0.500000,0.375000
108040.000000,-0.639888,-0.512330,0.271499,0.502280,0.378440,-0.640625,-0.515625,0.281250,0.500000,0.375000
108048.000000,-0.639888,-0.512330,0.271499,0.502280,0.378440,-0.640625,-0.515625,0.281250,0.500000,0.375000
108056.000000,-0.639888,-0.512330,0.271499,0.502280,0.378440,-0.640625,-0.515625,0.281250,0.500000,0.375000
108168.000000,-0.639888,-0.512330,0.271499,0.502280,0.378440,-0.640625,-0.515625,0.281250,0.500000,0.375000
108176.000000,-0.639888,-0.512330,0.271499,0.502280,0.378440,-0.640625,-0.515625,0.281250,0.500000,0.375000
108296.000000,-0.639888,-0.512330,0.271499,0.502280,0.378440,-0.640625,-0.515625,0.281250,0.500000,0.375000
114760.000000,-0.639888,-0.512330,0.271499,0.502280,0.378440,-0.640625,-0.515625,0.281250,0.500000,0.375000
114768.000000,-0.639888,-0.512330,0.271499,0.502280,0.378440,-0.640625,-0.515625,0.281250,0.500000,0.375000
114776.000000,-0.639888,-0.512330,0.271499,0.502280,0.378440,-0.640625,-0.515625,0.281250,0.500000,0.375000
114824.000000,-0.639888,-0.512330,0.271499,0.502280,0.378440,-0.640625,-0.515625,0.281250,0.500000,0.375000
114832.000000,-0.639888,-0.512330,0.271499,0.502280,0.378440,-0.640625,-0.515625,0.281250,0.500000,0.375000
114888.000000,-0.639888,-0.512330,0.271499,0.502280,0.378440,-0.640625,-0.515625,0.281250,0.500000,0.375000
114896.000000,-0.639888,-0.512330,0.271499,0.502280,0.378440,-0.640625,-0.515625,0.281250,0.500000,0.375000
114952.000000,-0.639888,-0.512330,0.271499,0.502280,0.378440,-0.640625,-0.515625,0.281250,0.500000,0.375000
114960.000000,-0.639888,-0.512330,0.271499,0.502280,0.378440,-0.640625,-0.515625,0.281250,0.500000,0.375000
115016.000000,-0.639888,-0.512330,0.271499,0.502280,0.378440,-0.640625,-0.515625,0.281250,0.500000,0.375000
115080.000000,-0.639888,-0.512330,0.271499,0.502280,0.378440,-0.640625,-0.515625,0.281250,0.500000,0.375000
115088.000000,-0.639888,-0.512330,0.271499,0.502280,0.378440,-0.640625,-0.515625,0.281250,0.500000,0.375000
115144.000000,-0.639888,-0.512330,0.271499,0.502280,0.378440,-0.640625,-0.515625,0.281250,0.500000,0.375000
115152.000000,-0.639888,-0.512330,0.271499,0.502280,0.378440,-0.640625,-0.515625,0.281250,0.500000,0.375000
115208.000000,-0.639888,-0.512330,0.271499,0.502280,0.378440,-0.640625,-0.515625,0.281250,0.500000,0.375000
115216.000000,-0.639888,-0.512330,0.271499,0.502280,0.378440,-0.640625,-0.515625,0.281250,0.500000,0.375000
115224.000000,-0.639888,-0.512330,0.271499,0.502280,0.378440,-0.640625,-0.515625,0.281250,0.500000,0.375000
115272.000000,-0.639888,-0.512330,0.271499,0.502280,0.378440,-0.640625,-0.515625,0.281250,0.500000,0.375000
115280.000000,-0.639888,-0.512330,0.271499,0.502280,0.378440,-0.640625,-0.515625,0.281250,0.500000,0.375000
115336.000000,-0.639888,-0.512330,0.271499,0.502280,0.378440,-0.640625,-0.515625,0.281250,0.500000,0.375000
115400.000000,-0.639888,-0.512330,0.271499,0.502280,0.378440,-0.640625,-0.515625,0.281250,0.500000,0.375000
115408.000000,-0.639888,-0.512330,0.271499,0.502280,0.378440,-0.640625,-0.515625,0.281250,0.500000,0.375000
115464.000000,-0.639888,-0.512330,0.271499,0.502280,0.378440,-0.640625,-0.515625,0.281250,0.500000,0.375000
115528.000000,-0.639888,-0.512330,0.271499,0.502280,0.378440,-0.640625,-0.515625,0.281250,0.500000,0.375000
115536.000000,-0.639888,-0.512330,0.271499,0.502280,0.378440,-0.640625,-0.515625,0.281250,0.500000,0.375000
115592.000000,-0.639888,-0.512330,0.271499,0.502280,0.378440,-0.640625,-0.515625,0.281250,0.500000,0.375000
115600.000000,-0.639888,-0.512330,0.271499,0.502280,0.378440,-0.640625,-0.515625,0.281250,0.500000,0.375000
115656.000000,-0.639888,-0.512330,0.271499,0.502280,0.378440,-0.640625,-0.515625,0.281250,0.500000,0.375000
115720.000000,-0.639888,-0.512330,0.271499,0.502280,0.378440,-0.640625,-0.515625,0.281250,0.500000,0.375000
115784.000000,-0.639888,-0.512330,0.271499,0.502280,0.378440,-0.640625,-0.515625,0.281250,0.500000,0.375000
115848.000000,-0.639888,-0.512330,0.271499,0.502280,0.378440,-0.640625,-0.515625,0.281250,0.500000,0.375000
115912.000000,-0.639888,-0.512330,0.271499,0.502280,0.378440,-0.640625,-0.515625,0.281250,0.500000,0.375000
115920.000000,-0.639888,-0.512330,0.271499,0.502280,0.378440,-0.640625,-0.515625,0.281250,0.500000,0.375000
115976.000000,-0.639888,-0.512330,0.271499,0.502280,0.378440,-0.640625,-0.515625,0.281250,0.500000,0.375000
115984.000000,-0.639888,-0.512330,0.271499,0.502280,0.378440,-0.640625,-0.515625,0.281250,0.500000,0.375000
116104.000000,-0.639888,-0.512330,0.271499,0.502280,0.378440,-0.640625,-0.515625,0.281250,0.500000,0.375000
116232.000000,-0.639888,-0.512330,0.271499,0.502280,0.378440,-0.640625,-0.515625,0.281250,0.500000,0.375000
116360.000000,-0.639888,-0.512330,0.271499,0.502280,0.378440,-0.640625,-0.515625,0.281250,0.500000,0.375000
116368.000000,-0.639888,-0.512330,0.271499,0.502280,0.378440,-0.640625,-0.515625,0.281250,0.500000,0.375000
116488.000000,-0.639888,-0.512330,0.271499,0.502280,0.378440,-0.640625,-0.515625,0.281250,0.500000,0.375000
116496.000000,-0.639888,-0.512330,0.271499,0.502280,0.378440,-0.640625,-0.515625,0.281250,0.500000,0.375000
122952.000000,-0.639888,-0.512330,0.271499,0.502280,0.378440,-0.640625,-0.515625,0.281250,0.500000,0.375000
122960.000000,-0.639888,-0.512330,0.271499,0.502280,0.378440,-0.640625,-0.515625,0.281250,0.500000,0.375000
123016.000000,-0.639888,-0.512330,0.271499,0.502280,0.378440,-0.640625,-0.515625,0.281250,0.500000,0.375000
123024.000000,-0.639888,-0.512330,0.271499,0.502280,0.378440,-0.640625,-0.515625,0.281250,0.500000,0.375000
123080.000000,-0.639888,-0.512330,0.271499,0.502280,0.378440,-0.640625,-0.515625,0.281250,0.500000,0.375000
123088.000000,-0.639888,-0.512330,0.271499,0.502280,0.378440,-0.640625,-0.515625,0.281250,0.500000,0.375000
123144.000000,-0.639888,-0.512330,0.271499,0.502280,0.378440,-0.640625,-0.515625,0.281250,0.500000,0.375000
123152.000000,-0.639888,-0.512330,0.271499,0.502280,0.378440,-0.640625,-0.515625,0.281250,0.500000,0.375000
123160.000000,-0.639888,-0.512330,0.271499,0.502280,0.378440,-0.640625,-0.515625,0.281250,0.500000,0.375000
123208.000000,-0.639888,-0.512330,0.271499,0.502280,0.378440,-0.640625,-0.515625,0.281250,0.500000,0.375000
123216.000000,-0.639888,-0.512330,0.271499,0.502280,0.378440,-0.640625,-0.515625,0.281250,0.500000,0.375000
123224.000000,-0.639888,-0.512330,0.271499,0.502280,0.378440,-0.640625,-0.515625,0.281250,0.500000,0.375000
123272.000000,-0.639888,-0.512330,0.271499,0.502280,0.378440,-0.640625,-0.515625,0.281250,0.500000,0.375000
123280.000000,-0.639888,-0.512330,0.271499,0.502280,0.378440,-0.640625,-0.515625,0.281250,0.500000,0.375000
123336.000000,-0.639888,-0.512330,0.271499,0.502280,0.378440,-0.640625,-0.515625,0.281250,0.500000,0.375000
123344.000000,-0.639888,-0.512330,0.271499,0.502280,0.378440,-0.640625,-0.515625,0.281250,0.500000,0.375000
123400.000000,-0.639888,-0.512330,0.271499,0.502280,0.378440,-0.640625,-0.515625,0.281250,0.500000,0.375000
123464.000000,-0.639888,-0.512330,0.271499,0.502280,0.378440,-0.640625,-0.515625,0.281250,0.500000,0.375000
123528.000000,-0.639888,-0.512330,0.271499,0.502280,0.378440,-0.640625,-0.515625,0.281250,0.500000,0.375000
123536.000000,-0.639888,-0.512330,0.271499,0.502280,0.378440,-0.640625,-0.515625,0.281250,0.500000,0.375000
123592.000000,-0.639888,-0.512330,0.271499,0.502280,0.378440,-0.640625,-0.515625,0.281250,0.500000,0.375000
123656.000000,-0.639888,-0.512330,0.271499,0.502280,0.378440,-0.640625,-0.515625,0.281250,0.500000,0.375000
123664.000000,-0.639888,-0.512330,0.271499,0.502280,0.378440,-0.640625,-0.515625,0.281250,0.500000,0.375000
123856.000000,-0.639888,-0.512330,0.271499,0.502280,0.378440,-0.640625,-0.515625,0.281250,0.500000,0.375000
123912.000000,-0.639888,-0.512330,0.271499,0.502280,0.378440,-0.640625,-0.515625,0.281250,0.500000,0.375000
123920.000000,-0.639888,-0.512330,0.271499,0.502280,0.378440,-0.640625,-0.515625,0.281250,0.500000,0.375000
123976.000000,-0.639888,-0.512330,0.271499,0.502280,0.378440,-0.640625,-0.515625,0.281250,0.500000,0.375000
124040.000000,-0.639888,-0.512330,0.271499,0.502280,0.378440,-0.640625,-0.515625,0.281250,0.500000,0.375000
124104.000000,-0.639888,-0.512330,0.271499,0.502280,0.378440,-0.640625,-0.515625,0.281250,0.500000,0.375000
124168.000000,-0.639888,-0.512330,0.271499,0.502280,0.378440,-0.640625,-0.515625,0.281250,0.500000,0.375000
124296.000000,-0.639888,-0.512330,0.271499,0.502280,0.378440,-0.640625,-0.515625,0.281250,0.500000,0.375000
124424.000000,-0.639888,-0.512330,0.271499,0.502280,0.378440,-0.640625,-0.515625,0.281250,0.500000,0.375000
124552.000000,-0.639888,-0.512330,0.271499,0.502280,0.378440,-0.640625,-0.515625,0.281250,0.500000,0.375000
124560.000000,-0.639888,-0.512330,0.271499,0.502280,0.378440,-0.640625,-0.515625,0.281250,0.500000,0.375000
124680.000000,-0.639888,-0.512330,0.271499,0.502280,0.378440,-0.640625,-0.515625,0.281250,0.500000,0.375000
124688.000000,-0.639888,-0.512330,0.271499,0.502280,0.378440,-0.640625,-0.515625,0.281250,0.500000,0.375000
131144.000000,-0.639888,-0.512330,0.271499,0.502280,0.378440,-0.640625,-0.515625,0.281250,0.500000,0.375000
131152.000000,-0.639888,-0.512330,0.271499,0.502280,0.378440,-0.640625,-0.515625,0.281250,0.500000,0.375000
131208.000000,-0.639888,-0.512330,0.271499,0.502280,0.378440,-0.640625,-0.515625,0.281250,0.500000,0.375000
131216.000000,-0.639888,-0.512330,0.271499,0.502280,0.378440,-0.640625,-0.515625,0.281250,0.500000,0.375000
131272.000000,-0.639888,-0.512330,0.271499,0.502280,0.378440,-0.640625,-0.515625,0.281250,0.500000,0.375000
131280.000000,-0.639888,-0.512330,0.271499,0.502280,0.378440,-0.640625,-0.515625,0.281250,0.500000,0.375000
131336.000000,-0.639888,-0.512330,0.271499,0.502280,0.378440,-0.640625,-0.515625,0.281250,0.500000,0.375000
131344.000000,-0.639888,-0.512330,0.271499,0.502280,0.378440,-0.640625,-0.515625,0.281250,0.500000,0.375000
131400.000000,-0.639888,-0.512330,0.271499,0.502280,0.378440,-0.640625,-0.515625,0.281250,0.500000,0.375000
131408.000000,-0.639888,-0.512330,0.271499,0.502280,0.378440,-0.640625,-0.515625,0.281250,0.500000,0.375000
131464.000000,-0.639888,-0.512330,0.271499,0.502280,0.378440,-0.640625,-0.515625,0.281250,0.500000,0.375000
131472.000000,-0.639888,-0.512330,0.271499,0.502280,0.378440,-0.640625,-0.515625,0.281250,0.500000,0.375000
131528.000000,-0.639888,-0.512330,0.271499,0.502280,0.378440,-0.640625,-0.515625,0.281250,0.500000,0.375000
131592.000000,-0.639888,-0.512330,0.271499,0.502280,0.378440,-0.640625,-0.515625,0.281250,0.500000,0.375000
131600.000000,-0.639888,-0.512330,0.271499,0.502280,0.378440,-0.640625,-0.515625,0.281250,0.500000,0.375000
131656.000000,-0.639888,-0.512330,0.271499,0.502280,0.378440,-0.640625,-0.515625,0.281250,0.500000,0.375000
131664.000000,-0.639888,-0.512330,0.271499,0.502280,0.378440,-0.640625,-0.515625,0.281250,0.500000,0.375000
131720.000000,-0.639888,-0.512330,0.271499,0.502280,0.378440,-0.640625,-0.515625,0.281250,0.500000,0.375000
131784.000000,-0.639888,-0.512330,0.271499,0.502280,0.378440,-0.640625,-0.515625,0.281250,0.500000,0.375000
131792.000000,-0.639888,-0.512330,0.271499,0.502280,0.378440,-0.640625,-0.515625,0.281250,0.500000,0.375000
131848.000000,-0.639888,-0.512330,0.271499,0.502280,0.378440,-0.640625,-0.515625,0.281250,0.500000,0.375000
131856.000000,-0.639888,-0.512330,0.271499,0.502280,0.378440,-0.640625,-0.515625,0.281250,0.500000,0.375000
131912.000000,-0.639888,-0.512330,0.271499,0.502280,0.378440,-0.640625,-0.515625,0.281250,0.500000,0.375000
131920.000000,-0.639888,-0.512330,0.271499,0.502280,0.378440,-0.640625,-0.515625,0.281250,0.500000,0.375000
131976.000000,-0.639888,-0.512330,0.271499,0.502280,0.378440,-0.640625,-0.515625,0.281250,0.500000,0.375000
132040.000000,-0.639888,-0.512330,0.271499,0.502280,0.378440,-0.640625,-0.515625,0.281250,0.500000,0.375000
132048.000000,-0.639888,-0.512330,0.271499,0.502280,0.378440,-0.640625,-0.515625,0.281250,0.500000,0.375000
132104.000000,-0.639888,-0.512330,0.271499,0.502280,0.378440,-0.640625,-0.515625,0.281250,0.500000,0.375000
132168.000000,-0.639888,-0.512330,0.271499,0.502280,0.378440,-0.640625,-0.515625,0.281250,0.500000,0.375000
132232.000000,-0.639888,-0.512330,0.271499,0.502280,0.378440,-0.640625,-0.515625,0.281250,0.500000,0.375000
132296.000000,-0.639888,-0.512330,0.271499,0.502280,0.378440,-0.640625,-0.515625,0.281250,0.500000,0.375000
132360.000000,-0.639888,-0.512330,0.271499,0.502280,0.378440,-0.640625,-0.515625,0.281250,0.500000,0.375000
132488.000000,-0.639888,-0.512330,0.271499,0.502280,0.378440,-0.640625,-0.515625,0.281250,0.500000,0.375000
132496.000000,-0.639888,-0.512330,0.271499,0.502280,0.378440,-0.640625,-0.515625,0.281250,0.500000,0.375000
132504.000000,-0.639888,-0.512330,0.271499,0.502280,0.378440,-0.640625,-0.515625,0.281250,0.500000,0.375000
132616.000000,-0.639888,-0.512330,0.271499,0.502280,0.378440,-0.640625,-0.515625,0.281250,0.500000,0.375000
132744.000000,-0.639888,-0.512330,0.271499,0.502280,0.378440,-0.640625,-0.515625,0.281250,0.500000,0.375000
132872.000000,-0.639888,-0.512330,0.271499,0.502280,0.378440,-0.640625,-0.515625,0.281250,0.500000,0.375000
132888.000000,-0.639888,-0.512330,0.271499,0.502280,0.378440,-0.640625,-0.515625,0.281250,0.500000,0.375000
139336.000000,-0.639888,-0.512330,0.271499,0.502280,0.378440,-0.640625,-0.515625,0.281250,0.500000,0.375000
139344.000000,-0.639888,-0.512330,0.271499,0.502280,0.378440,-0.640625,-0.515625,0.281250,0.500000,0.375000
139400.000000,-0.639888,-0.512330,0.271499,0.502280,0.378440,-0.640625,-0.515625,0.281250,0.500000,0.375000
139408.000000,-0.639888,-0.512330,0.271499,0.502280,0.378440,-0.640625,-0.515625,0.281250,0.500000,0.375000
139464.000000,-0.639888,-0.512330,0.271499,0.502280,0.378440,-0.640625,-0.515625,0.281250,0.500000,0.375000
139472.000000,-0.639888,-0.512330,0.271499,0.502280,0.378440,-0.640625,-0.515625,0.281250,0.500000,0.375000
139528.000000,-0.639888,-0.512330,0.271499,0.502280,0.378440,-0.640625,-0.515625,0.281250,0.500000,0.375000
139536.000000,-0.639888,-0.512330,0.271499,0.502280,0.378440,-0.640625,-0.515625,0.281250,0.500000,0.375000
139592.000000,-0.639888,-0.512330,0.271499,0.502280,0.378440,-0.640625,-0.515625,0.281250,0.500000,0.375000
139600.000000,-0.639888,-0.512330,0.271499,0.502280,0.378440,-0.640625,-0.515625,0.281250,0.500000,0.375000
139656.000000,-0.639888,-0.512330,0.271499,0.502280,0.378440,-0.640625,-0.515625,0.281250,0.500000,0.375000
139720.000000,-0.639888,-0.512330,0.271499,0.502280,0.378440,-0.640625,-0.515625,0.281250,0.500000,0.375000
139728.000000,-0.639888,-0.512330,0.271499,0.502280,0.378440,-0.640625,-0.515625,0.281250,0.500000,0.375000
139784.000000,-0.639888,-0.512330,0.271499,0.502280,0.378440,-0.640625,-0.515625,0.281250,0.500000,0.375000
139848.000000,-0.639888,-0.512330,0.271499,0.502280,0.378440,-0.640625,-0.515625,0.281250,0.500000,0.375000
139856.000000,-0.639888,-0.512330,0.271499,0.502280,0.378440,-0.640625,-0.515625,0.281250,0.500000,0.375000
139912.000000,-0.639888,-0.512330,0.271499,0.502280,0.378440,-0.640625,-0.515625,0.281250,0.500000,0.375000
139920.000000,-0.639888,-0.512330,0.271499,0.502280,0.378440,-0.640625,-0.515625,0.281250,0.500000,0.375000
139976.000000,-0.639888,-0.512330,0.271499,0.502280,0.378440,-0.640625,-0.515625,0.281250,0.500000,0.375000
139984.000000,-0.639888,-0.512330,0.271499,0.502280,0.378440,-0.640625,-0.515625,0.281250,0.500000,0.375000
140040.000000,-0.639888,-0.512330,0.271499,0.502280,0.378440,-0.640625,-0.515625,0.281250,0.500000,0.375000
140048.000000,-0.639888,-0.512330,0.271499,0.502280,0.378440,-0.640625,-0.515625,0.281250,0.500000,0.375000
140104.000000,-0.639888,-0.512330,0.271499,0.502280,0.378440,-0.640625,-0.515625,0.281250,0.500000,0.375000
140112.000000,-0.639888,-0.512330,0.271499,0.502280,0.378440,-0.640625,-0.515625,0.281250,0.500000,0.375000
140168.000000,-0.639888,-0.512330,0.271499,0.502280,0.378440,-0.640625,-0.515625,0.281250,0.500000,0.375000
140232.000000,-0.639888,-0.512330,0.271499,0.502280,0.378440,-0.640625,-0.515625,0.281250,0.500000,0.375000
140296.000000,-0.639888,-0.512330,0.271499,0.502280,0.378440,-0.640625,-0.515625,0.281250,0.500000,0.375000
140304.000000,-0.639888,-0.512330,0.271499,0.502280,0.378440,-0.640625,-0.515625,0.281250,0.500000,0.375000
140360.000000,-0.639888,-0.512330,0.271499,0.502280,0.378440,-0.640625,-0.515625,0.281250,0.500000,0.375000
140368.000000,-0.639888,-0.512330,0.271499,0.502280,0.378440,-0.640625,-0.515625,0.281250,0.500000,0.375000
140424.000000,-0.639888,-0.512330,0.271499,0.502280,0.378440,-0.640625,-0.515625,0.281250,0.500000,0.375000
140432.000000,-0.639888,-0.512330,0.271499,0.502280,0.378440,-0.640625,-0.515625,0.281250,0.500000,0.375000
140488.000000,-0.639888,-0.512330,0.271499,0.502280,0.378440,-0.640625,-0.515625,0.281250,0.500000,0.375000
140552.000000,-0.639888,-0.512330,0.271499,0.502280,0.378440,-0.640625,-0.515625,0.281250,0.500000,0.375000
140680.000000,-0.639888,-0.512330,0.271499,0.502280,0.378440,-0.640625,-0.515625,0.281250,0.500000,0.375000
140688.000000,-0.639888,-0.512330,0.271499,0.502280,0.378440,-0.640625,-0.515625,0.281250,0.500000,0.375000
140808.000000,-0.639888,-0.512330,0.271499,0.502280,0.378440,-0.640625,-0.515625,0.281250,0.500000,0.375000
140816.000000,-0.639888,-0.512330,0.271499,0.502280,0.378440,-0.640625,-0.515625,0.281250,0.500000,0.375000
140936.000000,-0.639888,-0.512330,0.271499,0.502280,0.378440,-0.640625,-0.515625,0.281250,0.500000,0.375000
141064.000000,-0.639888,-0.512330,0.271499,0.502280,0.378440,-0.640625,-0.515625,0.281250,0.500000,0.375000
141072.000000,-0.639888,-0.512330,0.271499,0.502280,0.378440,-0.640625,-0.515625,0.281250,0.500000,0.375000
147528.000000,-0.639888,-0.512330,0.271499,0.502280,0.378440,-0.640625,-0.515625,0.281250,0.500000,0.375000
147536.000000,-0.639888,-0.512330,0.271499,0.502280,0.378440,-0.640625,-0.515625,0.281250,0.500000,0.375000
147592.000000,-0.639888,-0.512330,0.271499,0.502280,0.378440,-0.640625,-0.515625,0.281250,0.500000,0.375000
147600.000000,-0.639888,-0.512330,0.271499,0.502280,0.378440,-0.640625,-0.515625,0.281250,0.500000,0.375000
147656.000000,-0.639888,-0.512330,0.271499,0.502280,0.378440,-0.640625,-0.515625,0.281250,0.500000,0.375000
147664.000000,-0.639888,-0.512330,0.271499,0.502280,0.378440,-0.640625,-0.515625,0.281250,0.500000,0.375000
147672.000000,-0.639888,-0.512330,0.271499,0.502280,0.378440,-0.640625,-0.515625,0.281250,0.500000,0.375000
147720.000000,-0.639888,-0.512330,0.271499,0.502280,0.378440,-0.640625,-0.515625,0.281250,0.500000,0.375000
147728.000000,-0.639888,-0.512330,0.271499,0.502280,0.378440,-0.640625,-0.515625,0.281250,0.500000,0.375000
147784.000000,-0.639888,-0.512330,0.271499,0.502280,0.378440,-0.640625,-0.515625,0.281250,0.500000,0.375000
147792.000000,-0.639888,-0.512330,0.271499,0.502280,0.378440,-0.640625,-0.515625,0.281250,0.500000,0.375000
147848.000000,-0.639888,-0.512330,0.271499,0.502280,0.378440,-0.640625,-0.515625,0.281250,0.500000,0.375000
147856.000000,-0.639888,-0.512330,0.271499,0.502280,0.378440,-0.640625,-0.515625,0.281250,0.500000,0.375000
147912.000000,-0.639888,-0.512330,0.271499,0.502280,0.378440,-0.640625,-0.515625,0.281250,0.500000,0.375000
147976.000000,-0.639888,-0.512330,0.271499,0.502280,0.378440,-0.640625,-0.515625,0.281250,0.500000,0.375000
147984.000000,-0.639888,-0.512330,0.271499,0.502280,0.378440,-0.640625,-0.515625,0.281250,0.500000,0.375000
148040.000000,-0.639888,-0.512330,0.271499,0.502280,0.378440,-0.640625,-0.515625,0.281250,0.500000,0.375000
148104.000000,-0.639888,-0.512330,0.271499,0.502280,0.378440,-0.640625,-0.515625,0.281250,0.500000,0.375000
148112.000000,-0.639888,-0.512330,0.271499,0.502280,0.378440,-0.640625,-0.515625,0.281250,0.500000,0.375000
148168.000000,-0.639888,-0.512330,0.271499,0.502280,0.378440,-0.640625,-0.515625,0.281250,0.500000,0.375000
148176.000000,-0.639888,-0.512330,0.271499,0.502280,0.378440,-0.640625,-0.515625,0.281250,0.500000,0.375000
148232.000000,-0.639888,-0.512330,0.271499,0.502280,0.378440,-0.640625,-0.515625,0.281250,0.500000,0.375000
148296.000000,-0.639888,-0.512330,0.271499,0.502280,0.378440,-0.640625,-0.515625,0.281250,0.500000,0.375000
148360.000000,-0.639888,-0.512330,0.271499,0.502280,0.378440,-0.640625,-0.515625,0.281250,0.500000,0.375000
148368.000000,-0.639888,-0.512330,0.271499,0.502280,0.378440,-0.640625,-0.515625,0.281250,0.500000,0.375000
148424.000000,-0.639888,-0.512330,0.271499,0.502280,0.378440,-0.640625,-0.515625,0.281250,0.500000,0.375000
148432.000000,-0.639888,-0.512330,0.271499,0.502280,0.378440,-0.640625,-0.515625,0.281250,0.500000,0.375000
148488.000000,-0.639888,-0.512330,0.271499,0.502280,0.378440,-0.640625,-0.515625,0.281250,0.500000,0.375000
148496.000000,-0.639888,-0.512330,0.271499,0.502280,0.378440,-0.640625,-0.515625,0.281250,0.500000,0.375000
148552.000000,-0.639888,-0.512330,0.271499,0.502280,0.378440,-0.640625,-0.515625,0.281250,0.500000,0.375000
148616.000000,-0.639888,-0.512330,0.271499,0.502280,0.378440,-0.640625,-0.515625,0.281250,0.500000,0.375000
148680.000000,-0.639888,-0.512330,0.271499,0.502280,0.378440,-0.640625,-0.515625,0.281250,0.500000,0.375000
148744.000000,-0.639888,-0.512330,0.271499,0.502280,0.378440,-0.640625,-0.515625,0.281250,0.500000,0.375000
148872.000000,-0.639888,-0.512330,0.271499,0.502280,0.378440,-0.640625,-0.515625,0.281250,0.500000,0.375000
148880.000000,-0.639888,-0.512330,0.271499,0.502280,0.378440,-0.640625,-0.515625,0.281250,0.500000,0.375000
148888.000000,-0.639888,-0.512330,0.271499,0.502280,0.378440,-0.640625,-0.515625,0.281250,0.500000,0.375000
149000.000000,-0.639888,-0.512330,0.271499,0.502280,0.378440,-0.640625,-0.515625,0.281250,0.500000,0.375000
149128.000000,-0.639888,-0.512330,0.271499,0.502280,0.378440,-0.640625,-0.515625,0.281250,0.500000,0.375000
149256.000000,-0.639888,-0.512330,0.271499,0.502280,0.378440,-0.640625,-0.515625,0.281250,0.500000,0.375000
149264.000000,-0.639888,-0.512330,0.271499,0.502280,0.378440,-0.640625,-0.515625,0.281250,0.500000,0.375000
155720.000000,-0.639888,-0.512330,0.271499,0.502280,0.378440,-0.640625,-0.515625,0.281250,0.500000,0.375000
155728.000000,-0.639888,-0.512330,0.271499,0.502280,0.378440,-0.640625,-0.515625,0.281250,0.500000,0.375000
155736.000000,-0.639888,-0.512330,0.271499,0.502280,0.378440,-0.640625,-0.515625,0.281250,0.500000,0.375000
155784.000000,-0.639888,-0.512330,0.271499,0.502280,0.378440,-0.640625,-0.515625,0.281250,0.500000,0.375000
155792.000000,-0.639888,-0.512330,0.271499,0.502280,0.378440,-0.640625,-0.515625,0.281250,0.500000,0.375000
155800.000000,-0.639888,-0.512330,0.271499,0.502280,0.378440,-0.640625,-0.515625,0.281250,0.500000,0.375000
155848.000000,-0.639888,-0.512330,0.271499,0.502280,0.378440,-0.640625,-0.515625,0.281250,0.500000,0.375000
155856.000000,-0.639888,-0.512330,0.271499,0.502280,0.378440,-0.640625,-0.515625,0.281250,0.500000,0.375000
155864.000000,-0.639888,-0.512330,0.271499,0.502280,0.378440,-0.640625,-0.515625,0.281250,0.500000,0.375000
155912.000000,-0.639888,-0.512330,0.271499,0.502280,0.378440,-0.640625,-0.515625,0.281250,0.500000,0.375000
155920.000000,-0.639888,-0.512330,0.271499,0.502280,0.378440,-0.640625,-0.515625,0.281250,0.500000,0.375000
155928.000000,-0.639888,-0.512330,0.271499,0.502280,0.378440,-0.640625,-0.515625,0.281250,0.500000,0.375000
155976.000000,-0.639888,-0.512330,0.271499,0.502280,0.378440,-0.640625,-0.515625,0.281250,0.500000,0.375000
155984.000000,-0.639888,-0.512330,0.271499,0.502280,0.378440,-0.640625,-0.515625,0.281250,0.500000,0.375000
155992.000000,-0.639888,-0.512330,0.271499,0.502280,0.378440,-0.640625,-0.515625,0.281250,0.500000,0.375000
156040.000000,-0.639888,-0.512330,0.271499,0.502280,0.378440,-0.640625,-0.515625,0.281250,0.500000,0.375000
156048.000000,-0.639888,-0.512330,0.271499,0.502280,0.378440,-0.640625,-0.515625,0.281250,0.500000,0.375000
156056.000000,-0.639888,-0.512330,0.271499,0.502280,0.378440,-0.640625,-0.515625,0.281250,0.500000,0.375000
156104.000000,-0.639888,-0.512330,0.271499,0.502280,0.378440,-0.640625,-0.515625,0.281250,0.500000,0.375000
156112.000000,-0.639888,-0.512330,0.271499,0.502280,0.378440,-0.640625,-0.515625,0.281250,0.500000,0.375000
156120.000000,-0.639888,-0.512330,0.271499,0.502280,0.378440,-0.640625,-0.515625,0.281250,0.500000,0.375000
156168.000000,-0.639888,-0.512330,0.271499,0.502280,0.378440,-0.640625,-0.515625,0.281250,0.500000,0.375000
156176.000000,-0.639888,-0.512330,0.271499,0.502280,0.378440,-0.640625,-0.515625,0.281250,0.500000,0.375000
156184.000000,-0.639888,-0.512330,0.271499,0.502280,0.378440,-0.640625,-0.515625,0.281250,0.500000,0.375000
156232.000000,-0.639888,-0.512330,0.271499,0.502280,0.378440,-0.640625,-0.515625,0.281250,0.500000,0.375000
156240.000000,-0.639888,-0.512330,0.271499,0.502280,0.378440,-0.640625,-0.515625,0.281250,0.500000,0.375000
156248.000000,-0.639888,-0.512330,0.271499,0.502280,0.378440,-0.640625,-0.515625,0.281250,0.500000,0.375000
156256.000000,-0.639888,-0.512330,0.271499,0.502280,0.378440,-0.640625,-0.515625,0.281250,0.500000,0.375000
156296.000000,-0.639888,-0.512330,0.271499,0.502280,0.378440,-0.640625,-0.515625,0.281250,0.500000,0.375000
156304.000000,-0.639888,-0.512330,0.271499,0.502280,0.378440,-0.640625,-0.515625,0.281250,0.500000,0.375000
156312.000000,-0.639888,-0.512330,0.271499,0.502280,0.378440,-0.640625,-0.515625,0.281250,0.500000,0.375000
156360.000000,-0.639888,-0.512330,0.271499,0.502280,0.378440,-0.640625,-0.515625,0.281250,0.500000,0.375000
156368.000000,-0.639888,-0.512330,0.271499,0.502280,0.378440,-0.640625,-0.515625,0.281250,0.500000,0.375000
156376.000000,-0.639888,-0.512330,0.271499,0.502280,0.378440,-0.640625,-0.515625,0.281250,0.500000,0.375000
156424.000000,-0.639888,-0.512330,0.271499,0.502280,0.378440,-0.640625,-0.515625,0.281250,0.500000,0.375000
156432.000000,-0.639888,-0.512330,0.271499,0.502280,0.378440,-0.640625,-0.515625,0.281250,0.500000,0.375000
156440.000000,-0.639888,-0.512330,0.271499,0.502280,0.378440,-0.640625,-0.515625,0.281250,0.500000,0.375000
156448.000000,-0.639888,-0.512330,0.271499,0.502280,0.378440,-0.640625,-0.515625,0.281250,0.500000,0.375000
156488.000000,-0.639888,-0.512330,0.271499,0.502280,0.378440,-0.640625,-0.515625,0.281250,0.500000,0.375000
156496.000000,-0.639888,-0.512330,0.271499,0.502280,0.378440,-0.640625,-0.515625,0.281250,0.500000,0.375000
156552.000000,-0.639888,-0.512330,0.271499,0.502280,0.378440,-0.640625,-0.515625,0.281250,0.500000,0.375000
156560.000000,-0.639888,-0.512330,0.271499,0.502280,0.378440,-0.640625,-0.515625,0.281250,0.500000,0.375000
156616.000000,-0.639888,-0.512330,0.271499,0.502280,0.378440,-0.640625,-0.515625,0.281250,0.500000,0.375000
156624.000000,-0.639888,-0.512330,0.271499,0.502280,0.378440,-0.640625,-0.515625,0.281250,0.500000,0.375000
156680.000000,-0.639888,-0.512330,0.271499,0.502280,0.378440,-0.640625,-0.515625,0.281250,0.500000,0.375000
156688.000000,-0.639888,-0.512330,0.271499,0.502280,0.378440,-0.640625,-0.515625,0.281250,0.500000,0.375000
163912.000000,-0.639888,-0.512330,0.271499,0.502280,0.378440,-0.640625,-0.515625,0.281250,0.500000,0.375000
163920.000000,-0.639888,-0.512330,0.271499,0.502280,0.378440,-0.640625,-0.515625,0.281250,0.500000,0.375000
163976.000000,-0.639888,-0.512330,0.271499,0.502280,0.378440,-0.640625,-0.515625,0.281250,0.500000,0.375000
164040.000000,-0.639888,-0.512330,0.271499,0.502280,0.378440,-0.640625,-0.515625,0.281250,0.500000,0.375000
164104.000000,-0.639888,-0.512330,0.271499,0.502280,0.378440,-0.640625,-0.515625,0.281250,0.500000,0.375000
164112.000000,-0.639888,-0.512330,0.271499,0.502280,0.378440,-0.640625,-0.515625,0.281250,0.500000,0.375000
164120.000000,-0.639888,-0.512330,0.271499,0.502280,0.378440,-0.640625,-0.515625,0.281250,0.500000,0.375000
164168.000000,-0.639888,-0.512330,0.271499,0.502280,0.378440,-0.640625,-0.515625,0.281250,0.500000,0.375000
164176.000000,-0.639888,-0.512330,0.271499,0.502280,0.378440,-0.640625,-0.515625,0.281250,0.500000,0.375000
164232.000000,-0.639888,-0.512330,0.271499,0.502280,0.378440,-0.640625,-0.515625,0.281250,0.500000,0.375000
164240.000000,-0.639888,-0.512330,0.271499,0.502280,0.378440,-0.640625,-0.515625,0.281250,0.500000,0.375000
164248.000000,-0.639888,-0.512330,0.271499,0.502280,0.378440,-0.640625,-0.515625,0.281250,0.500000,0.375000
164296.000000,-0.639888,-0.512330,0.271499,0.502280,0.378440,-0.640625,-0.515625,0.281250,0.500000,0.375000
164304.000000,-0.639888,-0.512330,0.271499,0.502280,0.378440,-0.640625,-0.515625,0.281250,0.500000,0.375000
164312.000000,-0.639888,-0.512330,0.271499,0.502280,0.378440,-0.640625,-0.515625,0.281250,0.500000,0.375000
164360.000000,-0.639888,-0.512330,0.271499,0.502280,0.378440,-0.640625,-0.515625,0.281250,0.500000,0.375000
164368.000000,-0.639888,-0.512330,0.271499,0.502280,0.378440,-0.640625,-0.515625,0.281250,0.500000,0.375000
164376.000000,-0.639888,-0.512330,0.271499,0.502280,0.378440,-0.640625,-0.515625,0.281250,0.500000,0.375000
164424.000000,-0.639888,-0.512330,0.271499,0.502280,0.378440,-0.640625,-0.515625,0.281250,0.500000,0.375000
164432.000000,-0.639888,-0.512330,0.271499,0.502280,0.378440,-0.640625,-0.515625,0.281250,0.500000,0.375000
164440.000000,-0.639888,-0.512330,0.271499,0.502280,0.378440,-0.640625,-0.515625,0.281250,0.500000,0.375000
164488.000000,-0.639888,-0.512330,0.271499,0.502280,0.378440,-0.640625,-0.515625,0.281250,0.500000,0.375000
164496.000000,-0.639888,-0.512330,0.271499,0.502280,0.378440,-0.640625,-0.515625,0.281250,0.500000,0.375000
164504.000000,-0.639888,-0.512330,0.271499,0.502280,0.378440,-0.640625,-0.515625,0.281250,0.500000,0.375000
164552.000000,-0.639888,-0.512330,0.271499,0.502280,0.378440,-0.640625,-0.515625,0.281250,0.500000,0.375000
164560.000000,-0.639888,-0.512330,0.271499,0.502280,0.378440,-0.640625,-0.515625,0.281250,0.500000,0.375000
164616.000000,-0.639888,-0.512330,0.271499,0.502280,0.378440,-0.640625,-0.515625,0.281250,0.500000,0.375000
164624.000000,-0.639888,-0.512330,0.271499,0.502280,0.378440,-0.640625,-0.515625,0.281250,0.500000,0.375000
164632.000000,-0.639888,-0.512330,0.271499,0.502280,0.378440,-0.640625,-0.515625,0.281250,0.500000,0.375000
164680.000000,-0.639888,-0.512330,0.271499,0.502280,0.378440,-0.640625,-0.515625,0.281250,0.500000,0.375000
164688.000000,-0.639888,-0.512330,0.271499,0.502280,0.378440,-0.640625,-0.515625,0.281250,0.500000,0.375000
164744.000000,-0.639888,-0.512330,0.271499,0.502280,0.378440,-0.640625,-0.515625,0.281250,0.500000,0.375000
164752.000000,-0.639888,-0.512330,0.271499,0.502280,0.378440,-0.640625,-0.515625,0.281250,0.500000,0.375000
164808.000000,-0.639888,-0.512330,0.271499,0.502280,0.378440,-0.640625,-0.515625,0.281250,0.500000,0.375000
164816.000000,-0.639888,-0.512330,0.271499,0.502280,0.378440,-0.640625,-0.515625,0.281250,0.500000,0.375000
164824.000000,-0.639888,-0.512330,0.271499,0.502280,0.378440,-0.640625,-0.515625,0.281250,0.500000,0.375000
164872.000000,-0.639888,-0.512330,0.271499,0.502280,0.378440,-0.640625,-0.515625,0.281250,0.500000,0.375000
164880.000000,-0.639888,-0.512330,0.271499,0.502280,0.378440,-0.640625,-0.515625,0.281250,0.500000,0.375000
164888.000000,-0.639888,-0.512330,0.271499,0.502280,0.378440,-0.640625,-0.515625,0.281250,0.500000,0.375000
172104.000000,-0.639888,-0.512330,0.271499,0.502280,0.378440,-0.640625,-0.515625,0.281250,0.500000,0.375000
172168.000000,-0.639888,-0.512330,0.271499,0.502280,0.378440,-0.640625,-0.515625,0.281250,0.500000,0.375000
172232.000000,-0.639888,-0.512330,0.271499,0.502280,0.378440,-0.640625,-0.515625,0.281250,0.500000,0.375000
172296.000000,-0.639888,-0.512330,0.271499,0.502280,0.378440,-0.640625,-0.515625,0.281250,0.500000,0.375000
172368.000000,-0.639888,-0.512330,0.271499,0.502280,0.378440,-0.640625,-0.515625,0.281250,0.500000,0.375000
172376.000000,-0.639888,-0.512330,0.271499,0.502280,0.378440,-0.640625,-0.515625,0.281250,0.500000,0.375000
172440.000000,-0.639888,-0.512330,0.271499,0.502280,0.378440,-0.640625,-0.515625,0.281250,0.500000,0.375000
172488.000000,-0.639888,-0.512330,0.271499,0.502280,0.378440,-0.640625,-0.515625,0.281250,0.500000,0.375000
172496.000000,-0.639888,-0.512330,0.271499,0.502280,0.378440,-0.640625,-0.515625,0.281250,0.500000,0.375000
172504.000000,-0.639888,-0.512330,0.271499,0.502280,0.378440,-0.640625,-0.515625,0.281250,0.500000,0.375000
172512.000000,-0.639888,-0.512330,0.271499,0.502280,0.378440,-0.640625,-0.515625,0.281250,0.500000,0.375000
172552.000000,-0.639888,-0.512330,0.271499,0.502280,0.378440,-0.640625,-0.515625,0.281250,0.500000,0.375000
172560.000000,-0.639888,-0.512330,0.271499,0.502280,0.378440,-0.640625,-0.515625,0.281250,0.500000,0.375000
172568.000000,-0.639888,-0.512330,0.271499,0.502280,0.378440,-0.640625,-0.515625,0.281250,0.500000,0.375000
172576.000000,-0.639888,-0.512330,0.271499,0.502280,0.378440,-0.640625,-0.515625,0.281250,0.500000,0.375000
172584.000000,-0.639888,-0.512330,0.271499,0.502280,0.378440,-0.640625,-0.515625,0.281250,0.500000,0.375000
172616.000000,-0.639888,-0.512330,0.271499,0.502280,0.378440,-0.640625,-0.515625,0.281250,0.500000,0.375000
172624.000000,-0.639888,-0.512330,0.271499,0.502280,0.378440,-0.640625,-0.515625,0.281250,0.500000,0.375000
172632.000000,-0.639888,-0.512330,0.271499,0.502280,0.378440,-0.640625,-0.515625,0.281250,0.500000,0.375000
172680.000000,-0.639888,-0.512330,0.271499,0.502280,0.378440,-0.640625,-0.515625,0.281250,0.500000,0.375000
172688.000000,-0.639888,-0.512330,0.271499,0.502280,0.378440,-0.640625,-0.515625,0.281250,0.500000,0.375000
172744.000000,-0.639888,-0.512330,0.271499,0.502280,0.378440,-0.640625,-0.515625,0.281250,0.500000,0.375000
172752.000000,-0.639888,-0.512330,0.271499,0.502280,0.378440,-0.640625,-0.515625,0.281250,0.500000,0.375000
172760.000000,-0.639888,-0.512330,0.271499,0.502280,0.378440,-0.640625,-0.515625,0.281250,0.500000,0.375000
172808.000000,-0.639888,-0.512330,0.271499,0.502280,0.378440,-0.640625,-0.515625,0.281250,0.500000,0.375000
172816.000000,-0.639888,-0.512330,0.271499,0.502280,0.378440,-0.640625,-0.515625,0.281250,0.500000,0.375000
172824.000000,-0.639888,-0.512330,0.271499,0.502280,0.378440,-0.640625,-0.515625,0.281250,0.500000,0.375000
172872.000000,-0.639888,-0.512330,0.271499,0.502280,0.378440,-0.640625,-0.515625,0.281250,0.500000,0.375000
172880.000000,-0.639888,-0.512330,0.271499,0.502280,0.378440,-0.640625,-0.515625,0.281250,0.500000,0.375000
172936.000000,-0.639888,-0.512330,0.271499,0.502280,0.378440,-0.640625,-0.515625,0.281250,0.500000,0.375000
172944.000000,-0.639888,-0.512330,0.271499,0.502280,0.378440,-0.640625,-0.515625,0.281250,0.500000,0.375000
173000.000000,-0.639888,-0.512330,0.271499,0.502280,0.378440,-0.640625,-0.515625,0.281250,0.500000,0.375000
173008.000000,-0.639888,-0.512330,0.271499,0.502280,0.378440,-0.640625,-0.515625,0.281250,0.500000,0.375000
173016.000000,-0.639888,-0.512330,0.271499,0.502280,0.378440,-0.640625,-0.515625,0.281250,0.500000,0.375000
173064.000000,-0.639888,-0.512330,0.271499,0.502280,0.378440,-0.640625,-0.515625,0.281250,0.500000,0.375000
173072.000000,-0.639888,-0.512330,0.271499,0.502280,0.378440,-0.640625,-0.515625,0.281250,0.500000,0.375000
180296.000000,-0.639888,-0.512330,0.271499,0.502280,0.378440,-0.640625,-0.515625,0.281250,0.500000,0.375000
180304.000000,-0.639888,-0.512330,0.271499,0.502280,0.378440,-0.640625,-0.515625,0.281250,0.500000,0.375000
180360.000000,-0.639888,-0.512330,0.271499,0.502280,0.378440,-0.640625,-0.515625,0.281250,0.500000,0.375000
180424.000000,-0.639888,-0.512330,0.271499,0.502280,0.378440,-0.640625,-0.515625,0.281250,0.500000,0.375000
180432.000000,-0.639888,-0.512330,0.271499,0.502280,0.378440,-0.640625,-0.515625,0.281250,0.500000,0.375000
180440.000000,-0.639888,-0.512330,0.271499,0.502280,0.378440,-0.640625,-0.515625,0.281250,0.500000,0.375000
180488.000000,-0.639888,-0.512330,0.271499,0.502280,0.378440,-0.640625,-0.515625,0.281250,0.500000,0.375000
180552.000000,-0.639888,-0.512330,0.271499,0.502280,0.378440,-0.640625,-0.515625,0.281250,0.500000,0.375000
180560.000000,-0.639888,-0.512330,0.271499,0.502280,0.378440,-0.640625,-0.515625,0.281250,0.500000,0.375000
180568.000000,-0.639888,-0.512330,0.271499,0.502280,0.378440,-0.640625,-0.515625,0.281250,0.500000,0.375000
180576.000000,-0.639888,-0.512330,0.271499,0.502280,0.378440,-0.640625,-0.515625,0.281250,0.500000,0.375000
180616.000000,-0.639888,-0.512330,0.271499,0.502280,0.378440,-0.640625,-0.515625,0.281250,0.500000,0.375000
180624.000000,-0.639888,-0.512330,0.271499,0.502280,0.378440,-0.640625,-0.515625,0.281250,0.500000,0.375000
180632.000000,-0.639888,-0.512330,0.271499,0.502280,0.378440,-0.640625,-0.515625,0.281250,0.500000,0.375000
180680.000000,-0.639888,-0.512330,0.271499,0.502280,0.378440,-0.640625,-0.515625,0.281250,0.500000,0.375000
180688.000000,-0.639888,-0.512330,0.271499,0.502280,0.378440,-0.640625,-0.515625,0.281250,0.500000,0.375000
180696.000000,-0.639888,-0.512330,0.271499,0.502280,0.378440,-0.640625,-0.515625,0.281250,0.500000,0.375000
180744.000000,-0.639888,-0.512330,0.271499,0.502280,0.378440,-0.640625,-0.515625,0.281250,0.500000,0.375000
180752.000000,-0.639888,-0.512330,0.271499,0.502280,0.378440,-0.640625,-0.515625,0.281250,0.500000,0.375000
180760.000000,-0.639888,-0.512330,0.271499,0.502280,0.378440,-0.640625,-0.515625,0.281250,0.500000,0.375000
180808.000000,-0.639888,-0.512330,0.271499,0.502280,0.378440,-0.640625,-0.515625,0.281250,0.500000,0.375000
180816.000000,-0.639888,-0.512330,0.271499,0.502280,0.378440,-0.640625,-0.515625,0.281250,0.500000,0.375000
180872.000000,-0.639888,-0.512330,0.271499,0.502280,0.378440,-0.640625,-0.515625,0.281250,0.500000,0.375000
180880.000000,-0.639888,-0.512330,0.271499,0.502280,0.378440,-0.640625,-0.515625,0.281250,0.500000,0.375000
180888.000000,-0.639888,-0.512330,0.271499,0.502280,0.378440,-0.640625,-0.515625,0.281250,0.500000,0.375000
180936.000000,-0.639888,-0.512330,0.271499,0.502280,0.378440,-0.640625,-0.515625,0.281250,0.500000,0.375000
180944.000000,-0.639888,-0.512330,0.271499,0.502280,0.378440,-0.640625,-0.515625,0.281250,0.500000,0.375000
180952.000000,-0.639888,-0.512330,0.271499,0.502280,0.378440,-0.640625,-0.515625,0.281250,0.500000,0.375000
181000.000000,-0.639888,-0.512330,0.271499,0.502280,0.378440,-0.640625,-0.515625,0.281250,0.500000,0.375000
181008.000000,-0.639888,-0.512330,0.271499,0.502280,0.378440,-0.640625,-0.515625,0.281250,0.500000,0.375000
181064.000000,-0.639888,-0.512330,0.271499,0.502280,0.378440,-0.640625,-0.515625,0.281250,0.500000,0.375000
181072.000000,-0.639888,-0.512330,0.271499,0.502280,0.378440,-0.640625,-0.515625,0.281250,0.500000,0.375000
181128.000000,-0.639888,-0.512330,0.271499,0.502280,0.378440,-0.640625,-0.515625,0.281250,0.500000,0.375000
181136.000000,-0.639888,-0.512330,0.271499,0.502280,0.378440,-0.640625,-0.515625,0.281250,0.500000,0.375000
181192.000000,-0.639888,-0.512330,0.271499,0.502280,0.378440,-0.640625,-0.515625,0.281250,0.500000,0.375000
181200.000000,-0.639888,-0.512330,0.271499,0.502280,0.378440,-0.640625,-0.515625,0.281250,0.500000,0.375000
181208.000000,-0.639888,-0.512330,0.271499,0.502280,0.378440,-0.640625,-0.515625,0.281250,0.500000,0.375000
181256.000000,-0.639888,-0.512330,0.271499,0.502280,0.378440,-0.640625,-0.515625,0.281250,0.500000,0.375000
181264.000000,-0.639888,-0.512330,0.271499,0.502280,0.378440,-0.640625,-0.515625,0.281250,0.500000,0.375000
181272.000000,-0.639888,-0.512330,0.271499,0.502280,0.378440,-0.640625,-0.515625,0.281250,0.500000,0.375000
188488.000000,-0.639888,-0.512330,0.271499,0.502280,0.378440,-0.640625,-0.515625,0.281250,0.500000,0.375000
188552.000000,-0.639888,-0.512330,0.271499,0.502280,0.378440,-0.640625,-0.515625,0.281250,0.500000,0.375000
188560.000000,-0.639888,-0.512330,0.271499,0.502280,0.378440,-0.640625,-0.515625,0.281250,0.500000,0.375000
188616.000000,-0.639888,-0.512330,0.271499,0.502280,0.378440,-0.640625,-0.515625,0.281250,0.500000,0.375000
188624.000000,-0.639888,-0.512330,0.271499,0.502280,0.378440,-0.640625,-0.515625,0.281250,0.500000,0.375000
188632.000000,-0.639888,-0.512330,0.271499,0.502280,0.378440,-0.640625,-0.515625,0.281250,0.500000,0.375000
188680.000000,-0.639888,-0.512330,0.271499,0.502280,0.378440,-0.640625,-0.515625,0.281250,0.500000,0.375000
188688.000000,-0.639888,-0.512330,0.271499,0.502280,0.378440,-0.640625,-0.515625,0.281250,0.500000,0.375000
188696.000000,-0.639888,-0.512330,0.271499,0.502280,0.378440,-0.640625,-0.515625,0.281250,0.500000,0.375000
188744.000000,-0.639888,-0.512330,0.271499,0.502280,0.378440,-0.640625,-0.515625,0.281250,0.500000,0.375000
188752.000000,-0.639888,-0.512330,0.271499,0.502280,0.378440,-0.640625,-0.515625,0.281250,0.500000,0.375000
188760.000000,-0.639888,-0.512330,0.271499,0.502280,0.378440,-0.640625,-0.515625,0.281250,0.500000,0.375000
188808.000000,-0.639888,-0.512330,0.271499,0.502280,0.378440,-0.640625,-0.515625,0.281250,0.500000,0.375000
188816.000000,-0.639888,-0.512330,0.271499,0.502280,0.378440,-0.640625,-0.515625,0.281250,0.500000,0.375000
188872.000000,-0.639888,-0.512330,0.271499,0.502280,0.378440,-0.640625,-0.515625,0.281250,0.500000,0.375000
188880.000000,-0.639888,-0.512330,0.271499,0.502280,0.378440,-0.640625,-0.515625,0.281250,0.500000,0.375000
188888.000000,-0.639888,-0.512330,0.271499,0.502280,0.378440,-0.640625,-0.515625,0.281250,0.500000,0.375000
188936.000000,-0.639888,-0.512330,0.271499,0.502280,0.378440,-0.640625,-0.515625,0.281250,0.500000,0.375000
188944.000000,-0.639888,-0.512330,0.271499,0.502280,0.378440,-0.640625,-0.515625,0.281250,0.500000,0.375000
188952.000000,-0.639888,-0.512330,0.271499,0.502280,0.378440,-0.640625,-0.515625,0.281250,0.500000,0.375000
189000.000000,-0.639888,-0.512330,0.271499,0.502280,0.378440,-0.640625,-0.515625,0.281250,0.500000,0.375000
189008.000000,-0.639888,-0.512330,0.271499,0.502280,0.378440,-0.640625,-0.515625,0.281250,0.500000,0.375000
189016.000000,-0.639888,-0.512330,0.271499,0.502280,0.378440,-0.640625,-0.515625,0.281250,0.500000,0.375000
189064.000000,-0.639888,-0.512330,0.271499,0.502280,0.378440,-0.640625,-0.515625,0.281250,0.500000,0.375000
189072.000000,-0.639888,-0.512330,0.271499,0.502280,0.378440,-0.640625,-0.515625,0.281250,0.500000,0.375000
189080.000000,-0.639888,-0.512330,0.271499,0.502280,0.378440,-0.640625,-0.515625,0.281250,0.500000,0.375000
189128.000000,-0.639888,-0.512330,0.271499,0.502280,0.378440,-0.640625,-0.515625,0.281250,0.500000,0.375000
189136.000000,-0.639888,-0.512330,0.271499,0.502280,0.378440,-0.640625,-0.515625,0.281250,0.500000,0.375000
189144.000000,-0.639888,-0.512330,0.271499,0.502280,0.378440,-0.640625,-0.515625,0.281250,0.500000,0.375000
189152.000000,-0.639888,-0.512330,0.271499,0.502280,0.378440,-0.640625,-0.515625,0.281250,0.500000,0.375000
189192.000000,-0.639888,-0.512330,0.271499,0.502280,0.378440,-0.640625,-0.515625,0.281250,0.500000,0.375000
189200.000000,-0.639888,-0.512330,0.271499,0.502280,0.378440,-0.640625,-0.515625,0.281250,0.500000,0.375000
189208.000000,-0.639888,-0.512330,0.271499,0.502280,0.378440,-0.640625,-0.515625,0.281250,0.500000,0.375000
189256.000000,-0.639888,-0.512330,0.271499,0.502280,0.378440,-0.640625,-0.515625,0.281250,0.500000,0.375000
189264.000000,-0.639888,-0.512330,0.271499,0.502280,0.378440,-0.640625,-0.515625,0.281250,0.500000,0.375000
189320.000000,-0.639888,-0.512330,0.271499,0.502280,0.378440,-0.640625,-0.515625,0.281250,0.500000,0.375000
189328.000000,-0.639888,-0.512330,0.271499,0.502280,0.378440,-0.640625,-0.515625,0.281250,0.500000,0.375000
189384.000000,-0.639888,-0.512330,0.271499,0.502280,0.378440,-0.640625,-0.515625,0.281250,0.500000,0.375000
189392.000000,-0.639888,-0.512330,0.271499,0.502280,0.378440,-0.640625,-0.515625,0.281250,0.500000,0.375000
189448.000000,-0.639888,-0.512330,0.271499,0.502280,0.378440,-0.640625,-0.515625,0.281250,0.500000,0.375000
189456.000000,-0.639888,-0.512330,0.271499,0.502280,0.378440,-0.640625,-0.515625,0.281250,0.500000,0.375000
196680.000000,-0.639888,-0.512330,0.271499,0.502280,0.378440,-0.640625,-0.515625,0.281250,0.500000,0.375000
196688.000000,-0.639888,-0.512330,0.271499,0.502280,0.378440,-0.640625,-0.515625,0.281250,0.500000,0.375000
196696.000000,-0.639888,-0.512330,0.271499,0.502280,0.378440,-0.640625,-0.515625,0.281250,0.500000,0.375000
196744.000000,-0.639888,-0.512330,0.271499,0.502280,0.378440,-0.640625,-0.515625,0.281250,0.500000,0.375000
196752.000000,-0.639888,-0.512330,0.271499,0.502280,0.378440,-0.640625,-0.515625,0.281250,0.500000,0.375000
196760.000000,-0.639888,-0.512330,0.271499,0.502280,0.378440,-0.640625,-0.515625,0.281250,0.500000,0.375000
196808.000000,-0.639888,-0.512330,0.271499,0.502280,0.378440,-0.640625,-0.515625,0.281250,0.500000,0.375000
