stripid,w1,w2,w3,w4,w5
8264,-0.625,-0.515625,0.25,0.5,0.390625
8272,-0.625,-0.515625,0.265625,0.5,0.375
8328,-0.671875,-0.5,0.28125,0.515625,0.375
8336,-0.59375,-0.53125,0.21875,0.5,0.40625
8392,-0.671875,-0.5,0.296875,0.5,0.375
8400,-0.625,-0.515625,0.265625,0.5,0.375
8456,-0.59375,-0.53125,0.234375,0.5,0.390625
8464,-0.640625,-0.515625,0.28125,0.5,0.375
8520,-0.625,-0.515625,0.25,0.5,0.390625
8528,-0.640625,-0.515625,0.28125,0.5,0.375
8584,-0.609375,-0.53125,0.25,0.5,0.390625
8592,-0.640625,-0.515625,0.28125,0.5,0.375
8600,-0.609375,-0.53125,0.25,0.5,0.390625
8648,-0.625,-0.515625,0.25,0.5,0.390625
8656,-0.671875,-0.5,0.296875,0.5,0.375
8664,-0.609375,-0.53125,0.25,0.5,0.390625
8712,-0.65625,-0.5,0.28125,0.5,0.375
8720,-0.625,-0.515625,0.265625,0.5,0.375
8776,-0.609375,-0.53125,0.25,0.5,0.390625
8784,-0.640625,-0.515625,0.28125,0.5,0.375
8840,-0.640625,-0.515625,0.28125,0.5,0.375
8904,-0.640625,-0.515625,0.28125,0.5,0.375
8968,-0.625,-0.515625,0.265625,0.5,0.375
8976,-0.640625,-0.515625,0.28125,0.5,0.375
9032,-0.59375,-0.53125,0.234375,0.5,0.390625
9096,-0.59375,-0.53125,0.25,0.5,0.375
9160,-0.59375,-0.53125,0.25,0.5,0.375
9224,-0.609375,-0.53125,0.265625,0.5,0.375
9288,-0.625,-0.515625,0.265625,0.5,0.375
9296,-0.609375,-0.53125,0.28125,0.5,0.359375
9352,-0.609375,-0.53125,0.265625,0.5,0.375
9360,-0.59375,-0.53125,0.25,0.5,0.375
9416,-0.640625,-0.515625,0.296875,0.5,0.359375
9424,-0.59375,-0.53125,0.25,0.5,0.375
9480,-0.640625,-0.515625,0.296875,0.5,0.359375
9488,-0.625,-0.53125,0.28125,0.5,0.375
9608,-0.609375,-0.53125,0.265625,0.5,0.375
9736,-0.625,-0.515625,0.28125,0.5,0.359375
9864,-0.578125,-0.546875,0.25,0.5,0.375
9872,-0.59375,-0.53125,0.265625,0.484375,0.375
9992,-0.59375,-0.53125,0.25,0.484375,0.390625
10000,-0.609375,-0.53125,0.265625,0.5,0.375
16456,-0.625,-0.515625,0.265625,0.5,0.375
16464,-0.640625,-0.515625,0.265625,0.5,0.390625
16520,-0.625,-0.515625,0.265625,0.5,0.375
16528,-0.609375,-0.53125,0.25,0.5,0.390625
16536,-0.640625,-0.515625,0.265625,0.515625,0.375
16584,-0.609375,-0.53125,0.25,0.5,0.390625
16592,-0.640625,-0.515625,0.28125,0.5,0.375
16648,-0.671875,-0.5,0.296875,0.5,0.375
16656,-0.609375,-0.53125,0.25,0.5,0.390625
16712,-0.640625,-0.515625,0.265625,0.5,0.390625
16720,-0.609375,-0.53125,0.25,0.5,0.390625
16776,-0.625,-0.515625,0.265625,0.5,0.375
16840,-0.609375,-0.53125,0.25,0.5,0.390625
16848,-0.625,-0.515625,0.265625,0.5,0.375
16904,-0.625,-0.515625,0.265625,0.5,0.375
16912,-0.640625,-0.515625,0.296875,0.5,0.359375
16968,-0.640625,-0.515625,0.28125,0.5,0.375
17032,-0.609375,-0.53125,0.265625,0.5,0.375
17040,-0.65625,-0.5,0.28125,0.5,0.375
17096,-0.65625,-0.5,0.28125,0.5,0.375
17104,-0.59375,-0.53125,0.234375,0.5,0.390625
17160,-0.609375,-0.53125,0.265625,0.5,0.375
17224,-0.625,-0.515625,0.28125,0.5,0.359375
17232,-0.609375,-0.53125,0.265625,0.5,0.375
17288,-0.59375,-0.53125,0.234375,0.5,0.390625
17296,-0.609375,-0.53125,0.265625,0.5,0.375
17352,-0.609375,-0.53125,0.265625,0.5,0.375
17360,-0.625,-0.515625,0.28125,0.5,0.359375
17416,-0.625,-0.515625,0.28125,0.5,0.359375
17480,-0.59375,-0.53125,0.25,0.5,0.375
17544,-0.609375,-0.53125,0.265625,0.5,0.375
17608,-0.625,-0.515625,0.28125,0.5,0.359375
17672,-0.609375,-0.53125,0.265625,0.5,0.375
17800,-0.625,-0.515625,0.28125,0.5,0.359375
17928,-0.640625,-0.515625,0.28125,0.5,0.375
17936,-0.640625,-0.515625,0.296875,0.5,0.359375
17944,-0.578125,-0.53125,0.234375,0.484375,0.390625
18056,-0.609375,-0.53125,0.265625,0.5,0.375
18064,-0.625,-0.515625,0.265625,0.5,0.375
18184,-0.625,-0.515625,0.265625,0.5,0.375
24648,-0.625,-0.515625,0.265625,0.5,0.375
24656,-0.625,-0.515625,0.265625,0.5,0.375
24712,-0.625,-0.515625,0.265625,0.5,0.375
24720,-0.65625,-0.515625,0.28125,0.515625,0.375
24776,-0.65625,-0.5,0.296875,0.5,0.359375
24784,-0.609375,-0.53125,0.25,0.5,0.390625
24840,-0.640625,-0.515625,0.28125,0.5,0.375
24848,-0.625,-0.515625,0.265625,0.5,0.375
24904,-0.640625,-0.515625,0.28125,0.5,0.375
24968,-0.65625,-0.5,0.296875,0.5,0.359375
24976,-0.59375,-0.53125,0.25,0.5,0.375
25032,-0.625,-0.515625,0.265625,0.5,0.375
25040,-0.640625,-0.515625,0.28125,0.5,0.375
25096,-0.65625,-0.5,0.28125,0.5,0.375
25160,-0.609375,-0.53125,0.265625,0.5,0.375
25168,-0.59375,-0.53125,0.25,0.5,0.375
25224,-0.609375,-0.53125,0.265625,0.5,0.375
25232,-0.640625,-0.515625,0.28125,0.5,0.375
25288,-0.625,-0.515625,0.28125,0.5,0.359375
25296,-0.609375,-0.53125,0.265625,0.5,0.375
25352,-0.609375,-0.53125,0.25,0.5,0.390625
25360,-0.609375,-0.53125,0.265625,0.5,0.375
25416,-0.640625,-0.515625,0.28125,0.5,0.375
25424,-0.578125,-0.546875,0.234375,0.5,0.390625
25480,-0.59375,-0.53125,0.25,0.5,0.375
25544,-0.625,-0.515625,0.28125,0.5,0.359375
25552,-0.625,-0.515625,0.28125,0.5,0.359375
25608,-0.65625,-0.5,0.296875,0.5,0.359375
25672,-0.59375,-0.53125,0.25,0.5,0.375
25736,-0.625,-0.515625,0.265625,0.5,0.375
25800,-0.625,-0.53125,0.28125,0.5,0.375
25808,-0.578125,-0.53125,0.234375,0.484375,0.390625
25864,-0.59375,-0.53125,0.265625,0.484375,0.375
25872,-0.609375,-0.53125,0.265625,0.5,0.375
25992,-0.609375,-0.53125,0.265625,0.5,0.375
26120,-0.59375,-0.53125,0.25,0.5,0.375
26128,-0.609375,-0.53125,0.265625,0.5,0.375
26248,-0.59375,-0.53125,0.265625,0.484375,0.375
26256,-0.640625,-0.515625,0.296875,0.5,0.359375
26264,-0.59375,-0.53125,0.234375,0.5,0.390625
26376,-0.625,-0.515625,0.25,0.5,0.390625
32840,-0.65625,-0.5,0.28125,0.5,0.375
32848,-0.671875,-0.5,0.296875,0.5,0.375
32904,-0.609375,-0.53125,0.25,0.5,0.390625
32912,-0.625,-0.515625,0.25,0.5,0.390625
32968,-0.65625,-0.5,0.28125,0.5,0.375
32976,-0.625,-0.515625,0.265625,0.5,0.375
33032,-0.625,-0.515625,0.25,0.5,0.390625
33040,-0.640625,-0.515625,0.265625,0.5,0.390625
33096,-0.625,-0.515625,0.265625,0.5,0.375
33104,-0.625,-0.515625,0.265625,0.5,0.375
33160,-0.625,-0.515625,0.25,0.5,0.390625
33224,-0.609375,-0.53125,0.25,0.5,0.390625
33232,-0.640625,-0.515625,0.28125,0.5,0.375
33288,-0.625,-0.515625,0.265625,0.5,0.375
33296,-0.65625,-0.5,0.28125,0.5,0.375
33352,-0.625,-0.515625,0.265625,0.5,0.375
33360,-0.65625,-0.5,0.28125,0.5,0.375
33416,-0.640625,-0.515625,0.28125,0.5,0.375
33424,-0.609375,-0.53125,0.265625,0.5,0.375
33480,-0.609375,-0.53125,0.265625,0.5,0.375
33544,-0.640625,-0.515625,0.28125,0.5,0.375
33552,-0.640625,-0.515625,0.28125,0.5,0.375
33608,-0.578125,-0.546875,0.25,0.5,0.375
33672,-0.625,-0.515625,0.265625,0.5,0.375
33680,-0.578125,-0.53125,0.25,0.484375,0.375
33736,-0.640625,-0.515625,0.296875,0.5,0.359375
33800,-0.59375,-0.53125,0.25,0.484375,0.390625
33808,-0.59375,-0.53125,0.25,0.5,0.375
33864,-0.609375,-0.53125,0.28125,0.5,0.359375
33928,-0.609375,-0.53125,0.28125,0.5,0.359375
33992,-0.609375,-0.53125,0.265625,0.5,0.375
34056,-0.59375,-0.53125,0.265625,0.484375,0.375
34184,-0.625,-0.515625,0.28125,0.5,0.359375
34192,-0.609375,-0.53125,0.265625,0.5,0.375
34312,-0.625,-0.515625,0.28125,0.5,0.359375
34320,-0.609375,-0.53125,0.265625,0.5,0.375
34328,-0.640625,-0.515625,0.296875,0.5,0.359375
34440,-0.59375,-0.53125,0.25,0.5,0.375
34448,-0.59375,-0.53125,0.25,0.484375,0.390625
34568,-0.640625,-0.515625,0.28125,0.5,0.375
41032,-0.640625,-0.515625,0.28125,0.5,0.375
41040,-0.65625,-0.5,0.28125,0.5,0.375
41048,-0.609375,-0.53125,0.25,0.5,0.390625
41096,-0.640625,-0.515625,0.28125,0.5,0.375
41104,-0.625,-0.515625,0.25,0.5,0.390625
41160,-0.640625,-0.515625,0.28125,0.5,0.375
41168,-0.609375,-0.53125,0.25,0.5,0.390625
41224,-0.65625,-0.5,0.28125,0.5,0.375
41232,-0.625,-0.515625,0.25,0.5,0.390625
41288,-0.625,-0.515625,0.25,0.5,0.390625
41352,-0.640625,-0.515625,0.28125,0.5,0.375
41360,-0.625,-0.515625,0.265625,0.5,0.375
41416,-0.625,-0.515625,0.265625,0.5,0.375
41424,-0.640625,-0.515625,0.28125,0.5,0.375
41480,-0.625,-0.515625,0.265625,0.5,0.375
41488,-0.625,-0.515625,0.265625,0.5,0.375
41496,-0.65625,-0.5,0.28125,0.5,0.375
41544,-0.609375,-0.53125,0.25,0.5,0.390625
41552,-0.609375,-0.53125,0.25,0.5,0.390625
41608,-0.640625,-0.515625,0.28125,0.5,0.375
41672,-0.609375,-0.53125,0.25,0.5,0.390625
41680,-0.609375,-0.53125,0.25,0.5,0.390625
41736,-0.640625,-0.515625,0.296875,0.5,0.359375
41800,-0.59375,-0.53125,0.25,0.5,0.375
41808,-0.625,-0.515625,0.265625,0.5,0.375
41864,-0.625,-0.515625,0.265625,0.5,0.375
41872,-0.59375,-0.53125,0.25,0.484375,0.390625
41928,-0.59375,-0.53125,0.265625,0.484375,0.375
41992,-0.625,-0.515625,0.28125,0.5,0.359375
42056,-0.640625,-0.515625,0.296875,0.5,0.359375
42120,-0.578125,-0.53125,0.234375,0.484375,0.390625
42184,-0.609375,-0.53125,0.265625,0.5,0.375
42192,-0.609375,-0.53125,0.265625,0.5,0.375
42248,-0.625,-0.515625,0.28125,0.5,0.359375
42256,-0.625,-0.515625,0.265625,0.5,0.375
42376,-0.609375,-0.53125,0.265625,0.5,0.375
42504,-0.625,-0.515625,0.265625,0.5,0.375
42632,-0.59375,-0.53125,0.25,0.5,0.375
42640,-0.625,-0.515625,0.265625,0.5,0.375
42760,-0.609375,-0.53125,0.265625,0.5,0.375
42768,-0.609375,-0.53125,0.265625,0.5,0.375
49224,-0.65625,-0.5,0.265625,0.5,0.390625
49232,-0.640625,-0.515625,0.28125,0.5,0.375
49288,-0.609375,-0.53125,0.234375,0.5,0.40625
49296,-0.640625,-0.515625,0.28125,0.5,0.375
49352,-0.625,-0.515625,0.265625,0.5,0.375
49360,-0.625,-0.515625,0.265625,0.5,0.375
49416,-0.609375,-0.53125,0.25,0.5,0.390625
49424,-0.65625,-0.5,0.28125,0.5,0.375
49432,-0.640625,-0.515625,0.265625,0.5,0.390625
49480,-0.65625,-0.515625,0.28125,0.515625,0.375
49488,-0.625,-0.515625,0.25,0.5,0.390625
49496,-0.609375,-0.53125,0.25,0.5,0.390625
49544,-0.625,-0.515625,0.265625,0.5,0.375
49552,-0.625,-0.515625,0.25,0.5,0.390625
49608,-0.640625,-0.515625,0.28125,0.5,0.375
49616,-0.640625,-0.515625,0.265625,0.5,0.390625
49672,-0.640625,-0.515625,0.265625,0.5,0.390625
49736,-0.640625,-0.515625,0.265625,0.5,0.390625
49800,-0.625,-0.515625,0.265625,0.5,0.375
49808,-0.609375,-0.53125,0.25,0.5,0.390625
49864,-0.65625,-0.5,0.28125,0.5,0.375
49928,-0.625,-0.515625,0.25,0.5,0.390625
49936,-0.625,-0.515625,0.265625,0.5,0.375
49992,-0.65625,-0.5,0.28125,0.5,0.375
50056,-0.609375,-0.515625,0.25,0.484375,0.390625
50120,-0.609375,-0.53125,0.25,0.5,0.390625
50128,-0.65625,-0.515625,0.296875,0.5,0.375
50184,-0.640625,-0.515625,0.28125,0.5,0.375
50192,-0.609375,-0.53125,0.265625,0.5,0.375
50248,-0.640625,-0.515625,0.28125,0.5,0.375
50256,-0.640625,-0.515625,0.296875,0.5,0.359375
50312,-0.59375,-0.53125,0.25,0.484375,0.390625
50320,-0.640625,-0.515625,0.28125,0.5,0.375
50376,-0.609375,-0.53125,0.25,0.5,0.390625
50440,-0.625,-0.515625,0.265625,0.5,0.375
50568,-0.640625,-0.515625,0.28125,0.5,0.375
50696,-0.625,-0.515625,0.28125,0.5,0.359375
50824,-0.609375,-0.53125,0.265625,0.5,0.375
50832,-0.59375,-0.53125,0.25,0.5,0.375
50952,-0.609375,-0.53125,0.265625,0.5,0.375
50960,-0.59375,-0.53125,0.25,0.484375,0.390625
57416,-0.640625,-0.515625,0.265625,0.515625,0.375
57424,-0.625,-0.515625,0.25,0.5,0.390625
57480,-0.640625,-0.515625,0.265625,0.5,0.390625
57488,-0.625,-0.515625,0.265625,0.5,0.375
57544,-0.609375,-0.53125,0.25,0.5,0.390625
57552,-0.609375,-0.53125,0.25,0.5,0.390625
57608,-0.65625,-0.515625,0.28125,0.515625,0.375
57616,-0.625,-0.515625,0.25,0.5,0.390625
57672,-0.609375,-0.53125,0.25,0.5,0.390625
57680,-0.640625,-0.515625,0.28125,0.5,0.375
57736,-0.625,-0.515625,0.25,0.5,0.390625
57744,-0.609375,-0.53125,0.234375,0.5,0.40625
57800,-0.65625,-0.515625,0.296875,0.515625,0.359375
57864,-0.625,-0.515625,0.265625,0.5,0.375
57872,-0.625,-0.515625,0.265625,0.5,0.375
57928,-0.625,-0.515625,0.265625,0.5,0.375
57936,-0.640625,-0.515625,0.28125,0.5,0.375
57992,-0.609375,-0.53125,0.25,0.5,0.390625
58056,-0.59375,-0.53125,0.234375,0.5,0.390625
58064,-0.640625,-0.515625,0.28125,0.5,0.375
58120,-0.65625,-0.5,0.296875,0.5,0.359375
58128,-0.609375,-0.53125,0.25,0.5,0.390625
58184,-0.625,-0.515625,0.265625,0.5,0.375
58192,-0.59375,-0.53125,0.25,0.5,0.375
58248,-0.625,-0.515625,0.265625,0.5,0.375
58312,-0.609375,-0.53125,0.265625,0.5,0.375
58320,-0.625,-0.515625,0.265625,0.5,0.375
58376,-0.609375,-0.53125,0.265625,0.5,0.375
58440,-0.609375,-0.53125,0.25,0.5,0.390625
58504,-0.609375,-0.53125,0.265625,0.5,0.375
58568,-0.640625,-0.515625,0.296875,0.5,0.359375
58632,-0.640625,-0.515625,0.296875,0.5,0.359375
58760,-0.625,-0.515625,0.265625,0.5,0.375
58768,-0.609375,-0.53125,0.265625,0.5,0.375
58776,-0.609375,-0.53125,0.265625,0.5,0.375
58888,-0.609375,-0.53125,0.265625,0.5,0.375
59016,-0.609375,-0.515625,0.28125,0.484375,0.359375
59144,-0.609375,-0.53125,0.28125,0.5,0.359375
59152,-0.609375,-0.53125,0.25,0.5,0.390625
59160,-0.578125,-0.53125,0.234375,0.484375,0.390625
65608,-0.625,-0.515625,0.25,0.5,0.390625
65616,-0.609375,-0.53125,0.25,0.5,0.390625
65672,-0.671875,-0.5,0.265625,0.515625,0.390625
65680,-0.609375,-0.53125,0.265625,0.5,0.375
65736,-0.65625,-0.5,0.265625,0.515625,0.375
65744,-0.65625,-0.5,0.265625,0.5,0.390625
65800,-0.65625,-0.5,0.265625,0.5,0.390625
65808,-0.640625,-0.515625,0.28125,0.5,0.375
65864,-0.625,-0.515625,0.265625,0.5,0.375
65872,-0.640625,-0.515625,0.28125,0.5,0.375
65928,-0.625,-0.515625,0.265625,0.5,0.375
65992,-0.671875,-0.5,0.296875,0.515625,0.359375
66000,-0.609375,-0.53125,0.265625,0.5,0.375
66056,-0.671875,-0.5,0.296875,0.515625,0.359375
66120,-0.609375,-0.53125,0.265625,0.5,0.375
66128,-0.609375,-0.53125,0.25,0.5,0.390625
66184,-0.640625,-0.515625,0.28125,0.5,0.375
66192,-0.59375,-0.53125,0.25,0.5,0.375
66248,-0.625,-0.515625,0.265625,0.5,0.375
66256,-0.65625,-0.5,0.296875,0.5,0.359375
66312,-0.640625,-0.515625,0.28125,0.5,0.375
66320,-0.609375,-0.53125,0.265625,0.5,0.375
66376,-0.640625,-0.515625,0.28125,0.5,0.375
66384,-0.640625,-0.515625,0.28125,0.5,0.375
66440,-0.625,-0.515625,0.265625,0.5,0.375
66504,-0.609375,-0.53125,0.265625,0.5,0.375
66568,-0.65625,-0.515625,0.296875,0.5,0.375
66576,-0.59375,-0.53125,0.25,0.5,0.375
66632,-0.59375,-0.53125,0.265625,0.484375,0.375
66640,-0.640625,-0.515625,0.28125,0.5,0.375
66696,-0.625,-0.515625,0.265625,0.5,0.375
66704,-0.59375,-0.53125,0.25,0.5,0.375
66760,-0.625,-0.515625,0.28125,0.5,0.359375
66824,-0.609375,-0.53125,0.265625,0.5,0.375
66952,-0.625,-0.53125,0.296875,0.5,0.359375
66960,-0.640625,-0.515625,0.296875,0.5,0.359375
67080,-0.59375,-0.53125,0.28125,0.484375,0.359375
67088,-0.59375,-0.53125,0.25,0.5,0.375
67208,-0.625,-0.515625,0.265625,0.5,0.375
67336,-0.59375,-0.53125,0.25,0.5,0.375
67344,-0.625,-0.515625,0.28125,0.5,0.359375
73800,-0.65625,-0.5,0.28125,0.5,0.375
73808,-0.625,-0.515625,0.25,0.5,0.390625
73864,-0.625,-0.515625,0.25,0.5,0.390625
73872,-0.65625,-0.5,0.28125,0.5,0.375
73928,-0.625,-0.515625,0.265625,0.5,0.375
73936,-0.609375,-0.515625,0.25,0.5,0.375
73944,-0.640625,-0.515625,0.28125,0.5,0.375
73992,-0.609375,-0.53125,0.25,0.5,0.390625
74000,-0.640625,-0.515625,0.296875,0.5,0.359375
74056,-0.625,-0.515625,0.265625,0.5,0.375
74064,-0.640625,-0.515625,0.28125,0.5,0.375
74120,-0.59375,-0.53125,0.234375,0.5,0.390625
74128,-0.625,-0.515625,0.265625,0.5,0.375
74184,-0.625,-0.515625,0.265625,0.5,0.375
74248,-0.65625,-0.5,0.28125,0.5,0.375
74256,-0.609375,-0.53125,0.265625,0.5,0.375
74312,-0.609375,-0.53125,0.25,0.5,0.390625
74376,-0.640625,-0.515625,0.28125,0.5,0.375
74384,-0.625,-0.515625,0.265625,0.5,0.375
74440,-0.625,-0.515625,0.265625,0.5,0.375
74448,-0.65625,-0.515625,0.296875,0.515625,0.359375
74504,-0.640625,-0.515625,0.296875,0.5,0.359375
74568,-0.625,-0.515625,0.265625,0.5,0.375
74632,-0.609375,-0.53125,0.265625,0.5,0.375
74640,-0.625,-0.515625,0.265625,0.5,0.375
74696,-0.59375,-0.53125,0.25,0.5,0.375
74704,-0.609375,-0.53125,0.265625,0.5,0.375
74760,-0.625,-0.515625,0.265625,0.5,0.375
74768,-0.625,-0.515625,0.28125,0.5,0.359375
74824,-0.59375,-0.53125,0.25,0.5,0.375
74888,-0.59375,-0.53125,0.234375,0.5,0.390625
74952,-0.609375,-0.53125,0.265625,0.5,0.375
75016,-0.59375,-0.53125,0.25,0.5,0.375
75144,-0.625,-0.515625,0.265625,0.5,0.375
75152,-0.640625,-0.515625,0.28125,0.5,0.375
75160,-0.578125,-0.53125,0.234375,0.5,0.375
75272,-0.65625,-0.515625,0.296875,0.5,0.375
75400,-0.609375,-0.53125,0.265625,0.5,0.375
75528,-0.609375,-0.53125,0.28125,0.5,0.359375
75536,-0.625,-0.515625,0.28125,0.5,0.359375
81992,-0.625,-0.515625,0.265625,0.5,0.375
82000,-0.640625,-0.515625,0.28125,0.5,0.375
82056,-0.671875,-0.5,0.296875,0.515625,0.359375
82064,-0.609375,-0.53125,0.25,0.5,0.390625
82120,-0.65625,-0.5,0.28125,0.5,0.375
82128,-0.625,-0.515625,0.25,0.5,0.390625
82184,-0.640625,-0.515625,0.265625,0.5,0.390625
82192,-0.625,-0.515625,0.265625,0.5,0.375
82248,-0.625,-0.515625,0.265625,0.5,0.375
82256,-0.640625,-0.515625,0.28125,0.5,0.375
82312,-0.625,-0.515625,0.25,0.5,0.390625
82320,-0.65625,-0.5,0.28125,0.5,0.375
82328,-0.59375,-0.53125,0.234375,0.5,0.390625
82376,-0.640625,-0.515625,0.28125,0.5,0.375
82384,-0.671875,-0.5,0.296875,0.5,0.375
82392,-0.59375,-0.53125,0.234375,0.5,0.390625
82440,-0.65625,-0.5,0.28125,0.5,0.375
82448,-0.609375,-0.53125,0.265625,0.5,0.375
82504,-0.609375,-0.53125,0.265625,0.5,0.375
82512,-0.640625,-0.515625,0.28125,0.5,0.375
82568,-0.640625,-0.515625,0.28125,0.5,0.375
82632,-0.609375,-0.53125,0.25,0.5,0.390625
82696,-0.609375,-0.53125,0.25,0.5,0.390625
82704,-0.625,-0.515625,0.265625,0.5,0.375
82760,-0.59375,-0.53125,0.234375,0.5,0.390625
82824,-0.625,-0.515625,0.265625,0.5,0.375
82888,-0.59375,-0.53125,0.25,0.5,0.375
82952,-0.609375,-0.53125,0.265625,0.5,0.375
83016,-0.640625,-0.515625,0.28125,0.5,0.375
83024,-0.625,-0.53125,0.28125,0.5,0.375
83080,-0.640625,-0.515625,0.28125,0.5,0.375
83088,-0.609375,-0.53125,0.265625,0.5,0.375
83144,-0.640625,-0.515625,0.28125,0.5,0.375
83152,-0.578125,-0.53125,0.25,0.484375,0.375
83208,-0.640625,-0.515625,0.28125,0.5,0.375
83216,-0.59375,-0.53125,0.25,0.5,0.375
83336,-0.640625,-0.515625,0.296875,0.5,0.359375
83464,-0.59375,-0.53125,0.25,0.5,0.375
83592,-0.59375,-0.53125,0.25,0.5,0.375
83600,-0.609375,-0.53125,0.28125,0.5,0.359375
83720,-0.578125,-0.53125,0.25,0.484375,0.375
83728,-0.59375,-0.53125,0.265625,0.484375,0.375
90184,-0.640625,-0.515625,0.265625,0.5,0.390625
90192,-0.65625,-0.5,0.296875,0.5,0.359375
90248,-0.625,-0.515625,0.25,0.5,0.390625
90256,-0.640625,-0.515625,0.265625,0.5,0.390625
90264,-0.640625,-0.515625,0.28125,0.5,0.375
90312,-0.625,-0.515625,0.25,0.5,0.390625
90320,-0.65625,-0.5,0.28125,0.5,0.375
90376,-0.671875,-0.5,0.296875,0.515625,0.359375
90384,-0.609375,-0.53125,0.25,0.5,0.390625
90440,-0.65625,-0.5,0.28125,0.5,0.375
90448,-0.59375,-0.53125,0.234375,0.5,0.390625
90504,-0.625,-0.515625,0.265625,0.5,0.375
90568,-0.609375,-0.53125,0.25,0.5,0.390625
90576,-0.625,-0.515625,0.25,0.5,0.390625
90632,-0.625,-0.515625,0.265625,0.5,0.375
90640,-0.640625,-0.515625,0.28125,0.5,0.375
90696,-0.625,-0.515625,0.265625,0.5,0.375
90760,-0.609375,-0.53125,0.25,0.5,0.390625
90768,-0.625,-0.515625,0.265625,0.5,0.375
90824,-0.65625,-0.5,0.28125,0.5,0.375
90832,-0.59375,-0.53125,0.25,0.5,0.375
90888,-0.609375,-0.53125,0.25,0.5,0.390625
90952,-0.609375,-0.53125,0.265625,0.5,0.375
90960,-0.609375,-0.53125,0.265625,0.5,0.375
91016,-0.59375,-0.53125,0.25,0.5,0.375
91024,-0.59375,-0.53125,0.25,0.5,0.375
91080,-0.59375,-0.53125,0.25,0.5,0.375
91088,-0.625,-0.515625,0.28125,0.5,0.359375
91144,-0.625,-0.515625,0.265625,0.5,0.375
91208,-0.578125,-0.53125,0.25,0.484375,0.375
91272,-0.59375,-0.53125,0.265625,0.484375,0.375
91336,-0.609375,-0.53125,0.265625,0.5,0.375
91400,-0.59375,-0.53125,0.265625,0.484375,0.375
91528,-0.625,-0.515625,0.28125,0.5,0.359375
91656,-0.625,-0.515625,0.28125,0.5,0.359375
91664,-0.640625,-0.515625,0.28125,0.5,0.375
91672,-0.59375,-0.53125,0.25,0.5,0.375
91784,-0.609375,-0.53125,0.265625,0.5,0.375
91792,-0.609375,-0.53125,0.28125,0.5,0.359375
91912,-0.625,-0.515625,0.28125,0.5,0.359375
98376,-0.625,-0.515625,0.25,0.5,0.390625
98384,-0.625,-0.515625,0.265625,0.5,0.375
98440,-0.65625,-0.5,0.265625,0.515625,0.375
98448,-0.671875,-0.5,0.28125,0.515625,0.375
98504,-0.671875,-0.5,0.28125,0.515625,0.375
98512,-0.609375,-0.53125,0.25,0.5,0.390625
98568,-0.640625,-0.515625,0.28125,0.5,0.375
98576,-0.625,-0.515625,0.25,0.5,0.390625
98632,-0.640625,-0.515625,0.28125,0.5,0.375
98696,-0.640625,-0.515625,0.28125,0.5,0.375
98760,-0.625,-0.515625,0.265625,0.5,0.375
98768,-0.640625,-0.515625,0.28125,0.5,0.375
98824,-0.640625,-0.515625,0.265625,0.5,0.390625
98888,-0.609375,-0.53125,0.25,0.5,0.390625
99024,-0.59375,-0.53125,0.234375,0.5,0.390625
99080,-0.59375,-0.53125,0.234375,0.5,0.390625
99088,-0.609375,-0.53125,0.25,0.5,0.390625
99144,-0.640625,-0.515625,0.28125,0.5,0.375
99152,-0.59375,-0.53125,0.25,0.484375,0.390625
99208,-0.609375,-0.53125,0.265625,0.5,0.375
99272,-0.609375,-0.53125,0.265625,0.5,0.375
99280,-0.625,-0.515625,0.28125,0.5,0.359375
99336,-0.625,-0.515625,0.265625,0.5,0.375
99400,-0.609375,-0.53125,0.25,0.5,0.390625
99464,-0.640625,-0.515625,0.296875,0.5,0.359375
99528,-0.640625,-0.515625,0.28125,0.5,0.375
99536,-0.59375,-0.53125,0.25,0.484375,0.390625
99592,-0.59375,-0.53125,0.25,0.484375,0.390625
99600,-0.609375,-0.53125,0.265625,0.5,0.375
99720,-0.59375,-0.53125,0.265625,0.484375,0.375
99848,-0.609375,-0.53125,0.265625,0.5,0.375
99856,-0.625,-0.515625,0.28125,0.5,0.359375
99976,-0.59375,-0.53125,0.265625,0.484375,0.375
99984,-0.625,-0.515625,0.28125,0.5,0.359375
99992,-0.5625,-0.53125,0.203125,0.484375,0.40625
100104,-0.59375,-0.53125,0.234375,0.5,0.390625
106568,-0.640625,-0.515625,0.28125,0.5,0.375
106576,-0.65625,-0.5,0.28125,0.5,0.375
106632,-0.59375,-0.53125,0.234375,0.5,0.390625
106640,-0.625,-0.515625,0.265625,0.5,0.375
106696,-0.671875,-0.5,0.296875,0.515625,0.359375
106704,-0.625,-0.515625,0.265625,0.5,0.375
106760,-0.625,-0.515625,0.25,0.5,0.390625
106768,-0.625,-0.515625,0.265625,0.5,0.375
106824,-0.625,-0.515625,0.265625,0.5,0.375
106832,-0.609375,-0.53125,0.265625,0.5,0.375
106888,-0.640625,-0.515625,0.28125,0.5,0.375
106952,-0.609375,-0.53125,0.25,0.5,0.390625
106960,-0.640625,-0.515625,0.28125,0.5,0.375
107016,-0.609375,-0.53125,0.25,0.5,0.390625
107024,-0.65625,-0.5,0.28125,0.5,0.375
107080,-0.609375,-0.53125,0.25,0.5,0.390625
107088,-0.640625,-0.515625,0.265625,0.5,0.390625
107144,-0.625,-0.515625,0.265625,0.5,0.375
107152,-0.59375,-0.53125,0.25,0.5,0.375
107208,-0.609375,-0.53125,0.265625,0.5,0.375
107272,-0.640625,-0.515625,0.28125,0.5,0.375
107280,-0.625,-0.515625,0.265625,0.5,0.375
107336,-0.59375,-0.53125,0.25,0.5,0.375
107400,-0.625,-0.515625,0.28125,0.5,0.359375
107408,-0.59375,-0.53125,0.25,0.484375,0.390625
107464,-0.640625,-0.515625,0.28125,0.5,0.375
107528,-0.59375,-0.53125,0.234375,0.5,0.390625
107536,-0.625,-0.515625,0.265625,0.5,0.375
107592,-0.625,-0.515625,0.28125,0.5,0.359375
107656,-0.640625,-0.515625,0.296875,0.5,0.359375
107720,-0.59375,-0.53125,0.25,0.5,0.375
107784,-0.609375,-0.53125,0.265625,0.5,0.375
107912,-0.625,-0.515625,0.28125,0.5,0.359375
107920,-0.609375,-0.53125,0.265625,0.5,0.375
108040,-0.625,-0.515625,0.28125,0.484375,0.375
108048,-0.625,-0.515625,0.265625,0.5,0.375
108056,-0.625,-0.515625,0.265625,0.5,0.375
108168,-0.59375,-0.53125,0.25,0.484375,0.390625
108176,-0.609375,-0.53125,0.265625,0.484375,0.390625
108296,-0.640625,-0.515625,0.296875,0.5,0.359375
114760,-0.640625,-0.515625,0.28125,0.5,0.375
114768,-0.640625,-0.515625,0.265625,0.5,0.390625
114776,-0.609375,-0.53125,0.25,0.5,0.390625
114824,-0.625,-0.515625,0.25,0.5,0.390625
114832,-0.609375,-0.53125,0.25,0.5,0.390625
114888,-0.65625,-0.5,0.28125,0.515625,0.359375
114896,-0.609375,-0.53125,0.25,0.5,0.390625
114952,-0.65625,-0.5,0.28125,0.5,0.375
114960,-0.640625,-0.515625,0.28125,0.5,0.375
115016,-0.609375,-0.53125,0.25,0.5,0.390625
115080,-0.625,-0.515625,0.265625,0.5,0.375
115088,-0.609375,-0.53125,0.25,0.5,0.390625
115144,-0.625,-0.515625,0.25,0.5,0.390625
115152,-0.640625,-0.515625,0.28125,0.5,0.375
115208,-0.625,-0.515625,0.25,0.5,0.390625
115216,-0.625,-0.515625,0.265625,0.5,0.375
115224,-0.65625,-0.5,0.28125,0.5,0.375
115272,-0.59375,-0.53125,0.234375,0.5,0.390625
115280,-0.59375,-0.53125,0.234375,0.5,0.390625
115336,-0.625,-0.515625,0.265625,0.5,0.375
115400,-0.609375,-0.53125,0.25,0.5,0.390625
115408,-0.609375,-0.53125,0.25,0.5,0.390625
115464,-0.640625,-0.515625,0.28125,0.5,0.375
115528,-0.59375,-0.53125,0.25,0.484375,0.390625
115536,-0.625,-0.515625,0.265625,0.5,0.375
115592,-0.625,-0.515625,0.265625,0.5,0.375
115600,-0.59375,-0.53125,0.234375,0.5,0.390625
115656,-0.609375,-0.53125,0.25,0.5,0.390625
115720,-0.625,-0.515625,0.265625,0.5,0.375
115784,-0.640625,-0.515625,0.296875,0.5,0.359375
115848,-0.59375,-0.53125,0.25,0.484375,0.390625
115912,-0.625,-0.515625,0.265625,0.5,0.375
115920,-0.609375,-0.53125,0.265625,0.5,0.375
115976,-0.640625,-0.515625,0.296875,0.5,0.359375
115984,-0.625,-0.515625,0.265625,0.5,0.375
116104,-0.625,-0.515625,0.265625,0.5,0.375
116232,-0.640625,-0.515625,0.296875,0.5,0.359375
116360,-0.59375,-0.53125,0.265625,0.484375,0.375
116368,-0.625,-0.515625,0.265625,0.5,0.375
116488,-0.609375,-0.53125,0.265625,0.5,0.375
116496,-0.625,-0.515625,0.265625,0.5,0.375
122952,-0.640625,-0.515625,0.265625,0.5,0.390625
122960,-0.65625,-0.5,0.28125,0.5,0.375
123016,-0.609375,-0.53125,0.25,0.5,0.390625
123024,-0.640625,-0.515625,0.265625,0.5,0.390625
123080,-0.625,-0.515625,0.265625,0.5,0.375
123088,-0.640625,-0.515625,0.28125,0.5,0.375
123144,-0.625,-0.515625,0.265625,0.5,0.375
123152,-0.65625,-0.5,0.28125,0.515625,0.359375
123160,-0.65625,-0.5,0.28125,0.5,0.375
123208,-0.625,-0.515625,0.265625,0.5,0.375
123216,-0.640625,-0.515625,0.28125,0.5,0.375
123224,-0.625,-0.515625,0.25,0.5,0.390625
123272,-0.609375,-0.53125,0.25,0.5,0.390625
123280,-0.625,-0.515625,0.265625,0.5,0.375
123336,-0.609375,-0.53125,0.25,0.5,0.390625
123344,-0.640625,-0.515625,0.28125,0.5,0.375
123400,-0.609375,-0.53125,0.25,0.5,0.390625
123464,-0.640625,-0.515625,0.296875,0.5,0.359375
123528,-0.609375,-0.53125,0.25,0.5,0.390625
123536,-0.59375,-0.53125,0.25,0.5,0.375
123592,-0.640625,-0.515625,0.28125,0.5,0.375
123656,-0.625,-0.515625,0.265625,0.5,0.375
123664,-0.59375,-0.53125,0.25,0.5,0.375
123856,-0.640625,-0.515625,0.296875,0.5,0.359375
123912,-0.625,-0.515625,0.28125,0.5,0.359375
123920,-0.609375,-0.53125,0.265625,0.5,0.375
123976,-0.640625,-0.515625,0.296875,0.5,0.359375
124040,-0.59375,-0.53125,0.265625,0.484375,0.375
124104,-0.59375,-0.53125,0.25,0.484375,0.390625
124168,-0.640625,-0.515625,0.296875,0.5,0.359375
124296,-0.625,-0.515625,0.28125,0.5,0.359375
124424,-0.625,-0.515625,0.28125,0.484375,0.375
124552,-0.640625,-0.515625,0.28125,0.5,0.375
124560,-0.609375,-0.53125,0.265625,0.5,0.375
124680,-0.640625,-0.515625,0.28125,0.5,0.375
124688,-0.59375,-0.53125,0.25,0.5,0.375
131144,-0.625,-0.515625,0.265625,0.5,0.375
131152,-0.625,-0.515625,0.25,0.5,0.390625
131208,-0.640625,-0.515625,0.28125,0.5,0.375
131216,-0.640625,-0.515625,0.28125,0.5,0.375
131272,-0.625,-0.515625,0.25,0.5,0.390625
131280,-0.609375,-0.53125,0.234375,0.5,0.40625
131336,-0.640625,-0.515625,0.28125,0.5,0.375
131344,-0.625,-0.515625,0.265625,0.5,0.375
131400,-0.609375,-0.53125,0.25,0.5,0.390625
131408,-0.640625,-0.515625,0.28125,0.5,0.375
131464,-0.625,-0.515625,0.265625,0.5,0.375
131472,-0.59375,-0.53125,0.234375,0.484375,0.40625
131528,-0.65625,-0.515625,0.28125,0.515625,0.375
131592,-0.625,-0.515625,0.265625,0.5,0.375
131600,-0.640625,-0.515625,0.28125,0.5,0.375
131656,-0.640625,-0.515625,0.28125,0.5,0.375
131664,-0.625,-0.515625,0.265625,0.5,0.375
131720,-0.609375,-0.53125,0.25,0.5,0.390625
131784,-0.609375,-0.53125,0.265625,0.5,0.375
131792,-0.640625,-0.515625,0.28125,0.5,0.375
131848,-0.65625,-0.515625,0.296875,0.515625,0.359375
131856,-0.625,-0.515625,0.265625,0.5,0.375
131912,-0.625,-0.515625,0.265625,0.5,0.375
131920,-0.59375,-0.53125,0.25,0.5,0.375
131976,-0.640625,-0.515625,0.28125,0.5,0.375
132040,-0.59375,-0.53125,0.25,0.5,0.375
132048,-0.625,-0.515625,0.265625,0.5,0.375
132104,-0.578125,-0.53125,0.234375,0.484375,0.390625
132168,-0.59375,-0.53125,0.25,0.5,0.375
132232,-0.59375,-0.53125,0.25,0.5,0.375
132296,-0.625,-0.515625,0.28125,0.5,0.359375
132360,-0.609375,-0.53125,0.265625,0.5,0.375
132488,-0.609375,-0.53125,0.265625,0.5,0.375
132496,-0.609375,-0.53125,0.265625,0.5,0.375
132504,-0.609375,-0.53125,0.265625,0.5,0.375
132616,-0.59375,-0.53125,0.25,0.5,0.375
132744,-0.625,-0.515625,0.265625,0.5,0.375
132872,-0.59375,-0.53125,0.25,0.5,0.375
132888,-0.59375,-0.53125,0.25,0.484375,0.390625
139336,-0.625,-0.515625,0.265625,0.5,0.375
139344,-0.625,-0.515625,0.265625,0.5,0.375
139400,-0.671875,-0.5,0.296875,0.515625,0.359375
139408,-0.609375,-0.53125,0.265625,0.5,0.375
139464,-0.640625,-0.515625,0.28125,0.5,0.375
139472,-0.640625,-0.515625,0.28125,0.5,0.375
139528,-0.640625,-0.515625,0.265625,0.5,0.390625
139536,-0.640625,-0.515625,0.265625,0.515625,0.375
139592,-0.640625,-0.515625,0.28125,0.5,0.375
139600,-0.640625,-0.515625,0.296875,0.5,0.359375
139656,-0.625,-0.515625,0.265625,0.5,0.375
139720,-0.65625,-0.5,0.28125,0.5,0.375
139728,-0.59375,-0.53125,0.234375,0.5,0.390625
139784,-0.65625,-0.5,0.28125,0.5,0.375
139848,-0.59375,-0.53125,0.234375,0.5,0.390625
139856,-0.609375,-0.53125,0.25,0.5,0.390625
139912,-0.625,-0.515625,0.265625,0.5,0.375
139920,-0.59375,-0.53125,0.234375,0.5,0.390625
139976,-0.625,-0.515625,0.265625,0.5,0.375
139984,-0.640625,-0.515625,0.28125,0.5,0.375
140040,-0.59375,-0.53125,0.234375,0.5,0.390625
140048,-0.625,-0.515625,0.265625,0.5,0.375
140104,-0.625,-0.515625,0.265625,0.5,0.375
140112,-0.609375,-0.53125,0.25,0.5,0.390625
140168,-0.609375,-0.53125,0.265625,0.5,0.375
140232,-0.59375,-0.53125,0.25,0.5,0.375
140296,-0.640625,-0.515625,0.296875,0.5,0.359375
140304,-0.59375,-0.53125,0.234375,0.5,0.390625
140360,-0.609375,-0.53125,0.265625,0.5,0.375
140368,-0.609375,-0.53125,0.265625,0.5,0.375
140424,-0.625,-0.515625,0.28125,0.5,0.359375
140432,-0.59375,-0.53125,0.25,0.5,0.375
140488,-0.609375,-0.53125,0.265625,0.5,0.375
140552,-0.59375,-0.53125,0.25,0.5,0.375
140680,-0.625,-0.515625,0.265625,0.5,0.375
140688,-0.625,-0.515625,0.28125,0.5,0.359375
140808,-0.59375,-0.53125,0.25,0.5,0.375
140816,-0.609375,-0.53125,0.265625,0.5,0.375
140936,-0.578125,-0.53125,0.21875,0.484375,0.40625
141064,-0.59375,-0.53125,0.265625,0.484375,0.375
141072,-0.640625,-0.515625,0.296875,0.5,0.359375
147528,-0.640625,-0.515625,0.28125,0.5,0.375
147536,-0.625,-0.515625,0.25,0.5,0.390625
147592,-0.625,-0.515625,0.25,0.5,0.390625
147600,-0.65625,-0.5,0.28125,0.5,0.375
147656,-0.609375,-0.53125,0.25,0.5,0.390625
147664,-0.625,-0.515625,0.265625,0.5,0.375
147672,-0.640625,-0.515625,0.265625,0.5,0.390625
147720,-0.609375,-0.53125,0.234375,0.5,0.40625
147728,-0.640625,-0.515625,0.28125,0.5,0.375
147784,-0.625,-0.515625,0.265625,0.5,0.375
147792,-0.640625,-0.515625,0.28125,0.5,0.375
147848,-0.609375,-0.53125,0.25,0.5,0.390625
147856,-0.625,-0.515625,0.265625,0.5,0.375
147912,-0.640625,-0.515625,0.28125,0.5,0.375
147976,-0.640625,-0.515625,0.265625,0.5,0.390625
147984,-0.609375,-0.515625,0.25,0.484375,0.390625
148040,-0.59375,-0.53125,0.234375,0.5,0.390625
148104,-0.640625,-0.515625,0.28125,0.5,0.375
148112,-0.609375,-0.53125,0.265625,0.5,0.375
148168,-0.609375,-0.53125,0.25,0.5,0.390625
148176,-0.65625,-0.5,0.28125,0.5,0.375
148232,-0.640625,-0.515625,0.28125,0.5,0.375
148296,-0.625,-0.515625,0.265625,0.5,0.375
148360,-0.609375,-0.53125,0.25,0.5,0.390625
148368,-0.640625,-0.515625,0.28125,0.5,0.375
148424,-0.578125,-0.53125,0.234375,0.484375,0.390625
148432,-0.609375,-0.53125,0.265625,0.5,0.375
148488,-0.59375,-0.53125,0.234375,0.5,0.390625
148496,-0.625,-0.515625,0.265625,0.5,0.375
148552,-0.578125,-0.53125,0.234375,0.5,0.375
148616,-0.578125,-0.53125,0.25,0.484375,0.375
148680,-0.59375,-0.53125,0.25,0.5,0.375
148744,-0.578125,-0.53125,0.25,0.484375,0.375
148872,-0.609375,-0.53125,0.265625,0.5,0.375
148880,-0.625,-0.515625,0.28125,0.5,0.359375
148888,-0.59375,-0.53125,0.25,0.5,0.375
149000,-0.625,-0.53125,0.28125,0.5,0.375
149128,-0.625,-0.515625,0.28125,0.5,0.359375
149256,-0.59375,-0.53125,0.25,0.5,0.375
149264,-0.625,-0.53125,0.28125,0.5,0.375
155720,-0.65625,-0.5,0.25,0.5,0.40625
155728,-0.671875,-0.5,0.265625,0.515625,0.390625
155736,-0.65625,-0.5,0.25,0.5,0.40625
155784,-0.609375,-0.53125,0.25,0.5,0.390625
155792,-0.640625,-0.515625,0.265625,0.5,0.390625
155800,-0.640625,-0.515625,0.265625,0.5,0.390625
155848,-0.640625,-0.515625,0.265625,0.5,0.390625
155856,-0.65625,-0.5,0.265625,0.5,0.390625
155864,-0.640625,-0.515625,0.265625,0.5,0.390625
155912,-0.625,-0.515625,0.234375,0.5,0.40625
155920,-0.65625,-0.5,0.25,0.5,0.40625
155928,-0.640625,-0.515625,0.25,0.5,0.40625
155976,-0.703125,-0.484375,0.296875,0.515625,0.375
155984,-0.65625,-0.5,0.28125,0.5,0.375
155992,-0.625,-0.515625,0.25,0.5,0.390625
156040,-0.640625,-0.515625,0.265625,0.5,0.390625
156048,-0.65625,-0.5,0.265625,0.5,0.390625
156056,-0.625,-0.515625,0.25,0.5,0.390625
156104,-0.671875,-0.5,0.296875,0.5,0.375
156112,-0.671875,-0.5,0.296875,0.5,0.375
156120,-0.625,-0.515625,0.25,0.5,0.390625
156168,-0.671875,-0.5,0.265625,0.515625,0.390625
156176,-0.640625,-0.515625,0.25,0.5,0.40625
156184,-0.640625,-0.515625,0.265625,0.5,0.390625
156232,-0.625,-0.515625,0.25,0.5,0.390625
156240,-0.65625,-0.5,0.28125,0.5,0.375
156248,-0.65625,-0.5,0.28125,0.5,0.375
156256,-0.609375,-0.53125,0.234375,0.5,0.40625
156296,-0.640625,-0.515625,0.265625,0.5,0.390625
156304,-0.671875,-0.5,0.296875,0.5,0.375
156312,-0.625,-0.515625,0.25,0.5,0.390625
156360,-0.625,-0.515625,0.25,0.5,0.390625
156368,-0.65625,-0.5,0.265625,0.5,0.390625
156376,-0.640625,-0.515625,0.265625,0.5,0.390625
156424,-0.640625,-0.515625,0.265625,0.5,0.390625
156432,-0.65625,-0.515625,0.28125,0.515625,0.375
156440,-0.671875,-0.5,0.28125,0.5,0.390625
156448,-0.625,-0.515625,0.25,0.5,0.390625
156488,-0.671875,-0.5,0.28125,0.515625,0.375
156496,-0.640625,-0.515625,0.265625,0.515625,0.375
156552,-0.65625,-0.5,0.28125,0.5,0.375
156560,-0.640625,-0.515625,0.265625,0.515625,0.375
156616,-0.65625,-0.5,0.265625,0.5,0.390625
156624,-0.65625,-0.515625,0.28125,0.515625,0.375
156680,-0.65625,-0.5,0.28125,0.5,0.375
156688,-0.640625,-0.515625,0.265625,0.5,0.390625
163912,-0.65625,-0.5,0.25,0.5,0.40625
163920,-0.671875,-0.5,0.265625,0.515625,0.390625
163976,-0.65625,-0.5,0.25,0.5,0.40625
164040,-0.640625,-0.5,0.234375,0.5,0.40625
164104,-0.640625,-0.5,0.234375,0.5,0.40625
164112,-0.65625,-0.5,0.25,0.5,0.40625
164120,-0.65625,-0.5,0.25,0.5,0.40625
164168,-0.640625,-0.515625,0.265625,0.5,0.390625
164176,-0.65625,-0.5,0.265625,0.5,0.390625
164232,-0.671875,-0.5,0.265625,0.515625,0.390625
164240,-0.625,-0.515625,0.25,0.5,0.390625
164248,-0.640625,-0.515625,0.265625,0.5,0.390625
164296,-0.65625,-0.5,0.265625,0.5,0.390625
164304,-0.671875,-0.5,0.265625,0.515625,0.390625
164312,-0.6875,-0.484375,0.265625,0.515625,0.390625
164360,-0.671875,-0.5,0.265625,0.515625,0.390625
164368,-0.6875,-0.484375,0.28125,0.515625,0.375
164376,-0.640625,-0.515625,0.265625,0.5,0.390625
164424,-0.65625,-0.5,0.28125,0.5,0.375
164432,-0.671875,-0.5,0.28125,0.5,0.390625
164440,-0.625,-0.515625,0.25,0.5,0.390625
164488,-0.65625,-0.5,0.28125,0.5,0.375
164496,-0.609375,-0.53125,0.234375,0.5,0.40625
164504,-0.625,-0.515625,0.265625,0.5,0.375
164552,-0.625,-0.515625,0.265625,0.5,0.375
164560,-0.640625,-0.515625,0.265625,0.5,0.390625
164616,-0.640625,-0.515625,0.265625,0.5,0.390625
164624,-0.671875,-0.5,0.28125,0.515625,0.375
164632,-0.65625,-0.5,0.28125,0.5,0.375
164680,-0.625,-0.515625,0.25,0.5,0.390625
164688,-0.671875,-0.5,0.296875,0.5,0.375
164744,-0.625,-0.515625,0.265625,0.5,0.375
164752,-0.65625,-0.5,0.265625,0.5,0.390625
164808,-0.640625,-0.515625,0.28125,0.5,0.375
164816,-0.65625,-0.5,0.265625,0.5,0.390625
164824,-0.609375,-0.53125,0.25,0.5,0.390625
164872,-0.640625,-0.515625,0.265625,0.5,0.390625
164880,-0.65625,-0.5,0.28125,0.5,0.375
164888,-0.640625,-0.515625,0.265625,0.515625,0.375
172104,-0.640625,-0.5,0.234375,0.5,0.40625
172168,-0.65625,-0.5,0.25,0.515625,0.390625
172232,-0.65625,-0.5,0.25,0.5,0.40625
172296,-0.65625,-0.5,0.25,0.5,0.40625
172368,-0.65625,-0.5,0.265625,0.5,0.390625
172376,-0.65625,-0.5,0.28125,0.5,0.375
172440,-0.640625,-0.5,0.25,0.5,0.390625
172488,-0.671875,-0.5,0.265625,0.515625,0.390625
172496,-0.65625,-0.5,0.265625,0.5,0.390625
172504,-0.65625,-0.5,0.265625,0.5,0.390625
172512,-0.65625,-0.5,0.28125,0.5,0.375
172552,-0.65625,-0.5,0.25,0.5,0.40625
172560,-0.65625,-0.5,0.25,0.5,0.40625
172568,-0.671875,-0.5,0.28125,0.515625,0.375
172576,-0.6875,-0.5,0.296875,0.515625,0.375
172584,-0.625,-0.515625,0.25,0.5,0.390625
172616,-0.6875,-0.484375,0.3125,0.5,0.359375
172624,-0.625,-0.515625,0.25,0.5,0.390625
172632,-0.640625,-0.515625,0.265625,0.5,0.390625
172680,-0.65625,-0.5,0.28125,0.5,0.375
172688,-0.625,-0.515625,0.25,0.5,0.390625
172744,-0.671875,-0.5,0.28125,0.515625,0.375
172752,-0.6875,-0.5,0.296875,0.515625,0.375
172760,-0.640625,-0.515625,0.265625,0.515625,0.375
172808,-0.65625,-0.5,0.265625,0.5,0.390625
172816,-0.640625,-0.515625,0.265625,0.5,0.390625
172824,-0.65625,-0.5,0.28125,0.5,0.375
172872,-0.65625,-0.5,0.28125,0.5,0.375
172880,-0.640625,-0.515625,0.265625,0.5,0.390625
172936,-0.671875,-0.5,0.28125,0.515625,0.375
172944,-0.609375,-0.53125,0.25,0.5,0.390625
173000,-0.65625,-0.5,0.265625,0.5,0.390625
173008,-0.625,-0.515625,0.25,0.5,0.390625
173016,-0.65625,-0.5,0.28125,0.5,0.375
173064,-0.671875,-0.5,0.296875,0.5,0.375
173072,-0.625,-0.515625,0.265625,0.5,0.375
180296,-0.65625,-0.5,0.265625,0.5,0.390625
180304,-0.640625,-0.515625,0.25,0.5,0.40625
180360,-0.6875,-0.484375,0.28125,0.515625,0.375
180424,-0.640625,-0.515625,0.25,0.5,0.40625
180432,-0.65625,-0.5,0.25,0.5,0.40625
180440,-0.671875,-0.5,0.265625,0.515625,0.390625
180488,-0.640625,-0.5,0.25,0.5,0.390625
180552,-0.640625,-0.515625,0.265625,0.5,0.390625
180560,-0.671875,-0.5,0.28125,0.5,0.390625
180568,-0.65625,-0.5,0.28125,0.5,0.375
180576,-0.640625,-0.515625,0.265625,0.5,0.390625
180616,-0.703125,-0.484375,0.296875,0.515625,0.375
180624,-0.625,-0.515625,0.25,0.5,0.390625
180632,-0.640625,-0.515625,0.265625,0.5,0.390625
180680,-0.65625,-0.5,0.265625,0.5,0.390625
180688,-0.640625,-0.515625,0.265625,0.5,0.390625
180696,-0.6875,-0.484375,0.28125,0.515625,0.375
180744,-0.625,-0.515625,0.25,0.5,0.390625
180752,-0.640625,-0.515625,0.25,0.5,0.40625
180760,-0.671875,-0.5,0.28125,0.515625,0.375
180808,-0.671875,-0.5,0.28125,0.5,0.390625
180816,-0.625,-0.515625,0.25,0.5,0.390625
180872,-0.625,-0.515625,0.25,0.5,0.390625
180880,-0.625,-0.515625,0.25,0.5,0.390625
180888,-0.640625,-0.515625,0.265625,0.515625,0.375
180936,-0.671875,-0.5,0.28125,0.515625,0.375
180944,-0.625,-0.515625,0.25,0.5,0.390625
180952,-0.640625,-0.515625,0.265625,0.5,0.390625
181000,-0.625,-0.515625,0.25,0.5,0.390625
181008,-0.65625,-0.5,0.265625,0.5,0.390625
181064,-0.640625,-0.515625,0.265625,0.5,0.390625
181072,-0.625,-0.515625,0.25,0.5,0.390625
181128,-0.65625,-0.5,0.28125,0.5,0.375
181136,-0.625,-0.515625,0.265625,0.5,0.375
181192,-0.65625,-0.5,0.28125,0.5,0.375
181200,-0.640625,-0.515625,0.265625,0.5,0.390625
181208,-0.671875,-0.5,0.28125,0.515625,0.375
181256,-0.640625,-0.515625,0.265625,0.5,0.390625
181264,-0.625,-0.515625,0.25,0.5,0.390625
181272,-0.640625,-0.515625,0.265625,0.5,0.390625
188488,-0.65625,-0.5,0.25,0.5,0.40625
188552,-0.671875,-0.5,0.265625,0.515625,0.390625
188560,-0.625,-0.515625,0.25,0.5,0.390625
188616,-0.65625,-0.5,0.28125,0.5,0.375
188624,-0.65625,-0.5,0.265625,0.515625,0.375
188632,-0.671875,-0.5,0.28125,0.5,0.390625
188680,-0.625,-0.515625,0.25,0.5,0.390625
188688,-0.640625,-0.515625,0.25,0.5,0.40625
188696,-0.671875,-0.5,0.28125,0.5,0.390625
188744,-0.65625,-0.5,0.265625,0.5,0.390625
188752,-0.625,-0.515625,0.265625,0.5,0.375
188760,-0.625,-0.515625,0.25,0.5,0.390625
188808,-0.65625,-0.5,0.28125,0.5,0.375
188816,-0.640625,-0.515625,0.265625,0.5,0.390625
188872,-0.671875,-0.5,0.28125,0.5,0.390625
188880,-0.65625,-0.5,0.265625,0.515625,0.375
188888,-0.625,-0.515625,0.25,0.5,0.390625
188936,-0.65625,-0.5,0.265625,0.5,0.390625
188944,-0.671875,-0.5,0.28125,0.515625,0.375
188952,-0.640625,-0.515625,0.265625,0.5,0.390625
189000,-0.640625,-0.515625,0.265625,0.5,0.390625
189008,-0.65625,-0.515625,0.28125,0.515625,0.375
189016,-0.65625,-0.5,0.28125,0.5,0.375
189064,-0.65625,-0.5,0.28125,0.5,0.375
189072,-0.640625,-0.515625,0.265625,0.5,0.390625
189080,-0.640625,-0.515625,0.265625,0.5,0.390625
189128,-0.640625,-0.515625,0.265625,0.5,0.390625
189136,-0.65625,-0.5,0.28125,0.5,0.375
189144,-0.671875,-0.5,0.28125,0.515625,0.375
189152,-0.640625,-0.515625,0.265625,0.5,0.390625
189192,-0.640625,-0.515625,0.265625,0.5,0.390625
189200,-0.640625,-0.515625,0.265625,0.5,0.390625
189208,-0.671875,-0.5,0.28125,0.515625,0.375
189256,-0.640625,-0.515625,0.265625,0.5,0.390625
189264,-0.671875,-0.5,0.28125,0.515625,0.375
189320,-0.625,-0.515625,0.25,0.5,0.390625
189328,-0.640625,-0.515625,0.265625,0.5,0.390625
189384,-0.65625,-0.5,0.28125,0.5,0.375
189392,-0.609375,-0.53125,0.25,0.5,0.390625
189448,-0.625,-0.515625,0.25,0.5,0.390625
189456,-0.640625,-0.515625,0.265625,0.515625,0.375
196680,-0.671875,-0.5,0.28125,0.515625,0.375
196688,-0.640625,-0.515625,0.25,0.5,0.40625
196696,-0.640625,-0.515625,0.25,0.5,0.40625
196744,-0.671875,-0.5,0.265625,0.515625,0.390625
196752,-0.640625,-0.515625,0.25,0.5,0.40625
196760,-0.640625,-0.515625,0.265625,0.5,0.390625
196808,-0.625,-0.515625,0.25,0.5,0.390625
196816,-0.640625,-0.515625,0.265625,0.5,0.390625
196872,-0.625,-0.515625,0.25,0.5,0.390625
196936,-0.671875,-0.5,0.265625,0.515625,0.390625
196944,-0.671875,-0.5,0.28125,0.515625,0.375
196952,-0.65625,-0.5,0.265625,0.5,0.390625
197000,-0.625,-0.515625,0.25,0.5,0.390625
197008,-0.65625,-0.5,0.265625,0.5,0.390625
197016,-0.65625,-0.5,0.265625,0.5,0.390625
197064,-0.640625,-0.515625,0.265625,0.5,0.390625
197072,-0.65625,-0.5,0.265625,0.5,0.390625
197128,-0.640625,-0.515625,0.265625,0.5,0.390625
197136,-0.625,-0.515625,0.234375,0.5,0.40625
197144,-0.65625,-0.515625,0.265625,0.515625,0.390625
197192,-0.671875,-0.5,0.28125,0.5,0.390625
197200,-0.625,-0.515625,0.25,0.5,0.390625
197208,-0.640625,-0.5,0.25,0.5,0.390625
197256,-0.640625,-0.5,0.25,0.5,0.390625
197264,-0.671875,-0.5,0.28125,0.5,0.390625
197272,-0.640625,-0.515625,0.265625,0.5,0.390625
197280,-0.65625,-0.5,0.265625,0.5,0.390625
197320,-0.625,-0.515625,0.25,0.5,0.390625
197328,-0.671875,-0.5,0.25,0.5,0.421875
197336,-0.65625,-0.5,0.28125,0.5,0.375
197384,-0.65625,-0.5,0.28125,0.5,0.375
197392,-0.640625,-0.515625,0.265625,0.5,0.390625
197400,-0.640625,-0.515625,0.265625,0.515625,0.375
197448,-0.640625,-0.515625,0.265625,0.5,0.390625
197456,-0.640625,-0.515625,0.265625,0.515625,0.375
197512,-0.625,-0.515625,0.25,0.5,0.390625
197520,-0.65625,-0.5,0.28125,0.5,0.375
197576,-0.625,-0.515625,0.25,0.5,0.390625
197584,-0.625,-0.515625,0.25,0.5,0.390625
197640,-0.671875,-0.5,0.28125,0.5,0.390625
197648,-0.640625,-0.515625,0.265625,0.5,0.390625
204872,-0.625,-0.515625,0.25,0.5,0.390625
204936,-0.65625,-0.5,0.265625,0.5,0.390625
204944,-0.65625,-0.5,0.265625,0.5,0.390625
204952,-0.625,-0.515625,0.25,0.5,0.390625
205000,-0.65625,-0.5,0.28125,0.5,0.375
205064,-0.640625,-0.515625,0.25,0.515625,0.390625
205072,-0.640625,-0.515625,0.25,0.515625,0.390625
205128,-0.625,-0.515625,0.25,0.5,0.390625
205136,-0.640625,-0.515625,0.265625,0.5,0.390625
205144,-0.625,-0.515625,0.25,0.5,0.390625
205192,-0.671875,-0.5,0.28125,0.515625,0.375
205200,-0.640625,-0.515625,0.265625,0.5,0.390625
205208,-0.625,-0.515625,0.25,0.5,0.390625
205256,-0.640625,-0.515625,0.265625,0.5,0.390625
205264,-0.625,-0.515625,0.25,0.5,0.390625
205272,-0.6875,-0.484375,0.28125,0.515625,0.375
205320,-0.671875,-0.5,0.28125,0.515625,0.375
205328,-0.640625,-0.515625,0.265625,0.5,0.390625
205336,-0.640625,-0.515625,0.265625,0.5,0.390625
205344,-0.65625,-0.5,0.265625,0.515625,0.375
205384,-0.65625,-0.5,0.28125,0.5,0.375
205392,-0.640625,-0.515625,0.28125,0.5,0.375
205448,-0.65625,-0.5,0.265625,0.5,0.390625
205456,-0.625,-0.515625,0.25,0.5,0.390625
205464,-0.65625,-0.5,0.28125,0.5,0.375
205512,-0.65625,-0.5,0.265625,0.5,0.390625
205520,-0.640625,-0.515625,0.265625,0.5,0.390625
205528,-0.625,-0.515625,0.25,0.5,0.390625
205576,-0.625,-0.515625,0.25,0.5,0.390625
205584,-0.671875,-0.5,0.28125,0.515625,0.375
205640,-0.640625,-0.515625,0.28125,0.5,0.375
205648,-0.625,-0.515625,0.25,0.5,0.390625
205656,-0.671875,-0.5,0.296875,0.515625,0.359375
205704,-0.65625,-0.5,0.28125,0.5,0.375
205712,-0.625,-0.515625,0.25,0.5,0.390625
205720,-0.640625,-0.515625,0.265625,0.5,0.390625
205768,-0.609375,-0.515625,0.234375,0.5,0.390625
205776,-0.65625,-0.5,0.265625,0.5,0.390625
205832,-0.625,-0.515625,0.25,0.5,0.390625
205840,-0.640625,-0.515625,0.265625,0.5,0.390625
213064,-0.640625,-0.5,0.25,0.5,0.390625
213128,-0.65625,-0.515625,0.265625,0.515625,0.390625
213192,-0.625,-0.515625,0.234375,0.5,0.40625
213200,-0.625,-0.515625,0.25,0.5,0.390625
213256,-0.625,-0.515625,0.25,0.5,0.390625
213320,-0.625,-0.515625,0.25,0.5,0.390625
213328,-0.65625,-0.5,0.265625,0.5,0.390625
213336,-0.65625,-0.5,0.265625,0.5,0.390625
213344,-0.640625,-0.515625,0.25,0.515625,0.390625
213384,-0.671875,-0.5,0.265625,0.515625,0.390625
213392,-0.625,-0.515625,0.234375,0.5,0.40625
213400,-0.625,-0.515625,0.25,0.5,0.390625
213408,-0.640625,-0.515625,0.265625,0.5,0.390625
213416,-0.640625,-0.515625,0.25,0.515625,0.390625
213448,-0.640625,-0.5,0.25,0.5,0.390625
213456,-0.671875,-0.5,0.28125,0.515625,0.375
213464,-0.671875,-0.5,0.28125,0.515625,0.375
213472,-0.609375,-0.515625,0.234375,0.5,0.390625
213512,-0.65625,-0.5,0.265625,0.5,0.390625
213520,-0.65625,-0.5,0.265625,0.515625,0.375
213528,-0.640625,-0.515625,0.265625,0.5,0.390625
213576,-0.65625,-0.5,0.265625,0.5,0.390625
213584,-0.625,-0.515625,0.25,0.5,0.390625
213592,-0.65625,-0.515625,0.28125,0.515625,0.375
213640,-0.65625,-0.5,0.28125,0.5,0.375
213648,-0.65625,-0.5,0.28125,0.5,0.375
213656,-0.625,-0.515625,0.25,0.5,0.390625
213704,-0.640625,-0.515625,0.265625,0.5,0.390625
213712,-0.625,-0.515625,0.25,0.5,0.390625
213768,-0.671875,-0.5,0.296875,0.515625,0.359375
213776,-0.625,-0.515625,0.25,0.5,0.390625
213784,-0.625,-0.515625,0.25,0.5,0.390625
213832,-0.609375,-0.53125,0.25,0.5,0.390625
213840,-0.671875,-0.5,0.28125,0.5,0.390625
213848,-0.671875,-0.5,0.28125,0.515625,0.375
213896,-0.640625,-0.515625,0.265625,0.5,0.390625
213904,-0.640625,-0.515625,0.265625,0.5,0.390625
213960,-0.671875,-0.5,0.28125,0.5,0.390625
213968,-0.625,-0.515625,0.234375,0.5,0.40625
214024,-0.65625,-0.515625,0.28125,0.515625,0.375
214032,-0.640625,-0.515625,0.265625,0.515625,0.375
221256,-0.625,-0.515625,0.234375,0.5,0.40625
221264,-0.65625,-0.5,0.265625,0.5,0.390625
221272,-0.640625,-0.515625,0.265625,0.5,0.390625
221320,-0.640625,-0.515625,0.234375,0.515625,0.40625
221384,-0.640625,-0.515625,0.25,0.515625,0.390625
221448,-0.65625,-0.5,0.265625,0.5,0.390625
221456,-0.65625,-0.5,0.25,0.5,0.40625
221512,-0.640625,-0.515625,0.265625,0.5,0.390625
221520,-0.65625,-0.5,0.28125,0.5,0.375
221528,-0.6875,-0.5,0.296875,0.515625,0.375
221576,-0.640625,-0.515625,0.25,0.515625,0.390625
221584,-0.671875,-0.5,0.265625,0.515625,0.390625
221592,-0.6875,-0.484375,0.28125,0.515625,0.375
221640,-0.671875,-0.5,0.265625,0.515625,0.390625
221648,-0.625,-0.515625,0.25,0.5,0.390625
221656,-0.625,-0.515625,0.265625,0.5,0.375
221704,-0.625,-0.515625,0.265625,0.5,0.375
221712,-0.640625,-0.515625,0.265625,0.515625,0.375
221768,-0.65625,-0.5,0.28125,0.5,0.375
221776,-0.671875,-0.5,0.28125,0.515625,0.375
221784,-0.65625,-0.5,0.28125,0.5,0.375
221832,-0.625,-0.515625,0.25,0.5,0.390625
221840,-0.640625,-0.515625,0.265625,0.5,0.390625
221896,-0.65625,-0.5,0.265625,0.515625,0.375
221904,-0.609375,-0.515625,0.234375,0.5,0.390625
221912,-0.640625,-0.515625,0.265625,0.5,0.390625
221960,-0.640625,-0.515625,0.265625,0.515625,0.375
221968,-0.640625,-0.515625,0.265625,0.5,0.390625
221976,-0.65625,-0.5,0.28125,0.515625,0.359375
222024,-0.625,-0.515625,0.25,0.5,0.390625
222032,-0.640625,-0.515625,0.265625,0.5,0.390625
222040,-0.625,-0.515625,0.25,0.5,0.390625
222088,-0.640625,-0.515625,0.28125,0.5,0.375
222096,-0.671875,-0.5,0.28125,0.5,0.390625
222104,-0.609375,-0.53125,0.25,0.5,0.390625
222152,-0.625,-0.515625,0.25,0.5,0.390625
222160,-0.65625,-0.5,0.28125,0.5,0.375
222216,-0.625,-0.515625,0.265625,0.5,0.375
222224,-0.671875,-0.5,0.296875,0.5,0.375
229448,-0.625,-0.515625,0.25,0.5,0.390625
229456,-0.640625,-0.515625,0.265625,0.5,0.390625
229464,-0.640625,-0.515625,0.25,0.5,0.40625
229512,-0.625,-0.515625,0.234375,0.5,0.40625
229520,-0.65625,-0.5,0.265625,0.5,0.390625
229528,-0.640625,-0.515625,0.265625,0.5,0.390625
229576,-0.625,-0.515625,0.234375,0.5,0.40625
229584,-0.640625,-0.515625,0.265625,0.5,0.390625
229592,-0.640625,-0.515625,0.265625,0.5,0.390625
229640,-0.640625,-0.515625,0.265625,0.5,0.390625
229648,-0.65625,-0.5,0.265625,0.5,0.390625
229656,-0.65625,-0.515625,0.265625,0.515625,0.390625
229704,-0.671875,-0.5,0.28125,0.515625,0.375
229712,-0.640625,-0.515625,0.265625,0.5,0.390625
229720,-0.625,-0.515625,0.25,0.5,0.390625
229768,-0.65625,-0.5,0.28125,0.5,0.375
229776,-0.671875,-0.5,0.28125,0.5,0.390625
229784,-0.609375,-0.53125,0.25,0.5,0.390625
229832,-0.65625,-0.5,0.265625,0.5,0.390625
229840,-0.65625,-0.5,0.28125,0.5,0.375
229848,-0.625,-0.515625,0.25,0.5,0.390625
229896,-0.6875,-0.5,0.296875,0.515625,0.375
229904,-0.640625,-0.515625,0.265625,0.5,0.390625
229912,-0.625,-0.515625,0.25,0.5,0.390625
229960,-0.640625,-0.515625,0.265625,0.5,0.390625
229968,-0.640625,-0.515625,0.28125,0.5,0.375
229976,-0.65625,-0.5,0.28125,0.5,0.375
229984,-0.625,-0.515625,0.265625,0.5,0.375
230024,-0.625,-0.515625,0.25,0.5,0.390625
230032,-0.65625,-0.5,0.265625,0.5,0.390625
230040,-0.625,-0.515625,0.25,0.5,0.390625
230088,-0.640625,-0.515625,0.265625,0.5,0.390625
230096,-0.671875,-0.5,0.28125,0.515625,0.375
230104,-0.609375,-0.53125,0.25,0.5,0.390625
230152,-0.640625,-0.515625,0.265625,0.5,0.390625
230160,-0.65625,-0.5,0.265625,0.5,0.390625
230168,-0.671875,-0.5,0.28125,0.515625,0.375
230176,-0.609375,-0.53125,0.25,0.5,0.390625
230216,-0.65625,-0.5,0.28125,0.5,0.375
230224,-0.671875,-0.5,0.296875,0.5,0.375
230280,-0.65625,-0.5,0.265625,0.5,0.390625
230288,-0.640625,-0.515625,0.265625,0.515625,0.375
230344,-0.640625,-0.515625,0.265625,0.5,0.390625
230352,-0.625,-0.515625,0.25,0.5,0.390625
230408,-0.640625,-0.515625,0.265625,0.5,0.390625
230416,-0.640625,-0.515625,0.265625,0.5,0.390625
237640,-0.65625,-0.5,0.265625,0.5,0.390625
237648,-0.6875,-0.484375,0.265625,0.515625,0.390625
237704,-0.65625,-0.5,0.265625,0.5,0.390625
237768,-0.640625,-0.515625,0.25,0.515625,0.390625
237832,-0.640625,-0.515625,0.25,0.5,0.40625
237840,-0.671875,-0.5,0.265625,0.515625,0.390625
237848,-0.671875,-0.5,0.265625,0.515625,0.390625
237896,-0.65625,-0.515625,0.28125,0.515625,0.375
237904,-0.65625,-0.5,0.265625,0.5,0.390625
237960,-0.625,-0.515625,0.25,0.5,0.390625
237968,-0.671875,-0.5,0.28125,0.515625,0.375
237976,-0.640625,-0.515625,0.265625,0.5,0.390625
238024,-0.65625,-0.5,0.28125,0.5,0.375
238032,-0.671875,-0.5,0.28125,0.5,0.390625
238040,-0.6875,-0.5,0.296875,0.515625,0.375
238088,-0.671875,-0.5,0.265625,0.5,0.40625
238096,-0.703125,-0.484375,0.28125,0.515625,0.390625
238104,-0.640625,-0.515625,0.25,0.515625,0.390625
238152,-0.65625,-0.5,0.265625,0.5,0.390625
238160,-0.65625,-0.5,0.265625,0.5,0.390625
238168,-0.640625,-0.515625,0.265625,0.5,0.390625
238216,-0.671875,-0.5,0.28125,0.515625,0.375
238224,-0.625,-0.515625,0.25,0.5,0.390625
238232,-0.640625,-0.515625,0.265625,0.5,0.390625
238280,-0.625,-0.515625,0.25,0.5,0.390625
238288,-0.640625,-0.515625,0.28125,0.5,0.375
238344,-0.640625,-0.515625,0.25,0.515625,0.390625
238352,-0.671875,-0.5,0.296875,0.5,0.375
238360,-0.65625,-0.5,0.265625,0.5,0.390625
238408,-0.625,-0.515625,0.265625,0.5,0.375
238416,-0.65625,-0.5,0.28125,0.5,0.375
238472,-0.625,-0.515625,0.25,0.5,0.390625
238480,-0.65625,-0.5,0.28125,0.5,0.375
238536,-0.640625,-0.515625,0.265625,0.5,0.390625
238544,-0.671875,-0.5,0.28125,0.515625,0.375
238552,-0.625,-0.515625,0.265625,0.5,0.375
238600,-0.640625,-0.515625,0.265625,0.5,0.390625
238608,-0.65625,-0.5,0.28125,0.5,0.375
238616,-0.640625,-0.515625,0.265625,0.5,0.390625
245832,-0.640625,-0.515625,0.25,0.5,0.40625
245896,-0.625,-0.515625,0.234375,0.5,0.40625
245904,-0.640625,-0.515625,0.25,0.5,0.40625
245960,-0.671875,-0.5,0.265625,0.515625,0.390625
246024,-0.65625,-0.5,0.265625,0.5,0.390625
246088,-0.65625,-0.5,0.28125,0.5,0.375
246096,-0.671875,-0.5,0.265625,0.515625,0.390625
246104,-0.640625,-0.515625,0.265625,0.5,0.390625
246152,-0.671875,-0.5,0.28125,0.5,0.390625
246160,-0.703125,-0.484375,0.296875,0.515625,0.375
246168,-0.625,-0.515625,0.25,0.5,0.390625
246176,-0.65625,-0.5,0.25,0.5,0.40625
246216,-0.671875,-0.5,0.265625,0.515625,0.390625
246224,-0.625,-0.515625,0.25,0.5,0.390625
246232,-0.625,-0.515625,0.25,0.5,0.390625
246240,-0.640625,-0.515625,0.265625,0.5,0.390625
246280,-0.640625,-0.515625,0.265625,0.5,0.390625
246288,-0.640625,-0.5,0.25,0.5,0.390625
246296,-0.65625,-0.5,0.265625,0.515625,0.375
246304,-0.671875,-0.5,0.296875,0.5,0.375
246312,-0.625,-0.515625,0.25,0.5,0.390625
246344,-0.671875,-0.5,0.265625,0.515625,0.390625
246352,-0.625,-0.515625,0.25,0.5,0.390625
246360,-0.640625,-0.515625,0.265625,0.515625,0.375
246408,-0.640625,-0.515625,0.265625,0.5,0.390625
246416,-0.640625,-0.515625,0.265625,0.5,0.390625
246472,-0.640625,-0.515625,0.265625,0.515625,0.375
246480,-0.65625,-0.5,0.265625,0.5,0.390625
246488,-0.625,-0.515625,0.265625,0.5,0.375
246536,-0.65625,-0.515625,0.28125,0.515625,0.375
246544,-0.625,-0.515625,0.25,0.5,0.390625
246552,-0.65625,-0.5,0.28125,0.5,0.375
246600,-0.65625,-0.5,0.265625,0.515625,0.375
246608,-0.65625,-0.5,0.265625,0.515625,0.375
246664,-0.65625,-0.5,0.265625,0.5,0.390625
246672,-0.640625,-0.515625,0.265625,0.5,0.390625
246728,-0.640625,-0.515625,0.265625,0.5,0.390625
246736,-0.640625,-0.515625,0.265625,0.5,0.390625
246744,-0.640625,-0.515625,0.265625,0.5,0.390625
246792,-0.65625,-0.5,0.265625,0.5,0.390625
246800,-0.609375,-0.53125,0.25,0.5,0.390625
254024,-0.625,-0.515625,0.234375,0.5,0.40625
254032,-0.65625,-0.5,0.265625,0.5,0.390625
254088,-0.65625,-0.5,0.265625,0.5,0.390625
254152,-0.640625,-0.515625,0.25,0.5,0.40625
254160,-0.65625,-0.5,0.25,0.5,0.40625
254168,-0.65625,-0.5,0.25,0.5,0.40625
254216,-0.65625,-0.5,0.265625,0.5,0.390625
254280,-0.640625,-0.515625,0.265625,0.5,0.390625
254288,-0.671875,-0.5,0.28125,0.515625,0.375
254296,-0.65625,-0.5,0.265625,0.5,0.390625
254304,-0.640625,-0.515625,0.265625,0.5,0.390625
254344,-0.671875,-0.5,0.28125,0.515625,0.375
254352,-0.625,-0.515625,0.25,0.5,0.390625
254360,-0.640625,-0.515625,0.265625,0.5,0.390625
254408,-0.640625,-0.515625,0.25,0.515625,0.390625
254416,-0.640625,-0.515625,0.28125,0.5,0.375
254424,-0.671875,-0.5,0.28125,0.5,0.390625
254472,-0.640625,-0.515625,0.265625,0.5,0.390625
254480,-0.65625,-0.5,0.265625,0.5,0.390625
254488,-0.671875,-0.5,0.28125,0.515625,0.375
254536,-0.671875,-0.5,0.28125,0.515625,0.375
254544,-0.625,-0.515625,0.25,0.5,0.390625
254600,-0.625,-0.515625,0.25,0.5,0.390625
254608,-0.640625,-0.515625,0.265625,0.515625,0.375
254616,-0.65625,-0.5,0.265625,0.5,0.390625
254664,-0.65625,-0.5,0.265625,0.5,0.390625
254672,-0.625,-0.515625,0.265625,0.5,0.375
254680,-0.65625,-0.515625,0.28125,0.515625,0.375
254728,-0.640625,-0.515625,0.265625,0.5,0.390625
254736,-0.671875,-0.5,0.28125,0.515625,0.375
254792,-0.625,-0.515625,0.25,0.5,0.390625
254800,-0.640625,-0.515625,0.28125,0.5,0.375
254856,-0.671875,-0.5,0.296875,0.5,0.375
254864,-0.640625,-0.515625,0.265625,0.5,0.390625
254920,-0.65625,-0.5,0.28125,0.5,0.375
254928,-0.640625,-0.515625,0.28125,0.5,0.375
254936,-0.671875,-0.5,0.28125,0.515625,0.375
254984,-0.640625,-0.515625,0.265625,0.515625,0.375
254992,-0.625,-0.515625,0.265625,0.5,0.375
255000,-0.640625,-0.515625,0.265625,0.5,0.390625
262216,-0.640625,-0.515625,0.25,0.5,0.40625
262280,-0.65625,-0.5,0.265625,0.5,0.390625
262288,-0.640625,-0.515625,0.25,0.5,0.40625
262344,-0.65625,-0.5,0.265625,0.5,0.390625
262352,-0.640625,-0.515625,0.265625,0.5,0.390625
262360,-0.671875,-0.5,0.28125,0.515625,0.375
262408,-0.625,-0.515625,0.25,0.5,0.390625
262416,-0.640625,-0.5,0.25,0.5,0.390625
262424,-0.671875,-0.5,0.265625,0.515625,0.390625
262472,-0.6875,-0.5,0.296875,0.515625,0.375
262480,-0.609375,-0.515625,0.234375,0.5,0.390625
262488,-0.625,-0.515625,0.25,0.5,0.390625
262536,-0.65625,-0.5,0.28125,0.5,0.375
262544,-0.609375,-0.53125,0.234375,0.515625,0.390625
262600,-0.640625,-0.515625,0.265625,0.515625,0.375
262608,-0.65625,-0.5,0.265625,0.5,0.390625
262616,-0.625,-0.515625,0.25,0.5,0.390625
262664,-0.65625,-0.515625,0.265625,0.515625,0.390625
262672,-0.65625,-0.5,0.265625,0.5,0.390625
262680,-0.65625,-0.5,0.265625,0.5,0.390625
262728,-0.65625,-0.5,0.265625,0.5,0.390625
262736,-0.625,-0.515625,0.25,0.5,0.390625
262744,-0.671875,-0.5,0.28125,0.515625,0.375
262792,-0.640625,-0.515625,0.265625,0.5,0.390625
262800,-0.625,-0.515625,0.265625,0.5,0.375
262808,-0.640625,-0.515625,0.265625,0.5,0.390625
262856,-0.640625,-0.515625,0.265625,0.5,0.390625
262864,-0.625,-0.515625,0.25,0.5,0.390625
262872,-0.65625,-0.5,0.265625,0.5,0.390625
262880,-0.65625,-0.5,0.265625,0.515625,0.375
262920,-0.640625,-0.515625,0.28125,0.5,0.375
262928,-0.640625,-0.515625,0.265625,0.5,0.390625
262936,-0.671875,-0.5,0.28125,0.515625,0.375
262984,-0.640625,-0.515625,0.265625,0.5,0.390625
262992,-0.671875,-0.5,0.28125,0.515625,0.375
263048,-0.609375,-0.53125,0.25,0.5,0.390625
263056,-0.625,-0.515625,0.25,0.5,0.390625
263112,-0.65625,-0.5,0.28125,0.5,0.375
263120,-0.609375,-0.515625,0.234375,0.5,0.390625
263176,-0.640625,-0.515625,0.265625,0.515625,0.375
263184,-0.640625,-0.515625,0.265625,0.5,0.390625
270408,-0.671875,-0.5,0.28125,0.515625,0.375
270416,-0.640625,-0.515625,0.25,0.5,0.40625
270424,-0.625,-0.515625,0.234375,0.5,0.40625
270472,-0.65625,-0.5,0.265625,0.5,0.390625
270480,-0.625,-0.515625,0.25,0.5,0.390625
270488,-0.640625,-0.515625,0.265625,0.5,0.390625
270536,-0.625,-0.515625,0.25,0.5,0.390625
270544,-0.671875,-0.5,0.265625,0.515625,0.390625
270600,-0.640625,-0.515625,0.25,0.5,0.40625
270664,-0.640625,-0.515625,0.265625,0.5,0.390625
270672,-0.65625,-0.5,0.25,0.5,0.40625
270680,-0.65625,-0.5,0.25,0.5,0.40625
270728,-0.625,-0.515625,0.25,0.5,0.390625
270736,-0.65625,-0.5,0.265625,0.515625,0.375
270744,-0.65625,-0.5,0.265625,0.5,0.390625
270792,-0.625,-0.515625,0.25,0.5,0.390625
270800,-0.65625,-0.5,0.28125,0.5,0.375
270856,-0.640625,-0.515625,0.265625,0.5,0.390625
270864,-0.640625,-0.515625,0.265625,0.5,0.390625
270872,-0.671875,-0.5,0.28125,0.515625,0.375
270920,-0.640625,-0.515625,0.265625,0.5,0.390625
270928,-0.65625,-0.5,0.28125,0.5,0.375
270936,-0.625,-0.515625,0.25,0.5,0.390625
270984,-0.640625,-0.515625,0.265625,0.5,0.390625
270992,-0.65625,-0.5,0.265625,0.5,0.390625
271000,-0.671875,-0.5,0.296875,0.515625,0.359375
271008,-0.640625,-0.5,0.25,0.5,0.390625
271048,-0.65625,-0.5,0.28125,0.5,0.375
271056,-0.640625,-0.515625,0.265625,0.5,0.390625
271064,-0.65625,-0.5,0.28125,0.5,0.375
271112,-0.671875,-0.5,0.28125,0.515625,0.375
271120,-0.65625,-0.5,0.28125,0.5,0.375
271128,-0.65625,-0.5,0.28125,0.5,0.375
271176,-0.65625,-0.5,0.28125,0.5,0.375
271184,-0.625,-0.515625,0.25,0.5,0.390625
271240,-0.625,-0.515625,0.25,0.5,0.390625
271248,-0.671875,-0.5,0.296875,0.515625,0.359375
271304,-0.65625,-0.5,0.265625,0.5,0.390625
271312,-0.640625,-0.515625,0.265625,0.5,0.390625
271368,-0.671875,-0.5,0.296875,0.515625,0.359375
271376,-0.640625,-0.515625,0.265625,0.5,0.390625
278600,-0.640625,-0.515625,0.265625,0.5,0.390625
278664,-0.6875,-0.484375,0.28125,0.5,0.390625
278672,-0.6875,-0.484375,0.28125,0.5,0.390625
278680,-0.65625,-0.5,0.25,0.5,0.40625
278728,-0.6875,-0.484375,0.28125,0.515625,0.375
278792,-0.65625,-0.5,0.25,0.5,0.40625
278800,-0.671875,-0.5,0.265625,0.515625,0.390625
278856,-0.625,-0.515625,0.25,0.5,0.390625
278864,-0.65625,-0.5,0.265625,0.5,0.390625
278872,-0.625,-0.515625,0.25,0.5,0.390625
278920,-0.640625,-0.515625,0.265625,0.5,0.390625
278928,-0.703125,-0.484375,0.28125,0.515625,0.390625
278936,-0.671875,-0.5,0.25,0.515625,0.40625
278984,-0.625,-0.515625,0.25,0.5,0.390625
278992,-0.625,-0.515625,0.25,0.5,0.390625
279000,-0.703125,-0.484375,0.296875,0.515625,0.375
279048,-0.6875,-0.5,0.28125,0.515625,0.390625
279056,-0.625,-0.515625,0.25,0.5,0.390625
279064,-0.65625,-0.5,0.265625,0.5,0.390625
279072,-0.671875,-0.5,0.265625,0.515625,0.390625
279112,-0.671875,-0.5,0.28125,0.515625,0.375
279120,-0.625,-0.515625,0.25,0.5,0.390625
279176,-0.640625,-0.515625,0.265625,0.5,0.390625
279184,-0.625,-0.515625,0.25,0.5,0.390625
279192,-0.65625,-0.5,0.28125,0.5,0.375
279240,-0.640625,-0.515625,0.265625,0.5,0.390625
279248,-0.625,-0.515625,0.25,0.5,0.390625
279256,-0.625,-0.515625,0.25,0.5,0.390625
279304,-0.625,-0.515625,0.25,0.5,0.390625
279312,-0.65625,-0.5,0.28125,0.5,0.375
279368,-0.640625,-0.515625,0.265625,0.5,0.390625
279376,-0.640625,-0.515625,0.265625,0.5,0.390625
279384,-0.65625,-0.515625,0.28125,0.515625,0.375
279432,-0.640625,-0.515625,0.28125,0.5,0.375
279440,-0.625,-0.515625,0.25,0.5,0.390625
279448,-0.625,-0.515625,0.25,0.5,0.390625
279496,-0.609375,-0.515625,0.234375,0.5,0.390625
279504,-0.65625,-0.5,0.28125,0.5,0.375
279560,-0.609375,-0.53125,0.25,0.5,0.390625
279568,-0.640625,-0.515625,0.265625,0.5,0.390625
286792,-0.671875,-0.5,0.265625,0.515625,0.390625
286856,-0.65625,-0.5,0.25,0.5,0.40625
286920,-0.625,-0.515625,0.21875,0.5,0.421875
286928,-0.625,-0.515625,0.234375,0.5,0.40625
286984,-0.640625,-0.515625,0.25,0.5,0.40625
287048,-0.625,-0.515625,0.25,0.5,0.390625
287056,-0.65625,-0.515625,0.28125,0.515625,0.375
287064,-0.65625,-0.5,0.25,0.5,0.40625
287072,-0.625,-0.515625,0.25,0.5,0.390625
287112,-0.671875,-0.5,0.265625,0.515625,0.390625
287120,-0.625,-0.515625,0.234375,0.5,0.40625
287128,-0.625,-0.515625,0.25,0.5,0.390625
287136,-0.640625,-0.515625,0.265625,0.5,0.390625
287144,-0.640625,-0.515625,0.265625,0.5,0.390625
287176,-0.640625,-0.515625,0.25,0.5,0.40625
287184,-0.671875,-0.5,0.265625,0.515625,0.390625
287192,-0.671875,-0.5,0.265625,0.515625,0.390625
287200,-0.625,-0.515625,0.25,0.5,0.390625
287240,-0.640625,-0.515625,0.265625,0.5,0.390625
287248,-0.640625,-0.5,0.25,0.5,0.390625
287256,-0.65625,-0.515625,0.28125,0.515625,0.375
287304,-0.65625,-0.5,0.265625,0.5,0.390625
287312,-0.625,-0.515625,0.25,0.5,0.390625
287320,-0.625,-0.515625,0.25,0.5,0.390625
287368,-0.640625,-0.5,0.265625,0.5,0.375
287376,-0.65625,-0.5,0.28125,0.5,0.375
287384,-0.609375,-0.53125,0.25,0.5,0.390625
287432,-0.640625,-0.515625,0.265625,0.5,0.390625
287440,-0.640625,-0.515625,0.265625,0.5,0.390625
287496,-0.671875,-0.5,0.28125,0.515625,0.375
287504,-0.625,-0.515625,0.265625,0.5,0.375
287512,-0.640625,-0.515625,0.265625,0.515625,0.375
287560,-0.609375,-0.53125,0.25,0.5,0.390625
287568,-0.65625,-0.515625,0.28125,0.515625,0.375
287576,-0.625,-0.515625,0.25,0.5,0.390625
287624,-0.625,-0.515625,0.265625,0.5,0.375
287632,-0.625,-0.515625,0.25,0.5,0.390625
287688,-0.65625,-0.5,0.28125,0.5,0.375
287696,-0.625,-0.515625,0.25,0.5,0.390625
287752,-0.640625,-0.515625,0.265625,0.5,0.390625
287760,-0.65625,-0.5,0.28125,0.5,0.375
294984,-0.65625,-0.5,0.25,0.5,0.40625
294992,-0.671875,-0.5,0.25,0.515625,0.40625
295000,-0.671875,-0.5,0.265625,0.515625,0.390625
295048,-0.625,-0.515625,0.25,0.5,0.390625
295112,-0.625,-0.515625,0.25,0.5,0.390625
295176,-0.671875,-0.5,0.265625,0.515625,0.390625
295184,-0.640625,-0.5,0.25,0.5,0.390625
295240,-0.640625,-0.515625,0.265625,0.5,0.390625
295248,-0.6875,-0.484375,0.28125,0.515625,0.375
295256,-0.703125,-0.484375,0.296875,0.515625,0.375
295304,-0.640625,-0.515625,0.25,0.5,0.40625
295312,-0.65625,-0.5,0.265625,0.5,0.390625
295320,-0.65625,-0.5,0.28125,0.5,0.375
295368,-0.625,-0.515625,0.234375,0.5,0.40625
295376,-0.640625,-0.515625,0.265625,0.5,0.390625
295384,-0.625,-0.515625,0.25,0.5,0.390625
295432,-0.640625,-0.515625,0.265625,0.5,0.390625
295440,-0.640625,-0.515625,0.265625,0.5,0.390625
295496,-0.640625,-0.515625,0.265625,0.5,0.390625
295504,-0.65625,-0.5,0.28125,0.5,0.375
295512,-0.65625,-0.5,0.265625,0.5,0.390625
295560,-0.625,-0.515625,0.25,0.5,0.390625
295568,-0.625,-0.515625,0.25,0.5,0.390625
295624,-0.65625,-0.5,0.265625,0.5,0.390625
295632,-0.625,-0.515625,0.234375,0.5,0.40625
295640,-0.640625,-0.515625,0.265625,0.5,0.390625
295688,-0.640625,-0.515625,0.265625,0.5,0.390625
295696,-0.65625,-0.5,0.265625,0.5,0.390625
295704,-0.640625,-0.515625,0.265625,0.5,0.390625
295752,-0.59375,-0.53125,0.234375,0.5,0.390625
295760,-0.625,-0.515625,0.25,0.5,0.390625
295768,-0.609375,-0.53125,0.25,0.5,0.390625
295816,-0.65625,-0.5,0.28125,0.5,0.375
295824,-0.65625,-0.5,0.28125,0.5,0.375
295832,-0.609375,-0.515625,0.234375,0.5,0.390625
295880,-0.640625,-0.515625,0.265625,0.5,0.390625
295888,-0.671875,-0.5,0.296875,0.5,0.375
295944,-0.625,-0.515625,0.25,0.5,0.390625
295952,-0.65625,-0.5,0.28125,0.5,0.375
598088,-0.625,-0.515625,0.25,0.5,0.390625
598096,-0.640625,-0.515625,0.265625,0.5,0.390625
598104,-0.640625,-0.515625,0.265625,0.5,0.390625
598152,-0.609375,-0.515625,0.234375,0.5,0.390625
598160,-0.640625,-0.515625,0.265625,0.5,0.390625
598168,-0.625,-0.515625,0.25,0.5,0.390625
598216,-0.640625,-0.515625,0.25,0.515625,0.390625
598224,-0.671875,-0.5,0.265625,0.515625,0.390625
598232,-0.65625,-0.5,0.25,0.5,0.40625
598280,-0.625,-0.515625,0.25,0.5,0.390625
598288,-0.640625,-0.515625,0.265625,0.5,0.390625
598296,-0.640625,-0.515625,0.25,0.5,0.40625
598344,-0.65625,-0.5,0.265625,0.5,0.390625
598352,-0.65625,-0.5,0.265625,0.5,0.390625
598360,-0.640625,-0.515625,0.265625,0.5,0.390625
598408,-0.65625,-0.5,0.28125,0.5,0.375
598416,-0.65625,-0.5,0.265625,0.515625,0.375
598424,-0.640625,-0.515625,0.265625,0.5,0.390625
598472,-0.65625,-0.5,0.265625,0.5,0.390625
598480,-0.671875,-0.5,0.28125,0.515625,0.375
598488,-0.625,-0.515625,0.25,0.5,0.390625
598536,-0.671875,-0.5,0.28125,0.515625,0.375
598544,-0.640625,-0.515625,0.265625,0.5,0.390625
598552,-0.640625,-0.515625,0.265625,0.515625,0.375
598600,-0.65625,-0.5,0.28125,0.5,0.375
598608,-0.65625,-0.5,0.28125,0.5,0.375
598616,-0.671875,-0.5,0.28125,0.515625,0.375
598624,-0.625,-0.515625,0.265625,0.5,0.375
598664,-0.640625,-0.515625,0.28125,0.5,0.375
598672,-0.671875,-0.5,0.28125,0.515625,0.375
598680,-0.640625,-0.515625,0.265625,0.5,0.390625
598728,-0.625,-0.515625,0.25,0.5,0.390625
598736,-0.671875,-0.5,0.28125,0.515625,0.375
598744,-0.625,-0.515625,0.25,0.5,0.390625
598792,-0.625,-0.515625,0.234375,0.5,0.40625
598800,-0.65625,-0.5,0.265625,0.515625,0.375
598808,-0.65625,-0.5,0.28125,0.5,0.375
598816,-0.640625,-0.515625,0.265625,0.515625,0.375
598856,-0.65625,-0.5,0.28125,0.5,0.375
598864,-0.65625,-0.5,0.28125,0.5,0.375
598920,-0.65625,-0.5,0.28125,0.5,0.375
598928,-0.640625,-0.515625,0.28125,0.5,0.375
598984,-0.65625,-0.5,0.28125,0.5,0.375
598992,-0.65625,-0.515625,0.28125,0.515625,0.375
599048,-0.65625,-0.5,0.265625,0.5,0.390625
599056,-0.671875,-0.5,0.28125,0.515625,0.375
606280,-0.65625,-0.5,0.265625,0.5,0.390625
606288,-0.640625,-0.515625,0.25,0.5,0.40625
606344,-0.625,-0.515625,0.234375,0.5,0.40625
606408,-0.640625,-0.515625,0.25,0.515625,0.390625
606472,-0.640625,-0.515625,0.25,0.5,0.40625
606480,-0.65625,-0.5,0.265625,0.5,0.390625
606488,-0.640625,-0.5,0.25,0.5,0.390625
606536,-0.640625,-0.515625,0.265625,0.5,0.390625
606544,-0.640625,-0.515625,0.265625,0.5,0.390625
606600,-0.65625,-0.5,0.28125,0.5,0.375
606608,-0.625,-0.515625,0.25,0.5,0.390625
606616,-0.640625,-0.515625,0.265625,0.5,0.390625
606664,-0.640625,-0.515625,0.265625,0.5,0.390625
606672,-0.671875,-0.5,0.28125,0.515625,0.375
606680,-0.6875,-0.484375,0.296875,0.515625,0.359375
606728,-0.671875,-0.5,0.265625,0.515625,0.390625
606736,-0.65625,-0.5,0.265625,0.5,0.390625
606744,-0.640625,-0.515625,0.265625,0.5,0.390625
606792,-0.65625,-0.5,0.265625,0.5,0.390625
606800,-0.65625,-0.5,0.265625,0.5,0.390625
606808,-0.65625,-0.5,0.265625,0.5,0.390625
606856,-0.671875,-0.5,0.296875,0.5,0.375
606864,-0.625,-0.515625,0.25,0.5,0.390625
606872,-0.640625,-0.5,0.25,0.5,0.390625
606920,-0.625,-0.515625,0.25,0.5,0.390625
606928,-0.625,-0.515625,0.25,0.5,0.390625
606984,-0.640625,-0.515625,0.265625,0.5,0.390625
606992,-0.671875,-0.5,0.296875,0.5,0.375
607000,-0.65625,-0.5,0.265625,0.5,0.390625
607048,-0.65625,-0.5,0.265625,0.5,0.390625
607056,-0.6875,-0.484375,0.296875,0.515625,0.359375
607112,-0.65625,-0.5,0.28125,0.5,0.375
607120,-0.671875,-0.5,0.28125,0.515625,0.375
607176,-0.65625,-0.5,0.265625,0.5,0.390625
607184,-0.671875,-0.5,0.28125,0.515625,0.375
607192,-0.625,-0.515625,0.25,0.5,0.390625
607240,-0.625,-0.515625,0.25,0.5,0.390625
607248,-0.671875,-0.5,0.296875,0.5,0.375
607256,-0.640625,-0.515625,0.265625,0.5,0.390625
614472,-0.609375,-0.515625,0.21875,0.5,0.40625
614536,-0.625,-0.515625,0.234375,0.5,0.40625
614544,-0.625,-0.515625,0.25,0.5,0.390625
614600,-0.65625,-0.5,0.265625,0.5,0.390625
614664,-0.640625,-0.5,0.234375,0.5,0.40625
614728,-0.65625,-0.5,0.265625,0.515625,0.375
614736,-0.640625,-0.5,0.265625,0.5,0.375
614744,-0.65625,-0.5,0.28125,0.5,0.375
614792,-0.65625,-0.5,0.265625,0.5,0.390625
614800,-0.671875,-0.5,0.296875,0.5,0.375
614808,-0.640625,-0.515625,0.265625,0.5,0.390625
614816,-0.640625,-0.515625,0.265625,0.5,0.390625
614856,-0.671875,-0.5,0.265625,0.515625,0.390625
614864,-0.625,-0.515625,0.234375,0.5,0.40625
614872,-0.640625,-0.515625,0.265625,0.5,0.390625
614880,-0.65625,-0.5,0.25,0.515625,0.390625
614888,-0.65625,-0.5,0.265625,0.515625,0.375
614920,-0.640625,-0.515625,0.25,0.515625,0.390625
614928,-0.65625,-0.5,0.25,0.5,0.40625
614936,-0.671875,-0.5,0.28125,0.515625,0.375
614944,-0.640625,-0.515625,0.265625,0.5,0.390625
614984,-0.671875,-0.5,0.28125,0.515625,0.375
614992,-0.640625,-0.515625,0.28125,0.5,0.375
615000,-0.640625,-0.5,0.265625,0.5,0.375
615048,-0.65625,-0.5,0.28125,0.5,0.375
615056,-0.640625,-0.515625,0.265625,0.5,0.390625
615112,-0.65625,-0.5,0.265625,0.5,0.390625
615120,-0.671875,-0.5,0.28125,0.515625,0.375
615176,-0.65625,-0.5,0.28125,0.5,0.375
615192,-0.65625,-0.5,0.265625,0.5,0.390625
615240,-0.671875,-0.5,0.296875,0.515625,0.359375
615248,-0.671875,-0.5,0.296875,0.515625,0.359375
615304,-0.671875,-0.5,0.28125,0.515625,0.375
615312,-0.609375,-0.53125,0.25,0.5,0.390625
615376,-0.609375,-0.53125,0.25,0.5,0.390625
615448,-0.625,-0.515625,0.265625,0.5,0.375
622664,-0.65625,-0.5,0.265625,0.5,0.390625
622672,-0.625,-0.515625,0.234375,0.5,0.40625
622728,-0.6875,-0.484375,0.28125,0.515625,0.375
622792,-0.625,-0.515625,0.234375,0.5,0.40625
622800,-0.640625,-0.515625,0.25,0.5,0.40625
622808,-0.671875,-0.5,0.265625,0.515625,0.390625
622856,-0.671875,-0.5,0.265625,0.515625,0.390625
622920,-0.640625,-0.515625,0.28125,0.5,0.375
622928,-0.65625,-0.5,0.265625,0.5,0.390625
622936,-0.65625,-0.5,0.265625,0.5,0.390625
622944,-0.640625,-0.515625,0.265625,0.5,0.390625
622984,-0.671875,-0.5,0.296875,0.515625,0.359375
622992,-0.640625,-0.515625,0.265625,0.5,0.390625
623000,-0.65625,-0.5,0.265625,0.5,0.390625
623048,-0.640625,-0.515625,0.265625,0.5,0.390625
623056,-0.65625,-0.5,0.265625,0.5,0.390625
623064,-0.671875,-0.5,0.28125,0.515625,0.375
623112,-0.640625,-0.5,0.25,0.5,0.390625
623120,-0.65625,-0.5,0.25,0.5,0.40625
623128,-0.671875,-0.5,0.28125,0.515625,0.375
623176,-0.671875,-0.5,0.28125,0.515625,0.375
623184,-0.625,-0.515625,0.25,0.5,0.390625
623240,-0.65625,-0.5,0.265625,0.5,0.390625
623248,-0.640625,-0.515625,0.265625,0.5,0.390625
623256,-0.65625,-0.5,0.265625,0.5,0.390625
623304,-0.671875,-0.5,0.28125,0.515625,0.375
623312,-0.609375,-0.53125,0.25,0.5,0.390625
623320,-0.640625,-0.515625,0.28125,0.5,0.375
623368,-0.625,-0.515625,0.25,0.5,0.390625
623376,-0.640625,-0.515625,0.265625,0.515625,0.375
623432,-0.65625,-0.515625,0.28125,0.515625,0.375
623440,-0.625,-0.515625,0.25,0.5,0.390625
623496,-0.671875,-0.5,0.296875,0.515625,0.359375
623504,-0.609375,-0.53125,0.25,0.5,0.390625
623560,-0.625,-0.515625,0.265625,0.5,0.375
623568,-0.625,-0.515625,0.25,0.5,0.390625
623576,-0.65625,-0.5,0.28125,0.5,0.375
623624,-0.640625,-0.515625,0.265625,0.5,0.390625
623632,-0.625,-0.515625,0.25,0.5,0.390625
623640,-0.640625,-0.515625,0.265625,0.515625,0.375
630856,-0.65625,-0.5,0.265625,0.5,0.390625
630920,-0.6875,-0.484375,0.28125,0.515625,0.375
630928,-0.625,-0.515625,0.25,0.5,0.390625
630984,-0.640625,-0.515625,0.265625,0.5,0.390625
630992,-0.625,-0.515625,0.25,0.5,0.390625
631000,-0.65625,-0.5,0.28125,0.5,0.375
631048,-0.640625,-0.515625,0.25,0.5,0.40625
631056,-0.65625,-0.5,0.25,0.5,0.40625
631064,-0.671875,-0.5,0.265625,0.515625,0.390625
631112,-0.6875,-0.484375,0.28125,0.515625,0.375
631120,-0.625,-0.515625,0.25,0.5,0.390625
631128,-0.640625,-0.515625,0.265625,0.5,0.390625
631176,-0.65625,-0.5,0.265625,0.515625,0.375
631184,-0.625,-0.515625,0.234375,0.5,0.40625
631240,-0.640625,-0.515625,0.265625,0.5,0.390625
631248,-0.640625,-0.515625,0.28125,0.5,0.375
631256,-0.640625,-0.515625,0.265625,0.5,0.390625
631304,-0.65625,-0.5,0.265625,0.5,0.390625
631312,-0.671875,-0.5,0.265625,0.515625,0.390625
631320,-0.671875,-0.5,0.28125,0.515625,0.375
631368,-0.640625,-0.5,0.265625,0.5,0.375
631376,-0.640625,-0.515625,0.265625,0.5,0.390625
631384,-0.65625,-0.5,0.265625,0.5,0.390625
631432,-0.65625,-0.5,0.28125,0.5,0.375
631440,-0.640625,-0.515625,0.265625,0.5,0.390625
631448,-0.640625,-0.515625,0.265625,0.515625,0.375
631496,-0.625,-0.515625,0.234375,0.5,0.40625
631504,-0.640625,-0.515625,0.265625,0.5,0.390625
631512,-0.65625,-0.5,0.28125,0.5,0.375
631520,-0.65625,-0.5,0.265625,0.5,0.390625
631560,-0.625,-0.515625,0.25,0.5,0.390625
631568,-0.65625,-0.515625,0.28125,0.515625,0.375
631576,-0.6875,-0.5,0.296875,0.515625,0.375
631624,-0.640625,-0.515625,0.265625,0.5,0.390625
631632,-0.671875,-0.5,0.296875,0.515625,0.359375
631688,-0.625,-0.515625,0.25,0.5,0.390625
631696,-0.640625,-0.515625,0.265625,0.5,0.390625
631752,-0.65625,-0.5,0.28125,0.5,0.375
631760,-0.625,-0.515625,0.265625,0.5,0.375
631816,-0.625,-0.515625,0.25,0.5,0.390625
631824,-0.640625,-0.515625,0.265625,0.5,0.390625
639048,-0.65625,-0.5,0.265625,0.5,0.390625
639056,-0.625,-0.515625,0.25,0.5,0.390625
639064,-0.640625,-0.515625,0.265625,0.5,0.390625
639112,-0.65625,-0.5,0.265625,0.5,0.390625
639120,-0.640625,-0.515625,0.265625,0.5,0.390625
639128,-0.640625,-0.5,0.265625,0.5,0.375
639176,-0.625,-0.515625,0.25,0.5,0.390625
639184,-0.640625,-0.515625,0.265625,0.5,0.390625
639240,-0.625,-0.515625,0.25,0.5,0.390625
639304,-0.65625,-0.5,0.28125,0.5,0.375
639312,-0.640625,-0.515625,0.265625,0.515625,0.375
639320,-0.640625,-0.515625,0.265625,0.5,0.390625
639368,-0.625,-0.515625,0.25,0.5,0.390625
639376,-0.65625,-0.5,0.265625,0.5,0.390625
639384,-0.671875,-0.5,0.296875,0.5,0.375
639432,-0.625,-0.515625,0.25,0.5,0.390625
639440,-0.671875,-0.484375,0.28125,0.5,0.375
639496,-0.65625,-0.5,0.28125,0.5,0.375
639504,-0.65625,-0.5,0.28125,0.5,0.375
639512,-0.65625,-0.5,0.265625,0.5,0.390625
639560,-0.65625,-0.5,0.265625,0.5,0.390625
639568,-0.640625,-0.515625,0.265625,0.5,0.390625
639576,-0.625,-0.515625,0.265625,0.5,0.375
639624,-0.640625,-0.515625,0.265625,0.515625,0.375
639632,-0.671875,-0.5,0.28125,0.515625,0.375
639640,-0.65625,-0.5,0.28125,0.5,0.375
639648,-0.640625,-0.515625,0.265625,0.5,0.390625
639688,-0.640625,-0.515625,0.265625,0.5,0.390625
639696,-0.65625,-0.5,0.28125,0.5,0.375
639704,-0.671875,-0.5,0.28125,0.515625,0.375
639752,-0.640625,-0.515625,0.265625,0.515625,0.375
639760,-0.671875,-0.5,0.28125,0.515625,0.375
639768,-0.625,-0.515625,0.265625,0.5,0.375
639816,-0.65625,-0.5,0.28125,0.5,0.375
639824,-0.640625,-0.515625,0.265625,0.5,0.390625
639880,-0.625,-0.515625,0.25,0.5,0.390625
639888,-0.65625,-0.515625,0.28125,0.515625,0.375
639944,-0.640625,-0.515625,0.28125,0.5,0.375
639952,-0.625,-0.515625,0.25,0.5,0.390625
640008,-0.65625,-0.515625,0.28125,0.515625,0.375
640016,-0.625,-0.515625,0.265625,0.5,0.375
647240,-0.640625,-0.515625,0.265625,0.5,0.390625
647304,-0.671875,-0.5,0.265625,0.515625,0.390625
647312,-0.671875,-0.5,0.265625,0.515625,0.390625
647320,-0.640625,-0.515625,0.25,0.5,0.40625
647368,-0.65625,-0.5,0.28125,0.5,0.375
647432,-0.640625,-0.515625,0.265625,0.5,0.390625
647440,-0.640625,-0.515625,0.265625,0.515625,0.375
647496,-0.625,-0.515625,0.25,0.5,0.390625
647504,-0.65625,-0.5,0.28125,0.5,0.375
647512,-0.625,-0.515625,0.265625,0.5,0.375
647560,-0.6875,-0.484375,0.28125,0.5,0.390625
647568,-0.65625,-0.5,0.28125,0.5,0.375
647576,-0.640625,-0.515625,0.25,0.5,0.40625
647624,-0.65625,-0.5,0.28125,0.5,0.375
647632,-0.625,-0.515625,0.25,0.5,0.390625
647640,-0.671875,-0.5,0.28125,0.515625,0.375
647688,-0.65625,-0.5,0.28125,0.5,0.375
647696,-0.640625,-0.515625,0.265625,0.5,0.390625
647704,-0.640625,-0.515625,0.265625,0.5,0.390625
647712,-0.65625,-0.5,0.28125,0.5,0.375
647752,-0.671875,-0.5,0.296875,0.515625,0.359375
647760,-0.640625,-0.515625,0.265625,0.515625,0.375
647816,-0.65625,-0.5,0.28125,0.5,0.375
647824,-0.640625,-0.515625,0.265625,0.5,0.390625
647832,-0.671875,-0.5,0.28125,0.515625,0.375
647880,-0.671875,-0.5,0.296875,0.515625,0.359375
647888,-0.640625,-0.515625,0.265625,0.5,0.390625
647896,-0.640625,-0.515625,0.265625,0.5,0.390625
647944,-0.640625,-0.515625,0.28125,0.5,0.375
647952,-0.671875,-0.484375,0.28125,0.5,0.375
648008,-0.640625,-0.515625,0.265625,0.5,0.390625
648016,-0.625,-0.515625,0.25,0.5,0.390625
648024,-0.65625,-0.5,0.28125,0.5,0.375
648072,-0.65625,-0.5,0.28125,0.5,0.375
648080,-0.625,-0.515625,0.25,0.5,0.390625
648088,-0.625,-0.515625,0.265625,0.5,0.375
648136,-0.625,-0.515625,0.25,0.5,0.390625
648144,-0.6875,-0.484375,0.296875,0.515625,0.359375
648200,-0.625,-0.515625,0.265625,0.5,0.375
648208,-0.65625,-0.5,0.28125,0.5,0.375
655432,-0.640625,-0.515625,0.25,0.5,0.40625
655496,-0.640625,-0.515625,0.25,0.5,0.40625
655560,-0.671875,-0.484375,0.25,0.5,0.40625
655568,-0.625,-0.515625,0.25,0.5,0.390625
655624,-0.65625,-0.5,0.265625,0.5,0.390625
655688,-0.65625,-0.5,0.265625,0.5,0.390625
655696,-0.640625,-0.515625,0.265625,0.5,0.390625
655704,-0.671875,-0.5,0.28125,0.515625,0.375
655712,-0.671875,-0.5,0.28125,0.515625,0.375
655720,-0.65625,-0.5,0.265625,0.5,0.390625
655752,-0.65625,-0.5,0.265625,0.5,0.390625
655760,-0.640625,-0.515625,0.25,0.5,0.40625
655768,-0.625,-0.515625,0.25,0.5,0.390625
655776,-0.65625,-0.5,0.265625,0.5,0.390625
655816,-0.65625,-0.5,0.265625,0.5,0.390625
655824,-0.671875,-0.5,0.28125,0.515625,0.375
655832,-0.671875,-0.5,0.28125,0.515625,0.375
655840,-0.640625,-0.515625,0.265625,0.5,0.390625
655880,-0.65625,-0.5,0.265625,0.515625,0.375
655888,-0.65625,-0.5,0.265625,0.5,0.390625
655896,-0.65625,-0.5,0.265625,0.5,0.390625
655944,-0.671875,-0.5,0.296875,0.515625,0.359375
655952,-0.640625,-0.515625,0.265625,0.5,0.390625
655960,-0.65625,-0.5,0.28125,0.5,0.375
656008,-0.65625,-0.5,0.28125,0.5,0.375
656016,-0.671875,-0.5,0.28125,0.515625,0.375
656024,-0.625,-0.515625,0.25,0.5,0.390625
656072,-0.65625,-0.5,0.265625,0.5,0.390625
656080,-0.640625,-0.515625,0.265625,0.515625,0.375
656136,-0.6875,-0.484375,0.296875,0.5,0.375
656144,-0.625,-0.515625,0.25,0.5,0.390625
656152,-0.65625,-0.5,0.28125,0.5,0.375
656200,-0.609375,-0.53125,0.25,0.5,0.390625
656208,-0.671875,-0.5,0.28125,0.515625,0.375
656264,-0.640625,-0.515625,0.28125,0.5,0.375
656272,-0.625,-0.515625,0.265625,0.5,0.375
656280,-0.671875,-0.5,0.296875,0.515625,0.359375
656328,-0.671875,-0.5,0.296875,0.5,0.375
656336,-0.625,-0.515625,0.265625,0.5,0.375
656392,-0.625,-0.515625,0.265625,0.5,0.375
656400,-0.65625,-0.5,0.28125,0.5,0.375
663624,-0.640625,-0.515625,0.265625,0.5,0.390625
663632,-0.65625,-0.5,0.28125,0.5,0.375
663640,-0.640625,-0.515625,0.265625,0.5,0.390625
663688,-0.625,-0.515625,0.25,0.5,0.390625
663752,-0.65625,-0.5,0.234375,0.5,0.421875
663816,-0.65625,-0.515625,0.28125,0.515625,0.375
663824,-0.6875,-0.484375,0.28125,0.515625,0.375
663880,-0.640625,-0.515625,0.25,0.515625,0.390625
663888,-0.65625,-0.5,0.265625,0.5,0.390625
663896,-0.671875,-0.5,0.296875,0.515625,0.359375
663944,-0.625,-0.515625,0.25,0.5,0.390625
663952,-0.65625,-0.5,0.265625,0.5,0.390625
663960,-0.671875,-0.5,0.28125,0.515625,0.375
664008,-0.65625,-0.5,0.28125,0.5,0.375
664016,-0.625,-0.515625,0.234375,0.5,0.40625
664024,-0.625,-0.515625,0.25,0.5,0.390625
664072,-0.625,-0.515625,0.25,0.5,0.390625
664080,-0.65625,-0.5,0.28125,0.5,0.375
664136,-0.625,-0.515625,0.265625,0.5,0.375
664144,-0.671875,-0.5,0.28125,0.515625,0.375
664152,-0.640625,-0.515625,0.265625,0.515625,0.375
664200,-0.609375,-0.53125,0.25,0.5,0.390625
664208,-0.625,-0.515625,0.25,0.5,0.390625
664264,-0.671875,-0.5,0.28125,0.515625,0.375
664272,-0.625,-0.515625,0.25,0.5,0.390625
664280,-0.640625,-0.515625,0.265625,0.5,0.390625
664328,-0.65625,-0.5,0.265625,0.5,0.390625
664336,-0.671875,-0.5,0.28125,0.515625,0.375
664344,-0.640625,-0.515625,0.265625,0.5,0.390625
664392,-0.609375,-0.53125,0.234375,0.5,0.40625
664400,-0.625,-0.515625,0.265625,0.5,0.375
664408,-0.625,-0.515625,0.25,0.5,0.390625
664456,-0.640625,-0.5,0.265625,0.5,0.375
664464,-0.640625,-0.515625,0.265625,0.5,0.390625
664472,-0.640625,-0.515625,0.265625,0.5,0.390625
664520,-0.625,-0.515625,0.25,0.5,0.390625
664528,-0.65625,-0.5,0.28125,0.5,0.375
664584,-0.640625,-0.515625,0.265625,0.5,0.390625
664592,-0.65625,-0.5,0.28125,0.5,0.375
671816,-0.625,-0.515625,0.25,0.5,0.390625
671824,-0.640625,-0.515625,0.28125,0.5,0.375
671832,-0.640625,-0.515625,0.265625,0.5,0.390625
671880,-0.625,-0.515625,0.25,0.5,0.390625
671888,-0.640625,-0.515625,0.25,0.5,0.40625
671896,-0.640625,-0.515625,0.265625,0.5,0.390625
671944,-0.640625,-0.515625,0.25,0.515625,0.390625
671952,-0.65625,-0.5,0.265625,0.5,0.390625
671960,-0.640625,-0.5,0.25,0.5,0.390625
672008,-0.640625,-0.515625,0.265625,0.5,0.390625
672016,-0.671875,-0.5,0.265625,0.515625,0.390625
672024,-0.65625,-0.5,0.265625,0.5,0.390625
672072,-0.65625,-0.5,0.265625,0.5,0.390625
672080,-0.640625,-0.515625,0.265625,0.5,0.390625
672088,-0.65625,-0.5,0.28125,0.5,0.375
672136,-0.65625,-0.5,0.265625,0.515625,0.375
672144,-0.65625,-0.5,0.28125,0.5,0.375
672152,-0.640625,-0.515625,0.25,0.5,0.40625
672200,-0.671875,-0.5,0.28125,0.515625,0.375
672208,-0.6875,-0.484375,0.28125,0.515625,0.375
672216,-0.640625,-0.515625,0.25,0.5,0.40625
672264,-0.6875,-0.484375,0.28125,0.515625,0.375
672272,-0.65625,-0.5,0.265625,0.5,0.390625
672280,-0.640625,-0.515625,0.25,0.515625,0.390625
672328,-0.65625,-0.5,0.28125,0.5,0.375
672336,-0.671875,-0.5,0.28125,0.5,0.390625
672344,-0.6875,-0.484375,0.296875,0.5,0.375
672352,-0.625,-0.515625,0.25,0.5,0.390625
672392,-0.65625,-0.5,0.265625,0.5,0.390625
672400,-0.671875,-0.5,0.28125,0.515625,0.375
672408,-0.640625,-0.515625,0.265625,0.5,0.390625
672456,-0.640625,-0.515625,0.265625,0.5,0.390625
672464,-0.671875,-0.5,0.265625,0.515625,0.390625
672472,-0.640625,-0.5,0.25,0.5,0.390625
672520,-0.65625,-0.5,0.265625,0.5,0.390625
672528,-0.65625,-0.5,0.265625,0.515625,0.375
672536,-0.6875,-0.5,0.296875,0.515625,0.375
672544,-0.640625,-0.515625,0.25,0.5,0.40625
672584,-0.671875,-0.5,0.296875,0.5,0.375
672592,-0.65625,-0.5,0.28125,0.5,0.375
672648,-0.65625,-0.5,0.28125,0.5,0.375
672656,-0.640625,-0.515625,0.265625,0.5,0.390625
672712,-0.671875,-0.5,0.28125,0.515625,0.375
672720,-0.65625,-0.5,0.265625,0.5,0.390625
672776,-0.65625,-0.5,0.265625,0.5,0.390625
672784,-0.671875,-0.5,0.28125,0.515625,0.375
680008,-0.671875,-0.5,0.28125,0.515625,0.375
680016,-0.65625,-0.5,0.265625,0.5,0.390625
680072,-0.640625,-0.515625,0.265625,0.5,0.390625
680136,-0.65625,-0.5,0.265625,0.5,0.390625
680200,-0.640625,-0.515625,0.265625,0.5,0.390625
680208,-0.65625,-0.5,0.265625,0.5,0.390625
680216,-0.65625,-0.5,0.265625,0.5,0.390625
680264,-0.65625,-0.5,0.265625,0.5,0.390625
680272,-0.65625,-0.5,0.265625,0.5,0.390625
680328,-0.625,-0.515625,0.25,0.5,0.390625
680336,-0.671875,-0.5,0.28125,0.515625,0.375
680344,-0.640625,-0.515625,0.265625,0.5,0.390625
680392,-0.65625,-0.5,0.265625,0.5,0.390625
680400,-0.6875,-0.484375,0.28125,0.515625,0.375
680408,-0.703125,-0.484375,0.3125,0.515625,0.359375
680456,-0.65625,-0.5,0.28125,0.5,0.375
680464,-0.6875,-0.484375,0.296875,0.515625,0.359375
680472,-0.625,-0.515625,0.25,0.5,0.390625
680520,-0.671875,-0.5,0.28125,0.515625,0.375
680528,-0.65625,-0.515625,0.28125,0.515625,0.375
680536,-0.671875,-0.5,0.28125,0.515625,0.375
680584,-0.65625,-0.5,0.265625,0.515625,0.375
680592,-0.625,-0.515625,0.25,0.5,0.390625
680600,-0.640625,-0.515625,0.265625,0.5,0.390625
680648,-0.640625,-0.515625,0.265625,0.5,0.390625
680656,-0.65625,-0.5,0.265625,0.5,0.390625
680712,-0.65625,-0.5,0.265625,0.5,0.390625
680720,-0.640625,-0.515625,0.265625,0.5,0.390625
680728,-0.671875,-0.5,0.28125,0.515625,0.375
680776,-0.65625,-0.5,0.265625,0.5,0.390625
680784,-0.6875,-0.484375,0.296875,0.515625,0.359375
680840,-0.625,-0.515625,0.25,0.5,0.390625
680848,-0.65625,-0.5,0.28125,0.5,0.375
680904,-0.65625,-0.5,0.265625,0.5,0.390625
680912,-0.671875,-0.5,0.28125,0.515625,0.375
680920,-0.609375,-0.515625,0.234375,0.5,0.390625
680968,-0.625,-0.515625,0.25,0.5,0.390625
680976,-0.640625,-0.515625,0.265625,0.5,0.390625
680984,-0.640625,-0.515625,0.265625,0.5,0.390625
688200,-0.625,-0.515625,0.25,0.5,0.390625
688264,-0.609375,-0.515625,0.234375,0.5,0.390625
688272,-0.640625,-0.515625,0.25,0.5,0.40625
688328,-0.640625,-0.515625,0.265625,0.5,0.390625
688392,-0.640625,-0.515625,0.25,0.5,0.40625
688456,-0.640625,-0.515625,0.265625,0.5,0.390625
688464,-0.65625,-0.5,0.265625,0.5,0.390625
688472,-0.640625,-0.515625,0.25,0.5,0.40625
688520,-0.671875,-0.5,0.265625,0.515625,0.390625
688528,-0.671875,-0.5,0.28125,0.5,0.390625
688536,-0.625,-0.515625,0.25,0.5,0.390625
688544,-0.65625,-0.5,0.265625,0.5,0.390625
688584,-0.65625,-0.5,0.28125,0.5,0.375
688592,-0.625,-0.515625,0.25,0.5,0.390625
688600,-0.625,-0.515625,0.25,0.5,0.390625
688608,-0.625,-0.515625,0.25,0.5,0.390625
688616,-0.640625,-0.515625,0.265625,0.5,0.390625
688648,-0.625,-0.515625,0.234375,0.5,0.40625
688656,-0.625,-0.515625,0.234375,0.5,0.40625
688664,-0.65625,-0.5,0.265625,0.515625,0.375
688672,-0.640625,-0.515625,0.28125,0.5,0.375
688712,-0.671875,-0.5,0.296875,0.515625,0.359375
688720,-0.640625,-0.515625,0.265625,0.5,0.390625
688728,-0.65625,-0.5,0.28125,0.5,0.375
688776,-0.640625,-0.515625,0.265625,0.5,0.390625
688784,-0.640625,-0.515625,0.265625,0.5,0.390625
688840,-0.65625,-0.5,0.28125,0.5,0.375
688848,-0.65625,-0.5,0.28125,0.5,0.375
688856,-0.625,-0.515625,0.25,0.5,0.390625
688904,-0.625,-0.515625,0.265625,0.5,0.375
688912,-0.65625,-0.5,0.265625,0.5,0.390625
688920,-0.671875,-0.5,0.28125,0.5,0.390625
688968,-0.65625,-0.5,0.265625,0.5,0.390625
688976,-0.65625,-0.5,0.28125,0.5,0.375
689032,-0.671875,-0.5,0.296875,0.515625,0.359375
689040,-0.625,-0.515625,0.25,0.5,0.390625
689096,-0.640625,-0.515625,0.265625,0.515625,0.375
689104,-0.625,-0.515625,0.25,0.5,0.390625
689160,-0.65625,-0.5,0.265625,0.5,0.390625
689168,-0.65625,-0.5,0.28125,0.5,0.375
689176,-0.609375,-0.53125,0.25,0.5,0.390625
696392,-0.625,-0.515625,0.234375,0.5,0.40625
696400,-0.640625,-0.515625,0.25,0.5,0.40625
696456,-0.640625,-0.515625,0.265625,0.5,0.390625
696520,-0.640625,-0.515625,0.25,0.5,0.40625
696528,-0.65625,-0.5,0.265625,0.5,0.390625
696536,-0.65625,-0.5,0.265625,0.5,0.390625
696584,-0.65625,-0.5,0.265625,0.5,0.390625
696648,-0.65625,-0.515625,0.265625,0.515625,0.390625
696656,-0.65625,-0.5,0.28125,0.5,0.375
696664,-0.65625,-0.5,0.265625,0.5,0.390625
696672,-0.65625,-0.5,0.28125,0.5,0.375
696712,-0.671875,-0.5,0.28125,0.515625,0.375
696720,-0.625,-0.515625,0.234375,0.5,0.40625
696728,-0.640625,-0.515625,0.265625,0.515625,0.375
696776,-0.65625,-0.5,0.265625,0.5,0.390625
696784,-0.65625,-0.5,0.265625,0.515625,0.375
696792,-0.6875,-0.5,0.3125,0.515625,0.359375
696840,-0.640625,-0.515625,0.265625,0.5,0.390625
696848,-0.640625,-0.515625,0.265625,0.5,0.390625
696856,-0.671875,-0.5,0.28125,0.515625,0.375
696904,-0.6875,-0.484375,0.296875,0.5,0.375
696912,-0.625,-0.515625,0.25,0.5,0.390625
696968,-0.640625,-0.515625,0.265625,0.5,0.390625
696976,-0.640625,-0.515625,0.28125,0.5,0.375
696984,-0.65625,-0.5,0.28125,0.5,0.375
697032,-0.65625,-0.5,0.28125,0.5,0.375
697040,-0.65625,-0.5,0.28125,0.5,0.375
697048,-0.671875,-0.5,0.28125,0.515625,0.375
697096,-0.65625,-0.5,0.265625,0.5,0.390625
697104,-0.6875,-0.484375,0.296875,0.515625,0.359375
697160,-0.609375,-0.515625,0.234375,0.5,0.390625
697168,-0.65625,-0.5,0.28125,0.5,0.375
697224,-0.671875,-0.5,0.296875,0.515625,0.359375
697352,-0.671875,-0.5,0.28125,0.5,0.390625
697360,-0.65625,-0.5,0.28125,0.5,0.375
697368,-0.625,-0.515625,0.25,0.5,0.390625
704584,-0.671875,-0.5,0.28125,0.5,0.390625
704648,-0.671875,-0.5,0.265625,0.515625,0.390625
704656,-0.625,-0.515625,0.25,0.5,0.390625
704712,-0.65625,-0.5,0.265625,0.5,0.390625
704720,-0.640625,-0.5,0.25,0.5,0.390625
704728,-0.671875,-0.5,0.28125,0.515625,0.375
704776,-0.625,-0.515625,0.234375,0.5,0.40625
704784,-0.640625,-0.515625,0.265625,0.5,0.390625
704792,-0.65625,-0.5,0.28125,0.5,0.375
704840,-0.671875,-0.5,0.28125,0.515625,0.375
704848,-0.625,-0.515625,0.25,0.5,0.390625
704856,-0.640625,-0.515625,0.265625,0.5,0.390625
704904,-0.65625,-0.5,0.265625,0.515625,0.375
704912,-0.625,-0.515625,0.25,0.5,0.390625
704968,-0.65625,-0.5,0.265625,0.5,0.390625
704976,-0.65625,-0.5,0.265625,0.5,0.390625
704984,-0.65625,-0.5,0.265625,0.5,0.390625
705032,-0.640625,-0.515625,0.265625,0.5,0.390625
705040,-0.671875,-0.5,0.28125,0.515625,0.375
705048,-0.65625,-0.5,0.28125,0.5,0.375
705096,-0.640625,-0.5,0.265625,0.5,0.375
705104,-0.640625,-0.5,0.265625,0.5,0.375
705112,-0.65625,-0.5,0.265625,0.5,0.390625
705160,-0.640625,-0.515625,0.265625,0.515625,0.375
705168,-0.640625,-0.515625,0.265625,0.5,0.390625
705176,-0.65625,-0.5,0.265625,0.5,0.390625
705224,-0.640625,-0.515625,0.265625,0.5,0.390625
705232,-0.640625,-0.515625,0.265625,0.5,0.390625
705240,-0.671875,-0.5,0.28125,0.5,0.390625
705248,-0.65625,-0.5,0.28125,0.5,0.375
705288,-0.625,-0.515625,0.25,0.5,0.390625
705296,-0.65625,-0.5,0.265625,0.5,0.390625
705304,-0.6875,-0.5,0.296875,0.515625,0.375
705352,-0.640625,-0.515625,0.265625,0.515625,0.375
705360,-0.671875,-0.5,0.28125,0.515625,0.375
705416,-0.625,-0.515625,0.265625,0.5,0.375
705424,-0.640625,-0.515625,0.28125,0.5,0.375
705480,-0.671875,-0.5,0.28125,0.515625,0.375
705488,-0.625,-0.515625,0.25,0.5,0.390625
705544,-0.640625,-0.515625,0.265625,0.5,0.390625
705552,-0.65625,-0.515625,0.28125,0.515625,0.375
712840,-0.6875,-0.5,0.296875,0.515625,0.375
712848,-0.65625,-0.5,0.265625,0.5,0.390625
712856,-0.65625,-0.5,0.265625,0.5,0.390625
712904,-0.625,-0.515625,0.234375,0.5,0.40625
712912,-0.6875,-0.484375,0.28125,0.5,0.390625
712968,-0.65625,-0.5,0.25,0.515625,0.390625
713032,-0.640625,-0.515625,0.265625,0.515625,0.375
713096,-0.625,-0.515625,0.25,0.5,0.390625
713104,-0.640625,-0.515625,0.28125,0.5,0.375
713112,-0.671875,-0.5,0.28125,0.5,0.390625
713160,-0.625,-0.515625,0.25,0.5,0.390625
713168,-0.671875,-0.5,0.28125,0.515625,0.375
713224,-0.640625,-0.515625,0.25,0.5,0.40625
713232,-0.640625,-0.515625,0.25,0.5,0.40625
713240,-0.671875,-0.5,0.28125,0.515625,0.375
713288,-0.640625,-0.515625,0.265625,0.5,0.390625
713296,-0.65625,-0.5,0.265625,0.5,0.390625
713304,-0.625,-0.515625,0.25,0.5,0.390625
713352,-0.640625,-0.515625,0.25,0.5,0.40625
713360,-0.65625,-0.5,0.28125,0.5,0.375
713368,-0.65625,-0.5,0.28125,0.5,0.375
713376,-0.640625,-0.515625,0.265625,0.5,0.390625
713416,-0.640625,-0.515625,0.265625,0.5,0.390625
713424,-0.640625,-0.515625,0.265625,0.5,0.390625
713432,-0.671875,-0.5,0.28125,0.515625,0.375
713480,-0.640625,-0.5,0.265625,0.5,0.375
713488,-0.640625,-0.515625,0.265625,0.5,0.390625
713496,-0.65625,-0.5,0.28125,0.5,0.375
713544,-0.65625,-0.5,0.265625,0.5,0.390625
713552,-0.640625,-0.515625,0.265625,0.5,0.390625
713608,-0.625,-0.515625,0.25,0.5,0.390625
713616,-0.671875,-0.5,0.296875,0.5,0.375
713672,-0.640625,-0.515625,0.265625,0.5,0.390625
713680,-0.625,-0.515625,0.25,0.5,0.390625
713736,-0.65625,-0.5,0.28125,0.5,0.375
713744,-0.640625,-0.515625,0.265625,0.5,0.390625
720968,-0.640625,-0.515625,0.265625,0.5,0.390625
721032,-0.671875,-0.5,0.25,0.515625,0.40625
721040,-0.671875,-0.5,0.265625,0.5,0.40625
721048,-0.640625,-0.5,0.234375,0.5,0.40625
721096,-0.671875,-0.5,0.28125,0.515625,0.375
721160,-0.625,-0.515625,0.25,0.5,0.390625
721168,-0.65625,-0.5,0.265625,0.5,0.390625
721224,-0.625,-0.515625,0.234375,0.5,0.40625
721232,-0.65625,-0.5,0.265625,0.5,0.390625
721240,-0.640625,-0.515625,0.25,0.5,0.40625
721288,-0.671875,-0.5,0.28125,0.5,0.390625
721296,-0.6875,-0.484375,0.28125,0.515625,0.375
721304,-0.65625,-0.5,0.265625,0.5,0.390625
721352,-0.65625,-0.5,0.25,0.5,0.40625
721360,-0.625,-0.515625,0.25,0.5,0.390625
721368,-0.671875,-0.5,0.28125,0.515625,0.375
721416,-0.65625,-0.5,0.265625,0.5,0.390625
721424,-0.640625,-0.5,0.25,0.5,0.390625
721432,-0.625,-0.515625,0.234375,0.5,0.40625
721440,-0.640625,-0.515625,0.25,0.5,0.40625
721480,-0.65625,-0.5,0.28125,0.5,0.375
721488,-0.640625,-0.515625,0.265625,0.5,0.390625
721544,-0.640625,-0.515625,0.265625,0.5,0.390625
721552,-0.625,-0.515625,0.25,0.5,0.390625
721560,-0.671875,-0.5,0.296875,0.5,0.375
721608,-0.640625,-0.515625,0.265625,0.5,0.390625
721616,-0.65625,-0.5,0.265625,0.5,0.390625
721624,-0.625,-0.515625,0.25,0.5,0.390625
721672,-0.609375,-0.53125,0.234375,0.5,0.40625
721680,-0.671875,-0.5,0.28125,0.5,0.390625
721736,-0.65625,-0.5,0.265625,0.5,0.390625
721744,-0.625,-0.515625,0.25,0.5,0.390625
721752,-0.65625,-0.515625,0.28125,0.515625,0.375
721800,-0.65625,-0.515625,0.28125,0.515625,0.375
721808,-0.625,-0.515625,0.265625,0.5,0.375
721816,-0.640625,-0.515625,0.265625,0.5,0.390625
721864,-0.609375,-0.53125,0.25,0.5,0.390625
721872,-0.640625,-0.515625,0.265625,0.515625,0.375
721928,-0.625,-0.515625,0.25,0.5,0.390625
721936,-0.640625,-0.515625,0.265625,0.5,0.390625
729160,-0.65625,-0.5,0.25,0.5,0.40625
729224,-0.640625,-0.515625,0.25,0.5,0.40625
729288,-0.625,-0.515625,0.25,0.5,0.390625
729296,-0.625,-0.515625,0.234375,0.5,0.40625
729352,-0.640625,-0.515625,0.265625,0.5,0.390625
729416,-0.671875,-0.484375,0.265625,0.5,0.390625
729424,-0.625,-0.515625,0.25,0.5,0.390625
729432,-0.703125,-0.484375,0.296875,0.515625,0.375
729440,-0.65625,-0.5,0.25,0.5,0.40625
729448,-0.6875,-0.484375,0.28125,0.5,0.390625
729480,-0.65625,-0.5,0.25,0.515625,0.390625
729488,-0.625,-0.515625,0.25,0.5,0.390625
729496,-0.640625,-0.5,0.25,0.5,0.390625
729504,-0.65625,-0.5,0.265625,0.5,0.390625
729544,-0.625,-0.515625,0.25,0.5,0.390625
729552,-0.65625,-0.5,0.265625,0.5,0.390625
729560,-0.671875,-0.5,0.28125,0.5,0.390625
729568,-0.625,-0.515625,0.25,0.5,0.390625
729608,-0.640625,-0.515625,0.265625,0.5,0.390625
729616,-0.640625,-0.515625,0.265625,0.5,0.390625
729624,-0.625,-0.515625,0.25,0.5,0.390625
729672,-0.671875,-0.5,0.28125,0.515625,0.375
729680,-0.625,-0.515625,0.25,0.5,0.390625
729688,-0.65625,-0.5,0.28125,0.5,0.375
729736,-0.65625,-0.5,0.28125,0.5,0.375
729744,-0.65625,-0.5,0.265625,0.5,0.390625
729752,-0.625,-0.515625,0.25,0.5,0.390625
729808,-0.640625,-0.515625,0.265625,0.5,0.390625
729864,-0.671875,-0.5,0.28125,0.515625,0.375
729928,-0.625,-0.515625,0.25,0.5,0.390625
729936,-0.65625,-0.515625,0.265625,0.515625,0.390625
729992,-0.640625,-0.515625,0.265625,0.5,0.390625
730000,-0.640625,-0.515625,0.265625,0.5,0.390625
730008,-0.65625,-0.5,0.28125,0.5,0.375
730064,-0.625,-0.515625,0.25,0.5,0.390625
730120,-0.65625,-0.5,0.25,0.5,0.40625
737352,-0.625,-0.515625,0.234375,0.5,0.40625
737360,-0.640625,-0.515625,0.25,0.515625,0.390625
737368,-0.640625,-0.5,0.25,0.5,0.390625
737416,-0.640625,-0.515625,0.25,0.5,0.40625
737480,-0.640625,-0.515625,0.25,0.5,0.40625
737544,-0.65625,-0.5,0.265625,0.515625,0.375
737552,-0.65625,-0.5,0.265625,0.5,0.390625
737608,-0.625,-0.515625,0.25,0.5,0.390625
737616,-0.65625,-0.5,0.265625,0.5,0.390625
737624,-0.671875,-0.5,0.28125,0.515625,0.375
737672,-0.640625,-0.515625,0.265625,0.5,0.390625
737680,-0.65625,-0.5,0.265625,0.5,0.390625
737688,-0.671875,-0.5,0.28125,0.515625,0.375
737736,-0.640625,-0.515625,0.25,0.5,0.40625
737744,-0.65625,-0.5,0.265625,0.5,0.390625
737752,-0.640625,-0.515625,0.265625,0.5,0.390625
737800,-0.65625,-0.5,0.265625,0.5,0.390625
737808,-0.640625,-0.515625,0.265625,0.5,0.390625
737864,-0.65625,-0.5,0.28125,0.5,0.375
737872,-0.65625,-0.5,0.28125,0.5,0.375
737880,-0.65625,-0.5,0.28125,0.5,0.375
737928,-0.625,-0.515625,0.25,0.5,0.390625
737936,-0.640625,-0.515625,0.265625,0.5,0.390625
737992,-0.671875,-0.5,0.28125,0.515625,0.375
738000,-0.625,-0.515625,0.25,0.5,0.390625
738008,-0.640625,-0.515625,0.265625,0.5,0.390625
738056,-0.671875,-0.5,0.28125,0.5,0.390625
738064,-0.65625,-0.5,0.265625,0.5,0.390625
738072,-0.640625,-0.515625,0.265625,0.5,0.390625
738120,-0.625,-0.515625,0.25,0.5,0.390625
738128,-0.65625,-0.5,0.25,0.515625,0.390625
738136,-0.640625,-0.515625,0.25,0.5,0.40625
738184,-0.65625,-0.5,0.265625,0.5,0.390625
738192,-0.671875,-0.5,0.296875,0.515625,0.359375
738200,-0.625,-0.515625,0.25,0.5,0.390625
738248,-0.640625,-0.515625,0.265625,0.5,0.390625
738256,-0.671875,-0.5,0.296875,0.515625,0.359375
738312,-0.640625,-0.515625,0.28125,0.5,0.375
738320,-0.671875,-0.5,0.296875,0.515625,0.359375
745544,-0.625,-0.515625,0.265625,0.5,0.375
745552,-0.625,-0.515625,0.265625,0.5,0.375
745608,-0.671875,-0.484375,0.28125,0.5,0.375
745616,-0.609375,-0.53125,0.25,0.5,0.390625
745672,-0.671875,-0.5,0.296875,0.515625,0.359375
745680,-0.609375,-0.53125,0.234375,0.5,0.40625
745736,-0.625,-0.515625,0.25,0.5,0.390625
745744,-0.625,-0.515625,0.25,0.5,0.390625
745800,-0.625,-0.515625,0.265625,0.5,0.375
745808,-0.640625,-0.515625,0.265625,0.5,0.390625
745864,-0.625,-0.515625,0.265625,0.5,0.375
745872,-0.65625,-0.5,0.28125,0.5,0.375
745880,-0.609375,-0.53125,0.25,0.5,0.390625
745928,-0.625,-0.515625,0.265625,0.5,0.375
745936,-0.65625,-0.515625,0.28125,0.515625,0.375
745944,-0.59375,-0.53125,0.234375,0.5,0.390625
745992,-0.625,-0.515625,0.265625,0.5,0.375
746000,-0.609375,-0.53125,0.265625,0.5,0.375
746056,-0.625,-0.515625,0.25,0.5,0.390625
746064,-0.65625,-0.5,0.296875,0.5,0.359375
746120,-0.640625,-0.515625,0.28125,0.5,0.375
746184,-0.625,-0.515625,0.265625,0.5,0.375
746248,-0.609375,-0.53125,0.265625,0.5,0.375
746256,-0.640625,-0.515625,0.296875,0.5,0.359375
746312,-0.625,-0.515625,0.265625,0.5,0.375
746376,-0.59375,-0.53125,0.25,0.5,0.375
746440,-0.625,-0.515625,0.265625,0.5,0.375
746504,-0.59375,-0.53125,0.25,0.5,0.375
746568,-0.640625,-0.515625,0.28125,0.5,0.375
746576,-0.59375,-0.53125,0.25,0.5,0.375
746632,-0.640625,-0.515625,0.296875,0.5,0.359375
746640,-0.59375,-0.53125,0.265625,0.484375,0.375
746696,-0.640625,-0.515625,0.28125,0.5,0.375
746704,-0.578125,-0.53125,0.25,0.484375,0.375
746760,-0.65625,-0.5,0.296875,0.5,0.359375
746768,-0.59375,-0.53125,0.265625,0.484375,0.375
746824,-0.609375,-0.53125,0.265625,0.5,0.375
746952,-0.609375,-0.53125,0.265625,0.5,0.375
747080,-0.5625,-0.546875,0.234375,0.484375,0.390625
747088,-0.578125,-0.53125,0.25,0.484375,0.375
747208,-0.578125,-0.53125,0.25,0.484375,0.375
747216,-0.59375,-0.53125,0.25,0.5,0.375
753736,-0.59375,-0.53125,0.234375,0.5,0.390625
753744,-0.640625,-0.515625,0.28125,0.5,0.375
753800,-0.640625,-0.515625,0.265625,0.5,0.390625
753808,-0.609375,-0.53125,0.25,0.5,0.390625
753816,-0.65625,-0.5,0.28125,0.5,0.375
753864,-0.625,-0.515625,0.265625,0.5,0.375
753872,-0.65625,-0.5,0.28125,0.5,0.375
753928,-0.6875,-0.484375,0.3125,0.5,0.359375
753936,-0.609375,-0.53125,0.234375,0.5,0.40625
753992,-0.640625,-0.515625,0.28125,0.5,0.375
754000,-0.609375,-0.53125,0.25,0.5,0.390625
754056,-0.625,-0.515625,0.25,0.5,0.390625
754120,-0.609375,-0.53125,0.265625,0.5,0.375
754128,-0.625,-0.515625,0.265625,0.5,0.375
754184,-0.625,-0.515625,0.25,0.5,0.390625
754192,-0.640625,-0.515625,0.265625,0.515625,0.375
754248,-0.625,-0.515625,0.265625,0.5,0.375
754312,-0.609375,-0.53125,0.265625,0.5,0.375
754320,-0.640625,-0.515625,0.28125,0.5,0.375
754376,-0.65625,-0.515625,0.296875,0.515625,0.359375
754384,-0.625,-0.515625,0.25,0.5,0.390625
754440,-0.609375,-0.53125,0.25,0.5,0.390625
754504,-0.640625,-0.515625,0.28125,0.5,0.375
754512,-0.609375,-0.53125,0.265625,0.5,0.375
754568,-0.609375,-0.53125,0.265625,0.5,0.375
754576,-0.625,-0.515625,0.265625,0.5,0.375
754632,-0.625,-0.515625,0.265625,0.5,0.375
754640,-0.65625,-0.5,0.296875,0.5,0.359375
754696,-0.625,-0.515625,0.265625,0.5,0.375
754760,-0.5625,-0.546875,0.234375,0.484375,0.390625
754824,-0.609375,-0.53125,0.28125,0.5,0.359375
754888,-0.59375,-0.53125,0.25,0.5,0.375
754952,-0.59375,-0.53125,0.25,0.5,0.375
755016,-0.609375,-0.53125,0.28125,0.5,0.359375
755144,-0.609375,-0.53125,0.265625,0.5,0.375
755152,-0.640625,-0.515625,0.296875,0.5,0.359375
755160,-0.578125,-0.53125,0.25,0.484375,0.375
755272,-0.609375,-0.53125,0.28125,0.5,0.359375
755280,-0.609375,-0.53125,0.28125,0.5,0.359375
755400,-0.609375,-0.53125,0.265625,0.5,0.375
761928,-0.625,-0.515625,0.25,0.5,0.390625
761936,-0.625,-0.515625,0.25,0.5,0.390625
761992,-0.625,-0.515625,0.265625,0.5,0.375
762000,-0.625,-0.515625,0.265625,0.5,0.375
