stripid,w1,w2,w3,w4,w5,w1c,w2c,w3c,w4c,w5c
8264,-0.639888,-0.512330,0.271499,0.502280,0.378440,-0.640625,-0.515625,0.281250,0.500000,0.375000
8272,-0.639888,-0.512330,0.271499,0.502280,0.378440,-0.640625,-0.515625,0.281250,0.500000,0.375000
8328,-0.639888,-0.512330,0.271499,0.502280,0.378440,-0.640625,-0.515625,0.281250,0.500000,0.375000
8336,-0.639888,-0.512330,0.271499,0.502280,0.378440,-0.640625,-0.515625,0.281250,0.500000,0.375000
8392,-0.639888,-0.512330,0.271499,0.502280,0.378440,-0.640625,-0.515625,0.281250,0.500000,0.375000
8400,-0.639888,-0.512330,0.271499,0.502280,0.378440,-0.640625,-0.515625,0.281250,0.500000,0.375000
8456,-0.639888,-0.512330,0.271499,0.502280,0.378440,-0.640625,-0.515625,0.281250,0.500000,0.375000
8464,-0.639888,-0.512330,0.271499,0.502280,0.378440,-0.640625,-0.515625,0.281250,0.500000,0.375000
8520,-0.639888,-0.512330,0.271499,0.502280,0.378440,-0.640625,-0.515625,0.281250,0.500000,0.375000
8528,-0.639888,-0.512330,0.271499,0.502280,0.378440,-0.640625,-0.515625,0.281250,0.500000,0.375000
8584,-0.639888,-0.512330,0.271499,0.502280,0.378440,-0.640625,-0.515625,0.281250,0.500000,0.375000
8592,-0.639888,-0.512330,0.271499,0.502280,0.378440,-0.640625,-0.515625,0.281250,0.500000,0.375000
8600,-0.639888,-0.512330,0.271499,0.502280,0.378440,-0.640625,-0.515625,0.281250,0.500000,0.375000
8648,-0.639888,-0.512330,0.271499,0.502280,0.378440,-0.640625,-0.515625,0.281250,0.500000,0.375000
8656,-0.639888,-0.512330,0.271499,0.502280,0.378440,-0.640625,-0.515625,0.281250,0.500000,0.375000
8664,-0.639888,-0.512330,0.271499,0.502280,0.378440,-0.640625,-0.515625,0.281250,0.500000,0.375000
8712,-0.639888,-0.512330,0.271499,0.502280,0.378440,-0.640625,-0.515625,0.281250,0.500000,0.375000
8720,-0.639888,-0.512330,0.271499,0.502280,0.378440,-0.640625,-0.515625,0.281250,0.500000,0.375000
8776,-0.639888,-0.512330,0.271499,0.502280,0.378440,-0.640625,-0.515625,0.281250,0.500000,0.375000
8784,-0.639888,-0.512330,0.271499,0.502280,0.378440,-0.640625,-0.515625,0.281250,0.500000,0.375000
8840,-0.639888,-0.512330,0.271499,0.502280,0.378440,-0.640625,-0.515625,0.281250,0.500000,0.375000
8904,-0.639888,-0.512330,0.271499,0.502280,0.378440,-0.640625,-0.515625,0.281250,0.500000,0.375000
8968,-0.639888,-0.512330,0.271499,0.502280,0.378440,-0.640625,-0.515625,0.281250,0.500000,0.375000
8976,-0.639888,-0.512330,0.271499,0.502280,0.378440,-0.640625,-0.515625,0.281250,0.500000,0.375000
9032,-0.639888,-0.512330,0.271499,0.502280,0.378440,-0.640625,-0.515625,0.281250,0.500000,0.375000
9096,-0.639888,-0.512330,0.271499,0.502280,0.378440,-0.640625,-0.515625,0.281250,0.500000,0.375000
9160,-0.639888,-0.512330,0.271499,0.502280,0.378440,-0.640625,-0.515625,0.281250,0.500000,0.375000
9224,-0.639888,-0.512330,0.271499,0.502280,0.378440,-0.640625,-0.515625,0.281250,0.500000,0.375000
9288,-0.639888,-0.512330,0.271499,0.502280,0.378440,-0.640625,-0.515625,0.281250,0.500000,0.375000
9296,-0.639888,-0.512330,0.271499,0.502280,0.378440,-0.640625,-0.515625,0.281250,0.500000,0.375000
9352,-0.639888,-0.512330,0.271499,0.502280,0.378440,-0.640625,-0.515625,0.281250,0.500000,0.375000
9360,-0.639888,-0.512330,0.271499,0.502280,0.378440,-0.640625,-0.515625,0.281250,0.500000,0.375000
9416,-0.639888,-0.512330,0.271499,0.502280,0.378440,-0.640625,-0.515625,0.281250,0.500000,0.375000
9424,-0.639888,-0.512330,0.271499,0.502280,0.378440,-0.640625,-0.515625,0.281250,0.500000,0.375000
9480,-0.639888,-0.512330,0.271499,0.502280,0.378440,-0.640625,-0.515625,0.281250,0.500000,0.375000
9488,-0.639888,-0.512330,0.271499,0.502280,0.378440,-0.640625,-0.515625,0.281250,0.500000,0.375000
9608,-0.639888,-0.512330,0.271499,0.502280,0.378440,-0.640625,-0.515625,0.281250,0.500000,0.375000
9736,-0.639888,-0.512330,0.271499,0.502280,0.378440,-0.640625,-0.515625,0.281250,0.500000,0.375000
9864,-0.639888,-0.512330,0.271499,0.502280,0.378440,-0.640625,-0.515625,0.281250,0.500000,0.375000
9872,-0.639888,-0.512330,0.271499,0.502280,0.378440,-0.640625,-0.515625,0.281250,0.500000,0.375000
9992,-0.639888,-0.512330,0.271499,0.502280,0.378440,-0.640625,-0.515625,0.281250,0.500000,0.375000
10000,-0.639888,-0.512330,0.271499,0.502280,0.378440,-0.640625,-0.515625,0.281250,0.500000,0.375000
16456,-0.639888,-0.512330,0.271499,0.502280,0.378440,-0.640625,-0.515625,0.281250,0.500000,0.375000
16464,-0.639888,-0.512330,0.271499,0.502280,0.378440,-0.640625,-0.515625,0.281250,0.500000,0.375000
16520,-0.639888,-0.512330,0.271499,0.502280,0.378440,-0.640625,-0.515625,0.281250,0.500000,0.375000
16528,-0.639888,-0.512330,0.271499,0.502280,0.378440,-0.640625,-0.515625,0.281250,0.500000,0.375000
16536,-0.639888,-0.512330,0.271499,0.502280,0.378440,-0.640625,-0.515625,0.281250,0.500000,0.375000
16584,-0.639888,-0.512330,0.271499,0.502280,0.378440,-0.640625,-0.515625,0.281250,0.500000,0.375000
16592,-0.639888,-0.512330,0.271499,0.502280,0.378440,-0.640625,-0.515625,0.281250,0.500000,0.375000
16648,-0.639888,-0.512330,0.271499,0.502280,0.378440,-0.640625,-0.515625,0.281250,0.500000,0.375000
16656,-0.639888,-0.512330,0.271499,0.502280,0.378440,-0.640625,-0.515625,0.281250,0.500000,0.375000
16712,-0.639888,-0.512330,0.271499,0.502280,0.378440,-0.640625,-0.515625,0.281250,0.500000,0.375000
16720,-0.639888,-0.512330,0.271499,0.502280,0.378440,-0.640625,-0.515625,0.281250,0.500000,0.375000
16776,-0.639888,-0.512330,0.271499,0.502280,0.378440,-0.640625,-0.515625,0.281250,0.500000,0.375000
16840,-0.639888,-0.512330,0.271499,0.502280,0.378440,-0.640625,-0.515625,0.281250,0.500000,0.375000
16848,-0.639888,-0.512330,0.271499,0.502280,0.378440,-0.640625,-0.515625,0.281250,0.500000,0.375000
16904,-0.639888,-0.512330,0.271499,0.502280,0.378440,-0.640625,-0.515625,0.281250,0.500000,0.375000
16912,-0.639888,-0.512330,0.271499,0.502280,0.378440,-0.640625,-0.515625,0.281250,0.500000,0.375000
16968,-0.639888,-0.512330,0.271499,0.502280,0.378440,-0.640625,-0.515625,0.281250,0.500000,0.375000
17032,-0.639888,-0.512330,0.271499,0.502280,0.378440,-0.640625,-0.515625,0.281250,0.500000,0.375000
17040,-0.639888,-0.512330,0.271499,0.502280,0.378440,-0.640625,-0.515625,0.281250,0.500000,0.375000
17096,-0.639888,-0.512330,0.271499,0.502280,0.378440,-0.640625,-0.515625,0.281250,0.500000,0.375000
17104,-0.639888,-0.512330,0.271499,0.502280,0.378440,-0.640625,-0.515625,0.281250,0.500000,0.375000
17160,-0.639888,-0.512330,0.271499,0.502280,0.378440,-0.640625,-0.515625,0.281250,0.500000,0.375000
17224,-0.639888,-0.512330,0.271499,0.502280,0.378440,-0.640625,-0.515625,0.281250,0.500000,0.375000
17232,-0.639888,-0.512330,0.271499,0.502280,0.378440,-0.640625,-0.515625,0.281250,0.500000,0.375000
17288,-0.639888,-0.512330,0.271499,0.502280,0.378440,-0.640625,-0.515625,0.281250,0.500000,0.375000
17296,-0.639888,-0.512330,0.271499,0.502280,0.378440,-0.640625,-0.515625,0.281250,0.500000,0.375000
17352,-0.639888,-0.512330,0.271499,0.502280,0.378440,-0.640625,-0.515625,0.281250,0.500000,0.375000
17360,-0.639888,-0.512330,0.271499,0.502280,0.378440,-0.640625,-0.515625,0.281250,0.500000,0.375000
17416,-0.639888,-0.512330,0.271499,0.502280,0.378440,-0.640625,-0.515625,0.281250,0.500000,0.375000
17480,-0.639888,-0.512330,0.271499,0.502280,0.378440,-0.640625,-0.515625,0.281250,0.500000,0.375000
17544,-0.639888,-0.512330,0.271499,0.502280,0.378440,-0.640625,-0.515625,0.281250,0.500000,0.375000
17608,-0.639888,-0.512330,0.271499,0.502280,0.378440,-0.640625,-0.515625,0.281250,0.500000,0.375000
17672,-0.639888,-0.512330,0.271499,0.502280,0.378440,-0.640625,-0.515625,0.281250,0.500000,0.375000
17800,-0.639888,-0.512330,0.271499,0.502280,0.378440,-0.640625,-0.515625,0.281250,0.500000,0.375000
17928,-0.639888,-0.512330,0.271499,0.502280,0.378440,-0.640625,-0.515625,0.281250,0.500000,0.375000
17936,-0.639888,-0.512330,0.271499,0.502280,0.378440,-0.640625,-0.515625,0.281250,0.500000,0.375000
17944,-0.639888,-0.512330,0.271499,0.502280,0.378440,-0.640625,-0.515625,0.281250,0.500000,0.375000
18056,-0.639888,-0.512330,0.271499,0.502280,0.378440,-0.640625,-0.515625,0.281250,0.500000,0.375000
18064,-0.639888,-0.512330,0.271499,0.502280,0.378440,-0.640625,-0.515625,0.281250,0.500000,0.375000
18184,-0.639888,-0.512330,0.271499,0.502280,0.378440,-0.640625,-0.515625,0.281250,0.500000,0.375000
24648,-0.639888,-0.512330,0.271499,0.502280,0.378440,-0.640625,-0.515625,0.281250,0.500000,0.375000
24656,-0.639888,-0.512330,0.271499,0.502280,0.378440,-0.640625,-0.515625,0.281250,0.500000,0.375000
24712,-0.639888,-0.512330,0.271499,0.502280,0.378440,-0.640625,-0.515625,0.281250,0.500000,0.375000
24720,-0.639888,-0.512330,0.271499,0.502280,0.378440,-0.640625,-0.515625,0.281250,0.500000,0.375000
24776,-0.639888,-0.512330,0.271499,0.502280,0.378440,-0.640625,-0.515625,0.281250,0.500000,0.375000
24784,-0.639888,-0.512330,0.271499,0.502280,0.378440,-0.640625,-0.515625,0.281250,0.500000,0.375000
24840,-0.639888,-0.512330,0.271499,0.502280,0.378440,-0.640625,-0.515625,0.281250,0.500000,0.375000
24848,-0.639888,-0.512330,0.271499,0.502280,0.378440,-0.640625,-0.515625,0.281250,0.500000,0.375000
24904,-0.639888,-0.512330,0.271499,0.502280,0.378440,-0.640625,-0.515625,0.281250,0.500000,0.375000
24968,-0.639888,-0.512330,0.271499,0.502280,0.378440,-0.640625,-0.515625,0.281250,0.500000,0.375000
24976,-0.639888,-0.512330,0.271499,0.502280,0.378440,-0.640625,-0.515625,0.281250,0.500000,0.375000
25032,-0.639888,-0.512330,0.271499,0.502280,0.378440,-0.640625,-0.515625,0.281250,0.500000,0.375000
25040,-0.639888,-0.512330,0.271499,0.502280,0.378440,-0.640625,-0.515625,0.281250,0.500000,0.375000
25096,-0.639888,-0.512330,0.271499,0.502280,0.378440,-0.640625,-0.515625,0.281250,0.500000,0.375000
25160,-0.639888,-0.512330,0.271499,0.502280,0.378440,-0.640625,-0.515625,0.281250,0.500000,0.375000
25168,-0.639888,-0.512330,0.271499,0.502280,0.378440,-0.640625,-0.515625,0.281250,0.500000,0.375000
25224,-0.639888,-0.512330,0.271499,0.502280,0.378440,-0.640625,-0.515625,0.281250,0.500000,0.375000
25232,-0.639888,-0.512330,0.271499,0.502280,0.378440,-0.640625,-0.515625,0.281250,0.500000,0.375000
25288,-0.639888,-0.512330,0.271499,0.502280,0.378440,-0.640625,-0.515625,0.281250,0.500000,0.375000
25296,-0.639888,-0.512330,0.271499,0.502280,0.378440,-0.640625,-0.515625,0.281250,0.500000,0.375000
25352,-0.639888,-0.512330,0.271499,0.502280,0.378440,-0.640625,-0.515625,0.281250,0.500000,0.375000
25360,-0.639888,-0.512330,0.271499,0.502280,0.378440,-0.640625,-0.515625,0.281250,0.500000,0.375000
25416,-0.639888,-0.512330,0.271499,0.502280,0.378440,-0.640625,-0.515625,0.281250,0.500000,0.375000
25424,-0.639888,-0.512330,0.271499,0.502280,0.378440,-0.640625,-0.515625,0.281250,0.500000,0.375000
25480,-0.639888,-0.512330,0.271499,0.502280,0.378440,-0.640625,-0.515625,0.281250,0.500000,0.375000
25544,-0.639888,-0.512330,0.271499,0.502280,0.378440,-0.640625,-0.515625,0.281250,0.500000,0.375000
25552,-0.639888,-0.512330,0.271499,0.502280,0.378440,-0.640625,-0.515625,0.281250,0.500000,0.375000
25608,-0.639888,-0.512330,0.271499,0.502280,0.378440,-0.640625,-0.515625,0.281250,0.500000,0.375000
25672,-0.639888,-0.512330,0.271499,0.502280,0.378440,-0.640625,-0.515625,0.281250,0.500000,0.375000
25736,-0.639888,-0.512330,0.271499,0.502280,0.378440,-0.640625,-0.515625,0.281250,0.500000,0.375000
25800,-0.639888,-0.512330,0.271499,0.502280,0.378440,-0.640625,-0.515625,0.281250,0.500000,0.375000
25808,-0.639888,-0.512330,0.271499,0.502280,0.378440,-0.640625,-0.515625,0.281250,0.500000,0.375000
25864,-0.639888,-0.512330,0.271499,0.502280,0.378440,-0.640625,-0.515625,0.281250,0.500000,0.375000
25872,-0.639888,-0.512330,0.271499,0.502280,0.378440,-0.640625,-0.515625,0.281250,0.500000,0.375000
25992,-0.639888,-0.512330,0.271499,0.502280,0.378440,-0.640625,-0.515625,0.281250,0.500000,0.375000
26120,-0.639888,-0.512330,0.271499,0.502280,0.378440,-0.640625,-0.515625,0.281250,0.500000,0.375000
26128,-0.639888,-0.512330,0.271499,0.502280,0.378440,-0.640625,-0.515625,0.281250,0.500000,0.375000
26248,-0.639888,-0.512330,0.271499,0.502280,0.378440,-0.640625,-0.515625,0.281250,0.500000,0.375000
26256,-0.639888,-0.512330,0.271499,0.502280,0.378440,-0.640625,-0.515625,0.281250,0.500000,0.375000
26264,-0.639888,-0.512330,0.271499,0.502280,0.378440,-0.640625,-0.515625,0.281250,0.500000,0.375000
26376,-0.639888,-0.512330,0.271499,0.502280,0.378440,-0.640625,-0.515625,0.281250,0.500000,0.375000
32840,-0.639888,-0.512330,0.271499,0.502280,0.378440,-0.640625,-0.515625,0.281250,0.500000,0.375000
32848,-0.639888,-0.512330,0.271499,0.502280,0.378440,-0.640625,-0.515625,0.281250,0.500000,0.375000
32904,-0.639888,-0.512330,0.271499,0.502280,0.378440,-0.640625,-0.515625,0.281250,0.500000,0.375000
32912,-0.639888,-0.512330,0.271499,0.502280,0.378440,-0.640625,-0.515625,0.281250,0.500000,0.375000
32968,-0.639888,-0.512330,0.271499,0.502280,0.378440,-0.640625,-0.515625,0.281250,0.500000,0.375000
32976,-0.639888,-0.512330,0.271499,0.502280,0.378440,-0.640625,-0.515625,0.281250,0.500000,0.375000
33032,-0.639888,-0.512330,0.271499,0.502280,0.378440,-0.640625,-0.515625,0.281250,0.500000,0.375000
33040,-0.639888,-0.512330,0.271499,0.502280,0.378440,-0.640625,-0.515625,0.281250,0.500000,0.375000
33096,-0.639888,-0.512330,0.271499,0.502280,0.378440,-0.640625,-0.515625,0.281250,0.500000,0.375000
33104,-0.639888,-0.512330,0.271499,0.502280,0.378440,-0.640625,-0.515625,0.281250,0.500000,0.375000
33160,-0.639888,-0.512330,0.271499,0.502280,0.378440,-0.640625,-0.515625,0.281250,0.500000,0.375000
33224,-0.639888,-0.512330,0.271499,0.502280,0.378440,-0.640625,-0.515625,0.281250,0.500000,0.375000
33232,-0.639888,-0.512330,0.271499,0.502280,0.378440,-0.640625,-0.515625,0.281250,0.500000,0.375000
33288,-0.639888,-0.512330,0.271499,0.502280,0.378440,-0.640625,-0.515625,0.281250,0.500000,0.375000
33296,-0.639888,-0.512330,0.271499,0.502280,0.378440,-0.640625,-0.515625,0.281250,0.500000,0.375000
33352,-0.639888,-0.512330,0.271499,0.502280,0.378440,-0.640625,-0.515625,0.281250,0.500000,0.375000
33360,-0.639888,-0.512330,0.271499,0.502280,0.378440,-0.640625,-0.515625,0.281250,0.500000,0.375000
33416,-0.639888,-0.512330,0.271499,0.502280,0.378440,-0.640625,-0.515625,0.281250,0.500000,0.375000
33424,-0.639888,-0.512330,0.271499,0.502280,0.378440,-0.640625,-0.515625,0.281250,0.500000,0.375000
33480,-0.639888,-0.512330,0.271499,0.502280,0.378440,-0.640625,-0.515625,0.281250,0.500000,0.375000
33544,-0.639888,-0.512330,0.271499,0.502280,0.378440,-0.640625,-0.515625,0.281250,0.500000,0.375000
33552,-0.639888,-0.512330,0.271499,0.502280,0.378440,-0.640625,-0.515625,0.281250,0.500000,0.375000
33608,-0.639888,-0.512330,0.271499,0.502280,0.378440,-0.640625,-0.515625,0.281250,0.500000,0.375000
33672,-0.639888,-0.512330,0.271499,0.502280,0.378440,-0.640625,-0.515625,0.281250,0.500000,0.375000
33680,-0.639888,-0.512330,0.271499,0.502280,0.378440,-0.640625,-0.515625,0.281250,0.500000,0.375000
33736,-0.639888,-0.512330,0.271499,0.502280,0.378440,-0.640625,-0.515625,0.281250,0.500000,0.375000
33800,-0.639888,-0.512330,0.271499,0.502280,0.378440,-0.640625,-0.515625,0.281250,0.500000,0.375000
33808,-0.639888,-0.512330,0.271499,0.502280,0.378440,-0.640625,-0.515625,0.281250,0.500000,0.375000
33864,-0.639888,-0.512330,0.271499,0.502280,0.378440,-0.640625,-0.515625,0.281250,0.500000,0.375000
33928,-0.639888,-0.512330,0.271499,0.502280,0.378440,-0.640625,-0.515625,0.281250,0.500000,0.375000
33992,-0.639888,-0.512330,0.271499,0.502280,0.378440,-0.640625,-0.515625,0.281250,0.500000,0.375000
34056,-0.639888,-0.512330,0.271499,0.502280,0.378440,-0.640625,-0.515625,0.281250,0.500000,0.375000
34184,-0.639888,-0.512330,0.271499,0.502280,0.378440,-0.640625,-0.515625,0.281250,0.500000,0.375000
34192,-0.639888,-0.512330,0.271499,0.502280,0.378440,-0.640625,-0.515625,0.281250,0.500000,0.375000
34312,-0.639888,-0.512330,0.271499,0.502280,0.378440,-0.640625,-0.515625,0.281250,0.500000,0.375000
34320,-0.639888,-0.512330,0.271499,0.502280,0.378440,-0.640625,-0.515625,0.281250,0.500000,0.375000
34328,-0.639888,-0.512330,0.271499,0.502280,0.378440,-0.640625,-0.515625,0.281250,0.500000,0.375000
34440,-0.639888,-0.512330,0.271499,0.502280,0.378440,-0.640625,-0.515625,0.281250,0.500000,0.375000
34448,-0.639888,-0.512330,0.271499,0.502280,0.378440,-0.640625,-0.515625,0.281250,0.500000,0.375000
34568,-0.639888,-0.512330,0.271499,0.502280,0.378440,-0.640625,-0.515625,0.281250,0.500000,0.375000
41032,-0.639888,-0.512330,0.271499,0.502280,0.378440,-0.640625,-0.515625,0.281250,0.500000,0.375000
41040,-0.639888,-0.512330,0.271499,0.502280,0.378440,-0.640625,-0.515625,0.281250,0.500000,0.375000
41048,-0.639888,-0.512330,0.271499,0.502280,0.378440,-0.640625,-0.515625,0.281250,0.500000,0.375000
41096,-0.639888,-0.512330,0.271499,0.502280,0.378440,-0.640625,-0.515625,0.281250,0.500000,0.375000
41104,-0.639888,-0.512330,0.271499,0.502280,0.378440,-0.640625,-0.515625,0.281250,0.500000,0.375000
41160,-0.639888,-0.512330,0.271499,0.502280,0.378440,-0.640625,-0.515625,0.281250,0.500000,0.375000
41168,-0.639888,-0.512330,0.271499,0.502280,0.378440,-0.640625,-0.515625,0.281250,0.500000,0.375000
41224,-0.639888,-0.512330,0.271499,0.502280,0.378440,-0.640625,-0.515625,0.281250,0.500000,0.375000
41232,-0.639888,-0.512330,0.271499,0.502280,0.378440,-0.640625,-0.515625,0.281250,0.500000,0.375000
41288,-0.639888,-0.512330,0.271499,0.502280,0.378440,-0.640625,-0.515625,0.281250,0.500000,0.375000
41352,-0.639888,-0.512330,0.271499,0.502280,0.378440,-0.640625,-0.515625,0.281250,0.500000,0.375000
41360,-0.639888,-0.512330,0.271499,0.502280,0.378440,-0.640625,-0.515625,0.281250,0.500000,0.375000
41416,-0.639888,-0.512330,0.271499,0.502280,0.378440,-0.640625,-0.515625,0.281250,0.500000,0.375000
41424,-0.639888,-0.512330,0.271499,0.502280,0.378440,-0.640625,-0.515625,0.281250,0.500000,0.375000
41480,-0.639888,-0.512330,0.271499,0.502280,0.378440,-0.640625,-0.515625,0.281250,0.500000,0.375000
41488,-0.639888,-0.512330,0.271499,0.502280,0.378440,-0.640625,-0.515625,0.281250,0.500000,0.375000
41496,-0.639888,-0.512330,0.271499,0.502280,0.378440,-0.640625,-0.515625,0.281250,0.500000,0.375000
41544,-0.639888,-0.512330,0.271499,0.502280,0.378440,-0.640625,-0.515625,0.281250,0.500000,0.375000
41552,-0.639888,-0.512330,0.271499,0.502280,0.378440,-0.640625,-0.515625,0.281250,0.500000,0.375000
41608,-0.639888,-0.512330,0.271499,0.502280,0.378440,-0.640625,-0.515625,0.281250,0.500000,0.375000
41672,-0.639888,-0.512330,0.271499,0.502280,0.378440,-0.640625,-0.515625,0.281250,0.500000,0.375000
41680,-0.639888,-0.512330,0.271499,0.502280,0.378440,-0.640625,-0.515625,0.281250,0.500000,0.375000
41736,-0.639888,-0.512330,0.271499,0.502280,0.378440,-0.640625,-0.515625,0.281250,0.500000,0.375000
41800,-0.639888,-0.512330,0.271499,0.502280,0.378440,-0.640625,-0.515625,0.281250,0.500000,0.375000
41808,-0.639888,-0.512330,0.271499,0.502280,0.378440,-0.640625,-0.515625,0.281250,0.500000,0.375000
41864,-0.639888,-0.512330,0.271499,0.502280,0.378440,-0.640625,-0.515625,0.281250,0.500000,0.375000
41872,-0.639888,-0.512330,0.271499,0.502280,0.378440,-0.640625,-0.515625,0.281250,0.500000,0.375000
41928,-0.639888,-0.512330,0.271499,0.502280,0.378440,-0.640625,-0.515625,0.281250,0.500000,0.375000
41992,-0.639888,-0.512330,0.271499,0.502280,0.378440,-0.640625,-0.515625,0.281250,0.500000,0.375000
42056,-0.639888,-0.512330,0.271499,0.502280,0.378440,-0.640625,-0.515625,0.281250,0.500000,0.375000
42120,-0.639888,-0.512330,0.271499,0.502280,0.378440,-0.640625,-0.515625,0.281250,0.500000,0.375000
42184,-0.639888,-0.512330,0.271499,0.502280,0.378440,-0.640625,-0.515625,0.281250,0.500000,0.375000
42192,-0.639888,-0.512330,0.271499,0.502280,0.378440,-0.640625,-0.515625,0.281250,0.500000,0.375000
42248,-0.639888,-0.512330,0.271499,0.502280,0.378440,-0.640625,-0.515625,0.281250,0.500000,0.375000
42256,-0.639888,-0.512330,0.271499,0.502280,0.378440,-0.640625,-0.515625,0.281250,0.500000,0.375000
42376,-0.639888,-0.512330,0.271499,0.502280,0.378440,-0.640625,-0.515625,0.281250,0.500000,0.375000
42504,-0.639888,-0.512330,0.271499,0.502280,0.378440,-0.640625,-0.515625,0.281250,0.500000,0.375000
42632,-0.639888,-0.512330,0.271499,0.502280,0.378440,-0.640625,-0.515625,0.281250,0.500000,0.375000
42640,-0.639888,-0.512330,0.271499,0.502280,0.378440,-0.640625,-0.515625,0.281250,0.500000,0.375000
42760,-0.639888,-0.512330,0.271499,0.502280,0.378440,-0.640625,-0.515625,0.281250,0.500000,0.375000
42768,-0.639888,-0.512330,0.271499,0.502280,0.378440,-0.640625,-0.515625,0.281250,0.500000,0.375000
49224,-0.639888,-0.512330,0.271499,0.502280,0.378440,-0.640625,-0.515625,0.281250,0.500000,0.375000
49232,-0.639888,-0.512330,0.271499,0.502280,0.378440,-0.640625,-0.515625,0.281250,0.500000,0.375000
49288,-0.639888,-0.512330,0.271499,0.502280,0.378440,-0.640625,-0.515625,0.281250,0.500000,0.375000
49296,-0.639888,-0.512330,0.271499,0.502280,0.378440,-0.640625,-0.515625,0.281250,0.500000,0.375000
49352,-0.639888,-0.512330,0.271499,0.502280,0.378440,-0.640625,-0.515625,0.281250,0.500000,0.375000
49360,-0.639888,-0.512330,0.271499,0.502280,0.378440,-0.640625,-0.515625,0.281250,0.500000,0.375000
49416,-0.639888,-0.512330,0.271499,0.502280,0.378440,-0.640625,-0.515625,0.281250,0.500000,0.375000
49424,-0.639888,-0.512330,0.271499,0.502280,0.378440,-0.640625,-0.515625,0.281250,0.500000,0.375000
49432,-0.639888,-0.512330,0.271499,0.502280,0.378440,-0.640625,-0.515625,0.281250,0.500000,0.375000
49480,-0.639888,-0.512330,0.271499,0.502280,0.378440,-0.640625,-0.515625,0.281250,0.500000,0.375000
49488,-0.639888,-0.512330,0.271499,0.502280,0.378440,-0.640625,-0.515625,0.281250,0.500000,0.375000
49496,-0.639888,-0.512330,0.271499,0.502280,0.378440,-0.640625,-0.515625,0.281250,0.500000,0.375000
49544,-0.639888,-0.512330,0.271499,0.502280,0.378440,-0.640625,-0.515625,0.281250,0.500000,0.375000
49552,-0.639888,-0.512330,0.271499,0.502280,0.378440,-0.640625,-0.515625,0.281250,0.500000,0.375000
49608,-0.639888,-0.512330,0.271499,0.502280,0.378440,-0.640625,-0.515625,0.281250,0.500000,0.375000
49616,-0.639888,-0.512330,0.271499,0.502280,0.378440,-0.640625,-0.515625,0.281250,0.500000,0.375000
49672,-0.639888,-0.512330,0.271499,0.502280,0.378440,-0.640625,-0.515625,0.281250,0.500000,0.375000
49736,-0.639888,-0.512330,0.271499,0.502280,0.378440,-0.640625,-0.515625,0.281250,0.500000,0.375000
49800,-0.639888,-0.512330,0.271499,0.502280,0.378440,-0.640625,-0.515625,0.281250,0.500000,0.375000
49808,-0.639888,-0.512330,0.271499,0.502280,0.378440,-0.640625,-0.515625,0.281250,0.500000,0.375000
49864,-0.639888,-0.512330,0.271499,0.502280,0.378440,-0.640625,-0.515625,0.281250,0.500000,0.375000
49928,-0.639888,-0.512330,0.271499,0.502280,0.378440,-0.640625,-0.515625,0.281250,0.500000,0.375000
49936,-0.639888,-0.512330,0.271499,0.502280,0.378440,-0.640625,-0.515625,0.281250,0.500000,0.375000
49992,-0.639888,-0.512330,0.271499,0.502280,0.378440,-0.640625,-0.515625,0.281250,0.500000,0.375000
50056,-0.639888,-0.512330,0.271499,0.502280,0.378440,-0.640625,-0.515625,0.281250,0.500000,0.375000
50120,-0.639888,-0.512330,0.271499,0.502280,0.378440,-0.640625,-0.515625,0.281250,0.500000,0.375000
50128,-0.639888,-0.512330,0.271499,0.502280,0.378440,-0.640625,-0.515625,0.281250,0.500000,0.375000
50184,-0.639888,-0.512330,0.271499,0.502280,0.378440,-0.640625,-0.515625,0.281250,0.500000,0.375000
50192,-0.639888,-0.512330,0.271499,0.502280,0.378440,-0.640625,-0.515625,0.281250,0.500000,0.375000
50248,-0.639888,-0.512330,0.271499,0.502280,0.378440,-0.640625,-0.515625,0.281250,0.500000,0.375000
50256,-0.639888,-0.512330,0.271499,0.502280,0.378440,-0.640625,-0.515625,0.281250,0.500000,0.375000
50312,-0.639888,-0.512330,0.271499,0.502280,0.378440,-0.640625,-0.515625,0.281250,0.500000,0.375000
50320,-0.639888,-0.512330,0.271499,0.502280,0.378440,-0.640625,-0.515625,0.281250,0.500000,0.375000
50376,-0.639888,-0.512330,0.271499,0.502280,0.378440,-0.640625,-0.515625,0.281250,0.500000,0.375000
50440,-0.639888,-0.512330,0.271499,0.502280,0.378440,-0.640625,-0.515625,0.281250,0.500000,0.375000
50568,-0.639888,-0.512330,0.271499,0.502280,0.378440,-0.640625,-0.515625,0.281250,0.500000,0.375000
50696,-0.639888,-0.512330,0.271499,0.502280,0.378440,-0.640625,-0.515625,0.281250,0.500000,0.375000
50824,-0.639888,-0.512330,0.271499,0.502280,0.378440,-0.640625,-0.515625,0.281250,0.500000,0.375000
50832,-0.639888,-0.512330,0.271499,0.502280,0.378440,-0.640625,-0.515625,0.281250,0.500000,0.375000
50952,-0.639888,-0.512330,0.271499,0.502280,0.378440,-0.640625,-0.515625,0.281250,0.500000,0.375000
50960,-0.639888,-0.512330,0.271499,0.502280,0.378440,-0.640625,-0.515625,0.281250,0.500000,0.375000
57416,-0.639888,-0.512330,0.271499,0.502280,0.378440,-0.640625,-0.515625,0.281250,0.500000,0.375000
57424,-0.639888,-0.512330,0.271499,0.502280,0.378440,-0.640625,-0.515625,0.281250,0.500000,0.375000
57480,-0.639888,-0.512330,0.271499,0.502280,0.378440,-0.640625,-0.515625,0.281250,0.500000,0.375000
57488,-0.639888,-0.512330,0.271499,0.502280,0.378440,-0.640625,-0.515625,0.281250,0.500000,0.375000
57544,-0.639888,-0.512330,0.271499,0.502280,0.378440,-0.640625,-0.515625,0.281250,0.500000,0.375000
57552,-0.639888,-0.512330,0.271499,0.502280,0.378440,-0.640625,-0.515625,0.281250,0.500000,0.375000
57608,-0.639888,-0.512330,0.271499,0.502280,0.378440,-0.640625,-0.515625,0.281250,0.500000,0.375000
57616,-0.639888,-0.512330,0.271499,0.502280,0.378440,-0.640625,-0.515625,0.281250,0.500000,0.375000
57672,-0.639888,-0.512330,0.271499,0.502280,0.378440,-0.640625,-0.515625,0.281250,0.500000,0.375000
57680,-0.639888,-0.512330,0.271499,0.502280,0.378440,-0.640625,-0.515625,0.281250,0.500000,0.375000
57736,-0.639888,-0.512330,0.271499,0.502280,0.378440,-0.640625,-0.515625,0.281250,0.500000,0.375000
57744,-0.639888,-0.512330,0.271499,0.502280,0.378440,-0.640625,-0.515625,0.281250,0.500000,0.375000
57800,-0.639888,-0.512330,0.271499,0.502280,0.378440,-0.640625,-0.515625,0.281250,0.500000,0.375000
57864,-0.639888,-0.512330,0.271499,0.502280,0.378440,-0.640625,-0.515625,0.281250,0.500000,0.375000
57872,-0.639888,-0.512330,0.271499,0.502280,0.378440,-0.640625,-0.515625,0.281250,0.500000,0.375000
57928,-0.639888,-0.512330,0.271499,0.502280,0.378440,-0.640625,-0.515625,0.281250,0.500000,0.375000
57936,-0.639888,-0.512330,0.271499,0.502280,0.378440,-0.640625,-0.515625,0.281250,0.500000,0.375000
57992,-0.639888,-0.512330,0.271499,0.502280,0.378440,-0.640625,-0.515625,0.281250,0.500000,0.375000
58056,-0.639888,-0.512330,0.271499,0.502280,0.378440,-0.640625,-0.515625,0.281250,0.500000,0.375000
58064,-0.639888,-0.512330,0.271499,0.502280,0.378440,-0.640625,-0.515625,0.281250,0.500000,0.375000
58120,-0.639888,-0.512330,0.271499,0.502280,0.378440,-0.640625,-0.515625,0.281250,0.500000,0.375000
58128,-0.639888,-0.512330,0.271499,0.502280,0.378440,-0.640625,-0.515625,0.281250,0.500000,0.375000
58184,-0.639888,-0.512330,0.271499,0.502280,0.378440,-0.640625,-0.515625,0.281250,0.500000,0.375000
58192,-0.639888,-0.512330,0.271499,0.502280,0.378440,-0.640625,-0.515625,0.281250,0.500000,0.375000
58248,-0.639888,-0.512330,0.271499,0.502280,0.378440,-0.640625,-0.515625,0.281250,0.500000,0.375000
58312,-0.639888,-0.512330,0.271499,0.502280,0.378440,-0.640625,-0.515625,0.281250,0.500000,0.375000
58320,-0.639888,-0.512330,0.271499,0.502280,0.378440,-0.640625,-0.515625,0.281250,0.500000,0.375000
58376,-0.639888,-0.512330,0.271499,0.502280,0.378440,-0.640625,-0.515625,0.281250,0.500000,0.375000
58440,-0.639888,-0.512330,0.271499,0.502280,0.378440,-0.640625,-0.515625,0.281250,0.500000,0.375000
58504,-0.639888,-0.512330,0.271499,0.502280,0.378440,-0.640625,-0.515625,0.281250,0.500000,0.375000
58568,-0.639888,-0.512330,0.271499,0.502280,0.378440,-0.640625,-0.515625,0.281250,0.500000,0.375000
58632,-0.639888,-0.512330,0.271499,0.502280,0.378440,-0.640625,-0.515625,0.281250,0.500000,0.375000
58760,-0.639888,-0.512330,0.271499,0.502280,0.378440,-0.640625,-0.515625,0.281250,0.500000,0.375000
58768,-0.639888,-0.512330,0.271499,0.502280,0.378440,-0.640625,-0.515625,0.281250,0.500000,0.375000
58776,-0.639888,-0.512330,0.271499,0.502280,0.378440,-0.640625,-0.515625,0.281250,0.500000,0.375000
58888,-0.639888,-0.512330,0.271499,0.502280,0.378440,-0.640625,-0.515625,0.281250,0.500000,0.375000
59016,-0.639888,-0.512330,0.271499,0.502280,0.378440,-0.640625,-0.515625,0.281250,0.500000,0.375000
59144,-0.639888,-0.512330,0.271499,0.502280,0.378440,-0.640625,-0.515625,0.281250,0.500000,0.375000
59152,-0.639888,-0.512330,0.271499,0.502280,0.378440,-0.640625,-0.515625,0.281250,0.500000,0.375000
59160,-0.639888,-0.512330,0.271499,0.502280,0.378440,-0.640625,-0.515625,0.281250,0.500000,0.375000
65608,-0.639888,-0.512330,0.271499,0.502280,0.378440,-0.640625,-0.515625,0.281250,0.500000,0.375000
65616,-0.639888,-0.512330,0.271499,0.502280,0.378440,-0.640625,-0.515625,0.281250,0.500000,0.375000
65672,-0.639888,-0.512330,0.271499,0.502280,0.378440,-0.640625,-0.515625,0.281250,0.500000,0.375000
65680,-0.639888,-0.512330,0.271499,0.502280,0.378440,-0.640625,-0.515625,0.281250,0.500000,0.375000
65736,-0.639888,-0.512330,0.271499,0.502280,0.378440,-0.640625,-0.515625,0.281250,0.500000,0.375000
65744,-0.639888,-0.512330,0.271499,0.502280,0.378440,-0.640625,-0.515625,0.281250,0.500000,0.375000
65800,-0.639888,-0.512330,0.271499,0.502280,0.378440,-0.640625,-0.515625,0.281250,0.500000,0.375000
65808,-0.639888,-0.512330,0.271499,0.502280,0.378440,-0.640625,-0.515625,0.281250,0.500000,0.375000
65864,-0.639888,-0.512330,0.271499,0.502280,0.378440,-0.640625,-0.515625,0.281250,0.500000,0.375000
65872,-0.639888,-0.512330,0.271499,0.502280,0.378440,-0.640625,-0.515625,0.281250,0.500000,0.375000
65928,-0.639888,-0.512330,0.271499,0.502280,0.378440,-0.640625,-0.515625,0.281250,0.500000,0.375000
65992,-0.639888,-0.512330,0.271499,0.502280,0.378440,-0.640625,-0.515625,0.281250,0.500000,0.375000
66000,-0.639888,-0.512330,0.271499,0.502280,0.378440,-0.640625,-0.515625,0.281250,0.500000,0.375000
66056,-0.639888,-0.512330,0.271499,0.502280,0.378440,-0.640625,-0.515625,0.281250,0.500000,0.375000
66120,-0.639888,-0.512330,0.271499,0.502280,0.378440,-0.640625,-0.515625,0.281250,0.500000,0.375000
66128,-0.639888,-0.512330,0.271499,0.502280,0.378440,-0.640625,-0.515625,0.281250,0.500000,0.375000
66184,-0.639888,-0.512330,0.271499,0.502280,0.378440,-0.640625,-0.515625,0.281250,0.500000,0.375000
66192,-0.639888,-0.512330,0.271499,0.502280,0.378440,-0.640625,-0.515625,0.281250,0.500000,0.375000
66248,-0.639888,-0.512330,0.271499,0.502280,0.378440,-0.640625,-0.515625,0.281250,0.500000,0.375000
66256,-0.639888,-0.512330,0.271499,0.502280,0.378440,-0.640625,-0.515625,0.281250,0.500000,0.375000
66312,-0.639888,-0.512330,0.271499,0.502280,0.378440,-0.640625,-0.515625,0.281250,0.500000,0.375000
66320,-0.639888,-0.512330,0.271499,0.502280,0.378440,-0.640625,-0.515625,0.281250,0.500000,0.375000
66376,-0.639888,-0.512330,0.271499,0.502280,0.378440,-0.640625,-0.515625,0.281250,0.500000,0.375000
66384,-0.639888,-0.512330,0.271499,0.502280,0.378440,-0.640625,-0.515625,0.281250,0.500000,0.375000
66440,-0.639888,-0.512330,0.271499,0.502280,0.378440,-0.640625,-0.515625,0.281250,0.500000,0.375000
66504,-0.639888,-0.512330,0.271499,0.502280,0.378440,-0.640625,-0.515625,0.281250,0.500000,0.375000
66568,-0.639888,-0.512330,0.271499,0.502280,0.378440,-0.640625,-0.515625,0.281250,0.500000,0.375000
66576,-0.639888,-0.512330,0.271499,0.502280,0.378440,-0.640625,-0.515625,0.281250,0.500000,0.375000
66632,-0.639888,-0.512330,0.271499,0.502280,0.378440,-0.640625,-0.515625,0.281250,0.500000,0.375000
66640,-0.639888,-0.512330,0.271499,0.502280,0.378440,-0.640625,-0.515625,0.281250,0.500000,0.375000
66696,-0.639888,-0.512330,0.271499,0.502280,0.378440,-0.640625,-0.515625,0.281250,0.500000,0.375000
66704,-0.639888,-0.512330,0.271499,0.502280,0.378440,-0.640625,-0.515625,0.281250,0.500000,0.375000
66760,-0.639888,-0.512330,0.271499,0.502280,0.378440,-0.640625,-0.515625,0.281250,0.500000,0.375000
66824,-0.639888,-0.512330,0.271499,0.502280,0.378440,-0.640625,-0.515625,0.281250,0.500000,0.375000
66952,-0.639888,-0.512330,0.271499,0.502280,0.378440,-0.640625,-0.515625,0.281250,0.500000,0.375000
66960,-0.639888,-0.512330,0.271499,0.502280,0.378440,-0.640625,-0.515625,0.281250,0.500000,0.375000
67080,-0.639888,-0.512330,0.271499,0.502280,0.378440,-0.640625,-0.515625,0.281250,0.500000,0.375000
67088,-0.639888,-0.512330,0.271499,0.502280,0.378440,-0.640625,-0.515625,0.281250,0.500000,0.375000
67208,-0.639888,-0.512330,0.271499,0.502280,0.378440,-0.640625,-0.515625,0.281250,0.500000,0.375000
67336,-0.639888,-0.512330,0.271499,0.502280,0.378440,-0.640625,-0.515625,0.281250,0.500000,0.375000
67344,-0.639888,-0.512330,0.271499,0.502280,0.378440,-0.640625,-0.515625,0.281250,0.500000,0.375000
73800,-0.639888,-0.512330,0.271499,0.502280,0.378440,-0.640625,-0.515625,0.281250,0.500000,0.375000
73808,-0.639888,-0.512330,0.271499,0.502280,0.378440,-0.640625,-0.515625,0.281250,0.500000,0.375000
73864,-0.639888,-0.512330,0.271499,0.502280,0.378440,-0.640625,-0.515625,0.281250,0.500000,0.375000
73872,-0.639888,-0.512330,0.271499,0.502280,0.378440,-0.640625,-0.515625,0.281250,0.500000,0.375000
73928,-0.639888,-0.512330,0.271499,0.502280,0.378440,-0.640625,-0.515625,0.281250,0.500000,0.375000
73936,-0.639888,-0.512330,0.271499,0.502280,0.378440,-0.640625,-0.515625,0.281250,0.500000,0.375000
73944,-0.639888,-0.512330,0.271499,0.502280,0.378440,-0.640625,-0.515625,0.281250,0.500000,0.375000
73992,-0.639888,-0.512330,0.271499,0.502280,0.378440,-0.640625,-0.515625,0.281250,0.500000,0.375000
74000,-0.639888,-0.512330,0.271499,0.502280,0.378440,-0.640625,-0.515625,0.281250,0.500000,0.375000
74056,-0.639888,-0.512330,0.271499,0.502280,0.378440,-0.640625,-0.515625,0.281250,0.500000,0.375000
74064,-0.639888,-0.512330,0.271499,0.502280,0.378440,-0.640625,-0.515625,0.281250,0.500000,0.375000
74120,-0.639888,-0.512330,0.271499,0.502280,0.378440,-0.640625,-0.515625,0.281250,0.500000,0.375000
74128,-0.639888,-0.512330,0.271499,0.502280,0.378440,-0.640625,-0.515625,0.281250,0.500000,0.375000
74184,-0.639888,-0.512330,0.271499,0.502280,0.378440,-0.640625,-0.515625,0.281250,0.500000,0.375000
74248,-0.639888,-0.512330,0.271499,0.502280,0.378440,-0.640625,-0.515625,0.281250,0.500000,0.375000
74256,-0.639888,-0.512330,0.271499,0.502280,0.378440,-0.640625,-0.515625,0.281250,0.500000,0.375000
74312,-0.639888,-0.512330,0.271499,0.502280,0.378440,-0.640625,-0.515625,0.281250,0.500000,0.375000
74376,-0.639888,-0.512330,0.271499,0.502280,0.378440,-0.640625,-0.515625,0.281250,0.500000,0.375000
74384,-0.639888,-0.512330,0.271499,0.502280,0.378440,-0.640625,-0.515625,0.281250,0.500000,0.375000
74440,-0.639888,-0.512330,0.271499,0.502280,0.378440,-0.640625,-0.515625,0.281250,0.500000,0.375000
74448,-0.639888,-0.512330,0.271499,0.502280,0.378440,-0.640625,-0.515625,0.281250,0.500000,0.375000
74504,-0.639888,-0.512330,0.271499,0.502280,0.378440,-0.640625,-0.515625,0.281250,0.500000,0.375000
74568,-0.639888,-0.512330,0.271499,0.502280,0.378440,-0.640625,-0.515625,0.281250,0.500000,0.375000
74632,-0.639888,-0.512330,0.271499,0.502280,0.378440,-0.640625,-0.515625,0.281250,0.500000,0.375000
74640,-0.639888,-0.512330,0.271499,0.502280,0.378440,-0.640625,-0.515625,0.281250,0.500000,0.375000
74696,-0.639888,-0.512330,0.271499,0.502280,0.378440,-0.640625,-0.515625,0.281250,0.500000,0.375000
74704,-0.639888,-0.512330,0.271499,0.502280,0.378440,-0.640625,-0.515625,0.281250,0.500000,0.375000
74760,-0.639888,-0.512330,0.271499,0.502280,0.378440,-0.640625,-0.515625,0.281250,0.500000,0.375000
74768,-0.639888,-0.512330,0.271499,0.502280,0.378440,-0.640625,-0.515625,0.281250,0.500000,0.375000
74824,-0.639888,-0.512330,0.271499,0.502280,0.378440,-0.640625,-0.515625,0.281250,0.500000,0.375000
74888,-0.639888,-0.512330,0.271499,0.502280,0.378440,-0.640625,-0.515625,0.281250,0.500000,0.375000
74952,-0.639888,-0.512330,0.271499,0.502280,0.378440,-0.640625,-0.515625,0.281250,0.500000,0.375000
75016,-0.639888,-0.512330,0.271499,0.502280,0.378440,-0.640625,-0.515625,0.281250,0.500000,0.375000
75144,-0.639888,-0.512330,0.271499,0.502280,0.378440,-0.640625,-0.515625,0.281250,0.500000,0.375000
75152,-0.639888,-0.512330,0.271499,0.502280,0.378440,-0.640625,-0.515625,0.281250,0.500000,0.375000
75160,-0.639888,-0.512330,0.271499,0.502280,0.378440,-0.640625,-0.515625,0.281250,0.500000,0.375000
75272,-0.639888,-0.512330,0.271499,0.502280,0.378440,-0.640625,-0.515625,0.281250,0.500000,0.375000
75400,-0.639888,-0.512330,0.271499,0.502280,0.378440,-0.640625,-0.515625,0.281250,0.500000,0.375000
75528,-0.639888,-0.512330,0.271499,0.502280,0.378440,-0.640625,-0.515625,0.281250,0.500000,0.375000
75536,-0.639888,-0.512330,0.271499,0.502280,0.378440,-0.640625,-0.515625,0.281250,0.500000,0.375000
81992,-0.639888,-0.512330,0.271499,0.502280,0.378440,-0.640625,-0.515625,0.281250,0.500000,0.375000
82000,-0.639888,-0.512330,0.271499,0.502280,0.378440,-0.640625,-0.515625,0.281250,0.500000,0.375000
82056,-0.639888,-0.512330,0.271499,0.502280,0.378440,-0.640625,-0.515625,0.281250,0.500000,0.375000
82064,-0.639888,-0.512330,0.271499,0.502280,0.378440,-0.640625,-0.515625,0.281250,0.500000,0.375000
82120,-0.639888,-0.512330,0.271499,0.502280,0.378440,-0.640625,-0.515625,0.281250,0.500000,0.375000
82128,-0.639888,-0.512330,0.271499,0.502280,0.378440,-0.640625,-0.515625,0.281250,0.500000,0.375000
82184,-0.639888,-0.512330,0.271499,0.502280,0.378440,-0.640625,-0.515625,0.281250,0.500000,0.375000
82192,-0.639888,-0.512330,0.271499,0.502280,0.378440,-0.640625,-0.515625,0.281250,0.500000,0.375000
82248,-0.639888,-0.512330,0.271499,0.502280,0.378440,-0.640625,-0.515625,0.281250,0.500000,0.375000
82256,-0.639888,-0.512330,0.271499,0.502280,0.378440,-0.640625,-0.515625,0.281250,0.500000,0.375000
82312,-0.639888,-0.512330,0.271499,0.502280,0.378440,-0.640625,-0.515625,0.281250,0.500000,0.375000
82320,-0.639888,-0.512330,0.271499,0.502280,0.378440,-0.640625,-0.515625,0.281250,0.500000,0.375000
82328,-0.639888,-0.512330,0.271499,0.502280,0.378440,-0.640625,-0.515625,0.281250,0.500000,0.375000
82376,-0.639888,-0.512330,0.271499,0.502280,0.378440,-0.640625,-0.515625,0.281250,0.500000,0.375000
82384,-0.639888,-0.512330,0.271499,0.502280,0.378440,-0.640625,-0.515625,0.281250,0.500000,0.375000
82392,-0.639888,-0.512330,0.271499,0.502280,0.378440,-0.640625,-0.515625,0.281250,0.500000,0.375000
82440,-0.639888,-0.512330,0.271499,0.502280,0.378440,-0.640625,-0.515625,0.281250,0.500000,0.375000
82448,-0.639888,-0.512330,0.271499,0.502280,0.378440,-0.640625,-0.515625,0.281250,0.500000,0.375000
82504,-0.639888,-0.512330,0.271499,0.502280,0.378440,-0.640625,-0.515625,0.281250,0.500000,0.375000
82512,-0.639888,-0.512330,0.271499,0.502280,0.378440,-0.640625,-0.515625,0.281250,0.500000,0.375000
82568,-0.639888,-0.512330,0.271499,0.502280,0.378440,-0.640625,-0.515625,0.281250,0.500000,0.375000
82632,-0.639888,-0.512330,0.271499,0.502280,0.378440,-0.640625,-0.515625,0.281250,0.500000,0.375000
82696,-0.639888,-0.512330,0.271499,0.502280,0.378440,-0.640625,-0.515625,0.281250,0.500000,0.375000
82704,-0.639888,-0.512330,0.271499,0.502280,0.378440,-0.640625,-0.515625,0.281250,0.500000,0.375000
82760,-0.639888,-0.512330,0.271499,0.502280,0.378440,-0.640625,-0.515625,0.281250,0.500000,0.375000
82824,-0.639888,-0.512330,0.271499,0.502280,0.378440,-0.640625,-0.515625,0.281250,0.500000,0.375000
82888,-0.639888,-0.512330,0.271499,0.502280,0.378440,-0.640625,-0.515625,0.281250,0.500000,0.375000
82952,-0.639888,-0.512330,0.271499,0.502280,0.378440,-0.640625,-0.515625,0.281250,0.500000,0.375000
83016,-0.639888,-0.512330,0.271499,0.502280,0.378440,-0.640625,-0.515625,0.281250,0.500000,0.375000
83024,-0.639888,-0.512330,0.271499,0.502280,0.378440,-0.640625,-0.515625,0.281250,0.500000,0.375000
83080,-0.639888,-0.512330,0.271499,0.502280,0.378440,-0.640625,-0.515625,0.281250,0.500000,0.375000
83088,-0.639888,-0.512330,0.271499,0.502280,0.378440,-0.640625,-0.515625,0.281250,0.500000,0.375000
83144,-0.639888,-0.512330,0.271499,0.502280,0.378440,-0.640625,-0.515625,0.281250,0.500000,0.375000
83152,-0.639888,-0.512330,0.271499,0.502280,0.378440,-0.640625,-0.515625,0.281250,0.500000,0.375000
83208,-0.639888,-0.512330,0.271499,0.502280,0.378440,-0.640625,-0.515625,0.281250,0.500000,0.375000
83216,-0.639888,-0.512330,0.271499,0.502280,0.378440,-0.640625,-0.515625,0.281250,0.500000,0.375000
83336,-0.639888,-0.512330,0.271499,0.502280,0.378440,-0.640625,-0.515625,0.281250,0.500000,0.375000
83464,-0.639888,-0.512330,0.271499,0.502280,0.378440,-0.640625,-0.515625,0.281250,0.500000,0.375000
83592,-0.639888,-0.512330,0.271499,0.502280,0.378440,-0.640625,-0.515625,0.281250,0.500000,0.375000
83600,-0.639888,-0.512330,0.271499,0.502280,0.378440,-0.640625,-0.515625,0.281250,0.500000,0.375000
83720,-0.639888,-0.512330,0.271499,0.502280,0.378440,-0.640625,-0.515625,0.281250,0.500000,0.375000
83728,-0.639888,-0.512330,0.271499,0.502280,0.378440,-0.640625,-0.515625,0.281250,0.500000,0.375000
90184,-0.639888,-0.512330,0.271499,0.502280,0.378440,-0.640625,-0.515625,0.281250,0.500000,0.375000
90192,-0.639888,-0.512330,0.271499,0.502280,0.378440,-0.640625,-0.515625,0.281250,0.500000,0.375000
90248,-0.639888,-0.512330,0.271499,0.502280,0.378440,-0.640625,-0.515625,0.281250,0.500000,0.375000
90256,-0.639888,-0.512330,0.271499,0.502280,0.378440,-0.640625,-0.515625,0.281250,0.500000,0.375000
90264,-0.639888,-0.512330,0.271499,0.502280,0.378440,-0.640625,-0.515625,0.281250,0.500000,0.375000
90312,-0.639888,-0.512330,0.271499,0.502280,0.378440,-0.640625,-0.515625,0.281250,0.500000,0.375000
90320,-0.639888,-0.512330,0.271499,0.502280,0.378440,-0.640625,-0.515625,0.281250,0.500000,0.375000
90376,-0.639888,-0.512330,0.271499,0.502280,0.378440,-0.640625,-0.515625,0.281250,0.500000,0.375000
90384,-0.639888,-0.512330,0.271499,0.502280,0.378440,-0.640625,-0.515625,0.281250,0.500000,0.375000
90440,-0.639888,-0.512330,0.271499,0.502280,0.378440,-0.640625,-0.515625,0.281250,0.500000,0.375000
90448,-0.639888,-0.512330,0.271499,0.502280,0.378440,-0.640625,-0.515625,0.281250,0.500000,0.375000
90504,-0.639888,-0.512330,0.271499,0.502280,0.378440,-0.640625,-0.515625,0.281250,0.500000,0.375000
90568,-0.639888,-0.512330,0.271499,0.502280,0.378440,-0.640625,-0.515625,0.281250,0.500000,0.375000
90576,-0.639888,-0.512330,0.271499,0.502280,0.378440,-0.640625,-0.515625,0.281250,0.500000,0.375000
90632,-0.639888,-0.512330,0.271499,0.502280,0.378440,-0.640625,-0.515625,0.281250,0.500000,0.375000
90640,-0.639888,-0.512330,0.271499,0.502280,0.378440,-0.640625,-0.515625,0.281250,0.500000,0.375000
90696,-0.639888,-0.512330,0.271499,0.502280,0.378440,-0.640625,-0.515625,0.281250,0.500000,0.375000
90760,-0.639888,-0.512330,0.271499,0.502280,0.378440,-0.640625,-0.515625,0.281250,0.500000,0.375000
90768,-0.639888,-0.512330,0.271499,0.502280,0.378440,-0.640625,-0.515625,0.281250,0.500000,0.375000
90824,-0.639888,-0.512330,0.271499,0.502280,0.378440,-0.640625,-0.515625,0.281250,0.500000,0.375000
90832,-0.639888,-0.512330,0.271499,0.502280,0.378440,-0.640625,-0.515625,0.281250,0.500000,0.375000
90888,-0.639888,-0.512330,0.271499,0.502280,0.378440,-0.640625,-0.515625,0.281250,0.500000,0.375000
90952,-0.639888,-0.512330,0.271499,0.502280,0.378440,-0.640625,-0.515625,0.281250,0.500000,0.375000
90960,-0.639888,-0.512330,0.271499,0.502280,0.378440,-0.640625,-0.515625,0.281250,0.500000,0.375000
91016,-0.639888,-0.512330,0.271499,0.502280,0.378440,-0.640625,-0.515625,0.281250,0.500000,0.375000
91024,-0.639888,-0.512330,0.271499,0.502280,0.378440,-0.640625,-0.515625,0.281250,0.500000,0.375000
91080,-0.639888,-0.512330,0.271499,0.502280,0.378440,-0.640625,-0.515625,0.281250,0.500000,0.375000
91088,-0.639888,-0.512330,0.271499,0.502280,0.378440,-0.640625,-0.515625,0.281250,0.500000,0.375000
91144,-0.639888,-0.512330,0.271499,0.502280,0.378440,-0.640625,-0.515625,0.281250,0.500000,0.375000
91208,-0.639888,-0.512330,0.271499,0.502280,0.378440,-0.640625,-0.515625,0.281250,0.500000,0.375000
91272,-0.639888,-0.512330,0.271499,0.502280,0.378440,-0.640625,-0.515625,0.281250,0.500000,0.375000
91336,-0.639888,-0.512330,0.271499,0.502280,0.378440,-0.640625,-0.515625,0.281250,0.500000,0.375000
91400,-0.639888,-0.512330,0.271499,0.502280,0.378440,-0.640625,-0.515625,0.281250,0.500000,0.375000
91528,-0.639888,-0.512330,0.271499,0.502280,0.378440,-0.640625,-0.515625,0.281250,0.500000,0.375000
91656,-0.639888,-0.512330,0.271499,0.502280,0.378440,-0.640625,-0.515625,0.281250,0.500000,0.375000
91664,-0.639888,-0.512330,0.271499,0.502280,0.378440,-0.640625,-0.515625,0.281250,0.500000,0.375000
91672,-0.639888,-0.512330,0.271499,0.502280,0.378440,-0.640625,-0.515625,0.281250,0.500000,0.375000
91784,-0.639888,-0.512330,0.271499,0.502280,0.378440,-0.640625,-0.515625,0.281250,0.500000,0.375000
91792,-0.639888,-0.512330,0.271499,0.502280,0.378440,-0.640625,-0.515625,0.281250,0.500000,0.375000
91912,-0.639888,-0.512330,0.271499,0.502280,0.378440,-0.640625,-0.515625,0.281250,0.500000,0.375000
98376,-0.639888,-0.512330,0.271499,0.502280,0.378440,-0.640625,-0.515625,0.281250,0.500000,0.375000
98384,-0.639888,-0.512330,0.271499,0.502280,0.378440,-0.640625,-0.515625,0.281250,0.500000,0.375000
98440,-0.639888,-0.512330,0.271499,0.502280,0.378440,-0.640625,-0.515625,0.281250,0.500000,0.375000
98448,-0.639888,-0.512330,0.271499,0.502280,0.378440,-0.640625,-0.515625,0.281250,0.500000,0.375000
98504,-0.639888,-0.512330,0.271499,0.502280,0.378440,-0.640625,-0.515625,0.281250,0.500000,0.375000
98512,-0.639888,-0.512330,0.271499,0.502280,0.378440,-0.640625,-0.515625,0.281250,0.500000,0.375000
98568,-0.639888,-0.512330,0.271499,0.502280,0.378440,-0.640625,-0.515625,0.281250,0.500000,0.375000
98576,-0.639888,-0.512330,0.271499,0.502280,0.378440,-0.640625,-0.515625,0.281250,0.500000,0.375000
98632,-0.639888,-0.512330,0.271499,0.502280,0.378440,-0.640625,-0.515625,0.281250,0.500000,0.375000
98696,-0.639888,-0.512330,0.271499,0.502280,0.378440,-0.640625,-0.515625,0.281250,0.500000,0.375000
98760,-0.639888,-0.512330,0.271499,0.502280,0.378440,-0.640625,-0.515625,0.281250,0.500000,0.375000
98768,-0.639888,-0.512330,0.271499,0.502280,0.378440,-0.640625,-0.515625,0.281250,0.500000,0.375000
98824,-0.639888,-0.512330,0.271499,0.502280,0.378440,-0.640625,-0.515625,0.281250,0.500000,0.375000
98888,-0.639888,-0.512330,0.271499,0.502280,0.378440,-0.640625,-0.515625,0.281250,0.500000,0.375000
99024,-0.639888,-0.512330,0.271499,0.502280,0.378440,-0.640625,-0.515625,0.281250,0.500000,0.375000
99080,-0.639888,-0.512330,0.271499,0.502280,0.378440,-0.640625,-0.515625,0.281250,0.500000,0.375000
99088,-0.639888,-0.512330,0.271499,0.502280,0.378440,-0.640625,-0.515625,0.281250,0.500000,0.375000
99144,-0.639888,-0.512330,0.271499,0.502280,0.378440,-0.640625,-0.515625,0.281250,0.500000,0.375000
99152,-0.639888,-0.512330,0.271499,0.502280,0.378440,-0.640625,-0.515625,0.281250,0.500000,0.375000
99208,-0.639888,-0.512330,0.271499,0.502280,0.378440,-0.640625,-0.515625,0.281250,0.500000,0.375000
99272,-0.639888,-0.512330,0.271499,0.502280,0.378440,-0.640625,-0.515625,0.281250,0.500000,0.375000
99280,-0.639888,-0.512330,0.271499,0.502280,0.378440,-0.640625,-0.515625,0.281250,0.500000,0.375000
99336,-0.639888,-0.512330,0.271499,0.502280,0.378440,-0.640625,-0.515625,0.281250,0.500000,0.375000
99400,-0.639888,-0.512330,0.271499,0.502280,0.378440,-0.640625,-0.515625,0.281250,0.500000,0.375000
99464,-0.639888,-0.512330,0.271499,0.502280,0.378440,-0.640625,-0.515625,0.281250,0.500000,0.375000
99528,-0.639888,-0.512330,0.271499,0.502280,0.378440,-0.640625,-0.515625,0.281250,0.500000,0.375000
99536,-0.639888,-0.512330,0.271499,0.502280,0.378440,-0.640625,-0.515625,0.281250,0.500000,0.375000
99592,-0.639888,-0.512330,0.271499,0.502280,0.378440,-0.640625,-0.515625,0.281250,0.500000,0.375000
99600,-0.639888,-0.512330,0.271499,0.502280,0.378440,-0.640625,-0.515625,0.281250,0.500000,0.375000
99720,-0.639888,-0.512330,0.271499,0.502280,0.378440,-0.640625,-0.515625,0.281250,0.500000,0.375000
99848,-0.639888,-0.512330,0.271499,0.502280,0.378440,-0.640625,-0.515625,0.281250,0.500000,0.375000
99856,-0.639888,-0.512330,0.271499,0.502280,0.378440,-0.640625,-0.515625,0.281250,0.500000,0.375000
99976,-0.639888,-0.512330,0.271499,0.502280,0.378440,-0.640625,-0.515625,0.281250,0.500000,0.375000
99984,-0.639888,-0.512330,0.271499,0.502280,0.378440,-0.640625,-0.515625,0.281250,0.500000,0.375000
99992,-0.639888,-0.512330,0.271499,0.502280,0.378440,-0.640625,-0.515625,0.281250,0.500000,0.375000
100104,-0.639888,-0.512330,0.271499,0.502280,0.378440,-0.640625,-0.515625,0.281250,0.500000,0.375000
106568,-0.639888,-0.512330,0.271499,0.502280,0.378440,-0.640625,-0.515625,0.281250,0.500000,0.375000
106576,-0.639888,-0.512330,0.271499,0.502280,0.378440,-0.640625,-0.515625,0.281250,0.500000,0.375000
106632,-0.639888,-0.512330,0.271499,0.502280,0.378440,-0.640625,-0.515625,0.281250,0.500000,0.375000
106640,-0.639888,-0.512330,0.271499,0.502280,0.378440,-0.640625,-0.515625,0.281250,0.500000,0.375000
106696,-0.639888,-0.512330,0.271499,0.502280,0.378440,-0.640625,-0.515625,0.281250,0.500000,0.375000
106704,-0.639888,-0.512330,0.271499,0.502280,0.378440,-0.640625,-0.515625,0.281250,0.500000,0.375000
106760,-0.639888,-0.512330,0.271499,0.502280,0.378440,-0.640625,-0.515625,0.281250,0.500000,0.375000
106768,-0.639888,-0.512330,0.271499,0.502280,0.378440,-0.640625,-0.515625,0.281250,0.500000,0.375000
106824,-0.639888,-0.512330,0.271499,0.502280,0.378440,-0.640625,-0.515625,0.281250,0.500000,0.375000
106832,-0.639888,-0.512330,0.271499,0.502280,0.378440,-0.640625,-0.515625,0.281250,0.500000,0.375000
106888,-0.639888,-0.512330,0.271499,0.502280,0.378440,-0.640625,-0.515625,0.281250,0.500000,0.375000
106952,-0.639888,-0.512330,0.271499,0.502280,0.378440,-0.640625,-0.515625,0.281250,0.500000,0.375000
106960,-0.639888,-0.512330,0.271499,0.502280,0.378440,-0.640625,-0.515625,0.281250,0.500000,0.375000
107016,-0.639888,-0.512330,0.271499,0.502280,0.378440,-0.640625,-0.515625,0.281250,0.500000,0.375000
107024,-0.639888,-0.512330,0.271499,0.502280,0.378440,-0.640625,-0.515625,0.281250,0.500000,0.375000
107080,-0.639888,-0.512330,0.271499,0.502280,0.378440,-0.640625,-0.515625,0.281250,0.500000,0.375000
107088,-0.639888,-0.512330,0.271499,0.502280,0.378440,-0.640625,-0.515625,0.281250,0.500000,0.375000
107144,-0.639888,-0.512330,0.271499,0.502280,0.378440,-0.640625,-0.515625,0.281250,0.500000,0.375000
107152,-0.639888,-0.512330,0.271499,0.502280,0.378440,-0.640625,-0.515625,0.281250,0.500000,0.375000
107208,-0.639888,-0.512330,0.271499,0.502280,0.378440,-0.640625,-0.515625,0.281250,0.500000,0.375000
107272,-0.639888,-0.512330,0.271499,0.502280,0.378440,-0.640625,-0.515625,0.281250,0.500000,0.375000
107280,-0.639888,-0.512330,0.271499,0.502280,0.378440,-0.640625,-0.515625,0.281250,0.500000,0.375000
107336,-0.639888,-0.512330,0.271499,0.502280,0.378440,-0.640625,-0.515625,0.281250,0.500000,0.375000
107400,-0.639888,-0.512330,0.271499,0.502280,0.378440,-0.640625,-0.515625,0.281250,0.500000,0.375000
107408,-0.639888,-0.512330,0.271499,0.502280,0.378440,-0.640625,-0.515625,0.281250,0.500000,0.375000
107464,-0.639888,-0.512330,0.271499,0.502280,0.378440,-0.640625,-0.515625,0.281250,0.500000,0.375000
107528,-0.639888,-0.512330,0.271499,0.502280,0.378440,-0.640625,-0.515625,0.281250,0.500000,0.375000
107536,-0.639888,-0.512330,0.271499,0.502280,0.378440,-0.640625,-0.515625,0.281250,0.500000,0.375000
107592,-0.639888,-0.512330,0.271499,0.502280,0.378440,-0.640625,-0.515625,0.281250,0.500000,0.375000
107656,-0.639888,-0.512330,0.271499,0.502280,0.378440,-0.640625,-0.515625,0.281250,0.500000,0.375000
107720,-0.639888,-0.512330,0.271499,0.502280,0.378440,-0.640625,-0.515625,0.281250,0.500000,0.375000
107784,-0.639888,-0.512330,0.271499,0.502280,0.378440,-0.640625,-0.515625,0.281250,0.500000,0.375000
107912,-0.639888,-0.512330,0.271499,0.502280,0.378440,-0.640625,-0.515625,0.281250,0.500000,0.375000
107920,-0.639888,-0.512330,0.271499,0.502280,0.378440,-0.640625,-0.515625,0.281250,0.500000,0.375000
108040,-0.639888,-0.512330,0.271499,0.502280,0.378440,-0.640625,-0.515625,0.281250,0.500000,0.375000
108048,-0.639888,-0.512330,0.271499,0.502280,0.378440,-0.640625,-0.515625,0.281250,0.500000,0.375000
108056,-0.639888,-0.512330,0.271499,0.502280,0.378440,-0.640625,-0.515625,0.281250,0.500000,0.375000
108168,-0.639888,-0.512330,0.271499,0.502280,0.378440,-0.640625,-0.515625,0.281250,0.500000,0.375000
108176,-0.639888,-0.512330,0.271499,0.502280,0.378440,-0.640625,-0.515625,0.281250,0.500000,0.375000
108296,-0.639888,-0.512330,0.271499,0.502280,0.378440,-0.640625,-0.515625,0.281250,0.500000,0.375000
114760,-0.639888,-0.512330,0.271499,0.502280,0.378440,-0.640625,-0.515625,0.281250,0.500000,0.375000
114768,-0.639888,-0.512330,0.271499,0.502280,0.378440,-0.640625,-0.515625,0.281250,0.500000,0.375000
114776,-0.639888,-0.512330,0.271499,0.502280,0.378440,-0.640625,-0.515625,0.281250,0.500000,0.375000
114824,-0.639888,-0.512330,0.271499,0.502280,0.378440,-0.640625,-0.515625,0.281250,0.500000,0.375000
114832,-0.639888,-0.512330,0.271499,0.502280,0.378440,-0.640625,-0.515625,0.281250,0.500000,0.375000
114888,-0.639888,-0.512330,0.271499,0.502280,0.378440,-0.640625,-0.515625,0.281250,0.500000,0.375000
114896,-0.639888,-0.512330,0.271499,0.502280,0.378440,-0.640625,-0.515625,0.281250,0.500000,0.375000
114952,-0.639888,-0.512330,0.271499,0.502280,0.378440,-0.640625,-0.515625,0.281250,0.500000,0.375000
114960,-0.639888,-0.512330,0.271499,0.502280,0.378440,-0.640625,-0.515625,0.281250,0.500000,0.375000
115016,-0.639888,-0.512330,0.271499,0.502280,0.378440,-0.640625,-0.515625,0.281250,0.500000,0.375000
115080,-0.639888,-0.512330,0.271499,0.502280,0.378440,-0.640625,-0.515625,0.281250,0.500000,0.375000
115088,-0.639888,-0.512330,0.271499,0.502280,0.378440,-0.640625,-0.515625,0.281250,0.500000,0.375000
115144,-0.639888,-0.512330,0.271499,0.502280,0.378440,-0.640625,-0.515625,0.281250,0.500000,0.375000
115152,-0.639888,-0.512330,0.271499,0.502280,0.378440,-0.640625,-0.515625,0.281250,0.500000,0.375000
115208,-0.639888,-0.512330,0.271499,0.502280,0.378440,-0.640625,-0.515625,0.281250,0.500000,0.375000
115216,-0.639888,-0.512330,0.271499,0.502280,0.378440,-0.640625,-0.515625,0.281250,0.500000,0.375000
115224,-0.639888,-0.512330,0.271499,0.502280,0.378440,-0.640625,-0.515625,0.281250,0.500000,0.375000
115272,-0.639888,-0.512330,0.271499,0.502280,0.378440,-0.640625,-0.515625,0.281250,0.500000,0.375000
115280,-0.639888,-0.512330,0.271499,0.502280,0.378440,-0.640625,-0.515625,0.281250,0.500000,0.375000
115336,-0.639888,-0.512330,0.271499,0.502280,0.378440,-0.640625,-0.515625,0.281250,0.500000,0.375000
115400,-0.639888,-0.512330,0.271499,0.502280,0.378440,-0.640625,-0.515625,0.281250,0.500000,0.375000
115408,-0.639888,-0.512330,0.271499,0.502280,0.378440,-0.640625,-0.515625,0.281250,0.500000,0.375000
115464,-0.639888,-0.512330,0.271499,0.502280,0.378440,-0.640625,-0.515625,0.281250,0.500000,0.375000
115528,-0.639888,-0.512330,0.271499,0.502280,0.378440,-0.640625,-0.515625,0.281250,0.500000,0.375000
115536,-0.639888,-0.512330,0.271499,0.502280,0.378440,-0.640625,-0.515625,0.281250,0.500000,0.375000
115592,-0.639888,-0.512330,0.271499,0.502280,0.378440,-0.640625,-0.515625,0.281250,0.500000,0.375000
115600,-0.639888,-0.512330,0.271499,0.502280,0.378440,-0.640625,-0.515625,0.281250,0.500000,0.375000
115656,-0.639888,-0.512330,0.271499,0.502280,0.378440,-0.640625,-0.515625,0.281250,0.500000,0.375000
115720,-0.639888,-0.512330,0.271499,0.502280,0.378440,-0.640625,-0.515625,0.281250,0.500000,0.375000
115784,-0.639888,-0.512330,0.271499,0.502280,0.378440,-0.640625,-0.515625,0.281250,0.500000,0.375000
115848,-0.639888,-0.512330,0.271499,0.502280,0.378440,-0.640625,-0.515625,0.281250,0.500000,0.375000
115912,-0.639888,-0.512330,0.271499,0.502280,0.378440,-0.640625,-0.515625,0.281250,0.500000,0.375000
115920,-0.639888,-0.512330,0.271499,0.502280,0.378440,-0.640625,-0.515625,0.281250,0.500000,0.375000
115976,-0.639888,-0.512330,0.271499,0.502280,0.378440,-0.640625,-0.515625,0.281250,0.500000,0.375000
115984,-0.639888,-0.512330,0.271499,0.502280,0.378440,-0.640625,-0.515625,0.281250,0.500000,0.375000
116104,-0.639888,-0.512330,0.271499,0.502280,0.378440,-0.640625,-0.515625,0.281250,0.500000,0.375000
116232,-0.639888,-0.512330,0.271499,0.502280,0.378440,-0.640625,-0.515625,0.281250,0.500000,0.375000
116360,-0.639888,-0.512330,0.271499,0.502280,0.378440,-0.640625,-0.515625,0.281250,0.500000,0.375000
116368,-0.639888,-0.512330,0.271499,0.502280,0.378440,-0.640625,-0.515625,0.281250,0.500000,0.375000
116488,-0.639888,-0.512330,0.271499,0.502280,0.378440,-0.640625,-0.515625,0.281250,0.500000,0.375000
116496,-0.639888,-0.512330,0.271499,0.502280,0.378440,-0.640625,-0.515625,0.281250,0.500000,0.375000
122952,-0.639888,-0.512330,0.271499,0.502280,0.378440,-0.640625,-0.515625,0.281250,0.500000,0.375000
122960,-0.639888,-0.512330,0.271499,0.502280,0.378440,-0.640625,-0.515625,0.281250,0.500000,0.375000
123016,-0.639888,-0.512330,0.271499,0.502280,0.378440,-0.640625,-0.515625,0.281250,0.500000,0.375000
123024,-0.639888,-0.512330,0.271499,0.502280,0.378440,-0.640625,-0.515625,0.281250,0.500000,0.375000
123080,-0.639888,-0.512330,0.271499,0.502280,0.378440,-0.640625,-0.515625,0.281250,0.500000,0.375000
123088,-0.639888,-0.512330,0.271499,0.502280,0.378440,-0.640625,-0.515625,0.281250,0.500000,0.375000
123144,-0.639888,-0.512330,0.271499,0.502280,0.378440,-0.640625,-0.515625,0.281250,0.500000,0.375000
123152,-0.639888,-0.512330,0.271499,0.502280,0.378440,-0.640625,-0.515625,0.281250,0.500000,0.375000
123160,-0.639888,-0.512330,0.271499,0.502280,0.378440,-0.640625,-0.515625,0.281250,0.500000,0.375000
123208,-0.639888,-0.512330,0.271499,0.502280,0.378440,-0.640625,-0.515625,0.281250,0.500000,0.375000
123216,-0.639888,-0.512330,0.271499,0.502280,0.378440,-0.640625,-0.515625,0.281250,0.500000,0.375000
123224,-0.639888,-0.512330,0.271499,0.502280,0.378440,-0.640625,-0.515625,0.281250,0.500000,0.375000
123272,-0.639888,-0.512330,0.271499,0.502280,0.378440,-0.640625,-0.515625,0.281250,0.500000,0.375000
123280,-0.639888,-0.512330,0.271499,0.502280,0.378440,-0.640625,-0.515625,0.281250,0.500000,0.375000
123336,-0.639888,-0.512330,0.271499,0.502280,0.378440,-0.640625,-0.515625,0.281250,0.500000,0.375000
123344,-0.639888,-0.512330,0.271499,0.502280,0.378440,-0.640625,-0.515625,0.281250,0.500000,0.375000
123400,-0.639888,-0.512330,0.271499,0.502280,0.378440,-0.640625,-0.515625,0.281250,0.500000,0.375000
123464,-0.639888,-0.512330,0.271499,0.502280,0.378440,-0.640625,-0.515625,0.281250,0.500000,0.375000
123528,-0.639888,-0.512330,0.271499,0.502280,0.378440,-0.640625,-0.515625,0.281250,0.500000,0.375000
123536,-0.639888,-0.512330,0.271499,0.502280,0.378440,-0.640625,-0.515625,0.281250,0.500000,0.375000
123592,-0.639888,-0.512330,0.271499,0.502280,0.378440,-0.640625,-0.515625,0.281250,0.500000,0.375000
123656,-0.639888,-0.512330,0.271499,0.502280,0.378440,-0.640625,-0.515625,0.281250,0.500000,0.375000
123664,-0.639888,-0.512330,0.271499,0.502280,0.378440,-0.640625,-0.515625,0.281250,0.500000,0.375000
123856,-0.639888,-0.512330,0.271499,0.502280,0.378440,-0.640625,-0.515625,0.281250,0.500000,0.375000
123912,-0.639888,-0.512330,0.271499,0.502280,0.378440,-0.640625,-0.515625,0.281250,0.500000,0.375000
123920,-0.639888,-0.512330,0.271499,0.502280,0.378440,-0.640625,-0.515625,0.281250,0.500000,0.375000
123976,-0.639888,-0.512330,0.271499,0.502280,0.378440,-0.640625,-0.515625,0.281250,0.500000,0.375000
124040,-0.639888,-0.512330,0.271499,0.502280,0.378440,-0.640625,-0.515625,0.281250,0.500000,0.375000
124104,-0.639888,-0.512330,0.271499,0.502280,0.378440,-0.640625,-0.515625,0.281250,0.500000,0.375000
124168,-0.639888,-0.512330,0.271499,0.502280,0.378440,-0.640625,-0.515625,0.281250,0.500000,0.375000
124296,-0.639888,-0.512330,0.271499,0.502280,0.378440,-0.640625,-0.515625,0.281250,0.500000,0.375000
124424,-0.639888,-0.512330,0.271499,0.502280,0.378440,-0.640625,-0.515625,0.281250,0.500000,0.375000
124552,-0.639888,-0.512330,0.271499,0.502280,0.378440,-0.640625,-0.515625,0.281250,0.500000,0.375000
124560,-0.639888,-0.512330,0.271499,0.502280,0.378440,-0.640625,-0.515625,0.281250,0.500000,0.375000
124680,-0.639888,-0.512330,0.271499,0.502280,0.378440,-0.640625,-0.515625,0.281250,0.500000,0.375000
124688,-0.639888,-0.512330,0.271499,0.502280,0.378440,-0.640625,-0.515625,0.281250,0.500000,0.375000
131144,-0.639888,-0.512330,0.271499,0.502280,0.378440,-0.640625,-0.515625,0.281250,0.500000,0.375000
131152,-0.639888,-0.512330,0.271499,0.502280,0.378440,-0.640625,-0.515625,0.281250,0.500000,0.375000
131208,-0.639888,-0.512330,0.271499,0.502280,0.378440,-0.640625,-0.515625,0.281250,0.500000,0.375000
131216,-0.639888,-0.512330,0.271499,0.502280,0.378440,-0.640625,-0.515625,0.281250,0.500000,0.375000
131272,-0.639888,-0.512330,0.271499,0.502280,0.378440,-0.640625,-0.515625,0.281250,0.500000,0.375000
131280,-0.639888,-0.512330,0.271499,0.502280,0.378440,-0.640625,-0.515625,0.281250,0.500000,0.375000
131336,-0.639888,-0.512330,0.271499,0.502280,0.378440,-0.640625,-0.515625,0.281250,0.500000,0.375000
131344,-0.639888,-0.512330,0.271499,0.502280,0.378440,-0.640625,-0.515625,0.281250,0.500000,0.375000
131400,-0.639888,-0.512330,0.271499,0.502280,0.378440,-0.640625,-0.515625,0.281250,0.500000,0.375000
131408,-0.639888,-0.512330,0.271499,0.502280,0.378440,-0.640625,-0.515625,0.281250,0.500000,0.375000
131464,-0.639888,-0.512330,0.271499,0.502280,0.378440,-0.640625,-0.515625,0.281250,0.500000,0.375000
131472,-0.639888,-0.512330,0.271499,0.502280,0.378440,-0.640625,-0.515625,0.281250,0.500000,0.375000
131528,-0.639888,-0.512330,0.271499,0.502280,0.378440,-0.640625,-0.515625,0.281250,0.500000,0.375000
131592,-0.639888,-0.512330,0.271499,0.502280,0.378440,-0.640625,-0.515625,0.281250,0.500000,0.375000
131600,-0.639888,-0.512330,0.271499,0.502280,0.378440,-0.640625,-0.515625,0.281250,0.500000,0.375000
131656,-0.639888,-0.512330,0.271499,0.502280,0.378440,-0.640625,-0.515625,0.281250,0.500000,0.375000
131664,-0.639888,-0.512330,0.271499,0.502280,0.378440,-0.640625,-0.515625,0.281250,0.500000,0.375000
131720,-0.639888,-0.512330,0.271499,0.502280,0.378440,-0.640625,-0.515625,0.281250,0.500000,0.375000
131784,-0.639888,-0.512330,0.271499,0.502280,0.378440,-0.640625,-0.515625,0.281250,0.500000,0.375000
131792,-0.639888,-0.512330,0.271499,0.502280,0.378440,-0.640625,-0.515625,0.281250,0.500000,0.375000
131848,-0.639888,-0.512330,0.271499,0.502280,0.378440,-0.640625,-0.515625,0.281250,0.500000,0.375000
131856,-0.639888,-0.512330,0.271499,0.502280,0.378440,-0.640625,-0.515625,0.281250,0.500000,0.375000
131912,-0.639888,-0.512330,0.271499,0.502280,0.378440,-0.640625,-0.515625,0.281250,0.500000,0.375000
131920,-0.639888,-0.512330,0.271499,0.502280,0.378440,-0.640625,-0.515625,0.281250,0.500000,0.375000
131976,-0.639888,-0.512330,0.271499,0.502280,0.378440,-0.640625,-0.515625,0.281250,0.500000,0.375000
132040,-0.639888,-0.512330,0.271499,0.502280,0.378440,-0.640625,-0.515625,0.281250,0.500000,0.375000
132048,-0.639888,-0.512330,0.271499,0.502280,0.378440,-0.640625,-0.515625,0.281250,0.500000,0.375000
132104,-0.639888,-0.512330,0.271499,0.502280,0.378440,-0.640625,-0.515625,0.281250,0.500000,0.375000
132168,-0.639888,-0.512330,0.271499,0.502280,0.378440,-0.640625,-0.515625,0.281250,0.500000,0.375000
132232,-0.639888,-0.512330,0.271499,0.502280,0.378440,-0.640625,-0.515625,0.281250,0.500000,0.375000
132296,-0.639888,-0.512330,0.271499,0.502280,0.378440,-0.640625,-0.515625,0.281250,0.500000,0.375000
132360,-0.639888,-0.512330,0.271499,0.502280,0.378440,-0.640625,-0.515625,0.281250,0.500000,0.375000
132488,-0.639888,-0.512330,0.271499,0.502280,0.378440,-0.640625,-0.515625,0.281250,0.500000,0.375000
132496,-0.639888,-0.512330,0.271499,0.502280,0.378440,-0.640625,-0.515625,0.281250,0.500000,0.375000
132504,-0.639888,-0.512330,0.271499,0.502280,0.378440,-0.640625,-0.515625,0.281250,0.500000,0.375000
132616,-0.639888,-0.512330,0.271499,0.502280,0.378440,-0.640625,-0.515625,0.281250,0.500000,0.375000
132744,-0.639888,-0.512330,0.271499,0.502280,0.378440,-0.640625,-0.515625,0.281250,0.500000,0.375000
132872,-0.639888,-0.512330,0.271499,0.502280,0.378440,-0.640625,-0.515625,0.281250,0.500000,0.375000
132888,-0.639888,-0.512330,0.271499,0.502280,0.378440,-0.640625,-0.515625,0.281250,0.500000,0.375000
139336,-0.639888,-0.512330,0.271499,0.502280,0.378440,-0.640625,-0.515625,0.281250,0.500000,0.375000
139344,-0.639888,-0.512330,0.271499,0.502280,0.378440,-0.640625,-0.515625,0.281250,0.500000,0.375000
139400,-0.639888,-0.512330,0.271499,0.502280,0.378440,-0.640625,-0.515625,0.281250,0.500000,0.375000
139408,-0.639888,-0.512330,0.271499,0.502280,0.378440,-0.640625,-0.515625,0.281250,0.500000,0.375000
139464,-0.639888,-0.512330,0.271499,0.502280,0.378440,-0.640625,-0.515625,0.281250,0.500000,0.375000
139472,-0.639888,-0.512330,0.271499,0.502280,0.378440,-0.640625,-0.515625,0.281250,0.500000,0.375000
139528,-0.639888,-0.512330,0.271499,0.502280,0.378440,-0.640625,-0.515625,0.281250,0.500000,0.375000
139536,-0.639888,-0.512330,0.271499,0.502280,0.378440,-0.640625,-0.515625,0.281250,0.500000,0.375000
139592,-0.639888,-0.512330,0.271499,0.502280,0.378440,-0.640625,-0.515625,0.281250,0.500000,0.375000
139600,-0.639888,-0.512330,0.271499,0.502280,0.378440,-0.640625,-0.515625,0.281250,0.500000,0.375000
139656,-0.639888,-0.512330,0.271499,0.502280,0.378440,-0.640625,-0.515625,0.281250,0.500000,0.375000
139720,-0.639888,-0.512330,0.271499,0.502280,0.378440,-0.640625,-0.515625,0.281250,0.500000,0.375000
139728,-0.639888,-0.512330,0.271499,0.502280,0.378440,-0.640625,-0.515625,0.281250,0.500000,0.375000
139784,-0.639888,-0.512330,0.271499,0.502280,0.378440,-0.640625,-0.515625,0.281250,0.500000,0.375000
139848,-0.639888,-0.512330,0.271499,0.502280,0.378440,-0.640625,-0.515625,0.281250,0.500000,0.375000
139856,-0.639888,-0.512330,0.271499,0.502280,0.378440,-0.640625,-0.515625,0.281250,0.500000,0.375000
139912,-0.639888,-0.512330,0.271499,0.502280,0.378440,-0.640625,-0.515625,0.281250,0.500000,0.375000
139920,-0.639888,-0.512330,0.271499,0.502280,0.378440,-0.640625,-0.515625,0.281250,0.500000,0.375000
139976,-0.639888,-0.512330,0.271499,0.502280,0.378440,-0.640625,-0.515625,0.281250,0.500000,0.375000
139984,-0.639888,-0.512330,0.271499,0.502280,0.378440,-0.640625,-0.515625,0.281250,0.500000,0.375000
140040,-0.639888,-0.512330,0.271499,0.502280,0.378440,-0.640625,-0.515625,0.281250,0.500000,0.375000
140048,-0.639888,-0.512330,0.271499,0.502280,0.378440,-0.640625,-0.515625,0.281250,0.500000,0.375000
140104,-0.639888,-0.512330,0.271499,0.502280,0.378440,-0.640625,-0.515625,0.281250,0.500000,0.375000
140112,-0.639888,-0.512330,0.271499,0.502280,0.378440,-0.640625,-0.515625,0.281250,0.500000,0.375000
140168,-0.639888,-0.512330,0.271499,0.502280,0.378440,-0.640625,-0.515625,0.281250,0.500000,0.375000
140232,-0.639888,-0.512330,0.271499,0.502280,0.378440,-0.640625,-0.515625,0.281250,0.500000,0.375000
140296,-0.639888,-0.512330,0.271499,0.502280,0.378440,-0.640625,-0.515625,0.281250,0.500000,0.375000
140304,-0.639888,-0.512330,0.271499,0.502280,0.378440,-0.640625,-0.515625,0.281250,0.500000,0.375000
140360,-0.639888,-0.512330,0.271499,0.502280,0.378440,-0.640625,-0.515625,0.281250,0.500000,0.375000
140368,-0.639888,-0.512330,0.271499,0.502280,0.378440,-0.640625,-0.515625,0.281250,0.500000,0.375000
140424,-0.639888,-0.512330,0.271499,0.502280,0.378440,-0.640625,-0.515625,0.281250,0.500000,0.375000
140432,-0.639888,-0.512330,0.271499,0.502280,0.378440,-0.640625,-0.515625,0.281250,0.500000,0.375000
140488,-0.639888,-0.512330,0.271499,0.502280,0.378440,-0.640625,-0.515625,0.281250,0.500000,0.375000
140552,-0.639888,-0.512330,0.271499,0.502280,0.378440,-0.640625,-0.515625,0.281250,0.500000,0.375000
140680,-0.639888,-0.512330,0.271499,0.502280,0.378440,-0.640625,-0.515625,0.281250,0.500000,0.375000
140688,-0.639888,-0.512330,0.271499,0.502280,0.378440,-0.640625,-0.515625,0.281250,0.500000,0.375000
140808,-0.639888,-0.512330,0.271499,0.502280,0.378440,-0.640625,-0.515625,0.281250,0.500000,0.375000
140816,-0.639888,-0.512330,0.271499,0.502280,0.378440,-0.640625,-0.515625,0.281250,0.500000,0.375000
140936,-0.639888,-0.512330,0.271499,0.502280,0.378440,-0.640625,-0.515625,0.281250,0.500000,0.375000
141064,-0.639888,-0.512330,0.271499,0.502280,0.378440,-0.640625,-0.515625,0.281250,0.500000,0.375000
141072,-0.639888,-0.512330,0.271499,0.502280,0.378440,-0.640625,-0.515625,0.281250,0.500000,0.375000
147528,-0.639888,-0.512330,0.271499,0.502280,0.378440,-0.640625,-0.515625,0.281250,0.500000,0.375000
147536,-0.639888,-0.512330,0.271499,0.502280,0.378440,-0.640625,-0.515625,0.281250,0.500000,0.375000
147592,-0.639888,-0.512330,0.271499,0.502280,0.378440,-0.640625,-0.515625,0.281250,0.500000,0.375000
147600,-0.639888,-0.512330,0.271499,0.502280,0.378440,-0.640625,-0.515625,0.281250,0.500000,0.375000
147656,-0.639888,-0.512330,0.271499,0.502280,0.378440,-0.640625,-0.515625,0.281250,0.500000,0.375000
147664,-0.639888,-0.512330,0.271499,0.502280,0.378440,-0.640625,-0.515625,0.281250,0.500000,0.375000
147672,-0.639888,-0.512330,0.271499,0.502280,0.378440,-0.640625,-0.515625,0.281250,0.500000,0.375000
147720,-0.639888,-0.512330,0.271499,0.502280,0.378440,-0.640625,-0.515625,0.281250,0.500000,0.375000
147728,-0.639888,-0.512330,0.271499,0.502280,0.378440,-0.640625,-0.515625,0.281250,0.500000,0.375000
147784,-0.639888,-0.512330,0.271499,0.502280,0.378440,-0.640625,-0.515625,0.281250,0.500000,0.375000
147792,-0.639888,-0.512330,0.271499,0.502280,0.378440,-0.640625,-0.515625,0.281250,0.500000,0.375000
147848,-0.639888,-0.512330,0.271499,0.502280,0.378440,-0.640625,-0.515625,0.281250,0.500000,0.375000
147856,-0.639888,-0.512330,0.271499,0.502280,0.378440,-0.640625,-0.515625,0.281250,0.500000,0.375000
147912,-0.639888,-0.512330,0.271499,0.502280,0.378440,-0.640625,-0.515625,0.281250,0.500000,0.375000
147976,-0.639888,-0.512330,0.271499,0.502280,0.378440,-0.640625,-0.515625,0.281250,0.500000,0.375000
147984,-0.639888,-0.512330,0.271499,0.502280,0.378440,-0.640625,-0.515625,0.281250,0.500000,0.375000
148040,-0.639888,-0.512330,0.271499,0.502280,0.378440,-0.640625,-0.515625,0.281250,0.500000,0.375000
148104,-0.639888,-0.512330,0.271499,0.502280,0.378440,-0.640625,-0.515625,0.281250,0.500000,0.375000
148112,-0.639888,-0.512330,0.271499,0.502280,0.378440,-0.640625,-0.515625,0.281250,0.500000,0.375000
148168,-0.639888,-0.512330,0.271499,0.502280,0.378440,-0.640625,-0.515625,0.281250,0.500000,0.375000
148176,-0.639888,-0.512330,0.271499,0.502280,0.378440,-0.640625,-0.515625,0.281250,0.500000,0.375000
148232,-0.639888,-0.512330,0.271499,0.502280,0.378440,-0.640625,-0.515625,0.281250,0.500000,0.375000
148296,-0.639888,-0.512330,0.271499,0.502280,0.378440,-0.640625,-0.515625,0.281250,0.500000,0.375000
148360,-0.639888,-0.512330,0.271499,0.502280,0.378440,-0.640625,-0.515625,0.281250,0.500000,0.375000
148368,-0.639888,-0.512330,0.271499,0.502280,0.378440,-0.640625,-0.515625,0.281250,0.500000,0.375000
148424,-0.639888,-0.512330,0.271499,0.502280,0.378440,-0.640625,-0.515625,0.281250,0.500000,0.375000
148432,-0.639888,-0.512330,0.271499,0.502280,0.378440,-0.640625,-0.515625,0.281250,0.500000,0.375000
148488,-0.639888,-0.512330,0.271499,0.502280,0.378440,-0.640625,-0.515625,0.281250,0.500000,0.375000
148496,-0.639888,-0.512330,0.271499,0.502280,0.378440,-0.640625,-0.515625,0.281250,0.500000,0.375000
148552,-0.639888,-0.512330,0.271499,0.502280,0.378440,-0.640625,-0.515625,0.281250,0.500000,0.375000
148616,-0.639888,-0.512330,0.271499,0.502280,0.378440,-0.640625,-0.515625,0.281250,0.500000,0.375000
148680,-0.639888,-0.512330,0.271499,0.502280,0.378440,-0.640625,-0.515625,0.281250,0.500000,0.375000
148744,-0.639888,-0.512330,0.271499,0.502280,0.378440,-0.640625,-0.515625,0.281250,0.500000,0.375000
148872,-0.639888,-0.512330,0.271499,0.502280,0.378440,-0.640625,-0.515625,0.281250,0.500000,0.375000
148880,-0.639888,-0.512330,0.271499,0.502280,0.378440,-0.640625,-0.515625,0.281250,0.500000,0.375000
148888,-0.639888,-0.512330,0.271499,0.502280,0.378440,-0.640625,-0.515625,0.281250,0.500000,0.375000
149000,-0.639888,-0.512330,0.271499,0.502280,0.378440,-0.640625,-0.515625,0.281250,0.500000,0.375000
149128,-0.639888,-0.512330,0.271499,0.502280,0.378440,-0.640625,-0.515625,0.281250,0.500000,0.375000
149256,-0.639888,-0.512330,0.271499,0.502280,0.378440,-0.640625,-0.515625,0.281250,0.500000,0.375000
149264,-0.639888,-0.512330,0.271499,0.502280,0.378440,-0.640625,-0.515625,0.281250,0.500000,0.375000
155720,-0.639888,-0.512330,0.271499,0.502280,0.378440,-0.640625,-0.515625,0.281250,0.500000,0.375000
155728,-0.639888,-0.512330,0.271499,0.502280,0.378440,-0.640625,-0.515625,0.281250,0.500000,0.375000
155736,-0.639888,-0.512330,0.271499,0.502280,0.378440,-0.640625,-0.515625,0.281250,0.500000,0.375000
155784,-0.639888,-0.512330,0.271499,0.502280,0.378440,-0.640625,-0.515625,0.281250,0.500000,0.375000
155792,-0.639888,-0.512330,0.271499,0.502280,0.378440,-0.640625,-0.515625,0.281250,0.500000,0.375000
155800,-0.639888,-0.512330,0.271499,0.502280,0.378440,-0.640625,-0.515625,0.281250,0.500000,0.375000
155848,-0.639888,-0.512330,0.271499,0.502280,0.378440,-0.640625,-0.515625,0.281250,0.500000,0.375000
155856,-0.639888,-0.512330,0.271499,0.502280,0.378440,-0.640625,-0.515625,0.281250,0.500000,0.375000
155864,-0.639888,-0.512330,0.271499,0.502280,0.378440,-0.640625,-0.515625,0.281250,0.500000,0.375000
155912,-0.639888,-0.512330,0.271499,0.502280,0.378440,-0.640625,-0.515625,0.281250,0.500000,0.375000
155920,-0.639888,-0.512330,0.271499,0.502280,0.378440,-0.640625,-0.515625,0.281250,0.500000,0.375000
155928,-0.639888,-0.512330,0.271499,0.502280,0.378440,-0.640625,-0.515625,0.281250,0.500000,0.375000
155976,-0.639888,-0.512330,0.271499,0.502280,0.378440,-0.640625,-0.515625,0.281250,0.500000,0.375000
155984,-0.639888,-0.512330,0.271499,0.502280,0.378440,-0.640625,-0.515625,0.281250,0.500000,0.375000
155992,-0.639888,-0.512330,0.271499,0.502280,0.378440,-0.640625,-0.515625,0.281250,0.500000,0.375000
156040,-0.639888,-0.512330,0.271499,0.502280,0.378440,-0.640625,-0.515625,0.281250,0.500000,0.375000
156048,-0.639888,-0.512330,0.271499,0.502280,0.378440,-0.640625,-0.515625,0.281250,0.500000,0.375000
156056,-0.639888,-0.512330,0.271499,0.502280,0.378440,-0.640625,-0.515625,0.281250,0.500000,0.375000
156104,-0.639888,-0.512330,0.271499,0.502280,0.378440,-0.640625,-0.515625,0.281250,0.500000,0.375000
156112,-0.639888,-0.512330,0.271499,0.502280,0.378440,-0.640625,-0.515625,0.281250,0.500000,0.375000
156120,-0.639888,-0.512330,0.271499,0.502280,0.378440,-0.640625,-0.515625,0.281250,0.500000,0.375000
156168,-0.639888,-0.512330,0.271499,0.502280,0.378440,-0.640625,-0.515625,0.281250,0.500000,0.375000
156176,-0.639888,-0.512330,0.271499,0.502280,0.378440,-0.640625,-0.515625,0.281250,0.500000,0.375000
156184,-0.639888,-0.512330,0.271499,0.502280,0.378440,-0.640625,-0.515625,0.281250,0.500000,0.375000
156232,-0.639888,-0.512330,0.271499,0.502280,0.378440,-0.640625,-0.515625,0.281250,0.500000,0.375000
156240,-0.639888,-0.512330,0.271499,0.502280,0.378440,-0.640625,-0.515625,0.281250,0.500000,0.375000
156248,-0.639888,-0.512330,0.271499,0.502280,0.378440,-0.640625,-0.515625,0.281250,0.500000,0.375000
156256,-0.639888,-0.512330,0.271499,0.502280,0.378440,-0.640625,-0.515625,0.281250,0.500000,0.375000
156296,-0.639888,-0.512330,0.271499,0.502280,0.378440,-0.640625,-0.515625,0.281250,0.500000,0.375000
156304,-0.639888,-0.512330,0.271499,0.502280,0.378440,-0.640625,-0.515625,0.281250,0.500000,0.375000
156312,-0.639888,-0.512330,0.271499,0.502280,0.378440,-0.640625,-0.515625,0.281250,0.500000,0.375000
156360,-0.639888,-0.512330,0.271499,0.502280,0.378440,-0.640625,-0.515625,0.281250,0.500000,0.375000
156368,-0.639888,-0.512330,0.271499,0.502280,0.378440,-0.640625,-0.515625,0.281250,0.500000,0.375000
156376,-0.639888,-0.512330,0.271499,0.502280,0.378440,-0.640625,-0.515625,0.281250,0.500000,0.375000
156424,-0.639888,-0.512330,0.271499,0.502280,0.378440,-0.640625,-0.515625,0.281250,0.500000,0.375000
156432,-0.639888,-0.512330,0.271499,0.502280,0.378440,-0.640625,-0.515625,0.281250,0.500000,0.375000
156440,-0.639888,-0.512330,0.271499,0.502280,0.378440,-0.640625,-0.515625,0.281250,0.500000,0.375000
156448,-0.639888,-0.512330,0.271499,0.502280,0.378440,-0.640625,-0.515625,0.281250,0.500000,0.375000
156488,-0.639888,-0.512330,0.271499,0.502280,0.378440,-0.640625,-0.515625,0.281250,0.500000,0.375000
156496,-0.639888,-0.512330,0.271499,0.502280,0.378440,-0.640625,-0.515625,0.281250,0.500000,0.375000
156552,-0.639888,-0.512330,0.271499,0.502280,0.378440,-0.640625,-0.515625,0.281250,0.500000,0.375000
156560,-0.639888,-0.512330,0.271499,0.502280,0.378440,-0.640625,-0.515625,0.281250,0.500000,0.375000
156616,-0.639888,-0.512330,0.271499,0.502280,0.378440,-0.640625,-0.515625,0.281250,0.500000,0.375000
156624,-0.639888,-0.512330,0.271499,0.502280,0.378440,-0.640625,-0.515625,0.281250,0.500000,0.375000
156680,-0.639888,-0.512330,0.271499,0.502280,0.378440,-0.640625,-0.515625,0.281250,0.500000,0.375000
156688,-0.639888,-0.512330,0.271499,0.502280,0.378440,-0.640625,-0.515625,0.281250,0.500000,0.375000
163912,-0.639888,-0.512330,0.271499,0.502280,0.378440,-0.640625,-0.515625,0.281250,0.500000,0.375000
163920,-0.639888,-0.512330,0.271499,0.502280,0.378440,-0.640625,-0.515625,0.281250,0.500000,0.375000
163976,-0.639888,-0.512330,0.271499,0.502280,0.378440,-0.640625,-0.515625,0.281250,0.500000,0.375000
164040,-0.639888,-0.512330,0.271499,0.502280,0.378440,-0.640625,-0.515625,0.281250,0.500000,0.375000
164104,-0.639888,-0.512330,0.271499,0.502280,0.378440,-0.640625,-0.515625,0.281250,0.500000,0.375000
164112,-0.639888,-0.512330,0.271499,0.502280,0.378440,-0.640625,-0.515625,0.281250,0.500000,0.375000
164120,-0.639888,-0.512330,0.271499,0.502280,0.378440,-0.640625,-0.515625,0.281250,0.500000,0.375000
164168,-0.639888,-0.512330,0.271499,0.502280,0.378440,-0.640625,-0.515625,0.281250,0.500000,0.375000
164176,-0.639888,-0.512330,0.271499,0.502280,0.378440,-0.640625,-0.515625,0.281250,0.500000,0.375000
164232,-0.639888,-0.512330,0.271499,0.502280,0.378440,-0.640625,-0.515625,0.281250,0.500000,0.375000
164240,-0.639888,-0.512330,0.271499,0.502280,0.378440,-0.640625,-0.515625,0.281250,0.500000,0.375000
164248,-0.639888,-0.512330,0.271499,0.502280,0.378440,-0.640625,-0.515625,0.281250,0.500000,0.375000
164296,-0.639888,-0.512330,0.271499,0.502280,0.378440,-0.640625,-0.515625,0.281250,0.500000,0.375000
164304,-0.639888,-0.512330,0.271499,0.502280,0.378440,-0.640625,-0.515625,0.281250,0.500000,0.375000
164312,-0.639888,-0.512330,0.271499,0.502280,0.378440,-0.640625,-0.515625,0.281250,0.500000,0.375000
164360,-0.639888,-0.512330,0.271499,0.502280,0.378440,-0.640625,-0.515625,0.281250,0.500000,0.375000
164368,-0.639888,-0.512330,0.271499,0.502280,0.378440,-0.640625,-0.515625,0.281250,0.500000,0.375000
164376,-0.639888,-0.512330,0.271499,0.502280,0.378440,-0.640625,-0.515625,0.281250,0.500000,0.375000
164424,-0.639888,-0.512330,0.271499,0.502280,0.378440,-0.640625,-0.515625,0.281250,0.500000,0.375000
164432,-0.639888,-0.512330,0.271499,0.502280,0.378440,-0.640625,-0.515625,0.281250,0.500000,0.375000
164440,-0.639888,-0.512330,0.271499,0.502280,0.378440,-0.640625,-0.515625,0.281250,0.500000,0.375000
164488,-0.639888,-0.512330,0.271499,0.502280,0.378440,-0.640625,-0.515625,0.281250,0.500000,0.375000
164496,-0.639888,-0.512330,0.271499,0.502280,0.378440,-0.640625,-0.515625,0.281250,0.500000,0.375000
164504,-0.639888,-0.512330,0.271499,0.502280,0.378440,-0.640625,-0.515625,0.281250,0.500000,0.375000
164552,-0.639888,-0.512330,0.271499,0.502280,0.378440,-0.640625,-0.515625,0.281250,0.500000,0.375000
164560,-0.639888,-0.512330,0.271499,0.502280,0.378440,-0.640625,-0.515625,0.281250,0.500000,0.375000
164616,-0.639888,-0.512330,0.271499,0.502280,0.378440,-0.640625,-0.515625,0.281250,0.500000,0.375000
164624,-0.639888,-0.512330,0.271499,0.502280,0.378440,-0.640625,-0.515625,0.281250,0.500000,0.375000
164632,-0.639888,-0.512330,0.271499,0.502280,0.378440,-0.640625,-0.515625,0.281250,0.500000,0.375000
164680,-0.639888,-0.512330,0.271499,0.502280,0.378440,-0.640625,-0.515625,0.281250,0.500000,0.375000
164688,-0.639888,-0.512330,0.271499,0.502280,0.378440,-0.640625,-0.515625,0.281250,0.500000,0.375000
164744,-0.639888,-0.512330,0.271499,0.502280,0.378440,-0.640625,-0.515625,0.281250,0.500000,0.375000
164752,-0.639888,-0.512330,0.271499,0.502280,0.378440,-0.640625,-0.515625,0.281250,0.500000,0.375000
164808,-0.639888,-0.512330,0.271499,0.502280,0.378440,-0.640625,-0.515625,0.281250,0.500000,0.375000
164816,-0.639888,-0.512330,0.271499,0.502280,0.378440,-0.640625,-0.515625,0.281250,0.500000,0.375000
164824,-0.639888,-0.512330,0.271499,0.502280,0.378440,-0.640625,-0.515625,0.281250,0.500000,0.375000
164872,-0.639888,-0.512330,0.271499,0.502280,0.378440,-0.640625,-0.515625,0.281250,0.500000,0.375000
164880,-0.639888,-0.512330,0.271499,0.502280,0.378440,-0.640625,-0.515625,0.281250,0.500000,0.375000
164888,-0.639888,-0.512330,0.271499,0.502280,0.378440,-0.640625,-0.515625,0.281250,0.500000,0.375000
172104,-0.639888,-0.512330,0.271499,0.502280,0.378440,-0.640625,-0.515625,0.281250,0.500000,0.375000
172168,-0.639888,-0.512330,0.271499,0.502280,0.378440,-0.640625,-0.515625,0.281250,0.500000,0.375000
172232,-0.639888,-0.512330,0.271499,0.502280,0.378440,-0.640625,-0.515625,0.281250,0.500000,0.375000
172296,-0.639888,-0.512330,0.271499,0.502280,0.378440,-0.640625,-0.515625,0.281250,0.500000,0.375000
172368,-0.639888,-0.512330,0.271499,0.502280,0.378440,-0.640625,-0.515625,0.281250,0.500000,0.375000
172376,-0.639888,-0.512330,0.271499,0.502280,0.378440,-0.640625,-0.515625,0.281250,0.500000,0.375000
172440,-0.639888,-0.512330,0.271499,0.502280,0.378440,-0.640625,-0.515625,0.281250,0.500000,0.375000
172488,-0.639888,-0.512330,0.271499,0.502280,0.378440,-0.640625,-0.515625,0.281250,0.500000,0.375000
172496,-0.639888,-0.512330,0.271499,0.502280,0.378440,-0.640625,-0.515625,0.281250,0.500000,0.375000
172504,-0.639888,-0.512330,0.271499,0.502280,0.378440,-0.640625,-0.515625,0.281250,0.500000,0.375000
172512,-0.639888,-0.512330,0.271499,0.502280,0.378440,-0.640625,-0.515625,0.281250,0.500000,0.375000
172552,-0.639888,-0.512330,0.271499,0.502280,0.378440,-0.640625,-0.515625,0.281250,0.500000,0.375000
172560,-0.639888,-0.512330,0.271499,0.502280,0.378440,-0.640625,-0.515625,0.281250,0.500000,0.375000
172568,-0.639888,-0.512330,0.271499,0.502280,0.378440,-0.640625,-0.515625,0.281250,0.500000,0.375000
172576,-0.639888,-0.512330,0.271499,0.502280,0.378440,-0.640625,-0.515625,0.281250,0.500000,0.375000
172584,-0.639888,-0.512330,0.271499,0.502280,0.378440,-0.640625,-0.515625,0.281250,0.500000,0.375000
172616,-0.639888,-0.512330,0.271499,0.502280,0.378440,-0.640625,-0.515625,0.281250,0.500000,0.375000
172624,-0.639888,-0.512330,0.271499,0.502280,0.378440,-0.640625,-0.515625,0.281250,0.500000,0.375000
172632,-0.639888,-0.512330,0.271499,0.502280,0.378440,-0.640625,-0.515625,0.281250,0.500000,0.375000
172680,-0.639888,-0.512330,0.271499,0.502280,0.378440,-0.640625,-0.515625,0.281250,0.500000,0.375000
172688,-0.639888,-0.512330,0.271499,0.502280,0.378440,-0.640625,-0.515625,0.281250,0.500000,0.375000
172744,-0.639888,-0.512330,0.271499,0.502280,0.378440,-0.640625,-0.515625,0.281250,0.500000,0.375000
172752,-0.639888,-0.512330,0.271499,0.502280,0.378440,-0.640625,-0.515625,0.281250,0.500000,0.375000
172760,-0.639888,-0.512330,0.271499,0.502280,0.378440,-0.640625,-0.515625,0.281250,0.500000,0.375000
172808,-0.639888,-0.512330,0.271499,0.502280,0.378440,-0.640625,-0.515625,0.281250,0.500000,0.375000
172816,-0.639888,-0.512330,0.271499,0.502280,0.378440,-0.640625,-0.515625,0.281250,0.500000,0.375000
172824,-0.639888,-0.512330,0.271499,0.502280,0.378440,-0.640625,-0.515625,0.281250,0.500000,0.375000
172872,-0.639888,-0.512330,0.271499,0.502280,0.378440,-0.640625,-0.515625,0.281250,0.500000,0.375000
172880,-0.639888,-0.512330,0.271499,0.502280,0.378440,-0.640625,-0.515625,0.281250,0.500000,0.375000
172936,-0.639888,-0.512330,0.271499,0.502280,0.378440,-0.640625,-0.515625,0.281250,0.500000,0.375000
172944,-0.639888,-0.512330,0.271499,0.502280,0.378440,-0.640625,-0.515625,0.281250,0.500000,0.375000
173000,-0.639888,-0.512330,0.271499,0.502280,0.378440,-0.640625,-0.515625,0.281250,0.500000,0.375000
173008,-0.639888,-0.512330,0.271499,0.502280,0.378440,-0.640625,-0.515625,0.281250,0.500000,0.375000
173016,-0.639888,-0.512330,0.271499,0.502280,0.378440,-0.640625,-0.515625,0.281250,0.500000,0.375000
173064,-0.639888,-0.512330,0.271499,0.502280,0.378440,-0.640625,-0.515625,0.281250,0.500000,0.375000
173072,-0.639888,-0.512330,0.271499,0.502280,0.378440,-0.640625,-0.515625,0.281250,0.500000,0.375000
180296,-0.639888,-0.512330,0.271499,0.502280,0.378440,-0.640625,-0.515625,0.281250,0.500000,0.375000
180304,-0.639888,-0.512330,0.271499,0.502280,0.378440,-0.640625,-0.515625,0.281250,0.500000,0.375000
180360,-0.639888,-0.512330,0.271499,0.502280,0.378440,-0.640625,-0.515625,0.281250,0.500000,0.375000
180424,-0.639888,-0.512330,0.271499,0.502280,0.378440,-0.640625,-0.515625,0.281250,0.500000,0.375000
180432,-0.639888,-0.512330,0.271499,0.502280,0.378440,-0.640625,-0.515625,0.281250,0.500000,0.375000
180440,-0.639888,-0.512330,0.271499,0.502280,0.378440,-0.640625,-0.515625,0.281250,0.500000,0.375000
180488,-0.639888,-0.512330,0.271499,0.502280,0.378440,-0.640625,-0.515625,0.281250,0.500000,0.375000
180552,-0.639888,-0.512330,0.271499,0.502280,0.378440,-0.640625,-0.515625,0.281250,0.500000,0.375000
180560,-0.639888,-0.512330,0.271499,0.502280,0.378440,-0.640625,-0.515625,0.281250,0.500000,0.375000
180568,-0.639888,-0.512330,0.271499,0.502280,0.378440,-0.640625,-0.515625,0.281250,0.500000,0.375000
180576,-0.639888,-0.512330,0.271499,0.502280,0.378440,-0.640625,-0.515625,0.281250,0.500000,0.375000
180616,-0.639888,-0.512330,0.271499,0.502280,0.378440,-0.640625,-0.515625,0.281250,0.500000,0.375000
180624,-0.639888,-0.512330,0.271499,0.502280,0.378440,-0.640625,-0.515625,0.281250,0.500000,0.375000
180632,-0.639888,-0.512330,0.271499,0.502280,0.378440,-0.640625,-0.515625,0.281250,0.500000,0.375000
180680,-0.639888,-0.512330,0.271499,0.502280,0.378440,-0.640625,-0.515625,0.281250,0.500000,0.375000
180688,-0.639888,-0.512330,0.271499,0.502280,0.378440,-0.640625,-0.515625,0.281250,0.500000,0.375000
180696,-0.639888,-0.512330,0.271499,0.502280,0.378440,-0.640625,-0.515625,0.281250,0.500000,0.375000
180744,-0.639888,-0.512330,0.271499,0.502280,0.378440,-0.640625,-0.515625,0.281250,0.500000,0.375000
180752,-0.639888,-0.512330,0.271499,0.502280,0.378440,-0.640625,-0.515625,0.281250,0.500000,0.375000
180760,-0.639888,-0.512330,0.271499,0.502280,0.378440,-0.640625,-0.515625,0.281250,0.500000,0.375000
180808,-0.639888,-0.512330,0.271499,0.502280,0.378440,-0.640625,-0.515625,0.281250,0.500000,0.375000
180816,-0.639888,-0.512330,0.271499,0.502280,0.378440,-0.640625,-0.515625,0.281250,0.500000,0.375000
180872,-0.639888,-0.512330,0.271499,0.502280,0.378440,-0.640625,-0.515625,0.281250,0.500000,0.375000
180880,-0.639888,-0.512330,0.271499,0.502280,0.378440,-0.640625,-0.515625,0.281250,0.500000,0.375000
180888,-0.639888,-0.512330,0.271499,0.502280,0.378440,-0.640625,-0.515625,0.281250,0.500000,0.375000
180936,-0.639888,-0.512330,0.271499,0.502280,0.378440,-0.640625,-0.515625,0.281250,0.500000,0.375000
180944,-0.639888,-0.512330,0.271499,0.502280,0.378440,-0.640625,-0.515625,0.281250,0.500000,0.375000
180952,-0.639888,-0.512330,0.271499,0.502280,0.378440,-0.640625,-0.515625,0.281250,0.500000,0.375000
181000,-0.639888,-0.512330,0.271499,0.502280,0.378440,-0.640625,-0.515625,0.281250,0.500000,0.375000
181008,-0.639888,-0.512330,0.271499,0.502280,0.378440,-0.640625,-0.515625,0.281250,0.500000,0.375000
181064,-0.639888,-0.512330,0.271499,0.502280,0.378440,-0.640625,-0.515625,0.281250,0.500000,0.375000
181072,-0.639888,-0.512330,0.271499,0.502280,0.378440,-0.640625,-0.515625,0.281250,0.500000,0.375000
181128,-0.639888,-0.512330,0.271499,0.502280,0.378440,-0.640625,-0.515625,0.281250,0.500000,0.375000
181136,-0.639888,-0.512330,0.271499,0.502280,0.378440,-0.640625,-0.515625,0.281250,0.500000,0.375000
181192,-0.639888,-0.512330,0.271499,0.502280,0.378440,-0.640625,-0.515625,0.281250,0.500000,0.375000
181200,-0.639888,-0.512330,0.271499,0.502280,0.378440,-0.640625,-0.515625,0.281250,0.500000,0.375000
181208,-0.639888,-0.512330,0.271499,0.502280,0.378440,-0.640625,-0.515625,0.281250,0.500000,0.375000
181256,-0.639888,-0.512330,0.271499,0.502280,0.378440,-0.640625,-0.515625,0.281250,0.500000,0.375000
181264,-0.639888,-0.512330,0.271499,0.502280,0.378440,-0.640625,-0.515625,0.281250,0.500000,0.375000
181272,-0.639888,-0.512330,0.271499,0.502280,0.378440,-0.640625,-0.515625,0.281250,0.500000,0.375000
188488,-0.639888,-0.512330,0.271499,0.502280,0.378440,-0.640625,-0.515625,0.281250,0.500000,0.375000
188552,-0.639888,-0.512330,0.271499,0.502280,0.378440,-0.640625,-0.515625,0.281250,0.500000,0.375000
188560,-0.639888,-0.512330,0.271499,0.502280,0.378440,-0.640625,-0.515625,0.281250,0.500000,0.375000
188616,-0.639888,-0.512330,0.271499,0.502280,0.378440,-0.640625,-0.515625,0.281250,0.500000,0.375000
188624,-0.639888,-0.512330,0.271499,0.502280,0.378440,-0.640625,-0.515625,0.281250,0.500000,0.375000
188632,-0.639888,-0.512330,0.271499,0.502280,0.378440,-0.640625,-0.515625,0.281250,0.500000,0.375000
188680,-0.639888,-0.512330,0.271499,0.502280,0.378440,-0.640625,-0.515625,0.281250,0.500000,0.375000
188688,-0.639888,-0.512330,0.271499,0.502280,0.378440,-0.640625,-0.515625,0.281250,0.500000,0.375000
188696,-0.639888,-0.512330,0.271499,0.502280,0.378440,-0.640625,-0.515625,0.281250,0.500000,0.375000
188744,-0.639888,-0.512330,0.271499,0.502280,0.378440,-0.640625,-0.515625,0.281250,0.500000,0.375000
188752,-0.639888,-0.512330,0.271499,0.502280,0.378440,-0.640625,-0.515625,0.281250,0.500000,0.375000
188760,-0.639888,-0.512330,0.271499,0.502280,0.378440,-0.640625,-0.515625,0.281250,0.500000,0.375000
188808,-0.639888,-0.512330,0.271499,0.502280,0.378440,-0.640625,-0.515625,0.281250,0.500000,0.375000
188816,-0.639888,-0.512330,0.271499,0.502280,0.378440,-0.640625,-0.515625,0.281250,0.500000,0.375000
188872,-0.639888,-0.512330,0.271499,0.502280,0.378440,-0.640625,-0.515625,0.281250,0.500000,0.375000
188880,-0.639888,-0.512330,0.271499,0.502280,0.378440,-0.640625,-0.515625,0.281250,0.500000,0.375000
188888,-0.639888,-0.512330,0.271499,0.502280,0.378440,-0.640625,-0.515625,0.281250,0.500000,0.375000
188936,-0.639888,-0.512330,0.271499,0.502280,0.378440,-0.640625,-0.515625,0.281250,0.500000,0.375000
188944,-0.639888,-0.512330,0.271499,0.502280,0.378440,-0.640625,-0.515625,0.281250,0.500000,0.375000
188952,-0.639888,-0.512330,0.271499,0.502280,0.378440,-0.640625,-0.515625,0.281250,0.500000,0.375000
189000,-0.639888,-0.512330,0.271499,0.502280,0.378440,-0.640625,-0.515625,0.281250,0.500000,0.375000
189008,-0.639888,-0.512330,0.271499,0.502280,0.378440,-0.640625,-0.515625,0.281250,0.500000,0.375000
189016,-0.639888,-0.512330,0.271499,0.502280,0.378440,-0.640625,-0.515625,0.281250,0.500000,0.375000
189064,-0.639888,-0.512330,0.271499,0.502280,0.378440,-0.640625,-0.515625,0.281250,0.500000,0.375000
189072,-0.639888,-0.512330,0.271499,0.502280,0.378440,-0.640625,-0.515625,0.281250,0.500000,0.375000
189080,-0.639888,-0.512330,0.271499,0.502280,0.378440,-0.640625,-0.515625,0.281250,0.500000,0.375000
189128,-0.639888,-0.512330,0.271499,0.502280,0.378440,-0.640625,-0.515625,0.281250,0.500000,0.375000
189136,-0.639888,-0.512330,0.271499,0.502280,0.378440,-0.640625,-0.515625,0.281250,0.500000,0.375000
189144,-0.639888,-0.512330,0.271499,0.502280,0.378440,-0.640625,-0.515625,0.281250,0.500000,0.375000
189152,-0.639888,-0.512330,0.271499,0.502280,0.378440,-0.640625,-0.515625,0.281250,0.500000,0.375000
189192,-0.639888,-0.512330,0.271499,0.502280,0.378440,-0.640625,-0.515625,0.281250,0.500000,0.375000
189200,-0.639888,-0.512330,0.271499,0.502280,0.378440,-0.640625,-0.515625,0.281250,0.500000,0.375000
189208,-0.639888,-0.512330,0.271499,0.502280,0.378440,-0.640625,-0.515625,0.281250,0.500000,0.375000
189256,-0.639888,-0.512330,0.271499,0.502280,0.378440,-0.640625,-0.515625,0.281250,0.500000,0.375000
189264,-0.639888,-0.512330,0.271499,0.502280,0.378440,-0.640625,-0.515625,0.281250,0.500000,0.375000
189320,-0.639888,-0.512330,0.271499,0.502280,0.378440,-0.640625,-0.515625,0.281250,0.500000,0.375000
189328,-0.639888,-0.512330,0.271499,0.502280,0.378440,-0.640625,-0.515625,0.281250,0.500000,0.375000
189384,-0.639888,-0.512330,0.271499,0.502280,0.378440,-0.640625,-0.515625,0.281250,0.500000,0.375000
189392,-0.639888,-0.512330,0.271499,0.502280,0.378440,-0.640625,-0.515625,0.281250,0.500000,0.375000
189448,-0.639888,-0.512330,0.271499,0.502280,0.378440,-0.640625,-0.515625,0.281250,0.500000,0.375000
189456,-0.639888,-0.512330,0.271499,0.502280,0.378440,-0.640625,-0.515625,0.281250,0.500000,0.375000
196680,-0.639888,-0.512330,0.271499,0.502280,0.378440,-0.640625,-0.515625,0.281250,0.500000,0.375000
196688,-0.639888,-0.512330,0.271499,0.502280,0.378440,-0.640625,-0.515625,0.281250,0.500000,0.375000
196696,-0.639888,-0.512330,0.271499,0.502280,0.378440,-0.640625,-0.515625,0.281250,0.500000,0.375000
196744,-0.639888,-0.512330,0.271499,0.502280,0.378440,-0.640625,-0.515625,0.281250,0.500000,0.375000
196752,-0.639888,-0.512330,0.271499,0.502280,0.378440,-0.640625,-0.515625,0.281250,0.500000,0.375000
196760,-0.639888,-0.512330,0.271499,0.502280,0.378440,-0.640625,-0.515625,0.281250,0.500000,0.375000
196808,-0.639888,-0.512330,0.271499,0.502280,0.378440,-0.640625,-0.515625,0.281250,0.500000,0.375000
196816,-0.639888,-0.512330,0.271499,0.502280,0.378440,-0.640625,-0.515625,0.281250,0.500000,0.375000
196872,-0.639888,-0.512330,0.271499,0.502280,0.378440,-0.640625,-0.515625,0.281250,0.500000,0.375000
196936,-0.639888,-0.512330,0.271499,0.502280,0.378440,-0.640625,-0.515625,0.281250,0.500000,0.375000
196944,-0.639888,-0.512330,0.271499,0.502280,0.378440,-0.640625,-0.515625,0.281250,0.500000,0.375000
196952,-0.639888,-0.512330,0.271499,0.502280,0.378440,-0.640625,-0.515625,0.281250,0.500000,0.375000
197000,-0.639888,-0.512330,0.271499,0.502280,0.378440,-0.640625,-0.515625,0.281250,0.500000,0.375000
197008,-0.639888,-0.512330,0.271499,0.502280,0.378440,-0.640625,-0.515625,0.281250,0.500000,0.375000
197016,-0.639888,-0.512330,0.271499,0.502280,0.378440,-0.640625,-0.515625,0.281250,0.500000,0.375000
197064,-0.639888,-0.512330,0.271499,0.502280,0.378440,-0.640625,-0.515625,0.281250,0.500000,0.375000
197072,-0.639888,-0.512330,0.271499,0.502280,0.378440,-0.640625,-0.515625,0.281250,0.500000,0.375000
197128,-0.639888,-0.512330,0.271499,0.502280,0.378440,-0.640625,-0.515625,0.281250,0.500000,0.375000
197136,-0.639888,-0.512330,0.271499,0.502280,0.378440,-0.640625,-0.515625,0.281250,0.500000,0.375000
197144,-0.639888,-0.512330,0.271499,0.502280,0.378440,-0.640625,-0.515625,0.281250,0.500000,0.375000
197192,-0.639888,-0.512330,0.271499,0.502280,0.378440,-0.640625,-0.515625,0.281250,0.500000,0.375000
197200,-0.639888,-0.512330,0.271499,0.502280,0.378440,-0.640625,-0.515625,0.281250,0.500000,0.375000
197208,-0.639888,-0.512330,0.271499,0.502280,0.378440,-0.640625,-0.515625,0.281250,0.500000,0.375000
197256,-0.639888,-0.512330,0.271499,0.502280,0.378440,-0.640625,-0.515625,0.281250,0.500000,0.375000
197264,-0.639888,-0.512330,0.271499,0.502280,0.378440,-0.640625,-0.515625,0.281250,0.500000,0.375000
197272,-0.639888,-0.512330,0.271499,0.502280,0.378440,-0.640625,-0.515625,0.281250,0.500000,0.375000
197280,-0.639888,-0.512330,0.271499,0.502280,0.378440,-0.640625,-0.515625,0.281250,0.500000,0.375000
197320,-0.639888,-0.512330,0.271499,0.502280,0.378440,-0.640625,-0.515625,0.281250,0.500000,0.375000
197328,-0.639888,-0.512330,0.271499,0.502280,0.378440,-0.640625,-0.515625,0.281250,0.500000,0.375000
197336,-0.639888,-0.512330,0.271499,0.502280,0.378440,-0.640625,-0.515625,0.281250,0.500000,0.375000
197384,-0.639888,-0.512330,0.271499,0.502280,0.378440,-0.640625,-0.515625,0.281250,0.500000,0.375000
197392,-0.639888,-0.512330,0.271499,0.502280,0.378440,-0.640625,-0.515625,0.281250,0.500000,0.375000
197400,-0.639888,-0.512330,0.271499,0.502280,0.378440,-0.640625,-0.515625,0.281250,0.500000,0.375000
197448,-0.639888,-0.512330,0.271499,0.502280,0.378440,-0.640625,-0.515625,0.281250,0.500000,0.375000
197456,-0.639888,-0.512330,0.271499,0.502280,0.378440,-0.640625,-0.515625,0.281250,0.500000,0.375000
197512,-0.639888,-0.512330,0.271499,0.502280,0.378440,-0.640625,-0.515625,0.281250,0.500000,0.375000
197520,-0.639888,-0.512330,0.271499,0.502280,0.378440,-0.640625,-0.515625,0.281250,0.500000,0.375000
197576,-0.639888,-0.512330,0.271499,0.502280,0.378440,-0.640625,-0.515625,0.281250,0.500000,0.375000
197584,-0.639888,-0.512330,0.271499,0.502280,0.378440,-0.640625,-0.515625,0.281250,0.500000,0.375000
197640,-0.639888,-0.512330,0.271499,0.502280,0.378440,-0.640625,-0.515625,0.281250,0.500000,0.375000
197648,-0.639888,-0.512330,0.271499,0.502280,0.378440,-0.640625,-0.515625,0.281250,0.500000,0.375000
204872,-0.639888,-0.512330,0.271499,0.502280,0.378440,-0.640625,-0.515625,0.281250,0.500000,0.375000
204936,-0.639888,-0.512330,0.271499,0.502280,0.378440,-0.640625,-0.515625,0.281250,0.500000,0.375000
204944,-0.639888,-0.512330,0.271499,0.502280,0.378440,-0.640625,-0.515625,0.281250,0.500000,0.375000
204952,-0.639888,-0.512330,0.271499,0.502280,0.378440,-0.640625,-0.515625,0.281250,0.500000,0.375000
205000,-0.639888,-0.512330,0.271499,0.502280,0.378440,-0.640625,-0.515625,0.281250,0.500000,0.375000
205064,-0.639888,-0.512330,0.271499,0.502280,0.378440,-0.640625,-0.515625,0.281250,0.500000,0.375000
205072,-0.639888,-0.512330,0.271499,0.502280,0.378440,-0.640625,-0.515625,0.281250,0.500000,0.375000
205128,-0.639888,-0.512330,0.271499,0.502280,0.378440,-0.640625,-0.515625,0.281250,0.500000,0.375000
205136,-0.639888,-0.512330,0.271499,0.502280,0.378440,-0.640625,-0.515625,0.281250,0.500000,0.375000
205144,-0.639888,-0.512330,0.271499,0.502280,0.378440,-0.640625,-0.515625,0.281250,0.500000,0.375000
205192,-0.639888,-0.512330,0.271499,0.502280,0.378440,-0.640625,-0.515625,0.281250,0.500000,0.375000
205200,-0.639888,-0.512330,0.271499,0.502280,0.378440,-0.640625,-0.515625,0.281250,0.500000,0.375000
205208,-0.639888,-0.512330,0.271499,0.502280,0.378440,-0.640625,-0.515625,0.281250,0.500000,0.375000
205256,-0.639888,-0.512330,0.271499,0.502280,0.378440,-0.640625,-0.515625,0.281250,0.500000,0.375000
205264,-0.639888,-0.512330,0.271499,0.502280,0.378440,-0.640625,-0.515625,0.281250,0.500000,0.375000
205272,-0.639888,-0.512330,0.271499,0.502280,0.378440,-0.640625,-0.515625,0.281250,0.500000,0.375000
205320,-0.639888,-0.512330,0.271499,0.502280,0.378440,-0.640625,-0.515625,0.281250,0.500000,0.375000
205328,-0.639888,-0.512330,0.271499,0.502280,0.378440,-0.640625,-0.515625,0.281250,0.500000,0.375000
205336,-0.639888,-0.512330,0.271499,0.502280,0.378440,-0.640625,-0.515625,0.281250,0.500000,0.375000
205344,-0.639888,-0.512330,0.271499,0.502280,0.378440,-0.640625,-0.515625,0.281250,0.500000,0.375000
205384,-0.639888,-0.512330,0.271499,0.502280,0.378440,-0.640625,-0.515625,0.281250,0.500000,0.375000
205392,-0.639888,-0.512330,0.271499,0.502280,0.378440,-0.640625,-0.515625,0.281250,0.500000,0.375000
205448,-0.639888,-0.512330,0.271499,0.502280,0.378440,-0.640625,-0.515625,0.281250,0.500000,0.375000
205456,-0.639888,-0.512330,0.271499,0.502280,0.378440,-0.640625,-0.515625,0.281250,0.500000,0.375000
205464,-0.639888,-0.512330,0.271499,0.502280,0.378440,-0.640625,-0.515625,0.281250,0.500000,0.375000
205512,-0.639888,-0.512330,0.271499,0.502280,0.378440,-0.640625,-0.515625,0.281250,0.500000,0.375000
205520,-0.639888,-0.512330,0.271499,0.502280,0.378440,-0.640625,-0.515625,0.281250,0.500000,0.375000
205528,-0.639888,-0.512330,0.271499,0.502280,0.378440,-0.640625,-0.515625,0.281250,0.500000,0.375000
205576,-0.639888,-0.512330,0.271499,0.502280,0.378440,-0.640625,-0.515625,0.281250,0.500000,0.375000
205584,-0.639888,-0.512330,0.271499,0.502280,0.378440,-0.640625,-0.515625,0.281250,0.500000,0.375000
