stripid,PU,S,A,A_std,E_pu,E_pu_std,w1,w2,w3,w4,w5,sw1,sw2,sw3,sw4,sw5,eta_ring,w1c,w2c,w3c,w4c,w5c
237640,30,2,1.221600,0.065442,0.013443,0.013142,-0.716590,-0.480153,0.312786,0.515040,0.368918,0.072512,0.068065,0.078994,0.066033,0.072243,-18,-0.718750,-0.484375,0.312500,0.515625,0.375000
237640,30,10,6.058930,0.179015,0.013061,0.011735,-0.712195,-0.475566,0.306243,0.510538,0.370980,0.018692,0.014074,0.020540,0.013126,0.016123,-18,-0.718750,-0.484375,0.312500,0.515625,0.375000
237640,30,30,18.153500,0.512859,0.013344,0.012615,-0.711271,-0.474929,0.305929,0.509915,0.370357,0.013538,0.007954,0.015940,0.005515,0.012949,-18,-0.718750,-0.468750,0.296875,0.515625,0.375000
237640,50,2,1.231990,0.102657,0.022323,0.017126,-0.720249,-0.484385,0.318553,0.519955,0.366126,0.091885,0.082326,0.097907,0.081860,0.101795,-18,-0.718750,-0.484375,0.312500,0.515625,0.375000
237640,50,10,6.069630,0.200693,0.022011,0.016766,-0.713303,-0.476398,0.307069,0.511205,0.371428,0.021493,0.016418,0.023457,0.016115,0.017081,-18,-0.718750,-0.484375,0.312500,0.515625,0.375000
237640,50,30,18.160800,0.515703,0.022257,0.016331,-0.711745,-0.475291,0.306175,0.510232,0.370629,0.013986,0.008348,0.016270,0.006237,0.012973,-18,-0.718750,-0.484375,0.312500,0.515625,0.375000
229640,30,2,1.194930,0.065973,0.013167,0.012621,-0.701406,-0.489624,0.313020,0.516601,0.361408,0.065458,0.069305,0.075119,0.064285,0.068360,-18,-0.703125,-0.484375,0.312500,0.515625,0.359375
229640,30,10,5.924250,0.079414,0.013353,0.012256,-0.698914,-0.485908,0.307239,0.512851,0.364731,0.014700,0.014141,0.015730,0.013584,0.012032,-18,-0.703125,-0.484375,0.312500,0.515625,0.359375
229640,30,30,17.744400,0.162332,0.013402,0.012370,-0.697669,-0.485307,0.306706,0.511901,0.364368,0.007463,0.004914,0.008430,0.005497,0.006526,-18,-0.703125,-0.484375,0.312500,0.515625,0.359375
229640,50,2,1.203350,0.072759,0.022516,0.016900,-0.707609,-0.495189,0.320586,0.522576,0.359636,0.086512,0.087862,0.096336,0.082319,0.091213,-18,-0.703125,-0.500000,0.328125,0.515625,0.359375
229640,50,10,5.933420,0.107783,0.022171,0.016567,-0.699650,-0.486912,0.307933,0.513546,0.365083,0.017584,0.015575,0.019136,0.015906,0.012853,-18,-0.703125,-0.484375,0.312500,0.515625,0.359375
229640,50,30,17.754500,0.173483,0.022505,0.017757,-0.698055,-0.485678,0.306948,0.512218,0.364567,0.008223,0.006148,0.009221,0.006541,0.006983,-18,-0.703125,-0.484375,0.312500,0.515625,0.359375
229576,30,2,1.196680,0.058330,0.014919,0.014125,-0.682959,-0.498999,0.289316,0.514835,0.377808,0.080919,0.078125,0.077375,0.072204,0.078329,-18,-0.687500,-0.500000,0.296875,0.515625,0.375000
229576,30,10,5.927040,0.062443,0.014606,0.012745,-0.681273,-0.494399,0.283482,0.511152,0.381039,0.020613,0.017070,0.018295,0.015300,0.012428,-18,-0.671875,-0.500000,0.281250,0.515625,0.375000
229576,30,30,17.751300,0.064485,0.014233,0.011958,-0.680034,-0.493421,0.282796,0.510076,0.380583,0.015113,0.008903,0.010467,0.005425,0.008098,-18,-0.671875,-0.500000,0.281250,0.515625,0.375000
229576,50,2,1.205950,0.079648,0.023994,0.016265,-0.690487,-0.506881,0.296445,0.523162,0.377761,0.083231,0.093261,0.100136,0.086458,0.093496,-18,-0.687500,-0.500000,0.296875,0.515625,0.375000
229576,50,10,5.935790,0.087290,0.023780,0.020402,-0.682031,-0.495095,0.283822,0.511812,0.381493,0.021000,0.017375,0.018090,0.015155,0.013244,-18,-0.687500,-0.500000,0.281250,0.515625,0.390625
229576,50,30,17.763100,0.094939,0.024028,0.015851,-0.680355,-0.493701,0.282944,0.510295,0.380817,0.015552,0.009498,0.010998,0.006293,0.008232,-18,-0.671875,-0.500000,0.281250,0.515625,0.375000
229512,30,2,0.960743,0.063674,0.014406,0.012588,-0.687848,-0.495532,0.298000,0.509623,0.375757,0.087323,0.084737,0.091541,0.082471,0.084282,-18,-0.687500,-0.500000,0.296875,0.515625,0.375000
229512,30,10,4.747980,0.060874,0.014584,0.013134,-0.684350,-0.490608,0.290584,0.504498,0.379877,0.019354,0.017167,0.018206,0.016025,0.013503,-18,-0.687500,-0.484375,0.296875,0.500000,0.375000
229512,30,30,14.215500,0.075624,0.014486,0.012784,-0.683189,-0.489593,0.289923,0.503547,0.379311,0.012174,0.007836,0.009769,0.006411,0.006943,-18,-0.687500,-0.484375,0.296875,0.500000,0.375000
229512,50,2,0.971019,0.104458,0.024039,0.017224,-0.694202,-0.503884,0.307622,0.517305,0.373158,0.108947,0.111861,0.113310,0.100765,0.113126,-18,-0.703125,-0.500000,0.312500,0.515625,0.375000
229512,50,10,4.759650,0.100574,0.024241,0.017145,-0.685931,-0.491884,0.292052,0.505967,0.379796,0.025005,0.024571,0.031650,0.021440,0.032282,-18,-0.687500,-0.484375,0.296875,0.500000,0.375000
229512,50,30,14.227100,0.122624,0.024183,0.016759,-0.683700,-0.489799,0.290124,0.503793,0.379583,0.012690,0.009029,0.010412,0.007460,0.007554,-18,-0.687500,-0.484375,0.296875,0.500000,0.375000
229448,30,2,0.956232,0.067452,0.012505,0.012021,-0.680124,-0.501626,0.300370,0.513840,0.367540,0.079210,0.086311,0.085598,0.080713,0.081723,-18,-0.687500,-0.500000,0.296875,0.515625,0.375000
229448,30,10,4.730190,0.073823,0.012462,0.011652,-0.678261,-0.496542,0.293374,0.509129,0.372300,0.018177,0.017432,0.021054,0.017029,0.014925,-18,-0.671875,-0.500000,0.296875,0.500000,0.375000
229448,30,30,14.165300,0.103268,0.012610,0.012819,-0.676991,-0.495637,0.292784,0.508094,0.371750,0.009802,0.006653,0.013253,0.006788,0.009247,-18,-0.671875,-0.500000,0.296875,0.500000,0.375000
229448,50,2,0.962419,0.062170,0.020824,0.016013,-0.684740,-0.509453,0.307072,0.520675,0.366446,0.096907,0.108246,0.108332,0.096382,0.103550,-18,-0.687500,-0.515625,0.312500,0.515625,0.375000
229448,50,10,4.738390,0.081767,0.021439,0.017155,-0.679719,-0.497675,0.294762,0.510273,0.372358,0.022152,0.022743,0.027033,0.022056,0.019203,-18,-0.687500,-0.500000,0.296875,0.515625,0.375000
229448,50,30,14.174800,0.130474,0.021109,0.015831,-0.677421,-0.496042,0.293031,0.508416,0.372016,0.010339,0.007814,0.013653,0.007822,0.009500,-18,-0.671875,-0.500000,0.296875,0.500000,0.375000
221448,30,2,0.981776,0.067471,0.013760,0.013095,-0.718220,-0.482082,0.323997,0.519613,0.356692,0.096887,0.086625,0.106713,0.085065,0.115077,-18,-0.718750,-0.484375,0.328125,0.515625,0.359375
221448,30,10,4.857350,0.138003,0.013628,0.013058,-0.714524,-0.476565,0.313997,0.513409,0.363683,0.020850,0.017087,0.025613,0.016602,0.021164,-18,-0.718750,-0.468750,0.312500,0.515625,0.359375
221448,30,30,14.545500,0.370598,0.013712,0.012966,-0.713475,-0.475742,0.313503,0.512691,0.363023,0.013751,0.008321,0.020153,0.007977,0.017199,-18,-0.718750,-0.468750,0.312500,0.515625,0.359375
221448,50,2,0.991450,0.088194,0.022889,0.017223,-0.721873,-0.488328,0.329274,0.524546,0.356382,0.108838,0.108160,0.116024,0.099953,0.114661,-18,-0.718750,-0.484375,0.328125,0.515625,0.359375
221448,50,10,4.866270,0.147626,0.022648,0.016104,-0.716270,-0.477584,0.315213,0.514735,0.363907,0.024548,0.020177,0.029553,0.020309,0.022648,-18,-0.718750,-0.468750,0.312500,0.515625,0.359375
221448,50,30,14.555600,0.377939,0.022533,0.015845,-0.713887,-0.475918,0.313689,0.512915,0.363201,0.014052,0.008912,0.020419,0.008500,0.017416,-18,-0.718750,-0.468750,0.312500,0.515625,0.359375
229648,30,2,0.980155,0.086762,0.014584,0.012993,-0.720559,-0.481855,0.322488,0.519732,0.360194,0.087439,0.088599,0.098971,0.083035,0.094257,-18,-0.718750,-0.484375,0.328125,0.515625,0.359375
229648,30,10,4.832400,0.085990,0.014323,0.012088,-0.715220,-0.475744,0.313036,0.512422,0.365507,0.020582,0.018140,0.020473,0.017007,0.014002,-18,-0.718750,-0.468750,0.312500,0.515625,0.359375
229648,30,30,14.468600,0.174703,0.014421,0.012690,-0.713827,-0.474669,0.312088,0.511335,0.365073,0.011672,0.008725,0.010250,0.005890,0.005662,-18,-0.718750,-0.468750,0.312500,0.515625,0.359375
229648,50,2,0.987753,0.092174,0.024360,0.016797,-0.725162,-0.488682,0.330520,0.525519,0.357805,0.113432,0.111235,0.122968,0.104245,0.121673,-18,-0.734375,-0.484375,0.328125,0.531250,0.359375
229648,50,10,4.840810,0.096475,0.023977,0.016478,-0.716686,-0.476562,0.313598,0.513372,0.366278,0.024345,0.020005,0.024496,0.019792,0.015123,-18,-0.718750,-0.468750,0.312500,0.515625,0.359375
229648,50,30,14.476900,0.172903,0.024041,0.016811,-0.714361,-0.475017,0.312513,0.511819,0.365045,0.012535,0.009710,0.017163,0.008751,0.014812,-18,-0.718750,-0.468750,0.312500,0.515625,0.359375
229584,30,2,0.977356,0.059681,0.014612,0.012967,-0.706399,-0.491819,0.320407,0.520824,0.356987,0.092044,0.090535,0.101482,0.083132,0.106974,-18,-0.703125,-0.484375,0.312500,0.515625,0.359375
229584,30,10,4.831800,0.088646,0.014424,0.012916,-0.702914,-0.484867,0.310651,0.514454,0.362676,0.018190,0.018091,0.019039,0.016636,0.013423,-18,-0.703125,-0.484375,0.312500,0.515625,0.359375
229584,30,30,14.463500,0.062352,0.014402,0.012250,-0.701335,-0.483723,0.309463,0.513188,0.362407,0.009434,0.007247,0.009633,0.005893,0.005828,-18,-0.703125,-0.484375,0.312500,0.515625,0.359375
229584,50,2,0.985692,0.076578,0.023956,0.016793,-0.711434,-0.498576,0.327738,0.528037,0.354234,0.118974,0.108522,0.122289,0.101672,0.124555,-18,-0.718750,-0.500000,0.328125,0.531250,0.359375
229584,50,10,4.839410,0.078309,0.024151,0.016828,-0.704145,-0.485469,0.311111,0.515057,0.363447,0.025201,0.020682,0.022321,0.020325,0.018161,-18,-0.703125,-0.484375,0.312500,0.515625,0.359375
229584,50,30,14.473000,0.090682,0.024269,0.017266,-0.701930,-0.484143,0.309780,0.513626,0.362667,0.010017,0.008122,0.010409,0.006922,0.006407,-18,-0.703125,-0.484375,0.312500,0.515625,0.359375
229520,30,2,0.977144,0.049451,0.014557,0.014454,-0.719055,-0.484435,0.327139,0.522428,0.353922,0.089937,0.093202,0.103060,0.088414,0.094646,-18,-0.718750,-0.484375,0.328125,0.515625,0.359375
229520,30,10,4.831790,0.079612,0.014566,0.012759,-0.715266,-0.477547,0.316373,0.515677,0.360763,0.022200,0.017804,0.020104,0.016827,0.013989,-18,-0.718750,-0.468750,0.312500,0.515625,0.359375
229520,30,30,14.469100,0.063788,0.014492,0.012892,-0.713948,-0.476352,0.315446,0.514759,0.360095,0.014471,0.009138,0.010228,0.005847,0.006548,-18,-0.718750,-0.468750,0.312500,0.515625,0.359375
229520,50,2,0.987866,0.097938,0.024228,0.017501,-0.724481,-0.489948,0.333749,0.528959,0.351721,0.110477,0.108545,0.120378,0.102699,0.121933,-18,-0.718750,-0.484375,0.328125,0.531250,0.343750
229520,50,10,4.842710,0.090671,0.024180,0.016804,-0.716959,-0.478432,0.317317,0.516902,0.361172,0.024163,0.020423,0.022690,0.018983,0.015470,-18,-0.718750,-0.468750,0.312500,0.515625,0.359375
229520,50,30,14.480200,0.096928,0.024342,0.017418,-0.714456,-0.476710,0.315747,0.515148,0.360270,0.015278,0.009918,0.011492,0.006971,0.007239,-18,-0.718750,-0.468750,0.312500,0.515625,0.359375
229456,30,2,0.978198,0.059140,0.014456,0.013973,-0.706863,-0.490757,0.319420,0.519722,0.358478,0.094937,0.089575,0.102151,0.083886,0.098798,-18,-0.703125,-0.484375,0.312500,0.515625,0.359375
229456,30,10,4.834130,0.069064,0.014602,0.013234,-0.702924,-0.483577,0.309076,0.512344,0.365081,0.024650,0.019024,0.021709,0.017737,0.014985,-18,-0.703125,-0.484375,0.312500,0.515625,0.359375
229456,30,30,14.477600,0.138107,0.014547,0.014420,-0.701530,-0.482460,0.307988,0.511116,0.364886,0.017989,0.010064,0.012238,0.007098,0.007991,-18,-0.703125,-0.484375,0.312500,0.515625,0.359375
229456,50,2,0.988849,0.096598,0.024091,0.016165,-0.710258,-0.494313,0.323863,0.523091,0.357616,0.112118,0.107406,0.119388,0.099380,0.122371,-18,-0.703125,-0.500000,0.328125,0.515625,0.359375
229456,50,10,4.842870,0.085351,0.024362,0.017345,-0.704721,-0.485283,0.310399,0.513842,0.365763,0.029129,0.025351,0.029159,0.024107,0.019019,-18,-0.703125,-0.484375,0.312500,0.515625,0.359375
229456,50,30,14.486100,0.146820,0.023804,0.015952,-0.702002,-0.482695,0.308197,0.511468,0.365032,0.018527,0.010585,0.012915,0.007824,0.008252,-18,-0.703125,-0.484375,0.312500,0.515625,0.359375
229656,30,2,0.999819,0.074616,0.014504,0.012302,-0.712508,-0.486080,0.323010,0.522256,0.353322,0.098458,0.088347,0.094517,0.083737,0.103114,-18,-0.718750,-0.484375,0.328125,0.515625,0.359375
229656,30,10,4.938430,0.086222,0.014511,0.013375,-0.710356,-0.480887,0.315316,0.516463,0.359463,0.028367,0.017951,0.021343,0.017844,0.024866,-18,-0.703125,-0.484375,0.312500,0.515625,0.359375
229656,30,30,14.789800,0.205566,0.014492,0.012998,-0.709127,-0.479817,0.314201,0.515354,0.359390,0.011784,0.008878,0.012916,0.007025,0.010842,-18,-0.703125,-0.484375,0.312500,0.515625,0.359375
229656,50,2,1.009660,0.102084,0.023786,0.015790,-0.719084,-0.493578,0.329920,0.528415,0.354327,0.102345,0.107757,0.114365,0.095702,0.110843,-18,-0.718750,-0.500000,0.328125,0.531250,0.359375
229656,50,10,4.949520,0.146035,0.024024,0.016485,-0.712206,-0.482202,0.316232,0.517942,0.360234,0.022989,0.025121,0.027585,0.022273,0.018149,-18,-0.703125,-0.484375,0.312500,0.515625,0.359375
229656,50,30,14.799900,0.212596,0.024365,0.017228,-0.709700,-0.480279,0.314503,0.515855,0.359620,0.012173,0.009367,0.013467,0.007611,0.010863,-18,-0.703125,-0.484375,0.312500,0.515625,0.359375
229592,30,2,0.996045,0.075861,0.014525,0.014109,-0.701381,-0.495589,0.314868,0.520289,0.361813,0.080480,0.089955,0.101153,0.084245,0.090549,-18,-0.703125,-0.500000,0.312500,0.531250,0.359375
229592,30,10,4.918640,0.060546,0.014592,0.012871,-0.696943,-0.487995,0.305461,0.513624,0.365853,0.018371,0.018480,0.020616,0.017399,0.014031,-18,-0.703125,-0.484375,0.312500,0.515625,0.359375
229592,30,30,14.727500,0.065071,0.014474,0.012619,-0.695529,-0.486645,0.304336,0.512124,0.365714,0.008164,0.006965,0.008925,0.005717,0.007668,-18,-0.687500,-0.484375,0.296875,0.515625,0.359375
229592,50,2,1.005360,0.084074,0.024272,0.017385,-0.706487,-0.501533,0.321830,0.526192,0.359998,0.103622,0.112327,0.116020,0.097911,0.100280,-18,-0.703125,-0.500000,0.312500,0.531250,0.359375
229592,50,10,4.929150,0.090868,0.024106,0.016123,-0.698305,-0.488834,0.306158,0.514354,0.366628,0.021179,0.020204,0.024199,0.020074,0.017383,-18,-0.703125,-0.484375,0.312500,0.515625,0.359375
229592,50,30,14.737300,0.091725,0.024252,0.016754,-0.696141,-0.487082,0.304721,0.512583,0.365919,0.009162,0.007676,0.009770,0.006549,0.007763,-18,-0.703125,-0.484375,0.312500,0.515625,0.359375
229528,30,2,0.995813,0.062708,0.014353,0.012802,-0.710375,-0.489351,0.325289,0.520750,0.353687,0.087013,0.082295,0.098238,0.081705,0.094448,-18,-0.718750,-0.484375,0.328125,0.515625,0.359375
229528,30,10,4.921020,0.064205,0.014444,0.014951,-0.706732,-0.482577,0.315595,0.514160,0.359554,0.017843,0.015928,0.019535,0.015209,0.014129,-18,-0.703125,-0.484375,0.312500,0.515625,0.359375
229528,30,30,14.733300,0.062843,0.014511,0.013153,-0.705324,-0.481682,0.314717,0.513039,0.359249,0.010539,0.007332,0.012481,0.006287,0.008026,-18,-0.703125,-0.484375,0.312500,0.515625,0.359375
229528,50,2,1.006380,0.086526,0.024275,0.016837,-0.716299,-0.493960,0.330418,0.525681,0.354160,0.097905,0.102598,0.112030,0.095996,0.103500,-18,-0.718750,-0.500000,0.328125,0.531250,0.359375
229528,50,10,4.930960,0.084114,0.024071,0.016229,-0.708462,-0.483702,0.316795,0.515405,0.359964,0.022044,0.019665,0.027440,0.019359,0.021653,-18,-0.703125,-0.484375,0.312500,0.515625,0.359375
229528,50,30,14.744600,0.093803,0.024382,0.016938,-0.705844,-0.481981,0.315004,0.513450,0.359371,0.011123,0.007970,0.013132,0.006897,0.008532,-18,-0.703125,-0.484375,0.312500,0.515625,0.359375
229464,30,2,1.002620,0.064767,0.014696,0.013622,-0.696923,-0.493565,0.298449,0.513572,0.378467,0.086195,0.090661,0.091703,0.081259,0.088648,-18,-0.703125,-0.484375,0.296875,0.515625,0.375000
229464,30,10,4.956360,0.083674,0.014682,0.012965,-0.692459,-0.486326,0.289724,0.507365,0.381697,0.023068,0.020164,0.024300,0.019526,0.016213,-18,-0.687500,-0.484375,0.296875,0.500000,0.375000
229464,30,30,14.838200,0.184373,0.014503,0.012908,-0.691243,-0.485306,0.288937,0.506423,0.381189,0.013851,0.009446,0.012660,0.006817,0.008729,-18,-0.687500,-0.484375,0.296875,0.500000,0.375000
229464,50,2,1.012580,0.088890,0.024283,0.016680,-0.702571,-0.498642,0.303925,0.519465,0.377823,0.102424,0.104057,0.108722,0.094356,0.104832,-18,-0.703125,-0.500000,0.312500,0.515625,0.375000
229464,50,10,4.965020,0.098237,0.024130,0.016210,-0.693925,-0.487300,0.290288,0.508526,0.382412,0.024379,0.020396,0.024711,0.019993,0.016593,-18,-0.687500,-0.484375,0.296875,0.500000,0.375000
229464,50,30,14.848600,0.190187,0.024222,0.017185,-0.691651,-0.485613,0.289092,0.506694,0.381478,0.014169,0.009743,0.013021,0.007294,0.009096,-18,-0.687500,-0.484375,0.296875,0.500000,0.375000
237704,30,2,0.988342,0.073517,0.014347,0.012191,-0.733464,-0.471039,0.323241,0.516791,0.364471,0.087705,0.081720,0.095584,0.080783,0.082286,-18,-0.734375,-0.468750,0.328125,0.515625,0.359375
237704,30,10,4.884570,0.076786,0.014536,0.012925,-0.727995,-0.465950,0.314196,0.511089,0.368659,0.026519,0.020141,0.026863,0.019974,0.020030,-18,-0.734375,-0.468750,0.312500,0.515625,0.375000
237704,30,30,14.626000,0.147745,0.014514,0.012844,-0.726472,-0.464860,0.313072,0.509871,0.368388,0.019652,0.011054,0.018231,0.010336,0.014997,-18,-0.734375,-0.468750,0.312500,0.515625,0.375000
237704,50,2,0.998913,0.084813,0.024637,0.017763,-0.738432,-0.478136,0.332224,0.523488,0.360855,0.118151,0.105226,0.126668,0.102181,0.125792,-18,-0.734375,-0.484375,0.328125,0.531250,0.359375
237704,50,10,4.895120,0.100945,0.024206,0.017891,-0.729180,-0.467028,0.314778,0.511982,0.369448,0.029373,0.023879,0.029954,0.022896,0.021136,-18,-0.734375,-0.468750,0.312500,0.515625,0.375000
237704,50,30,14.634900,0.153134,0.024095,0.016429,-0.727109,-0.465254,0.313417,0.510342,0.368603,0.020129,0.011580,0.018836,0.011009,0.015164,-18,-0.734375,-0.468750,0.312500,0.515625,0.375000
237648,30,2,1.003780,0.086693,0.014631,0.013022,-0.748306,-0.462801,0.323715,0.522721,0.364671,0.089165,0.089175,0.100698,0.086913,0.092523,-18,-0.750000,-0.468750,0.328125,0.531250,0.359375
237648,30,10,4.954620,0.072115,0.014366,0.013391,-0.742715,-0.456669,0.314767,0.514668,0.369948,0.023021,0.017184,0.020950,0.017968,0.019957,-18,-0.750000,-0.453125,0.312500,0.515625,0.375000
237648,30,30,14.837300,0.135433,0.014277,0.012421,-0.741384,-0.456060,0.314084,0.513690,0.369670,0.010725,0.006562,0.012825,0.007533,0.011569,-18,-0.750000,-0.453125,0.312500,0.515625,0.375000
237648,50,2,1.012580,0.086699,0.024205,0.016855,-0.752782,-0.465644,0.330439,0.524786,0.363201,0.113201,0.098308,0.121364,0.096488,0.125498,-18,-0.750000,-0.468750,0.328125,0.531250,0.359375
237648,50,10,4.964990,0.090508,0.023925,0.016678,-0.744371,-0.457867,0.315794,0.515915,0.370530,0.023880,0.019955,0.024637,0.020517,0.017798,-18,-0.750000,-0.453125,0.312500,0.515625,0.375000
237648,50,30,14.847800,0.154386,0.024265,0.017213,-0.741931,-0.456276,0.314372,0.514006,0.369829,0.011778,0.007513,0.013767,0.008520,0.011825,-18,-0.750000,-0.453125,0.312500,0.515625,0.375000
229896,30,2,1.019540,0.065876,0.014260,0.011910,-0.747458,-0.465922,0.344243,0.525531,0.343606,0.094341,0.085845,0.103087,0.084743,0.109167,-18,-0.750000,-0.468750,0.343750,0.531250,0.343750
229896,30,10,5.036550,0.086498,0.014411,0.013818,-0.744229,-0.460235,0.335279,0.519586,0.349599,0.020615,0.016502,0.021543,0.016282,0.015206,-18,-0.750000,-0.453125,0.343750,0.515625,0.343750
229896,30,30,15.081500,0.146537,0.014646,0.013612,-0.742835,-0.459315,0.334288,0.518493,0.349369,0.011088,0.008205,0.011951,0.005851,0.008217,-18,-0.734375,-0.453125,0.328125,0.515625,0.343750
229896,50,2,1.029200,0.090238,0.024578,0.019169,-0.754150,-0.471133,0.352159,0.531855,0.341269,0.107826,0.101257,0.125362,0.102417,0.122096,-18,-0.750000,-0.468750,0.343750,0.531250,0.343750
229896,50,10,5.045620,0.102965,0.024031,0.016264,-0.745378,-0.460813,0.335832,0.520246,0.350114,0.023355,0.019507,0.027545,0.020007,0.020920,-18,-0.750000,-0.453125,0.343750,0.515625,0.343750
229896,50,30,15.090800,0.155139,0.024194,0.017201,-0.743282,-0.459589,0.334570,0.518838,0.349465,0.012076,0.008500,0.012870,0.006696,0.008395,-18,-0.734375,-0.453125,0.328125,0.515625,0.343750
229832,30,2,1.013570,0.069318,0.014360,0.012758,-0.716424,-0.483541,0.326613,0.515597,0.357756,0.079276,0.083718,0.093025,0.077131,0.085996,-18,-0.718750,-0.484375,0.328125,0.515625,0.359375
229832,30,10,5.010830,0.067361,0.014449,0.012728,-0.712349,-0.477087,0.317806,0.510392,0.361239,0.019807,0.016713,0.018939,0.017127,0.014036,-18,-0.718750,-0.468750,0.312500,0.515625,0.359375
229832,30,30,15.002800,0.064860,0.014627,0.013383,-0.711049,-0.476106,0.317021,0.509255,0.360878,0.012054,0.007560,0.009713,0.008823,0.008366,-18,-0.718750,-0.468750,0.312500,0.515625,0.359375
229832,50,2,1.023250,0.110225,0.024119,0.016328,-0.723256,-0.489862,0.333857,0.523953,0.355308,0.096267,0.100344,0.116214,0.095755,0.105433,-18,-0.718750,-0.484375,0.328125,0.515625,0.359375
229832,50,10,5.019980,0.088729,0.024180,0.017120,-0.713833,-0.478286,0.318707,0.511507,0.361905,0.022535,0.019518,0.022553,0.019924,0.015989,-18,-0.718750,-0.484375,0.328125,0.515625,0.359375
229832,50,30,15.012800,0.093794,0.024369,0.016771,-0.711599,-0.476445,0.317326,0.509623,0.361095,0.012403,0.008248,0.010149,0.009333,0.008716,-18,-0.718750,-0.468750,0.312500,0.515625,0.359375
229768,30,2,1.013720,0.058378,0.014539,0.012967,-0.733591,-0.472090,0.341214,0.516685,0.347782,0.086522,0.085380,0.101143,0.078488,0.090764,-19,-0.734375,-0.468750,0.343750,0.515625,0.343750
229768,30,10,5.012660,0.067044,0.014555,0.012636,-0.729797,-0.466832,0.331727,0.511982,0.352921,0.023374,0.019133,0.025336,0.016868,0.016120,-19,-0.734375,-0.468750,0.328125,0.515625,0.359375
229768,30,30,15.010400,0.066120,0.014460,0.012322,-0.728454,-0.465896,0.330761,0.510829,0.352761,0.016768,0.011460,0.018910,0.007484,0.011047,-19,-0.734375,-0.468750,0.328125,0.515625,0.359375
229768,50,2,1.024270,0.089691,0.024062,0.016160,-0.740351,-0.477062,0.347904,0.523421,0.346088,0.104697,0.098664,0.117679,0.091265,0.112292,-19,-0.734375,-0.484375,0.343750,0.531250,0.343750
229768,50,10,5.023600,0.089807,0.024402,0.016938,-0.731505,-0.468035,0.332660,0.513134,0.353746,0.026028,0.021830,0.028317,0.020165,0.017682,-19,-0.734375,-0.468750,0.328125,0.515625,0.359375
229768,50,30,15.020800,0.106358,0.023986,0.016750,-0.729065,-0.466113,0.331090,0.511200,0.352888,0.017242,0.011813,0.019474,0.008174,0.011487,-19,-0.734375,-0.468750,0.328125,0.515625,0.359375
229704,30,2,1.020980,0.107008,0.014661,0.014654,-0.733194,-0.474058,0.337650,0.522032,0.347570,0.093961,0.085390,0.104914,0.081257,0.102403,-18,-0.734375,-0.468750,0.343750,0.515625,0.343750
229704,30,10,5.043470,0.082847,0.014411,0.013374,-0.729257,-0.468459,0.327634,0.515894,0.354188,0.025511,0.017681,0.025129,0.016244,0.030776,-18,-0.734375,-0.468750,0.328125,0.515625,0.359375
229704,30,30,15.101800,0.159009,0.014745,0.013426,-0.728156,-0.467639,0.326659,0.515161,0.353974,0.013533,0.009141,0.015094,0.006875,0.011839,-18,-0.734375,-0.468750,0.328125,0.515625,0.359375
229704,50,2,1.029990,0.080049,0.024131,0.016290,-0.739451,-0.478957,0.344252,0.527274,0.346881,0.109015,0.098294,0.125067,0.094580,0.119442,-18,-0.734375,-0.484375,0.343750,0.531250,0.343750
229704,50,10,5.051500,0.086243,0.024299,0.016712,-0.730859,-0.469480,0.328558,0.517034,0.354747,0.024058,0.019565,0.026270,0.019011,0.018716,-18,-0.734375,-0.468750,0.328125,0.515625,0.359375
229704,50,30,15.108900,0.150845,0.024283,0.017004,-0.728831,-0.467960,0.327160,0.515599,0.354033,0.014011,0.009779,0.015412,0.007461,0.011980,-18,-0.734375,-0.468750,0.328125,0.515625,0.359375
221456,30,2,1.003640,0.056425,0.014429,0.012562,-0.771869,-0.446514,0.342277,0.522587,0.353520,0.092679,0.092218,0.109420,0.088130,0.103184,-18,-0.765625,-0.453125,0.343750,0.515625,0.359375
221456,30,10,4.966050,0.092477,0.014687,0.013211,-0.765481,-0.441771,0.332284,0.515784,0.359184,0.025478,0.016957,0.036857,0.017984,0.032142,-18,-0.765625,-0.437500,0.328125,0.515625,0.359375
221456,30,30,14.868000,0.140717,0.014549,0.014741,-0.763801,-0.440798,0.331180,0.514436,0.358983,0.018553,0.008866,0.032544,0.009953,0.029361,-18,-0.765625,-0.437500,0.328125,0.515625,0.359375
221456,50,2,1.013210,0.090220,0.024168,0.016696,-0.778751,-0.452566,0.349186,0.528642,0.353489,0.112464,0.106467,0.132425,0.101145,0.118794,-18,-0.781250,-0.453125,0.343750,0.531250,0.359375
221456,50,10,4.975040,0.095622,0.024218,0.017758,-0.766596,-0.442471,0.332796,0.516478,0.359793,0.030718,0.020377,0.038972,0.021892,0.034396,-18,-0.765625,-0.437500,0.328125,0.515625,0.359375
221456,50,30,14.876100,0.150954,0.024267,0.016768,-0.764285,-0.441066,0.331395,0.514749,0.359207,0.019124,0.008929,0.032868,0.010211,0.029441,-18,-0.765625,-0.437500,0.328125,0.515625,0.359375
221384,30,2,0.991607,0.074203,0.014407,0.013316,-0.754184,-0.460413,0.345792,0.524195,0.344610,0.090285,0.091381,0.110930,0.090057,0.104723,-18,-0.750000,-0.468750,0.343750,0.531250,0.343750
221384,30,10,4.895990,0.078131,0.014461,0.012416,-0.750040,-0.455414,0.335608,0.518503,0.351343,0.023012,0.018114,0.023016,0.017167,0.016080,-18,-0.750000,-0.453125,0.328125,0.515625,0.359375
221384,30,30,14.660600,0.146887,0.014586,0.012854,-0.748714,-0.454359,0.334585,0.517516,0.350971,0.014463,0.010834,0.013972,0.007102,0.009840,-18,-0.750000,-0.453125,0.328125,0.515625,0.359375
221384,50,2,0.999163,0.082888,0.024122,0.016316,-0.759703,-0.464246,0.351822,0.528571,0.343555,0.114652,0.100435,0.125046,0.103932,0.122209,-18,-0.765625,-0.468750,0.359375,0.531250,0.343750
221384,50,10,4.904530,0.088282,0.023971,0.016230,-0.751404,-0.456213,0.336469,0.519643,0.351506,0.025625,0.020274,0.025840,0.019453,0.017236,-18,-0.750000,-0.453125,0.343750,0.515625,0.343750
221384,50,30,14.668300,0.148920,0.024316,0.016828,-0.749113,-0.454714,0.334771,0.517849,0.351207,0.015069,0.011478,0.014730,0.008156,0.010325,-18,-0.750000,-0.453125,0.328125,0.515625,0.359375
229840,30,2,1.033860,0.075657,0.014517,0.014087,-0.732038,-0.473746,0.328885,0.518587,0.358312,0.079158,0.078903,0.088341,0.077199,0.079090,-19,-0.734375,-0.468750,0.328125,0.515625,0.359375
229840,30,10,5.106730,0.064658,0.014315,0.012181,-0.727349,-0.468710,0.321337,0.513581,0.361142,0.017613,0.017063,0.018493,0.016874,0.013107,-19,-0.734375,-0.468750,0.328125,0.515625,0.359375
229840,30,30,15.289900,0.059232,0.014437,0.012556,-0.725584,-0.467671,0.320259,0.512268,0.360728,0.007111,0.006023,0.007441,0.006302,0.006432,-19,-0.718750,-0.468750,0.312500,0.515625,0.359375
229840,50,2,1.043650,0.100770,0.024317,0.016934,-0.736381,-0.480809,0.338441,0.525581,0.353166,0.110637,0.110077,0.120379,0.099119,0.123282,-19,-0.734375,-0.484375,0.343750,0.531250,0.343750
229840,50,10,5.116280,0.083172,0.024109,0.016079,-0.728198,-0.469318,0.321845,0.514310,0.361361,0.020407,0.017595,0.025972,0.018759,0.023929,-19,-0.734375,-0.468750,0.328125,0.515625,0.359375
229840,50,30,15.300200,0.084264,0.023928,0.017208,-0.726027,-0.467991,0.320425,0.512657,0.360936,0.007904,0.006679,0.008135,0.006830,0.006740,-19,-0.718750,-0.468750,0.312500,0.515625,0.359375
229776,30,2,1.032310,0.057240,0.014569,0.012576,-0.738521,-0.466986,0.323666,0.516909,0.364931,0.086973,0.082920,0.100471,0.082734,0.096566,-19,-0.734375,-0.468750,0.328125,0.515625,0.359375
229776,30,10,5.108910,0.059591,0.014509,0.012832,-0.732523,-0.462126,0.314169,0.510175,0.370305,0.021018,0.018051,0.022072,0.017460,0.015959,-19,-0.734375,-0.468750,0.312500,0.515625,0.375000
229776,30,30,15.298700,0.075971,0.014528,0.012864,-0.731500,-0.461347,0.313376,0.509388,0.370083,0.012242,0.009573,0.011630,0.006181,0.009313,-19,-0.734375,-0.468750,0.312500,0.515625,0.375000
229776,50,2,1.042210,0.091854,0.024340,0.017446,-0.744377,-0.474262,0.332320,0.523373,0.362946,0.111123,0.104234,0.125219,0.108848,0.114207,-19,-0.750000,-0.468750,0.328125,0.531250,0.359375
229776,50,10,5.119280,0.084887,0.024331,0.016503,-0.734250,-0.463067,0.314872,0.511358,0.371087,0.024754,0.020004,0.024215,0.019910,0.016838,-19,-0.734375,-0.468750,0.312500,0.515625,0.375000
229776,50,30,15.307200,0.085152,0.024386,0.016966,-0.731966,-0.461596,0.313620,0.509640,0.370302,0.012857,0.010249,0.012355,0.007124,0.009523,-19,-0.734375,-0.468750,0.312500,0.515625,0.375000
237832,30,2,0.958062,0.068475,0.012625,0.012328,-0.707173,-0.487871,0.302103,0.519958,0.372983,0.083461,0.091268,0.102403,0.085693,0.098994,-18,-0.703125,-0.484375,0.296875,0.515625,0.375000
237832,30,10,4.738160,0.077971,0.012713,0.012323,-0.703985,-0.482113,0.293450,0.514422,0.378226,0.021121,0.019161,0.022058,0.017838,0.016064,-18,-0.703125,-0.484375,0.296875,0.515625,0.375000
237832,30,30,14.190800,0.171646,0.012529,0.011672,-0.702620,-0.480989,0.292555,0.513295,0.377760,0.012037,0.008768,0.013379,0.006222,0.010104,-18,-0.703125,-0.484375,0.296875,0.515625,0.375000
237832,50,2,0.966700,0.095785,0.021088,0.016424,-0.712992,-0.493536,0.309162,0.526311,0.371056,0.102049,0.113000,0.119457,0.100246,0.110562,-18,-0.718750,-0.500000,0.312500,0.531250,0.375000
237832,50,10,4.746790,0.099429,0.021017,0.015400,-0.705084,-0.482637,0.293860,0.515177,0.378685,0.023779,0.021719,0.024228,0.020470,0.017229,-18,-0.703125,-0.484375,0.296875,0.515625,0.375000
237832,50,30,14.199800,0.176821,0.021093,0.016031,-0.703149,-0.481250,0.292893,0.513546,0.377960,0.013089,0.009822,0.014342,0.007724,0.010517,-18,-0.703125,-0.484375,0.296875,0.515625,0.375000
237768,30,2,0.990574,0.057474,0.014513,0.013072,-0.695325,-0.496166,0.303977,0.521880,0.365634,0.088079,0.083807,0.088788,0.079946,0.094423,-18,-0.687500,-0.500000,0.312500,0.515625,0.359375
237768,30,10,4.899730,0.072308,0.014557,0.013047,-0.691495,-0.491559,0.296454,0.516469,0.370130,0.019157,0.016794,0.020573,0.016161,0.015110,-18,-0.687500,-0.500000,0.296875,0.515625,0.375000
237768,30,30,14.669700,0.146438,0.014304,0.012941,-0.690336,-0.490551,0.295783,0.515402,0.369702,0.010286,0.007342,0.012977,0.005605,0.010271,-18,-0.687500,-0.500000,0.296875,0.515625,0.375000
237768,50,2,1.001350,0.081308,0.024269,0.017164,-0.701328,-0.504536,0.313287,0.528878,0.363699,0.106401,0.104998,0.118232,0.098299,0.122690,-18,-0.703125,-0.500000,0.312500,0.531250,0.359375
237768,50,10,4.910390,0.100516,0.024086,0.016339,-0.693056,-0.492669,0.297579,0.517775,0.370371,0.022291,0.021667,0.025431,0.020537,0.017457,-18,-0.687500,-0.500000,0.296875,0.515625,0.375000
237768,50,30,14.678800,0.144916,0.024093,0.016306,-0.690805,-0.491004,0.296016,0.515789,0.370004,0.010946,0.008278,0.013559,0.006585,0.010639,-18,-0.687500,-0.500000,0.296875,0.515625,0.375000
237968,30,2,1.026810,0.098368,0.015610,0.013295,-0.727673,-0.482145,0.336231,0.525631,0.347955,0.094638,0.087800,0.101348,0.081965,0.100885,-18,-0.734375,-0.484375,0.343750,0.531250,0.343750
237968,30,10,5.070230,0.128473,0.015544,0.013966,-0.723728,-0.473622,0.325407,0.519117,0.352826,0.021885,0.017835,0.021003,0.016046,0.014401,-18,-0.718750,-0.468750,0.328125,0.515625,0.343750
237968,30,30,15.184600,0.352432,0.015706,0.013326,-0.722639,-0.472808,0.324723,0.518191,0.352534,0.014154,0.009659,0.011985,0.005721,0.007990,-18,-0.718750,-0.468750,0.328125,0.515625,0.343750
237968,50,2,1.038410,0.108929,0.025837,0.016836,-0.735269,-0.483957,0.342531,0.531172,0.345523,0.106028,0.102929,0.119175,0.098438,0.119039,-18,-0.734375,-0.484375,0.343750,0.531250,0.343750
237968,50,10,5.081940,0.143959,0.025960,0.017060,-0.725541,-0.474992,0.326539,0.520494,0.353500,0.025507,0.021424,0.026350,0.020030,0.017421,-18,-0.734375,-0.468750,0.328125,0.515625,0.359375
237968,50,30,15.196100,0.359464,0.026362,0.017396,-0.723054,-0.473225,0.324903,0.518491,0.352885,0.014889,0.010160,0.012820,0.006901,0.008299,-18,-0.718750,-0.468750,0.328125,0.515625,0.343750
237960,30,2,1.023200,0.066201,0.014514,0.013082,-0.691821,-0.497004,0.307667,0.515632,0.365527,0.088126,0.088438,0.095072,0.078491,0.092647,-18,-0.687500,-0.500000,0.312500,0.515625,0.359375
237960,30,10,5.061680,0.096477,0.014531,0.013579,-0.688817,-0.490865,0.298629,0.510913,0.370140,0.022233,0.019356,0.021678,0.016850,0.018252,-18,-0.687500,-0.500000,0.296875,0.515625,0.375000
237960,30,30,15.154100,0.180228,0.014454,0.012427,-0.687418,-0.490205,0.297686,0.510004,0.369933,0.016352,0.008630,0.014328,0.007611,0.009793,-18,-0.687500,-0.500000,0.296875,0.515625,0.375000
237960,50,2,1.033160,0.088632,0.024352,0.026808,-0.697518,-0.503687,0.313324,0.522946,0.364935,0.099099,0.104818,0.109423,0.092607,0.100983,-18,-0.703125,-0.500000,0.312500,0.531250,0.359375
237960,50,10,5.071340,0.120023,0.024127,0.016001,-0.689874,-0.492166,0.299173,0.512164,0.370703,0.025316,0.021022,0.025011,0.019963,0.016480,-18,-0.687500,-0.500000,0.296875,0.515625,0.375000
237960,50,30,15.164200,0.189918,0.024228,0.016043,-0.688024,-0.490670,0.298076,0.510473,0.370145,0.016981,0.009121,0.015073,0.008357,0.010019,-18,-0.687500,-0.500000,0.296875,0.515625,0.375000
237904,30,2,1.047300,0.116807,0.016993,0.014708,-0.717054,-0.485318,0.323381,0.520259,0.358731,0.091774,0.090549,0.106598,0.085785,0.097871,-19,-0.718750,-0.484375,0.328125,0.515625,0.359375
237904,30,10,5.162310,0.102560,0.016891,0.014114,-0.711741,-0.478466,0.313264,0.512419,0.364524,0.021397,0.018380,0.022892,0.018174,0.015734,-19,-0.703125,-0.484375,0.312500,0.515625,0.359375
237904,30,30,15.457000,0.248873,0.016801,0.014057,-0.710173,-0.477230,0.312210,0.511163,0.364030,0.012415,0.007767,0.012367,0.006047,0.009114,-19,-0.703125,-0.484375,0.312500,0.515625,0.359375
237904,50,2,1.055670,0.072000,0.028463,0.019188,-0.722535,-0.491655,0.330774,0.526065,0.357351,0.111059,0.103922,0.117433,0.098088,0.119998,-19,-0.718750,-0.500000,0.328125,0.531250,0.359375
237904,50,10,5.173780,0.118794,0.028295,0.018770,-0.713270,-0.479550,0.313901,0.513680,0.365238,0.025060,0.020902,0.026471,0.020561,0.017423,-19,-0.718750,-0.484375,0.312500,0.515625,0.375000
237904,50,30,15.468300,0.256459,0.028371,0.022106,-0.710744,-0.477555,0.312521,0.511545,0.364232,0.013080,0.008852,0.013053,0.007180,0.009466,-19,-0.703125,-0.484375,0.312500,0.515625,0.359375
237896,30,2,1.055580,0.086291,0.017722,0.013667,-0.715871,-0.487848,0.337498,0.521962,0.344258,0.083075,0.081128,0.097685,0.080160,0.092866,-19,-0.718750,-0.484375,0.343750,0.515625,0.343750
237896,30,10,5.202050,0.122424,0.018074,0.015605,-0.710779,-0.481846,0.328014,0.515057,0.349554,0.019571,0.019243,0.023997,0.018873,0.016326,-19,-0.703125,-0.484375,0.328125,0.515625,0.343750
237896,30,30,15.568900,0.240347,0.018384,0.015928,-0.709339,-0.480657,0.327221,0.513604,0.349170,0.008518,0.007340,0.009941,0.006061,0.008236,-19,-0.703125,-0.484375,0.328125,0.515625,0.343750
237896,50,2,1.066780,0.096102,0.030311,0.018633,-0.722657,-0.496960,0.349834,0.530057,0.339725,0.110109,0.105620,0.131870,0.098736,0.136266,-19,-0.718750,-0.500000,0.343750,0.531250,0.343750
237896,50,10,5.211250,0.110711,0.030127,0.019412,-0.712475,-0.483457,0.329542,0.516452,0.349938,0.023007,0.022054,0.028710,0.021351,0.020665,-19,-0.703125,-0.484375,0.328125,0.515625,0.343750
237896,50,30,15.580400,0.244435,0.030322,0.020075,-0.709909,-0.481068,0.327477,0.514058,0.349441,0.010321,0.008742,0.011782,0.008065,0.008650,-19,-0.703125,-0.484375,0.328125,0.515625,0.343750
229912,30,2,1.056460,0.070405,0.018387,0.015626,-0.684759,-0.503952,0.308791,0.515938,0.363982,0.081236,0.089332,0.097112,0.078092,0.087854,-19,-0.687500,-0.500000,0.312500,0.515625,0.359375
229912,30,10,5.207830,0.086714,0.018010,0.014638,-0.678964,-0.497289,0.299381,0.509198,0.367674,0.017564,0.020915,0.023451,0.019194,0.017097,-19,-0.671875,-0.500000,0.296875,0.515625,0.359375
229912,30,30,15.588500,0.177699,0.017998,0.014660,-0.677444,-0.496107,0.298523,0.507922,0.367106,0.009118,0.007872,0.011909,0.007296,0.006826,-19,-0.671875,-0.500000,0.296875,0.515625,0.359375
229912,50,2,1.068110,0.096228,0.030126,0.019107,-0.689622,-0.512301,0.317093,0.522075,0.362755,0.106567,0.110190,0.116110,0.098262,0.113101,-19,-0.687500,-0.515625,0.312500,0.531250,0.359375
229912,50,10,5.221310,0.115237,0.030292,0.019242,-0.680706,-0.498733,0.300706,0.510459,0.368274,0.022022,0.021853,0.029879,0.022370,0.024382,-19,-0.687500,-0.500000,0.296875,0.515625,0.375000
229912,50,30,15.600200,0.194120,0.030444,0.020864,-0.678191,-0.496631,0.298971,0.508499,0.367352,0.009813,0.010397,0.013356,0.009220,0.007159,-19,-0.671875,-0.500000,0.296875,0.515625,0.359375
229904,30,2,1.071820,0.081299,0.020531,0.015096,-0.735030,-0.478981,0.344274,0.522938,0.346799,0.094342,0.089994,0.111404,0.083314,0.104455,-19,-0.734375,-0.484375,0.343750,0.531250,0.343750
229904,30,10,5.278560,0.118562,0.020363,0.015925,-0.728288,-0.469770,0.330902,0.514325,0.352830,0.023916,0.019323,0.026753,0.018115,0.017820,-19,-0.734375,-0.468750,0.328125,0.515625,0.359375
229904,30,30,15.795600,0.249814,0.020577,0.016465,-0.726505,-0.468369,0.329971,0.512797,0.352106,0.014999,0.010472,0.018181,0.006829,0.012496,-19,-0.734375,-0.468750,0.328125,0.515625,0.359375
229904,50,2,1.086400,0.224225,0.034462,0.020966,-0.745046,-0.487703,0.356583,0.532857,0.343309,0.114602,0.114500,0.136229,0.105908,0.122487,-19,-0.750000,-0.484375,0.359375,0.531250,0.343750
229904,50,10,5.292290,0.121218,0.034214,0.019923,-0.730672,-0.471403,0.332944,0.516056,0.353076,0.028017,0.024487,0.033113,0.023536,0.021077,-19,-0.734375,-0.468750,0.328125,0.515625,0.359375
229904,50,30,15.809500,0.260896,0.034136,0.021012,-0.727219,-0.468722,0.330388,0.513268,0.352286,0.015597,0.011078,0.018743,0.007571,0.012656,-19,-0.734375,-0.468750,0.328125,0.515625,0.359375
229848,30,2,1.067300,0.099446,0.020672,0.015834,-0.724142,-0.486278,0.330612,0.523655,0.356153,0.097156,0.098299,0.114854,0.092046,0.103451,-19,-0.718750,-0.484375,0.328125,0.515625,0.359375
229848,30,10,5.251080,0.086661,0.020164,0.014994,-0.715771,-0.477123,0.316492,0.513942,0.362460,0.023800,0.019370,0.029792,0.018718,0.025156,-19,-0.718750,-0.468750,0.312500,0.515625,0.359375
229848,30,30,15.714700,0.169393,0.020682,0.015141,-0.714203,-0.475520,0.315229,0.512507,0.361987,0.015054,0.008989,0.017622,0.006481,0.013571,-19,-0.718750,-0.468750,0.312500,0.515625,0.359375
229848,50,2,1.079780,0.097296,0.034235,0.019739,-0.730511,-0.492424,0.338394,0.530333,0.354208,0.115652,0.120236,0.134892,0.109353,0.124782,-19,-0.734375,-0.500000,0.343750,0.531250,0.359375
229848,50,10,5.264600,0.103818,0.034093,0.019600,-0.718060,-0.478193,0.317659,0.515313,0.363282,0.026648,0.022135,0.030203,0.021260,0.020526,-19,-0.718750,-0.468750,0.312500,0.515625,0.359375
229848,50,30,15.729500,0.183223,0.034295,0.021015,-0.714874,-0.476033,0.315606,0.512982,0.362318,0.016184,0.010210,0.018798,0.008331,0.013828,-19,-0.718750,-0.468750,0.312500,0.515625,0.359375
229784,30,2,1.068290,0.097891,0.020591,0.014862,-0.680125,-0.509514,0.314415,0.517327,0.357897,0.089605,0.086032,0.096287,0.082349,0.094008,-19,-0.671875,-0.515625,0.312500,0.515625,0.359375
229784,30,10,5.255260,0.100398,0.020663,0.015119,-0.675018,-0.500991,0.305127,0.509239,0.361643,0.019299,0.017354,0.019348,0.018938,0.013645,-19,-0.671875,-0.500000,0.296875,0.515625,0.359375
229784,30,30,15.720100,0.166002,0.020627,0.015350,-0.673256,-0.499451,0.303696,0.507863,0.361148,0.012231,0.006431,0.010517,0.011453,0.007461,-19,-0.671875,-0.500000,0.296875,0.515625,0.359375
229784,50,2,1.080850,0.103362,0.034367,0.021426,-0.686533,-0.519704,0.326819,0.525838,0.353580,0.114727,0.122381,0.133589,0.106133,0.134489,-19,-0.687500,-0.515625,0.328125,0.531250,0.343750
229784,50,10,5.266250,0.108840,0.033770,0.018938,-0.676736,-0.502592,0.306283,0.510684,0.362361,0.023588,0.025281,0.027746,0.024666,0.018159,-19,-0.671875,-0.500000,0.296875,0.515625,0.359375
229784,50,30,15.733400,0.176590,0.033683,0.018316,-0.673862,-0.499866,0.303997,0.508323,0.361408,0.013015,0.007697,0.011476,0.012134,0.007867,-19,-0.671875,-0.500000,0.296875,0.515625,0.359375
229720,30,2,1.074450,0.097120,0.020294,0.014955,-0.694226,-0.500857,0.319242,0.516545,0.359296,0.088549,0.087139,0.099025,0.077822,0.102227,-19,-0.687500,-0.500000,0.312500,0.515625,0.359375
229720,30,10,5.283990,0.111191,0.020471,0.015631,-0.687211,-0.492779,0.307001,0.508609,0.364380,0.025709,0.019002,0.021640,0.020281,0.014912,-19,-0.687500,-0.500000,0.312500,0.515625,0.359375
229720,30,30,15.809600,0.248524,0.020418,0.014894,-0.685754,-0.491374,0.305975,0.507434,0.363719,0.020333,0.009037,0.013055,0.012539,0.009774,-19,-0.687500,-0.484375,0.312500,0.500000,0.359375
229720,50,2,1.085910,0.108708,0.033866,0.019567,-0.699546,-0.507265,0.325991,0.523625,0.357194,0.106740,0.112836,0.124819,0.099420,0.122506,-19,-0.703125,-0.500000,0.328125,0.515625,0.359375
229720,50,10,5.297540,0.137301,0.034156,0.019607,-0.689237,-0.493880,0.308193,0.510150,0.364773,0.028342,0.021482,0.024650,0.022449,0.016724,-19,-0.687500,-0.500000,0.312500,0.515625,0.359375
229720,50,30,15.824100,0.260007,0.033859,0.019013,-0.686298,-0.491832,0.306276,0.507878,0.363976,0.020596,0.009919,0.013560,0.012989,0.010123,-19,-0.687500,-0.484375,0.312500,0.500000,0.359375
229712,30,2,1.058670,0.099222,0.017990,0.014269,-0.698690,-0.497596,0.320308,0.521523,0.354456,0.085883,0.084624,0.093945,0.081967,0.093414,-19,-0.703125,-0.500000,0.328125,0.515625,0.359375
229712,30,10,5.214880,0.109207,0.018033,0.014949,-0.694075,-0.491020,0.311739,0.514290,0.359067,0.018047,0.016187,0.019872,0.015194,0.014308,-19,-0.687500,-0.500000,0.312500,0.515625,0.359375
229712,30,30,15.608600,0.178825,0.017986,0.014187,-0.692662,-0.489939,0.310902,0.513185,0.358514,0.010051,0.006663,0.011781,0.005737,0.008589,-19,-0.687500,-0.500000,0.312500,0.515625,0.359375
229712,50,2,1.070370,0.116142,0.029703,0.019110,-0.706301,-0.506040,0.330004,0.529674,0.352663,0.107355,0.102904,0.112384,0.096302,0.115105,-19,-0.703125,-0.500000,0.328125,0.531250,0.343750
229712,50,10,5.228560,0.126369,0.030114,0.019340,-0.695382,-0.492062,0.312503,0.515438,0.359504,0.022212,0.020374,0.024182,0.019245,0.016553,-19,-0.703125,-0.484375,0.312500,0.515625,0.359375
229712,50,30,15.621200,0.196213,0.030356,0.020345,-0.693062,-0.490397,0.311115,0.513542,0.358802,0.010859,0.008267,0.012642,0.007443,0.009309,-19,-0.687500,-0.500000,0.312500,0.515625,0.359375
221712,30,2,1.056770,0.067736,0.017969,0.014085,-0.706460,-0.493686,0.327404,0.522092,0.350649,0.088764,0.087435,0.093896,0.079793,0.096780,-19,-0.703125,-0.500000,0.328125,0.515625,0.359375
221712,30,10,5.210450,0.102710,0.018262,0.014886,-0.702820,-0.487087,0.318260,0.516388,0.355259,0.020411,0.021422,0.027398,0.019371,0.023386,-19,-0.703125,-0.484375,0.312500,0.515625,0.359375
221712,30,30,15.597000,0.235361,0.018293,0.014467,-0.701193,-0.485573,0.316906,0.514798,0.355062,0.010710,0.007417,0.013518,0.005915,0.009983,-19,-0.703125,-0.484375,0.312500,0.515625,0.359375
221712,50,2,1.068670,0.115909,0.030169,0.019091,-0.715932,-0.500831,0.336880,0.530242,0.349640,0.104298,0.107990,0.121501,0.101613,0.111438,-19,-0.718750,-0.500000,0.343750,0.531250,0.343750
221712,50,10,5.223730,0.139474,0.030071,0.018934,-0.704593,-0.488318,0.319097,0.517577,0.356236,0.022863,0.021656,0.026367,0.020702,0.017977,-19,-0.703125,-0.484375,0.312500,0.515625,0.359375
221712,50,30,15.607900,0.243033,0.030056,0.019344,-0.701835,-0.486061,0.317268,0.515372,0.355256,0.011498,0.008503,0.014259,0.007049,0.010315,-19,-0.703125,-0.484375,0.312500,0.515625,0.359375
221704,30,2,1.050440,0.096932,0.018198,0.015173,-0.698288,-0.498093,0.319965,0.519651,0.356765,0.083462,0.084252,0.094482,0.080066,0.088710,-19,-0.703125,-0.500000,0.328125,0.515625,0.359375
221704,30,10,5.176060,0.106416,0.018233,0.015179,-0.692513,-0.491474,0.311119,0.512599,0.360269,0.020458,0.017607,0.021032,0.017892,0.014755,-19,-0.687500,-0.500000,0.312500,0.515625,0.359375
221704,30,30,15.492500,0.253417,0.018091,0.014394,-0.690781,-0.490170,0.309800,0.511201,0.359951,0.012731,0.006910,0.011999,0.008878,0.008716,-19,-0.687500,-0.500000,0.312500,0.515625,0.359375
221704,50,2,1.061460,0.098374,0.029952,0.018460,-0.702538,-0.506358,0.329670,0.526218,0.353009,0.105392,0.110532,0.125611,0.099431,0.123982,-19,-0.703125,-0.500000,0.328125,0.531250,0.343750
221704,50,10,5.186150,0.119334,0.030337,0.020207,-0.693885,-0.493033,0.311859,0.514034,0.361025,0.028541,0.022279,0.025722,0.022758,0.020901,-19,-0.687500,-0.500000,0.312500,0.515625,0.359375
221704,50,30,15.502900,0.256646,0.030047,0.019077,-0.691186,-0.490495,0.309997,0.511524,0.360161,0.013372,0.007988,0.012995,0.009444,0.009202,-19,-0.687500,-0.500000,0.312500,0.515625,0.359375
221648,30,2,1.024160,0.059554,0.014259,0.012115,-0.680394,-0.506761,0.306273,0.519373,0.361509,0.082667,0.089139,0.089661,0.080192,0.087231,-19,-0.687500,-0.500000,0.312500,0.515625,0.359375
221648,30,10,5.063420,0.085629,0.014353,0.012755,-0.677327,-0.499144,0.297484,0.512342,0.366645,0.017331,0.017169,0.019411,0.015998,0.013214,-19,-0.671875,-0.500000,0.296875,0.515625,0.359375
221648,30,30,15.159200,0.146661,0.014483,0.012485,-0.676095,-0.498236,0.296734,0.511528,0.366069,0.008088,0.006341,0.010604,0.006093,0.007178,-19,-0.671875,-0.500000,0.296875,0.515625,0.359375
221648,50,2,1.034870,0.090198,0.024225,0.016040,-0.684356,-0.510525,0.311215,0.523527,0.360139,0.097960,0.105808,0.112207,0.094773,0.109517,-19,-0.687500,-0.515625,0.312500,0.531250,0.359375
221648,50,10,5.070970,0.090854,0.024233,0.016233,-0.678964,-0.500407,0.298893,0.514041,0.366437,0.021454,0.025158,0.026739,0.022578,0.017165,-19,-0.671875,-0.500000,0.296875,0.515625,0.359375
221648,50,30,15.169300,0.160226,0.024222,0.016208,-0.676596,-0.498508,0.297010,0.511829,0.366264,0.008798,0.007418,0.011314,0.006770,0.007455,-19,-0.671875,-0.500000,0.296875,0.515625,0.359375
221640,30,2,1.030240,0.090099,0.015872,0.013706,-0.720242,-0.484008,0.324637,0.524176,0.355436,0.087632,0.082788,0.094134,0.081024,0.088064,-18,-0.718750,-0.484375,0.328125,0.515625,0.359375
221640,30,10,5.086690,0.139360,0.015438,0.013204,-0.716343,-0.477758,0.316347,0.518277,0.359477,0.021917,0.018836,0.023262,0.016800,0.015642,-18,-0.718750,-0.468750,0.312500,0.515625,0.359375
221640,30,30,15.230900,0.360516,0.015722,0.013499,-0.715101,-0.476843,0.315593,0.517353,0.358999,0.015154,0.009880,0.015418,0.005902,0.009883,-18,-0.718750,-0.468750,0.312500,0.515625,0.359375
221640,50,2,1.042300,0.137297,0.026181,0.017663,-0.727478,-0.489202,0.334602,0.530351,0.351728,0.110949,0.106541,0.118905,0.097463,0.120323,-18,-0.734375,-0.484375,0.328125,0.531250,0.359375
221640,50,10,5.099300,0.160030,0.026167,0.017911,-0.717851,-0.478970,0.317314,0.519464,0.360043,0.025610,0.021541,0.027239,0.020414,0.017368,-18,-0.718750,-0.468750,0.312500,0.515625,0.359375
221640,50,30,15.241700,0.378635,0.026105,0.017519,-0.715540,-0.477120,0.315801,0.517650,0.359210,0.015465,0.010432,0.015711,0.006622,0.010161,-18,-0.718750,-0.468750,0.312500,0.515625,0.359375
221320,30,2,0.994575,0.062871,0.014138,0.012172,-0.697436,-0.494706,0.290086,0.524081,0.377976,0.088257,0.088383,0.089963,0.080377,0.092065,-18,-0.703125,-0.500000,0.296875,0.531250,0.375000
221320,30,10,4.915960,0.090653,0.014313,0.012115,-0.695448,-0.488439,0.282916,0.518536,0.382435,0.022835,0.018811,0.021325,0.018024,0.014816,-18,-0.687500,-0.484375,0.281250,0.515625,0.375000
221320,30,30,14.718300,0.138910,0.014430,0.012262,-0.694136,-0.487339,0.282245,0.517295,0.381935,0.014773,0.008933,0.012288,0.006024,0.009267,-18,-0.687500,-0.484375,0.281250,0.515625,0.375000
221320,50,2,1.005060,0.108229,0.024252,0.016350,-0.704821,-0.501249,0.298069,0.531272,0.376730,0.110151,0.109738,0.112669,0.100313,0.120994,-18,-0.703125,-0.500000,0.296875,0.531250,0.375000
221320,50,10,4.924360,0.086222,0.024029,0.016328,-0.697028,-0.489645,0.284029,0.519703,0.382940,0.025043,0.025175,0.026877,0.022518,0.018452,-18,-0.703125,-0.484375,0.281250,0.515625,0.390625
221320,50,30,14.727200,0.147941,0.024010,0.016472,-0.694438,-0.487606,0.282317,0.517710,0.382017,0.015652,0.010211,0.013230,0.007413,0.009725,-18,-0.687500,-0.484375,0.281250,0.515625,0.375000
221256,30,2,0.961658,0.071145,0.013379,0.012619,-0.685253,-0.496669,0.289241,0.511516,0.381165,0.089040,0.085899,0.087047,0.079719,0.092902,-18,-0.687500,-0.500000,0.296875,0.515625,0.375000
221256,30,10,4.755890,0.086089,0.013317,0.011950,-0.683146,-0.491652,0.282720,0.506827,0.385251,0.022765,0.017742,0.023378,0.016675,0.017503,-18,-0.687500,-0.484375,0.281250,0.500000,0.390625
221256,30,30,14.241500,0.163956,0.013639,0.012223,-0.681579,-0.490413,0.281697,0.505594,0.384701,0.016339,0.008964,0.017116,0.007188,0.013078,-18,-0.687500,-0.484375,0.281250,0.500000,0.390625
221256,50,2,0.971178,0.094387,0.022491,0.016359,-0.689752,-0.502617,0.296556,0.517779,0.378034,0.108589,0.108464,0.114041,0.096699,0.116878,-18,-0.687500,-0.500000,0.296875,0.515625,0.375000
221256,50,10,4.764420,0.090342,0.022478,0.016157,-0.684086,-0.492200,0.282897,0.507516,0.385873,0.025324,0.020118,0.025696,0.019165,0.018727,-18,-0.687500,-0.484375,0.281250,0.500000,0.390625
221256,50,30,14.251700,0.176476,0.022322,0.015876,-0.681971,-0.490694,0.281814,0.505827,0.385024,0.016667,0.009419,0.017441,0.007857,0.013269,-18,-0.687500,-0.484375,0.281250,0.500000,0.390625
237840,30,2,0.976586,0.079803,0.014505,0.012527,-0.728262,-0.479243,0.322071,0.526057,0.359376,0.090344,0.088743,0.098614,0.085131,0.089599,-18,-0.734375,-0.484375,0.328125,0.531250,0.359375
237840,30,10,4.817140,0.092578,0.014550,0.013248,-0.723689,-0.473148,0.312909,0.520482,0.363447,0.023345,0.018552,0.024669,0.017600,0.026067,-18,-0.718750,-0.468750,0.312500,0.515625,0.359375
237840,30,30,14.419100,0.170548,0.014450,0.012875,-0.722415,-0.472087,0.311782,0.519413,0.363307,0.012892,0.009265,0.012726,0.006695,0.007553,-18,-0.718750,-0.468750,0.312500,0.515625,0.359375
237840,50,2,0.984508,0.107362,0.023998,0.016123,-0.734160,-0.486550,0.332130,0.534564,0.354017,0.109434,0.110834,0.133946,0.103989,0.127854,-18,-0.734375,-0.484375,0.328125,0.531250,0.359375
237840,50,10,4.825100,0.098720,0.024196,0.016443,-0.725414,-0.474159,0.313588,0.521708,0.364277,0.024811,0.021326,0.025781,0.020670,0.017399,-18,-0.718750,-0.468750,0.312500,0.515625,0.359375
237840,50,30,14.430000,0.191823,0.024508,0.017777,-0.722862,-0.472373,0.311985,0.519668,0.363582,0.013414,0.009550,0.013293,0.007483,0.008247,-18,-0.718750,-0.468750,0.312500,0.515625,0.359375
238024,30,2,1.022690,0.101726,0.014409,0.012750,-0.724732,-0.480390,0.332876,0.520747,0.351500,0.082283,0.083807,0.098596,0.077514,0.081784,-18,-0.718750,-0.484375,0.328125,0.515625,0.359375
238024,30,10,5.051650,0.095740,0.014433,0.012587,-0.719960,-0.474530,0.323067,0.514880,0.356543,0.023942,0.017988,0.024880,0.016118,0.016628,-18,-0.718750,-0.484375,0.328125,0.515625,0.359375
238024,30,30,15.124100,0.148387,0.014453,0.012893,-0.718712,-0.473302,0.322142,0.513946,0.355927,0.018040,0.011049,0.018390,0.006249,0.011652,-18,-0.718750,-0.468750,0.312500,0.515625,0.359375
238024,50,2,1.033610,0.122338,0.024396,0.017095,-0.729701,-0.487018,0.339703,0.527104,0.349912,0.106980,0.108151,0.125296,0.096458,0.121327,-18,-0.734375,-0.484375,0.343750,0.531250,0.343750
238024,50,10,5.058340,0.082312,0.024130,0.016656,-0.721174,-0.474926,0.323993,0.515854,0.356254,0.031323,0.022210,0.031065,0.020082,0.031092,-18,-0.718750,-0.484375,0.328125,0.515625,0.359375
238024,50,30,15.133400,0.154146,0.024076,0.016153,-0.719197,-0.473650,0.322517,0.514275,0.356055,0.018367,0.011659,0.018773,0.007023,0.011909,-18,-0.718750,-0.468750,0.312500,0.515625,0.359375
237976,30,2,1.058970,0.103076,0.019329,0.017005,-0.713266,-0.490131,0.321889,0.523827,0.357682,0.093204,0.093989,0.102887,0.087153,0.102136,-19,-0.718750,-0.484375,0.328125,0.515625,0.359375
237976,30,10,5.207090,0.109856,0.019459,0.015559,-0.706831,-0.483339,0.311064,0.515728,0.363378,0.022227,0.019046,0.023974,0.017669,0.016259,-19,-0.703125,-0.484375,0.312500,0.515625,0.359375
237976,30,30,15.585400,0.237235,0.019401,0.014748,-0.705308,-0.481763,0.310040,0.514202,0.362829,0.013823,0.008908,0.016558,0.006072,0.011183,-19,-0.703125,-0.484375,0.312500,0.515625,0.359375
237976,50,2,1.070230,0.099905,0.032121,0.019202,-0.720124,-0.499772,0.332724,0.532318,0.354853,0.114883,0.113694,0.129507,0.102539,0.126398,-19,-0.718750,-0.500000,0.328125,0.531250,0.359375
237976,50,10,5.221480,0.134157,0.032436,0.019696,-0.708453,-0.484410,0.312197,0.516884,0.363782,0.028096,0.023070,0.031931,0.021529,0.029601,-19,-0.703125,-0.484375,0.312500,0.515625,0.359375
237976,50,30,15.597400,0.245697,0.031975,0.019502,-0.705835,-0.482142,0.310223,0.514708,0.363046,0.014363,0.009888,0.017030,0.007147,0.011266,-19,-0.703125,-0.484375,0.312500,0.515625,0.359375
230152,30,2,1.091380,0.079298,0.020478,0.015577,-0.701166,-0.497335,0.315061,0.521765,0.361676,0.098217,0.090332,0.096154,0.082014,0.097781,-19,-0.703125,-0.500000,0.312500,0.531250,0.359375
230152,30,10,5.377870,0.111809,0.020596,0.015993,-0.695407,-0.489446,0.304664,0.513164,0.367026,0.018617,0.018576,0.019570,0.017608,0.013477,-19,-0.703125,-0.484375,0.312500,0.515625,0.359375
230152,30,30,16.092100,0.254555,0.020750,0.015812,-0.693413,-0.488076,0.303323,0.511545,0.366620,0.008382,0.006720,0.009468,0.006655,0.006481,-19,-0.687500,-0.484375,0.296875,0.515625,0.359375
230152,50,2,1.104630,0.096670,0.033912,0.019027,-0.708675,-0.507151,0.323817,0.530209,0.361800,0.106888,0.114692,0.120577,0.103296,0.107390,-19,-0.703125,-0.515625,0.328125,0.531250,0.359375
230152,50,10,5.392190,0.128215,0.034233,0.019623,-0.697041,-0.491024,0.305548,0.514537,0.367980,0.021939,0.024556,0.025205,0.022478,0.015029,-19,-0.703125,-0.484375,0.312500,0.515625,0.359375
230152,50,30,16.106200,0.258958,0.034012,0.019473,-0.694039,-0.488410,0.303711,0.511986,0.366752,0.008888,0.007711,0.010004,0.007461,0.006805,-19,-0.687500,-0.484375,0.296875,0.515625,0.359375
230088,30,2,1.102680,0.087422,0.020470,0.015140,-0.730517,-0.479259,0.341113,0.521343,0.347319,0.102214,0.093675,0.111825,0.084432,0.111923,-19,-0.734375,-0.484375,0.343750,0.531250,0.343750
230088,30,10,5.430020,0.109980,0.020175,0.014230,-0.725794,-0.471139,0.329314,0.514071,0.353548,0.022689,0.017646,0.025724,0.016668,0.018772,-19,-0.734375,-0.468750,0.328125,0.515625,0.359375
230088,30,30,16.248600,0.230846,0.020669,0.015585,-0.724106,-0.469992,0.328155,0.512929,0.353015,0.016316,0.010028,0.019518,0.007940,0.014776,-19,-0.718750,-0.468750,0.328125,0.515625,0.343750
230088,50,2,1.114930,0.099860,0.034017,0.019407,-0.739399,-0.484025,0.350222,0.528393,0.344809,0.115509,0.103664,0.126159,0.096609,0.132377,-19,-0.734375,-0.484375,0.343750,0.531250,0.343750
230088,50,10,5.442910,0.115599,0.034668,0.020430,-0.728262,-0.472543,0.330694,0.515882,0.354229,0.027688,0.021564,0.032695,0.021607,0.022649,-19,-0.734375,-0.468750,0.328125,0.515625,0.359375
230088,50,30,16.263700,0.258766,0.034030,0.020173,-0.724590,-0.470299,0.328191,0.513275,0.353422,0.017279,0.010396,0.020331,0.008862,0.015133,-19,-0.718750,-0.468750,0.328125,0.515625,0.343750
230024,30,2,1.101540,0.077299,0.020566,0.016123,-0.685380,-0.504179,0.298541,0.517395,0.373623,0.083572,0.090363,0.095544,0.084801,0.095133,-19,-0.687500,-0.500000,0.296875,0.515625,0.375000
230024,30,10,5.429930,0.109273,0.020480,0.014814,-0.680812,-0.495396,0.288841,0.509774,0.377593,0.018610,0.018530,0.019077,0.016874,0.013211,-19,-0.687500,-0.500000,0.296875,0.515625,0.375000
230024,30,30,16.247500,0.219510,0.020716,0.015966,-0.679181,-0.494287,0.287778,0.508714,0.376977,0.010154,0.007336,0.010385,0.006441,0.006734,-19,-0.671875,-0.500000,0.281250,0.515625,0.375000
230024,50,2,1.115680,0.108594,0.033845,0.019220,-0.692736,-0.512793,0.305710,0.525889,0.373930,0.103424,0.111726,0.114772,0.102139,0.107814,-19,-0.687500,-0.515625,0.296875,0.531250,0.375000
230024,50,10,5.442930,0.112981,0.034123,0.019441,-0.682816,-0.496772,0.289842,0.511457,0.378290,0.021621,0.020624,0.022339,0.019413,0.014721,-19,-0.687500,-0.500000,0.296875,0.515625,0.375000
230024,50,30,16.262900,0.248094,0.033971,0.018966,-0.679842,-0.494610,0.288073,0.509128,0.377251,0.010558,0.008147,0.010876,0.006817,0.007100,-19,-0.671875,-0.500000,0.281250,0.515625,0.375000
229960,30,2,1.091230,0.066472,0.020411,0.014515,-0.699391,-0.501167,0.323423,0.520683,0.356452,0.089526,0.089413,0.101845,0.083162,0.098829,-19,-0.703125,-0.500000,0.328125,0.515625,0.359375
229960,30,10,5.379900,0.115084,0.020505,0.015488,-0.692782,-0.490487,0.310329,0.510485,0.362455,0.019637,0.017635,0.020620,0.017134,0.014586,-19,-0.687500,-0.500000,0.312500,0.515625,0.359375
229960,30,30,16.097300,0.237498,0.020635,0.015722,-0.691119,-0.488999,0.309356,0.509026,0.361736,0.012238,0.007466,0.011671,0.007870,0.009405,-19,-0.687500,-0.484375,0.312500,0.500000,0.359375
229960,50,2,1.105670,0.100923,0.034254,0.020258,-0.706793,-0.506987,0.330745,0.526077,0.356958,0.101452,0.108158,0.121632,0.095536,0.115624,-19,-0.703125,-0.515625,0.328125,0.531250,0.359375
229960,50,10,5.393680,0.125171,0.034071,0.019394,-0.694735,-0.492048,0.311679,0.511959,0.363145,0.024482,0.023291,0.026721,0.022417,0.016891,-19,-0.687500,-0.500000,0.312500,0.515625,0.359375
229960,50,30,16.108600,0.229120,0.034006,0.019186,-0.691792,-0.489456,0.309784,0.509496,0.361968,0.012983,0.008309,0.012478,0.008518,0.009708,-19,-0.687500,-0.484375,0.312500,0.500000,0.359375
221656,30,2,1.062380,0.077037,0.019404,0.014987,-0.693357,-0.503339,0.318007,0.522179,0.356510,0.092723,0.094931,0.096720,0.082207,0.097004,-19,-0.687500,-0.500000,0.312500,0.515625,0.359375
221656,30,10,5.234460,0.142869,0.019285,0.016017,-0.688618,-0.494467,0.307213,0.514963,0.360908,0.021452,0.020480,0.024348,0.019041,0.017058,-19,-0.687500,-0.500000,0.312500,0.515625,0.359375
221656,30,30,15.660600,0.192425,0.019392,0.015614,-0.686957,-0.493230,0.306114,0.513588,0.360486,0.013961,0.008280,0.014715,0.007575,0.010557,-19,-0.687500,-0.500000,0.312500,0.515625,0.359375
221656,50,2,1.075520,0.097893,0.032263,0.020826,-0.701837,-0.511277,0.326572,0.531002,0.355541,0.106064,0.113682,0.117730,0.101978,0.113999,-19,-0.703125,-0.515625,0.328125,0.531250,0.359375
221656,50,10,5.247860,0.124974,0.032204,0.019240,-0.690342,-0.495918,0.308192,0.516378,0.361690,0.023540,0.023926,0.027924,0.022038,0.018861,-19,-0.687500,-0.500000,0.312500,0.515625,0.359375
221656,50,30,15.674400,0.219306,0.032164,0.019558,-0.687545,-0.493734,0.306422,0.514086,0.360771,0.014256,0.008883,0.015176,0.008095,0.010657,-19,-0.687500,-0.500000,0.312500,0.515625,0.359375
221576,30,2,1.275410,0.073888,0.014500,0.012478,-0.706984,-0.489120,0.304168,0.521512,0.370423,0.064664,0.068347,0.075064,0.065020,0.065758,-19,-0.703125,-0.484375,0.296875,0.515625,0.375000
221576,30,10,6.316570,0.092654,0.014410,0.012997,-0.701261,-0.484960,0.297503,0.516073,0.372646,0.014979,0.013983,0.017020,0.013890,0.011969,-19,-0.703125,-0.484375,0.296875,0.515625,0.375000
221576,30,30,18.917600,0.119487,0.014478,0.012967,-0.700197,-0.484010,0.296728,0.515166,0.372312,0.007119,0.005363,0.010286,0.004621,0.008089,-19,-0.703125,-0.484375,0.296875,0.515625,0.375000
221576,50,2,1.284170,0.080403,0.024186,0.017657,-0.710697,-0.494389,0.309593,0.526784,0.368710,0.088055,0.089714,0.091330,0.080772,0.095088,-19,-0.718750,-0.500000,0.312500,0.531250,0.375000
221576,50,10,6.324430,0.087657,0.024050,0.016200,-0.702635,-0.485851,0.298115,0.517242,0.373129,0.015784,0.014776,0.017848,0.014166,0.012904,-19,-0.703125,-0.484375,0.296875,0.515625,0.375000
221576,50,30,18.927500,0.133344,0.024253,0.019255,-0.700536,-0.484199,0.296866,0.515463,0.372407,0.008992,0.006686,0.011301,0.006661,0.008133,-19,-0.703125,-0.484375,0.296875,0.515625,0.375000
221264,30,2,0.978784,0.077881,0.014477,0.012625,-0.715386,-0.484914,0.319715,0.521463,0.359123,0.094009,0.087462,0.098232,0.084967,0.100069,-18,-0.718750,-0.484375,0.328125,0.515625,0.359375
221264,30,10,4.834130,0.089601,0.014620,0.013600,-0.712473,-0.478591,0.311370,0.515292,0.364402,0.023847,0.019132,0.028205,0.019001,0.020589,-18,-0.703125,-0.484375,0.312500,0.515625,0.359375
221264,30,30,14.473200,0.178496,0.014485,0.012998,-0.711293,-0.477403,0.310495,0.514129,0.364072,0.016277,0.008866,0.018989,0.007221,0.013778,-18,-0.703125,-0.484375,0.312500,0.515625,0.359375
221264,50,2,0.987053,0.077450,0.024243,0.016737,-0.722128,-0.490595,0.328842,0.527786,0.356095,0.113330,0.109296,0.122375,0.099966,0.120163,-18,-0.718750,-0.500000,0.328125,0.531250,0.359375
221264,50,10,4.843360,0.104334,0.024067,0.016989,-0.714042,-0.479618,0.312177,0.516494,0.364989,0.026873,0.024095,0.029675,0.022910,0.020100,-18,-0.718750,-0.484375,0.312500,0.515625,0.375000
221264,50,30,14.483100,0.181159,0.024496,0.020889,-0.711852,-0.477811,0.310788,0.514555,0.364319,0.016748,0.009682,0.019458,0.007826,0.014102,-18,-0.703125,-0.484375,0.312500,0.515625,0.359375
237848,30,2,0.988520,0.064819,0.014715,0.013618,-0.726691,-0.480797,0.319375,0.526419,0.361694,0.094432,0.092516,0.099928,0.087537,0.098456,-18,-0.718750,-0.484375,0.312500,0.531250,0.359375
237848,30,10,4.884600,0.089379,0.014608,0.013478,-0.721394,-0.473833,0.309551,0.519270,0.366406,0.028996,0.018928,0.023341,0.017317,0.028609,-18,-0.718750,-0.468750,0.312500,0.515625,0.359375
237848,30,30,14.623900,0.173555,0.014745,0.014797,-0.720051,-0.472784,0.308318,0.518139,0.366379,0.014337,0.010885,0.012047,0.007321,0.006797,-18,-0.718750,-0.468750,0.312500,0.515625,0.359375
237848,50,2,0.996203,0.072568,0.024033,0.016046,-0.732945,-0.487885,0.327232,0.532890,0.360708,0.105902,0.111727,0.118851,0.103048,0.111420,-18,-0.734375,-0.484375,0.328125,0.531250,0.359375
237848,50,10,4.895940,0.122382,0.024226,0.016465,-0.722859,-0.475143,0.310312,0.520406,0.367285,0.027720,0.024118,0.029578,0.021811,0.028063,-18,-0.718750,-0.468750,0.312500,0.515625,0.359375
237848,50,30,14.633200,0.177116,0.023941,0.016093,-0.720464,-0.472993,0.308588,0.518307,0.366562,0.014396,0.010143,0.011824,0.006309,0.007080,-18,-0.718750,-0.468750,0.312500,0.515625,0.359375
238088,30,2,1.009790,0.080569,0.014565,0.012930,-0.729404,-0.473072,0.311578,0.520646,0.370251,0.092222,0.090573,0.109856,0.086489,0.114047,-18,-0.734375,-0.468750,0.312500,0.515625,0.375000
238088,30,10,4.991300,0.082052,0.014463,0.012728,-0.725962,-0.467437,0.301282,0.513828,0.378289,0.023837,0.022669,0.029674,0.021534,0.021173,-18,-0.718750,-0.468750,0.296875,0.515625,0.375000
238088,30,30,14.947100,0.150792,0.014282,0.012618,-0.724590,-0.466257,0.300302,0.512571,0.377974,0.015907,0.008980,0.017931,0.006021,0.013011,-18,-0.718750,-0.468750,0.296875,0.515625,0.375000
238088,50,2,1.018900,0.079014,0.024206,0.016368,-0.736465,-0.479448,0.316277,0.526476,0.373160,0.110748,0.111930,0.124852,0.102182,0.112811,-18,-0.734375,-0.484375,0.312500,0.531250,0.375000
238088,50,10,5.000830,0.091239,0.024307,0.017072,-0.727373,-0.468144,0.301598,0.514788,0.379131,0.027088,0.020846,0.027326,0.020153,0.018895,-18,-0.718750,-0.468750,0.296875,0.515625,0.375000
238088,50,30,14.956300,0.159979,0.024045,0.016145,-0.724986,-0.466466,0.300476,0.512931,0.378045,0.016910,0.009944,0.018683,0.007236,0.013312,-18,-0.718750,-0.468750,0.296875,0.515625,0.375000
238032,30,2,1.039880,0.079984,0.017155,0.015011,-0.735887,-0.472583,0.336426,0.520792,0.351251,0.092836,0.082953,0.101032,0.080911,0.097930,-18,-0.734375,-0.468750,0.343750,0.515625,0.343750
238032,30,10,5.126660,0.103259,0.016820,0.013837,-0.730897,-0.468011,0.327114,0.515585,0.356209,0.021351,0.016861,0.021508,0.016630,0.014637,-18,-0.734375,-0.468750,0.328125,0.515625,0.359375
238032,30,30,15.342400,0.219738,0.016888,0.014275,-0.729080,-0.466575,0.325989,0.514135,0.355531,0.012420,0.008440,0.011433,0.005452,0.008199,-18,-0.734375,-0.468750,0.328125,0.515625,0.359375
238032,50,2,1.048900,0.085044,0.028081,0.018166,-0.744496,-0.480292,0.347827,0.530579,0.346383,0.113207,0.099520,0.128653,0.097716,0.128407,-18,-0.734375,-0.484375,0.343750,0.531250,0.343750
238032,50,10,5.136190,0.109265,0.028107,0.018638,-0.732190,-0.468582,0.327802,0.516591,0.356379,0.024877,0.021179,0.025517,0.019990,0.017359,-18,-0.734375,-0.468750,0.328125,0.515625,0.359375
238032,50,30,15.353900,0.230114,0.027734,0.017925,-0.729631,-0.466943,0.326259,0.514521,0.355793,0.013350,0.009569,0.012436,0.006831,0.008615,-18,-0.734375,-0.468750,0.328125,0.515625,0.359375
238160,30,2,1.098180,0.073126,0.020340,0.014968,-0.728550,-0.481808,0.325888,0.523077,0.361393,0.084790,0.083978,0.096876,0.080488,0.082891,-19,-0.734375,-0.484375,0.328125,0.531250,0.359375
238160,30,10,5.410770,0.133227,0.020637,0.015358,-0.720513,-0.473982,0.315200,0.514639,0.364656,0.019557,0.017490,0.019679,0.016568,0.013007,-19,-0.718750,-0.468750,0.312500,0.515625,0.359375
238160,30,30,16.189400,0.268959,0.020576,0.017075,-0.718739,-0.472499,0.314113,0.513194,0.363931,0.011019,0.011587,0.012973,0.009450,0.007194,-19,-0.718750,-0.468750,0.312500,0.515625,0.359375
238160,50,2,1.112280,0.125285,0.034403,0.020708,-0.734243,-0.489792,0.335282,0.530298,0.358455,0.110315,0.108577,0.125363,0.107392,0.119248,-19,-0.734375,-0.484375,0.328125,0.531250,0.359375
238160,50,10,5.424940,0.158315,0.034020,0.018989,-0.722573,-0.475176,0.316589,0.516198,0.364963,0.023164,0.020695,0.023930,0.020084,0.015260,-19,-0.718750,-0.468750,0.312500,0.515625,0.359375
238160,50,30,16.203500,0.282447,0.033951,0.019574,-0.719506,-0.472855,0.314569,0.513580,0.364213,0.011434,0.008912,0.011436,0.007574,0.006703,-19,-0.718750,-0.468750,0.312500,0.515625,0.359375
238152,30,2,1.109610,0.086324,0.020494,0.015100,-0.724462,-0.481467,0.330417,0.518647,0.356866,0.093459,0.089252,0.101973,0.083091,0.102915,-19,-0.718750,-0.484375,0.328125,0.515625,0.359375
238152,30,10,5.465620,0.115288,0.020520,0.015185,-0.719020,-0.473574,0.319227,0.511115,0.362253,0.027272,0.021426,0.022561,0.018531,0.014806,-19,-0.718750,-0.468750,0.312500,0.515625,0.359375
238152,30,30,16.351500,0.253713,0.020318,0.017018,-0.717188,-0.472192,0.318122,0.509600,0.361658,0.021205,0.012912,0.011384,0.007678,0.007276,-19,-0.718750,-0.468750,0.312500,0.515625,0.359375
238152,50,2,1.122580,0.101298,0.034324,0.019806,-0.733795,-0.488445,0.340992,0.526200,0.355048,0.111942,0.106498,0.132826,0.098119,0.126462,-19,-0.734375,-0.484375,0.343750,0.515625,0.359375
238152,50,10,5.477540,0.124668,0.034234,0.019588,-0.720848,-0.474775,0.320493,0.512464,0.362666,0.030489,0.022610,0.027465,0.019818,0.026312,-19,-0.718750,-0.468750,0.312500,0.515625,0.359375
238152,50,30,16.364700,0.260161,0.034166,0.019603,-0.717877,-0.472575,0.318402,0.510130,0.361920,0.021562,0.013162,0.012047,0.008147,0.007813,-19,-0.718750,-0.468750,0.312500,0.515625,0.359375
230160,30,2,1.125650,0.070551,0.020719,0.015951,-0.749194,-0.469319,0.348022,0.523260,0.347231,0.092803,0.085865,0.103226,0.081822,0.093863,-19,-0.750000,-0.468750,0.343750,0.531250,0.343750
230160,30,10,5.550200,0.111145,0.020448,0.015457,-0.742128,-0.460403,0.336080,0.515072,0.351378,0.022953,0.018686,0.022559,0.017189,0.015842,-19,-0.750000,-0.453125,0.343750,0.515625,0.343750
230160,30,30,16.611300,0.270879,0.020445,0.015544,-0.740203,-0.459240,0.334746,0.513924,0.350773,0.014354,0.009866,0.013690,0.007674,0.009876,-19,-0.734375,-0.453125,0.328125,0.515625,0.343750
230160,50,2,1.139890,0.094155,0.034091,0.019268,-0.757496,-0.475535,0.358583,0.531789,0.342659,0.110555,0.107065,0.134518,0.105353,0.122223,-19,-0.765625,-0.468750,0.359375,0.531250,0.343750
230160,50,10,5.564590,0.133631,0.034045,0.019626,-0.744144,-0.461843,0.337352,0.516714,0.351921,0.025735,0.020569,0.026370,0.020436,0.017208,-19,-0.750000,-0.468750,0.343750,0.515625,0.359375
230160,50,30,16.624100,0.277301,0.034099,0.020188,-0.740885,-0.459786,0.335105,0.514488,0.351077,0.014812,0.010433,0.013874,0.008186,0.009862,-19,-0.734375,-0.453125,0.328125,0.515625,0.343750
229968,30,2,1.126840,0.071576,0.020477,0.016421,-0.717136,-0.489018,0.334042,0.521149,0.350963,0.085011,0.084820,0.093498,0.079033,0.084709,-19,-0.718750,-0.484375,0.328125,0.515625,0.359375
229968,30,10,5.554890,0.118248,0.020506,0.015556,-0.710266,-0.480957,0.322916,0.513659,0.354648,0.022656,0.018381,0.022400,0.015500,0.014096,-19,-0.718750,-0.484375,0.328125,0.515625,0.359375
229968,30,30,16.627700,0.275552,0.020443,0.015394,-0.708645,-0.479978,0.321955,0.512525,0.354142,0.016461,0.010847,0.014942,0.005263,0.008223,-19,-0.703125,-0.484375,0.312500,0.515625,0.359375
229968,50,2,1.141070,0.104737,0.034164,0.019618,-0.724582,-0.496308,0.343300,0.529438,0.348151,0.107733,0.102723,0.121134,0.096219,0.114412,-19,-0.718750,-0.500000,0.343750,0.531250,0.343750
229968,50,10,5.567920,0.139564,0.034307,0.026393,-0.711992,-0.482278,0.324091,0.515042,0.355138,0.027587,0.024556,0.028583,0.022048,0.018224,-19,-0.718750,-0.484375,0.328125,0.515625,0.359375
229968,50,30,16.640200,0.291107,0.034212,0.021108,-0.709163,-0.480431,0.322220,0.513010,0.354364,0.017168,0.011563,0.015770,0.006340,0.008473,-19,-0.718750,-0.484375,0.328125,0.515625,0.359375
221968,30,2,1.111630,0.084610,0.020409,0.015069,-0.713803,-0.487529,0.330248,0.515467,0.355617,0.089288,0.090556,0.097130,0.083139,0.091627,-19,-0.718750,-0.484375,0.328125,0.515625,0.359375
221968,30,10,5.477430,0.133130,0.020791,0.015983,-0.708198,-0.480409,0.319969,0.508634,0.360003,0.020536,0.017762,0.022516,0.017980,0.014241,-19,-0.703125,-0.484375,0.312500,0.515625,0.359375
221968,30,30,16.384500,0.253999,0.020114,0.014777,-0.706245,-0.478847,0.318622,0.506992,0.359477,0.010720,0.007527,0.011593,0.007138,0.008136,-19,-0.703125,-0.484375,0.312500,0.515625,0.359375
221968,50,2,1.128460,0.211649,0.034478,0.022583,-0.723255,-0.496246,0.342487,0.525054,0.351960,0.106431,0.117768,0.134297,0.101358,0.124631,-19,-0.718750,-0.500000,0.343750,0.531250,0.343750
221968,50,10,5.487260,0.129161,0.034280,0.020574,-0.709765,-0.481668,0.321045,0.510136,0.360252,0.024715,0.023570,0.030272,0.022087,0.029332,-19,-0.703125,-0.484375,0.312500,0.515625,0.359375
221968,50,30,16.397500,0.258312,0.034207,0.021305,-0.707046,-0.479477,0.319203,0.507640,0.359680,0.012339,0.011512,0.014772,0.010635,0.008841,-19,-0.703125,-0.484375,0.312500,0.515625,0.359375
221960,30,2,1.100280,0.072494,0.020696,0.016965,-0.711234,-0.492303,0.330898,0.523225,0.349415,0.095936,0.086220,0.099786,0.081321,0.107346,-19,-0.718750,-0.484375,0.328125,0.531250,0.343750
221960,30,10,5.425250,0.122384,0.020481,0.015203,-0.705763,-0.485301,0.319155,0.516224,0.355684,0.021319,0.018489,0.025898,0.016863,0.025537,-19,-0.703125,-0.484375,0.312500,0.515625,0.359375
221960,30,30,16.229900,0.275333,0.020468,0.015446,-0.704122,-0.483720,0.317899,0.514740,0.355203,0.010323,0.006917,0.013011,0.005726,0.008776,-19,-0.703125,-0.484375,0.312500,0.515625,0.359375
221960,50,2,1.115200,0.113479,0.034015,0.018787,-0.719188,-0.501750,0.339028,0.532475,0.349435,0.108813,0.111097,0.126641,0.098795,0.120096,-19,-0.718750,-0.500000,0.343750,0.531250,0.343750
221960,50,10,5.437800,0.152813,0.033975,0.019936,-0.707646,-0.486457,0.320020,0.517652,0.356431,0.022584,0.021296,0.026270,0.020673,0.016547,-19,-0.703125,-0.484375,0.312500,0.515625,0.359375
221960,50,30,16.243900,0.276690,0.033927,0.019698,-0.704789,-0.484302,0.318362,0.515270,0.355459,0.011026,0.008557,0.013673,0.007303,0.009230,-19,-0.703125,-0.484375,0.312500,0.515625,0.359375
221584,30,2,1.045770,0.067933,0.017051,0.014676,-0.726794,-0.477946,0.317150,0.522276,0.365314,0.091565,0.084303,0.098906,0.083583,0.094111,-19,-0.718750,-0.484375,0.312500,0.531250,0.359375
221584,30,10,5.164620,0.075193,0.016761,0.013448,-0.722060,-0.471763,0.308249,0.515965,0.369609,0.023780,0.017688,0.030971,0.015821,0.023057,-19,-0.718750,-0.468750,0.312500,0.515625,0.359375
221584,30,30,15.461400,0.140618,0.017007,0.014240,-0.720674,-0.470854,0.307257,0.514900,0.369370,0.017082,0.010298,0.026286,0.005906,0.019628,-19,-0.718750,-0.468750,0.312500,0.515625,0.359375
221584,50,2,1.057540,0.083312,0.028049,0.018284,-0.734247,-0.485821,0.326326,0.530905,0.362837,0.113508,0.109651,0.127530,0.104910,0.126440,-19,-0.734375,-0.484375,0.328125,0.531250,0.359375
221584,50,10,5.174060,0.094531,0.027817,0.018577,-0.723887,-0.473001,0.309261,0.517180,0.370447,0.027532,0.022455,0.036171,0.021544,0.026120,-19,-0.734375,-0.468750,0.312500,0.515625,0.375000
221584,50,30,15.473800,0.177715,0.028139,0.018860,-0.721296,-0.471175,0.307615,0.515292,0.369563,0.017937,0.011120,0.026638,0.007338,0.019723,-19,-0.718750,-0.468750,0.312500,0.515625,0.359375
221520,30,2,1.009930,0.085525,0.014339,0.012475,-0.726090,-0.476231,0.329964,0.519822,0.352535,0.088361,0.084819,0.095287,0.082639,0.094328,-18,-0.718750,-0.484375,0.328125,0.515625,0.359375
221520,30,10,4.985240,0.090801,0.014615,0.013221,-0.723075,-0.472826,0.322487,0.515614,0.357800,0.019348,0.021939,0.023683,0.019803,0.018468,-18,-0.718750,-0.468750,0.312500,0.515625,0.359375
221520,30,30,14.927700,0.108322,0.014391,0.013120,-0.721575,-0.471523,0.321260,0.514260,0.357579,0.010786,0.007886,0.010440,0.007358,0.008353,-18,-0.718750,-0.468750,0.312500,0.515625,0.359375
221520,50,2,1.018210,0.086412,0.024292,0.016828,-0.731590,-0.483777,0.338250,0.525926,0.351192,0.106397,0.102061,0.123186,0.097899,0.115678,-18,-0.734375,-0.484375,0.343750,0.531250,0.343750
221520,50,10,4.996770,0.098448,0.023949,0.015453,-0.724356,-0.473298,0.322890,0.516205,0.358559,0.023515,0.020330,0.024013,0.019966,0.016361,-18,-0.734375,-0.468750,0.328125,0.515625,0.359375
221520,50,30,14.938200,0.119724,0.023985,0.016414,-0.721999,-0.471714,0.321546,0.514510,0.357657,0.011224,0.008504,0.011054,0.007929,0.008713,-18,-0.718750,-0.468750,0.312500,0.515625,0.359375
221272,30,2,0.991691,0.062543,0.014386,0.012753,-0.703893,-0.486928,0.308324,0.513304,0.369193,0.084815,0.086065,0.089819,0.078226,0.087651,-18,-0.703125,-0.484375,0.312500,0.515625,0.359375
221272,30,10,4.904280,0.078924,0.014221,0.012610,-0.701768,-0.482886,0.301251,0.510541,0.372862,0.021697,0.018287,0.023601,0.018590,0.017569,-18,-0.703125,-0.484375,0.296875,0.515625,0.375000
221272,30,30,14.684500,0.172647,0.014640,0.013886,-0.700366,-0.481729,0.300253,0.509492,0.372350,0.015043,0.008684,0.016644,0.010335,0.013427,-18,-0.703125,-0.484375,0.296875,0.515625,0.375000
221272,50,2,1.001950,0.081524,0.024133,0.016399,-0.712945,-0.495511,0.317523,0.522908,0.368025,0.106485,0.106102,0.112876,0.097029,0.107626,-18,-0.718750,-0.500000,0.312500,0.531250,0.375000
221272,50,10,4.912900,0.092806,0.024209,0.016622,-0.703154,-0.483876,0.302101,0.511550,0.373380,0.025243,0.023214,0.029365,0.023367,0.021288,-18,-0.703125,-0.484375,0.296875,0.515625,0.375000
221272,50,30,14.692000,0.175721,0.024158,0.016287,-0.700929,-0.482188,0.300521,0.509983,0.372612,0.015221,0.009265,0.016932,0.010750,0.013623,-18,-0.703125,-0.484375,0.296875,0.515625,0.375000
245896,30,2,0.962314,0.167485,0.013853,0.014538,-0.712409,-0.482276,0.304886,0.516950,0.372849,0.096086,0.092241,0.097356,0.087918,0.098932,-18,-0.718750,-0.484375,0.312500,0.515625,0.375000
245896,30,10,4.751360,0.081390,0.013548,0.013149,-0.710955,-0.476457,0.297423,0.511351,0.378639,0.021884,0.017221,0.020793,0.017905,0.014747,-18,-0.718750,-0.468750,0.296875,0.515625,0.375000
245896,30,30,14.228900,0.181965,0.013515,0.012628,-0.709541,-0.475340,0.296314,0.510217,0.378350,0.013821,0.007744,0.012663,0.008321,0.009490,-18,-0.703125,-0.484375,0.296875,0.515625,0.375000
245896,50,2,0.969998,0.094028,0.022580,0.016530,-0.721347,-0.489152,0.314282,0.524250,0.371967,0.111119,0.110494,0.127322,0.103450,0.120810,-18,-0.718750,-0.484375,0.312500,0.515625,0.375000
245896,50,10,4.759710,0.103683,0.022507,0.016453,-0.712428,-0.477429,0.298188,0.512740,0.378930,0.025720,0.023061,0.029520,0.023685,0.021313,-18,-0.718750,-0.468750,0.296875,0.515625,0.375000
245896,50,30,14.237800,0.189284,0.022825,0.017376,-0.710072,-0.475732,0.296647,0.510704,0.378454,0.014634,0.008659,0.013473,0.009280,0.009805,-18,-0.703125,-0.484375,0.296875,0.515625,0.375000
245832,30,2,0.981841,0.077975,0.014565,0.013571,-0.731145,-0.474321,0.319524,0.519741,0.366201,0.095933,0.093431,0.106162,0.089012,0.106874,-18,-0.734375,-0.468750,0.328125,0.515625,0.359375
245832,30,10,4.847250,0.087233,0.014405,0.012449,-0.726235,-0.467530,0.309146,0.513220,0.371398,0.020251,0.016692,0.023829,0.016465,0.024268,-18,-0.734375,-0.468750,0.312500,0.515625,0.375000
245832,30,30,14.510600,0.179086,0.014328,0.012877,-0.725034,-0.466669,0.308216,0.512114,0.371372,0.010746,0.007242,0.009315,0.006103,0.006377,-18,-0.734375,-0.468750,0.312500,0.515625,0.375000
245832,50,2,0.990960,0.090116,0.024206,0.016661,-0.738741,-0.479652,0.326597,0.526509,0.365287,0.108508,0.108583,0.121536,0.104587,0.113436,-18,-0.734375,-0.484375,0.328125,0.531250,0.359375
245832,50,10,4.856780,0.102520,0.024193,0.016729,-0.727866,-0.468604,0.310141,0.514097,0.372233,0.024561,0.020653,0.024136,0.021096,0.015388,-18,-0.734375,-0.468750,0.312500,0.515625,0.375000
245832,50,30,14.520000,0.188290,0.024145,0.016202,-0.725671,-0.467123,0.308613,0.512530,0.371651,0.011181,0.008094,0.009823,0.006873,0.007005,-18,-0.734375,-0.468750,0.312500,0.515625,0.375000
238096,30,2,1.021420,0.069157,0.014722,0.013164,-0.763669,-0.452709,0.337726,0.521403,0.357248,0.090868,0.081164,0.100880,0.082885,0.094267,-18,-0.765625,-0.453125,0.343750,0.515625,0.359375
238096,30,10,5.049920,0.094972,0.014288,0.012135,-0.756899,-0.447484,0.326391,0.514625,0.363367,0.021438,0.016521,0.024685,0.016184,0.019779,-18,-0.750000,-0.453125,0.328125,0.515625,0.359375
238096,30,30,15.123800,0.230200,0.014351,0.012476,-0.755369,-0.446655,0.325707,0.513599,0.362718,0.013421,0.008411,0.016968,0.006716,0.014312,-18,-0.750000,-0.453125,0.328125,0.515625,0.359375
238096,50,2,1.031510,0.084795,0.023950,0.016632,-0.768187,-0.456755,0.342600,0.525336,0.357006,0.112960,0.095584,0.119629,0.095580,0.108885,-18,-0.765625,-0.453125,0.343750,0.515625,0.359375
238096,50,10,5.060500,0.113654,0.024169,0.016376,-0.758022,-0.448259,0.327270,0.515396,0.363615,0.024916,0.018609,0.027094,0.019126,0.020146,-18,-0.750000,-0.453125,0.328125,0.515625,0.359375
238096,50,30,15.134800,0.242080,0.023902,0.016507,-0.755791,-0.446853,0.325863,0.513871,0.362910,0.014092,0.008714,0.017521,0.007284,0.014535,-18,-0.750000,-0.453125,0.328125,0.515625,0.359375
238216,30,2,1.092230,0.088506,0.020511,0.015651,-0.742014,-0.471551,0.335236,0.523740,0.354589,0.094671,0.086313,0.100717,0.085682,0.097758,-19,-0.750000,-0.468750,0.328125,0.531250,0.359375
238216,30,10,5.377310,0.098112,0.020726,0.016024,-0.734843,-0.465597,0.325060,0.516436,0.358944,0.023877,0.020230,0.026945,0.019845,0.028068,-19,-0.734375,-0.468750,0.328125,0.515625,0.359375
238216,30,30,16.093200,0.195706,0.020632,0.014567,-0.732935,-0.463999,0.323454,0.514817,0.358663,0.010670,0.007482,0.007384,0.006701,0.005206,-19,-0.734375,-0.468750,0.328125,0.515625,0.359375
238216,50,2,1.103730,0.095166,0.034163,0.020023,-0.751249,-0.480921,0.347867,0.533180,0.351122,0.110765,0.109654,0.132668,0.104304,0.127713,-19,-0.750000,-0.484375,0.343750,0.531250,0.359375
238216,50,10,5.390540,0.108045,0.034197,0.020925,-0.736525,-0.466227,0.325969,0.517492,0.359290,0.025985,0.024631,0.032187,0.022918,0.029423,-19,-0.734375,-0.468750,0.328125,0.515625,0.359375
238216,50,30,16.105800,0.203737,0.033763,0.019059,-0.733572,-0.464375,0.323770,0.515271,0.358906,0.011197,0.007865,0.008385,0.007266,0.005515,-19,-0.734375,-0.468750,0.328125,0.515625,0.359375
230168,30,2,1.129450,0.123041,0.020607,0.016335,-0.739874,-0.474797,0.340471,0.523001,0.351199,0.090187,0.086229,0.106732,0.082639,0.098136,-20,-0.734375,-0.468750,0.343750,0.515625,0.343750
230168,30,10,5.556590,0.100272,0.020414,0.014677,-0.732540,-0.466824,0.328009,0.514958,0.356396,0.020029,0.017654,0.022475,0.017574,0.014494,-20,-0.734375,-0.468750,0.328125,0.515625,0.359375
230168,30,30,16.626700,0.212473,0.020691,0.018072,-0.730758,-0.465404,0.326815,0.513604,0.355744,0.009743,0.007235,0.009412,0.005695,0.006262,-20,-0.734375,-0.468750,0.328125,0.515625,0.359375
230168,50,2,1.141600,0.107329,0.034096,0.019795,-0.747973,-0.481044,0.348713,0.530860,0.349444,0.110984,0.102953,0.122934,0.098849,0.119621,-20,-0.750000,-0.484375,0.343750,0.531250,0.359375
230168,50,10,5.570390,0.127323,0.033904,0.019449,-0.734326,-0.467871,0.328858,0.516236,0.357103,0.022330,0.020248,0.024195,0.019998,0.014783,-20,-0.734375,-0.468750,0.328125,0.515625,0.359375
230168,50,30,16.641000,0.224523,0.034308,0.020698,-0.731500,-0.465824,0.327137,0.514047,0.356140,0.010536,0.008449,0.010496,0.007099,0.007435,-20,-0.734375,-0.468750,0.328125,0.515625,0.359375
230096,30,2,1.139670,0.090417,0.020372,0.015759,-0.771295,-0.454585,0.364246,0.527692,0.333942,0.087782,0.079106,0.110074,0.079334,0.097159,-20,-0.765625,-0.453125,0.359375,0.531250,0.328125
230096,30,10,5.617390,0.119845,0.020630,0.015466,-0.763307,-0.447985,0.351270,0.520058,0.339963,0.020501,0.015667,0.023839,0.017159,0.017555,-20,-0.765625,-0.453125,0.359375,0.515625,0.343750
230096,30,30,16.807100,0.199131,0.020676,0.015679,-0.761447,-0.446976,0.349992,0.518696,0.339735,0.009067,0.005775,0.011203,0.006234,0.009208,-20,-0.765625,-0.453125,0.359375,0.515625,0.343750
230096,50,2,1.152020,0.097712,0.034310,0.019898,-0.777918,-0.460494,0.372087,0.535131,0.331194,0.115727,0.101155,0.130245,0.099337,0.128055,-20,-0.781250,-0.453125,0.375000,0.531250,0.328125
230096,50,10,5.629040,0.113241,0.034029,0.020232,-0.765094,-0.449170,0.352309,0.521370,0.340584,0.024588,0.019951,0.025475,0.020092,0.019650,-20,-0.765625,-0.453125,0.359375,0.515625,0.343750
230096,50,30,16.819400,0.208276,0.034188,0.024094,-0.762219,-0.447185,0.350501,0.519096,0.339808,0.009942,0.007020,0.012013,0.007143,0.009724,-20,-0.765625,-0.453125,0.359375,0.515625,0.343750
230032,30,2,1.139890,0.085156,0.020125,0.014436,-0.719570,-0.484292,0.324946,0.521253,0.357664,0.092853,0.089277,0.097862,0.080995,0.100761,-20,-0.718750,-0.484375,0.328125,0.515625,0.359375
230032,30,10,5.620370,0.119783,0.020614,0.015399,-0.714329,-0.477806,0.315237,0.513906,0.362992,0.020223,0.017390,0.019752,0.016529,0.013519,-20,-0.718750,-0.468750,0.312500,0.515625,0.359375
230032,30,30,16.819600,0.201765,0.020307,0.015871,-0.712493,-0.476442,0.313941,0.512390,0.362603,0.011282,0.007483,0.009067,0.005801,0.006597,-20,-0.718750,-0.468750,0.312500,0.515625,0.359375
230032,50,2,1.154660,0.101782,0.034087,0.018884,-0.729032,-0.494008,0.334985,0.530292,0.357763,0.102493,0.108434,0.122424,0.100030,0.109500,-20,-0.734375,-0.500000,0.343750,0.531250,0.359375
230032,50,10,5.635060,0.145348,0.034460,0.021514,-0.716099,-0.479362,0.316424,0.515378,0.363659,0.023620,0.023893,0.030109,0.022630,0.023070,-20,-0.718750,-0.468750,0.312500,0.515625,0.359375
230032,50,30,16.829800,0.199815,0.034034,0.019144,-0.713158,-0.476882,0.314348,0.512867,0.362825,0.012075,0.008622,0.010062,0.007045,0.007166,-20,-0.718750,-0.468750,0.312500,0.515625,0.359375
229976,30,2,1.131380,0.094994,0.020221,0.014472,-0.733131,-0.481701,0.338714,0.525804,0.350314,0.088036,0.082907,0.100096,0.082124,0.092677,-20,-0.734375,-0.484375,0.343750,0.531250,0.343750
229976,30,10,5.572510,0.107365,0.020504,0.014730,-0.724879,-0.473024,0.326310,0.516877,0.354716,0.018963,0.016935,0.019805,0.016430,0.013386,-20,-0.734375,-0.468750,0.328125,0.515625,0.359375
229976,30,30,16.674900,0.188108,0.020509,0.015071,-0.723041,-0.471706,0.325240,0.515410,0.354097,0.009806,0.007098,0.010020,0.006562,0.007068,-20,-0.718750,-0.468750,0.328125,0.515625,0.343750
229976,50,2,1.144180,0.108688,0.034031,0.018563,-0.739903,-0.488179,0.347888,0.532550,0.347644,0.100303,0.103767,0.130487,0.101082,0.112427,-20,-0.734375,-0.484375,0.343750,0.531250,0.343750
229976,50,10,5.585130,0.113834,0.033757,0.019841,-0.726329,-0.474007,0.327359,0.517969,0.355008,0.024070,0.024019,0.028010,0.021911,0.021049,-20,-0.734375,-0.468750,0.328125,0.515625,0.359375
229976,50,30,16.687000,0.197811,0.034155,0.026062,-0.723635,-0.472072,0.325571,0.515786,0.354350,0.010279,0.007871,0.010535,0.007070,0.007529,-20,-0.718750,-0.468750,0.328125,0.515625,0.343750
221896,30,2,1.094830,0.080019,0.020595,0.015233,-0.716648,-0.491378,0.331600,0.525696,0.350730,0.091284,0.093350,0.110515,0.085858,0.113001,-19,-0.718750,-0.484375,0.328125,0.531250,0.343750
221896,30,10,5.392690,0.090550,0.020486,0.015061,-0.710986,-0.481854,0.318661,0.516878,0.357301,0.023218,0.018237,0.023515,0.016838,0.016437,-19,-0.703125,-0.484375,0.312500,0.515625,0.359375
221896,30,30,16.138700,0.193327,0.020703,0.017479,-0.709090,-0.480481,0.317438,0.515413,0.356720,0.016220,0.009244,0.015716,0.006099,0.011138,-19,-0.703125,-0.484375,0.312500,0.515625,0.359375
221896,50,2,1.109050,0.096778,0.034225,0.020123,-0.724780,-0.499530,0.340197,0.534143,0.349970,0.116271,0.111880,0.124427,0.101995,0.122173,-19,-0.718750,-0.500000,0.343750,0.531250,0.343750
221896,50,10,5.405700,0.109499,0.034359,0.020947,-0.712780,-0.483415,0.319857,0.518252,0.358086,0.026927,0.022940,0.028158,0.021715,0.018140,-19,-0.718750,-0.484375,0.328125,0.515625,0.359375
221896,50,30,16.152600,0.198020,0.033968,0.019176,-0.709605,-0.480899,0.317661,0.515849,0.356994,0.017233,0.010223,0.016889,0.007806,0.011546,-19,-0.703125,-0.484375,0.312500,0.515625,0.359375
221528,30,2,1.031230,0.118377,0.014185,0.012716,-0.744700,-0.468024,0.345877,0.523464,0.343384,0.078602,0.076717,0.091809,0.078304,0.081055,-19,-0.750000,-0.468750,0.343750,0.531250,0.343750
221528,30,10,5.098820,0.103144,0.014665,0.013938,-0.739583,-0.463165,0.337505,0.517440,0.347804,0.020140,0.020610,0.026985,0.019179,0.018504,-19,-0.734375,-0.468750,0.343750,0.515625,0.343750
221528,30,30,15.261400,0.153861,0.014378,0.013428,-0.738068,-0.461892,0.336272,0.516241,0.347447,0.011009,0.007593,0.010420,0.006438,0.006876,-19,-0.734375,-0.468750,0.343750,0.515625,0.343750
221528,50,2,1.040390,0.084133,0.024308,0.016841,-0.749721,-0.473257,0.354491,0.529134,0.339353,0.108350,0.102692,0.122478,0.100462,0.113377,-19,-0.750000,-0.468750,0.343750,0.531250,0.343750
221528,50,10,5.106280,0.110041,0.024225,0.017430,-0.740723,-0.463939,0.337821,0.518351,0.348489,0.023752,0.019880,0.025462,0.020480,0.015991,-19,-0.734375,-0.468750,0.343750,0.515625,0.343750
221528,50,30,15.270000,0.158487,0.024149,0.016915,-0.738690,-0.462257,0.336559,0.516650,0.347738,0.011467,0.008504,0.011576,0.007647,0.007233,-19,-0.734375,-0.468750,0.343750,0.515625,0.343750
213256,30,2,0.985536,0.067961,0.014732,0.013245,-0.747791,-0.463638,0.339958,0.523403,0.348068,0.094277,0.084940,0.106505,0.083675,0.107558,-18,-0.750000,-0.468750,0.343750,0.531250,0.343750
213256,30,10,4.868650,0.087575,0.014441,0.012539,-0.744494,-0.459410,0.331058,0.518625,0.354221,0.025499,0.021556,0.028542,0.019378,0.019302,-18,-0.750000,-0.453125,0.328125,0.515625,0.359375
213256,30,30,14.575700,0.192785,0.014494,0.012757,-0.742533,-0.458267,0.329591,0.517146,0.354064,0.017816,0.011267,0.017800,0.006762,0.012761,-18,-0.750000,-0.453125,0.328125,0.515625,0.359375
213256,50,2,0.994034,0.083537,0.024019,0.017005,-0.754715,-0.469925,0.347228,0.530640,0.346772,0.112232,0.099752,0.128858,0.098751,0.120744,-18,-0.750000,-0.468750,0.343750,0.531250,0.343750
213256,50,10,4.876760,0.108588,0.024360,0.017376,-0.745924,-0.460629,0.331806,0.519917,0.354829,0.028926,0.023093,0.030129,0.021933,0.019268,-18,-0.750000,-0.453125,0.328125,0.515625,0.359375
213256,50,30,14.584100,0.197331,0.024122,0.016578,-0.742946,-0.458522,0.329750,0.517489,0.354229,0.018537,0.011966,0.018546,0.007754,0.012984,-18,-0.750000,-0.453125,0.328125,0.515625,0.359375
213192,30,2,0.966084,0.073507,0.013456,0.012187,-0.750322,-0.456993,0.326061,0.513951,0.367304,0.089420,0.079534,0.103148,0.081690,0.095377,-18,-0.750000,-0.453125,0.328125,0.515625,0.359375
213192,30,10,4.772160,0.078977,0.013609,0.012794,-0.746320,-0.452310,0.318160,0.508840,0.371631,0.021289,0.019025,0.030504,0.020035,0.028462,-18,-0.750000,-0.453125,0.312500,0.515625,0.375000
213192,30,30,14.291900,0.181792,0.013568,0.013378,-0.744882,-0.450953,0.316966,0.507674,0.371195,0.008794,0.010274,0.022792,0.010811,0.025092,-18,-0.750000,-0.453125,0.312500,0.515625,0.375000
213192,50,2,0.974673,0.082604,0.022472,0.015816,-0.756607,-0.460923,0.335542,0.519322,0.362666,0.116028,0.103544,0.127554,0.101180,0.130061,-18,-0.750000,-0.453125,0.328125,0.515625,0.359375
213192,50,10,4.781650,0.113137,0.022420,0.016768,-0.747428,-0.452788,0.318526,0.509644,0.372047,0.024157,0.021180,0.031741,0.022253,0.028856,-18,-0.750000,-0.453125,0.312500,0.515625,0.375000
213192,50,30,14.300000,0.184207,0.022511,0.016402,-0.745285,-0.451340,0.317173,0.508006,0.371446,0.010328,0.010803,0.023332,0.011472,0.025174,-18,-0.750000,-0.453125,0.312500,0.515625,0.375000
238040,30,2,1.072460,0.093222,0.020387,0.015160,-0.764990,-0.459016,0.359146,0.528287,0.336572,0.091977,0.084636,0.108436,0.086311,0.103062,-19,-0.765625,-0.453125,0.359375,0.531250,0.328125
238040,30,10,5.272370,0.094296,0.020380,0.015378,-0.757925,-0.451954,0.347052,0.520116,0.342711,0.022129,0.017836,0.024097,0.017433,0.016884,-19,-0.750000,-0.453125,0.343750,0.515625,0.343750
238040,30,30,15.777700,0.186141,0.020313,0.014896,-0.756180,-0.450836,0.345868,0.518970,0.342178,0.011534,0.007842,0.013519,0.005834,0.010572,-19,-0.750000,-0.453125,0.343750,0.515625,0.343750
238040,50,2,1.082590,0.096896,0.033957,0.019526,-0.771371,-0.461881,0.367790,0.533791,0.331671,0.123008,0.104429,0.133889,0.102297,0.138860,-19,-0.765625,-0.468750,0.375000,0.531250,0.328125
238040,50,10,5.288360,0.126611,0.034025,0.019951,-0.759740,-0.453264,0.347873,0.521577,0.343554,0.026443,0.019576,0.029056,0.020664,0.019521,-19,-0.765625,-0.453125,0.343750,0.531250,0.343750
238040,50,30,15.789800,0.194462,0.034431,0.020712,-0.756722,-0.451293,0.346153,0.519431,0.342430,0.012636,0.009247,0.014511,0.007527,0.011156,-19,-0.750000,-0.453125,0.343750,0.515625,0.343750
221592,30,2,1.074090,0.076643,0.020638,0.015703,-0.751309,-0.466871,0.343383,0.527614,0.347184,0.101448,0.090973,0.116315,0.090149,0.120559,-19,-0.750000,-0.468750,0.343750,0.531250,0.343750
221592,30,10,5.291320,0.098095,0.020378,0.015064,-0.744714,-0.459589,0.329932,0.519258,0.355114,0.028954,0.021590,0.029634,0.019236,0.020004,-19,-0.750000,-0.453125,0.328125,0.515625,0.359375
221592,30,30,15.834000,0.185422,0.020420,0.015205,-0.742671,-0.458403,0.328534,0.517829,0.354710,0.021200,0.012915,0.021059,0.006838,0.014915,-19,-0.750000,-0.453125,0.328125,0.515625,0.359375
221592,50,2,1.087220,0.093056,0.034245,0.019382,-0.759318,-0.474654,0.349875,0.534336,0.349762,0.117690,0.105127,0.130627,0.105759,0.116612,-19,-0.750000,-0.468750,0.343750,0.531250,0.343750
221592,50,10,5.306430,0.110216,0.034306,0.020323,-0.746855,-0.461200,0.331054,0.521138,0.355862,0.032585,0.026799,0.035165,0.024591,0.023178,-19,-0.750000,-0.453125,0.328125,0.515625,0.359375
221592,50,30,15.851200,0.222136,0.034150,0.019602,-0.743219,-0.458773,0.328720,0.518135,0.355138,0.021698,0.013188,0.021634,0.007749,0.015160,-19,-0.750000,-0.453125,0.328125,0.515625,0.359375
245904,30,2,0.984373,0.065453,0.014635,0.013960,-0.705078,-0.488282,0.298088,0.518645,0.376627,0.088732,0.083595,0.088498,0.080532,0.091885,-18,-0.703125,-0.484375,0.296875,0.515625,0.375000
245904,30,10,4.864180,0.088400,0.014396,0.011787,-0.701213,-0.483643,0.290533,0.513624,0.380699,0.019443,0.017559,0.019361,0.016696,0.013109,-18,-0.703125,-0.484375,0.296875,0.515625,0.375000
245904,30,30,14.562000,0.155881,0.014316,0.012601,-0.699601,-0.482381,0.289411,0.512250,0.380321,0.010939,0.007332,0.009711,0.005420,0.006280,-18,-0.703125,-0.484375,0.296875,0.515625,0.375000
245904,50,2,0.992947,0.084312,0.024062,0.016238,-0.711254,-0.497434,0.306908,0.526955,0.374824,0.113605,0.111406,0.121453,0.101563,0.115421,-18,-0.718750,-0.500000,0.312500,0.531250,0.375000
245904,50,10,4.873470,0.101726,0.024410,0.017442,-0.702398,-0.484492,0.291057,0.514561,0.381273,0.024132,0.021729,0.022995,0.020653,0.015168,-18,-0.703125,-0.484375,0.296875,0.515625,0.375000
245904,50,30,14.573600,0.198569,0.024633,0.017398,-0.700119,-0.482732,0.289742,0.512598,0.380511,0.011725,0.008352,0.010681,0.006733,0.006808,-18,-0.703125,-0.484375,0.296875,0.515625,0.375000
246096,30,2,1.017960,0.061936,0.014076,0.012359,-0.728011,-0.476240,0.319861,0.522520,0.361871,0.080415,0.078721,0.087205,0.078379,0.074874,-18,-0.734375,-0.468750,0.328125,0.515625,0.359375
246096,30,10,5.033800,0.095726,0.014487,0.012874,-0.723985,-0.471163,0.313156,0.517210,0.364781,0.023500,0.019789,0.022958,0.017074,0.015484,-18,-0.718750,-0.468750,0.312500,0.515625,0.359375
246096,30,30,15.071600,0.224452,0.014556,0.012646,-0.722670,-0.470596,0.312454,0.516282,0.364530,0.016120,0.011383,0.014858,0.005819,0.008675,-18,-0.718750,-0.468750,0.312500,0.515625,0.359375
246096,50,2,1.027230,0.097065,0.024184,0.016157,-0.733492,-0.483527,0.329698,0.530041,0.357281,0.114542,0.107283,0.120729,0.098325,0.120781,-18,-0.734375,-0.484375,0.328125,0.531250,0.359375
246096,50,10,5.043370,0.113632,0.024047,0.016589,-0.725142,-0.472410,0.313720,0.518536,0.365296,0.025764,0.020581,0.024912,0.018904,0.016120,-18,-0.718750,-0.468750,0.312500,0.515625,0.359375
246096,50,30,15.082100,0.231786,0.024179,0.017468,-0.722969,-0.470860,0.312582,0.516526,0.364722,0.016803,0.012389,0.015747,0.007432,0.009113,-18,-0.718750,-0.468750,0.312500,0.515625,0.359375
246088,30,2,1.037450,0.075480,0.015585,0.013632,-0.725472,-0.481669,0.336206,0.521782,0.349154,0.083354,0.083797,0.094401,0.077474,0.083776,-19,-0.718750,-0.484375,0.343750,0.515625,0.343750
246088,30,10,5.124790,0.100388,0.015742,0.013081,-0.719817,-0.475766,0.328489,0.515355,0.351738,0.020388,0.019368,0.026592,0.017369,0.021650,-19,-0.718750,-0.468750,0.328125,0.515625,0.343750
246088,30,30,15.340700,0.208919,0.015746,0.014013,-0.718177,-0.474473,0.327116,0.514025,0.351509,0.012424,0.008861,0.011179,0.005828,0.007149,-19,-0.718750,-0.468750,0.328125,0.515625,0.343750
246088,50,2,1.048730,0.112630,0.026226,0.018049,-0.729954,-0.487863,0.345647,0.528229,0.343942,0.109126,0.099787,0.116318,0.096147,0.118119,-19,-0.734375,-0.484375,0.343750,0.531250,0.343750
246088,50,10,5.136130,0.145368,0.026444,0.019458,-0.721142,-0.476694,0.329254,0.516154,0.352429,0.024408,0.021326,0.024688,0.019740,0.015976,-19,-0.718750,-0.484375,0.328125,0.515625,0.359375
246088,50,30,15.351800,0.226143,0.026016,0.016998,-0.718692,-0.474752,0.327306,0.514378,0.351760,0.012530,0.009024,0.011458,0.006228,0.007438,-19,-0.718750,-0.468750,0.328125,0.515625,0.343750
238104,30,2,1.060710,0.074701,0.019356,0.014836,-0.701135,-0.497156,0.308984,0.522420,0.366888,0.100261,0.091497,0.102980,0.083119,0.105910,-19,-0.703125,-0.500000,0.312500,0.515625,0.375000
238104,30,10,5.227590,0.104079,0.019178,0.014809,-0.696049,-0.488431,0.298591,0.514087,0.371802,0.022908,0.018638,0.019365,0.016720,0.014070,-19,-0.703125,-0.484375,0.296875,0.515625,0.375000
238104,30,30,15.646000,0.220423,0.019467,0.015388,-0.694215,-0.487183,0.297417,0.512763,0.371219,0.014922,0.009676,0.007783,0.006281,0.005158,-19,-0.703125,-0.484375,0.296875,0.515625,0.375000
238104,50,2,1.072310,0.081238,0.032315,0.025621,-0.709288,-0.506657,0.319698,0.530923,0.365323,0.113958,0.119405,0.134198,0.106992,0.127006,-19,-0.703125,-0.500000,0.312500,0.531250,0.359375
238104,50,10,5.241970,0.120558,0.031950,0.019059,-0.697810,-0.489968,0.299710,0.515938,0.372130,0.024887,0.026026,0.026424,0.022651,0.018818,-19,-0.703125,-0.484375,0.296875,0.515625,0.375000
238104,50,30,15.659000,0.223588,0.032393,0.019490,-0.694931,-0.487725,0.297812,0.513312,0.371532,0.015592,0.010228,0.008939,0.007473,0.005590,-19,-0.703125,-0.484375,0.296875,0.515625,0.375000
238344,30,2,1.097770,0.082985,0.020446,0.014711,-0.704891,-0.496149,0.311542,0.522945,0.366552,0.085204,0.088288,0.097891,0.082651,0.096420,-19,-0.703125,-0.500000,0.312500,0.531250,0.359375
238344,30,10,5.409080,0.108274,0.020740,0.016866,-0.697895,-0.487417,0.300798,0.513611,0.370903,0.019362,0.019764,0.023846,0.019123,0.018343,-19,-0.703125,-0.484375,0.296875,0.515625,0.375000
238344,30,30,16.188800,0.279667,0.020608,0.015403,-0.696208,-0.486055,0.299559,0.512279,0.370425,0.008605,0.006347,0.008294,0.005922,0.006277,-19,-0.703125,-0.484375,0.296875,0.515625,0.375000
238344,50,2,1.110220,0.094227,0.034119,0.019599,-0.710229,-0.501242,0.317344,0.527839,0.366288,0.106441,0.110758,0.119674,0.102893,0.116584,-19,-0.703125,-0.500000,0.312500,0.531250,0.359375
238344,50,10,5.422020,0.120791,0.034066,0.020379,-0.699573,-0.488679,0.301343,0.515086,0.371822,0.022808,0.021682,0.024828,0.021378,0.015718,-19,-0.703125,-0.484375,0.296875,0.515625,0.375000
238344,50,30,16.201600,0.276815,0.034310,0.019761,-0.696829,-0.486476,0.299850,0.512729,0.370726,0.009894,0.007730,0.009750,0.007451,0.006847,-19,-0.703125,-0.484375,0.296875,0.515625,0.375000
238280,30,2,1.097720,0.070465,0.020754,0.016926,-0.693991,-0.502351,0.317564,0.521896,0.356883,0.090763,0.094199,0.096111,0.084468,0.095701,-19,-0.687500,-0.500000,0.312500,0.515625,0.359375
238280,30,10,5.416450,0.123970,0.020440,0.015793,-0.689149,-0.493905,0.307559,0.513684,0.361811,0.018177,0.017289,0.021391,0.017092,0.014888,-19,-0.687500,-0.500000,0.312500,0.515625,0.359375
238280,30,30,16.207500,0.259881,0.020561,0.015342,-0.687428,-0.492700,0.306393,0.512430,0.361306,0.008681,0.006800,0.008913,0.006208,0.005312,-19,-0.687500,-0.500000,0.312500,0.515625,0.359375
238280,50,2,1.112400,0.098335,0.034524,0.019716,-0.702711,-0.511158,0.327421,0.531513,0.354936,0.107164,0.114860,0.121356,0.105574,0.118289,-19,-0.703125,-0.515625,0.328125,0.531250,0.359375
238280,50,10,5.429310,0.134848,0.034654,0.020375,-0.690469,-0.495001,0.308172,0.514707,0.362592,0.023776,0.021931,0.024560,0.021412,0.016065,-19,-0.687500,-0.500000,0.312500,0.515625,0.359375
238280,50,30,16.220600,0.267086,0.034292,0.019525,-0.687869,-0.493083,0.306595,0.512805,0.361553,0.010084,0.008339,0.010509,0.007724,0.005872,-19,-0.687500,-0.500000,0.312500,0.515625,0.359375
238224,30,2,1.126610,0.084155,0.020601,0.015205,-0.684168,-0.507041,0.311266,0.519809,0.360134,0.087116,0.093473,0.098045,0.081433,0.094714,-20,-0.687500,-0.500000,0.312500,0.515625,0.359375
238224,30,10,5.555710,0.105893,0.020689,0.015056,-0.679938,-0.498280,0.301446,0.511824,0.364948,0.019646,0.017837,0.019505,0.016417,0.014613,-20,-0.671875,-0.500000,0.296875,0.515625,0.359375
238224,30,30,16.619400,0.169688,0.020595,0.015020,-0.678380,-0.496868,0.300244,0.510562,0.364441,0.012261,0.008217,0.010424,0.006305,0.008928,-20,-0.671875,-0.500000,0.296875,0.515625,0.359375
238224,50,2,1.141790,0.098624,0.034253,0.019651,-0.692610,-0.515971,0.320135,0.527878,0.360568,0.101175,0.112232,0.117234,0.098776,0.106742,-20,-0.687500,-0.515625,0.312500,0.531250,0.359375
238224,50,10,5.569800,0.138531,0.034211,0.019292,-0.681955,-0.499388,0.302722,0.513161,0.365460,0.022367,0.021832,0.022914,0.020240,0.016281,-20,-0.687500,-0.500000,0.296875,0.515625,0.375000
238224,50,30,16.635100,0.194057,0.034377,0.019975,-0.679006,-0.497380,0.300673,0.510993,0.364721,0.012859,0.009446,0.011615,0.007831,0.009385,-20,-0.671875,-0.500000,0.296875,0.515625,0.359375
238168,30,2,1.169380,0.073525,0.025405,0.017496,-0.701253,-0.504066,0.322484,0.526085,0.356750,0.092633,0.100536,0.106201,0.089274,0.098057,-20,-0.703125,-0.500000,0.312500,0.531250,0.359375
238168,30,10,5.750880,0.111124,0.025379,0.017539,-0.692177,-0.492396,0.308076,0.514388,0.362110,0.020743,0.018095,0.020652,0.016784,0.013917,-20,-0.687500,-0.500000,0.312500,0.515625,0.359375
238168,30,30,17.203500,0.233679,0.025264,0.017619,-0.690381,-0.491134,0.307117,0.513062,0.361335,0.012982,0.008700,0.011579,0.005893,0.007212,-20,-0.687500,-0.500000,0.312500,0.515625,0.359375
238168,50,2,1.187480,0.121824,0.041997,0.022998,-0.709260,-0.511106,0.332413,0.533598,0.354354,0.103584,0.113328,0.130785,0.105606,0.123040,-20,-0.703125,-0.515625,0.328125,0.531250,0.359375
238168,50,10,5.768330,0.161080,0.042045,0.022388,-0.694513,-0.494227,0.309642,0.516263,0.362835,0.025289,0.023293,0.026053,0.021508,0.015751,-20,-0.687500,-0.500000,0.312500,0.515625,0.359375
238168,50,30,17.221500,0.253840,0.042613,0.024634,-0.690955,-0.491486,0.307300,0.513490,0.361651,0.014265,0.009578,0.013256,0.007661,0.007865,-20,-0.687500,-0.500000,0.312500,0.515625,0.359375
230176,30,2,1.179900,0.096925,0.028567,0.018466,-0.677844,-0.514845,0.301967,0.522810,0.367912,0.099247,0.093455,0.096797,0.088622,0.100244,-20,-0.671875,-0.515625,0.296875,0.515625,0.375000
230176,30,10,5.788420,0.124004,0.028493,0.017522,-0.671847,-0.503953,0.290483,0.513491,0.371826,0.018590,0.018037,0.020585,0.016688,0.013883,-20,-0.671875,-0.500000,0.281250,0.515625,0.375000
230176,30,30,17.306000,0.238094,0.028482,0.018112,-0.669418,-0.502088,0.289042,0.511551,0.370913,0.009915,0.007225,0.012205,0.006004,0.008055,-20,-0.671875,-0.500000,0.281250,0.515625,0.375000
230176,50,2,1.198880,0.113766,0.047436,0.025379,-0.688013,-0.527008,0.314258,0.535368,0.365394,0.119284,0.128279,0.129270,0.111201,0.129523,-20,-0.687500,-0.531250,0.312500,0.531250,0.375000
