stripid,w1,w2,w3,w4,w5,w1c,w2c,w3c,w4c,w5c,encw1,encw2,encw3,encw4,encw5
237640,-0.65625,-0.515625,0.25,0.515625,0.40625,-0.65625,-0.515625,0.25,0.515625,0.40625,86,95,16,33,26
229640,-0.65625,-0.515625,0.25,0.515625,0.40625,-0.65625,-0.515625,0.25,0.515625,0.40625,86,95,16,33,26
229576,-0.65625,-0.515625,0.25,0.515625,0.40625,-0.65625,-0.515625,0.25,0.515625,0.40625,86,95,16,33,26
229512,-0.65625,-0.515625,0.25,0.515625,0.40625,-0.65625,-0.515625,0.25,0.515625,0.40625,86,95,16,33,26
229448,-0.65625,-0.515625,0.25,0.515625,0.40625,-0.65625,-0.515625,0.25,0.515625,0.40625,86,95,16,33,26
221448,-0.65625,-0.515625,0.25,0.515625,0.40625,-0.65625,-0.515625,0.25,0.515625,0.40625,86,95,16,33,26
229648,-0.65625,-0.515625,0.25,0.515625,0.40625,-0.65625,-0.515625,0.25,0.515625,0.40625,86,95,16,33,26
229584,-0.65625,-0.515625,0.25,0.515625,0.40625,-0.65625,-0.515625,0.25,0.515625,0.40625,86,95,16,33,26
229520,-0.65625,-0.515625,0.25,0.515625,0.40625,-0.65625,-0.515625,0.25,0.515625,0.40625,86,95,16,33,26
229456,-0.65625,-0.515625,0.25,0.515625,0.40625,-0.65625,-0.515625,0.25,0.515625,0.40625,86,95,16,33,26
229656,-0.65625,-0.515625,0.25,0.515625,0.40625,-0.65625,-0.515625,0.25,0.515625,0.40625,86,95,16,33,26
229592,-0.65625,-0.515625,0.25,0.515625,0.40625,-0.65625,-0.515625,0.25,0.515625,0.40625,86,95,16,33,26
229528,-0.65625,-0.515625,0.25,0.515625,0.40625,-0.65625,-0.515625,0.25,0.515625,0.40625,86,95,16,33,26
229464,-0.65625,-0.515625,0.25,0.515625,0.40625,-0.65625,-0.515625,0.25,0.515625,0.40625,86,95,16,33,26
237704,-0.65625,-0.515625,0.25,0.515625,0.40625,-0.65625,-0.515625,0.25,0.515625,0.40625,86,95,16,33,26
237648,-0.65625,-0.515625,0.25,0.515625,0.40625,-0.65625,-0.515625,0.25,0.515625,0.40625,86,95,16,33,26
229896,-0.65625,-0.515625,0.25,0.515625,0.40625,-0.65625,-0.515625,0.25,0.515625,0.40625,86,95,16,33,26
229832,-0.65625,-0.515625,0.25,0.515625,0.40625,-0.65625,-0.515625,0.25,0.515625,0.40625,86,95,16,33,26
229768,-0.65625,-0.515625,0.25,0.515625,0.40625,-0.65625,-0.515625,0.25,0.515625,0.40625,86,95,16,33,26
229704,-0.65625,-0.515625,0.25,0.515625,0.40625,-0.65625,-0.515625,0.25,0.515625,0.40625,86,95,16,33,26
221456,-0.65625,-0.515625,0.25,0.515625,0.40625,-0.65625,-0.515625,0.25,0.515625,0.40625,86,95,16,33,26
221384,-0.65625,-0.515625,0.25,0.515625,0.40625,-0.65625,-0.515625,0.25,0.515625,0.40625,86,95,16,33,26
229840,-0.65625,-0.515625,0.25,0.515625,0.40625,-0.65625,-0.515625,0.25,0.515625,0.40625,86,95,16,33,26
229776,-0.65625,-0.515625,0.25,0.515625,0.40625,-0.65625,-0.515625,0.25,0.515625,0.40625,86,95,16,33,26
237832,-0.65625,-0.515625,0.25,0.515625,0.40625,-0.65625,-0.515625,0.25,0.515625,0.40625,86,95,16,33,26
237768,-0.65625,-0.515625,0.25,0.515625,0.40625,-0.65625,-0.515625,0.25,0.515625,0.40625,86,95,16,33,26
237968,-0.65625,-0.515625,0.25,0.515625,0.40625,-0.65625,-0.515625,0.25,0.515625,0.40625,86,95,16,33,26
237960,-0.65625,-0.515625,0.25,0.515625,0.40625,-0.65625,-0.515625,0.25,0.515625,0.40625,86,95,16,33,26
237904,-0.65625,-0.515625,0.25,0.515625,0.40625,-0.65625,-0.515625,0.25,0.515625,0.40625,86,95,16,33,26
237896,-0.65625,-0.515625,0.25,0.515625,0.40625,-0.65625,-0.515625,0.25,0.515625,0.40625,86,95,16,33,26
229912,-0.65625,-0.515625,0.25,0.515625,0.40625,-0.65625,-0.515625,0.25,0.515625,0.40625,86,95,16,33,26
229904,-0.65625,-0.515625,0.25,0.515625,0.40625,-0.65625,-0.515625,0.25,0.515625,0.40625,86,95,16,33,26
229848,-0.65625,-0.515625,0.25,0.515625,0.40625,-0.65625,-0.515625,0.25,0.515625,0.40625,86,95,16,33,26
229784,-0.65625,-0.515625,0.25,0.515625,0.40625,-0.65625,-0.515625,0.25,0.515625,0.40625,86,95,16,33,26
229720,-0.65625,-0.515625,0.25,0.515625,0.40625,-0.65625,-0.515625,0.25,0.515625,0.40625,86,95,16,33,26
229712,-0.65625,-0.515625,0.25,0.515625,0.40625,-0.65625,-0.515625,0.25,0.515625,0.40625,86,95,16,33,26
221712,-0.65625,-0.515625,0.25,0.515625,0.40625,-0.65625,-0.515625,0.25,0.515625,0.40625,86,95,16,33,26
221704,-0.65625,-0.515625,0.25,0.515625,0.40625,-0.65625,-0.515625,0.25,0.515625,0.40625,86,95,16,33,26
221648,-0.65625,-0.515625,0.25,0.515625,0.40625,-0.65625,-0.515625,0.25,0.515625,0.40625,86,95,16,33,26
221640,-0.65625,-0.515625,0.25,0.515625,0.40625,-0.65625,-0.515625,0.25,0.515625,0.40625,86,95,16,33,26
221320,-0.65625,-0.515625,0.25,0.515625,0.40625,-0.65625,-0.515625,0.25,0.515625,0.40625,86,95,16,33,26
221256,-0.65625,-0.515625,0.25,0.515625,0.40625,-0.65625,-0.515625,0.25,0.515625,0.40625,86,95,16,33,26
237840,-0.65625,-0.515625,0.25,0.515625,0.40625,-0.65625,-0.515625,0.25,0.515625,0.40625,86,95,16,33,26
238024,-0.65625,-0.515625,0.25,0.515625,0.40625,-0.65625,-0.515625,0.25,0.515625,0.40625,86,95,16,33,26
237976,-0.65625,-0.515625,0.25,0.515625,0.40625,-0.65625,-0.515625,0.25,0.515625,0.40625,86,95,16,33,26
230152,-0.65625,-0.515625,0.25,0.515625,0.40625,-0.65625,-0.515625,0.25,0.515625,0.40625,86,95,16,33,26
230088,-0.65625,-0.515625,0.25,0.515625,0.40625,-0.65625,-0.515625,0.25,0.515625,0.40625,86,95,16,33,26
230024,-0.65625,-0.515625,0.25,0.515625,0.40625,-0.65625,-0.515625,0.25,0.515625,0.40625,86,95,16,33,26
229960,-0.65625,-0.515625,0.25,0.515625,0.40625,-0.65625,-0.515625,0.25,0.515625,0.40625,86,95,16,33,26
221656,-0.65625,-0.515625,0.25,0.515625,0.40625,-0.65625,-0.515625,0.25,0.515625,0.40625,86,95,16,33,26
221576,-0.65625,-0.515625,0.25,0.515625,0.40625,-0.65625,-0.515625,0.25,0.515625,0.40625,86,95,16,33,26
221264,-0.65625,-0.515625,0.25,0.515625,0.40625,-0.65625,-0.515625,0.25,0.515625,0.40625,86,95,16,33,26
237848,-0.65625,-0.515625,0.25,0.515625,0.40625,-0.65625,-0.515625,0.25,0.515625,0.40625,86,95,16,33,26
238088,-0.65625,-0.515625,0.25,0.515625,0.40625,-0.65625,-0.515625,0.25,0.515625,0.40625,86,95,16,33,26
238032,-0.65625,-0.515625,0.25,0.515625,0.40625,-0.65625,-0.515625,0.25,0.515625,0.40625,86,95,16,33,26
238160,-0.65625,-0.515625,0.25,0.515625,0.40625,-0.65625,-0.515625,0.25,0.515625,0.40625,86,95,16,33,26
238152,-0.65625,-0.515625,0.25,0.515625,0.40625,-0.65625,-0.515625,0.25,0.515625,0.40625,86,95,16,33,26
230160,-0.65625,-0.515625,0.25,0.515625,0.40625,-0.65625,-0.515625,0.25,0.515625,0.40625,86,95,16,33,26
229968,-0.65625,-0.515625,0.25,0.515625,0.40625,-0.65625,-0.515625,0.25,0.515625,0.40625,86,95,16,33,26
221968,-0.65625,-0.515625,0.25,0.515625,0.40625,-0.65625,-0.515625,0.25,0.515625,0.40625,86,95,16,33,26
221960,-0.65625,-0.515625,0.25,0.515625,0.40625,-0.65625,-0.515625,0.25,0.515625,0.40625,86,95,16,33,26
221584,-0.65625,-0.515625,0.25,0.515625,0.40625,-0.65625,-0.515625,0.25,0.515625,0.40625,86,95,16,33,26
221520,-0.65625,-0.515625,0.25,0.515625,0.40625,-0.65625,-0.515625,0.25,0.515625,0.40625,86,95,16,33,26
221272,-0.65625,-0.515625,0.25,0.515625,0.40625,-0.65625,-0.515625,0.25,0.515625,0.40625,86,95,16,33,26
245896,-0.65625,-0.515625,0.25,0.515625,0.40625,-0.65625,-0.515625,0.25,0.515625,0.40625,86,95,16,33,26
245832,-0.65625,-0.515625,0.25,0.515625,0.40625,-0.65625,-0.515625,0.25,0.515625,0.40625,86,95,16,33,26
238096,-0.65625,-0.515625,0.25,0.515625,0.40625,-0.65625,-0.515625,0.25,0.515625,0.40625,86,95,16,33,26
238216,-0.65625,-0.515625,0.25,0.515625,0.40625,-0.65625,-0.515625,0.25,0.515625,0.40625,86,95,16,33,26
230168,-0.65625,-0.515625,0.25,0.515625,0.40625,-0.65625,-0.515625,0.25,0.515625,0.40625,86,95,16,33,26
230096,-0.65625,-0.515625,0.25,0.515625,0.40625,-0.65625,-0.515625,0.25,0.515625,0.40625,86,95,16,33,26
230032,-0.65625,-0.515625,0.25,0.515625,0.40625,-0.65625,-0.515625,0.25,0.515625,0.40625,86,95,16,33,26
229976,-0.65625,-0.515625,0.25,0.515625,0.40625,-0.65625,-0.515625,0.25,0.515625,0.40625,86,95,16,33,26
221896,-0.65625,-0.515625,0.25,0.515625,0.40625,-0.65625,-0.515625,0.25,0.515625,0.40625,86,95,16,33,26
221528,-0.65625,-0.515625,0.25,0.515625,0.40625,-0.65625,-0.515625,0.25,0.515625,0.40625,86,95,16,33,26
213256,-0.65625,-0.515625,0.25,0.515625,0.40625,-0.65625,-0.515625,0.25,0.515625,0.40625,86,95,16,33,26
213192,-0.65625,-0.515625,0.25,0.515625,0.40625,-0.65625,-0.515625,0.25,0.515625,0.40625,86,95,16,33,26
238040,-0.65625,-0.515625,0.25,0.515625,0.40625,-0.65625,-0.515625,0.25,0.515625,0.40625,86,95,16,33,26
221592,-0.65625,-0.515625,0.25,0.515625,0.40625,-0.65625,-0.515625,0.25,0.515625,0.40625,86,95,16,33,26
245904,-0.65625,-0.515625,0.25,0.515625,0.40625,-0.65625,-0.515625,0.25,0.515625,0.40625,86,95,16,33,26
246096,-0.65625,-0.515625,0.25,0.515625,0.40625,-0.65625,-0.515625,0.25,0.515625,0.40625,86,95,16,33,26
246088,-0.65625,-0.515625,0.25,0.515625,0.40625,-0.65625,-0.515625,0.25,0.515625,0.40625,86,95,16,33,26
238104,-0.65625,-0.515625,0.25,0.515625,0.40625,-0.65625,-0.515625,0.25,0.515625,0.40625,86,95,16,33,26
238344,-0.65625,-0.515625,0.25,0.515625,0.40625,-0.65625,-0.515625,0.25,0.515625,0.40625,86,95,16,33,26
238280,-0.65625,-0.515625,0.25,0.515625,0.40625,-0.65625,-0.515625,0.25,0.515625,0.40625,86,95,16,33,26
238224,-0.65625,-0.515625,0.25,0.515625,0.40625,-0.65625,-0.515625,0.25,0.515625,0.40625,86,95,16,33,26
238168,-0.65625,-0.515625,0.25,0.515625,0.40625,-0.65625,-0.515625,0.25,0.515625,0.40625,86,95,16,33,26
230176,-0.65625,-0.515625,0.25,0.515625,0.40625,-0.65625,-0.515625,0.25,0.515625,0.40625,86,95,16,33,26
230104,-0.65625,-0.515625,0.25,0.515625,0.40625,-0.65625,-0.515625,0.25,0.515625,0.40625,86,95,16,33,26
230040,-0.65625,-0.515625,0.25,0.515625,0.40625,-0.65625,-0.515625,0.25,0.515625,0.40625,86,95,16,33,26
229984,-0.65625,-0.515625,0.25,0.515625,0.40625,-0.65625,-0.515625,0.25,0.515625,0.40625,86,95,16,33,26
221976,-0.65625,-0.515625,0.25,0.515625,0.40625,-0.65625,-0.515625,0.25,0.515625,0.40625,86,95,16,33,26
221904,-0.65625,-0.515625,0.25,0.515625,0.40625,-0.65625,-0.515625,0.25,0.515625,0.40625,86,95,16,33,26
221832,-0.65625,-0.515625,0.25,0.515625,0.40625,-0.65625,-0.515625,0.25,0.515625,0.40625,86,95,16,33,26
221768,-0.65625,-0.515625,0.25,0.515625,0.40625,-0.65625,-0.515625,0.25,0.515625,0.40625,86,95,16,33,26
221512,-0.65625,-0.515625,0.25,0.515625,0.40625,-0.65625,-0.515625,0.25,0.515625,0.40625,86,95,16,33,26
213520,-0.65625,-0.515625,0.25,0.515625,0.40625,-0.65625,-0.515625,0.25,0.515625,0.40625,86,95,16,33,26
213512,-0.65625,-0.515625,0.25,0.515625,0.40625,-0.65625,-0.515625,0.25,0.515625,0.40625,86,95,16,33,26
213200,-0.65625,-0.515625,0.25,0.515625,0.40625,-0.65625,-0.515625,0.25,0.515625,0.40625,86,95,16,33,26
246176,-0.65625,-0.515625,0.25,0.515625,0.40625,-0.65625,-0.515625,0.25,0.515625,0.40625,86,95,16,33,26
238288,-0.65625,-0.515625,0.25,0.515625,0.40625,-0.65625,-0.515625,0.25,0.515625,0.40625,86,95,16,33,26
238232,-0.65625,-0.515625,0.25,0.515625,0.40625,-0.65625,-0.515625,0.25,0.515625,0.40625,86,95,16,33,26
230408,-0.65625,-0.515625,0.25,0.515625,0.40625,-0.65625,-0.515625,0.25,0.515625,0.40625,86,95,16,33,26
230344,-0.65625,-0.515625,0.25,0.515625,0.40625,-0.65625,-0.515625,0.25,0.515625,0.40625,86,95,16,33,26
230280,-0.65625,-0.515625,0.25,0.515625,0.40625,-0.65625,-0.515625,0.25,0.515625,0.40625,86,95,16,33,26
230216,-0.65625,-0.515625,0.25,0.515625,0.40625,-0.65625,-0.515625,0.25,0.515625,0.40625,86,95,16,33,26
221912,-0.65625,-0.515625,0.25,0.515625,0.40625,-0.65625,-0.515625,0.25,0.515625,0.40625,86,95,16,33,26
221840,-0.65625,-0.515625,0.25,0.515625,0.40625,-0.65625,-0.515625,0.25,0.515625,0.40625,86,95,16,33,26
213448,-0.65625,-0.515625,0.25,0.515625,0.40625,-0.65625,-0.515625,0.25,0.515625,0.40625,86,95,16,33,26
246104,-0.65625,-0.515625,0.25,0.515625,0.40625,-0.65625,-0.515625,0.25,0.515625,0.40625,86,95,16,33,26
238352,-0.65625,-0.515625,0.25,0.515625,0.40625,-0.65625,-0.515625,0.25,0.515625,0.40625,86,95,16,33,26
238536,-0.65625,-0.515625,0.25,0.515625,0.40625,-0.65625,-0.515625,0.25,0.515625,0.40625,86,95,16,33,26
238472,-0.65625,-0.515625,0.25,0.515625,0.40625,-0.65625,-0.515625,0.25,0.515625,0.40625,86,95,16,33,26
238408,-0.65625,-0.515625,0.25,0.515625,0.40625,-0.65625,-0.515625,0.25,0.515625,0.40625,86,95,16,33,26
230416,-0.65625,-0.515625,0.25,0.515625,0.40625,-0.65625,-0.515625,0.25,0.515625,0.40625,86,95,16,33,26
230352,-0.65625,-0.515625,0.25,0.515625,0.40625,-0.65625,-0.515625,0.25,0.515625,0.40625,86,95,16,33,26
230288,-0.65625,-0.515625,0.25,0.515625,0.40625,-0.65625,-0.515625,0.25,0.515625,0.40625,86,95,16,33,26
230224,-0.65625,-0.515625,0.25,0.515625,0.40625,-0.65625,-0.515625,0.25,0.515625,0.40625,86,95,16,33,26
222216,-0.65625,-0.515625,0.25,0.515625,0.40625,-0.65625,-0.515625,0.25,0.515625,0.40625,86,95,16,33,26
222152,-0.65625,-0.515625,0.25,0.515625,0.40625,-0.65625,-0.515625,0.25,0.515625,0.40625,86,95,16,33,26
222088,-0.65625,-0.515625,0.25,0.515625,0.40625,-0.65625,-0.515625,0.25,0.515625,0.40625,86,95,16,33,26
221776,-0.65625,-0.515625,0.25,0.515625,0.40625,-0.65625,-0.515625,0.25,0.515625,0.40625,86,95,16,33,26
213528,-0.65625,-0.515625,0.25,0.515625,0.40625,-0.65625,-0.515625,0.25,0.515625,0.40625,86,95,16,33,26
245960,-0.65625,-0.515625,0.25,0.515625,0.40625,-0.65625,-0.515625,0.25,0.515625,0.40625,86,95,16,33,26
246216,-0.65625,-0.515625,0.25,0.515625,0.40625,-0.65625,-0.515625,0.25,0.515625,0.40625,86,95,16,33,26
246152,-0.65625,-0.515625,0.25,0.515625,0.40625,-0.65625,-0.515625,0.25,0.515625,0.40625,86,95,16,33,26
246344,-0.65625,-0.515625,0.25,0.515625,0.40625,-0.65625,-0.515625,0.25,0.515625,0.40625,86,95,16,33,26
238360,-0.65625,-0.515625,0.25,0.515625,0.40625,-0.65625,-0.515625,0.25,0.515625,0.40625,86,95,16,33,26
238544,-0.65625,-0.515625,0.25,0.515625,0.40625,-0.65625,-0.515625,0.25,0.515625,0.40625,86,95,16,33,26
238480,-0.65625,-0.515625,0.25,0.515625,0.40625,-0.65625,-0.515625,0.25,0.515625,0.40625,86,95,16,33,26
238416,-0.65625,-0.515625,0.25,0.515625,0.40625,-0.65625,-0.515625,0.25,0.515625,0.40625,86,95,16,33,26
82120,-0.65625,-0.515625,0.25,0.515625,0.40625,-0.65625,-0.515625,0.25,0.515625,0.40625,86,95,16,33,26
82056,-0.65625,-0.515625,0.25,0.515625,0.40625,-0.65625,-0.515625,0.25,0.515625,0.40625,86,95,16,33,26
222224,-0.65625,-0.515625,0.25,0.515625,0.40625,-0.65625,-0.515625,0.25,0.515625,0.40625,86,95,16,33,26
222160,-0.65625,-0.515625,0.25,0.515625,0.40625,-0.65625,-0.515625,0.25,0.515625,0.40625,86,95,16,33,26
222096,-0.65625,-0.515625,0.25,0.515625,0.40625,-0.65625,-0.515625,0.25,0.515625,0.40625,86,95,16,33,26
221784,-0.65625,-0.515625,0.25,0.515625,0.40625,-0.65625,-0.515625,0.25,0.515625,0.40625,86,95,16,33,26
213768,-0.65625,-0.515625,0.25,0.515625,0.40625,-0.65625,-0.515625,0.25,0.515625,0.40625,86,95,16,33,26
213456,-0.65625,-0.515625,0.25,0.515625,0.40625,-0.65625,-0.515625,0.25,0.515625,0.40625,86,95,16,33,26
213384,-0.65625,-0.515625,0.25,0.515625,0.40625,-0.65625,-0.515625,0.25,0.515625,0.40625,86,95,16,33,26
213128,-0.65625,-0.515625,0.25,0.515625,0.40625,-0.65625,-0.515625,0.25,0.515625,0.40625,86,95,16,33,26
246160,-0.65625,-0.515625,0.25,0.515625,0.40625,-0.65625,-0.515625,0.25,0.515625,0.40625,86,95,16,33,26
213464,-0.65625,-0.515625,0.25,0.515625,0.40625,-0.65625,-0.515625,0.25,0.515625,0.40625,86,95,16,33,26
246024,-0.65625,-0.515625,0.25,0.515625,0.40625,-0.65625,-0.515625,0.25,0.515625,0.40625,86,95,16,33,26
246280,-0.65625,-0.515625,0.25,0.515625,0.40625,-0.65625,-0.515625,0.25,0.515625,0.40625,86,95,16,33,26
246232,-0.65625,-0.515625,0.25,0.515625,0.40625,-0.65625,-0.515625,0.25,0.515625,0.40625,86,95,16,33,26
246224,-0.65625,-0.515625,0.25,0.515625,0.40625,-0.65625,-0.515625,0.25,0.515625,0.40625,86,95,16,33,26
246168,-0.65625,-0.515625,0.25,0.515625,0.40625,-0.65625,-0.515625,0.25,0.515625,0.40625,86,95,16,33,26
246416,-0.65625,-0.515625,0.25,0.515625,0.40625,-0.65625,-0.515625,0.25,0.515625,0.40625,86,95,16,33,26
246408,-0.65625,-0.515625,0.25,0.515625,0.40625,-0.65625,-0.515625,0.25,0.515625,0.40625,86,95,16,33,26
246352,-0.65625,-0.515625,0.25,0.515625,0.40625,-0.65625,-0.515625,0.25,0.515625,0.40625,86,95,16,33,26
238600,-0.65625,-0.515625,0.25,0.515625,0.40625,-0.65625,-0.515625,0.25,0.515625,0.40625,86,95,16,33,26
238552,-0.65625,-0.515625,0.25,0.515625,0.40625,-0.65625,-0.515625,0.25,0.515625,0.40625,86,95,16,33,26
90256,-0.65625,-0.515625,0.25,0.515625,0.40625,-0.65625,-0.515625,0.25,0.515625,0.40625,86,95,16,33,26
90248,-0.65625,-0.515625,0.25,0.515625,0.40625,-0.65625,-0.515625,0.25,0.515625,0.40625,86,95,16,33,26
90184,-0.65625,-0.515625,0.25,0.515625,0.40625,-0.65625,-0.515625,0.25,0.515625,0.40625,86,95,16,33,26
82192,-0.65625,-0.515625,0.25,0.515625,0.40625,-0.65625,-0.515625,0.25,0.515625,0.40625,86,95,16,33,26
82184,-0.65625,-0.515625,0.25,0.515625,0.40625,-0.65625,-0.515625,0.25,0.515625,0.40625,86,95,16,33,26
82128,-0.65625,-0.515625,0.25,0.515625,0.40625,-0.65625,-0.515625,0.25,0.515625,0.40625,86,95,16,33,26
82064,-0.65625,-0.515625,0.25,0.515625,0.40625,-0.65625,-0.515625,0.25,0.515625,0.40625,86,95,16,33,26
82000,-0.65625,-0.515625,0.25,0.515625,0.40625,-0.65625,-0.515625,0.25,0.515625,0.40625,86,95,16,33,26
81992,-0.65625,-0.515625,0.25,0.515625,0.40625,-0.65625,-0.515625,0.25,0.515625,0.40625,86,95,16,33,26
73992,-0.65625,-0.515625,0.25,0.515625,0.40625,-0.65625,-0.515625,0.25,0.515625,0.40625,86,95,16,33,26
73936,-0.65625,-0.515625,0.25,0.515625,0.40625,-0.65625,-0.515625,0.25,0.515625,0.40625,86,95,16,33,26
73928,-0.65625,-0.515625,0.25,0.515625,0.40625,-0.65625,-0.515625,0.25,0.515625,0.40625,86,95,16,33,26
222104,-0.65625,-0.515625,0.25,0.515625,0.40625,-0.65625,-0.515625,0.25,0.515625,0.40625,86,95,16,33,26
222024,-0.65625,-0.515625,0.25,0.515625,0.40625,-0.65625,-0.515625,0.25,0.515625,0.40625,86,95,16,33,26
213776,-0.65625,-0.515625,0.25,0.515625,0.40625,-0.65625,-0.515625,0.25,0.515625,0.40625,86,95,16,33,26
213712,-0.65625,-0.515625,0.25,0.515625,0.40625,-0.65625,-0.515625,0.25,0.515625,0.40625,86,95,16,33,26
213704,-0.65625,-0.515625,0.25,0.515625,0.40625,-0.65625,-0.515625,0.25,0.515625,0.40625,86,95,16,33,26
213472,-0.65625,-0.515625,0.25,0.515625,0.40625,-0.65625,-0.515625,0.25,0.515625,0.40625,86,95,16,33,26
213400,-0.65625,-0.515625,0.25,0.515625,0.40625,-0.65625,-0.515625,0.25,0.515625,0.40625,86,95,16,33,26
213392,-0.65625,-0.515625,0.25,0.515625,0.40625,-0.65625,-0.515625,0.25,0.515625,0.40625,86,95,16,33,26
213064,-0.65625,-0.515625,0.25,0.515625,0.40625,-0.65625,-0.515625,0.25,0.515625,0.40625,86,95,16,33,26
246240,-0.65625,-0.515625,0.25,0.515625,0.40625,-0.65625,-0.515625,0.25,0.515625,0.40625,86,95,16,33,26
246360,-0.65625,-0.515625,0.25,0.515625,0.40625,-0.65625,-0.515625,0.25,0.515625,0.40625,86,95,16,33,26
246600,-0.65625,-0.515625,0.25,0.515625,0.40625,-0.65625,-0.515625,0.25,0.515625,0.40625,86,95,16,33,26
238608,-0.65625,-0.515625,0.25,0.515625,0.40625,-0.65625,-0.515625,0.25,0.515625,0.40625,86,95,16,33,26
82376,-0.65625,-0.515625,0.25,0.515625,0.40625,-0.65625,-0.515625,0.25,0.515625,0.40625,86,95,16,33,26
82312,-0.65625,-0.515625,0.25,0.515625,0.40625,-0.65625,-0.515625,0.25,0.515625,0.40625,86,95,16,33,26
222032,-0.65625,-0.515625,0.25,0.515625,0.40625,-0.65625,-0.515625,0.25,0.515625,0.40625,86,95,16,33,26
214024,-0.65625,-0.515625,0.25,0.515625,0.40625,-0.65625,-0.515625,0.25,0.515625,0.40625,86,95,16,33,26
213784,-0.65625,-0.515625,0.25,0.515625,0.40625,-0.65625,-0.515625,0.25,0.515625,0.40625,86,95,16,33,26
213408,-0.65625,-0.515625,0.25,0.515625,0.40625,-0.65625,-0.515625,0.25,0.515625,0.40625,86,95,16,33,26
213344,-0.65625,-0.515625,0.25,0.515625,0.40625,-0.65625,-0.515625,0.25,0.515625,0.40625,86,95,16,33,26
246288,-0.65625,-0.515625,0.25,0.515625,0.40625,-0.65625,-0.515625,0.25,0.515625,0.40625,86,95,16,33,26
246472,-0.65625,-0.515625,0.25,0.515625,0.40625,-0.65625,-0.515625,0.25,0.515625,0.40625,86,95,16,33,26
246608,-0.65625,-0.515625,0.25,0.515625,0.40625,-0.65625,-0.515625,0.25,0.515625,0.40625,86,95,16,33,26
238616,-0.65625,-0.515625,0.25,0.515625,0.40625,-0.65625,-0.515625,0.25,0.515625,0.40625,86,95,16,33,26
90312,-0.65625,-0.515625,0.25,0.515625,0.40625,-0.65625,-0.515625,0.25,0.515625,0.40625,86,95,16,33,26
90264,-0.65625,-0.515625,0.25,0.515625,0.40625,-0.65625,-0.515625,0.25,0.515625,0.40625,86,95,16,33,26
90192,-0.65625,-0.515625,0.25,0.515625,0.40625,-0.65625,-0.515625,0.25,0.515625,0.40625,86,95,16,33,26
82440,-0.65625,-0.515625,0.25,0.515625,0.40625,-0.65625,-0.515625,0.25,0.515625,0.40625,86,95,16,33,26
82256,-0.65625,-0.515625,0.25,0.515625,0.40625,-0.65625,-0.515625,0.25,0.515625,0.40625,86,95,16,33,26
74000,-0.65625,-0.515625,0.25,0.515625,0.40625,-0.65625,-0.515625,0.25,0.515625,0.40625,86,95,16,33,26
73944,-0.65625,-0.515625,0.25,0.515625,0.40625,-0.65625,-0.515625,0.25,0.515625,0.40625,86,95,16,33,26
73864,-0.65625,-0.515625,0.25,0.515625,0.40625,-0.65625,-0.515625,0.25,0.515625,0.40625,86,95,16,33,26
222040,-0.65625,-0.515625,0.25,0.515625,0.40625,-0.65625,-0.515625,0.25,0.515625,0.40625,86,95,16,33,26
214032,-0.65625,-0.515625,0.25,0.515625,0.40625,-0.65625,-0.515625,0.25,0.515625,0.40625,86,95,16,33,26
213640,-0.65625,-0.515625,0.25,0.515625,0.40625,-0.65625,-0.515625,0.25,0.515625,0.40625,86,95,16,33,26
213416,-0.65625,-0.515625,0.25,0.515625,0.40625,-0.65625,-0.515625,0.25,0.515625,0.40625,86,95,16,33,26
213328,-0.65625,-0.515625,0.25,0.515625,0.40625,-0.65625,-0.515625,0.25,0.515625,0.40625,86,95,16,33,26
246296,-0.65625,-0.515625,0.25,0.515625,0.40625,-0.65625,-0.515625,0.25,0.515625,0.40625,86,95,16,33,26
246664,-0.65625,-0.515625,0.25,0.515625,0.40625,-0.65625,-0.515625,0.25,0.515625,0.40625,86,95,16,33,26
90376,-0.65625,-0.515625,0.25,0.515625,0.40625,-0.65625,-0.515625,0.25,0.515625,0.40625,86,95,16,33,26
90320,-0.65625,-0.515625,0.25,0.515625,0.40625,-0.65625,-0.515625,0.25,0.515625,0.40625,86,95,16,33,26
90440,-0.65625,-0.515625,0.25,0.515625,0.40625,-0.65625,-0.515625,0.25,0.515625,0.40625,86,95,16,33,26
82384,-0.65625,-0.515625,0.25,0.515625,0.40625,-0.65625,-0.515625,0.25,0.515625,0.40625,86,95,16,33,26
82320,-0.65625,-0.515625,0.25,0.515625,0.40625,-0.65625,-0.515625,0.25,0.515625,0.40625,86,95,16,33,26
74248,-0.65625,-0.515625,0.25,0.515625,0.40625,-0.65625,-0.515625,0.25,0.515625,0.40625,86,95,16,33,26
73872,-0.65625,-0.515625,0.25,0.515625,0.40625,-0.65625,-0.515625,0.25,0.515625,0.40625,86,95,16,33,26
73800,-0.65625,-0.515625,0.25,0.515625,0.40625,-0.65625,-0.515625,0.25,0.515625,0.40625,86,95,16,33,26
213960,-0.65625,-0.515625,0.25,0.515625,0.40625,-0.65625,-0.515625,0.25,0.515625,0.40625,86,95,16,33,26
213336,-0.65625,-0.515625,0.25,0.515625,0.40625,-0.65625,-0.515625,0.25,0.515625,0.40625,86,95,16,33,26
246304,-0.65625,-0.515625,0.25,0.515625,0.40625,-0.65625,-0.515625,0.25,0.515625,0.40625,86,95,16,33,26
246480,-0.65625,-0.515625,0.25,0.515625,0.40625,-0.65625,-0.515625,0.25,0.515625,0.40625,86,95,16,33,26
213648,-0.65625,-0.515625,0.25,0.515625,0.40625,-0.65625,-0.515625,0.25,0.515625,0.40625,86,95,16,33,26
254032,-0.65625,-0.515625,0.25,0.515625,0.40625,-0.65625,-0.515625,0.25,0.515625,0.40625,86,95,16,33,26
254024,-0.65625,-0.515625,0.25,0.515625,0.40625,-0.65625,-0.515625,0.25,0.515625,0.40625,86,95,16,33,26
254296,-0.65625,-0.515625,0.25,0.515625,0.40625,-0.65625,-0.515625,0.25,0.515625,0.40625,86,95,16,33,26
246312,-0.65625,-0.515625,0.25,0.515625,0.40625,-0.65625,-0.515625,0.25,0.515625,0.40625,86,95,16,33,26
246536,-0.65625,-0.515625,0.25,0.515625,0.40625,-0.65625,-0.515625,0.25,0.515625,0.40625,86,95,16,33,26
246488,-0.65625,-0.515625,0.25,0.515625,0.40625,-0.65625,-0.515625,0.25,0.515625,0.40625,86,95,16,33,26
246728,-0.65625,-0.515625,0.25,0.515625,0.40625,-0.65625,-0.515625,0.25,0.515625,0.40625,86,95,16,33,26
246672,-0.65625,-0.515625,0.25,0.515625,0.40625,-0.65625,-0.515625,0.25,0.515625,0.40625,86,95,16,33,26
98440,-0.65625,-0.515625,0.25,0.515625,0.40625,-0.65625,-0.515625,0.25,0.515625,0.40625,86,95,16,33,26
98376,-0.65625,-0.515625,0.25,0.515625,0.40625,-0.65625,-0.515625,0.25,0.515625,0.40625,86,95,16,33,26
90384,-0.65625,-0.515625,0.25,0.515625,0.40625,-0.65625,-0.515625,0.25,0.515625,0.40625,86,95,16,33,26
90632,-0.65625,-0.515625,0.25,0.515625,0.40625,-0.65625,-0.515625,0.25,0.515625,0.40625,86,95,16,33,26
90568,-0.65625,-0.515625,0.25,0.515625,0.40625,-0.65625,-0.515625,0.25,0.515625,0.40625,86,95,16,33,26
90504,-0.65625,-0.515625,0.25,0.515625,0.40625,-0.65625,-0.515625,0.25,0.515625,0.40625,86,95,16,33,26
90448,-0.65625,-0.515625,0.25,0.515625,0.40625,-0.65625,-0.515625,0.25,0.515625,0.40625,86,95,16,33,26
82448,-0.65625,-0.515625,0.25,0.515625,0.40625,-0.65625,-0.515625,0.25,0.515625,0.40625,86,95,16,33,26
82392,-0.65625,-0.515625,0.25,0.515625,0.40625,-0.65625,-0.515625,0.25,0.515625,0.40625,86,95,16,33,26
82328,-0.65625,-0.515625,0.25,0.515625,0.40625,-0.65625,-0.515625,0.25,0.515625,0.40625,86,95,16,33,26
82248,-0.65625,-0.515625,0.25,0.515625,0.40625,-0.65625,-0.515625,0.25,0.515625,0.40625,86,95,16,33,26
74256,-0.65625,-0.515625,0.25,0.515625,0.40625,-0.65625,-0.515625,0.25,0.515625,0.40625,86,95,16,33,26
74184,-0.65625,-0.515625,0.25,0.515625,0.40625,-0.65625,-0.515625,0.25,0.515625,0.40625,86,95,16,33,26
74120,-0.65625,-0.515625,0.25,0.515625,0.40625,-0.65625,-0.515625,0.25,0.515625,0.40625,86,95,16,33,26
74056,-0.65625,-0.515625,0.25,0.515625,0.40625,-0.65625,-0.515625,0.25,0.515625,0.40625,86,95,16,33,26
73808,-0.65625,-0.515625,0.25,0.515625,0.40625,-0.65625,-0.515625,0.25,0.515625,0.40625,86,95,16,33,26
65800,-0.65625,-0.515625,0.25,0.515625,0.40625,-0.65625,-0.515625,0.25,0.515625,0.40625,86,95,16,33,26
65736,-0.65625,-0.515625,0.25,0.515625,0.40625,-0.65625,-0.515625,0.25,0.515625,0.40625,86,95,16,33,26
213968,-0.65625,-0.515625,0.25,0.515625,0.40625,-0.65625,-0.515625,0.25,0.515625,0.40625,86,95,16,33,26
213896,-0.65625,-0.515625,0.25,0.515625,0.40625,-0.65625,-0.515625,0.25,0.515625,0.40625,86,95,16,33,26
213656,-0.65625,-0.515625,0.25,0.515625,0.40625,-0.65625,-0.515625,0.25,0.515625,0.40625,86,95,16,33,26
213584,-0.65625,-0.515625,0.25,0.515625,0.40625,-0.65625,-0.515625,0.25,0.515625,0.40625,86,95,16,33,26
213592,-0.65625,-0.515625,0.25,0.515625,0.40625,-0.65625,-0.515625,0.25,0.515625,0.40625,86,95,16,33,26
213320,-0.65625,-0.515625,0.25,0.515625,0.40625,-0.65625,-0.515625,0.25,0.515625,0.40625,86,95,16,33,26
205344,-0.65625,-0.515625,0.25,0.515625,0.40625,-0.65625,-0.515625,0.25,0.515625,0.40625,86,95,16,33,26
205072,-0.65625,-0.515625,0.25,0.515625,0.40625,-0.65625,-0.515625,0.25,0.515625,0.40625,86,95,16,33,26
205064,-0.65625,-0.515625,0.25,0.515625,0.40625,-0.65625,-0.515625,0.25,0.515625,0.40625,86,95,16,33,26
254280,-0.65625,-0.515625,0.25,0.515625,0.40625,-0.65625,-0.515625,0.25,0.515625,0.40625,86,95,16,33,26
254304,-0.65625,-0.515625,0.25,0.515625,0.40625,-0.65625,-0.515625,0.25,0.515625,0.40625,86,95,16,33,26
246544,-0.65625,-0.515625,0.25,0.515625,0.40625,-0.65625,-0.515625,0.25,0.515625,0.40625,86,95,16,33,26
246736,-0.65625,-0.515625,0.25,0.515625,0.40625,-0.65625,-0.515625,0.25,0.515625,0.40625,86,95,16,33,26
90576,-0.65625,-0.515625,0.25,0.515625,0.40625,-0.65625,-0.515625,0.25,0.515625,0.40625,86,95,16,33,26
74128,-0.65625,-0.515625,0.25,0.515625,0.40625,-0.65625,-0.515625,0.25,0.515625,0.40625,86,95,16,33,26
213904,-0.65625,-0.515625,0.25,0.515625,0.40625,-0.65625,-0.515625,0.25,0.515625,0.40625,86,95,16,33,26
205328,-0.65625,-0.515625,0.25,0.515625,0.40625,-0.65625,-0.515625,0.25,0.515625,0.40625,86,95,16,33,26
205336,-0.65625,-0.515625,0.25,0.515625,0.40625,-0.65625,-0.515625,0.25,0.515625,0.40625,86,95,16,33,26
254088,-0.65625,-0.515625,0.25,0.515625,0.40625,-0.65625,-0.515625,0.25,0.515625,0.40625,86,95,16,33,26
246552,-0.65625,-0.515625,0.25,0.515625,0.40625,-0.65625,-0.515625,0.25,0.515625,0.40625,86,95,16,33,26
246744,-0.65625,-0.515625,0.25,0.515625,0.40625,-0.65625,-0.515625,0.25,0.515625,0.40625,86,95,16,33,26
98448,-0.65625,-0.515625,0.25,0.515625,0.40625,-0.65625,-0.515625,0.25,0.515625,0.40625,86,95,16,33,26
98384,-0.65625,-0.515625,0.25,0.515625,0.40625,-0.65625,-0.515625,0.25,0.515625,0.40625,86,95,16,33,26
98632,-0.65625,-0.515625,0.25,0.515625,0.40625,-0.65625,-0.515625,0.25,0.515625,0.40625,86,95,16,33,26
90760,-0.65625,-0.515625,0.25,0.515625,0.40625,-0.65625,-0.515625,0.25,0.515625,0.40625,86,95,16,33,26
90696,-0.65625,-0.515625,0.25,0.515625,0.40625,-0.65625,-0.515625,0.25,0.515625,0.40625,86,95,16,33,26
82696,-0.65625,-0.515625,0.25,0.515625,0.40625,-0.65625,-0.515625,0.25,0.515625,0.40625,86,95,16,33,26
82632,-0.65625,-0.515625,0.25,0.515625,0.40625,-0.65625,-0.515625,0.25,0.515625,0.40625,86,95,16,33,26
82568,-0.65625,-0.515625,0.25,0.515625,0.40625,-0.65625,-0.515625,0.25,0.515625,0.40625,86,95,16,33,26
82504,-0.65625,-0.515625,0.25,0.515625,0.40625,-0.65625,-0.515625,0.25,0.515625,0.40625,86,95,16,33,26
74504,-0.65625,-0.515625,0.25,0.515625,0.40625,-0.65625,-0.515625,0.25,0.515625,0.40625,86,95,16,33,26
74440,-0.65625,-0.515625,0.25,0.515625,0.40625,-0.65625,-0.515625,0.25,0.515625,0.40625,86,95,16,33,26
66056,-0.65625,-0.515625,0.25,0.515625,0.40625,-0.65625,-0.515625,0.25,0.515625,0.40625,86,95,16,33,26
65808,-0.65625,-0.515625,0.25,0.515625,0.40625,-0.65625,-0.515625,0.25,0.515625,0.40625,86,95,16,33,26
65744,-0.65625,-0.515625,0.25,0.515625,0.40625,-0.65625,-0.515625,0.25,0.515625,0.40625,86,95,16,33,26
213848,-0.65625,-0.515625,0.25,0.515625,0.40625,-0.65625,-0.515625,0.25,0.515625,0.40625,86,95,16,33,26
213576,-0.65625,-0.515625,0.25,0.515625,0.40625,-0.65625,-0.515625,0.25,0.515625,0.40625,86,95,16,33,26
205000,-0.65625,-0.515625,0.25,0.515625,0.40625,-0.65625,-0.515625,0.25,0.515625,0.40625,86,95,16,33,26
254344,-0.65625,-0.515625,0.25,0.515625,0.40625,-0.65625,-0.515625,0.25,0.515625,0.40625,86,95,16,33,26
254288,-0.65625,-0.515625,0.25,0.515625,0.40625,-0.65625,-0.515625,0.25,0.515625,0.40625,86,95,16,33,26
254536,-0.65625,-0.515625,0.25,0.515625,0.40625,-0.65625,-0.515625,0.25,0.515625,0.40625,86,95,16,33,26
246792,-0.65625,-0.515625,0.25,0.515625,0.40625,-0.65625,-0.515625,0.25,0.515625,0.40625,86,95,16,33,26
98504,-0.65625,-0.515625,0.25,0.515625,0.40625,-0.65625,-0.515625,0.25,0.515625,0.40625,86,95,16,33,26
98696,-0.65625,-0.515625,0.25,0.515625,0.40625,-0.65625,-0.515625,0.25,0.515625,0.40625,86,95,16,33,26
90640,-0.65625,-0.515625,0.25,0.515625,0.40625,-0.65625,-0.515625,0.25,0.515625,0.40625,86,95,16,33,26
90824,-0.65625,-0.515625,0.25,0.515625,0.40625,-0.65625,-0.515625,0.25,0.515625,0.40625,86,95,16,33,26
90768,-0.65625,-0.515625,0.25,0.515625,0.40625,-0.65625,-0.515625,0.25,0.515625,0.40625,86,95,16,33,26
82704,-0.65625,-0.515625,0.25,0.515625,0.40625,-0.65625,-0.515625,0.25,0.515625,0.40625,86,95,16,33,26
82512,-0.65625,-0.515625,0.25,0.515625,0.40625,-0.65625,-0.515625,0.25,0.515625,0.40625,86,95,16,33,26
74448,-0.65625,-0.515625,0.25,0.515625,0.40625,-0.65625,-0.515625,0.25,0.515625,0.40625,86,95,16,33,26
74376,-0.65625,-0.515625,0.25,0.515625,0.40625,-0.65625,-0.515625,0.25,0.515625,0.40625,86,95,16,33,26
74064,-0.65625,-0.515625,0.25,0.515625,0.40625,-0.65625,-0.515625,0.25,0.515625,0.40625,86,95,16,33,26
65992,-0.65625,-0.515625,0.25,0.515625,0.40625,-0.65625,-0.515625,0.25,0.515625,0.40625,86,95,16,33,26
65672,-0.65625,-0.515625,0.25,0.515625,0.40625,-0.65625,-0.515625,0.25,0.515625,0.40625,86,95,16,33,26
205584,-0.65625,-0.515625,0.25,0.515625,0.40625,-0.65625,-0.515625,0.25,0.515625,0.40625,86,95,16,33,26
205320,-0.65625,-0.515625,0.25,0.515625,0.40625,-0.65625,-0.515625,0.25,0.515625,0.40625,86,95,16,33,26
205272,-0.65625,-0.515625,0.25,0.515625,0.40625,-0.65625,-0.515625,0.25,0.515625,0.40625,86,95,16,33,26
213840,-0.65625,-0.515625,0.25,0.515625,0.40625,-0.65625,-0.515625,0.25,0.515625,0.40625,86,95,16,33,26
254152,-0.65625,-0.515625,0.25,0.515625,0.40625,-0.65625,-0.515625,0.25,0.515625,0.40625,86,95,16,33,26
254352,-0.65625,-0.515625,0.25,0.515625,0.40625,-0.65625,-0.515625,0.25,0.515625,0.40625,86,95,16,33,26
254600,-0.65625,-0.515625,0.25,0.515625,0.40625,-0.65625,-0.515625,0.25,0.515625,0.40625,86,95,16,33,26
254544,-0.65625,-0.515625,0.25,0.515625,0.40625,-0.65625,-0.515625,0.25,0.515625,0.40625,86,95,16,33,26
254800,-0.65625,-0.515625,0.25,0.515625,0.40625,-0.65625,-0.515625,0.25,0.515625,0.40625,86,95,16,33,26
254792,-0.65625,-0.515625,0.25,0.515625,0.40625,-0.65625,-0.515625,0.25,0.515625,0.40625,86,95,16,33,26
246800,-0.65625,-0.515625,0.25,0.515625,0.40625,-0.65625,-0.515625,0.25,0.515625,0.40625,86,95,16,33,26
98568,-0.65625,-0.515625,0.25,0.515625,0.40625,-0.65625,-0.515625,0.25,0.515625,0.40625,86,95,16,33,26
98512,-0.65625,-0.515625,0.25,0.515625,0.40625,-0.65625,-0.515625,0.25,0.515625,0.40625,86,95,16,33,26
98760,-0.65625,-0.515625,0.25,0.515625,0.40625,-0.65625,-0.515625,0.25,0.515625,0.40625,86,95,16,33,26
98888,-0.65625,-0.515625,0.25,0.515625,0.40625,-0.65625,-0.515625,0.25,0.515625,0.40625,86,95,16,33,26
90888,-0.65625,-0.515625,0.25,0.515625,0.40625,-0.65625,-0.515625,0.25,0.515625,0.40625,86,95,16,33,26
90832,-0.65625,-0.515625,0.25,0.515625,0.40625,-0.65625,-0.515625,0.25,0.515625,0.40625,86,95,16,33,26
91080,-0.65625,-0.515625,0.25,0.515625,0.40625,-0.65625,-0.515625,0.25,0.515625,0.40625,86,95,16,33,26
91016,-0.65625,-0.515625,0.25,0.515625,0.40625,-0.65625,-0.515625,0.25,0.515625,0.40625,86,95,16,33,26
90960,-0.65625,-0.515625,0.25,0.515625,0.40625,-0.65625,-0.515625,0.25,0.515625,0.40625,86,95,16,33,26
90952,-0.65625,-0.515625,0.25,0.515625,0.40625,-0.65625,-0.515625,0.25,0.515625,0.40625,86,95,16,33,26
82952,-0.65625,-0.515625,0.25,0.515625,0.40625,-0.65625,-0.515625,0.25,0.515625,0.40625,86,95,16,33,26
82888,-0.65625,-0.515625,0.25,0.515625,0.40625,-0.65625,-0.515625,0.25,0.515625,0.40625,86,95,16,33,26
82824,-0.65625,-0.515625,0.25,0.515625,0.40625,-0.65625,-0.515625,0.25,0.515625,0.40625,86,95,16,33,26
82760,-0.65625,-0.515625,0.25,0.515625,0.40625,-0.65625,-0.515625,0.25,0.515625,0.40625,86,95,16,33,26
74768,-0.65625,-0.515625,0.25,0.515625,0.40625,-0.65625,-0.515625,0.25,0.515625,0.40625,86,95,16,33,26
74760,-0.65625,-0.515625,0.25,0.515625,0.40625,-0.65625,-0.515625,0.25,0.515625,0.40625,86,95,16,33,26
74696,-0.65625,-0.515625,0.25,0.515625,0.40625,-0.65625,-0.515625,0.25,0.515625,0.40625,86,95,16,33,26
74632,-0.65625,-0.515625,0.25,0.515625,0.40625,-0.65625,-0.515625,0.25,0.515625,0.40625,86,95,16,33,26
74384,-0.65625,-0.515625,0.25,0.515625,0.40625,-0.65625,-0.515625,0.25,0.515625,0.40625,86,95,16,33,26
74312,-0.65625,-0.515625,0.25,0.515625,0.40625,-0.65625,-0.515625,0.25,0.515625,0.40625,86,95,16,33,26
66320,-0.65625,-0.515625,0.25,0.515625,0.40625,-0.65625,-0.515625,0.25,0.515625,0.40625,86,95,16,33,26
66312,-0.65625,-0.515625,0.25,0.515625,0.40625,-0.65625,-0.515625,0.25,0.515625,0.40625,86,95,16,33,26
66000,-0.65625,-0.515625,0.25,0.515625,0.40625,-0.65625,-0.515625,0.25,0.515625,0.40625,86,95,16,33,26
65928,-0.65625,-0.515625,0.25,0.515625,0.40625,-0.65625,-0.515625,0.25,0.515625,0.40625,86,95,16,33,26
65680,-0.65625,-0.515625,0.25,0.515625,0.40625,-0.65625,-0.515625,0.25,0.515625,0.40625,86,95,16,33,26
65616,-0.65625,-0.515625,0.25,0.515625,0.40625,-0.65625,-0.515625,0.25,0.515625,0.40625,86,95,16,33,26
65608,-0.65625,-0.515625,0.25,0.515625,0.40625,-0.65625,-0.515625,0.25,0.515625,0.40625,86,95,16,33,26
213832,-0.65625,-0.515625,0.25,0.515625,0.40625,-0.65625,-0.515625,0.25,0.515625,0.40625,86,95,16,33,26
205832,-0.65625,-0.515625,0.25,0.515625,0.40625,-0.65625,-0.515625,0.25,0.515625,0.40625,86,95,16,33,26
205840,-0.65625,-0.515625,0.25,0.515625,0.40625,-0.65625,-0.515625,0.25,0.515625,0.40625,86,95,16,33,26
205576,-0.65625,-0.515625,0.25,0.515625,0.40625,-0.65625,-0.515625,0.25,0.515625,0.40625,86,95,16,33,26
205520,-0.65625,-0.515625,0.25,0.515625,0.40625,-0.65625,-0.515625,0.25,0.515625,0.40625,86,95,16,33,26
205264,-0.65625,-0.515625,0.25,0.515625,0.40625,-0.65625,-0.515625,0.25,0.515625,0.40625,86,95,16,33,26
204952,-0.65625,-0.515625,0.25,0.515625,0.40625,-0.65625,-0.515625,0.25,0.515625,0.40625,86,95,16,33,26
254160,-0.65625,-0.515625,0.25,0.515625,0.40625,-0.65625,-0.515625,0.25,0.515625,0.40625,86,95,16,33,26
254408,-0.65625,-0.515625,0.25,0.515625,0.40625,-0.65625,-0.515625,0.25,0.515625,0.40625,86,95,16,33,26
254360,-0.65625,-0.515625,0.25,0.515625,0.40625,-0.65625,-0.515625,0.25,0.515625,0.40625,86,95,16,33,26
254608,-0.65625,-0.515625,0.25,0.515625,0.40625,-0.65625,-0.515625,0.25,0.515625,0.40625,86,95,16,33,26
98576,-0.65625,-0.515625,0.25,0.515625,0.40625,-0.65625,-0.515625,0.25,0.515625,0.40625,86,95,16,33,26
205528,-0.65625,-0.515625,0.25,0.515625,0.40625,-0.65625,-0.515625,0.25,0.515625,0.40625,86,95,16,33,26
205256,-0.65625,-0.515625,0.25,0.515625,0.40625,-0.65625,-0.515625,0.25,0.515625,0.40625,86,95,16,33,26
205208,-0.65625,-0.515625,0.25,0.515625,0.40625,-0.65625,-0.515625,0.25,0.515625,0.40625,86,95,16,33,26
204944,-0.65625,-0.515625,0.25,0.515625,0.40625,-0.65625,-0.515625,0.25,0.515625,0.40625,86,95,16,33,26
254168,-0.65625,-0.515625,0.25,0.515625,0.40625,-0.65625,-0.515625,0.25,0.515625,0.40625,86,95,16,33,26
254416,-0.65625,-0.515625,0.25,0.515625,0.40625,-0.65625,-0.515625,0.25,0.515625,0.40625,86,95,16,33,26
106568,-0.65625,-0.515625,0.25,0.515625,0.40625,-0.65625,-0.515625,0.25,0.515625,0.40625,86,95,16,33,26
98824,-0.65625,-0.515625,0.25,0.515625,0.40625,-0.65625,-0.515625,0.25,0.515625,0.40625,86,95,16,33,26
98768,-0.65625,-0.515625,0.25,0.515625,0.40625,-0.65625,-0.515625,0.25,0.515625,0.40625,86,95,16,33,26
91144,-0.65625,-0.515625,0.25,0.515625,0.40625,-0.65625,-0.515625,0.25,0.515625,0.40625,86,95,16,33,26
91024,-0.65625,-0.515625,0.25,0.515625,0.40625,-0.65625,-0.515625,0.25,0.515625,0.40625,86,95,16,33,26
83144,-0.65625,-0.515625,0.25,0.515625,0.40625,-0.65625,-0.515625,0.25,0.515625,0.40625,86,95,16,33,26
83080,-0.65625,-0.515625,0.25,0.515625,0.40625,-0.65625,-0.515625,0.25,0.515625,0.40625,86,95,16,33,26
74704,-0.65625,-0.515625,0.25,0.515625,0.40625,-0.65625,-0.515625,0.25,0.515625,0.40625,86,95,16,33,26
74568,-0.65625,-0.515625,0.25,0.515625,0.40625,-0.65625,-0.515625,0.25,0.515625,0.40625,86,95,16,33,26
66248,-0.65625,-0.515625,0.25,0.515625,0.40625,-0.65625,-0.515625,0.25,0.515625,0.40625,86,95,16,33,26
66184,-0.65625,-0.515625,0.25,0.515625,0.40625,-0.65625,-0.515625,0.25,0.515625,0.40625,86,95,16,33,26
57616,-0.65625,-0.515625,0.25,0.515625,0.40625,-0.65625,-0.515625,0.25,0.515625,0.40625,86,95,16,33,26
205200,-0.65625,-0.515625,0.25,0.515625,0.40625,-0.65625,-0.515625,0.25,0.515625,0.40625,86,95,16,33,26
204936,-0.65625,-0.515625,0.25,0.515625,0.40625,-0.65625,-0.515625,0.25,0.515625,0.40625,86,95,16,33,26
254424,-0.65625,-0.515625,0.25,0.515625,0.40625,-0.65625,-0.515625,0.25,0.515625,0.40625,86,95,16,33,26
254664,-0.65625,-0.515625,0.25,0.515625,0.40625,-0.65625,-0.515625,0.25,0.515625,0.40625,86,95,16,33,26
254616,-0.65625,-0.515625,0.25,0.515625,0.40625,-0.65625,-0.515625,0.25,0.515625,0.40625,86,95,16,33,26
254856,-0.65625,-0.515625,0.25,0.515625,0.40625,-0.65625,-0.515625,0.25,0.515625,0.40625,86,95,16,33,26
99144,-0.65625,-0.515625,0.25,0.515625,0.40625,-0.65625,-0.515625,0.25,0.515625,0.40625,86,95,16,33,26
91088,-0.65625,-0.515625,0.25,0.515625,0.40625,-0.65625,-0.515625,0.25,0.515625,0.40625,86,95,16,33,26
83208,-0.65625,-0.515625,0.25,0.515625,0.40625,-0.65625,-0.515625,0.25,0.515625,0.40625,86,95,16,33,26
83016,-0.65625,-0.515625,0.25,0.515625,0.40625,-0.65625,-0.515625,0.25,0.515625,0.40625,86,95,16,33,26
74640,-0.65625,-0.515625,0.25,0.515625,0.40625,-0.65625,-0.515625,0.25,0.515625,0.40625,86,95,16,33,26
66568,-0.65625,-0.515625,0.25,0.515625,0.40625,-0.65625,-0.515625,0.25,0.515625,0.40625,86,95,16,33,26
66256,-0.65625,-0.515625,0.25,0.515625,0.40625,-0.65625,-0.515625,0.25,0.515625,0.40625,86,95,16,33,26
65864,-0.65625,-0.515625,0.25,0.515625,0.40625,-0.65625,-0.515625,0.25,0.515625,0.40625,86,95,16,33,26
205776,-0.65625,-0.515625,0.25,0.515625,0.40625,-0.65625,-0.515625,0.25,0.515625,0.40625,86,95,16,33,26
205512,-0.65625,-0.515625,0.25,0.515625,0.40625,-0.65625,-0.515625,0.25,0.515625,0.40625,86,95,16,33,26
205464,-0.65625,-0.515625,0.25,0.515625,0.40625,-0.65625,-0.515625,0.25,0.515625,0.40625,86,95,16,33,26
205192,-0.65625,-0.515625,0.25,0.515625,0.40625,-0.65625,-0.515625,0.25,0.515625,0.40625,86,95,16,33,26
106576,-0.65625,-0.515625,0.25,0.515625,0.40625,-0.65625,-0.515625,0.25,0.515625,0.40625,86,95,16,33,26
65872,-0.65625,-0.515625,0.25,0.515625,0.40625,-0.65625,-0.515625,0.25,0.515625,0.40625,86,95,16,33,26
57608,-0.65625,-0.515625,0.25,0.515625,0.40625,-0.65625,-0.515625,0.25,0.515625,0.40625,86,95,16,33,26
254216,-0.65625,-0.515625,0.25,0.515625,0.40625,-0.65625,-0.515625,0.25,0.515625,0.40625,86,95,16,33,26
254472,-0.65625,-0.515625,0.25,0.515625,0.40625,-0.65625,-0.515625,0.25,0.515625,0.40625,86,95,16,33,26
254672,-0.65625,-0.515625,0.25,0.515625,0.40625,-0.65625,-0.515625,0.25,0.515625,0.40625,86,95,16,33,26
254920,-0.65625,-0.515625,0.25,0.515625,0.40625,-0.65625,-0.515625,0.25,0.515625,0.40625,86,95,16,33,26
254864,-0.65625,-0.515625,0.25,0.515625,0.40625,-0.65625,-0.515625,0.25,0.515625,0.40625,86,95,16,33,26
106632,-0.65625,-0.515625,0.25,0.515625,0.40625,-0.65625,-0.515625,0.25,0.515625,0.40625,86,95,16,33,26
106824,-0.65625,-0.515625,0.25,0.515625,0.40625,-0.65625,-0.515625,0.25,0.515625,0.40625,86,95,16,33,26
106832,-0.65625,-0.515625,0.25,0.515625,0.40625,-0.65625,-0.515625,0.25,0.515625,0.40625,86,95,16,33,26
99080,-0.65625,-0.515625,0.25,0.515625,0.40625,-0.65625,-0.515625,0.25,0.515625,0.40625,86,95,16,33,26
99024,-0.65625,-0.515625,0.25,0.515625,0.40625,-0.65625,-0.515625,0.25,0.515625,0.40625,86,95,16,33,26
99272,-0.65625,-0.515625,0.25,0.515625,0.40625,-0.65625,-0.515625,0.25,0.515625,0.40625,86,95,16,33,26
99208,-0.65625,-0.515625,0.25,0.515625,0.40625,-0.65625,-0.515625,0.25,0.515625,0.40625,86,95,16,33,26
99152,-0.65625,-0.515625,0.25,0.515625,0.40625,-0.65625,-0.515625,0.25,0.515625,0.40625,86,95,16,33,26
99400,-0.65625,-0.515625,0.25,0.515625,0.40625,-0.65625,-0.515625,0.25,0.515625,0.40625,86,95,16,33,26
91400,-0.65625,-0.515625,0.25,0.515625,0.40625,-0.65625,-0.515625,0.25,0.515625,0.40625,86,95,16,33,26
91336,-0.65625,-0.515625,0.25,0.515625,0.40625,-0.65625,-0.515625,0.25,0.515625,0.40625,86,95,16,33,26
91272,-0.65625,-0.515625,0.25,0.515625,0.40625,-0.65625,-0.515625,0.25,0.515625,0.40625,86,95,16,33,26
91208,-0.65625,-0.515625,0.25,0.515625,0.40625,-0.65625,-0.515625,0.25,0.515625,0.40625,86,95,16,33,26
83216,-0.65625,-0.515625,0.25,0.515625,0.40625,-0.65625,-0.515625,0.25,0.515625,0.40625,86,95,16,33,26
83152,-0.65625,-0.515625,0.25,0.515625,0.40625,-0.65625,-0.515625,0.25,0.515625,0.40625,86,95,16,33,26
83088,-0.65625,-0.515625,0.25,0.515625,0.40625,-0.65625,-0.515625,0.25,0.515625,0.40625,86,95,16,33,26
83024,-0.65625,-0.515625,0.25,0.515625,0.40625,-0.65625,-0.515625,0.25,0.515625,0.40625,86,95,16,33,26
75016,-0.65625,-0.515625,0.25,0.515625,0.40625,-0.65625,-0.515625,0.25,0.515625,0.40625,86,95,16,33,26
74952,-0.65625,-0.515625,0.25,0.515625,0.40625,-0.65625,-0.515625,0.25,0.515625,0.40625,86,95,16,33,26
74888,-0.65625,-0.515625,0.25,0.515625,0.40625,-0.65625,-0.515625,0.25,0.515625,0.40625,86,95,16,33,26
74824,-0.65625,-0.515625,0.25,0.515625,0.40625,-0.65625,-0.515625,0.25,0.515625,0.40625,86,95,16,33,26
66824,-0.65625,-0.515625,0.25,0.515625,0.40625,-0.65625,-0.515625,0.25,0.515625,0.40625,86,95,16,33,26
66576,-0.65625,-0.515625,0.25,0.515625,0.40625,-0.65625,-0.515625,0.25,0.515625,0.40625,86,95,16,33,26
66504,-0.65625,-0.515625,0.25,0.515625,0.40625,-0.65625,-0.515625,0.25,0.515625,0.40625,86,95,16,33,26
66440,-0.65625,-0.515625,0.25,0.515625,0.40625,-0.65625,-0.515625,0.25,0.515625,0.40625,86,95,16,33,26
66192,-0.65625,-0.515625,0.25,0.515625,0.40625,-0.65625,-0.515625,0.25,0.515625,0.40625,86,95,16,33,26
66120,-0.65625,-0.515625,0.25,0.515625,0.40625,-0.65625,-0.515625,0.25,0.515625,0.40625,86,95,16,33,26
66128,-0.65625,-0.515625,0.25,0.515625,0.40625,-0.65625,-0.515625,0.25,0.515625,0.40625,86,95,16,33,26
57872,-0.65625,-0.515625,0.25,0.515625,0.40625,-0.65625,-0.515625,0.25,0.515625,0.40625,86,95,16,33,26
57864,-0.65625,-0.515625,0.25,0.515625,0.40625,-0.65625,-0.515625,0.25,0.515625,0.40625,86,95,16,33,26
57552,-0.65625,-0.515625,0.25,0.515625,0.40625,-0.65625,-0.515625,0.25,0.515625,0.40625,86,95,16,33,26
205768,-0.65625,-0.515625,0.25,0.515625,0.40625,-0.65625,-0.515625,0.25,0.515625,0.40625,86,95,16,33,26
205720,-0.65625,-0.515625,0.25,0.515625,0.40625,-0.65625,-0.515625,0.25,0.515625,0.40625,86,95,16,33,26
205456,-0.65625,-0.515625,0.25,0.515625,0.40625,-0.65625,-0.515625,0.25,0.515625,0.40625,86,95,16,33,26
205128,-0.65625,-0.515625,0.25,0.515625,0.40625,-0.65625,-0.515625,0.25,0.515625,0.40625,86,95,16,33,26
204872,-0.65625,-0.515625,0.25,0.515625,0.40625,-0.65625,-0.515625,0.25,0.515625,0.40625,86,95,16,33,26
254480,-0.65625,-0.515625,0.25,0.515625,0.40625,-0.65625,-0.515625,0.25,0.515625,0.40625,86,95,16,33,26
254728,-0.65625,-0.515625,0.25,0.515625,0.40625,-0.65625,-0.515625,0.25,0.515625,0.40625,86,95,16,33,26
254680,-0.65625,-0.515625,0.25,0.515625,0.40625,-0.65625,-0.515625,0.25,0.515625,0.40625,86,95,16,33,26
106696,-0.65625,-0.515625,0.25,0.515625,0.40625,-0.65625,-0.515625,0.25,0.515625,0.40625,86,95,16,33,26
106640,-0.65625,-0.515625,0.25,0.515625,0.40625,-0.65625,-0.515625,0.25,0.515625,0.40625,86,95,16,33,26
107080,-0.65625,-0.515625,0.25,0.515625,0.40625,-0.65625,-0.515625,0.25,0.515625,0.40625,86,95,16,33,26
99088,-0.65625,-0.515625,0.25,0.515625,0.40625,-0.65625,-0.515625,0.25,0.515625,0.40625,86,95,16,33,26
58128,-0.65625,-0.515625,0.25,0.515625,0.40625,-0.65625,-0.515625,0.25,0.515625,0.40625,86,95,16,33,26
57544,-0.65625,-0.515625,0.25,0.515625,0.40625,-0.65625,-0.515625,0.25,0.515625,0.40625,86,95,16,33,26
57480,-0.65625,-0.515625,0.25,0.515625,0.40625,-0.65625,-0.515625,0.25,0.515625,0.40625,86,95,16,33,26
205448,-0.65625,-0.515625,0.25,0.515625,0.40625,-0.65625,-0.515625,0.25,0.515625,0.40625,86,95,16,33,26
205392,-0.65625,-0.515625,0.25,0.515625,0.40625,-0.65625,-0.515625,0.25,0.515625,0.40625,86,95,16,33,26
205144,-0.65625,-0.515625,0.25,0.515625,0.40625,-0.65625,-0.515625,0.25,0.515625,0.40625,86,95,16,33,26
254984,-0.65625,-0.515625,0.25,0.515625,0.40625,-0.65625,-0.515625,0.25,0.515625,0.40625,86,95,16,33,26
254928,-0.65625,-0.515625,0.25,0.515625,0.40625,-0.65625,-0.515625,0.25,0.515625,0.40625,86,95,16,33,26
106704,-0.65625,-0.515625,0.25,0.515625,0.40625,-0.65625,-0.515625,0.25,0.515625,0.40625,86,95,16,33,26
107144,-0.65625,-0.515625,0.25,0.515625,0.40625,-0.65625,-0.515625,0.25,0.515625,0.40625,86,95,16,33,26
99280,-0.65625,-0.515625,0.25,0.515625,0.40625,-0.65625,-0.515625,0.25,0.515625,0.40625,86,95,16,33,26
99464,-0.65625,-0.515625,0.25,0.515625,0.40625,-0.65625,-0.515625,0.25,0.515625,0.40625,86,95,16,33,26
91656,-0.65625,-0.515625,0.25,0.515625,0.40625,-0.65625,-0.515625,0.25,0.515625,0.40625,86,95,16,33,26
75144,-0.65625,-0.515625,0.25,0.515625,0.40625,-0.65625,-0.515625,0.25,0.515625,0.40625,86,95,16,33,26
66760,-0.65625,-0.515625,0.25,0.515625,0.40625,-0.65625,-0.515625,0.25,0.515625,0.40625,86,95,16,33,26
66384,-0.65625,-0.515625,0.25,0.515625,0.40625,-0.65625,-0.515625,0.25,0.515625,0.40625,86,95,16,33,26
58064,-0.65625,-0.515625,0.25,0.515625,0.40625,-0.65625,-0.515625,0.25,0.515625,0.40625,86,95,16,33,26
57488,-0.65625,-0.515625,0.25,0.515625,0.40625,-0.65625,-0.515625,0.25,0.515625,0.40625,86,95,16,33,26
205712,-0.65625,-0.515625,0.25,0.515625,0.40625,-0.65625,-0.515625,0.25,0.515625,0.40625,86,95,16,33,26
205656,-0.65625,-0.515625,0.25,0.515625,0.40625,-0.65625,-0.515625,0.25,0.515625,0.40625,86,95,16,33,26
262472,-0.65625,-0.515625,0.25,0.515625,0.40625,-0.65625,-0.515625,0.25,0.515625,0.40625,86,95,16,33,26
254488,-0.65625,-0.515625,0.25,0.515625,0.40625,-0.65625,-0.515625,0.25,0.515625,0.40625,86,95,16,33,26
254736,-0.65625,-0.515625,0.25,0.515625,0.40625,-0.65625,-0.515625,0.25,0.515625,0.40625,86,95,16,33,26
254936,-0.65625,-0.515625,0.25,0.515625,0.40625,-0.65625,-0.515625,0.25,0.515625,0.40625,86,95,16,33,26
106888,-0.65625,-0.515625,0.25,0.515625,0.40625,-0.65625,-0.515625,0.25,0.515625,0.40625,86,95,16,33,26
107088,-0.65625,-0.515625,0.25,0.515625,0.40625,-0.65625,-0.515625,0.25,0.515625,0.40625,86,95,16,33,26
99336,-0.65625,-0.515625,0.25,0.515625,0.40625,-0.65625,-0.515625,0.25,0.515625,0.40625,86,95,16,33,26
99528,-0.65625,-0.515625,0.25,0.515625,0.40625,-0.65625,-0.515625,0.25,0.515625,0.40625,86,95,16,33,26
91528,-0.65625,-0.515625,0.25,0.515625,0.40625,-0.65625,-0.515625,0.25,0.515625,0.40625,86,95,16,33,26
83464,-0.65625,-0.515625,0.25,0.515625,0.40625,-0.65625,-0.515625,0.25,0.515625,0.40625,86,95,16,33,26
83336,-0.65625,-0.515625,0.25,0.515625,0.40625,-0.65625,-0.515625,0.25,0.515625,0.40625,86,95,16,33,26
75272,-0.65625,-0.515625,0.25,0.515625,0.40625,-0.65625,-0.515625,0.25,0.515625,0.40625,86,95,16,33,26
66696,-0.65625,-0.515625,0.25,0.515625,0.40625,-0.65625,-0.515625,0.25,0.515625,0.40625,86,95,16,33,26
58120,-0.65625,-0.515625,0.25,0.515625,0.40625,-0.65625,-0.515625,0.25,0.515625,0.40625,86,95,16,33,26
57800,-0.65625,-0.515625,0.25,0.515625,0.40625,-0.65625,-0.515625,0.25,0.515625,0.40625,86,95,16,33,26
205704,-0.65625,-0.515625,0.25,0.515625,0.40625,-0.65625,-0.515625,0.25,0.515625,0.40625,86,95,16,33,26
205384,-0.65625,-0.515625,0.25,0.515625,0.40625,-0.65625,-0.515625,0.25,0.515625,0.40625,86,95,16,33,26
205136,-0.65625,-0.515625,0.25,0.515625,0.40625,-0.65625,-0.515625,0.25,0.515625,0.40625,86,95,16,33,26
197144,-0.65625,-0.515625,0.25,0.515625,0.40625,-0.65625,-0.515625,0.25,0.515625,0.40625,86,95,16,33,26
91664,-0.65625,-0.515625,0.25,0.515625,0.40625,-0.65625,-0.515625,0.25,0.515625,0.40625,86,95,16,33,26
75152,-0.65625,-0.515625,0.25,0.515625,0.40625,-0.65625,-0.515625,0.25,0.515625,0.40625,86,95,16,33,26
66376,-0.65625,-0.515625,0.25,0.515625,0.40625,-0.65625,-0.515625,0.25,0.515625,0.40625,86,95,16,33,26
262216,-0.65625,-0.515625,0.25,0.515625,0.40625,-0.65625,-0.515625,0.25,0.515625,0.40625,86,95,16,33,26
262480,-0.65625,-0.515625,0.25,0.515625,0.40625,-0.65625,-0.515625,0.25,0.515625,0.40625,86,95,16,33,26
262736,-0.65625,-0.515625,0.25,0.515625,0.40625,-0.65625,-0.515625,0.25,0.515625,0.40625,86,95,16,33,26
262728,-0.65625,-0.515625,0.25,0.515625,0.40625,-0.65625,-0.515625,0.25,0.515625,0.40625,86,95,16,33,26
255000,-0.65625,-0.515625,0.25,0.515625,0.40625,-0.65625,-0.515625,0.25,0.515625,0.40625,86,95,16,33,26
254992,-0.65625,-0.515625,0.25,0.515625,0.40625,-0.65625,-0.515625,0.25,0.515625,0.40625,86,95,16,33,26
106760,-0.65625,-0.515625,0.25,0.515625,0.40625,-0.65625,-0.515625,0.25,0.515625,0.40625,86,95,16,33,26
106952,-0.65625,-0.515625,0.25,0.515625,0.40625,-0.65625,-0.515625,0.25,0.515625,0.40625,86,95,16,33,26
107152,-0.65625,-0.515625,0.25,0.515625,0.40625,-0.65625,-0.515625,0.25,0.515625,0.40625,86,95,16,33,26
107400,-0.65625,-0.515625,0.25,0.515625,0.40625,-0.65625,-0.515625,0.25,0.515625,0.40625,86,95,16,33,26
107336,-0.65625,-0.515625,0.25,0.515625,0.40625,-0.65625,-0.515625,0.25,0.515625,0.40625,86,95,16,33,26
99600,-0.65625,-0.515625,0.25,0.515625,0.40625,-0.65625,-0.515625,0.25,0.515625,0.40625,86,95,16,33,26
99592,-0.65625,-0.515625,0.25,0.515625,0.40625,-0.65625,-0.515625,0.25,0.515625,0.40625,86,95,16,33,26
99536,-0.65625,-0.515625,0.25,0.515625,0.40625,-0.65625,-0.515625,0.25,0.515625,0.40625,86,95,16,33,26
99848,-0.65625,-0.515625,0.25,0.515625,0.40625,-0.65625,-0.515625,0.25,0.515625,0.40625,86,95,16,33,26
99720,-0.65625,-0.515625,0.25,0.515625,0.40625,-0.65625,-0.515625,0.25,0.515625,0.40625,86,95,16,33,26
91672,-0.65625,-0.515625,0.25,0.515625,0.40625,-0.65625,-0.515625,0.25,0.515625,0.40625,86,95,16,33,26
91784,-0.65625,-0.515625,0.25,0.515625,0.40625,-0.65625,-0.515625,0.25,0.515625,0.40625,86,95,16,33,26
83720,-0.65625,-0.515625,0.25,0.515625,0.40625,-0.65625,-0.515625,0.25,0.515625,0.40625,86,95,16,33,26
83592,-0.65625,-0.515625,0.25,0.515625,0.40625,-0.65625,-0.515625,0.25,0.515625,0.40625,86,95,16,33,26
75528,-0.65625,-0.515625,0.25,0.515625,0.40625,-0.65625,-0.515625,0.25,0.515625,0.40625,86,95,16,33,26
75160,-0.65625,-0.515625,0.25,0.515625,0.40625,-0.65625,-0.515625,0.25,0.515625,0.40625,86,95,16,33,26
67088,-0.65625,-0.515625,0.25,0.515625,0.40625,-0.65625,-0.515625,0.25,0.515625,0.40625,86,95,16,33,26
67080,-0.65625,-0.515625,0.25,0.515625,0.40625,-0.65625,-0.515625,0.25,0.515625,0.40625,86,95,16,33,26
66704,-0.65625,-0.515625,0.25,0.515625,0.40625,-0.65625,-0.515625,0.25,0.515625,0.40625,86,95,16,33,26
66640,-0.65625,-0.515625,0.25,0.515625,0.40625,-0.65625,-0.515625,0.25,0.515625,0.40625,86,95,16,33,26
58376,-0.65625,-0.515625,0.25,0.515625,0.40625,-0.65625,-0.515625,0.25,0.515625,0.40625,86,95,16,33,26
58320,-0.65625,-0.515625,0.25,0.515625,0.40625,-0.65625,-0.515625,0.25,0.515625,0.40625,86,95,16,33,26
58056,-0.65625,-0.515625,0.25,0.515625,0.40625,-0.65625,-0.515625,0.25,0.515625,0.40625,86,95,16,33,26
57744,-0.65625,-0.515625,0.25,0.515625,0.40625,-0.65625,-0.515625,0.25,0.515625,0.40625,86,95,16,33,26
57424,-0.65625,-0.515625,0.25,0.515625,0.40625,-0.65625,-0.515625,0.25,0.515625,0.40625,86,95,16,33,26
205640,-0.65625,-0.515625,0.25,0.515625,0.40625,-0.65625,-0.515625,0.25,0.515625,0.40625,86,95,16,33,26
205648,-0.65625,-0.515625,0.25,0.515625,0.40625,-0.65625,-0.515625,0.25,0.515625,0.40625,86,95,16,33,26
197400,-0.65625,-0.515625,0.25,0.515625,0.40625,-0.65625,-0.515625,0.25,0.515625,0.40625,86,95,16,33,26
197392,-0.65625,-0.515625,0.25,0.515625,0.40625,-0.65625,-0.515625,0.25,0.515625,0.40625,86,95,16,33,26
197136,-0.65625,-0.515625,0.25,0.515625,0.40625,-0.65625,-0.515625,0.25,0.515625,0.40625,86,95,16,33,26
196872,-0.65625,-0.515625,0.25,0.515625,0.40625,-0.65625,-0.515625,0.25,0.515625,0.40625,86,95,16,33,26
262488,-0.65625,-0.515625,0.25,0.515625,0.40625,-0.65625,-0.515625,0.25,0.515625,0.40625,86,95,16,33,26
262984,-0.65625,-0.515625,0.25,0.515625,0.40625,-0.65625,-0.515625,0.25,0.515625,0.40625,86,95,16,33,26
106768,-0.65625,-0.515625,0.25,0.515625,0.40625,-0.65625,-0.515625,0.25,0.515625,0.40625,86,95,16,33,26
107016,-0.65625,-0.515625,0.25,0.515625,0.40625,-0.65625,-0.515625,0.25,0.515625,0.40625,86,95,16,33,26
106960,-0.65625,-0.515625,0.25,0.515625,0.40625,-0.65625,-0.515625,0.25,0.515625,0.40625,86,95,16,33,26
107208,-0.65625,-0.515625,0.25,0.515625,0.40625,-0.65625,-0.515625,0.25,0.515625,0.40625,86,95,16,33,26
107408,-0.65625,-0.515625,0.25,0.515625,0.40625,-0.65625,-0.515625,0.25,0.515625,0.40625,86,95,16,33,26
91912,-0.65625,-0.515625,0.25,0.515625,0.40625,-0.65625,-0.515625,0.25,0.515625,0.40625,86,95,16,33,26
83728,-0.65625,-0.515625,0.25,0.515625,0.40625,-0.65625,-0.515625,0.25,0.515625,0.40625,86,95,16,33,26
83600,-0.65625,-0.515625,0.25,0.515625,0.40625,-0.65625,-0.515625,0.25,0.515625,0.40625,86,95,16,33,26
75400,-0.65625,-0.515625,0.25,0.515625,0.40625,-0.65625,-0.515625,0.25,0.515625,0.40625,86,95,16,33,26
66632,-0.65625,-0.515625,0.25,0.515625,0.40625,-0.65625,-0.515625,0.25,0.515625,0.40625,86,95,16,33,26
58312,-0.65625,-0.515625,0.25,0.515625,0.40625,-0.65625,-0.515625,0.25,0.515625,0.40625,86,95,16,33,26
57992,-0.65625,-0.515625,0.25,0.515625,0.40625,-0.65625,-0.515625,0.25,0.515625,0.40625,86,95,16,33,26
57736,-0.65625,-0.515625,0.25,0.515625,0.40625,-0.65625,-0.515625,0.25,0.515625,0.40625,86,95,16,33,26
57672,-0.65625,-0.515625,0.25,0.515625,0.40625,-0.65625,-0.515625,0.25,0.515625,0.40625,86,95,16,33,26
57416,-0.65625,-0.515625,0.25,0.515625,0.40625,-0.65625,-0.515625,0.25,0.515625,0.40625,86,95,16,33,26
197648,-0.65625,-0.515625,0.25,0.515625,0.40625,-0.65625,-0.515625,0.25,0.515625,0.40625,86,95,16,33,26
197128,-0.65625,-0.515625,0.25,0.515625,0.40625,-0.65625,-0.515625,0.25,0.515625,0.40625,86,95,16,33,26
262280,-0.65625,-0.515625,0.25,0.515625,0.40625,-0.65625,-0.515625,0.25,0.515625,0.40625,86,95,16,33,26
262744,-0.65625,-0.515625,0.25,0.515625,0.40625,-0.65625,-0.515625,0.25,0.515625,0.40625,86,95,16,33,26
114760,-0.65625,-0.515625,0.25,0.515625,0.40625,-0.65625,-0.515625,0.25,0.515625,0.40625,86,95,16,33,26
107272,-0.65625,-0.515625,0.25,0.515625,0.40625,-0.65625,-0.515625,0.25,0.515625,0.40625,86,95,16,33,26
107592,-0.65625,-0.515625,0.25,0.515625,0.40625,-0.65625,-0.515625,0.25,0.515625,0.40625,86,95,16,33,26
99976,-0.65625,-0.515625,0.25,0.515625,0.40625,-0.65625,-0.515625,0.25,0.515625,0.40625,86,95,16,33,26
91792,-0.65625,-0.515625,0.25,0.515625,0.40625,-0.65625,-0.515625,0.25,0.515625,0.40625,86,95,16,33,26
75536,-0.65625,-0.515625,0.25,0.515625,0.40625,-0.65625,-0.515625,0.25,0.515625,0.40625,86,95,16,33,26
67336,-0.65625,-0.515625,0.25,0.515625,0.40625,-0.65625,-0.515625,0.25,0.515625,0.40625,86,95,16,33,26
66952,-0.65625,-0.515625,0.25,0.515625,0.40625,-0.65625,-0.515625,0.25,0.515625,0.40625,86,95,16,33,26
58632,-0.65625,-0.515625,0.25,0.515625,0.40625,-0.65625,-0.515625,0.25,0.515625,0.40625,86,95,16,33,26
57928,-0.65625,-0.515625,0.25,0.515625,0.40625,-0.65625,-0.515625,0.25,0.515625,0.40625,86,95,16,33,26
49432,-0.65625,-0.515625,0.25,0.515625,0.40625,-0.65625,-0.515625,0.25,0.515625,0.40625,86,95,16,33,26
197384,-0.65625,-0.515625,0.25,0.515625,0.40625,-0.65625,-0.515625,0.25,0.515625,0.40625,86,95,16,33,26
196816,-0.65625,-0.515625,0.25,0.515625,0.40625,-0.65625,-0.515625,0.25,0.515625,0.40625,86,95,16,33,26
262536,-0.65625,-0.515625,0.25,0.515625,0.40625,-0.65625,-0.515625,0.25,0.515625,0.40625,86,95,16,33,26
262792,-0.65625,-0.515625,0.25,0.515625,0.40625,-0.65625,-0.515625,0.25,0.515625,0.40625,86,95,16,33,26
262992,-0.65625,-0.515625,0.25,0.515625,0.40625,-0.65625,-0.515625,0.25,0.515625,0.40625,86,95,16,33,26
107024,-0.65625,-0.515625,0.25,0.515625,0.40625,-0.65625,-0.515625,0.25,0.515625,0.40625,86,95,16,33,26
107280,-0.65625,-0.515625,0.25,0.515625,0.40625,-0.65625,-0.515625,0.25,0.515625,0.40625,86,95,16,33,26
107464,-0.65625,-0.515625,0.25,0.515625,0.40625,-0.65625,-0.515625,0.25,0.515625,0.40625,86,95,16,33,26
107656,-0.65625,-0.515625,0.25,0.515625,0.40625,-0.65625,-0.515625,0.25,0.515625,0.40625,86,95,16,33,26
107912,-0.65625,-0.515625,0.25,0.515625,0.40625,-0.65625,-0.515625,0.25,0.515625,0.40625,86,95,16,33,26
99856,-0.65625,-0.515625,0.25,0.515625,0.40625,-0.65625,-0.515625,0.25,0.515625,0.40625,86,95,16,33,26
99984,-0.65625,-0.515625,0.25,0.515625,0.40625,-0.65625,-0.515625,0.25,0.515625,0.40625,86,95,16,33,26
67344,-0.65625,-0.515625,0.25,0.515625,0.40625,-0.65625,-0.515625,0.25,0.515625,0.40625,86,95,16,33,26
58568,-0.65625,-0.515625,0.25,0.515625,0.40625,-0.65625,-0.515625,0.25,0.515625,0.40625,86,95,16,33,26
58248,-0.65625,-0.515625,0.25,0.515625,0.40625,-0.65625,-0.515625,0.25,0.515625,0.40625,86,95,16,33,26
57936,-0.65625,-0.515625,0.25,0.515625,0.40625,-0.65625,-0.515625,0.25,0.515625,0.40625,86,95,16,33,26
57680,-0.65625,-0.515625,0.25,0.515625,0.40625,-0.65625,-0.515625,0.25,0.515625,0.40625,86,95,16,33,26
197640,-0.65625,-0.515625,0.25,0.515625,0.40625,-0.65625,-0.515625,0.25,0.515625,0.40625,86,95,16,33,26
197336,-0.65625,-0.515625,0.25,0.515625,0.40625,-0.65625,-0.515625,0.25,0.515625,0.40625,86,95,16,33,26
197072,-0.65625,-0.515625,0.25,0.515625,0.40625,-0.65625,-0.515625,0.25,0.515625,0.40625,86,95,16,33,26
114768,-0.65625,-0.515625,0.25,0.515625,0.40625,-0.65625,-0.515625,0.25,0.515625,0.40625,86,95,16,33,26
66960,-0.65625,-0.515625,0.25,0.515625,0.40625,-0.65625,-0.515625,0.25,0.515625,0.40625,86,95,16,33,26
49424,-0.65625,-0.515625,0.25,0.515625,0.40625,-0.65625,-0.515625,0.25,0.515625,0.40625,86,95,16,33,26
262288,-0.65625,-0.515625,0.25,0.515625,0.40625,-0.65625,-0.515625,0.25,0.515625,0.40625,86,95,16,33,26
262544,-0.65625,-0.515625,0.25,0.515625,0.40625,-0.65625,-0.515625,0.25,0.515625,0.40625,86,95,16,33,26
262808,-0.65625,-0.515625,0.25,0.515625,0.40625,-0.65625,-0.515625,0.25,0.515625,0.40625,86,95,16,33,26
262800,-0.65625,-0.515625,0.25,0.515625,0.40625,-0.65625,-0.515625,0.25,0.515625,0.40625,86,95,16,33,26
263048,-0.65625,-0.515625,0.25,0.515625,0.40625,-0.65625,-0.515625,0.25,0.515625,0.40625,86,95,16,33,26
114776,-0.65625,-0.515625,0.25,0.515625,0.40625,-0.65625,-0.515625,0.25,0.515625,0.40625,86,95,16,33,26
115016,-0.65625,-0.515625,0.25,0.515625,0.40625,-0.65625,-0.515625,0.25,0.515625,0.40625,86,95,16,33,26
115272,-0.65625,-0.515625,0.25,0.515625,0.40625,-0.65625,-0.515625,0.25,0.515625,0.40625,86,95,16,33,26
107528,-0.65625,-0.515625,0.25,0.515625,0.40625,-0.65625,-0.515625,0.25,0.515625,0.40625,86,95,16,33,26
107720,-0.65625,-0.515625,0.25,0.515625,0.40625,-0.65625,-0.515625,0.25,0.515625,0.40625,86,95,16,33,26
108040,-0.65625,-0.515625,0.25,0.515625,0.40625,-0.65625,-0.515625,0.25,0.515625,0.40625,86,95,16,33,26
107920,-0.65625,-0.515625,0.25,0.515625,0.40625,-0.65625,-0.515625,0.25,0.515625,0.40625,86,95,16,33,26
108168,-0.65625,-0.515625,0.25,0.515625,0.40625,-0.65625,-0.515625,0.25,0.515625,0.40625,86,95,16,33,26
100104,-0.65625,-0.515625,0.25,0.515625,0.40625,-0.65625,-0.515625,0.25,0.515625,0.40625,86,95,16,33,26
99992,-0.65625,-0.515625,0.25,0.515625,0.40625,-0.65625,-0.515625,0.25,0.515625,0.40625,86,95,16,33,26
67208,-0.65625,-0.515625,0.25,0.515625,0.40625,-0.65625,-0.515625,0.25,0.515625,0.40625,86,95,16,33,26
59160,-0.65625,-0.515625,0.25,0.515625,0.40625,-0.65625,-0.515625,0.25,0.515625,0.40625,86,95,16,33,26
58888,-0.65625,-0.515625,0.25,0.515625,0.40625,-0.65625,-0.515625,0.25,0.515625,0.40625,86,95,16,33,26
58776,-0.65625,-0.515625,0.25,0.515625,0.40625,-0.65625,-0.515625,0.25,0.515625,0.40625,86,95,16,33,26
58504,-0.65625,-0.515625,0.25,0.515625,0.40625,-0.65625,-0.515625,0.25,0.515625,0.40625,86,95,16,33,26
58192,-0.65625,-0.515625,0.25,0.515625,0.40625,-0.65625,-0.515625,0.25,0.515625,0.40625,86,95,16,33,26
49936,-0.65625,-0.515625,0.25,0.515625,0.40625,-0.65625,-0.515625,0.25,0.515625,0.40625,86,95,16,33,26
49672,-0.65625,-0.515625,0.25,0.515625,0.40625,-0.65625,-0.515625,0.25,0.515625,0.40625,86,95,16,33,26
49416,-0.65625,-0.515625,0.25,0.515625,0.40625,-0.65625,-0.515625,0.25,0.515625,0.40625,86,95,16,33,26
197584,-0.65625,-0.515625,0.25,0.515625,0.40625,-0.65625,-0.515625,0.25,0.515625,0.40625,86,95,16,33,26
197320,-0.65625,-0.515625,0.25,0.515625,0.40625,-0.65625,-0.515625,0.25,0.515625,0.40625,86,95,16,33,26
197328,-0.65625,-0.515625,0.25,0.515625,0.40625,-0.65625,-0.515625,0.25,0.515625,0.40625,86,95,16,33,26
197064,-0.65625,-0.515625,0.25,0.515625,0.40625,-0.65625,-0.515625,0.25,0.515625,0.40625,86,95,16,33,26
196808,-0.65625,-0.515625,0.25,0.515625,0.40625,-0.65625,-0.515625,0.25,0.515625,0.40625,86,95,16,33,26
262344,-0.65625,-0.515625,0.25,0.515625,0.40625,-0.65625,-0.515625,0.25,0.515625,0.40625,86,95,16,33,26
263056,-0.65625,-0.515625,0.25,0.515625,0.40625,-0.65625,-0.515625,0.25,0.515625,0.40625,86,95,16,33,26
114824,-0.65625,-0.515625,0.25,0.515625,0.40625,-0.65625,-0.515625,0.25,0.515625,0.40625,86,95,16,33,26
115080,-0.65625,-0.515625,0.25,0.515625,0.40625,-0.65625,-0.515625,0.25,0.515625,0.40625,86,95,16,33,26
115280,-0.65625,-0.515625,0.25,0.515625,0.40625,-0.65625,-0.515625,0.25,0.515625,0.40625,86,95,16,33,26
115528,-0.65625,-0.515625,0.25,0.515625,0.40625,-0.65625,-0.515625,0.25,0.515625,0.40625,86,95,16,33,26
107536,-0.65625,-0.515625,0.25,0.515625,0.40625,-0.65625,-0.515625,0.25,0.515625,0.40625,86,95,16,33,26
107784,-0.65625,-0.515625,0.25,0.515625,0.40625,-0.65625,-0.515625,0.25,0.515625,0.40625,86,95,16,33,26
58440,-0.65625,-0.515625,0.25,0.515625,0.40625,-0.65625,-0.515625,0.25,0.515625,0.40625,86,95,16,33,26
58184,-0.65625,-0.515625,0.25,0.515625,0.40625,-0.65625,-0.515625,0.25,0.515625,0.40625,86,95,16,33,26
50192,-0.65625,-0.515625,0.25,0.515625,0.40625,-0.65625,-0.515625,0.25,0.515625,0.40625,86,95,16,33,26
49928,-0.65625,-0.515625,0.25,0.515625,0.40625,-0.65625,-0.515625,0.25,0.515625,0.40625,86,95,16,33,26
49608,-0.65625,-0.515625,0.25,0.515625,0.40625,-0.65625,-0.515625,0.25,0.515625,0.40625,86,95,16,33,26
49360,-0.65625,-0.515625,0.25,0.515625,0.40625,-0.65625,-0.515625,0.25,0.515625,0.40625,86,95,16,33,26
197576,-0.65625,-0.515625,0.25,0.515625,0.40625,-0.65625,-0.515625,0.25,0.515625,0.40625,86,95,16,33,26
196760,-0.65625,-0.515625,0.25,0.515625,0.40625,-0.65625,-0.515625,0.25,0.515625,0.40625,86,95,16,33,26
262352,-0.65625,-0.515625,0.25,0.515625,0.40625,-0.65625,-0.515625,0.25,0.515625,0.40625,86,95,16,33,26
262608,-0.65625,-0.515625,0.25,0.515625,0.40625,-0.65625,-0.515625,0.25,0.515625,0.40625,86,95,16,33,26
262600,-0.65625,-0.515625,0.25,0.515625,0.40625,-0.65625,-0.515625,0.25,0.515625,0.40625,86,95,16,33,26
262864,-0.65625,-0.515625,0.25,0.515625,0.40625,-0.65625,-0.515625,0.25,0.515625,0.40625,86,95,16,33,26
262856,-0.65625,-0.515625,0.25,0.515625,0.40625,-0.65625,-0.515625,0.25,0.515625,0.40625,86,95,16,33,26
114832,-0.65625,-0.515625,0.25,0.515625,0.40625,-0.65625,-0.515625,0.25,0.515625,0.40625,86,95,16,33,26
115088,-0.65625,-0.515625,0.25,0.515625,0.40625,-0.65625,-0.515625,0.25,0.515625,0.40625,86,95,16,33,26
108048,-0.65625,-0.515625,0.25,0.515625,0.40625,-0.65625,-0.515625,0.25,0.515625,0.40625,86,95,16,33,26
108176,-0.65625,-0.515625,0.25,0.515625,0.40625,-0.65625,-0.515625,0.25,0.515625,0.40625,86,95,16,33,26
59152,-0.65625,-0.515625,0.25,0.515625,0.40625,-0.65625,-0.515625,0.25,0.515625,0.40625,86,95,16,33,26
59144,-0.65625,-0.515625,0.25,0.515625,0.40625,-0.65625,-0.515625,0.25,0.515625,0.40625,86,95,16,33,26
58768,-0.65625,-0.515625,0.25,0.515625,0.40625,-0.65625,-0.515625,0.25,0.515625,0.40625,86,95,16,33,26
49616,-0.65625,-0.515625,0.25,0.515625,0.40625,-0.65625,-0.515625,0.25,0.515625,0.40625,86,95,16,33,26
49352,-0.65625,-0.515625,0.25,0.515625,0.40625,-0.65625,-0.515625,0.25,0.515625,0.40625,86,95,16,33,26
197272,-0.65625,-0.515625,0.25,0.515625,0.40625,-0.65625,-0.515625,0.25,0.515625,0.40625,86,95,16,33,26
197280,-0.65625,-0.515625,0.25,0.515625,0.40625,-0.65625,-0.515625,0.25,0.515625,0.40625,86,95,16,33,26
197016,-0.65625,-0.515625,0.25,0.515625,0.40625,-0.65625,-0.515625,0.25,0.515625,0.40625,86,95,16,33,26
197008,-0.65625,-0.515625,0.25,0.515625,0.40625,-0.65625,-0.515625,0.25,0.515625,0.40625,86,95,16,33,26
196752,-0.65625,-0.515625,0.25,0.515625,0.40625,-0.65625,-0.515625,0.25,0.515625,0.40625,86,95,16,33,26
262360,-0.65625,-0.515625,0.25,0.515625,0.40625,-0.65625,-0.515625,0.25,0.515625,0.40625,86,95,16,33,26
262872,-0.65625,-0.515625,0.25,0.515625,0.40625,-0.65625,-0.515625,0.25,0.515625,0.40625,86,95,16,33,26
263112,-0.65625,-0.515625,0.25,0.515625,0.40625,-0.65625,-0.515625,0.25,0.515625,0.40625,86,95,16,33,26
114888,-0.65625,-0.515625,0.25,0.515625,0.40625,-0.65625,-0.515625,0.25,0.515625,0.40625,86,95,16,33,26
115336,-0.65625,-0.515625,0.25,0.515625,0.40625,-0.65625,-0.515625,0.25,0.515625,0.40625,86,95,16,33,26
115536,-0.65625,-0.515625,0.25,0.515625,0.40625,-0.65625,-0.515625,0.25,0.515625,0.40625,86,95,16,33,26
115784,-0.65625,-0.515625,0.25,0.515625,0.40625,-0.65625,-0.515625,0.25,0.515625,0.40625,86,95,16,33,26
108056,-0.65625,-0.515625,0.25,0.515625,0.40625,-0.65625,-0.515625,0.25,0.515625,0.40625,86,95,16,33,26
108296,-0.65625,-0.515625,0.25,0.515625,0.40625,-0.65625,-0.515625,0.25,0.515625,0.40625,86,95,16,33,26
59016,-0.65625,-0.515625,0.25,0.515625,0.40625,-0.65625,-0.515625,0.25,0.515625,0.40625,86,95,16,33,26
58760,-0.65625,-0.515625,0.25,0.515625,0.40625,-0.65625,-0.515625,0.25,0.515625,0.40625,86,95,16,33,26
50440,-0.65625,-0.515625,0.25,0.515625,0.40625,-0.65625,-0.515625,0.25,0.515625,0.40625,86,95,16,33,26
50184,-0.65625,-0.515625,0.25,0.515625,0.40625,-0.65625,-0.515625,0.25,0.515625,0.40625,86,95,16,33,26
49864,-0.65625,-0.515625,0.25,0.515625,0.40625,-0.65625,-0.515625,0.25,0.515625,0.40625,86,95,16,33,26
49296,-0.65625,-0.515625,0.25,0.515625,0.40625,-0.65625,-0.515625,0.25,0.515625,0.40625,86,95,16,33,26
197520,-0.65625,-0.515625,0.25,0.515625,0.40625,-0.65625,-0.515625,0.25,0.515625,0.40625,86,95,16,33,26
197264,-0.65625,-0.515625,0.25,0.515625,0.40625,-0.65625,-0.515625,0.25,0.515625,0.40625,86,95,16,33,26
196744,-0.65625,-0.515625,0.25,0.515625,0.40625,-0.65625,-0.515625,0.25,0.515625,0.40625,86,95,16,33,26
115592,-0.65625,-0.515625,0.25,0.515625,0.40625,-0.65625,-0.515625,0.25,0.515625,0.40625,86,95,16,33,26
50128,-0.65625,-0.515625,0.25,0.515625,0.40625,-0.65625,-0.515625,0.25,0.515625,0.40625,86,95,16,33,26
262408,-0.65625,-0.515625,0.25,0.515625,0.40625,-0.65625,-0.515625,0.25,0.515625,0.40625,86,95,16,33,26
262664,-0.65625,-0.515625,0.25,0.515625,0.40625,-0.65625,-0.515625,0.25,0.515625,0.40625,86,95,16,33,26
262616,-0.65625,-0.515625,0.25,0.515625,0.40625,-0.65625,-0.515625,0.25,0.515625,0.40625,86,95,16,33,26
262880,-0.65625,-0.515625,0.25,0.515625,0.40625,-0.65625,-0.515625,0.25,0.515625,0.40625,86,95,16,33,26
262920,-0.65625,-0.515625,0.25,0.515625,0.40625,-0.65625,-0.515625,0.25,0.515625,0.40625,86,95,16,33,26
263120,-0.65625,-0.515625,0.25,0.515625,0.40625,-0.65625,-0.515625,0.25,0.515625,0.40625,86,95,16,33,26
114896,-0.65625,-0.515625,0.25,0.515625,0.40625,-0.65625,-0.515625,0.25,0.515625,0.40625,86,95,16,33,26
115152,-0.65625,-0.515625,0.25,0.515625,0.40625,-0.65625,-0.515625,0.25,0.515625,0.40625,86,95,16,33,26
115144,-0.65625,-0.515625,0.25,0.515625,0.40625,-0.65625,-0.515625,0.25,0.515625,0.40625,86,95,16,33,26
115400,-0.65625,-0.515625,0.25,0.515625,0.40625,-0.65625,-0.515625,0.25,0.515625,0.40625,86,95,16,33,26
115600,-0.65625,-0.515625,0.25,0.515625,0.40625,-0.65625,-0.515625,0.25,0.515625,0.40625,86,95,16,33,26
115912,-0.65625,-0.515625,0.25,0.515625,0.40625,-0.65625,-0.515625,0.25,0.515625,0.40625,86,95,16,33,26
115848,-0.65625,-0.515625,0.25,0.515625,0.40625,-0.65625,-0.515625,0.25,0.515625,0.40625,86,95,16,33,26
116104,-0.65625,-0.515625,0.25,0.515625,0.40625,-0.65625,-0.515625,0.25,0.515625,0.40625,86,95,16,33,26
116360,-0.65625,-0.515625,0.25,0.515625,0.40625,-0.65625,-0.515625,0.25,0.515625,0.40625,86,95,16,33,26
50960,-0.65625,-0.515625,0.25,0.515625,0.40625,-0.65625,-0.515625,0.25,0.515625,0.40625,86,95,16,33,26
50696,-0.65625,-0.515625,0.25,0.515625,0.40625,-0.65625,-0.515625,0.25,0.515625,0.40625,86,95,16,33,26
50376,-0.65625,-0.515625,0.25,0.515625,0.40625,-0.65625,-0.515625,0.25,0.515625,0.40625,86,95,16,33,26
50320,-0.65625,-0.515625,0.25,0.515625,0.40625,-0.65625,-0.515625,0.25,0.515625,0.40625,86,95,16,33,26
50120,-0.65625,-0.515625,0.25,0.515625,0.40625,-0.65625,-0.515625,0.25,0.515625,0.40625,86,95,16,33,26
49808,-0.65625,-0.515625,0.25,0.515625,0.40625,-0.65625,-0.515625,0.25,0.515625,0.40625,86,95,16,33,26
49544,-0.65625,-0.515625,0.25,0.515625,0.40625,-0.65625,-0.515625,0.25,0.515625,0.40625,86,95,16,33,26
49552,-0.65625,-0.515625,0.25,0.515625,0.40625,-0.65625,-0.515625,0.25,0.515625,0.40625,86,95,16,33,26
49288,-0.65625,-0.515625,0.25,0.515625,0.40625,-0.65625,-0.515625,0.25,0.515625,0.40625,86,95,16,33,26
197512,-0.65625,-0.515625,0.25,0.515625,0.40625,-0.65625,-0.515625,0.25,0.515625,0.40625,86,95,16,33,26
197200,-0.65625,-0.515625,0.25,0.515625,0.40625,-0.65625,-0.515625,0.25,0.515625,0.40625,86,95,16,33,26
197256,-0.65625,-0.515625,0.25,0.515625,0.40625,-0.65625,-0.515625,0.25,0.515625,0.40625,86,95,16,33,26
197000,-0.65625,-0.515625,0.25,0.515625,0.40625,-0.65625,-0.515625,0.25,0.515625,0.40625,86,95,16,33,26
196952,-0.65625,-0.515625,0.25,0.515625,0.40625,-0.65625,-0.515625,0.25,0.515625,0.40625,86,95,16,33,26
196696,-0.65625,-0.515625,0.25,0.515625,0.40625,-0.65625,-0.515625,0.25,0.515625,0.40625,86,95,16,33,26
262416,-0.65625,-0.515625,0.25,0.515625,0.40625,-0.65625,-0.515625,0.25,0.515625,0.40625,86,95,16,33,26
263176,-0.65625,-0.515625,0.25,0.515625,0.40625,-0.65625,-0.515625,0.25,0.515625,0.40625,86,95,16,33,26
114952,-0.65625,-0.515625,0.25,0.515625,0.40625,-0.65625,-0.515625,0.25,0.515625,0.40625,86,95,16,33,26
115408,-0.65625,-0.515625,0.25,0.515625,0.40625,-0.65625,-0.515625,0.25,0.515625,0.40625,86,95,16,33,26
115656,-0.65625,-0.515625,0.25,0.515625,0.40625,-0.65625,-0.515625,0.25,0.515625,0.40625,86,95,16,33,26
115920,-0.65625,-0.515625,0.25,0.515625,0.40625,-0.65625,-0.515625,0.25,0.515625,0.40625,86,95,16,33,26
116368,-0.65625,-0.515625,0.25,0.515625,0.40625,-0.65625,-0.515625,0.25,0.515625,0.40625,86,95,16,33,26
50952,-0.65625,-0.515625,0.25,0.515625,0.40625,-0.65625,-0.515625,0.25,0.515625,0.40625,86,95,16,33,26
50312,-0.65625,-0.515625,0.25,0.515625,0.40625,-0.65625,-0.515625,0.25,0.515625,0.40625,86,95,16,33,26
50056,-0.65625,-0.515625,0.25,0.515625,0.40625,-0.65625,-0.515625,0.25,0.515625,0.40625,86,95,16,33,26
49800,-0.65625,-0.515625,0.25,0.515625,0.40625,-0.65625,-0.515625,0.25,0.515625,0.40625,86,95,16,33,26
49224,-0.65625,-0.515625,0.25,0.515625,0.40625,-0.65625,-0.515625,0.25,0.515625,0.40625,86,95,16,33,26
197456,-0.65625,-0.515625,0.25,0.515625,0.40625,-0.65625,-0.515625,0.25,0.515625,0.40625,86,95,16,33,26
196688,-0.65625,-0.515625,0.25,0.515625,0.40625,-0.65625,-0.515625,0.25,0.515625,0.40625,86,95,16,33,26
262680,-0.65625,-0.515625,0.25,0.515625,0.40625,-0.65625,-0.515625,0.25,0.515625,0.40625,86,95,16,33,26
262672,-0.65625,-0.515625,0.25,0.515625,0.40625,-0.65625,-0.515625,0.25,0.515625,0.40625,86,95,16,33,26
262928,-0.65625,-0.515625,0.25,0.515625,0.40625,-0.65625,-0.515625,0.25,0.515625,0.40625,86,95,16,33,26
114960,-0.65625,-0.515625,0.25,0.515625,0.40625,-0.65625,-0.515625,0.25,0.515625,0.40625,86,95,16,33,26
115216,-0.65625,-0.515625,0.25,0.515625,0.40625,-0.65625,-0.515625,0.25,0.515625,0.40625,86,95,16,33,26
115208,-0.65625,-0.515625,0.25,0.515625,0.40625,-0.65625,-0.515625,0.25,0.515625,0.40625,86,95,16,33,26
116232,-0.65625,-0.515625,0.25,0.515625,0.40625,-0.65625,-0.515625,0.25,0.515625,0.40625,86,95,16,33,26
116488,-0.65625,-0.515625,0.25,0.515625,0.40625,-0.65625,-0.515625,0.25,0.515625,0.40625,86,95,16,33,26
50832,-0.65625,-0.515625,0.25,0.515625,0.40625,-0.65625,-0.515625,0.25,0.515625,0.40625,86,95,16,33,26
50568,-0.65625,-0.515625,0.25,0.515625,0.40625,-0.65625,-0.515625,0.25,0.515625,0.40625,86,95,16,33,26
49488,-0.65625,-0.515625,0.25,0.515625,0.40625,-0.65625,-0.515625,0.25,0.515625,0.40625,86,95,16,33,26
49496,-0.65625,-0.515625,0.25,0.515625,0.40625,-0.65625,-0.515625,0.25,0.515625,0.40625,86,95,16,33,26
49232,-0.65625,-0.515625,0.25,0.515625,0.40625,-0.65625,-0.515625,0.25,0.515625,0.40625,86,95,16,33,26
197208,-0.65625,-0.515625,0.25,0.515625,0.40625,-0.65625,-0.515625,0.25,0.515625,0.40625,86,95,16,33,26
196944,-0.65625,-0.515625,0.25,0.515625,0.40625,-0.65625,-0.515625,0.25,0.515625,0.40625,86,95,16,33,26
196936,-0.65625,-0.515625,0.25,0.515625,0.40625,-0.65625,-0.515625,0.25,0.515625,0.40625,86,95,16,33,26
262424,-0.65625,-0.515625,0.25,0.515625,0.40625,-0.65625,-0.515625,0.25,0.515625,0.40625,86,95,16,33,26
262936,-0.65625,-0.515625,0.25,0.515625,0.40625,-0.65625,-0.515625,0.25,0.515625,0.40625,86,95,16,33,26
263184,-0.65625,-0.515625,0.25,0.515625,0.40625,-0.65625,-0.515625,0.25,0.515625,0.40625,86,95,16,33,26
115224,-0.65625,-0.515625,0.25,0.515625,0.40625,-0.65625,-0.515625,0.25,0.515625,0.40625,86,95,16,33,26
115464,-0.65625,-0.515625,0.25,0.515625,0.40625,-0.65625,-0.515625,0.25,0.515625,0.40625,86,95,16,33,26
115720,-0.65625,-0.515625,0.25,0.515625,0.40625,-0.65625,-0.515625,0.25,0.515625,0.40625,86,95,16,33,26
115984,-0.65625,-0.515625,0.25,0.515625,0.40625,-0.65625,-0.515625,0.25,0.515625,0.40625,86,95,16,33,26
115976,-0.65625,-0.515625,0.25,0.515625,0.40625,-0.65625,-0.515625,0.25,0.515625,0.40625,86,95,16,33,26
116496,-0.65625,-0.515625,0.25,0.515625,0.40625,-0.65625,-0.515625,0.25,0.515625,0.40625,86,95,16,33,26
50824,-0.65625,-0.515625,0.25,0.515625,0.40625,-0.65625,-0.515625,0.25,0.515625,0.40625,86,95,16,33,26
50256,-0.65625,-0.515625,0.25,0.515625,0.40625,-0.65625,-0.515625,0.25,0.515625,0.40625,86,95,16,33,26
50248,-0.65625,-0.515625,0.25,0.515625,0.40625,-0.65625,-0.515625,0.25,0.515625,0.40625,86,95,16,33,26
49992,-0.65625,-0.515625,0.25,0.515625,0.40625,-0.65625,-0.515625,0.25,0.515625,0.40625,86,95,16,33,26
49736,-0.65625,-0.515625,0.25,0.515625,0.40625,-0.65625,-0.515625,0.25,0.515625,0.40625,86,95,16,33,26
49480,-0.65625,-0.515625,0.25,0.515625,0.40625,-0.65625,-0.515625,0.25,0.515625,0.40625,86,95,16,33,26
197448,-0.65625,-0.515625,0.25,0.515625,0.40625,-0.65625,-0.515625,0.25,0.515625,0.40625,86,95,16,33,26
197192,-0.65625,-0.515625,0.25,0.515625,0.40625,-0.65625,-0.515625,0.25,0.515625,0.40625,86,95,16,33,26
196680,-0.65625,-0.515625,0.25,0.515625,0.40625,-0.65625,-0.515625,0.25,0.515625,0.40625,86,95,16,33,26
270408,-0.65625,-0.515625,0.25,0.515625,0.40625,-0.65625,-0.515625,0.25,0.515625,0.40625,86,95,16,33,26
270672,-0.65625,-0.515625,0.25,0.515625,0.40625,-0.65625,-0.515625,0.25,0.515625,0.40625,86,95,16,33,26
270664,-0.65625,-0.515625,0.25,0.515625,0.40625,-0.65625,-0.515625,0.25,0.515625,0.40625,86,95,16,33,26
270928,-0.65625,-0.515625,0.25,0.515625,0.40625,-0.65625,-0.515625,0.25,0.515625,0.40625,86,95,16,33,26
270920,-0.65625,-0.515625,0.25,0.515625,0.40625,-0.65625,-0.515625,0.25,0.515625,0.40625,86,95,16,33,26
271176,-0.65625,-0.515625,0.25,0.515625,0.40625,-0.65625,-0.515625,0.25,0.515625,0.40625,86,95,16,33,26
122960,-0.65625,-0.515625,0.25,0.515625,0.40625,-0.65625,-0.515625,0.25,0.515625,0.40625,86,95,16,33,26
122952,-0.65625,-0.515625,0.25,0.515625,0.40625,-0.65625,-0.515625,0.25,0.515625,0.40625,86,95,16,33,26
123216,-0.65625,-0.515625,0.25,0.515625,0.40625,-0.65625,-0.515625,0.25,0.515625,0.40625,86,95,16,33,26
123208,-0.65625,-0.515625,0.25,0.515625,0.40625,-0.65625,-0.515625,0.25,0.515625,0.40625,86,95,16,33,26
123464,-0.65625,-0.515625,0.25,0.515625,0.40625,-0.65625,-0.515625,0.25,0.515625,0.40625,86,95,16,33,26
123976,-0.65625,-0.515625,0.25,0.515625,0.40625,-0.65625,-0.515625,0.25,0.515625,0.40625,86,95,16,33,26
124296,-0.65625,-0.515625,0.25,0.515625,0.40625,-0.65625,-0.515625,0.25,0.515625,0.40625,86,95,16,33,26
124552,-0.65625,-0.515625,0.25,0.515625,0.40625,-0.65625,-0.515625,0.25,0.515625,0.40625,86,95,16,33,26
42768,-0.65625,-0.515625,0.25,0.515625,0.40625,-0.65625,-0.515625,0.25,0.515625,0.40625,86,95,16,33,26
42504,-0.65625,-0.515625,0.25,0.515625,0.40625,-0.65625,-0.515625,0.25,0.515625,0.40625,86,95,16,33,26
42256,-0.65625,-0.515625,0.25,0.515625,0.40625,-0.65625,-0.515625,0.25,0.515625,0.40625,86,95,16,33,26
42248,-0.65625,-0.515625,0.25,0.515625,0.40625,-0.65625,-0.515625,0.25,0.515625,0.40625,86,95,16,33,26
41992,-0.65625,-0.515625,0.25,0.515625,0.40625,-0.65625,-0.515625,0.25,0.515625,0.40625,86,95,16,33,26
41736,-0.65625,-0.515625,0.25,0.515625,0.40625,-0.65625,-0.515625,0.25,0.515625,0.40625,86,95,16,33,26
41488,-0.65625,-0.515625,0.25,0.515625,0.40625,-0.65625,-0.515625,0.25,0.515625,0.40625,86,95,16,33,26
41496,-0.65625,-0.515625,0.25,0.515625,0.40625,-0.65625,-0.515625,0.25,0.515625,0.40625,86,95,16,33,26
41232,-0.65625,-0.515625,0.25,0.515625,0.40625,-0.65625,-0.515625,0.25,0.515625,0.40625,86,95,16,33,26
41224,-0.65625,-0.515625,0.25,0.515625,0.40625,-0.65625,-0.515625,0.25,0.515625,0.40625,86,95,16,33,26
189456,-0.65625,-0.515625,0.25,0.515625,0.40625,-0.65625,-0.515625,0.25,0.515625,0.40625,86,95,16,33,26
189192,-0.65625,-0.515625,0.25,0.515625,0.40625,-0.65625,-0.515625,0.25,0.515625,0.40625,86,95,16,33,26
189208,-0.65625,-0.515625,0.25,0.515625,0.40625,-0.65625,-0.515625,0.25,0.515625,0.40625,86,95,16,33,26
188952,-0.65625,-0.515625,0.25,0.515625,0.40625,-0.65625,-0.515625,0.25,0.515625,0.40625,86,95,16,33,26
188944,-0.65625,-0.515625,0.25,0.515625,0.40625,-0.65625,-0.515625,0.25,0.515625,0.40625,86,95,16,33,26
188696,-0.65625,-0.515625,0.25,0.515625,0.40625,-0.65625,-0.515625,0.25,0.515625,0.40625,86,95,16,33,26
270416,-0.65625,-0.515625,0.25,0.515625,0.40625,-0.65625,-0.515625,0.25,0.515625,0.40625,86,95,16,33,26
270936,-0.65625,-0.515625,0.25,0.515625,0.40625,-0.65625,-0.515625,0.25,0.515625,0.40625,86,95,16,33,26
123224,-0.65625,-0.515625,0.25,0.515625,0.40625,-0.65625,-0.515625,0.25,0.515625,0.40625,86,95,16,33,26
123528,-0.65625,-0.515625,0.25,0.515625,0.40625,-0.65625,-0.515625,0.25,0.515625,0.40625,86,95,16,33,26
124040,-0.65625,-0.515625,0.25,0.515625,0.40625,-0.65625,-0.515625,0.25,0.515625,0.40625,86,95,16,33,26
124560,-0.65625,-0.515625,0.25,0.515625,0.40625,-0.65625,-0.515625,0.25,0.515625,0.40625,86,95,16,33,26
42760,-0.65625,-0.515625,0.25,0.515625,0.40625,-0.65625,-0.515625,0.25,0.515625,0.40625,86,95,16,33,26
42192,-0.65625,-0.515625,0.25,0.515625,0.40625,-0.65625,-0.515625,0.25,0.515625,0.40625,86,95,16,33,26
41680,-0.65625,-0.515625,0.25,0.515625,0.40625,-0.65625,-0.515625,0.25,0.515625,0.40625,86,95,16,33,26
41480,-0.65625,-0.515625,0.25,0.515625,0.40625,-0.65625,-0.515625,0.25,0.515625,0.40625,86,95,16,33,26
189200,-0.65625,-0.515625,0.25,0.515625,0.40625,-0.65625,-0.515625,0.25,0.515625,0.40625,86,95,16,33,26
188688,-0.65625,-0.515625,0.25,0.515625,0.40625,-0.65625,-0.515625,0.25,0.515625,0.40625,86,95,16,33,26
270680,-0.65625,-0.515625,0.25,0.515625,0.40625,-0.65625,-0.515625,0.25,0.515625,0.40625,86,95,16,33,26
271184,-0.65625,-0.515625,0.25,0.515625,0.40625,-0.65625,-0.515625,0.25,0.515625,0.40625,86,95,16,33,26
123272,-0.65625,-0.515625,0.25,0.515625,0.40625,-0.65625,-0.515625,0.25,0.515625,0.40625,86,95,16,33,26
124424,-0.65625,-0.515625,0.25,0.515625,0.40625,-0.65625,-0.515625,0.25,0.515625,0.40625,86,95,16,33,26
124680,-0.65625,-0.515625,0.25,0.515625,0.40625,-0.65625,-0.515625,0.25,0.515625,0.40625,86,95,16,33,26
42640,-0.65625,-0.515625,0.25,0.515625,0.40625,-0.65625,-0.515625,0.25,0.515625,0.40625,86,95,16,33,26
42376,-0.65625,-0.515625,0.25,0.515625,0.40625,-0.65625,-0.515625,0.25,0.515625,0.40625,86,95,16,33,26
42184,-0.65625,-0.515625,0.25,0.515625,0.40625,-0.65625,-0.515625,0.25,0.515625,0.40625,86,95,16,33,26
41928,-0.65625,-0.515625,0.25,0.515625,0.40625,-0.65625,-0.515625,0.25,0.515625,0.40625,86,95,16,33,26
41424,-0.65625,-0.515625,0.25,0.515625,0.40625,-0.65625,-0.515625,0.25,0.515625,0.40625,86,95,16,33,26
189448,-0.65625,-0.515625,0.25,0.515625,0.40625,-0.65625,-0.515625,0.25,0.515625,0.40625,86,95,16,33,26
188936,-0.65625,-0.515625,0.25,0.515625,0.40625,-0.65625,-0.515625,0.25,0.515625,0.40625,86,95,16,33,26
270424,-0.65625,-0.515625,0.25,0.515625,0.40625,-0.65625,-0.515625,0.25,0.515625,0.40625,86,95,16,33,26
270728,-0.65625,-0.515625,0.25,0.515625,0.40625,-0.65625,-0.515625,0.25,0.515625,0.40625,86,95,16,33,26
270984,-0.65625,-0.515625,0.25,0.515625,0.40625,-0.65625,-0.515625,0.25,0.515625,0.40625,86,95,16,33,26
271240,-0.65625,-0.515625,0.25,0.515625,0.40625,-0.65625,-0.515625,0.25,0.515625,0.40625,86,95,16,33,26
123016,-0.65625,-0.515625,0.25,0.515625,0.40625,-0.65625,-0.515625,0.25,0.515625,0.40625,86,95,16,33,26
123280,-0.65625,-0.515625,0.25,0.515625,0.40625,-0.65625,-0.515625,0.25,0.515625,0.40625,86,95,16,33,26
123536,-0.65625,-0.515625,0.25,0.515625,0.40625,-0.65625,-0.515625,0.25,0.515625,0.40625,86,95,16,33,26
124104,-0.65625,-0.515625,0.25,0.515625,0.40625,-0.65625,-0.515625,0.25,0.515625,0.40625,86,95,16,33,26
124688,-0.65625,-0.515625,0.25,0.515625,0.40625,-0.65625,-0.515625,0.25,0.515625,0.40625,86,95,16,33,26
42632,-0.65625,-0.515625,0.25,0.515625,0.40625,-0.65625,-0.515625,0.25,0.515625,0.40625,86,95,16,33,26
42120,-0.65625,-0.515625,0.25,0.515625,0.40625,-0.65625,-0.515625,0.25,0.515625,0.40625,86,95,16,33,26
41872,-0.65625,-0.515625,0.25,0.515625,0.40625,-0.65625,-0.515625,0.25,0.515625,0.40625,86,95,16,33,26
41672,-0.65625,-0.515625,0.25,0.515625,0.40625,-0.65625,-0.515625,0.25,0.515625,0.40625,86,95,16,33,26
41416,-0.65625,-0.515625,0.25,0.515625,0.40625,-0.65625,-0.515625,0.25,0.515625,0.40625,86,95,16,33,26
41168,-0.65625,-0.515625,0.25,0.515625,0.40625,-0.65625,-0.515625,0.25,0.515625,0.40625,86,95,16,33,26
189392,-0.65625,-0.515625,0.25,0.515625,0.40625,-0.65625,-0.515625,0.25,0.515625,0.40625,86,95,16,33,26
189152,-0.65625,-0.515625,0.25,0.515625,0.40625,-0.65625,-0.515625,0.25,0.515625,0.40625,86,95,16,33,26
188888,-0.65625,-0.515625,0.25,0.515625,0.40625,-0.65625,-0.515625,0.25,0.515625,0.40625,86,95,16,33,26
188680,-0.65625,-0.515625,0.25,0.515625,0.40625,-0.65625,-0.515625,0.25,0.515625,0.40625,86,95,16,33,26
270472,-0.65625,-0.515625,0.25,0.515625,0.40625,-0.65625,-0.515625,0.25,0.515625,0.40625,86,95,16,33,26
270744,-0.65625,-0.515625,0.25,0.515625,0.40625,-0.65625,-0.515625,0.25,0.515625,0.40625,86,95,16,33,26
270736,-0.65625,-0.515625,0.25,0.515625,0.40625,-0.65625,-0.515625,0.25,0.515625,0.40625,86,95,16,33,26
271000,-0.65625,-0.515625,0.25,0.515625,0.40625,-0.65625,-0.515625,0.25,0.515625,0.40625,86,95,16,33,26
270992,-0.65625,-0.515625,0.25,0.515625,0.40625,-0.65625,-0.515625,0.25,0.515625,0.40625,86,95,16,33,26
271248,-0.65625,-0.515625,0.25,0.515625,0.40625,-0.65625,-0.515625,0.25,0.515625,0.40625,86,95,16,33,26
123024,-0.65625,-0.515625,0.25,0.515625,0.40625,-0.65625,-0.515625,0.25,0.515625,0.40625,86,95,16,33,26
123344,-0.65625,-0.515625,0.25,0.515625,0.40625,-0.65625,-0.515625,0.25,0.515625,0.40625,86,95,16,33,26
123336,-0.65625,-0.515625,0.25,0.515625,0.40625,-0.65625,-0.515625,0.25,0.515625,0.40625,86,95,16,33,26
123592,-0.65625,-0.515625,0.25,0.515625,0.40625,-0.65625,-0.515625,0.25,0.515625,0.40625,86,95,16,33,26
123856,-0.65625,-0.515625,0.25,0.515625,0.40625,-0.65625,-0.515625,0.25,0.515625,0.40625,86,95,16,33,26
124168,-0.65625,-0.515625,0.25,0.515625,0.40625,-0.65625,-0.515625,0.25,0.515625,0.40625,86,95,16,33,26
132496,-0.65625,-0.515625,0.25,0.515625,0.40625,-0.65625,-0.515625,0.25,0.515625,0.40625,86,95,16,33,26
132488,-0.65625,-0.515625,0.25,0.515625,0.40625,-0.65625,-0.515625,0.25,0.515625,0.40625,86,95,16,33,26
132744,-0.65625,-0.515625,0.25,0.515625,0.40625,-0.65625,-0.515625,0.25,0.515625,0.40625,86,95,16,33,26
34568,-0.65625,-0.515625,0.25,0.515625,0.40625,-0.65625,-0.515625,0.25,0.515625,0.40625,86,95,16,33,26
34320,-0.65625,-0.515625,0.25,0.515625,0.40625,-0.65625,-0.515625,0.25,0.515625,0.40625,86,95,16,33,26
34328,-0.65625,-0.515625,0.25,0.515625,0.40625,-0.65625,-0.515625,0.25,0.515625,0.40625,86,95,16,33,26
42056,-0.65625,-0.515625,0.25,0.515625,0.40625,-0.65625,-0.515625,0.25,0.515625,0.40625,86,95,16,33,26
41864,-0.65625,-0.515625,0.25,0.515625,0.40625,-0.65625,-0.515625,0.25,0.515625,0.40625,86,95,16,33,26
41608,-0.65625,-0.515625,0.25,0.515625,0.40625,-0.65625,-0.515625,0.25,0.515625,0.40625,86,95,16,33,26
41360,-0.65625,-0.515625,0.25,0.515625,0.40625,-0.65625,-0.515625,0.25,0.515625,0.40625,86,95,16,33,26
41352,-0.65625,-0.515625,0.25,0.515625,0.40625,-0.65625,-0.515625,0.25,0.515625,0.40625,86,95,16,33,26
41160,-0.65625,-0.515625,0.25,0.515625,0.40625,-0.65625,-0.515625,0.25,0.515625,0.40625,86,95,16,33,26
189384,-0.65625,-0.515625,0.25,0.515625,0.40625,-0.65625,-0.515625,0.25,0.515625,0.40625,86,95,16,33,26
189136,-0.65625,-0.515625,0.25,0.515625,0.40625,-0.65625,-0.515625,0.25,0.515625,0.40625,86,95,16,33,26
189144,-0.65625,-0.515625,0.25,0.515625,0.40625,-0.65625,-0.515625,0.25,0.515625,0.40625,86,95,16,33,26
188880,-0.65625,-0.515625,0.25,0.515625,0.40625,-0.65625,-0.515625,0.25,0.515625,0.40625,86,95,16,33,26
188872,-0.65625,-0.515625,0.25,0.515625,0.40625,-0.65625,-0.515625,0.25,0.515625,0.40625,86,95,16,33,26
188632,-0.65625,-0.515625,0.25,0.515625,0.40625,-0.65625,-0.515625,0.25,0.515625,0.40625,86,95,16,33,26
270480,-0.65625,-0.515625,0.25,0.515625,0.40625,-0.65625,-0.515625,0.25,0.515625,0.40625,86,95,16,33,26
271008,-0.65625,-0.515625,0.25,0.515625,0.40625,-0.65625,-0.515625,0.25,0.515625,0.40625,86,95,16,33,26
271304,-0.65625,-0.515625,0.25,0.515625,0.40625,-0.65625,-0.515625,0.25,0.515625,0.40625,86,95,16,33,26
123080,-0.65625,-0.515625,0.25,0.515625,0.40625,-0.65625,-0.515625,0.25,0.515625,0.40625,86,95,16,33,26
123656,-0.65625,-0.515625,0.25,0.515625,0.40625,-0.65625,-0.515625,0.25,0.515625,0.40625,86,95,16,33,26
123912,-0.65625,-0.515625,0.25,0.515625,0.40625,-0.65625,-0.515625,0.25,0.515625,0.40625,86,95,16,33,26
132872,-0.65625,-0.515625,0.25,0.515625,0.40625,-0.65625,-0.515625,0.25,0.515625,0.40625,86,95,16,33,26
34448,-0.65625,-0.515625,0.25,0.515625,0.40625,-0.65625,-0.515625,0.25,0.515625,0.40625,86,95,16,33,26
41808,-0.65625,-0.515625,0.25,0.515625,0.40625,-0.65625,-0.515625,0.25,0.515625,0.40625,86,95,16,33,26
41552,-0.65625,-0.515625,0.25,0.515625,0.40625,-0.65625,-0.515625,0.25,0.515625,0.40625,86,95,16,33,26
41104,-0.65625,-0.515625,0.25,0.515625,0.40625,-0.65625,-0.515625,0.25,0.515625,0.40625,86,95,16,33,26
189328,-0.65625,-0.515625,0.25,0.515625,0.40625,-0.65625,-0.515625,0.25,0.515625,0.40625,86,95,16,33,26
189128,-0.65625,-0.515625,0.25,0.515625,0.40625,-0.65625,-0.515625,0.25,0.515625,0.40625,86,95,16,33,26
188624,-0.65625,-0.515625,0.25,0.515625,0.40625,-0.65625,-0.515625,0.25,0.515625,0.40625,86,95,16,33,26
271048,-0.65625,-0.515625,0.25,0.515625,0.40625,-0.65625,-0.515625,0.25,0.515625,0.40625,86,95,16,33,26
123088,-0.65625,-0.515625,0.25,0.515625,0.40625,-0.65625,-0.515625,0.25,0.515625,0.40625,86,95,16,33,26
123400,-0.65625,-0.515625,0.25,0.515625,0.40625,-0.65625,-0.515625,0.25,0.515625,0.40625,86,95,16,33,26
123920,-0.65625,-0.515625,0.25,0.515625,0.40625,-0.65625,-0.515625,0.25,0.515625,0.40625,86,95,16,33,26
131912,-0.65625,-0.515625,0.25,0.515625,0.40625,-0.65625,-0.515625,0.25,0.515625,0.40625,86,95,16,33,26
132168,-0.65625,-0.515625,0.25,0.515625,0.40625,-0.65625,-0.515625,0.25,0.515625,0.40625,86,95,16,33,26
132504,-0.65625,-0.515625,0.25,0.515625,0.40625,-0.65625,-0.515625,0.25,0.515625,0.40625,86,95,16,33,26
26376,-0.65625,-0.515625,0.25,0.515625,0.40625,-0.65625,-0.515625,0.25,0.515625,0.40625,86,95,16,33,26
34312,-0.65625,-0.515625,0.25,0.515625,0.40625,-0.65625,-0.515625,0.25,0.515625,0.40625,86,95,16,33,26
34056,-0.65625,-0.515625,0.25,0.515625,0.40625,-0.65625,-0.515625,0.25,0.515625,0.40625,86,95,16,33,26
33808,-0.65625,-0.515625,0.25,0.515625,0.40625,-0.65625,-0.515625,0.25,0.515625,0.40625,86,95,16,33,26
41800,-0.65625,-0.515625,0.25,0.515625,0.40625,-0.65625,-0.515625,0.25,0.515625,0.40625,86,95,16,33,26
41288,-0.65625,-0.515625,0.25,0.515625,0.40625,-0.65625,-0.515625,0.25,0.515625,0.40625,86,95,16,33,26
41096,-0.65625,-0.515625,0.25,0.515625,0.40625,-0.65625,-0.515625,0.25,0.515625,0.40625,86,95,16,33,26
189080,-0.65625,-0.515625,0.25,0.515625,0.40625,-0.65625,-0.515625,0.25,0.515625,0.40625,86,95,16,33,26
270488,-0.65625,-0.515625,0.25,0.515625,0.40625,-0.65625,-0.515625,0.25,0.515625,0.40625,86,95,16,33,26
270792,-0.65625,-0.515625,0.25,0.515625,0.40625,-0.65625,-0.515625,0.25,0.515625,0.40625,86,95,16,33,26
271056,-0.65625,-0.515625,0.25,0.515625,0.40625,-0.65625,-0.515625,0.25,0.515625,0.40625,86,95,16,33,26
271312,-0.65625,-0.515625,0.25,0.515625,0.40625,-0.65625,-0.515625,0.25,0.515625,0.40625,86,95,16,33,26
123664,-0.65625,-0.515625,0.25,0.515625,0.40625,-0.65625,-0.515625,0.25,0.515625,0.40625,86,95,16,33,26
132232,-0.65625,-0.515625,0.25,0.515625,0.40625,-0.65625,-0.515625,0.25,0.515625,0.40625,86,95,16,33,26
132616,-0.65625,-0.515625,0.25,0.515625,0.40625,-0.65625,-0.515625,0.25,0.515625,0.40625,86,95,16,33,26
132888,-0.65625,-0.515625,0.25,0.515625,0.40625,-0.65625,-0.515625,0.25,0.515625,0.40625,86,95,16,33,26
140936,-0.65625,-0.515625,0.25,0.515625,0.40625,-0.65625,-0.515625,0.25,0.515625,0.40625,86,95,16,33,26
34440,-0.65625,-0.515625,0.25,0.515625,0.40625,-0.65625,-0.515625,0.25,0.515625,0.40625,86,95,16,33,26
34192,-0.65625,-0.515625,0.25,0.515625,0.40625,-0.65625,-0.515625,0.25,0.515625,0.40625,86,95,16,33,26
33992,-0.65625,-0.515625,0.25,0.515625,0.40625,-0.65625,-0.515625,0.25,0.515625,0.40625,86,95,16,33,26
41544,-0.65625,-0.515625,0.25,0.515625,0.40625,-0.65625,-0.515625,0.25,0.515625,0.40625,86,95,16,33,26
189320,-0.65625,-0.515625,0.25,0.515625,0.40625,-0.65625,-0.515625,0.25,0.515625,0.40625,86,95,16,33,26
189072,-0.65625,-0.515625,0.25,0.515625,0.40625,-0.65625,-0.515625,0.25,0.515625,0.40625,86,95,16,33,26
188816,-0.65625,-0.515625,0.25,0.515625,0.40625,-0.65625,-0.515625,0.25,0.515625,0.40625,86,95,16,33,26
188616,-0.65625,-0.515625,0.25,0.515625,0.40625,-0.65625,-0.515625,0.25,0.515625,0.40625,86,95,16,33,26
270536,-0.65625,-0.515625,0.25,0.515625,0.40625,-0.65625,-0.515625,0.25,0.515625,0.40625,86,95,16,33,26
123144,-0.65625,-0.515625,0.25,0.515625,0.40625,-0.65625,-0.515625,0.25,0.515625,0.40625,86,95,16,33,26
131920,-0.65625,-0.515625,0.25,0.515625,0.40625,-0.65625,-0.515625,0.25,0.515625,0.40625,86,95,16,33,26
26264,-0.65625,-0.515625,0.25,0.515625,0.40625,-0.65625,-0.515625,0.25,0.515625,0.40625,86,95,16,33,26
33800,-0.65625,-0.515625,0.25,0.515625,0.40625,-0.65625,-0.515625,0.25,0.515625,0.40625,86,95,16,33,26
41048,-0.65625,-0.515625,0.25,0.515625,0.40625,-0.65625,-0.515625,0.25,0.515625,0.40625,86,95,16,33,26
188560,-0.65625,-0.515625,0.25,0.515625,0.40625,-0.65625,-0.515625,0.25,0.515625,0.40625,86,95,16,33,26
270544,-0.65625,-0.515625,0.25,0.515625,0.40625,-0.65625,-0.515625,0.25,0.515625,0.40625,86,95,16,33,26
270800,-0.65625,-0.515625,0.25,0.515625,0.40625,-0.65625,-0.515625,0.25,0.515625,0.40625,86,95,16,33,26
271064,-0.65625,-0.515625,0.25,0.515625,0.40625,-0.65625,-0.515625,0.25,0.515625,0.40625,86,95,16,33,26
271112,-0.65625,-0.515625,0.25,0.515625,0.40625,-0.65625,-0.515625,0.25,0.515625,0.40625,86,95,16,33,26
271368,-0.65625,-0.515625,0.25,0.515625,0.40625,-0.65625,-0.515625,0.25,0.515625,0.40625,86,95,16,33,26
123152,-0.65625,-0.515625,0.25,0.515625,0.40625,-0.65625,-0.515625,0.25,0.515625,0.40625,86,95,16,33,26
131408,-0.65625,-0.515625,0.25,0.515625,0.40625,-0.65625,-0.515625,0.25,0.515625,0.40625,86,95,16,33,26
131664,-0.65625,-0.515625,0.25,0.515625,0.40625,-0.65625,-0.515625,0.25,0.515625,0.40625,86,95,16,33,26
131656,-0.65625,-0.515625,0.25,0.515625,0.40625,-0.65625,-0.515625,0.25,0.515625,0.40625,86,95,16,33,26
131976,-0.65625,-0.515625,0.25,0.515625,0.40625,-0.65625,-0.515625,0.25,0.515625,0.40625,86,95,16,33,26
132296,-0.65625,-0.515625,0.25,0.515625,0.40625,-0.65625,-0.515625,0.25,0.515625,0.40625,86,95,16,33,26
132360,-0.65625,-0.515625,0.25,0.515625,0.40625,-0.65625,-0.515625,0.25,0.515625,0.40625,86,95,16,33,26
140688,-0.65625,-0.515625,0.25,0.515625,0.40625,-0.65625,-0.515625,0.25,0.515625,0.40625,86,95,16,33,26
141072,-0.65625,-0.515625,0.25,0.515625,0.40625,-0.65625,-0.515625,0.25,0.515625,0.40625,86,95,16,33,26
149128,-0.65625,-0.515625,0.25,0.515625,0.40625,-0.65625,-0.515625,0.25,0.515625,0.40625,86,95,16,33,26
18184,-0.65625,-0.515625,0.25,0.515625,0.40625,-0.65625,-0.515625,0.25,0.515625,0.40625,86,95,16,33,26
26256,-0.65625,-0.515625,0.25,0.515625,0.40625,-0.65625,-0.515625,0.25,0.515625,0.40625,86,95,16,33,26
26128,-0.65625,-0.515625,0.25,0.515625,0.40625,-0.65625,-0.515625,0.25,0.515625,0.40625,86,95,16,33,26
34184,-0.65625,-0.515625,0.25,0.515625,0.40625,-0.65625,-0.515625,0.25,0.515625,0.40625,86,95,16,33,26
33864,-0.65625,-0.515625,0.25,0.515625,0.40625,-0.65625,-0.515625,0.25,0.515625,0.40625,86,95,16,33,26
33928,-0.65625,-0.515625,0.25,0.515625,0.40625,-0.65625,-0.515625,0.25,0.515625,0.40625,86,95,16,33,26
33736,-0.65625,-0.515625,0.25,0.515625,0.40625,-0.65625,-0.515625,0.25,0.515625,0.40625,86,95,16,33,26
33552,-0.65625,-0.515625,0.25,0.515625,0.40625,-0.65625,-0.515625,0.25,0.515625,0.40625,86,95,16,33,26
33544,-0.65625,-0.515625,0.25,0.515625,0.40625,-0.65625,-0.515625,0.25,0.515625,0.40625,86,95,16,33,26
33296,-0.65625,-0.515625,0.25,0.515625,0.40625,-0.65625,-0.515625,0.25,0.515625,0.40625,86,95,16,33,26
41040,-0.65625,-0.515625,0.25,0.515625,0.40625,-0.65625,-0.515625,0.25,0.515625,0.40625,86,95,16,33,26
189264,-0.65625,-0.515625,0.25,0.515625,0.40625,-0.65625,-0.515625,0.25,0.515625,0.40625,86,95,16,33,26
189016,-0.65625,-0.515625,0.25,0.515625,0.40625,-0.65625,-0.515625,0.25,0.515625,0.40625,86,95,16,33,26
189064,-0.65625,-0.515625,0.25,0.515625,0.40625,-0.65625,-0.515625,0.25,0.515625,0.40625,86,95,16,33,26
188808,-0.65625,-0.515625,0.25,0.515625,0.40625,-0.65625,-0.515625,0.25,0.515625,0.40625,86,95,16,33,26
188552,-0.65625,-0.515625,0.25,0.515625,0.40625,-0.65625,-0.515625,0.25,0.515625,0.40625,86,95,16,33,26
271376,-0.65625,-0.515625,0.25,0.515625,0.40625,-0.65625,-0.515625,0.25,0.515625,0.40625,86,95,16,33,26
123160,-0.65625,-0.515625,0.25,0.515625,0.40625,-0.65625,-0.515625,0.25,0.515625,0.40625,86,95,16,33,26
131144,-0.65625,-0.515625,0.25,0.515625,0.40625,-0.65625,-0.515625,0.25,0.515625,0.40625,86,95,16,33,26
131400,-0.65625,-0.515625,0.25,0.515625,0.40625,-0.65625,-0.515625,0.25,0.515625,0.40625,86,95,16,33,26
132040,-0.65625,-0.515625,0.25,0.515625,0.40625,-0.65625,-0.515625,0.25,0.515625,0.40625,86,95,16,33,26
140360,-0.65625,-0.515625,0.25,0.515625,0.40625,-0.65625,-0.515625,0.25,0.515625,0.40625,86,95,16,33,26
140680,-0.65625,-0.515625,0.25,0.515625,0.40625,-0.65625,-0.515625,0.25,0.515625,0.40625,86,95,16,33,26
141064,-0.65625,-0.515625,0.25,0.515625,0.40625,-0.65625,-0.515625,0.25,0.515625,0.40625,86,95,16,33,26
149264,-0.65625,-0.515625,0.25,0.515625,0.40625,-0.65625,-0.515625,0.25,0.515625,0.40625,86,95,16,33,26
9872,-0.65625,-0.515625,0.25,0.515625,0.40625,-0.65625,-0.515625,0.25,0.515625,0.40625,86,95,16,33,26
10000,-0.65625,-0.515625,0.25,0.515625,0.40625,-0.65625,-0.515625,0.25,0.515625,0.40625,86,95,16,33,26
18064,-0.65625,-0.515625,0.25,0.515625,0.40625,-0.65625,-0.515625,0.25,0.515625,0.40625,86,95,16,33,26
26248,-0.65625,-0.515625,0.25,0.515625,0.40625,-0.65625,-0.515625,0.25,0.515625,0.40625,86,95,16,33,26
33680,-0.65625,-0.515625,0.25,0.515625,0.40625,-0.65625,-0.515625,0.25,0.515625,0.40625,86,95,16,33,26
33288,-0.65625,-0.515625,0.25,0.515625,0.40625,-0.65625,-0.515625,0.25,0.515625,0.40625,86,95,16,33,26
33040,-0.65625,-0.515625,0.25,0.515625,0.40625,-0.65625,-0.515625,0.25,0.515625,0.40625,86,95,16,33,26
41032,-0.65625,-0.515625,0.25,0.515625,0.40625,-0.65625,-0.515625,0.25,0.515625,0.40625,86,95,16,33,26
189256,-0.65625,-0.515625,0.25,0.515625,0.40625,-0.65625,-0.515625,0.25,0.515625,0.40625,86,95,16,33,26
270600,-0.65625,-0.515625,0.25,0.515625,0.40625,-0.65625,-0.515625,0.25,0.515625,0.40625,86,95,16,33,26
270856,-0.65625,-0.515625,0.25,0.515625,0.40625,-0.65625,-0.515625,0.25,0.515625,0.40625,86,95,16,33,26
271128,-0.65625,-0.515625,0.25,0.515625,0.40625,-0.65625,-0.515625,0.25,0.515625,0.40625,86,95,16,33,26
271120,-0.65625,-0.515625,0.25,0.515625,0.40625,-0.65625,-0.515625,0.25,0.515625,0.40625,86,95,16,33,26
279368,-0.65625,-0.515625,0.25,0.515625,0.40625,-0.65625,-0.515625,0.25,0.515625,0.40625,86,95,16,33,26
131464,-0.65625,-0.515625,0.25,0.515625,0.40625,-0.65625,-0.515625,0.25,0.515625,0.40625,86,95,16,33,26
131720,-0.65625,-0.515625,0.25,0.515625,0.40625,-0.65625,-0.515625,0.25,0.515625,0.40625,86,95,16,33,26
132048,-0.65625,-0.515625,0.25,0.515625,0.40625,-0.65625,-0.515625,0.25,0.515625,0.40625,86,95,16,33,26
140368,-0.65625,-0.515625,0.25,0.515625,0.40625,-0.65625,-0.515625,0.25,0.515625,0.40625,86,95,16,33,26
140816,-0.65625,-0.515625,0.25,0.515625,0.40625,-0.65625,-0.515625,0.25,0.515625,0.40625,86,95,16,33,26
140808,-0.65625,-0.515625,0.25,0.515625,0.40625,-0.65625,-0.515625,0.25,0.515625,0.40625,86,95,16,33,26
149256,-0.65625,-0.515625,0.25,0.515625,0.40625,-0.65625,-0.515625,0.25,0.515625,0.40625,86,95,16,33,26
18056,-0.65625,-0.515625,0.25,0.515625,0.40625,-0.65625,-0.515625,0.25,0.515625,0.40625,86,95,16,33,26
25992,-0.65625,-0.515625,0.25,0.515625,0.40625,-0.65625,-0.515625,0.25,0.515625,0.40625,86,95,16,33,26
26120,-0.65625,-0.515625,0.25,0.515625,0.40625,-0.65625,-0.515625,0.25,0.515625,0.40625,86,95,16,33,26
25872,-0.65625,-0.515625,0.25,0.515625,0.40625,-0.65625,-0.515625,0.25,0.515625,0.40625,86,95,16,33,26
25864,-0.65625,-0.515625,0.25,0.515625,0.40625,-0.65625,-0.515625,0.25,0.515625,0.40625,86,95,16,33,26
33672,-0.65625,-0.515625,0.25,0.515625,0.40625,-0.65625,-0.515625,0.25,0.515625,0.40625,86,95,16,33,26
33480,-0.65625,-0.515625,0.25,0.515625,0.40625,-0.65625,-0.515625,0.25,0.515625,0.40625,86,95,16,33,26
33232,-0.65625,-0.515625,0.25,0.515625,0.40625,-0.65625,-0.515625,0.25,0.515625,0.40625,86,95,16,33,26
181272,-0.65625,-0.515625,0.25,0.515625,0.40625,-0.65625,-0.515625,0.25,0.515625,0.40625,86,95,16,33,26
189008,-0.65625,-0.515625,0.25,0.515625,0.40625,-0.65625,-0.515625,0.25,0.515625,0.40625,86,95,16,33,26
189000,-0.65625,-0.515625,0.25,0.515625,0.40625,-0.65625,-0.515625,0.25,0.515625,0.40625,86,95,16,33,26
188760,-0.65625,-0.515625,0.25,0.515625,0.40625,-0.65625,-0.515625,0.25,0.515625,0.40625,86,95,16,33,26
188488,-0.65625,-0.515625,0.25,0.515625,0.40625,-0.65625,-0.515625,0.25,0.515625,0.40625,86,95,16,33,26
270864,-0.65625,-0.515625,0.25,0.515625,0.40625,-0.65625,-0.515625,0.25,0.515625,0.40625,86,95,16,33,26
279376,-0.65625,-0.515625,0.25,0.515625,0.40625,-0.65625,-0.515625,0.25,0.515625,0.40625,86,95,16,33,26
131152,-0.65625,-0.515625,0.25,0.515625,0.40625,-0.65625,-0.515625,0.25,0.515625,0.40625,86,95,16,33,26
131784,-0.65625,-0.515625,0.25,0.515625,0.40625,-0.65625,-0.515625,0.25,0.515625,0.40625,86,95,16,33,26
132104,-0.65625,-0.515625,0.25,0.515625,0.40625,-0.65625,-0.515625,0.25,0.515625,0.40625,86,95,16,33,26
