stripid,w1,w2,w3,w4,w5,w1c,w2c,w3c,w4c,w5c,encw1,encw2,encw3,encw4,encw5
8264,-0.733557,-0.464592,0.340183,0.515206,0.34276,-0.734375,-0.46875,0.34375,0.515625,0.34375,81,98,22,33,22
8272,-0.738912,-0.461659,0.345876,0.516301,0.338393,-0.734375,-0.46875,0.34375,0.515625,0.34375,81,98,22,33,22
8328,-0.736655,-0.46291,0.337252,0.517243,0.34507,-0.734375,-0.46875,0.34375,0.515625,0.34375,81,98,22,33,22
8336,-0.700964,-0.483514,0.311464,0.51291,0.360104,-0.703125,-0.484375,0.3125,0.515625,0.359375,83,97,20,33,23
8392,-0.737085,-0.460029,0.334478,0.512164,0.350471,-0.734375,-0.453125,0.328125,0.515625,0.34375,81,99,21,33,22
8400,-0.710997,-0.477124,0.326539,0.510621,0.350961,-0.703125,-0.484375,0.328125,0.515625,0.34375,83,97,21,33,22
8456,-0.676238,-0.497506,0.30384,0.509637,0.360267,-0.671875,-0.5,0.296875,0.515625,0.359375,85,96,19,33,23
8464,-0.738706,-0.459143,0.335941,0.512473,0.349434,-0.734375,-0.453125,0.328125,0.515625,0.34375,81,99,21,33,22
8520,-0.735602,-0.462637,0.340568,0.514698,0.342973,-0.734375,-0.46875,0.34375,0.515625,0.34375,81,98,22,33,22
8528,-0.756781,-0.448616,0.35861,0.514821,0.331966,-0.75,-0.453125,0.359375,0.515625,0.328125,80,99,23,33,21
8584,-0.729259,-0.46775,0.339815,0.515365,0.341829,-0.734375,-0.46875,0.34375,0.515625,0.34375,81,98,22,33,22
8592,-0.763227,-0.444123,0.359855,0.515283,0.332212,-0.765625,-0.4375,0.359375,0.515625,0.328125,79,100,23,33,21
8600,-0.716604,-0.475015,0.335115,0.51271,0.343793,-0.71875,-0.46875,0.328125,0.515625,0.34375,82,98,21,33,22
8648,-0.715677,-0.472701,0.320845,0.509244,0.35829,-0.71875,-0.46875,0.3125,0.515625,0.359375,82,98,20,33,23
8656,-0.76936,-0.437359,0.361831,0.511028,0.33386,-0.765625,-0.4375,0.359375,0.515625,0.328125,79,100,23,33,21
8664,-0.711114,-0.478882,0.334989,0.512444,0.342564,-0.703125,-0.484375,0.328125,0.515625,0.34375,83,97,21,33,22
8712,-0.749614,-0.451895,0.344232,0.513028,0.344249,-0.75,-0.453125,0.34375,0.515625,0.34375,80,99,22,33,22
8720,-0.743754,-0.457464,0.353037,0.514174,0.334008,-0.75,-0.453125,0.359375,0.515625,0.328125,80,99,23,33,21
8776,-0.727282,-0.466774,0.336137,0.511085,0.346834,-0.734375,-0.46875,0.34375,0.515625,0.34375,81,98,22,33,22
8784,-0.76527,-0.442564,0.365901,0.514701,0.327232,-0.765625,-0.4375,0.359375,0.515625,0.328125,79,100,23,33,21
8840,-0.753316,-0.45123,0.360813,0.514489,0.329243,-0.75,-0.453125,0.359375,0.515625,0.328125,80,99,23,33,21
8904,-0.756727,-0.447296,0.3595,0.511121,0.333402,-0.75,-0.453125,0.359375,0.515625,0.328125,80,99,23,33,21
8968,-0.739996,-0.461043,0.358304,0.514069,0.328665,-0.734375,-0.46875,0.359375,0.515625,0.328125,81,98,23,33,21
8976,-0.771797,-0.437903,0.370533,0.514336,0.32483,-0.78125,-0.4375,0.375,0.515625,0.328125,78,100,24,33,21
9032,-0.716413,-0.476269,0.344542,0.512629,0.33551,-0.71875,-0.46875,0.34375,0.515625,0.328125,82,98,22,33,21
9096,-0.736577,-0.462911,0.354248,0.513399,0.331841,-0.734375,-0.46875,0.359375,0.515625,0.328125,81,98,23,33,21
9160,-0.702368,-0.485149,0.334064,0.513277,0.340176,-0.703125,-0.484375,0.328125,0.515625,0.34375,83,97,21,33,22
9224,-0.733515,-0.464284,0.348619,0.512583,0.336596,-0.734375,-0.46875,0.34375,0.515625,0.34375,81,98,22,33,22
9288,-0.78151,-0.4302,0.37315,0.514315,0.324245,-0.78125,-0.4375,0.375,0.515625,0.328125,78,100,24,33,21
9296,-0.790045,-0.425622,0.39419,0.515331,0.306147,-0.796875,-0.421875,0.390625,0.515625,0.3125,77,101,25,33,20
9352,-0.760504,-0.448369,0.372447,0.51713,0.319296,-0.765625,-0.453125,0.375,0.515625,0.328125,79,99,24,33,21
9360,-0.765372,-0.442461,0.369933,0.51308,0.32482,-0.765625,-0.4375,0.359375,0.515625,0.328125,79,100,23,33,21
9416,-0.766829,-0.442395,0.375593,0.514388,0.319242,-0.765625,-0.4375,0.375,0.515625,0.3125,79,100,24,33,20
9424,-0.761238,-0.444777,0.371041,0.5109,0.324074,-0.765625,-0.453125,0.375,0.515625,0.328125,79,99,24,33,21
9480,-0.771614,-0.437735,0.375946,0.512755,0.320647,-0.765625,-0.4375,0.375,0.515625,0.3125,79,100,24,33,20
9488,-0.798528,-0.416925,0.393001,0.512677,0.309776,-0.796875,-0.421875,0.390625,0.515625,0.3125,77,101,25,33,20
9608,-0.79056,-0.422525,0.380827,0.512389,0.319869,-0.796875,-0.421875,0.375,0.515625,0.328125,77,101,24,33,21
9736,-0.810039,-0.409813,0.409004,0.515391,0.295457,-0.8125,-0.40625,0.40625,0.515625,0.296875,76,102,26,33,19
9864,-0.781997,-0.431981,0.387993,0.516067,0.309918,-0.78125,-0.4375,0.390625,0.515625,0.3125,78,100,25,33,20
9872,-0.809454,-0.408198,0.399894,0.512473,0.305286,-0.8125,-0.40625,0.40625,0.515625,0.296875,76,102,26,33,19
9992,-0.789908,-0.423489,0.380182,0.513401,0.319814,-0.796875,-0.421875,0.375,0.515625,0.328125,77,101,24,33,21
10000,-0.810637,-0.40898,0.401515,0.516324,0.301778,-0.8125,-0.40625,0.40625,0.515625,0.296875,76,102,26,33,19
16456,-0.706709,-0.481092,0.332443,0.511513,0.343845,-0.703125,-0.484375,0.328125,0.515625,0.34375,83,97,21,33,22
16464,-0.720965,-0.470477,0.32909,0.510767,0.351585,-0.71875,-0.46875,0.328125,0.515625,0.34375,82,98,21,33,22
16520,-0.715969,-0.476042,0.330217,0.514765,0.34703,-0.71875,-0.46875,0.328125,0.515625,0.34375,82,98,21,33,22
16528,-0.692757,-0.488462,0.312079,0.511784,0.357355,-0.703125,-0.484375,0.3125,0.515625,0.359375,83,97,20,33,23
16536,-0.724437,-0.470922,0.334752,0.515763,0.344844,-0.71875,-0.46875,0.328125,0.515625,0.34375,82,98,21,33,22
16584,-0.696768,-0.485664,0.311891,0.511588,0.358953,-0.703125,-0.484375,0.3125,0.515625,0.359375,83,97,20,33,23
16592,-0.73784,-0.461695,0.347728,0.514373,0.337434,-0.734375,-0.46875,0.34375,0.515625,0.34375,81,98,22,33,22
16648,-0.738531,-0.460143,0.338019,0.513917,0.346739,-0.734375,-0.46875,0.34375,0.515625,0.34375,81,98,22,33,22
16656,-0.688041,-0.491484,0.309467,0.511902,0.358155,-0.6875,-0.5,0.3125,0.515625,0.359375,84,96,20,33,23
16712,-0.721563,-0.471067,0.329303,0.512696,0.350631,-0.71875,-0.46875,0.328125,0.515625,0.34375,82,98,21,33,22
16720,-0.694141,-0.48741,0.318134,0.509924,0.353492,-0.703125,-0.484375,0.3125,0.515625,0.359375,83,97,20,33,23
16776,-0.719058,-0.474334,0.33682,0.514805,0.341767,-0.71875,-0.46875,0.328125,0.515625,0.34375,82,98,21,33,22
16840,-0.698681,-0.485432,0.319869,0.511908,0.352336,-0.703125,-0.484375,0.3125,0.515625,0.359375,83,97,20,33,23
16848,-0.713276,-0.475586,0.329784,0.509664,0.349414,-0.71875,-0.46875,0.328125,0.515625,0.34375,82,98,21,33,22
16904,-0.72023,-0.470771,0.331922,0.509884,0.349195,-0.71875,-0.46875,0.328125,0.515625,0.34375,82,98,21,33,22
16912,-0.74016,-0.461342,0.359408,0.514917,0.327176,-0.734375,-0.46875,0.359375,0.515625,0.328125,81,98,23,33,21
16968,-0.730577,-0.465679,0.341218,0.512696,0.342342,-0.734375,-0.46875,0.34375,0.515625,0.34375,81,98,22,33,22
17032,-0.706712,-0.48071,0.325499,0.512659,0.349263,-0.703125,-0.484375,0.328125,0.515625,0.34375,83,97,21,33,22
17040,-0.741173,-0.458745,0.346906,0.513349,0.339663,-0.75,-0.453125,0.34375,0.515625,0.34375,80,99,22,33,22
17096,-0.738635,-0.461044,0.347127,0.513877,0.338676,-0.734375,-0.46875,0.34375,0.515625,0.34375,81,98,22,33,22
17104,-0.704399,-0.481733,0.326543,0.510386,0.349202,-0.703125,-0.484375,0.328125,0.515625,0.34375,83,97,21,33,22
17160,-0.731275,-0.467207,0.347983,0.515357,0.335143,-0.734375,-0.46875,0.34375,0.515625,0.34375,81,98,22,33,22
17224,-0.775535,-0.437415,0.384646,0.517003,0.311302,-0.78125,-0.4375,0.390625,0.515625,0.3125,78,100,25,33,20
17232,-0.725452,-0.47158,0.352863,0.515058,0.329111,-0.734375,-0.46875,0.359375,0.515625,0.328125,81,98,23,33,21
17288,-0.726042,-0.470581,0.345761,0.515522,0.33534,-0.71875,-0.46875,0.34375,0.515625,0.328125,82,98,22,33,21
17296,-0.754712,-0.45017,0.371086,0.511836,0.32196,-0.75,-0.453125,0.375,0.515625,0.3125,80,99,24,33,20
17352,-0.75102,-0.453616,0.361986,0.515083,0.327567,-0.75,-0.453125,0.359375,0.515625,0.328125,80,99,23,33,21
17360,-0.782642,-0.430969,0.384004,0.516354,0.313254,-0.78125,-0.4375,0.390625,0.515625,0.3125,78,100,25,33,20
17416,-0.75518,-0.450003,0.364729,0.513897,0.326558,-0.75,-0.453125,0.359375,0.515625,0.328125,80,99,23,33,21
17480,-0.762776,-0.444755,0.369667,0.514067,0.323798,-0.765625,-0.453125,0.375,0.515625,0.328125,79,99,24,33,21
17544,-0.751799,-0.453066,0.367886,0.513747,0.323232,-0.75,-0.453125,0.359375,0.515625,0.328125,80,99,23,33,21
17608,-0.772881,-0.437723,0.3822,0.513681,0.314724,-0.765625,-0.4375,0.375,0.515625,0.3125,79,100,24,33,20
17672,-0.757557,-0.447022,0.362108,0.511912,0.33056,-0.75,-0.453125,0.359375,0.515625,0.328125,80,99,23,33,21
17800,-0.805883,-0.412219,0.401398,0.514649,0.302055,-0.8125,-0.40625,0.40625,0.515625,0.296875,76,102,26,33,19
17928,-0.786222,-0.42643,0.379875,0.513235,0.319542,-0.78125,-0.421875,0.375,0.515625,0.3125,78,101,24,33,20
17936,-0.800274,-0.415751,0.390581,0.513593,0.311852,-0.796875,-0.421875,0.390625,0.515625,0.3125,77,101,25,33,20
17944,-0.814329,-0.404183,0.391854,0.51631,0.310346,-0.8125,-0.40625,0.390625,0.515625,0.3125,76,102,25,33,20
18056,-0.809413,-0.41084,0.402761,0.518099,0.299393,-0.8125,-0.40625,0.40625,0.515625,0.296875,76,102,26,33,19
18064,-0.824454,-0.394493,0.400824,0.512547,0.305576,-0.828125,-0.390625,0.40625,0.515625,0.296875,75,103,26,33,19
18184,-0.869164,-0.352796,0.425832,0.511449,0.284679,-0.875,-0.34375,0.421875,0.515625,0.28125,72,106,27,33,18
24648,-0.717237,-0.475227,0.332582,0.514763,0.345118,-0.71875,-0.46875,0.328125,0.515625,0.34375,82,98,21,33,22
24656,-0.711205,-0.478997,0.324219,0.515424,0.350559,-0.703125,-0.484375,0.328125,0.515625,0.34375,83,97,21,33,22
24712,-0.71801,-0.473162,0.328062,0.512294,0.350816,-0.71875,-0.46875,0.328125,0.515625,0.34375,82,98,21,33,22
24720,-0.743861,-0.459007,0.353613,0.516735,0.33252,-0.75,-0.453125,0.359375,0.515625,0.328125,80,99,23,33,21
24776,-0.74946,-0.45438,0.356161,0.515493,0.332186,-0.75,-0.453125,0.359375,0.515625,0.328125,80,99,23,33,21
24784,-0.687113,-0.491483,0.307092,0.511402,0.360102,-0.6875,-0.5,0.3125,0.515625,0.359375,84,96,20,33,23
24840,-0.706484,-0.481819,0.328445,0.513634,0.346224,-0.703125,-0.484375,0.328125,0.515625,0.34375,83,97,21,33,22
24848,-0.710921,-0.478503,0.327344,0.513953,0.348126,-0.703125,-0.484375,0.328125,0.515625,0.34375,83,97,21,33,22
24904,-0.736392,-0.464234,0.348532,0.517033,0.335061,-0.734375,-0.46875,0.34375,0.515625,0.34375,81,98,22,33,22
24968,-0.747018,-0.456726,0.360062,0.515798,0.327885,-0.75,-0.453125,0.359375,0.515625,0.328125,80,99,23,33,21
24976,-0.708636,-0.480797,0.331928,0.513733,0.343772,-0.703125,-0.484375,0.328125,0.515625,0.34375,83,97,21,33,22
25032,-0.711803,-0.476846,0.326785,0.510988,0.350876,-0.71875,-0.46875,0.328125,0.515625,0.34375,82,98,21,33,22
25040,-0.72677,-0.468855,0.34544,0.513058,0.337126,-0.734375,-0.46875,0.34375,0.515625,0.34375,81,98,22,33,22
25096,-0.743243,-0.45762,0.35092,0.5137,0.336242,-0.75,-0.453125,0.34375,0.515625,0.34375,80,99,22,33,22
25160,-0.730035,-0.46767,0.344137,0.515487,0.33808,-0.734375,-0.46875,0.34375,0.515625,0.34375,81,98,22,33,22
25168,-0.718416,-0.472908,0.337721,0.510103,0.343501,-0.71875,-0.46875,0.328125,0.515625,0.34375,82,98,21,33,22
25224,-0.726261,-0.469587,0.345154,0.513536,0.337158,-0.734375,-0.46875,0.34375,0.515625,0.34375,81,98,22,33,22
25232,-0.766563,-0.442433,0.371072,0.516043,0.321881,-0.765625,-0.4375,0.375,0.515625,0.3125,79,100,24,33,20
25288,-0.749207,-0.455769,0.367787,0.515499,0.32169,-0.75,-0.453125,0.359375,0.515625,0.328125,80,99,23,33,21
25296,-0.727278,-0.469146,0.349593,0.512948,0.333884,-0.71875,-0.46875,0.34375,0.515625,0.328125,82,98,22,33,21
25352,-0.727143,-0.469153,0.341439,0.51461,0.340246,-0.734375,-0.46875,0.34375,0.515625,0.34375,81,98,22,33,22
25360,-0.73084,-0.466572,0.34717,0.51389,0.336352,-0.734375,-0.46875,0.34375,0.515625,0.34375,81,98,22,33,22
25416,-0.757169,-0.448089,0.359567,0.514709,0.330982,-0.75,-0.453125,0.359375,0.515625,0.328125,80,99,23,33,21
25424,-0.710253,-0.479936,0.3424,0.511946,0.335843,-0.703125,-0.484375,0.34375,0.515625,0.328125,83,97,22,33,21
25480,-0.735611,-0.464075,0.356473,0.513784,0.329429,-0.734375,-0.46875,0.359375,0.515625,0.328125,81,98,23,33,21
25544,-0.753305,-0.45261,0.36701,0.515392,0.323513,-0.75,-0.453125,0.359375,0.515625,0.328125,80,99,23,33,21
25552,-0.752861,-0.450318,0.362624,0.510705,0.32985,-0.75,-0.453125,0.359375,0.515625,0.328125,80,99,23,33,21
25608,-0.780763,-0.432411,0.384032,0.516003,0.313139,-0.78125,-0.4375,0.390625,0.515625,0.3125,78,100,25,33,20
25672,-0.742899,-0.457203,0.357156,0.510388,0.332557,-0.75,-0.453125,0.359375,0.515625,0.328125,80,99,23,33,21
25736,-0.771286,-0.437627,0.372442,0.512486,0.323984,-0.78125,-0.4375,0.375,0.515625,0.328125,78,100,24,33,21
25800,-0.768655,-0.441105,0.379202,0.514624,0.315934,-0.765625,-0.4375,0.375,0.515625,0.3125,79,100,24,33,20
25808,-0.776617,-0.434349,0.374516,0.514145,0.322305,-0.78125,-0.4375,0.375,0.515625,0.328125,78,100,24,33,21
25864,-0.742834,-0.457957,0.373685,0.509332,0.317774,-0.75,-0.453125,0.375,0.515625,0.3125,80,99,24,33,20
25872,-0.806272,-0.412452,0.402637,0.515783,0.300303,-0.8125,-0.40625,0.40625,0.515625,0.296875,76,102,26,33,19
25992,-0.846546,-0.374285,0.413221,0.512171,0.295439,-0.84375,-0.375,0.40625,0.515625,0.296875,74,104,26,33,19
26120,-0.794291,-0.421358,0.387592,0.515356,0.312701,-0.796875,-0.421875,0.390625,0.515625,0.3125,77,101,25,33,20
26128,-0.823747,-0.397956,0.410238,0.516212,0.295253,-0.828125,-0.390625,0.40625,0.515625,0.296875,75,103,26,33,19
26248,-0.847418,-0.372682,0.411169,0.51197,0.296961,-0.84375,-0.375,0.40625,0.515625,0.296875,74,104,26,33,19
26256,-0.89172,-0.330759,0.456486,0.511543,0.25445,-0.890625,-0.328125,0.453125,0.515625,0.25,71,107,29,33,16
26264,-0.700689,-0.483245,0.310899,0.511864,0.361171,-0.703125,-0.484375,0.3125,0.515625,0.359375,83,97,20,33,23
26376,-0.725683,-0.466707,0.323034,0.511224,0.358132,-0.734375,-0.46875,0.328125,0.515625,0.359375,81,98,21,33,23
32840,-0.716859,-0.472767,0.329569,0.50919,0.350866,-0.71875,-0.46875,0.328125,0.515625,0.34375,82,98,21,33,22
32848,-0.727429,-0.46702,0.334479,0.512199,0.34777,-0.71875,-0.46875,0.328125,0.515625,0.34375,82,98,21,33,22
32904,-0.718649,-0.472692,0.32784,0.512337,0.351163,-0.71875,-0.46875,0.328125,0.515625,0.34375,82,98,21,33,22
32912,-0.725178,-0.468043,0.341526,0.510896,0.340799,-0.734375,-0.46875,0.34375,0.515625,0.34375,81,98,22,33,22
32968,-0.724916,-0.469603,0.335318,0.513883,0.345318,-0.71875,-0.46875,0.328125,0.515625,0.34375,82,98,21,33,22
32976,-0.749758,-0.454287,0.354825,0.515705,0.333515,-0.75,-0.453125,0.359375,0.515625,0.328125,80,99,23,33,21
33032,-0.704327,-0.480942,0.319787,0.510144,0.355337,-0.703125,-0.484375,0.3125,0.515625,0.359375,83,97,20,33,23
33040,-0.721102,-0.470841,0.32713,0.512042,0.352771,-0.71875,-0.46875,0.328125,0.515625,0.34375,82,98,21,33,22
33096,-0.745567,-0.456707,0.353208,0.514511,0.334555,-0.75,-0.453125,0.359375,0.515625,0.328125,80,99,23,33,21
33104,-0.736822,-0.463057,0.348751,0.515099,0.336029,-0.734375,-0.46875,0.34375,0.515625,0.34375,81,98,22,33,22
33160,-0.728664,-0.465387,0.331615,0.51135,0.351086,-0.734375,-0.46875,0.328125,0.515625,0.359375,81,98,21,33,23
33224,-0.697049,-0.483445,0.316449,0.505932,0.358113,-0.6875,-0.484375,0.3125,0.5,0.359375,84,97,20,32,23
33232,-0.727012,-0.467514,0.336292,0.511945,0.346289,-0.734375,-0.46875,0.34375,0.515625,0.34375,81,98,22,33,22
33288,-0.712884,-0.477086,0.334622,0.511541,0.343808,-0.71875,-0.46875,0.328125,0.515625,0.34375,82,98,21,33,22
33296,-0.742585,-0.459344,0.348739,0.516479,0.336711,-0.75,-0.453125,0.34375,0.515625,0.34375,80,99,22,33,22
33352,-0.740244,-0.460875,0.356107,0.51425,0.330761,-0.734375,-0.46875,0.359375,0.515625,0.328125,81,98,23,33,21
33360,-0.780787,-0.430607,0.372243,0.514108,0.325042,-0.78125,-0.4375,0.375,0.515625,0.328125,78,100,24,33,21
33416,-0.758632,-0.448626,0.363569,0.516802,0.326887,-0.75,-0.453125,0.359375,0.515625,0.328125,80,99,23,33,21
33424,-0.721431,-0.471924,0.345841,0.511073,0.336442,-0.71875,-0.46875,0.34375,0.515625,0.328125,82,98,22,33,21
33480,-0.725447,-0.470724,0.348477,0.513935,0.333759,-0.71875,-0.46875,0.34375,0.515625,0.328125,82,98,22,33,21
33544,-0.728843,-0.465967,0.332596,0.512187,0.350027,-0.734375,-0.46875,0.328125,0.515625,0.359375,81,98,21,33,23
33552,-0.760569,-0.44504,0.35436,0.51411,0.337139,-0.765625,-0.453125,0.359375,0.515625,0.34375,79,99,23,33,22
33608,-0.718745,-0.47488,0.35226,0.5116,0.329765,-0.71875,-0.46875,0.34375,0.515625,0.328125,82,98,22,33,21
33672,-0.748187,-0.452577,0.354887,0.509729,0.33615,-0.75,-0.453125,0.359375,0.515625,0.328125,80,99,23,33,21
33680,-0.727728,-0.468295,0.351401,0.511556,0.333067,-0.734375,-0.46875,0.359375,0.515625,0.328125,81,98,23,33,21
33736,-0.765057,-0.443888,0.372038,0.515294,0.321613,-0.765625,-0.4375,0.375,0.515625,0.3125,79,100,24,33,20
33800,-0.729107,-0.464263,0.346475,0.506495,0.3404,-0.734375,-0.46875,0.34375,0.515625,0.34375,81,98,22,33,22
33808,-0.742297,-0.459341,0.355075,0.514467,0.332096,-0.75,-0.453125,0.359375,0.515625,0.328125,80,99,23,33,21
33864,-0.764738,-0.444358,0.381817,0.513668,0.313611,-0.765625,-0.4375,0.375,0.515625,0.3125,79,100,24,33,20
33928,-0.765711,-0.443341,0.381231,0.513571,0.31425,-0.765625,-0.4375,0.375,0.515625,0.3125,79,100,24,33,20
33992,-0.748419,-0.453885,0.361081,0.511222,0.330001,-0.75,-0.453125,0.359375,0.515625,0.328125,80,99,23,33,21
34056,-0.74817,-0.454038,0.365723,0.510423,0.326062,-0.75,-0.453125,0.359375,0.515625,0.328125,80,99,23,33,21
34184,-0.840156,-0.3825,0.423742,0.515206,0.283707,-0.84375,-0.375,0.421875,0.515625,0.28125,74,104,27,33,18
34192,-0.812094,-0.406819,0.399413,0.514922,0.304578,-0.8125,-0.40625,0.40625,0.515625,0.296875,76,102,26,33,19
34312,-0.780498,-0.431801,0.386922,0.513201,0.312175,-0.78125,-0.4375,0.390625,0.515625,0.3125,78,100,25,33,20
34320,-0.817562,-0.40167,0.401032,0.514501,0.303698,-0.8125,-0.40625,0.40625,0.515625,0.296875,76,102,26,33,19
34328,-0.794461,-0.419406,0.389088,0.511578,0.313201,-0.796875,-0.421875,0.390625,0.515625,0.3125,77,101,25,33,20
34440,-0.800054,-0.41727,0.394518,0.515951,0.306855,-0.796875,-0.421875,0.390625,0.515625,0.3125,77,101,25,33,20
34448,-0.809471,-0.40703,0.395932,0.511744,0.308825,-0.8125,-0.40625,0.390625,0.515625,0.3125,76,102,25,33,20
34568,-0.847771,-0.373325,0.415666,0.511716,0.293714,-0.84375,-0.375,0.40625,0.515625,0.296875,74,104,26,33,19
41032,-0.734377,-0.463717,0.34027,0.514733,0.343092,-0.734375,-0.46875,0.34375,0.515625,0.34375,81,98,22,33,22
41040,-0.748109,-0.455369,0.352988,0.516061,0.334429,-0.75,-0.453125,0.359375,0.515625,0.328125,80,99,23,33,21
41048,-0.696965,-0.486452,0.321922,0.511043,0.350452,-0.703125,-0.484375,0.328125,0.515625,0.34375,83,97,21,33,22
41096,-0.725952,-0.46987,0.341057,0.514501,0.340264,-0.734375,-0.46875,0.34375,0.515625,0.34375,81,98,22,33,22
41104,-0.711895,-0.476756,0.324933,0.511432,0.352285,-0.71875,-0.484375,0.328125,0.515625,0.359375,82,97,21,33,23
41160,-0.733802,-0.463191,0.334903,0.514007,0.348084,-0.734375,-0.46875,0.34375,0.515625,0.34375,81,98,22,33,22
41168,-0.689305,-0.489593,0.319014,0.507756,0.352129,-0.6875,-0.484375,0.3125,0.5,0.359375,84,97,20,32,23
41224,-0.742506,-0.457672,0.340294,0.514392,0.345492,-0.75,-0.453125,0.34375,0.515625,0.34375,80,99,22,33,22
41232,-0.713866,-0.475659,0.319021,0.513533,0.356969,-0.71875,-0.46875,0.3125,0.515625,0.359375,82,98,20,33,23
41288,-0.732324,-0.464586,0.338773,0.51351,0.344627,-0.734375,-0.46875,0.34375,0.515625,0.34375,81,98,22,33,22
41352,-0.733917,-0.465297,0.341074,0.517134,0.341006,-0.734375,-0.46875,0.34375,0.515625,0.34375,81,98,22,33,22
41360,-0.748434,-0.454778,0.35924,0.513992,0.329979,-0.75,-0.453125,0.359375,0.515625,0.328125,80,99,23,33,21
41416,-0.709715,-0.479846,0.32574,0.515226,0.348594,-0.703125,-0.484375,0.328125,0.515625,0.34375,83,97,21,33,22
41424,-0.75018,-0.453663,0.358391,0.514538,0.330913,-0.75,-0.453125,0.359375,0.515625,0.328125,80,99,23,33,21
41480,-0.705388,-0.48215,0.324209,0.513656,0.349673,-0.703125,-0.484375,0.328125,0.515625,0.34375,83,97,21,33,22
41488,-0.741874,-0.456696,0.344025,0.511271,0.343274,-0.75,-0.453125,0.34375,0.515625,0.34375,80,99,22,33,22
41496,-0.740502,-0.460096,0.352794,0.513887,0.333918,-0.734375,-0.46875,0.359375,0.515625,0.328125,81,98,23,33,21
41544,-0.713237,-0.476007,0.330826,0.510603,0.347815,-0.71875,-0.46875,0.328125,0.515625,0.34375,82,98,21,33,22
41552,-0.717553,-0.472492,0.32443,0.510951,0.354663,-0.71875,-0.46875,0.328125,0.515625,0.34375,82,98,21,33,22
41608,-0.755853,-0.448961,0.355297,0.514168,0.335348,-0.75,-0.453125,0.359375,0.515625,0.328125,80,99,23,33,21
41672,-0.723955,-0.468364,0.331058,0.510749,0.350511,-0.71875,-0.46875,0.328125,0.515625,0.34375,82,98,21,33,22
41680,-0.72862,-0.465917,0.334085,0.511966,0.348487,-0.734375,-0.46875,0.34375,0.515625,0.34375,81,98,22,33,22
41736,-0.770407,-0.439833,0.37508,0.515225,0.319934,-0.765625,-0.4375,0.375,0.515625,0.3125,79,100,24,33,20
41800,-0.745629,-0.454811,0.357515,0.509986,0.332938,-0.75,-0.453125,0.359375,0.515625,0.328125,80,99,23,33,21
41808,-0.772427,-0.436149,0.377172,0.511467,0.319938,-0.765625,-0.4375,0.375,0.515625,0.3125,79,100,24,33,20
41864,-0.776145,-0.432852,0.371207,0.511049,0.326741,-0.78125,-0.4375,0.375,0.515625,0.328125,78,100,24,33,21
41872,-0.734327,-0.463294,0.351705,0.510867,0.33505,-0.734375,-0.46875,0.359375,0.515625,0.328125,81,98,23,33,21
41928,-0.752736,-0.450331,0.361758,0.51156,0.32975,-0.75,-0.453125,0.359375,0.515625,0.328125,80,99,23,33,21
41992,-0.777646,-0.434781,0.382914,0.515584,0.313929,-0.78125,-0.4375,0.390625,0.515625,0.3125,78,100,25,33,20
42056,-0.791341,-0.423615,0.39015,0.514493,0.310314,-0.796875,-0.421875,0.390625,0.515625,0.3125,77,101,25,33,20
42120,-0.778867,-0.431172,0.371197,0.512072,0.32677,-0.78125,-0.4375,0.375,0.515625,0.328125,78,100,24,33,21
42184,-0.766053,-0.440915,0.369477,0.511457,0.326034,-0.765625,-0.4375,0.359375,0.515625,0.328125,79,100,23,33,21
42192,-0.812615,-0.405925,0.404002,0.513921,0.300617,-0.8125,-0.40625,0.40625,0.515625,0.296875,76,102,26,33,19
42248,-0.776138,-0.434458,0.377232,0.512966,0.320399,-0.78125,-0.4375,0.375,0.515625,0.328125,78,100,24,33,21
42256,-0.829853,-0.389945,0.407181,0.512509,0.300109,-0.828125,-0.390625,0.40625,0.515625,0.296875,75,103,26,33,19
42376,-0.81435,-0.402799,0.393217,0.512425,0.311507,-0.8125,-0.40625,0.390625,0.515625,0.3125,76,102,25,33,20
42504,-0.829083,-0.391416,0.405615,0.513756,0.301128,-0.828125,-0.390625,0.40625,0.515625,0.296875,75,103,26,33,19
42632,-0.800541,-0.41569,0.391134,0.514407,0.310691,-0.796875,-0.421875,0.390625,0.515625,0.3125,77,101,25,33,20
42640,-0.822068,-0.398614,0.407952,0.515697,0.297032,-0.828125,-0.390625,0.40625,0.515625,0.296875,75,103,26,33,19
42760,-0.812602,-0.405512,0.398139,0.514128,0.305848,-0.8125,-0.40625,0.390625,0.515625,0.3125,76,102,25,33,20
42768,-0.82816,-0.391975,0.406291,0.51296,0.300884,-0.828125,-0.390625,0.40625,0.515625,0.296875,75,103,26,33,19
49224,-0.739456,-0.459173,0.329279,0.515536,0.353813,-0.734375,-0.46875,0.328125,0.515625,0.359375,81,98,21,33,23
49232,-0.755222,-0.450158,0.357347,0.515733,0.332299,-0.75,-0.453125,0.359375,0.515625,0.328125,80,99,23,33,21
49288,-0.710508,-0.475147,0.311463,0.509219,0.364972,-0.71875,-0.46875,0.3125,0.515625,0.359375,82,98,20,33,23
49296,-0.737992,-0.462783,0.346677,0.516894,0.337204,-0.734375,-0.46875,0.34375,0.515625,0.34375,81,98,22,33,22
49352,-0.709064,-0.481103,0.32588,0.516609,0.347678,-0.703125,-0.484375,0.328125,0.515625,0.34375,83,97,21,33,22
49360,-0.711517,-0.478097,0.327563,0.513546,0.348506,-0.703125,-0.484375,0.328125,0.515625,0.34375,83,97,21,33,22
49416,-0.690182,-0.490513,0.312634,0.512265,0.355797,-0.6875,-0.5,0.3125,0.515625,0.359375,84,96,20,33,23
49424,-0.747682,-0.455639,0.348762,0.516904,0.337655,-0.75,-0.453125,0.34375,0.515625,0.34375,80,99,22,33,22
49432,-0.733696,-0.463201,0.334056,0.513935,0.348906,-0.734375,-0.46875,0.34375,0.515625,0.34375,81,98,22,33,22
49480,-0.771072,-0.440239,0.366611,0.519101,0.325598,-0.765625,-0.4375,0.359375,0.515625,0.328125,79,100,23,33,21
49488,-0.741792,-0.457292,0.337204,0.513328,0.348552,-0.75,-0.453125,0.34375,0.515625,0.34375,80,99,22,33,22
49496,-0.720885,-0.470117,0.321858,0.511472,0.357672,-0.71875,-0.46875,0.3125,0.515625,0.359375,82,98,20,33,23
49544,-0.738772,-0.460753,0.348393,0.514076,0.337056,-0.734375,-0.46875,0.34375,0.515625,0.34375,81,98,22,33,22
49552,-0.743919,-0.455576,0.332973,0.513912,0.352611,-0.75,-0.453125,0.328125,0.515625,0.359375,80,99,21,33,23
49608,-0.730763,-0.466766,0.342626,0.515028,0.339874,-0.734375,-0.46875,0.34375,0.515625,0.34375,81,98,22,33,22
49616,-0.719608,-0.470282,0.326432,0.509169,0.35429,-0.71875,-0.46875,0.328125,0.5,0.359375,82,98,21,32,23
49672,-0.717286,-0.472626,0.323268,0.510901,0.355742,-0.71875,-0.46875,0.3125,0.515625,0.359375,82,98,20,33,23
49736,-0.756166,-0.448472,0.350628,0.514838,0.339172,-0.75,-0.453125,0.34375,0.515625,0.34375,80,99,22,33,22
49800,-0.740013,-0.460108,0.34412,0.514771,0.34123,-0.734375,-0.46875,0.34375,0.515625,0.34375,81,98,22,33,22
49808,-0.716029,-0.473652,0.324418,0.511211,0.354052,-0.71875,-0.46875,0.328125,0.515625,0.34375,82,98,21,33,22
49864,-0.747041,-0.45641,0.353346,0.516314,0.33379,-0.75,-0.453125,0.359375,0.515625,0.328125,80,99,23,33,21
49928,-0.705806,-0.480327,0.319936,0.511362,0.354835,-0.703125,-0.484375,0.3125,0.515625,0.359375,83,97,20,33,23
49936,-0.702707,-0.482702,0.328636,0.509573,0.3472,-0.703125,-0.484375,0.328125,0.515625,0.34375,83,97,21,33,22
49992,-0.767963,-0.439486,0.36317,0.513591,0.330689,-0.765625,-0.4375,0.359375,0.515625,0.328125,79,100,23,33,21
50056,-0.731188,-0.462523,0.336449,0.507667,0.349595,-0.734375,-0.46875,0.34375,0.515625,0.34375,81,98,22,33,22
50120,-0.717904,-0.474336,0.33589,0.513085,0.343265,-0.71875,-0.46875,0.328125,0.515625,0.34375,82,98,21,33,22
50128,-0.767598,-0.440587,0.369022,0.514079,0.325084,-0.765625,-0.4375,0.359375,0.515625,0.328125,79,100,23,33,21
50184,-0.746636,-0.454557,0.355696,0.511376,0.334121,-0.75,-0.453125,0.359375,0.515625,0.328125,80,99,23,33,21
50192,-0.728594,-0.468032,0.343375,0.514497,0.338754,-0.734375,-0.46875,0.34375,0.515625,0.34375,81,98,22,33,22
50248,-0.76346,-0.442675,0.364055,0.511649,0.330431,-0.765625,-0.4375,0.359375,0.515625,0.328125,79,100,23,33,21
50256,-0.796805,-0.420933,0.400513,0.516674,0.300551,-0.796875,-0.421875,0.40625,0.515625,0.296875,77,101,26,33,19
50312,-0.73804,-0.459791,0.34486,0.510845,0.342126,-0.734375,-0.46875,0.34375,0.515625,0.34375,81,98,22,33,22
50320,-0.749172,-0.454619,0.364336,0.513541,0.325914,-0.75,-0.453125,0.359375,0.515625,0.328125,80,99,23,33,21
50376,-0.746224,-0.455582,0.3551,0.512638,0.334068,-0.75,-0.453125,0.359375,0.515625,0.328125,80,99,23,33,21
50440,-0.777113,-0.433307,0.373395,0.513306,0.323718,-0.78125,-0.4375,0.375,0.515625,0.328125,78,100,24,33,21
50568,-0.794608,-0.419463,0.386166,0.511979,0.315926,-0.796875,-0.421875,0.390625,0.515625,0.3125,77,101,25,33,20
50696,-0.783628,-0.429813,0.385887,0.514943,0.312611,-0.78125,-0.4375,0.390625,0.515625,0.3125,78,100,25,33,20
50824,-0.81774,-0.402072,0.404488,0.515139,0.300185,-0.8125,-0.40625,0.40625,0.515625,0.296875,76,102,26,33,19
50832,-0.797342,-0.420245,0.395542,0.517073,0.304973,-0.796875,-0.421875,0.390625,0.515625,0.3125,77,101,25,33,20
50952,-0.819362,-0.399842,0.404623,0.512763,0.301817,-0.8125,-0.40625,0.40625,0.515625,0.296875,76,102,26,33,19
50960,-0.791128,-0.421645,0.382835,0.511266,0.318673,-0.796875,-0.421875,0.390625,0.515625,0.3125,77,101,25,33,20
57416,-0.722855,-0.472185,0.335849,0.515771,0.343419,-0.71875,-0.46875,0.328125,0.515625,0.34375,82,98,21,33,22
57424,-0.703742,-0.481485,0.322096,0.510543,0.352589,-0.703125,-0.484375,0.328125,0.515625,0.34375,83,97,21,33,22
57480,-0.735275,-0.462366,0.330335,0.515498,0.351808,-0.734375,-0.46875,0.328125,0.515625,0.359375,81,98,21,33,23
57488,-0.716281,-0.475389,0.335942,0.512742,0.342986,-0.71875,-0.46875,0.328125,0.515625,0.34375,82,98,21,33,22
57544,-0.695059,-0.487013,0.31643,0.510932,0.35471,-0.703125,-0.484375,0.3125,0.515625,0.359375,83,97,20,33,23
57552,-0.686424,-0.491139,0.314738,0.507851,0.354974,-0.6875,-0.484375,0.3125,0.5,0.359375,84,97,20,32,23
57608,-0.744052,-0.458405,0.34329,0.517926,0.34124,-0.75,-0.453125,0.34375,0.515625,0.34375,80,99,22,33,22
57616,-0.721952,-0.469781,0.31859,0.513045,0.360098,-0.71875,-0.46875,0.3125,0.515625,0.359375,82,98,20,33,23
57672,-0.725061,-0.468843,0.334436,0.512521,0.346947,-0.71875,-0.46875,0.328125,0.515625,0.34375,82,98,21,33,22
57680,-0.756707,-0.448945,0.357643,0.515622,0.332387,-0.75,-0.453125,0.359375,0.515625,0.328125,80,99,23,33,21
57736,-0.731895,-0.464345,0.330422,0.514729,0.35109,-0.734375,-0.46875,0.328125,0.515625,0.359375,81,98,21,33,23
57744,-0.713273,-0.475672,0.320524,0.512408,0.356013,-0.71875,-0.46875,0.3125,0.515625,0.359375,82,98,20,33,23
57800,-0.744123,-0.459445,0.35754,0.517176,0.328852,-0.75,-0.453125,0.359375,0.515625,0.328125,80,99,23,33,21
57864,-0.712017,-0.477601,0.326576,0.513119,0.349924,-0.71875,-0.46875,0.328125,0.515625,0.34375,82,98,21,33,22
57872,-0.775844,-0.435705,0.373239,0.516485,0.321825,-0.78125,-0.4375,0.375,0.515625,0.328125,78,100,24,33,21
57928,-0.749451,-0.45408,0.357228,0.514559,0.331745,-0.75,-0.453125,0.359375,0.515625,0.328125,80,99,23,33,21
57936,-0.756643,-0.449393,0.363213,0.515123,0.3277,-0.75,-0.453125,0.359375,0.515625,0.328125,80,99,23,33,21
57992,-0.716093,-0.474721,0.332894,0.511686,0.346235,-0.71875,-0.46875,0.328125,0.515625,0.34375,82,98,21,33,22
58056,-0.696343,-0.486834,0.320971,0.511227,0.35098,-0.703125,-0.484375,0.328125,0.515625,0.34375,83,97,21,33,22
58064,-0.784815,-0.429529,0.377786,0.517769,0.318789,-0.78125,-0.421875,0.375,0.515625,0.3125,78,101,24,33,20
58120,-0.804804,-0.413857,0.395523,0.517404,0.305734,-0.8125,-0.40625,0.390625,0.515625,0.3125,76,102,25,33,20
58128,-0.758555,-0.445601,0.355964,0.512039,0.336153,-0.765625,-0.453125,0.359375,0.515625,0.34375,79,99,23,33,22
58184,-0.727756,-0.46741,0.342198,0.511635,0.341334,-0.734375,-0.46875,0.34375,0.515625,0.34375,81,98,22,33,22
58192,-0.711987,-0.477731,0.329974,0.512587,0.347158,-0.703125,-0.484375,0.328125,0.515625,0.34375,83,97,21,33,22
58248,-0.748154,-0.45591,0.359098,0.51582,0.329145,-0.75,-0.453125,0.359375,0.515625,0.328125,80,99,23,33,21
58312,-0.763985,-0.443481,0.376246,0.512351,0.318869,-0.765625,-0.4375,0.375,0.515625,0.3125,79,100,24,33,20
58320,-0.74055,-0.460794,0.352875,0.51543,0.333039,-0.734375,-0.46875,0.359375,0.515625,0.328125,81,98,23,33,21
58376,-0.750522,-0.454425,0.36282,0.515906,0.32622,-0.75,-0.453125,0.359375,0.515625,0.328125,80,99,23,33,21
58440,-0.738294,-0.460689,0.345686,0.51328,0.340017,-0.734375,-0.46875,0.34375,0.515625,0.34375,81,98,22,33,22
58504,-0.744281,-0.45895,0.364246,0.515051,0.323935,-0.75,-0.453125,0.359375,0.515625,0.328125,80,99,23,33,21
58568,-0.798884,-0.417672,0.393391,0.515735,0.30743,-0.796875,-0.421875,0.390625,0.515625,0.3125,77,101,25,33,20
58632,-0.801133,-0.416895,0.399849,0.516043,0.302136,-0.796875,-0.421875,0.40625,0.515625,0.296875,77,101,26,33,19
58760,-0.771268,-0.437688,0.375002,0.512083,0.321871,-0.765625,-0.4375,0.375,0.515625,0.3125,79,100,24,33,20
58768,-0.786252,-0.427912,0.384979,0.515116,0.314068,-0.78125,-0.4375,0.390625,0.515625,0.3125,78,100,25,33,20
58776,-0.764278,-0.442724,0.367041,0.512575,0.327387,-0.765625,-0.4375,0.359375,0.515625,0.328125,79,100,23,33,21
58888,-0.784174,-0.430298,0.387205,0.51627,0.310997,-0.78125,-0.4375,0.390625,0.515625,0.3125,78,100,25,33,20
59016,-0.815619,-0.403255,0.399277,0.514438,0.305159,-0.8125,-0.40625,0.40625,0.515625,0.296875,76,102,26,33,19
59144,-0.792389,-0.424099,0.397534,0.515726,0.303229,-0.796875,-0.421875,0.40625,0.515625,0.296875,77,101,26,33,19
59152,-0.669833,-0.497956,0.294674,0.50352,0.369596,-0.671875,-0.5,0.296875,0.5,0.375,85,96,19,32,24
59160,-0.755309,-0.448659,0.360988,0.511402,0.331578,-0.75,-0.453125,0.359375,0.515625,0.328125,80,99,23,33,21
65608,-0.715651,-0.475874,0.322884,0.515791,0.35285,-0.71875,-0.484375,0.328125,0.515625,0.359375,82,97,21,33,23
65616,-0.694919,-0.487312,0.309801,0.512741,0.359688,-0.703125,-0.484375,0.3125,0.515625,0.359375,83,97,20,33,23
65672,-0.747486,-0.455384,0.332635,0.519758,0.350478,-0.75,-0.453125,0.328125,0.515625,0.359375,80,99,21,33,23
65680,-0.689914,-0.490215,0.328152,0.507301,0.344676,-0.6875,-0.484375,0.328125,0.5,0.34375,84,97,21,32,22
65736,-0.74428,-0.457356,0.338903,0.517173,0.34556,-0.75,-0.453125,0.34375,0.515625,0.34375,80,99,22,33,22
65744,-0.742955,-0.457896,0.331172,0.518383,0.351296,-0.75,-0.453125,0.328125,0.515625,0.359375,80,99,21,33,23
65800,-0.737549,-0.461539,0.331803,0.51692,0.350365,-0.734375,-0.453125,0.328125,0.515625,0.34375,81,99,21,33,22
65808,-0.732753,-0.465417,0.342749,0.515198,0.340223,-0.734375,-0.46875,0.34375,0.515625,0.34375,81,98,22,33,22
65864,-0.717709,-0.473358,0.333658,0.511008,0.346401,-0.71875,-0.46875,0.328125,0.515625,0.34375,82,98,21,33,22
65872,-0.734403,-0.462138,0.340589,0.511169,0.344782,-0.734375,-0.46875,0.34375,0.515625,0.34375,81,98,22,33,22
65928,-0.699748,-0.485624,0.327301,0.511796,0.346275,-0.703125,-0.484375,0.328125,0.515625,0.34375,83,97,21,33,22
65992,-0.766026,-0.443125,0.361313,0.51813,0.329709,-0.765625,-0.4375,0.359375,0.515625,0.328125,79,100,23,33,21
66000,-0.724888,-0.470762,0.342336,0.514639,0.338675,-0.734375,-0.46875,0.34375,0.515625,0.34375,81,98,22,33,22
66056,-0.756991,-0.449303,0.354194,0.517442,0.334658,-0.75,-0.453125,0.359375,0.515625,0.328125,80,99,23,33,21
66120,-0.754094,-0.451732,0.361433,0.516207,0.328186,-0.75,-0.453125,0.359375,0.515625,0.328125,80,99,23,33,21
66128,-0.751227,-0.453515,0.3555,0.516307,0.332935,-0.75,-0.453125,0.359375,0.515625,0.328125,80,99,23,33,21
66184,-0.756474,-0.450435,0.364852,0.517135,0.324923,-0.75,-0.453125,0.359375,0.515625,0.328125,80,99,23,33,21
66192,-0.748699,-0.455442,0.360582,0.515274,0.328284,-0.75,-0.453125,0.359375,0.515625,0.328125,80,99,23,33,21
66248,-0.745877,-0.457504,0.357742,0.516016,0.329622,-0.75,-0.453125,0.359375,0.515625,0.328125,80,99,23,33,21
66256,-0.781656,-0.432007,0.383406,0.516782,0.313475,-0.78125,-0.4375,0.390625,0.515625,0.3125,78,100,25,33,20
66312,-0.754981,-0.451149,0.364235,0.515755,0.32614,-0.75,-0.453125,0.359375,0.515625,0.328125,80,99,23,33,21
66320,-0.751529,-0.45376,0.36021,0.516493,0.328586,-0.75,-0.453125,0.359375,0.515625,0.328125,80,99,23,33,21
66376,-0.785382,-0.42935,0.379652,0.518922,0.316158,-0.78125,-0.421875,0.375,0.515625,0.3125,78,101,24,33,20
66384,-0.784174,-0.430088,0.384998,0.516751,0.312512,-0.78125,-0.4375,0.390625,0.515625,0.3125,78,100,25,33,20
66440,-0.761538,-0.446423,0.363365,0.516727,0.32787,-0.765625,-0.4375,0.359375,0.515625,0.328125,79,100,23,33,21
66504,-0.754396,-0.451732,0.367849,0.515355,0.322925,-0.75,-0.453125,0.359375,0.515625,0.328125,80,99,23,33,21
66568,-0.801678,-0.416503,0.390382,0.51793,0.309869,-0.796875,-0.421875,0.390625,0.515625,0.3125,77,101,25,33,20
66576,-0.733375,-0.465935,0.359644,0.513339,0.326327,-0.734375,-0.46875,0.359375,0.515625,0.328125,81,98,23,33,21
66632,-0.739642,-0.461433,0.364647,0.513013,0.323416,-0.734375,-0.46875,0.359375,0.515625,0.328125,81,98,23,33,21
66640,-0.783812,-0.428901,0.383947,0.515033,0.313733,-0.78125,-0.4375,0.390625,0.515625,0.3125,78,100,25,33,20
66696,-0.76968,-0.43806,0.364409,0.512765,0.330567,-0.765625,-0.4375,0.359375,0.515625,0.328125,79,100,23,33,21
66704,-0.727856,-0.469099,0.357667,0.512046,0.327241,-0.734375,-0.46875,0.359375,0.515625,0.328125,81,98,23,33,21
66760,-0.78175,-0.431979,0.384712,0.516427,0.31259,-0.78125,-0.4375,0.390625,0.515625,0.3125,78,100,25,33,20
66824,-0.759938,-0.44778,0.376678,0.515004,0.316035,-0.75,-0.453125,0.375,0.515625,0.3125,80,99,24,33,20
66952,-0.781006,-0.43204,0.397825,0.512173,0.303047,-0.78125,-0.4375,0.40625,0.515625,0.296875,78,100,26,33,19
66960,-0.785588,-0.426843,0.387066,0.51191,0.313454,-0.78125,-0.4375,0.390625,0.515625,0.3125,78,100,25,33,20
67080,-0.756008,-0.450619,0.374771,0.51395,0.317907,-0.75,-0.453125,0.375,0.515625,0.3125,80,99,24,33,20
67088,-0.797513,-0.418802,0.395671,0.514806,0.305837,-0.796875,-0.421875,0.390625,0.515625,0.3125,77,101,25,33,20
67208,-0.731686,-0.465953,0.341454,0.515093,0.341092,-0.734375,-0.46875,0.34375,0.515625,0.34375,81,98,22,33,22
67336,-0.797539,-0.418551,0.391661,0.514319,0.31011,-0.796875,-0.421875,0.390625,0.515625,0.3125,77,101,25,33,20
67344,-0.846485,-0.377379,0.428727,0.515136,0.280001,-0.84375,-0.375,0.421875,0.515625,0.28125,74,104,27,33,18
73800,-0.749667,-0.454045,0.349689,0.516539,0.337483,-0.75,-0.453125,0.34375,0.515625,0.34375,80,99,22,33,22
73808,-0.712423,-0.477068,0.316982,0.514761,0.357748,-0.71875,-0.46875,0.3125,0.515625,0.359375,82,98,20,33,23
73864,-0.697111,-0.484855,0.314919,0.509257,0.357789,-0.703125,-0.484375,0.3125,0.515625,0.359375,83,97,20,33,23
73872,-0.741871,-0.458073,0.346594,0.513013,0.340338,-0.75,-0.453125,0.34375,0.515625,0.34375,80,99,22,33,22
73928,-0.714487,-0.476893,0.327324,0.51516,0.348895,-0.71875,-0.46875,0.328125,0.515625,0.34375,82,98,21,33,22
73936,-0.697642,-0.48677,0.318367,0.513398,0.352647,-0.703125,-0.484375,0.3125,0.515625,0.359375,83,97,20,33,23
73944,-0.721063,-0.473158,0.337943,0.514842,0.341436,-0.71875,-0.46875,0.328125,0.515625,0.34375,82,98,21,33,22
73992,-0.692585,-0.489157,0.314845,0.512045,0.354853,-0.703125,-0.484375,0.3125,0.515625,0.359375,83,97,20,33,23
74000,-0.737918,-0.462987,0.356439,0.515322,0.329144,-0.734375,-0.46875,0.359375,0.515625,0.328125,81,98,23,33,21
74056,-0.713716,-0.476803,0.331451,0.513711,0.345358,-0.71875,-0.46875,0.328125,0.515625,0.34375,82,98,21,33,22
74064,-0.722323,-0.472687,0.337277,0.516009,0.341723,-0.71875,-0.46875,0.328125,0.515625,0.34375,82,98,21,33,22
74120,-0.679291,-0.495195,0.302097,0.509518,0.362871,-0.671875,-0.5,0.296875,0.515625,0.359375,85,96,19,33,23
74128,-0.706069,-0.48204,0.328406,0.513405,0.346298,-0.703125,-0.484375,0.328125,0.515625,0.34375,83,97,21,33,22
74184,-0.738242,-0.461766,0.347978,0.515563,0.336467,-0.734375,-0.46875,0.34375,0.515625,0.34375,81,98,22,33,22
74248,-0.742915,-0.458265,0.350237,0.514461,0.336481,-0.75,-0.453125,0.34375,0.515625,0.34375,80,99,22,33,22
74256,-0.724082,-0.47072,0.341668,0.513298,0.339837,-0.734375,-0.46875,0.34375,0.515625,0.34375,81,98,22,33,22
74312,-0.741044,-0.460241,0.353848,0.514685,0.332753,-0.734375,-0.46875,0.359375,0.515625,0.328125,81,98,23,33,21
74376,-0.735505,-0.461556,0.343524,0.510876,0.342663,-0.734375,-0.46875,0.34375,0.515625,0.34375,81,98,22,33,22
74384,-0.765345,-0.443956,0.366246,0.517344,0.325713,-0.765625,-0.4375,0.359375,0.515625,0.328125,79,100,23,33,21
74440,-0.735864,-0.46366,0.349316,0.515273,0.334935,-0.734375,-0.46875,0.34375,0.515625,0.34375,81,98,22,33,22
74448,-0.770305,-0.440964,0.372409,0.518417,0.320443,-0.765625,-0.4375,0.375,0.515625,0.3125,79,100,24,33,20
74504,-0.765298,-0.444856,0.371529,0.518097,0.320528,-0.765625,-0.4375,0.375,0.515625,0.3125,79,100,24,33,20
74568,-0.762954,-0.446069,0.364246,0.518287,0.326489,-0.765625,-0.4375,0.359375,0.515625,0.328125,79,100,23,33,21
74632,-0.752896,-0.452474,0.361507,0.515648,0.328215,-0.75,-0.453125,0.359375,0.515625,0.328125,80,99,23,33,21
74640,-0.777943,-0.433101,0.375154,0.515522,0.320368,-0.78125,-0.4375,0.375,0.515625,0.328125,78,100,24,33,21
74696,-0.730492,-0.466951,0.347556,0.513578,0.33631,-0.734375,-0.46875,0.34375,0.515625,0.34375,81,98,22,33,22
74704,-0.760411,-0.448264,0.370547,0.517261,0.320869,-0.765625,-0.453125,0.375,0.515625,0.328125,79,99,24,33,21
74760,-0.771191,-0.440406,0.375941,0.517562,0.318095,-0.765625,-0.4375,0.375,0.515625,0.3125,79,100,24,33,20
74768,-0.774644,-0.436764,0.382462,0.515177,0.31377,-0.78125,-0.4375,0.390625,0.515625,0.3125,78,100,25,33,20
74824,-0.773056,-0.438701,0.37629,0.517205,0.318261,-0.765625,-0.4375,0.375,0.515625,0.3125,79,100,24,33,20
74888,-0.767202,-0.44195,0.370315,0.515097,0.323739,-0.765625,-0.4375,0.359375,0.515625,0.328125,79,100,23,33,21
74952,-0.785336,-0.429942,0.385618,0.517827,0.311834,-0.78125,-0.4375,0.390625,0.515625,0.3125,78,100,25,33,20
75016,-0.736723,-0.463156,0.353795,0.514421,0.331664,-0.734375,-0.46875,0.359375,0.515625,0.328125,81,98,23,33,21
75144,-0.808251,-0.410492,0.394507,0.516668,0.307569,-0.8125,-0.40625,0.390625,0.515625,0.3125,76,102,25,33,20
75152,-0.821561,-0.396606,0.393888,0.512641,0.311638,-0.828125,-0.390625,0.390625,0.515625,0.3125,75,103,25,33,20
75160,-0.773924,-0.43697,0.386027,0.512989,0.311877,-0.78125,-0.4375,0.390625,0.515625,0.3125,78,100,25,33,20
75272,-0.803473,-0.41288,0.387447,0.514344,0.314562,-0.796875,-0.421875,0.390625,0.515625,0.3125,77,101,25,33,20
75400,-0.820885,-0.400217,0.408679,0.516231,0.296193,-0.8125,-0.40625,0.40625,0.515625,0.296875,76,102,26,33,19
75528,-0.790699,-0.425224,0.397064,0.515603,0.303256,-0.796875,-0.421875,0.40625,0.515625,0.296875,77,101,26,33,19
75536,-0.803364,-0.414895,0.398719,0.515724,0.303815,-0.796875,-0.421875,0.40625,0.515625,0.296875,77,101,26,33,19
81992,-0.711268,-0.478694,0.324038,0.515201,0.350724,-0.703125,-0.484375,0.328125,0.515625,0.34375,83,97,21,33,22
82000,-0.725125,-0.470328,0.340729,0.514646,0.340078,-0.734375,-0.46875,0.34375,0.515625,0.34375,81,98,22,33,22
82056,-0.730529,-0.467788,0.342246,0.516948,0.339123,-0.734375,-0.46875,0.34375,0.515625,0.34375,81,98,22,33,22
82064,-0.690236,-0.488807,0.305742,0.510174,0.363126,-0.6875,-0.484375,0.296875,0.515625,0.359375,84,97,19,33,23
82120,-0.751948,-0.45035,0.349701,0.512262,0.340335,-0.75,-0.453125,0.34375,0.515625,0.34375,80,99,22,33,22
82128,-0.703379,-0.482554,0.323364,0.511639,0.350929,-0.703125,-0.484375,0.328125,0.515625,0.34375,83,97,21,33,22
82184,-0.719556,-0.470871,0.322383,0.510913,0.357131,-0.71875,-0.46875,0.3125,0.515625,0.359375,82,98,20,33,23
82192,-0.681987,-0.494981,0.311795,0.510311,0.354863,-0.6875,-0.5,0.3125,0.515625,0.359375,84,96,20,33,23
82248,-0.730379,-0.466527,0.338718,0.514732,0.343457,-0.734375,-0.46875,0.34375,0.515625,0.34375,81,98,22,33,22
82256,-0.729533,-0.465201,0.336604,0.511086,0.347044,-0.734375,-0.46875,0.34375,0.515625,0.34375,81,98,22,33,22
82312,-0.706446,-0.479096,0.316545,0.510447,0.35855,-0.703125,-0.484375,0.3125,0.515625,0.359375,83,97,20,33,23
82320,-0.7499,-0.452158,0.345264,0.513617,0.343176,-0.75,-0.453125,0.34375,0.515625,0.34375,80,99,22,33,22
82328,-0.70297,-0.483077,0.318625,0.513316,0.354105,-0.703125,-0.484375,0.3125,0.515625,0.359375,83,97,20,33,23
82376,-0.728,-0.467822,0.349521,0.511101,0.335201,-0.734375,-0.46875,0.34375,0.515625,0.34375,81,98,22,33,22
82384,-0.761988,-0.44366,0.355676,0.513131,0.336841,-0.765625,-0.4375,0.359375,0.515625,0.328125,79,100,23,33,21
82392,-0.700732,-0.485614,0.325859,0.513829,0.346658,-0.703125,-0.484375,0.328125,0.515625,0.34375,83,97,21,33,22
82440,-0.737256,-0.460726,0.338101,0.513319,0.346561,-0.734375,-0.46875,0.34375,0.515625,0.34375,81,98,22,33,22
82448,-0.723238,-0.471574,0.341017,0.5142,0.339596,-0.734375,-0.46875,0.34375,0.515625,0.34375,81,98,22,33,22
82504,-0.731046,-0.466547,0.346791,0.514484,0.336317,-0.734375,-0.46875,0.34375,0.515625,0.34375,81,98,22,33,22
82512,-0.765146,-0.44236,0.363863,0.514278,0.329365,-0.765625,-0.4375,0.359375,0.515625,0.328125,79,100,23,33,21
82568,-0.755693,-0.450371,0.365221,0.51484,0.326003,-0.75,-0.453125,0.359375,0.515625,0.328125,80,99,23,33,21
82632,-0.719725,-0.474368,0.334706,0.515906,0.343482,-0.71875,-0.46875,0.328125,0.515625,0.34375,82,98,21,33,22
82696,-0.707232,-0.481115,0.329371,0.512994,0.345981,-0.703125,-0.484375,0.328125,0.515625,0.34375,83,97,21,33,22
82704,-0.751191,-0.451824,0.353677,0.513148,0.336191,-0.75,-0.453125,0.359375,0.515625,0.328125,80,99,23,33,21
82760,-0.733678,-0.46481,0.345027,0.515786,0.337675,-0.734375,-0.46875,0.34375,0.515625,0.34375,81,98,22,33,22
82824,-0.765971,-0.443239,0.365706,0.517236,0.326268,-0.765625,-0.4375,0.359375,0.515625,0.328125,79,100,23,33,21
82888,-0.701886,-0.484024,0.331275,0.511085,0.343551,-0.703125,-0.484375,0.328125,0.515625,0.34375,83,97,21,33,22
82952,-0.726096,-0.468358,0.338902,0.511788,0.343764,-0.734375,-0.46875,0.34375,0.515625,0.34375,81,98,22,33,22
83016,-0.787276,-0.424932,0.37657,0.513568,0.32207,-0.78125,-0.421875,0.375,0.515625,0.3125,78,101,24,33,20
83024,-0.770057,-0.440715,0.37667,0.516079,0.318023,-0.765625,-0.4375,0.375,0.515625,0.3125,79,100,24,33,20
83080,-0.779302,-0.432143,0.379622,0.515769,0.316054,-0.78125,-0.421875,0.375,0.515625,0.3125,78,101,24,33,20
83088,-0.758234,-0.449301,0.370379,0.516089,0.321066,-0.765625,-0.453125,0.375,0.515625,0.328125,79,99,24,33,21
83144,-0.750226,-0.45257,0.358626,0.512029,0.332141,-0.75,-0.453125,0.359375,0.515625,0.328125,80,99,23,33,21
83152,-0.782028,-0.431123,0.389823,0.513715,0.309613,-0.78125,-0.4375,0.390625,0.515625,0.3125,78,100,25,33,20
83208,-0.768597,-0.439556,0.367396,0.513118,0.327639,-0.765625,-0.4375,0.359375,0.515625,0.328125,79,100,23,33,21
83216,-0.798692,-0.41771,0.390109,0.514803,0.31149,-0.796875,-0.421875,0.390625,0.515625,0.3125,77,101,25,33,20
83336,-0.79579,-0.421008,0.394358,0.5164,0.30604,-0.796875,-0.421875,0.390625,0.515625,0.3125,77,101,25,33,20
83464,-0.806224,-0.412417,0.39826,0.515789,0.304593,-0.8125,-0.40625,0.390625,0.515625,0.3125,76,102,25,33,20
83592,-0.765137,-0.44371,0.379851,0.513145,0.315851,-0.765625,-0.4375,0.375,0.515625,0.3125,79,100,24,33,20
83600,-0.78371,-0.430931,0.395981,0.515142,0.303518,-0.78125,-0.4375,0.390625,0.515625,0.3125,78,100,25,33,20
83720,-0.783679,-0.430911,0.390145,0.516123,0.308322,-0.78125,-0.4375,0.390625,0.515625,0.3125,78,100,25,33,20
83728,-0.804703,-0.413242,0.40596,0.513379,0.298606,-0.8125,-0.40625,0.40625,0.515625,0.296875,76,102,26,33,19
90184,-0.696317,-0.486111,0.310883,0.511864,0.359681,-0.703125,-0.484375,0.3125,0.515625,0.359375,83,97,20,33,23
90192,-0.719697,-0.474074,0.33966,0.514236,0.339875,-0.71875,-0.484375,0.34375,0.515625,0.34375,82,97,22,33,22
90248,-0.684331,-0.491065,0.302879,0.507061,0.365456,-0.6875,-0.484375,0.296875,0.515625,0.359375,84,97,19,33,23
90256,-0.719348,-0.470646,0.326843,0.509148,0.354003,-0.71875,-0.46875,0.328125,0.5,0.359375,82,98,21,32,23
90264,-0.737851,-0.461757,0.347638,0.514266,0.337704,-0.734375,-0.46875,0.34375,0.515625,0.34375,81,98,22,33,22
90312,-0.714179,-0.4746,0.320946,0.511059,0.356775,-0.71875,-0.46875,0.3125,0.515625,0.359375,82,98,20,33,23
90320,-0.752669,-0.452085,0.354984,0.516215,0.333555,-0.75,-0.453125,0.359375,0.515625,0.328125,80,99,23,33,21
90376,-0.740729,-0.460378,0.340974,0.517899,0.342235,-0.734375,-0.46875,0.34375,0.515625,0.34375,81,98,22,33,22
90384,-0.685321,-0.491064,0.315046,0.505494,0.355846,-0.6875,-0.484375,0.3125,0.5,0.359375,84,97,20,32,23
90440,-0.712068,-0.476344,0.319997,0.511986,0.356428,-0.71875,-0.46875,0.3125,0.515625,0.359375,82,98,20,33,23
90448,-0.699717,-0.484869,0.319632,0.512168,0.352785,-0.703125,-0.484375,0.3125,0.515625,0.359375,83,97,20,33,23
90504,-0.730458,-0.466526,0.34218,0.514258,0.340547,-0.734375,-0.46875,0.34375,0.515625,0.34375,81,98,22,33,22
90568,-0.696112,-0.483786,0.313071,0.505847,0.360979,-0.6875,-0.484375,0.3125,0.5,0.359375,84,97,20,32,23
90576,-0.701849,-0.482436,0.315289,0.511028,0.357967,-0.703125,-0.484375,0.3125,0.515625,0.359375,83,97,20,33,23
90632,-0.717198,-0.474262,0.330147,0.513216,0.348097,-0.71875,-0.46875,0.328125,0.515625,0.34375,82,98,21,33,22
90640,-0.734136,-0.463838,0.346489,0.513115,0.33837,-0.734375,-0.46875,0.34375,0.515625,0.34375,81,98,22,33,22
90696,-0.738815,-0.461714,0.347184,0.515782,0.337563,-0.734375,-0.46875,0.34375,0.515625,0.34375,81,98,22,33,22
90760,-0.718906,-0.474063,0.331102,0.51503,0.346836,-0.71875,-0.46875,0.328125,0.515625,0.34375,82,98,21,33,22
90768,-0.747101,-0.454555,0.347035,0.513729,0.340892,-0.75,-0.453125,0.34375,0.515625,0.34375,80,99,22,33,22
90824,-0.742365,-0.457492,0.34376,0.513016,0.343081,-0.75,-0.453125,0.34375,0.515625,0.34375,80,99,22,33,22
90832,-0.707233,-0.480291,0.330287,0.510803,0.346433,-0.703125,-0.484375,0.328125,0.515625,0.34375,83,97,21,33,22
90888,-0.7254,-0.468081,0.338715,0.510199,0.344567,-0.734375,-0.46875,0.34375,0.515625,0.34375,81,98,22,33,22
90952,-0.720049,-0.473957,0.345419,0.512959,0.335628,-0.71875,-0.46875,0.34375,0.515625,0.328125,82,98,22,33,21
90960,-0.749547,-0.453932,0.360366,0.513263,0.329851,-0.75,-0.453125,0.359375,0.515625,0.328125,80,99,23,33,21
91016,-0.722808,-0.471524,0.34477,0.512255,0.337308,-0.71875,-0.46875,0.34375,0.515625,0.328125,82,98,22,33,21
91024,-0.733894,-0.464498,0.355558,0.512096,0.330737,-0.734375,-0.46875,0.359375,0.515625,0.328125,81,98,23,33,21
91080,-0.742488,-0.458292,0.355592,0.512691,0.332497,-0.75,-0.453125,0.359375,0.515625,0.328125,80,99,23,33,21
91088,-0.781943,-0.43224,0.389003,0.516113,0.309068,-0.78125,-0.4375,0.390625,0.515625,0.3125,78,100,25,33,20
91144,-0.74107,-0.458934,0.352781,0.512044,0.335179,-0.75,-0.453125,0.359375,0.515625,0.328125,80,99,23,33,21
91208,-0.777077,-0.434878,0.380788,0.514976,0.316191,-0.78125,-0.4375,0.390625,0.515625,0.3125,78,100,25,33,20
91272,-0.732481,-0.465006,0.357766,0.510241,0.32948,-0.734375,-0.46875,0.359375,0.515625,0.328125,81,98,23,33,21
91336,-0.749285,-0.454848,0.362962,0.514816,0.326356,-0.75,-0.453125,0.359375,0.515625,0.328125,80,99,23,33,21
91400,-0.741999,-0.459232,0.364547,0.512465,0.324219,-0.75,-0.453125,0.359375,0.515625,0.328125,80,99,23,33,21
91528,-0.833151,-0.386672,0.410564,0.511966,0.297294,-0.828125,-0.390625,0.40625,0.515625,0.296875,75,103,26,33,19
91656,-0.774406,-0.436737,0.381097,0.514694,0.315353,-0.765625,-0.4375,0.375,0.515625,0.3125,79,100,24,33,20
91664,-0.78868,-0.423605,0.381581,0.511779,0.318925,-0.78125,-0.421875,0.375,0.515625,0.3125,78,101,24,33,20
91672,-0.794859,-0.421415,0.392995,0.515302,0.307977,-0.796875,-0.421875,0.390625,0.515625,0.3125,77,101,25,33,20
91784,-0.814292,-0.406407,0.409917,0.516798,0.293984,-0.8125,-0.40625,0.40625,0.515625,0.296875,76,102,26,33,19
91792,-0.83587,-0.385995,0.424931,0.51287,0.284065,-0.828125,-0.390625,0.421875,0.515625,0.28125,75,103,27,33,18
91912,-0.837956,-0.384016,0.419673,0.513022,0.289277,-0.84375,-0.390625,0.421875,0.515625,0.296875,74,103,27,33,19
98376,-0.699837,-0.484037,0.319549,0.510492,0.353833,-0.703125,-0.484375,0.3125,0.515625,0.359375,83,97,20,33,23
98384,-0.702129,-0.483143,0.323961,0.51114,0.35017,-0.703125,-0.484375,0.328125,0.515625,0.34375,83,97,21,33,22
98440,-0.704407,-0.482148,0.311917,0.515255,0.359383,-0.703125,-0.484375,0.3125,0.515625,0.359375,83,97,20,33,23
98448,-0.725304,-0.469711,0.331956,0.515274,0.347785,-0.71875,-0.46875,0.328125,0.515625,0.34375,82,98,21,33,22
98504,-0.725263,-0.469872,0.326381,0.517006,0.351748,-0.71875,-0.46875,0.328125,0.515625,0.34375,82,98,21,33,22
98512,-0.691104,-0.489849,0.311431,0.512654,0.356868,-0.6875,-0.5,0.3125,0.515625,0.359375,84,96,20,33,23
98568,-0.697648,-0.486543,0.318884,0.513106,0.352202,-0.703125,-0.484375,0.3125,0.515625,0.359375,83,97,20,33,23
98576,-0.697176,-0.485622,0.321186,0.509811,0.351801,-0.703125,-0.484375,0.328125,0.515625,0.34375,83,97,21,33,22
98632,-0.722273,-0.472252,0.340762,0.51413,0.339633,-0.71875,-0.46875,0.34375,0.515625,0.328125,82,98,22,33,21
98696,-0.724567,-0.470049,0.334882,0.514427,0.345307,-0.71875,-0.46875,0.328125,0.515625,0.34375,82,98,21,33,22
98760,-0.716137,-0.475632,0.329422,0.514349,0.347998,-0.71875,-0.46875,0.328125,0.515625,0.34375,82,98,21,33,22
98768,-0.728592,-0.467157,0.338559,0.513249,0.34394,-0.734375,-0.46875,0.34375,0.515625,0.34375,81,98,22,33,22
98824,-0.725715,-0.469801,0.329179,0.516857,0.34948,-0.71875,-0.46875,0.328125,0.515625,0.34375,82,98,21,33,22
98888,-0.719543,-0.472927,0.338772,0.511614,0.342084,-0.71875,-0.46875,0.328125,0.515625,0.34375,82,98,21,33,22
99024,-0.721417,-0.472495,0.341792,0.512979,0.33914,-0.71875,-0.46875,0.34375,0.515625,0.328125,82,98,22,33,21
99080,-0.703602,-0.483917,0.328459,0.513701,0.345358,-0.703125,-0.484375,0.328125,0.515625,0.34375,83,97,21,33,22
99088,-0.744691,-0.456546,0.348302,0.513827,0.339109,-0.75,-0.453125,0.34375,0.515625,0.34375,80,99,22,33,22
99144,-0.764471,-0.442425,0.361981,0.513378,0.331539,-0.765625,-0.4375,0.359375,0.515625,0.328125,79,100,23,33,21
99152,-0.72652,-0.467813,0.34577,0.509632,0.338931,-0.734375,-0.46875,0.34375,0.515625,0.34375,81,98,22,33,22
99208,-0.759341,-0.447124,0.367502,0.514264,0.324699,-0.765625,-0.453125,0.375,0.515625,0.328125,79,99,24,33,21
99272,-0.756647,-0.449638,0.366824,0.514692,0.324768,-0.75,-0.453125,0.359375,0.515625,0.328125,80,99,23,33,21
99280,-0.775855,-0.435834,0.380316,0.515078,0.316294,-0.765625,-0.4375,0.375,0.515625,0.3125,79,100,24,33,20
99336,-0.774511,-0.436844,0.375527,0.515748,0.32008,-0.78125,-0.4375,0.375,0.515625,0.328125,78,100,24,33,21
99400,-0.74153,-0.458367,0.350281,0.513187,0.336429,-0.734375,-0.453125,0.34375,0.515625,0.328125,81,99,22,33,21
99464,-0.787072,-0.427215,0.389672,0.514413,0.310202,-0.796875,-0.421875,0.390625,0.515625,0.3125,77,101,25,33,20
99528,-0.783068,-0.430052,0.383512,0.515567,0.314041,-0.78125,-0.4375,0.390625,0.515625,0.3125,78,100,25,33,20
99536,-0.763932,-0.442904,0.36661,0.512355,0.32787,-0.765625,-0.4375,0.359375,0.515625,0.328125,79,100,23,33,21
99592,-0.777319,-0.431669,0.370129,0.511026,0.327835,-0.78125,-0.4375,0.375,0.515625,0.328125,78,100,24,33,21
99600,-0.760815,-0.445078,0.363009,0.513105,0.329779,-0.765625,-0.4375,0.359375,0.515625,0.328125,79,100,23,33,21
99720,-0.80123,-0.416764,0.399874,0.516314,0.301806,-0.796875,-0.421875,0.40625,0.515625,0.296875,77,101,26,33,19
99848,-0.78923,-0.423044,0.381206,0.511813,0.319255,-0.78125,-0.421875,0.375,0.515625,0.3125,78,101,24,33,20
99856,-0.8143,-0.405189,0.404465,0.515304,0.29972,-0.8125,-0.40625,0.40625,0.515625,0.296875,76,102,26,33,19
99976,-0.801712,-0.41587,0.40015,0.515204,0.302228,-0.796875,-0.421875,0.40625,0.515625,0.296875,77,101,26,33,19
99984,-0.845559,-0.378325,0.423148,0.516098,0.284637,-0.84375,-0.375,0.421875,0.515625,0.28125,74,104,27,33,18
99992,-0.572355,-0.537562,0.220523,0.48994,0.399455,-0.578125,-0.53125,0.21875,0.484375,0.40625,91,94,14,31,26
100104,-0.660732,-0.502035,0.28896,0.501563,0.372244,-0.65625,-0.5,0.28125,0.5,0.375,86,96,18,32,24
106568,-0.713139,-0.477218,0.327224,0.513884,0.349248,-0.71875,-0.46875,0.328125,0.515625,0.34375,82,98,21,33,22
106576,-0.721059,-0.470777,0.328274,0.511626,0.351935,-0.71875,-0.46875,0.328125,0.515625,0.34375,82,98,21,33,22
106632,-0.681181,-0.494441,0.303456,0.510099,0.362067,-0.6875,-0.5,0.3125,0.515625,0.359375,84,96,20,33,23
106640,-0.708856,-0.479418,0.326438,0.512425,0.34941,-0.703125,-0.484375,0.328125,0.515625,0.34375,83,97,21,33,22
106696,-0.738681,-0.460985,0.34716,0.513858,0.338648,-0.734375,-0.46875,0.34375,0.515625,0.34375,81,98,22,33,22
106704,-0.723523,-0.470523,0.336421,0.513455,0.34417,-0.71875,-0.46875,0.328125,0.515625,0.34375,82,98,21,33,22
106760,-0.670265,-0.500461,0.301871,0.508208,0.360647,-0.671875,-0.5,0.296875,0.515625,0.359375,85,96,19,33,23
106768,-0.687542,-0.491965,0.313254,0.511339,0.354914,-0.6875,-0.5,0.3125,0.515625,0.359375,84,96,20,33,23
106824,-0.718846,-0.473515,0.335065,0.512575,0.344722,-0.71875,-0.46875,0.328125,0.515625,0.34375,82,98,21,33,22
106832,-0.730083,-0.46735,0.343133,0.514968,0.339332,-0.734375,-0.46875,0.34375,0.515625,0.34375,81,98,22,33,22
106888,-0.740364,-0.46053,0.348783,0.515375,0.336737,-0.734375,-0.46875,0.34375,0.515625,0.34375,81,98,22,33,22
106952,-0.689534,-0.490336,0.314491,0.510349,0.355031,-0.6875,-0.5,0.3125,0.515625,0.359375,84,96,20,33,23
106960,-0.72128,-0.472231,0.337788,0.513108,0.342615,-0.71875,-0.46875,0.328125,0.515625,0.34375,82,98,21,33,22
107016,-0.684446,-0.492447,0.312766,0.508379,0.355748,-0.6875,-0.5,0.3125,0.515625,0.359375,84,96,20,33,23
107024,-0.750928,-0.453053,0.357008,0.515621,0.331353,-0.75,-0.453125,0.359375,0.515625,0.328125,80,99,23,33,21
107080,-0.716202,-0.47586,0.333043,0.514281,0.344738,-0.71875,-0.46875,0.328125,0.515625,0.34375,82,98,21,33,22
107088,-0.752073,-0.451137,0.350306,0.513988,0.338917,-0.75,-0.453125,0.34375,0.515625,0.34375,80,99,22,33,22
107144,-0.738822,-0.461377,0.34898,0.514637,0.336581,-0.734375,-0.46875,0.34375,0.515625,0.34375,81,98,22,33,22
107152,-0.708801,-0.479915,0.333506,0.511846,0.343365,-0.703125,-0.484375,0.328125,0.515625,0.34375,83,97,21,33,22
107208,-0.726969,-0.46923,0.340468,0.514794,0.340937,-0.734375,-0.46875,0.34375,0.515625,0.34375,81,98,22,33,22
107272,-0.728255,-0.468485,0.341795,0.51472,0.340226,-0.734375,-0.46875,0.34375,0.515625,0.34375,81,98,22,33,22
107280,-0.743491,-0.45797,0.360121,0.512603,0.328737,-0.75,-0.453125,0.359375,0.515625,0.328125,80,99,23,33,21
107336,-0.741561,-0.459944,0.35771,0.514391,0.329404,-0.75,-0.453125,0.359375,0.515625,0.328125,80,99,23,33,21
107400,-0.752989,-0.451749,0.364217,0.513478,0.327042,-0.75,-0.453125,0.359375,0.515625,0.328125,80,99,23,33,21
107408,-0.746037,-0.453826,0.355041,0.509468,0.335354,-0.75,-0.453125,0.359375,0.515625,0.328125,80,99,23,33,21
107464,-0.760691,-0.446825,0.369101,0.515072,0.323343,-0.765625,-0.453125,0.375,0.515625,0.328125,79,99,24,33,21
107528,-0.725936,-0.467402,0.336905,0.510065,0.346367,-0.734375,-0.46875,0.34375,0.515625,0.34375,81,98,22,33,22
107536,-0.777798,-0.432479,0.370087,0.513731,0.326459,-0.78125,-0.4375,0.375,0.515625,0.328125,78,100,24,33,21
107592,-0.78684,-0.428452,0.389287,0.516695,0.30931,-0.78125,-0.4375,0.390625,0.515625,0.3125,78,100,25,33,20
107656,-0.800672,-0.417327,0.401943,0.515488,0.300569,-0.796875,-0.421875,0.40625,0.515625,0.296875,77,101,26,33,19
107720,-0.73788,-0.462413,0.35483,0.514415,0.331049,-0.734375,-0.46875,0.359375,0.515625,0.328125,81,98,23,33,21
107784,-0.749529,-0.451082,0.35682,0.508215,0.335575,-0.75,-0.453125,0.359375,0.515625,0.328125,80,99,23,33,21
107912,-0.810657,-0.406896,0.397215,0.51275,0.307589,-0.8125,-0.40625,0.390625,0.515625,0.3125,76,102,25,33,20
107920,-0.82378,-0.397908,0.409152,0.51682,0.295716,-0.828125,-0.390625,0.40625,0.515625,0.296875,75,103,26,33,19
108040,-0.776444,-0.4334,0.375546,0.511757,0.322541,-0.78125,-0.4375,0.375,0.515625,0.328125,78,100,24,33,21
108048,-0.832615,-0.386043,0.404203,0.510269,0.304186,-0.828125,-0.390625,0.40625,0.515625,0.296875,75,103,26,33,19
108056,-0.778555,-0.432117,0.377064,0.512314,0.321294,-0.78125,-0.4375,0.375,0.515625,0.328125,78,100,24,33,21
108168,-0.786711,-0.425905,0.375834,0.514217,0.322565,-0.78125,-0.421875,0.375,0.515625,0.3125,78,101,24,33,20
108176,-0.812677,-0.403596,0.390163,0.511678,0.314431,-0.8125,-0.40625,0.390625,0.515625,0.3125,76,102,25,33,20
108296,-0.864203,-0.359882,0.437741,0.513926,0.272418,-0.859375,-0.359375,0.4375,0.515625,0.265625,73,105,28,33,17
114760,-0.703426,-0.483013,0.325297,0.512534,0.348609,-0.703125,-0.484375,0.328125,0.515625,0.34375,83,97,21,33,22
114768,-0.703514,-0.480601,0.314472,0.509582,0.360061,-0.703125,-0.484375,0.3125,0.515625,0.359375,83,97,20,33,23
114776,-0.684545,-0.4914,0.306447,0.507503,0.361994,-0.6875,-0.484375,0.3125,0.5,0.359375,84,97,20,32,23
114824,-0.714616,-0.475166,0.322472,0.512655,0.354653,-0.71875,-0.484375,0.328125,0.515625,0.359375,82,97,21,33,23
114832,-0.695019,-0.486904,0.312475,0.511486,0.357961,-0.703125,-0.484375,0.3125,0.515625,0.359375,83,97,20,33,23
114888,-0.744546,-0.458677,0.355817,0.516659,0.330746,-0.75,-0.453125,0.359375,0.515625,0.328125,80,99,23,33,21
114896,-0.66604,-0.50216,0.292054,0.508762,0.367385,-0.671875,-0.5,0.296875,0.515625,0.359375,85,96,19,33,23
114952,-0.717752,-0.47413,0.330774,0.513495,0.347613,-0.71875,-0.46875,0.328125,0.515625,0.34375,82,98,21,33,22
114960,-0.697364,-0.484343,0.3176,0.508099,0.356009,-0.703125,-0.484375,0.3125,0.515625,0.359375,83,97,20,33,23
115016,-0.71409,-0.478667,0.338188,0.515914,0.338655,-0.71875,-0.484375,0.34375,0.515625,0.34375,82,97,22,33,22
115080,-0.717251,-0.473246,0.32812,0.511048,0.351329,-0.71875,-0.46875,0.328125,0.515625,0.34375,82,98,21,33,22
115088,-0.714595,-0.478066,0.34058,0.514858,0.337223,-0.71875,-0.484375,0.34375,0.515625,0.34375,82,97,22,33,22
115144,-0.72307,-0.469486,0.325641,0.512728,0.354187,-0.71875,-0.46875,0.328125,0.515625,0.34375,82,98,21,33,22
115152,-0.700626,-0.485785,0.325745,0.514035,0.34663,-0.703125,-0.484375,0.328125,0.515625,0.34375,83,97,21,33,22
115208,-0.730693,-0.462557,0.331493,0.508644,0.353114,-0.734375,-0.46875,0.328125,0.515625,0.359375,81,98,21,33,23
115216,-0.690914,-0.489607,0.312314,0.511413,0.356794,-0.6875,-0.5,0.3125,0.515625,0.359375,84,96,20,33,23
115224,-0.720898,-0.473153,0.335089,0.515085,0.343878,-0.71875,-0.46875,0.328125,0.515625,0.34375,82,98,21,33,22
115272,-0.693206,-0.488766,0.321189,0.510457,0.350326,-0.6875,-0.484375,0.3125,0.515625,0.34375,84,97,20,33,22
115280,-0.698018,-0.486512,0.320544,0.512815,0.351171,-0.703125,-0.484375,0.328125,0.515625,0.34375,83,97,21,33,22
115336,-0.735897,-0.464486,0.34708,0.517227,0.336076,-0.734375,-0.46875,0.34375,0.515625,0.34375,81,98,22,33,22
115400,-0.715714,-0.475118,0.329796,0.512364,0.348671,-0.71875,-0.46875,0.328125,0.515625,0.34375,82,98,21,33,22
115408,-0.722764,-0.470277,0.3358,0.511522,0.34572,-0.71875,-0.46875,0.328125,0.515625,0.34375,82,98,21,33,22
115464,-0.7604,-0.444914,0.353437,0.513915,0.337963,-0.765625,-0.453125,0.359375,0.515625,0.34375,79,99,23,33,22
115528,-0.739855,-0.457255,0.341266,0.509421,0.346422,-0.734375,-0.453125,0.34375,0.5,0.34375,81,99,22,32,22
115536,-0.769982,-0.439912,0.370517,0.516189,0.323187,-0.765625,-0.4375,0.375,0.515625,0.3125,79,100,24,33,20
115592,-0.779806,-0.42988,0.367735,0.512144,0.329807,-0.78125,-0.4375,0.375,0.515625,0.328125,78,100,24,33,21
115600,-0.729302,-0.465378,0.335752,0.511195,0.347733,-0.734375,-0.46875,0.34375,0.515625,0.34375,81,98,22,33,22
115656,-0.749454,-0.451637,0.348976,0.511697,0.340418,-0.75,-0.453125,0.34375,0.515625,0.34375,80,99,22,33,22
115720,-0.771322,-0.437513,0.368142,0.513467,0.327228,-0.765625,-0.4375,0.359375,0.515625,0.328125,79,100,23,33,21
115784,-0.799119,-0.41876,0.397505,0.51655,0.303824,-0.796875,-0.421875,0.390625,0.515625,0.3125,77,101,25,33,20
115848,-0.740626,-0.457523,0.346435,0.509736,0.341979,-0.75,-0.453125,0.34375,0.515625,0.34375,80,99,22,33,22
115912,-0.77187,-0.437549,0.374149,0.513488,0.321782,-0.765625,-0.4375,0.375,0.515625,0.3125,79,100,24,33,20
115920,-0.759405,-0.444982,0.361924,0.511009,0.331455,-0.765625,-0.4375,0.359375,0.515625,0.328125,79,100,23,33,21
115976,-0.80463,-0.413404,0.397769,0.515434,0.304831,-0.8125,-0.40625,0.390625,0.515625,0.3125,76,102,25,33,20
115984,-0.767858,-0.441832,0.373827,0.515613,0.320249,-0.765625,-0.4375,0.375,0.515625,0.3125,79,100,24,33,20
116104,-0.774417,-0.434769,0.370114,0.512051,0.327021,-0.78125,-0.4375,0.375,0.515625,0.328125,78,100,24,33,21
116232,-0.80261,-0.414303,0.39437,0.513952,0.308591,-0.796875,-0.421875,0.390625,0.515625,0.3125,77,101,25,33,20
116360,-0.807872,-0.408766,0.391643,0.512881,0.312113,-0.8125,-0.40625,0.390625,0.515625,0.3125,76,102,25,33,20
116368,-0.835938,-0.384467,0.407595,0.51253,0.30028,-0.828125,-0.390625,0.40625,0.515625,0.296875,75,103,26,33,19
116488,-0.825402,-0.395726,0.4124,0.514725,0.294004,-0.828125,-0.390625,0.40625,0.515625,0.296875,75,103,26,33,19
116496,-0.839752,-0.380868,0.407243,0.512392,0.300986,-0.84375,-0.375,0.40625,0.515625,0.296875,74,104,26,33,19
122952,-0.722069,-0.470455,0.328816,0.51276,0.350948,-0.71875,-0.46875,0.328125,0.515625,0.34375,82,98,21,33,22
122960,-0.723272,-0.470762,0.335382,0.513572,0.34508,-0.71875,-0.46875,0.328125,0.515625,0.34375,82,98,21,33,22
123016,-0.695305,-0.48549,0.307708,0.510007,0.363081,-0.703125,-0.484375,0.3125,0.515625,0.359375,83,97,20,33,23
123024,-0.734713,-0.461432,0.336547,0.511174,0.348424,-0.734375,-0.46875,0.34375,0.515625,0.34375,81,98,22,33,22
123080,-0.7092,-0.480458,0.328345,0.514534,0.346779,-0.703125,-0.484375,0.328125,0.515625,0.34375,83,97,21,33,22
123088,-0.733149,-0.464472,0.344511,0.513471,0.339639,-0.734375,-0.46875,0.34375,0.515625,0.34375,81,98,22,33,22
123144,-0.709353,-0.477088,0.327596,0.507882,0.350964,-0.703125,-0.484375,0.328125,0.515625,0.34375,83,97,21,33,22
123152,-0.719707,-0.474623,0.335893,0.516532,0.341904,-0.71875,-0.46875,0.328125,0.515625,0.34375,82,98,21,33,22
123160,-0.715426,-0.474825,0.326181,0.513091,0.350979,-0.71875,-0.46875,0.328125,0.515625,0.34375,82,98,21,33,22
123208,-0.74278,-0.456614,0.350174,0.510787,0.338433,-0.75,-0.453125,0.34375,0.515625,0.34375,80,99,22,33,22
123216,-0.728221,-0.468648,0.339261,0.515715,0.341893,-0.734375,-0.46875,0.34375,0.515625,0.34375,81,98,22,33,22
123224,-0.710049,-0.476834,0.320489,0.510021,0.356373,-0.703125,-0.484375,0.3125,0.515625,0.359375,83,97,20,33,23
123272,-0.727708,-0.468192,0.340412,0.513632,0.341856,-0.734375,-0.46875,0.34375,0.515625,0.34375,81,98,22,33,22
123280,-0.721569,-0.471736,0.334237,0.513089,0.34598,-0.71875,-0.46875,0.328125,0.515625,0.34375,82,98,21,33,22
123336,-0.699762,-0.482859,0.318608,0.50787,0.356143,-0.703125,-0.484375,0.3125,0.515625,0.359375,83,97,20,33,23
123344,-0.729354,-0.466312,0.338359,0.513155,0.344153,-0.734375,-0.46875,0.34375,0.515625,0.34375,81,98,22,33,22
123400,-0.694153,-0.485707,0.316904,0.506172,0.356783,-0.6875,-0.484375,0.3125,0.5,0.359375,84,97,20,32,23
123464,-0.755153,-0.451446,0.370979,0.515041,0.320579,-0.75,-0.453125,0.375,0.515625,0.3125,80,99,24,33,20
123528,-0.71704,-0.472478,0.334141,0.507916,0.34746,-0.71875,-0.46875,0.328125,0.515625,0.34375,82,98,21,33,22
123536,-0.713282,-0.477123,0.335017,0.512043,0.343346,-0.71875,-0.46875,0.328125,0.515625,0.34375,82,98,21,33,22
123592,-0.731489,-0.46642,0.349598,0.513707,0.334605,-0.734375,-0.46875,0.34375,0.515625,0.34375,81,98,22,33,22
123656,-0.70405,-0.483577,0.335571,0.5118,0.340256,-0.703125,-0.484375,0.328125,0.515625,0.34375,83,97,21,33,22
123664,-0.682015,-0.494021,0.312042,0.508018,0.355976,-0.6875,-0.5,0.3125,0.515625,0.359375,84,96,20,33,23
123856,-0.760221,-0.445793,0.368782,0.512603,0.324629,-0.765625,-0.453125,0.375,0.515625,0.328125,79,99,24,33,21
123912,-0.746322,-0.45707,0.362364,0.514904,0.326124,-0.75,-0.453125,0.359375,0.515625,0.328125,80,99,23,33,21
123920,-0.724779,-0.471473,0.352284,0.514223,0.329746,-0.71875,-0.46875,0.34375,0.515625,0.328125,82,98,22,33,21
123976,-0.825935,-0.395606,0.418461,0.515142,0.287939,-0.828125,-0.390625,0.421875,0.515625,0.28125,75,103,27,33,18
124040,-0.784058,-0.427273,0.384203,0.511077,0.31605,-0.78125,-0.421875,0.375,0.515625,0.3125,78,101,24,33,20
124104,-0.76075,-0.444314,0.364768,0.510368,0.329928,-0.765625,-0.4375,0.359375,0.515625,0.328125,79,100,23,33,21
124168,-0.793121,-0.42373,0.401497,0.51619,0.299165,-0.796875,-0.421875,0.40625,0.515625,0.296875,77,101,26,33,19
124296,-0.812624,-0.40598,0.399107,0.51441,0.305088,-0.8125,-0.40625,0.40625,0.515625,0.296875,76,102,26,33,19
124424,-0.803572,-0.412404,0.393235,0.512548,0.310194,-0.8125,-0.40625,0.390625,0.515625,0.3125,76,102,25,33,20
124552,-0.819835,-0.399297,0.401353,0.513762,0.304018,-0.8125,-0.40625,0.40625,0.515625,0.296875,76,102,26,33,19
124560,-0.790639,-0.423904,0.387314,0.514856,0.312374,-0.796875,-0.421875,0.390625,0.515625,0.3125,77,101,25,33,20
124680,-0.815057,-0.403744,0.400968,0.513707,0.304125,-0.8125,-0.40625,0.40625,0.515625,0.296875,76,102,26,33,19
124688,-0.778482,-0.43314,0.376905,0.514622,0.320094,-0.78125,-0.4375,0.375,0.515625,0.328125,78,100,24,33,21
131144,-0.689757,-0.491117,0.315041,0.512182,0.353651,-0.6875,-0.5,0.3125,0.515625,0.359375,84,96,20,33,23
131152,-0.675809,-0.497524,0.302286,0.509874,0.361172,-0.671875,-0.5,0.296875,0.515625,0.359375,85,96,19,33,23
131208,-0.729822,-0.465288,0.338713,0.511296,0.345101,-0.734375,-0.46875,0.34375,0.515625,0.34375,81,98,22,33,22
131216,-0.730825,-0.464851,0.338526,0.511817,0.345333,-0.734375,-0.46875,0.34375,0.515625,0.34375,81,98,22,33,22
131272,-0.700072,-0.483525,0.316006,0.510402,0.35719,-0.703125,-0.484375,0.3125,0.515625,0.359375,83,97,20,33,23
131280,-0.688149,-0.488626,0.297405,0.509088,0.370282,-0.6875,-0.484375,0.296875,0.5,0.375,84,97,19,32,24
131336,-0.730758,-0.465619,0.335991,0.51415,0.346235,-0.734375,-0.46875,0.34375,0.515625,0.34375,81,98,22,33,22
131344,-0.717337,-0.474088,0.328459,0.513146,0.34982,-0.71875,-0.46875,0.328125,0.515625,0.34375,82,98,21,33,22
131400,-0.688176,-0.490607,0.312221,0.509661,0.356901,-0.6875,-0.5,0.3125,0.515625,0.359375,84,96,20,33,23
131408,-0.726063,-0.470631,0.34653,0.51534,0.334824,-0.71875,-0.46875,0.34375,0.515625,0.328125,82,98,22,33,21
131464,-0.706905,-0.481076,0.332417,0.511759,0.343806,-0.703125,-0.484375,0.328125,0.515625,0.34375,83,97,21,33,22
131472,-0.669954,-0.496672,0.292475,0.501741,0.372411,-0.671875,-0.5,0.296875,0.5,0.375,85,96,19,32,24
131528,-0.73883,-0.461506,0.349677,0.515037,0.335622,-0.734375,-0.46875,0.34375,0.515625,0.34375,81,98,22,33,22
131592,-0.714487,-0.475225,0.330516,0.51053,0.348666,-0.71875,-0.46875,0.328125,0.515625,0.34375,82,98,21,33,22
131600,-0.732501,-0.465008,0.339903,0.514571,0.343035,-0.734375,-0.46875,0.34375,0.515625,0.34375,81,98,22,33,22
131656,-0.757467,-0.449547,0.364919,0.517275,0.324821,-0.75,-0.453125,0.359375,0.515625,0.328125,80,99,23,33,21
131664,-0.714674,-0.475307,0.328682,0.511602,0.349697,-0.71875,-0.46875,0.328125,0.515625,0.34375,82,98,21,33,22
131720,-0.722219,-0.470849,0.333795,0.512259,0.347014,-0.71875,-0.46875,0.328125,0.515625,0.34375,82,98,21,33,22
131784,-0.725594,-0.470141,0.346522,0.513593,0.33562,-0.71875,-0.46875,0.34375,0.515625,0.328125,82,98,22,33,21
131792,-0.724345,-0.468013,0.332118,0.510808,0.349431,-0.71875,-0.46875,0.328125,0.515625,0.34375,82,98,21,33,22
131848,-0.742512,-0.459788,0.357621,0.515308,0.329371,-0.75,-0.453125,0.359375,0.515625,0.328125,80,99,23,33,21
131856,-0.711245,-0.47767,0.333878,0.510251,0.344786,-0.703125,-0.484375,0.328125,0.515625,0.34375,83,97,21,33,22
131912,-0.743921,-0.457107,0.359873,0.511295,0.32986,-0.75,-0.453125,0.359375,0.515625,0.328125,80,99,23,33,21
131920,-0.714661,-0.476291,0.340247,0.511593,0.339111,-0.71875,-0.484375,0.34375,0.515625,0.34375,82,97,22,33,22
131976,-0.75749,-0.447092,0.358845,0.512114,0.333623,-0.75,-0.453125,0.359375,0.515625,0.328125,80,99,23,33,21
132040,-0.712605,-0.478323,0.341294,0.512129,0.337505,-0.71875,-0.484375,0.34375,0.515625,0.34375,82,97,22,33,22
132048,-0.744661,-0.455485,0.349668,0.511616,0.338863,-0.75,-0.453125,0.34375,0.515625,0.34375,80,99,22,33,22
132104,-0.685365,-0.492522,0.318551,0.508073,0.351263,-0.6875,-0.5,0.3125,0.515625,0.359375,84,96,20,33,23
132168,-0.732457,-0.465718,0.360242,0.511841,0.326091,-0.734375,-0.46875,0.359375,0.515625,0.328125,81,98,23,33,21
132232,-0.73798,-0.462097,0.359267,0.512856,0.327954,-0.734375,-0.46875,0.359375,0.515625,0.328125,81,98,23,33,21
132296,-0.750455,-0.455006,0.371749,0.51502,0.318691,-0.75,-0.453125,0.375,0.515625,0.3125,80,99,24,33,20
132360,-0.724256,-0.46948,0.344376,0.509949,0.339411,-0.71875,-0.46875,0.34375,0.5,0.34375,82,98,22,32,22
132488,-0.78307,-0.428766,0.380528,0.512434,0.318875,-0.78125,-0.421875,0.375,0.515625,0.3125,78,101,24,33,20
132496,-0.766391,-0.442152,0.374494,0.513582,0.320467,-0.765625,-0.4375,0.375,0.515625,0.3125,79,100,24,33,20
132504,-0.759415,-0.446588,0.370167,0.512137,0.323699,-0.765625,-0.453125,0.375,0.515625,0.328125,79,99,24,33,21
132616,-0.770447,-0.438679,0.373357,0.512862,0.322907,-0.765625,-0.4375,0.375,0.515625,0.3125,79,100,24,33,20
132744,-0.807181,-0.41038,0.392061,0.514698,0.310803,-0.8125,-0.40625,0.390625,0.515625,0.3125,76,102,25,33,20
132872,-0.769346,-0.441043,0.375745,0.516145,0.318499,-0.765625,-0.4375,0.375,0.515625,0.3125,79,100,24,33,20
132888,-0.760333,-0.445781,0.364353,0.512982,0.328779,-0.765625,-0.4375,0.359375,0.515625,0.328125,79,100,23,33,21
139336,-0.722064,-0.472138,0.336113,0.514378,0.343711,-0.71875,-0.46875,0.328125,0.515625,0.34375,82,98,21,33,22
139344,-0.713466,-0.476295,0.331791,0.511323,0.346647,-0.71875,-0.46875,0.328125,0.515625,0.34375,82,98,21,33,22
139400,-0.755603,-0.451119,0.359041,0.518021,0.32966,-0.75,-0.453125,0.359375,0.515625,0.328125,80,99,23,33,21
139408,-0.699666,-0.484453,0.325007,0.509743,0.349369,-0.703125,-0.484375,0.328125,0.515625,0.34375,83,97,21,33,22
139464,-0.733149,-0.465553,0.342422,0.51622,0.34006,-0.734375,-0.46875,0.34375,0.515625,0.34375,81,98,22,33,22
139472,-0.736318,-0.462413,0.34147,0.514521,0.342739,-0.734375,-0.46875,0.34375,0.515625,0.34375,81,98,22,33,22
139528,-0.696112,-0.483832,0.309164,0.507106,0.363675,-0.703125,-0.484375,0.3125,0.515625,0.359375,83,97,20,33,23
139536,-0.695291,-0.487188,0.313745,0.511996,0.356738,-0.703125,-0.484375,0.3125,0.515625,0.359375,83,97,20,33,23
139592,-0.733256,-0.465143,0.346399,0.514488,0.337512,-0.734375,-0.46875,0.34375,0.515625,0.34375,81,98,22,33,22
139600,-0.741525,-0.460238,0.356014,0.515591,0.330157,-0.75,-0.453125,0.359375,0.515625,0.328125,80,99,23,33,21
139656,-0.707897,-0.480648,0.330415,0.512458,0.345672,-0.703125,-0.484375,0.328125,0.515625,0.34375,83,97,21,33,22
139720,-0.717372,-0.473281,0.326722,0.511912,0.352018,-0.71875,-0.46875,0.328125,0.515625,0.34375,82,98,21,33,22
139728,-0.673957,-0.497284,0.299016,0.507314,0.364911,-0.671875,-0.5,0.296875,0.515625,0.359375,85,96,19,33,23
139784,-0.712309,-0.476846,0.325172,0.512149,0.351834,-0.71875,-0.484375,0.328125,0.515625,0.359375,82,97,21,33,23
139848,-0.697703,-0.484532,0.318371,0.508639,0.355225,-0.703125,-0.484375,0.3125,0.515625,0.359375,83,97,20,33,23
139856,-0.688002,-0.49126,0.314469,0.509962,0.35483,-0.6875,-0.5,0.3125,0.515625,0.359375,84,96,20,33,23
139912,-0.711547,-0.476786,0.326298,0.51092,0.351116,-0.71875,-0.46875,0.328125,0.515625,0.34375,82,98,21,33,22
139920,-0.690855,-0.489269,0.316712,0.509401,0.354011,-0.6875,-0.484375,0.3125,0.5,0.359375,84,97,20,32,23
139976,-0.703408,-0.484297,0.33507,0.512672,0.339963,-0.703125,-0.484375,0.328125,0.515625,0.34375,83,97,21,33,22
139984,-0.72707,-0.468402,0.344302,0.512102,0.339068,-0.734375,-0.46875,0.34375,0.515625,0.34375,81,98,22,33,22
140040,-0.70144,-0.482761,0.32084,0.509951,0.35341,-0.703125,-0.484375,0.3125,0.515625,0.359375,83,97,20,33,23
140048,-0.704087,-0.483475,0.332256,0.512423,0.342882,-0.703125,-0.484375,0.328125,0.515625,0.34375,83,97,21,33,22
140104,-0.739168,-0.462375,0.354966,0.516086,0.330491,-0.734375,-0.46875,0.359375,0.515625,0.328125,81,98,23,33,21
140112,-0.715561,-0.474542,0.331436,0.510738,0.347928,-0.71875,-0.46875,0.328125,0.515625,0.34375,82,98,21,33,22
140168,-0.716953,-0.47545,0.345969,0.51125,0.335184,-0.71875,-0.46875,0.34375,0.515625,0.328125,82,98,22,33,21
140232,-0.705342,-0.48236,0.332801,0.51181,0.343091,-0.703125,-0.484375,0.328125,0.515625,0.34375,83,97,21,33,22
140296,-0.758987,-0.448659,0.374659,0.515179,0.317807,-0.75,-0.453125,0.375,0.515625,0.3125,80,99,24,33,20
140304,-0.692569,-0.488284,0.32133,0.508527,0.350996,-0.6875,-0.484375,0.328125,0.5,0.34375,84,97,21,32,22
140360,-0.746652,-0.456658,0.362187,0.51409,0.327034,-0.75,-0.453125,0.359375,0.515625,0.328125,80,99,23,33,21
140368,-0.716981,-0.474413,0.343946,0.509497,0.337952,-0.71875,-0.46875,0.34375,0.5,0.34375,82,98,22,32,22
140424,-0.744413,-0.4585,0.367333,0.513852,0.321728,-0.75,-0.453125,0.359375,0.515625,0.328125,80,99,23,33,21
140432,-0.731786,-0.463843,0.354619,0.507665,0.333346,-0.734375,-0.46875,0.359375,0.515625,0.328125,81,98,23,33,21
140488,-0.732942,-0.463813,0.347053,0.510863,0.338839,-0.734375,-0.46875,0.34375,0.515625,0.34375,81,98,22,33,22
140552,-0.706174,-0.481161,0.339828,0.508696,0.33881,-0.703125,-0.484375,0.34375,0.5,0.34375,83,97,22,32,22
140680,-0.768458,-0.441495,0.375906,0.515276,0.318771,-0.765625,-0.4375,0.375,0.515625,0.3125,79,100,24,33,20
140688,-0.781852,-0.431264,0.385713,0.515736,0.311666,-0.78125,-0.4375,0.390625,0.515625,0.3125,78,100,25,33,20
140808,-0.774301,-0.43783,0.381391,0.516483,0.314257,-0.765625,-0.4375,0.375,0.515625,0.3125,79,100,24,33,20
140816,-0.756172,-0.450265,0.3682,0.514972,0.323266,-0.75,-0.453125,0.359375,0.515625,0.328125,80,99,23,33,21
140936,-0.676664,-0.495021,0.291322,0.508082,0.372281,-0.671875,-0.5,0.296875,0.5,0.375,85,96,19,32,24
141064,-0.780507,-0.429952,0.375647,0.511701,0.323111,-0.78125,-0.4375,0.375,0.515625,0.328125,78,100,24,33,21
141072,-0.843343,-0.377796,0.416192,0.511474,0.293473,-0.84375,-0.375,0.40625,0.515625,0.296875,74,104,26,33,19
147528,-0.696356,-0.486876,0.322304,0.510801,0.350128,-0.703125,-0.484375,0.328125,0.515625,0.34375,83,97,21,33,22
147536,-0.677919,-0.495034,0.303828,0.506364,0.362761,-0.671875,-0.5,0.3125,0.5,0.359375,85,96,20,32,23
147592,-0.711353,-0.476699,0.322525,0.511191,0.354335,-0.71875,-0.484375,0.328125,0.515625,0.359375,82,97,21,33,23
147600,-0.74161,-0.459552,0.349742,0.515014,0.336407,-0.734375,-0.453125,0.34375,0.515625,0.328125,81,99,22,33,21
147656,-0.73189,-0.464925,0.3326,0.514908,0.349309,-0.734375,-0.46875,0.328125,0.515625,0.359375,81,98,21,33,23
147664,-0.721024,-0.469545,0.326143,0.50957,0.354856,-0.71875,-0.46875,0.328125,0.5,0.359375,82,98,21,32,23
147672,-0.725234,-0.46734,0.323594,0.511712,0.357268,-0.734375,-0.46875,0.328125,0.515625,0.359375,81,98,21,33,23
147720,-0.718041,-0.472328,0.317608,0.513179,0.359582,-0.71875,-0.46875,0.3125,0.515625,0.359375,82,98,20,33,23
147728,-0.765081,-0.443696,0.366484,0.51632,0.325973,-0.765625,-0.4375,0.359375,0.515625,0.328125,79,100,23,33,21
147784,-0.714242,-0.474448,0.327114,0.509314,0.352261,-0.71875,-0.46875,0.328125,0.515625,0.34375,82,98,21,33,22
147792,-0.72668,-0.467946,0.338492,0.512058,0.344075,-0.734375,-0.46875,0.34375,0.515625,0.34375,81,98,22,33,22
147848,-0.685234,-0.491034,0.311447,0.506417,0.358404,-0.6875,-0.484375,0.3125,0.5,0.359375,84,97,20,32,23
147856,-0.71046,-0.476939,0.329722,0.508383,0.349294,-0.703125,-0.484375,0.328125,0.515625,0.34375,83,97,21,33,22
147912,-0.721247,-0.472783,0.340328,0.513925,0.339777,-0.71875,-0.484375,0.34375,0.515625,0.34375,82,97,22,33,22
147976,-0.759147,-0.444669,0.3447,0.512963,0.346152,-0.765625,-0.4375,0.34375,0.515625,0.34375,79,100,22,33,22
147984,-0.693811,-0.484519,0.306392,0.50572,0.366219,-0.6875,-0.484375,0.3125,0.5,0.359375,84,97,20,32,23
148040,-0.708536,-0.47933,0.329493,0.510972,0.347401,-0.703125,-0.484375,0.328125,0.515625,0.34375,83,97,21,33,22
148104,-0.739184,-0.461684,0.351196,0.515306,0.334366,-0.734375,-0.46875,0.359375,0.515625,0.328125,81,98,23,33,21
148112,-0.729623,-0.46574,0.342535,0.511048,0.34178,-0.734375,-0.46875,0.34375,0.515625,0.34375,81,98,22,33,22
148168,-0.693395,-0.487698,0.315802,0.509743,0.355548,-0.703125,-0.484375,0.3125,0.515625,0.359375,83,97,20,33,23
148176,-0.740235,-0.459143,0.346929,0.512864,0.339586,-0.734375,-0.46875,0.34375,0.515625,0.34375,81,98,22,33,22
148232,-0.729136,-0.468024,0.344456,0.51485,0.337854,-0.734375,-0.46875,0.34375,0.515625,0.34375,81,98,22,33,22
148296,-0.741137,-0.459424,0.356173,0.51257,0.331818,-0.75,-0.453125,0.359375,0.515625,0.328125,80,99,23,33,21
148360,-0.715371,-0.475688,0.333348,0.512584,0.345127,-0.71875,-0.46875,0.328125,0.515625,0.34375,82,98,21,33,22
148368,-0.753314,-0.450969,0.360788,0.513512,0.329982,-0.75,-0.453125,0.359375,0.515625,0.328125,80,99,23,33,21
148424,-0.691384,-0.48797,0.315308,0.507461,0.356585,-0.6875,-0.484375,0.3125,0.5,0.359375,84,97,20,32,23
148432,-0.715215,-0.476745,0.3436,0.512185,0.336175,-0.71875,-0.484375,0.34375,0.515625,0.34375,82,97,22,33,22
148488,-0.727749,-0.468606,0.344566,0.513543,0.338246,-0.734375,-0.46875,0.34375,0.515625,0.34375,81,98,22,33,22
148496,-0.736832,-0.463271,0.355407,0.51416,0.330538,-0.734375,-0.46875,0.359375,0.515625,0.328125,81,98,23,33,21
148552,-0.715189,-0.477037,0.344633,0.513075,0.334518,-0.71875,-0.46875,0.34375,0.515625,0.328125,82,98,22,33,21
148616,-0.721796,-0.471151,0.345827,0.509687,0.337433,-0.71875,-0.46875,0.34375,0.515625,0.328125,82,98,22,33,21
148680,-0.735058,-0.463046,0.346591,0.51288,0.338633,-0.734375,-0.46875,0.34375,0.515625,0.34375,81,98,22,33,22
148744,-0.759259,-0.445809,0.370248,0.510328,0.324491,-0.765625,-0.453125,0.375,0.515625,0.328125,79,99,24,33,21
148872,-0.755868,-0.448918,0.363301,0.51255,0.328935,-0.75,-0.453125,0.359375,0.515625,0.328125,80,99,23,33,21
148880,-0.774014,-0.437987,0.386693,0.515029,0.310279,-0.78125,-0.4375,0.390625,0.515625,0.3125,78,100,25,33,20
148888,-0.773504,-0.437948,0.380113,0.515302,0.316036,-0.765625,-0.4375,0.375,0.515625,0.3125,79,100,24,33,20
149000,-0.798589,-0.418643,0.39709,0.515186,0.304956,-0.796875,-0.421875,0.390625,0.515625,0.3125,77,101,25,33,20
149128,-0.808055,-0.411891,0.405161,0.51718,0.297605,-0.8125,-0.40625,0.40625,0.515625,0.296875,76,102,26,33,19
149256,-0.809847,-0.406714,0.391081,0.512485,0.312995,-0.8125,-0.40625,0.390625,0.515625,0.3125,76,102,25,33,20
149264,-0.832094,-0.389805,0.412989,0.51517,0.293741,-0.828125,-0.390625,0.40625,0.515625,0.296875,75,103,26,33,19
155720,-0.704581,-0.477742,0.287341,0.511474,0.383508,-0.703125,-0.484375,0.28125,0.515625,0.390625,83,97,18,33,25
155728,-0.724596,-0.467631,0.312597,0.514218,0.365412,-0.71875,-0.46875,0.3125,0.515625,0.359375,82,98,20,33,23
155736,-0.710333,-0.475634,0.296441,0.513353,0.376173,-0.71875,-0.46875,0.296875,0.515625,0.375,82,98,19,33,24
155784,-0.696489,-0.485645,0.313014,0.510511,0.358609,-0.703125,-0.484375,0.3125,0.515625,0.359375,83,97,20,33,23
155792,-0.7251,-0.468474,0.321184,0.515015,0.357374,-0.71875,-0.46875,0.3125,0.515625,0.359375,82,98,20,33,23
155800,-0.723768,-0.468264,0.326306,0.511197,0.354529,-0.734375,-0.46875,0.328125,0.515625,0.359375,81,98,21,33,23
155848,-0.686501,-0.490086,0.311527,0.50639,0.35867,-0.6875,-0.484375,0.3125,0.5,0.359375,84,97,20,32,23
155856,-0.70847,-0.478263,0.304993,0.514435,0.367304,-0.703125,-0.484375,0.3125,0.515625,0.359375,83,97,20,33,23
155864,-0.696209,-0.481817,0.301472,0.504674,0.37188,-0.6875,-0.484375,0.296875,0.5,0.375,84,97,19,32,24
155912,-0.708848,-0.476567,0.29322,0.513865,0.378329,-0.703125,-0.484375,0.296875,0.515625,0.375,83,97,19,33,24
155920,-0.736806,-0.458519,0.311107,0.513836,0.370382,-0.734375,-0.46875,0.3125,0.515625,0.375,81,98,20,33,24
155928,-0.727716,-0.464865,0.310238,0.513788,0.368555,-0.734375,-0.46875,0.3125,0.515625,0.375,81,98,20,33,24
155976,-0.761012,-0.445309,0.343528,0.517803,0.34499,-0.765625,-0.4375,0.34375,0.515625,0.34375,79,100,22,33,22
155984,-0.708836,-0.478594,0.32047,0.511734,0.355226,-0.703125,-0.484375,0.3125,0.515625,0.359375,83,97,20,33,23
155992,-0.708096,-0.478203,0.313925,0.511253,0.361121,-0.703125,-0.484375,0.3125,0.515625,0.359375,83,97,20,33,23
156040,-0.722382,-0.470781,0.322515,0.515087,0.355561,-0.71875,-0.46875,0.3125,0.515625,0.359375,82,98,20,33,23
156048,-0.741354,-0.455812,0.335022,0.509903,0.352242,-0.734375,-0.453125,0.328125,0.515625,0.34375,81,99,21,33,22
156056,-0.676647,-0.496552,0.291839,0.511041,0.37032,-0.671875,-0.5,0.28125,0.515625,0.375,85,96,18,33,24
156104,-0.736355,-0.461115,0.343351,0.51161,0.342509,-0.734375,-0.46875,0.34375,0.515625,0.34375,81,98,22,33,22
156112,-0.737486,-0.461374,0.340215,0.514772,0.343874,-0.734375,-0.46875,0.34375,0.515625,0.34375,81,98,22,33,22
156120,-0.671653,-0.498749,0.293806,0.508415,0.368181,-0.671875,-0.5,0.296875,0.5,0.375,85,96,19,32,24
156168,-0.755983,-0.447454,0.32668,0.518043,0.358714,-0.75,-0.453125,0.328125,0.515625,0.359375,80,99,21,33,23
156176,-0.690009,-0.486545,0.292637,0.507941,0.375977,-0.6875,-0.484375,0.296875,0.5,0.375,84,97,19,32,24
156184,-0.690341,-0.489639,0.305083,0.512299,0.362599,-0.6875,-0.484375,0.296875,0.515625,0.359375,84,97,19,33,23
156232,-0.717578,-0.473845,0.323557,0.513981,0.353886,-0.71875,-0.46875,0.328125,0.515625,0.34375,82,98,21,33,22
156240,-0.711224,-0.47783,0.32039,0.514363,0.354301,-0.71875,-0.484375,0.328125,0.515625,0.359375,82,97,21,33,23
156248,-0.745329,-0.457385,0.343872,0.517635,0.341206,-0.75,-0.453125,0.34375,0.515625,0.34375,80,99,22,33,22
156256,-0.691462,-0.487604,0.301259,0.510407,0.367401,-0.6875,-0.484375,0.296875,0.515625,0.359375,84,97,19,33,23
156296,-0.697521,-0.485197,0.31326,0.511016,0.358441,-0.703125,-0.484375,0.3125,0.515625,0.359375,83,97,20,33,23
156304,-0.734553,-0.462568,0.336278,0.51349,0.347353,-0.734375,-0.46875,0.34375,0.515625,0.34375,81,98,22,33,22
156312,-0.687326,-0.489471,0.299798,0.508922,0.368077,-0.6875,-0.484375,0.296875,0.515625,0.359375,84,97,19,33,23
156360,-0.679734,-0.493101,0.293405,0.50724,0.372189,-0.671875,-0.5,0.296875,0.5,0.375,85,96,19,32,24
156368,-0.714837,-0.473671,0.319137,0.510637,0.358735,-0.71875,-0.46875,0.3125,0.515625,0.359375,82,98,20,33,23
156376,-0.6941,-0.486969,0.310134,0.510666,0.360269,-0.703125,-0.484375,0.3125,0.515625,0.359375,83,97,20,33,23
156424,-0.706082,-0.477279,0.308999,0.507588,0.366774,-0.703125,-0.484375,0.3125,0.515625,0.359375,83,97,20,33,23
156432,-0.707987,-0.480006,0.32324,0.513066,0.351687,-0.703125,-0.484375,0.328125,0.515625,0.34375,83,97,21,33,22
156440,-0.735914,-0.45841,0.321084,0.510217,0.363024,-0.734375,-0.453125,0.3125,0.515625,0.359375,81,99,20,33,23
156448,-0.699084,-0.482847,0.306032,0.510038,0.365862,-0.703125,-0.484375,0.3125,0.515625,0.359375,83,97,20,33,23
156488,-0.728601,-0.467896,0.336782,0.515648,0.344066,-0.734375,-0.46875,0.34375,0.515625,0.34375,81,98,22,33,22
156496,-0.726169,-0.469048,0.334967,0.514509,0.345741,-0.71875,-0.46875,0.328125,0.515625,0.34375,82,98,21,33,22
156552,-0.723316,-0.470664,0.335672,0.513108,0.345201,-0.71875,-0.46875,0.328125,0.515625,0.34375,82,98,21,33,22
156560,-0.704827,-0.48217,0.317972,0.514177,0.354849,-0.703125,-0.484375,0.3125,0.515625,0.359375,83,97,20,33,23
156616,-0.712525,-0.474593,0.315567,0.509701,0.36185,-0.71875,-0.46875,0.3125,0.515625,0.359375,82,98,20,33,23
156624,-0.710003,-0.479272,0.318008,0.515623,0.355645,-0.703125,-0.484375,0.3125,0.515625,0.359375,83,97,20,33,23
156680,-0.720902,-0.469045,0.322053,0.50899,0.358903,-0.71875,-0.46875,0.328125,0.5,0.359375,82,98,21,32,23
156688,-0.7352,-0.462343,0.33412,0.514609,0.348814,-0.734375,-0.453125,0.328125,0.515625,0.34375,81,99,21,33,22
163912,-0.73823,-0.458172,0.312615,0.515375,0.368412,-0.734375,-0.453125,0.3125,0.515625,0.359375,81,99,20,33,23
163920,-0.787199,-0.424005,0.352858,0.516384,0.341962,-0.78125,-0.421875,0.34375,0.515625,0.34375,78,101,22,33,22
163976,-0.758525,-0.444024,0.32475,0.515691,0.362107,-0.765625,-0.4375,0.328125,0.515625,0.359375,79,100,21,33,23
164040,-0.699177,-0.480953,0.286785,0.510853,0.382492,-0.703125,-0.484375,0.28125,0.515625,0.390625,83,97,18,33,25
164104,-0.752298,-0.446564,0.32019,0.511351,0.367321,-0.75,-0.453125,0.3125,0.515625,0.375,80,99,20,33,24
164112,-0.770082,-0.435345,0.332618,0.514628,0.35818,-0.765625,-0.4375,0.328125,0.515625,0.359375,79,100,21,33,23
164120,-0.765004,-0.439891,0.330079,0.516211,0.358603,-0.765625,-0.4375,0.328125,0.515625,0.359375,79,100,21,33,23
164168,-0.699683,-0.48128,0.310237,0.506485,0.364241,-0.703125,-0.484375,0.3125,0.515625,0.359375,83,97,20,33,23
164176,-0.7097,-0.476953,0.312433,0.511432,0.362788,-0.703125,-0.484375,0.3125,0.515625,0.359375,83,97,20,33,23
164232,-0.728146,-0.464592,0.312346,0.512934,0.367458,-0.734375,-0.46875,0.3125,0.515625,0.375,81,98,20,33,24
164240,-0.692521,-0.485523,0.303053,0.506907,0.368083,-0.6875,-0.484375,0.296875,0.5,0.375,84,97,19,32,24
164248,-0.692942,-0.485584,0.307464,0.506676,0.364387,-0.6875,-0.484375,0.3125,0.5,0.359375,84,97,20,32,23
164296,-0.720419,-0.469611,0.309061,0.512811,0.368157,-0.71875,-0.46875,0.3125,0.515625,0.359375,82,98,20,33,23
164304,-0.727701,-0.465488,0.310092,0.515136,0.36796,-0.734375,-0.46875,0.3125,0.515625,0.375,81,98,20,33,24
164312,-0.739158,-0.456281,0.311071,0.51304,0.371328,-0.75,-0.453125,0.3125,0.515625,0.375,80,99,20,33,24
164360,-0.788487,-0.423347,0.351639,0.517171,0.343025,-0.78125,-0.421875,0.34375,0.515625,0.34375,78,101,22,33,22
164368,-0.801286,-0.415015,0.363438,0.519949,0.332914,-0.796875,-0.40625,0.359375,0.515625,0.328125,77,102,23,33,21
164376,-0.721062,-0.46962,0.322666,0.510317,0.357698,-0.71875,-0.46875,0.3125,0.515625,0.359375,82,98,20,33,23
164424,-0.720514,-0.471239,0.322995,0.513158,0.355601,-0.71875,-0.46875,0.3125,0.515625,0.359375,82,98,20,33,23
164432,-0.731177,-0.462722,0.325217,0.511146,0.357536,-0.734375,-0.46875,0.328125,0.515625,0.359375,81,98,21,33,23
164440,-0.721262,-0.468763,0.319152,0.509824,0.361049,-0.71875,-0.46875,0.3125,0.515625,0.359375,82,98,20,33,23
164488,-0.722556,-0.46656,0.317805,0.507699,0.363612,-0.71875,-0.46875,0.3125,0.515625,0.359375,82,98,20,33,23
164496,-0.683228,-0.491779,0.299485,0.50798,0.367542,-0.6875,-0.484375,0.296875,0.5,0.375,84,97,19,32,24
164504,-0.715531,-0.475504,0.329263,0.513229,0.348543,-0.71875,-0.46875,0.328125,0.515625,0.34375,82,98,21,33,22
164552,-0.682217,-0.494514,0.308162,0.510487,0.358082,-0.6875,-0.5,0.3125,0.515625,0.359375,84,96,20,33,23
164560,-0.692139,-0.485293,0.309706,0.503858,0.363868,-0.6875,-0.484375,0.3125,0.5,0.359375,84,97,20,32,23
164616,-0.693075,-0.487676,0.310546,0.510783,0.359422,-0.703125,-0.484375,0.3125,0.515625,0.359375,83,97,20,33,23
164624,-0.758246,-0.446567,0.343785,0.515829,0.345199,-0.75,-0.453125,0.34375,0.515625,0.34375,80,99,22,33,22
164632,-0.711778,-0.476882,0.323732,0.512181,0.352747,-0.71875,-0.484375,0.328125,0.515625,0.359375,82,97,21,33,23
164680,-0.720804,-0.468512,0.316735,0.508887,0.363693,-0.71875,-0.46875,0.3125,0.515625,0.359375,82,98,20,33,23
164688,-0.761001,-0.443809,0.351169,0.512819,0.340822,-0.765625,-0.4375,0.34375,0.515625,0.34375,79,100,22,33,22
164744,-0.711557,-0.478068,0.326451,0.513397,0.349777,-0.703125,-0.484375,0.328125,0.515625,0.34375,83,97,21,33,22
164752,-0.739296,-0.458499,0.33771,0.511958,0.348127,-0.734375,-0.453125,0.328125,0.515625,0.34375,81,99,21,33,22
164808,-0.733328,-0.464367,0.344672,0.513432,0.33959,-0.734375,-0.46875,0.34375,0.515625,0.34375,81,98,22,33,22
164816,-0.719041,-0.470476,0.31545,0.510846,0.363221,-0.71875,-0.46875,0.3125,0.515625,0.359375,82,98,20,33,23
164824,-0.690827,-0.489727,0.315963,0.510841,0.35375,-0.6875,-0.484375,0.3125,0.515625,0.34375,84,97,20,33,22
164872,-0.690096,-0.489624,0.307923,0.511145,0.360652,-0.6875,-0.5,0.3125,0.515625,0.359375,84,96,20,33,23
164880,-0.719065,-0.473373,0.328297,0.514139,0.350002,-0.71875,-0.46875,0.328125,0.515625,0.34375,82,98,21,33,22
164888,-0.705266,-0.48179,0.318673,0.513968,0.354415,-0.703125,-0.484375,0.3125,0.515625,0.359375,83,97,20,33,23
172104,-0.752622,-0.448274,0.324693,0.514642,0.361561,-0.75,-0.453125,0.328125,0.515625,0.359375,80,99,21,33,23
172168,-0.771109,-0.437283,0.337933,0.519699,0.35076,-0.765625,-0.4375,0.34375,0.515625,0.34375,79,100,22,33,22
172232,-0.758244,-0.443044,0.322856,0.513594,0.364838,-0.765625,-0.4375,0.328125,0.515625,0.359375,79,100,21,33,23
172296,-0.757697,-0.444467,0.326278,0.514677,0.36121,-0.765625,-0.4375,0.328125,0.515625,0.359375,79,100,21,33,23
172368,-0.742588,-0.456863,0.338771,0.513329,0.347351,-0.75,-0.453125,0.34375,0.515625,0.34375,80,99,22,33,22
172376,-0.746412,-0.452907,0.338838,0.511124,0.349357,-0.75,-0.453125,0.34375,0.515625,0.34375,80,99,22,33,22
172440,-0.72276,-0.467982,0.317477,0.511056,0.362209,-0.71875,-0.46875,0.3125,0.515625,0.359375,82,98,20,33,23
172488,-0.781414,-0.427959,0.342449,0.516133,0.350791,-0.78125,-0.421875,0.34375,0.515625,0.34375,78,101,22,33,22
172496,-0.734508,-0.461883,0.332314,0.512907,0.351169,-0.734375,-0.46875,0.328125,0.515625,0.359375,81,98,21,33,23
172504,-0.736257,-0.462319,0.329847,0.516992,0.351738,-0.734375,-0.46875,0.328125,0.515625,0.359375,81,98,21,33,23
172512,-0.742184,-0.458567,0.339092,0.516546,0.345113,-0.75,-0.453125,0.34375,0.515625,0.34375,80,99,22,33,22
172552,-0.734902,-0.455489,0.313087,0.504352,0.372951,-0.734375,-0.453125,0.3125,0.5,0.375,81,99,20,32,24
172560,-0.766217,-0.438357,0.330292,0.515323,0.358958,-0.765625,-0.4375,0.328125,0.515625,0.359375,79,100,21,33,23
172568,-0.755901,-0.447498,0.340525,0.51473,0.348144,-0.75,-0.453125,0.34375,0.515625,0.34375,80,99,22,33,22
172576,-0.768129,-0.440851,0.355013,0.518373,0.335594,-0.765625,-0.4375,0.359375,0.515625,0.328125,79,100,23,33,21
172584,-0.744361,-0.454889,0.331552,0.513488,0.354209,-0.75,-0.453125,0.328125,0.515625,0.359375,80,99,21,33,23
172616,-0.785622,-0.428613,0.376916,0.517652,0.319667,-0.78125,-0.421875,0.375,0.515625,0.3125,78,101,24,33,20
172624,-0.725869,-0.46784,0.329994,0.512353,0.351362,-0.71875,-0.46875,0.328125,0.515625,0.34375,82,98,21,33,22
172632,-0.756188,-0.446169,0.344109,0.511442,0.346806,-0.75,-0.453125,0.34375,0.515625,0.34375,80,99,22,33,22
172680,-0.740124,-0.459516,0.338334,0.515338,0.345967,-0.734375,-0.46875,0.34375,0.515625,0.34375,81,98,22,33,22
172688,-0.730034,-0.465963,0.331963,0.514552,0.349482,-0.734375,-0.46875,0.328125,0.515625,0.359375,81,98,21,33,23
172744,-0.758928,-0.445252,0.350023,0.513094,0.341063,-0.765625,-0.4375,0.34375,0.515625,0.34375,79,100,22,33,22
172752,-0.770634,-0.438037,0.355288,0.516581,0.336802,-0.765625,-0.4375,0.359375,0.515625,0.328125,79,100,23,33,21
172760,-0.753139,-0.452124,0.354106,0.517017,0.33414,-0.75,-0.453125,0.359375,0.515625,0.328125,80,99,23,33,21
172808,-0.767502,-0.440529,0.353436,0.516357,0.338238,-0.765625,-0.4375,0.34375,0.515625,0.34375,79,100,22,33,22
172816,-0.749761,-0.453739,0.341523,0.517823,0.344154,-0.75,-0.453125,0.34375,0.515625,0.34375,80,99,22,33,22
172824,-0.773441,-0.437481,0.359065,0.519271,0.332585,-0.765625,-0.4375,0.359375,0.515625,0.328125,79,100,23,33,21
172872,-0.723813,-0.469025,0.32539,0.513019,0.35443,-0.734375,-0.46875,0.328125,0.515625,0.359375,81,98,21,33,23
172880,-0.761182,-0.444304,0.347395,0.51523,0.342861,-0.765625,-0.4375,0.34375,0.515625,0.34375,79,100,22,33,22
172936,-0.780531,-0.432734,0.371246,0.518582,0.323437,-0.78125,-0.4375,0.375,0.515625,0.328125,78,100,24,33,21
172944,-0.684243,-0.492365,0.316034,0.507637,0.352938,-0.6875,-0.5,0.3125,0.515625,0.359375,84,96,20,33,23
173000,-0.765494,-0.441277,0.350342,0.515256,0.341173,-0.765625,-0.4375,0.34375,0.515625,0.34375,79,100,22,33,22
173008,-0.700809,-0.480978,0.307789,0.508055,0.365943,-0.703125,-0.484375,0.3125,0.515625,0.359375,83,97,20,33,23
173016,-0.781193,-0.428708,0.35732,0.514131,0.338449,-0.78125,-0.4375,0.359375,0.515625,0.34375,78,100,23,33,22
173064,-0.800557,-0.413874,0.371542,0.514389,0.3285,-0.796875,-0.421875,0.375,0.515625,0.328125,77,101,24,33,21
173072,-0.681719,-0.495293,0.305528,0.512303,0.35918,-0.6875,-0.5,0.3125,0.515625,0.359375,84,96,20,33,23
180296,-0.71869,-0.470449,0.311805,0.511503,0.365831,-0.71875,-0.46875,0.3125,0.515625,0.359375,82,98,20,33,23
180304,-0.687068,-0.487811,0.289114,0.507292,0.378473,-0.6875,-0.484375,0.296875,0.5,0.375,84,97,19,32,24
180360,-0.740895,-0.456805,0.326413,0.513944,0.357343,-0.75,-0.453125,0.328125,0.515625,0.359375,80,99,21,33,23
180424,-0.702167,-0.478351,0.287634,0.508933,0.383952,-0.703125,-0.484375,0.28125,0.515625,0.390625,83,97,18,33,25
180432,-0.715074,-0.47163,0.298892,0.511293,0.376519,-0.71875,-0.46875,0.296875,0.515625,0.375,82,98,19,33,24
180440,-0.73834,-0.458993,0.318207,0.516164,0.362962,-0.734375,-0.453125,0.3125,0.515625,0.359375,81,99,20,33,23
180488,-0.704748,-0.479022,0.298193,0.512242,0.373334,-0.703125,-0.484375,0.296875,0.515625,0.375,83,97,19,33,24
180552,-0.747388,-0.455388,0.345861,0.51656,0.340355,-0.75,-0.453125,0.34375,0.515625,0.34375,80,99,22,33,22
180560,-0.730849,-0.462313,0.319522,0.510858,0.362783,-0.734375,-0.46875,0.328125,0.515625,0.359375,81,98,21,33,23
180568,-0.72413,-0.46876,0.323623,0.513392,0.355875,-0.734375,-0.46875,0.328125,0.515625,0.359375,81,98,21,33,23
180576,-0.703009,-0.481047,0.304068,0.512475,0.367513,-0.703125,-0.484375,0.296875,0.515625,0.375,83,97,19,33,24
180616,-0.758051,-0.445912,0.340539,0.514833,0.34859,-0.75,-0.453125,0.34375,0.515625,0.34375,80,99,22,33,22
180624,-0.681177,-0.492387,0.294684,0.507521,0.371361,-0.6875,-0.484375,0.296875,0.5,0.375,84,97,19,32,24
180632,-0.704524,-0.481676,0.314373,0.513622,0.358204,-0.703125,-0.484375,0.3125,0.515625,0.359375,83,97,20,33,23
180680,-0.717387,-0.47116,0.305576,0.512072,0.370899,-0.71875,-0.46875,0.296875,0.515625,0.375,82,98,19,33,24
180688,-0.69766,-0.483531,0.302005,0.510195,0.36899,-0.703125,-0.484375,0.296875,0.515625,0.375,83,97,19,33,24
180696,-0.752433,-0.449227,0.332074,0.514816,0.35477,-0.75,-0.453125,0.328125,0.515625,0.359375,80,99,21,33,23
180744,-0.684573,-0.491841,0.292112,0.512139,0.372163,-0.6875,-0.5,0.296875,0.515625,0.375,84,96,19,33,24
180752,-0.695309,-0.483518,0.294476,0.508896,0.375454,-0.703125,-0.484375,0.296875,0.515625,0.375,83,97,19,33,24
180760,-0.726099,-0.468523,0.325989,0.515436,0.353198,-0.734375,-0.46875,0.328125,0.515625,0.359375,81,98,21,33,23
180808,-0.788987,-0.422817,0.35849,0.515384,0.337929,-0.796875,-0.421875,0.359375,0.515625,0.34375,77,101,23,33,22
180816,-0.70544,-0.481871,0.318706,0.514452,0.354153,-0.703125,-0.484375,0.3125,0.515625,0.359375,83,97,20,33,23
180872,-0.68445,-0.489904,0.289015,0.508183,0.377155,-0.6875,-0.484375,0.28125,0.515625,0.375,84,97,18,33,24
180880,-0.704399,-0.478568,0.310882,0.507672,0.364413,-0.703125,-0.484375,0.3125,0.515625,0.359375,83,97,20,33,23
180888,-0.735903,-0.463971,0.342155,0.517482,0.340238,-0.734375,-0.46875,0.34375,0.515625,0.34375,81,98,22,33,22
180936,-0.72822,-0.465357,0.327817,0.511107,0.354652,-0.734375,-0.46875,0.328125,0.515625,0.359375,81,98,21,33,23
180944,-0.702913,-0.480467,0.309564,0.509727,0.36409,-0.703125,-0.484375,0.3125,0.515625,0.359375,83,97,20,33,23
180952,-0.726945,-0.467683,0.325863,0.514775,0.35399,-0.734375,-0.46875,0.328125,0.515625,0.359375,81,98,21,33,23
181000,-0.713061,-0.476078,0.317781,0.513458,0.357902,-0.71875,-0.46875,0.3125,0.515625,0.359375,82,98,20,33,23
181008,-0.75094,-0.451553,0.340086,0.515367,0.34704,-0.75,-0.453125,0.34375,0.515625,0.34375,80,99,22,33,22
181064,-0.721105,-0.471934,0.327681,0.514353,0.351005,-0.71875,-0.46875,0.328125,0.515625,0.34375,82,98,21,33,22
181072,-0.689011,-0.487523,0.301153,0.506783,0.368599,-0.6875,-0.484375,0.296875,0.5,0.375,84,97,19,32,24
181128,-0.744997,-0.455846,0.340528,0.514574,0.345741,-0.75,-0.453125,0.34375,0.515625,0.34375,80,99,22,33,22
181136,-0.688441,-0.490915,0.306824,0.511988,0.360543,-0.6875,-0.5,0.3125,0.515625,0.359375,84,96,20,33,23
181192,-0.71385,-0.472978,0.317958,0.508017,0.360852,-0.71875,-0.46875,0.3125,0.515625,0.359375,82,98,20,33,23
181200,-0.705164,-0.480169,0.314934,0.511071,0.359327,-0.703125,-0.484375,0.3125,0.515625,0.359375,83,97,20,33,23
181208,-0.730827,-0.467067,0.336582,0.517183,0.344129,-0.734375,-0.46875,0.34375,0.515625,0.34375,81,98,22,33,22
181256,-0.731937,-0.464511,0.328093,0.515529,0.352825,-0.734375,-0.46875,0.328125,0.515625,0.359375,81,98,21,33,23
181264,-0.68548,-0.491019,0.297372,0.509944,0.369183,-0.6875,-0.5,0.296875,0.515625,0.375,84,96,19,33,24
181272,-0.718566,-0.472514,0.330326,0.51157,0.349183,-0.71875,-0.46875,0.328125,0.515625,0.34375,82,98,21,33,22
188488,-0.707823,-0.477227,0.298284,0.512774,0.373991,-0.703125,-0.484375,0.296875,0.515625,0.375,83,97,19,33,24
188552,-0.730604,-0.464737,0.317289,0.51624,0.361812,-0.734375,-0.46875,0.328125,0.515625,0.359375,81,98,21,33,23
188560,-0.69719,-0.482933,0.295284,0.510233,0.374607,-0.703125,-0.484375,0.296875,0.515625,0.375,83,97,19,33,24
188616,-0.721134,-0.471088,0.328315,0.512669,0.351239,-0.71875,-0.46875,0.328125,0.515625,0.34375,82,98,21,33,22
188624,-0.709131,-0.478841,0.317419,0.513939,0.356613,-0.703125,-0.484375,0.3125,0.515625,0.359375,83,97,20,33,23
188632,-0.72319,-0.467122,0.319579,0.509281,0.361452,-0.71875,-0.46875,0.3125,0.515625,0.359375,82,98,20,33,23
188680,-0.68833,-0.488852,0.293266,0.510658,0.373258,-0.6875,-0.484375,0.296875,0.5,0.375,84,97,19,32,24
188688,-0.699258,-0.480462,0.293392,0.50821,0.378118,-0.703125,-0.484375,0.296875,0.515625,0.375,83,97,19,33,24
188696,-0.73218,-0.462359,0.317596,0.513731,0.363211,-0.734375,-0.453125,0.3125,0.515625,0.359375,81,99,20,33,23
188744,-0.717622,-0.470868,0.301787,0.512901,0.373802,-0.71875,-0.46875,0.296875,0.515625,0.375,82,98,19,33,24
188752,-0.688499,-0.490454,0.303592,0.512009,0.363353,-0.6875,-0.484375,0.296875,0.515625,0.359375,84,97,19,33,23
188760,-0.678235,-0.494276,0.299039,0.507222,0.36625,-0.671875,-0.5,0.296875,0.515625,0.359375,85,96,19,33,23
188808,-0.718169,-0.471477,0.327325,0.509475,0.352846,-0.71875,-0.46875,0.328125,0.515625,0.34375,82,98,21,33,22
188816,-0.690809,-0.489609,0.308866,0.512132,0.35942,-0.6875,-0.5,0.3125,0.515625,0.359375,84,96,20,33,23
