stripid,w1,w2,w3,w4,w5,w1c,w2c,w3c,w4c,w5c,encw1,encw2,encw3,encw4,encw5
8264,-0.629733,-0.518303,0.266023,0.502918,0.379094,-0.625000,-0.515625,0.265625,0.500000,0.375000,88.000000,95.000000,17.000000,32.000000,24.000000
8272,-0.632340,-0.517545,0.273350,0.502610,0.373926,-0.625000,-0.515625,0.265625,0.500000,0.375000,88.000000,95.000000,17.000000,32.000000,24.000000
8328,-0.657717,-0.506023,0.280775,0.508648,0.374317,-0.656250,-0.500000,0.281250,0.500000,0.375000,86.000000,96.000000,18.000000,32.000000,24.000000
8336,-0.606157,-0.526652,0.238364,0.499862,0.394583,-0.609375,-0.515625,0.234375,0.500000,0.390625,89.000000,95.000000,15.000000,32.000000,25.000000
8392,-0.657973,-0.503330,0.279476,0.503090,0.378736,-0.656250,-0.500000,0.281250,0.500000,0.375000,86.000000,96.000000,18.000000,32.000000,24.000000
8400,-0.605130,-0.526905,0.252720,0.495087,0.384229,-0.609375,-0.531250,0.250000,0.500000,0.390625,89.000000,94.000000,16.000000,32.000000,25.000000
8456,-0.608773,-0.526594,0.247128,0.500569,0.387670,-0.609375,-0.531250,0.250000,0.500000,0.390625,89.000000,94.000000,16.000000,32.000000,25.000000
8464,-0.631414,-0.515444,0.264860,0.498587,0.383410,-0.625000,-0.515625,0.265625,0.500000,0.375000,88.000000,95.000000,17.000000,32.000000,24.000000
8520,-0.633033,-0.516132,0.269059,0.501604,0.378502,-0.625000,-0.515625,0.265625,0.500000,0.375000,88.000000,95.000000,17.000000,32.000000,24.000000
8528,-0.647306,-0.510061,0.283478,0.502929,0.370960,-0.640625,-0.515625,0.281250,0.500000,0.375000,87.000000,95.000000,18.000000,32.000000,24.000000
8584,-0.625854,-0.520287,0.266414,0.502356,0.377371,-0.625000,-0.515625,0.265625,0.500000,0.375000,88.000000,95.000000,17.000000,32.000000,24.000000
8592,-0.656739,-0.505748,0.286903,0.504932,0.370652,-0.656250,-0.500000,0.281250,0.500000,0.375000,86.000000,96.000000,18.000000,32.000000,24.000000
8600,-0.616266,-0.523896,0.263359,0.499261,0.377543,-0.609375,-0.531250,0.265625,0.500000,0.375000,89.000000,94.000000,17.000000,32.000000,24.000000
8648,-0.614861,-0.521680,0.250122,0.495656,0.390763,-0.609375,-0.531250,0.250000,0.500000,0.390625,89.000000,94.000000,16.000000,32.000000,25.000000
8656,-0.655492,-0.504395,0.289687,0.499501,0.370698,-0.656250,-0.500000,0.281250,0.500000,0.375000,86.000000,96.000000,18.000000,32.000000,24.000000
8664,-0.590770,-0.533624,0.241933,0.496450,0.386011,-0.593750,-0.531250,0.234375,0.500000,0.390625,90.000000,94.000000,15.000000,32.000000,25.000000
8712,-0.642799,-0.510612,0.271761,0.500957,0.380694,-0.640625,-0.515625,0.281250,0.500000,0.375000,87.000000,95.000000,18.000000,32.000000,24.000000
8720,-0.611681,-0.525417,0.263237,0.497216,0.376646,-0.609375,-0.531250,0.265625,0.500000,0.375000,89.000000,94.000000,17.000000,32.000000,24.000000
8776,-0.626588,-0.517839,0.266826,0.497506,0.380095,-0.625000,-0.515625,0.265625,0.500000,0.375000,88.000000,95.000000,17.000000,32.000000,24.000000
8784,-0.656658,-0.505615,0.296111,0.502368,0.363794,-0.656250,-0.500000,0.296875,0.500000,0.359375,86.000000,96.000000,19.000000,32.000000,23.000000
8840,-0.643384,-0.512674,0.288870,0.502189,0.364999,-0.640625,-0.515625,0.296875,0.500000,0.359375,87.000000,95.000000,19.000000,32.000000,23.000000
8904,-0.621711,-0.519766,0.270312,0.494475,0.376690,-0.625000,-0.515625,0.265625,0.500000,0.375000,88.000000,95.000000,17.000000,32.000000,24.000000
8968,-0.609053,-0.527150,0.265639,0.497184,0.373380,-0.609375,-0.531250,0.265625,0.500000,0.375000,89.000000,94.000000,17.000000,32.000000,24.000000
8976,-0.633517,-0.515975,0.280875,0.498416,0.370201,-0.640625,-0.515625,0.281250,0.500000,0.375000,87.000000,95.000000,18.000000,32.000000,24.000000
9032,-0.594471,-0.533241,0.252483,0.497010,0.378219,-0.593750,-0.531250,0.250000,0.500000,0.375000,90.000000,94.000000,16.000000,32.000000,24.000000
9096,-0.608000,-0.527453,0.262912,0.497178,0.375363,-0.609375,-0.531250,0.265625,0.500000,0.375000,89.000000,94.000000,17.000000,32.000000,24.000000
9160,-0.583051,-0.537300,0.241781,0.496048,0.382522,-0.578125,-0.531250,0.234375,0.500000,0.375000,91.000000,94.000000,15.000000,32.000000,24.000000
9224,-0.603764,-0.528149,0.256224,0.495302,0.380387,-0.609375,-0.531250,0.265625,0.500000,0.375000,89.000000,94.000000,17.000000,32.000000,24.000000
9288,-0.640985,-0.512241,0.285645,0.498742,0.368839,-0.640625,-0.515625,0.281250,0.500000,0.375000,87.000000,95.000000,18.000000,32.000000,24.000000
9296,-0.619795,-0.523395,0.281683,0.497554,0.363954,-0.625000,-0.515625,0.281250,0.500000,0.359375,88.000000,95.000000,18.000000,32.000000,23.000000
9352,-0.629961,-0.519729,0.282146,0.502126,0.365418,-0.625000,-0.515625,0.281250,0.500000,0.359375,88.000000,95.000000,18.000000,32.000000,23.000000
9360,-0.602445,-0.528414,0.260014,0.493085,0.377759,-0.609375,-0.531250,0.265625,0.500000,0.375000,89.000000,94.000000,17.000000,32.000000,24.000000
9416,-0.628005,-0.519296,0.283698,0.498209,0.365395,-0.625000,-0.515625,0.281250,0.500000,0.359375,88.000000,95.000000,18.000000,32.000000,23.000000
9424,-0.597862,-0.529838,0.262366,0.490321,0.375014,-0.593750,-0.531250,0.265625,0.484375,0.375000,90.000000,94.000000,17.000000,31.000000,24.000000
9480,-0.635364,-0.515371,0.284872,0.498545,0.367318,-0.640625,-0.515625,0.281250,0.500000,0.375000,87.000000,95.000000,18.000000,32.000000,24.000000
9488,-0.627008,-0.518677,0.284259,0.495283,0.366143,-0.625000,-0.515625,0.281250,0.500000,0.359375,88.000000,95.000000,18.000000,32.000000,23.000000
9608,-0.624129,-0.518756,0.273584,0.494442,0.374859,-0.625000,-0.515625,0.265625,0.500000,0.375000,88.000000,95.000000,17.000000,32.000000,24.000000
9736,-0.636999,-0.516443,0.296534,0.500053,0.356856,-0.640625,-0.515625,0.296875,0.500000,0.359375,87.000000,95.000000,19.000000,32.000000,23.000000
9864,-0.593202,-0.533009,0.253753,0.494568,0.377890,-0.593750,-0.531250,0.250000,0.500000,0.375000,90.000000,94.000000,16.000000,32.000000,24.000000
9872,-0.608436,-0.526036,0.267734,0.492951,0.373787,-0.609375,-0.531250,0.265625,0.500000,0.375000,89.000000,94.000000,17.000000,32.000000,24.000000
9992,-0.599546,-0.528285,0.251507,0.491540,0.384783,-0.593750,-0.531250,0.250000,0.484375,0.390625,90.000000,94.000000,16.000000,31.000000,25.000000
10000,-0.620089,-0.522520,0.272121,0.498515,0.371973,-0.625000,-0.515625,0.265625,0.500000,0.375000,88.000000,95.000000,17.000000,32.000000,24.000000
16456,-0.631576,-0.517853,0.274659,0.502154,0.372616,-0.625000,-0.515625,0.265625,0.500000,0.375000,88.000000,95.000000,17.000000,32.000000,24.000000
16464,-0.642911,-0.510863,0.275183,0.500858,0.377733,-0.640625,-0.515625,0.281250,0.500000,0.375000,87.000000,95.000000,18.000000,32.000000,24.000000
16520,-0.636288,-0.516324,0.271303,0.505662,0.375648,-0.640625,-0.515625,0.281250,0.500000,0.375000,87.000000,95.000000,18.000000,32.000000,24.000000
16528,-0.620545,-0.521763,0.257669,0.501473,0.383165,-0.625000,-0.515625,0.250000,0.500000,0.390625,88.000000,95.000000,16.000000,32.000000,25.000000
16536,-0.648286,-0.511102,0.278199,0.507969,0.373220,-0.656250,-0.515625,0.281250,0.515625,0.375000,86.000000,95.000000,18.000000,33.000000,24.000000
16584,-0.624545,-0.519752,0.256516,0.502300,0.385481,-0.625000,-0.515625,0.250000,0.500000,0.390625,88.000000,95.000000,16.000000,32.000000,25.000000
16592,-0.659059,-0.505121,0.292077,0.505706,0.366395,-0.656250,-0.500000,0.296875,0.500000,0.359375,86.000000,96.000000,19.000000,32.000000,23.000000
16648,-0.659447,-0.503646,0.282019,0.505176,0.375898,-0.656250,-0.500000,0.281250,0.500000,0.375000,86.000000,96.000000,18.000000,32.000000,24.000000
16656,-0.595063,-0.531434,0.234213,0.498735,0.393549,-0.593750,-0.531250,0.234375,0.500000,0.390625,90.000000,94.000000,15.000000,32.000000,25.000000
16712,-0.647621,-0.509461,0.276251,0.503662,0.377169,-0.640625,-0.515625,0.281250,0.500000,0.375000,87.000000,95.000000,18.000000,32.000000,24.000000
16720,-0.597885,-0.530169,0.246353,0.495644,0.386056,-0.593750,-0.531250,0.250000,0.500000,0.375000,90.000000,94.000000,16.000000,32.000000,24.000000
16776,-0.618759,-0.523410,0.264023,0.501299,0.376847,-0.625000,-0.515625,0.265625,0.500000,0.375000,88.000000,95.000000,17.000000,32.000000,24.000000
16840,-0.600382,-0.530020,0.247374,0.498040,0.384988,-0.609375,-0.531250,0.250000,0.500000,0.390625,89.000000,94.000000,16.000000,32.000000,25.000000
16848,-0.612432,-0.524069,0.256266,0.496504,0.383731,-0.609375,-0.531250,0.250000,0.500000,0.390625,89.000000,94.000000,16.000000,32.000000,25.000000
16904,-0.618722,-0.521239,0.258525,0.497599,0.383838,-0.625000,-0.515625,0.250000,0.500000,0.390625,88.000000,95.000000,16.000000,32.000000,25.000000
16912,-0.633188,-0.518017,0.284116,0.502315,0.364775,-0.625000,-0.515625,0.281250,0.500000,0.359375,88.000000,95.000000,18.000000,32.000000,23.000000
16968,-0.628370,-0.518086,0.270824,0.499343,0.376289,-0.625000,-0.515625,0.265625,0.500000,0.375000,88.000000,95.000000,17.000000,32.000000,24.000000
17032,-0.605344,-0.527895,0.252687,0.497883,0.382668,-0.609375,-0.531250,0.250000,0.500000,0.390625,89.000000,94.000000,16.000000,32.000000,25.000000
17040,-0.636013,-0.514734,0.275208,0.500578,0.374961,-0.640625,-0.515625,0.281250,0.500000,0.375000,87.000000,95.000000,18.000000,32.000000,24.000000
17096,-0.635350,-0.515504,0.274320,0.501524,0.375010,-0.640625,-0.515625,0.281250,0.500000,0.375000,87.000000,95.000000,18.000000,32.000000,24.000000
17104,-0.607423,-0.526644,0.254926,0.496634,0.382507,-0.609375,-0.531250,0.250000,0.500000,0.390625,89.000000,94.000000,16.000000,32.000000,25.000000
17160,-0.628195,-0.519940,0.276041,0.502014,0.370081,-0.625000,-0.515625,0.265625,0.500000,0.375000,88.000000,95.000000,17.000000,32.000000,24.000000
17224,-0.636865,-0.517223,0.292432,0.502898,0.358758,-0.640625,-0.515625,0.296875,0.500000,0.359375,87.000000,95.000000,19.000000,32.000000,23.000000
17232,-0.596914,-0.533115,0.261331,0.497329,0.371369,-0.593750,-0.531250,0.250000,0.500000,0.375000,90.000000,94.000000,16.000000,32.000000,24.000000
17288,-0.598320,-0.531648,0.254025,0.497764,0.378180,-0.593750,-0.531250,0.250000,0.500000,0.375000,90.000000,94.000000,16.000000,32.000000,24.000000
17296,-0.617948,-0.523406,0.275811,0.496736,0.368806,-0.625000,-0.531250,0.281250,0.500000,0.375000,88.000000,94.000000,18.000000,32.000000,24.000000
17352,-0.613967,-0.525021,0.270102,0.497071,0.371815,-0.609375,-0.531250,0.265625,0.500000,0.375000,89.000000,94.000000,17.000000,32.000000,24.000000
17360,-0.643557,-0.512968,0.292128,0.502348,0.362049,-0.640625,-0.515625,0.296875,0.500000,0.359375,87.000000,95.000000,19.000000,32.000000,23.000000
17416,-0.643083,-0.512596,0.292347,0.500755,0.362577,-0.640625,-0.515625,0.296875,0.500000,0.359375,87.000000,95.000000,19.000000,32.000000,23.000000
17480,-0.602641,-0.529116,0.260150,0.495102,0.376506,-0.609375,-0.531250,0.265625,0.500000,0.375000,89.000000,94.000000,17.000000,32.000000,24.000000
17544,-0.590869,-0.534150,0.255124,0.493976,0.375918,-0.593750,-0.531250,0.250000,0.500000,0.375000,90.000000,94.000000,16.000000,32.000000,24.000000
17608,-0.607012,-0.527665,0.272424,0.493895,0.368359,-0.609375,-0.531250,0.265625,0.500000,0.375000,89.000000,94.000000,17.000000,32.000000,24.000000
17672,-0.595565,-0.530313,0.256513,0.490246,0.379119,-0.593750,-0.531250,0.265625,0.484375,0.375000,90.000000,94.000000,17.000000,31.000000,24.000000
17800,-0.636525,-0.515644,0.291828,0.499012,0.361329,-0.640625,-0.515625,0.296875,0.500000,0.359375,87.000000,95.000000,19.000000,32.000000,23.000000
17928,-0.620662,-0.520673,0.271167,0.495112,0.375055,-0.625000,-0.515625,0.265625,0.500000,0.375000,88.000000,95.000000,17.000000,32.000000,24.000000
17936,-0.631710,-0.516414,0.283767,0.496489,0.367867,-0.625000,-0.515625,0.281250,0.500000,0.359375,88.000000,95.000000,18.000000,32.000000,23.000000
17944,-0.592231,-0.531602,0.245351,0.492434,0.386047,-0.593750,-0.531250,0.250000,0.484375,0.390625,90.000000,94.000000,16.000000,31.000000,25.000000
18056,-0.618253,-0.524159,0.272660,0.499924,0.369829,-0.625000,-0.515625,0.265625,0.500000,0.375000,88.000000,95.000000,17.000000,32.000000,24.000000
18064,-0.637465,-0.511404,0.267871,0.497369,0.383629,-0.640625,-0.515625,0.265625,0.500000,0.390625,87.000000,95.000000,17.000000,32.000000,25.000000
18184,-0.636852,-0.513909,0.284142,0.497283,0.369336,-0.640625,-0.515625,0.281250,0.500000,0.375000,87.000000,95.000000,18.000000,32.000000,24.000000
24648,-0.615061,-0.524703,0.257078,0.501478,0.381209,-0.609375,-0.531250,0.265625,0.500000,0.375000,89.000000,94.000000,17.000000,32.000000,24.000000
24656,-0.605490,-0.528214,0.251085,0.499218,0.383402,-0.609375,-0.531250,0.250000,0.500000,0.390625,89.000000,94.000000,16.000000,32.000000,25.000000
24712,-0.641144,-0.512220,0.273864,0.501914,0.377586,-0.640625,-0.515625,0.281250,0.500000,0.375000,87.000000,95.000000,18.000000,32.000000,24.000000
24720,-0.665276,-0.503261,0.297054,0.508794,0.362689,-0.671875,-0.500000,0.296875,0.515625,0.359375,85.000000,96.000000,19.000000,33.000000,23.000000
24776,-0.667400,-0.501385,0.299133,0.507043,0.362610,-0.671875,-0.500000,0.296875,0.515625,0.359375,85.000000,96.000000,19.000000,33.000000,23.000000
24784,-0.615915,-0.523584,0.254849,0.500517,0.384133,-0.609375,-0.531250,0.250000,0.500000,0.390625,89.000000,94.000000,16.000000,32.000000,25.000000
24840,-0.660029,-0.505446,0.291133,0.508011,0.366332,-0.656250,-0.500000,0.296875,0.500000,0.359375,86.000000,96.000000,19.000000,32.000000,23.000000
24848,-0.630122,-0.518637,0.273508,0.502480,0.372771,-0.625000,-0.515625,0.265625,0.500000,0.375000,88.000000,95.000000,17.000000,32.000000,24.000000
24904,-0.632241,-0.518681,0.273717,0.505062,0.372142,-0.625000,-0.515625,0.265625,0.500000,0.375000,88.000000,95.000000,17.000000,32.000000,24.000000
24968,-0.638687,-0.515594,0.284640,0.503702,0.365939,-0.640625,-0.515625,0.281250,0.500000,0.375000,87.000000,95.000000,18.000000,32.000000,24.000000
24976,-0.585181,-0.535565,0.239437,0.495127,0.386182,-0.593750,-0.531250,0.234375,0.500000,0.390625,90.000000,94.000000,15.000000,32.000000,25.000000
25032,-0.637557,-0.514061,0.273457,0.501432,0.376730,-0.640625,-0.515625,0.281250,0.500000,0.375000,87.000000,95.000000,18.000000,32.000000,24.000000
25040,-0.649016,-0.510058,0.291720,0.503307,0.364047,-0.640625,-0.515625,0.296875,0.500000,0.359375,87.000000,95.000000,19.000000,32.000000,23.000000
25096,-0.663993,-0.502608,0.298214,0.505358,0.363029,-0.656250,-0.500000,0.296875,0.500000,0.359375,86.000000,96.000000,19.000000,32.000000,23.000000
25160,-0.598325,-0.531302,0.253096,0.497073,0.379458,-0.593750,-0.531250,0.250000,0.500000,0.375000,90.000000,94.000000,16.000000,32.000000,24.000000
25168,-0.613825,-0.524365,0.263537,0.497229,0.377425,-0.609375,-0.531250,0.265625,0.500000,0.375000,89.000000,94.000000,17.000000,32.000000,24.000000
25224,-0.595695,-0.532049,0.254963,0.495013,0.377768,-0.593750,-0.531250,0.250000,0.500000,0.375000,90.000000,94.000000,16.000000,32.000000,24.000000
25232,-0.630851,-0.518354,0.279649,0.501237,0.368320,-0.625000,-0.515625,0.281250,0.500000,0.359375,88.000000,95.000000,18.000000,32.000000,23.000000
25288,-0.617551,-0.524962,0.273447,0.500756,0.368310,-0.625000,-0.531250,0.281250,0.500000,0.375000,88.000000,94.000000,18.000000,32.000000,24.000000
25296,-0.598439,-0.530995,0.256785,0.495384,0.377265,-0.593750,-0.531250,0.250000,0.500000,0.375000,90.000000,94.000000,16.000000,32.000000,24.000000
25352,-0.599751,-0.530401,0.248063,0.497965,0.384123,-0.593750,-0.531250,0.250000,0.500000,0.375000,90.000000,94.000000,16.000000,32.000000,24.000000
25360,-0.603028,-0.528932,0.257169,0.496178,0.378614,-0.609375,-0.531250,0.265625,0.500000,0.375000,89.000000,94.000000,17.000000,32.000000,24.000000
25416,-0.652728,-0.507753,0.288845,0.503932,0.367704,-0.656250,-0.500000,0.281250,0.500000,0.375000,86.000000,96.000000,18.000000,32.000000,24.000000
25424,-0.589525,-0.534868,0.250980,0.495343,0.378070,-0.593750,-0.531250,0.250000,0.500000,0.375000,90.000000,94.000000,16.000000,32.000000,24.000000
25480,-0.604255,-0.529092,0.262884,0.496364,0.374099,-0.609375,-0.531250,0.265625,0.500000,0.375000,89.000000,94.000000,17.000000,32.000000,24.000000
25544,-0.617576,-0.524144,0.276027,0.497968,0.367726,-0.625000,-0.531250,0.281250,0.500000,0.375000,88.000000,94.000000,18.000000,32.000000,24.000000
25552,-0.613278,-0.523871,0.273354,0.492660,0.371135,-0.609375,-0.531250,0.265625,0.500000,0.375000,89.000000,94.000000,17.000000,32.000000,24.000000
25608,-0.642500,-0.513470,0.293642,0.501634,0.360693,-0.640625,-0.515625,0.296875,0.500000,0.359375,87.000000,95.000000,19.000000,32.000000,23.000000
25672,-0.606496,-0.526516,0.267390,0.491823,0.373799,-0.609375,-0.531250,0.265625,0.500000,0.375000,89.000000,94.000000,17.000000,32.000000,24.000000
25736,-0.628906,-0.517552,0.283396,0.495345,0.367717,-0.625000,-0.515625,0.281250,0.500000,0.359375,88.000000,95.000000,18.000000,32.000000,23.000000
25800,-0.632297,-0.517837,0.286698,0.499960,0.363475,-0.625000,-0.515625,0.281250,0.500000,0.359375,88.000000,95.000000,18.000000,32.000000,23.000000
25808,-0.591887,-0.531685,0.246194,0.491692,0.385686,-0.593750,-0.531250,0.250000,0.484375,0.390625,90.000000,94.000000,16.000000,31.000000,25.000000
25864,-0.583876,-0.535730,0.260465,0.488212,0.370929,-0.593750,-0.531250,0.265625,0.484375,0.375000,90.000000,94.000000,17.000000,31.000000,24.000000
25872,-0.612220,-0.525923,0.272204,0.496651,0.369289,-0.609375,-0.531250,0.265625,0.500000,0.375000,89.000000,94.000000,17.000000,32.000000,24.000000
25992,-0.620141,-0.520868,0.271861,0.494900,0.374249,-0.625000,-0.515625,0.265625,0.500000,0.375000,88.000000,95.000000,17.000000,32.000000,24.000000
26120,-0.605117,-0.527649,0.260485,0.494588,0.377692,-0.609375,-0.531250,0.265625,0.500000,0.375000,89.000000,94.000000,17.000000,32.000000,24.000000
26128,-0.624541,-0.520806,0.279931,0.498064,0.367352,-0.625000,-0.515625,0.281250,0.500000,0.359375,88.000000,95.000000,18.000000,32.000000,23.000000
26248,-0.617871,-0.521114,0.266028,0.494280,0.378676,-0.625000,-0.515625,0.265625,0.500000,0.375000,88.000000,95.000000,17.000000,32.000000,24.000000
26256,-0.659711,-0.506516,0.310016,0.505116,0.351096,-0.656250,-0.500000,0.312500,0.500000,0.343750,86.000000,96.000000,20.000000,32.000000,22.000000
26264,-0.634522,-0.514109,0.259122,0.501145,0.388365,-0.640625,-0.515625,0.265625,0.500000,0.390625,87.000000,95.000000,17.000000,32.000000,25.000000
26376,-0.644607,-0.508815,0.265542,0.501013,0.386868,-0.640625,-0.515625,0.265625,0.500000,0.390625,87.000000,95.000000,17.000000,32.000000,25.000000
32840,-0.665963,-0.499999,0.293745,0.503133,0.369084,-0.671875,-0.500000,0.296875,0.500000,0.375000,85.000000,96.000000,19.000000,32.000000,24.000000
32848,-0.677539,-0.494795,0.298875,0.506725,0.366734,-0.671875,-0.500000,0.296875,0.500000,0.375000,85.000000,96.000000,19.000000,32.000000,24.000000
32904,-0.616042,-0.522780,0.254735,0.498675,0.385412,-0.609375,-0.531250,0.250000,0.500000,0.390625,89.000000,94.000000,16.000000,32.000000,25.000000
32912,-0.628325,-0.518259,0.267002,0.500885,0.378697,-0.625000,-0.515625,0.265625,0.500000,0.375000,88.000000,95.000000,17.000000,32.000000,24.000000
32968,-0.648437,-0.509845,0.279076,0.505195,0.374011,-0.640625,-0.515625,0.281250,0.500000,0.375000,87.000000,95.000000,18.000000,32.000000,24.000000
32976,-0.643420,-0.512510,0.279582,0.504111,0.372237,-0.640625,-0.515625,0.281250,0.500000,0.375000,87.000000,95.000000,18.000000,32.000000,24.000000
33032,-0.605557,-0.526735,0.247141,0.496644,0.388507,-0.609375,-0.531250,0.250000,0.500000,0.390625,89.000000,94.000000,16.000000,32.000000,25.000000
33040,-0.616295,-0.522303,0.254221,0.497837,0.386539,-0.625000,-0.515625,0.250000,0.500000,0.390625,88.000000,95.000000,16.000000,32.000000,25.000000
33096,-0.613086,-0.524971,0.262565,0.497807,0.377685,-0.609375,-0.531250,0.265625,0.500000,0.375000,89.000000,94.000000,17.000000,32.000000,24.000000
33104,-0.633261,-0.517344,0.273958,0.503184,0.373463,-0.640625,-0.515625,0.281250,0.500000,0.375000,87.000000,95.000000,18.000000,32.000000,24.000000
33160,-0.626503,-0.517382,0.260882,0.497967,0.385037,-0.625000,-0.515625,0.265625,0.500000,0.375000,88.000000,95.000000,17.000000,32.000000,24.000000
33224,-0.599036,-0.527846,0.246420,0.491296,0.389167,-0.593750,-0.531250,0.250000,0.484375,0.390625,90.000000,94.000000,16.000000,31.000000,25.000000
33232,-0.626539,-0.518379,0.264982,0.499075,0.380861,-0.625000,-0.515625,0.265625,0.500000,0.375000,88.000000,95.000000,17.000000,32.000000,24.000000
33288,-0.613915,-0.524532,0.260335,0.498561,0.379552,-0.609375,-0.531250,0.265625,0.500000,0.375000,89.000000,94.000000,17.000000,32.000000,24.000000
33296,-0.639320,-0.514480,0.275858,0.504274,0.373669,-0.640625,-0.515625,0.281250,0.500000,0.375000,87.000000,95.000000,18.000000,32.000000,24.000000
33352,-0.610103,-0.526901,0.263461,0.498380,0.375162,-0.609375,-0.531250,0.265625,0.500000,0.375000,89.000000,94.000000,17.000000,32.000000,24.000000
33360,-0.644268,-0.510521,0.282230,0.499965,0.372594,-0.640625,-0.515625,0.281250,0.500000,0.375000,87.000000,95.000000,18.000000,32.000000,24.000000
33416,-0.626232,-0.519858,0.269279,0.501144,0.375667,-0.625000,-0.515625,0.265625,0.500000,0.375000,88.000000,95.000000,17.000000,32.000000,24.000000
33424,-0.593143,-0.532583,0.254579,0.493271,0.377876,-0.593750,-0.531250,0.250000,0.500000,0.375000,90.000000,94.000000,16.000000,32.000000,24.000000
33480,-0.598141,-0.531825,0.256200,0.497115,0.376651,-0.593750,-0.531250,0.250000,0.500000,0.375000,90.000000,94.000000,16.000000,32.000000,24.000000
33544,-0.629170,-0.516828,0.263138,0.499303,0.383556,-0.625000,-0.515625,0.265625,0.500000,0.375000,88.000000,95.000000,17.000000,32.000000,24.000000
33552,-0.626177,-0.518195,0.268391,0.497293,0.378687,-0.625000,-0.515625,0.265625,0.500000,0.375000,88.000000,95.000000,17.000000,32.000000,24.000000
33608,-0.571272,-0.540933,0.240435,0.491311,0.380459,-0.562500,-0.546875,0.234375,0.500000,0.375000,92.000000,93.000000,15.000000,32.000000,24.000000
33672,-0.616037,-0.522176,0.266764,0.493850,0.377598,-0.625000,-0.515625,0.265625,0.500000,0.375000,88.000000,95.000000,17.000000,32.000000,24.000000
33680,-0.575009,-0.538783,0.244102,0.489325,0.380366,-0.578125,-0.531250,0.250000,0.484375,0.375000,91.000000,94.000000,16.000000,31.000000,24.000000
33736,-0.629048,-0.519107,0.281363,0.499732,0.367060,-0.625000,-0.515625,0.281250,0.500000,0.359375,88.000000,95.000000,18.000000,32.000000,23.000000
33800,-0.600669,-0.527417,0.255388,0.489956,0.382742,-0.593750,-0.531250,0.250000,0.484375,0.390625,90.000000,94.000000,16.000000,31.000000,25.000000
33808,-0.610402,-0.526264,0.265525,0.496687,0.374454,-0.609375,-0.531250,0.265625,0.500000,0.375000,89.000000,94.000000,17.000000,32.000000,24.000000
33864,-0.598911,-0.531337,0.268724,0.493409,0.368116,-0.593750,-0.531250,0.265625,0.500000,0.359375,90.000000,94.000000,17.000000,32.000000,23.000000
33928,-0.601942,-0.530149,0.267574,0.494729,0.369788,-0.609375,-0.531250,0.265625,0.500000,0.375000,89.000000,94.000000,17.000000,32.000000,24.000000
33992,-0.589190,-0.532977,0.252344,0.489898,0.379925,-0.593750,-0.531250,0.250000,0.500000,0.375000,90.000000,94.000000,16.000000,32.000000,24.000000
34056,-0.587596,-0.534116,0.256138,0.489689,0.375886,-0.578125,-0.531250,0.250000,0.484375,0.375000,91.000000,94.000000,16.000000,31.000000,24.000000
34184,-0.635779,-0.516621,0.292759,0.500316,0.359325,-0.640625,-0.515625,0.296875,0.500000,0.359375,87.000000,95.000000,19.000000,32.000000,23.000000
34192,-0.618122,-0.522778,0.270518,0.496964,0.373417,-0.625000,-0.515625,0.265625,0.500000,0.375000,88.000000,95.000000,17.000000,32.000000,24.000000
34312,-0.612092,-0.525509,0.275719,0.494245,0.367637,-0.609375,-0.531250,0.281250,0.500000,0.359375,89.000000,94.000000,18.000000,32.000000,23.000000
34320,-0.621576,-0.520956,0.272031,0.496915,0.373586,-0.625000,-0.515625,0.265625,0.500000,0.375000,88.000000,95.000000,17.000000,32.000000,24.000000
34328,-0.617868,-0.522185,0.278476,0.493173,0.368403,-0.625000,-0.515625,0.281250,0.484375,0.375000,88.000000,95.000000,18.000000,31.000000,24.000000
34440,-0.601999,-0.529412,0.262502,0.494542,0.374368,-0.609375,-0.531250,0.265625,0.500000,0.375000,89.000000,94.000000,17.000000,32.000000,24.000000
34448,-0.607203,-0.525175,0.263032,0.490932,0.378415,-0.609375,-0.531250,0.265625,0.500000,0.375000,89.000000,94.000000,17.000000,32.000000,24.000000
34568,-0.646135,-0.509570,0.289718,0.498704,0.367284,-0.640625,-0.515625,0.296875,0.500000,0.359375,87.000000,95.000000,19.000000,32.000000,23.000000
41032,-0.630639,-0.517449,0.264855,0.502560,0.380673,-0.625000,-0.515625,0.265625,0.500000,0.375000,88.000000,95.000000,17.000000,32.000000,24.000000
41040,-0.641535,-0.513466,0.277390,0.504465,0.373146,-0.640625,-0.515625,0.281250,0.500000,0.375000,87.000000,95.000000,18.000000,32.000000,24.000000
41048,-0.599698,-0.530192,0.245891,0.498194,0.385805,-0.609375,-0.531250,0.250000,0.500000,0.390625,89.000000,94.000000,16.000000,32.000000,25.000000
41096,-0.623325,-0.521780,0.265658,0.502815,0.376633,-0.625000,-0.515625,0.265625,0.500000,0.375000,88.000000,95.000000,17.000000,32.000000,24.000000
41104,-0.613874,-0.523589,0.251205,0.498744,0.387514,-0.609375,-0.531250,0.250000,0.500000,0.390625,89.000000,94.000000,16.000000,32.000000,25.000000
41160,-0.631153,-0.516467,0.262926,0.501543,0.383152,-0.625000,-0.515625,0.265625,0.500000,0.375000,88.000000,95.000000,17.000000,32.000000,24.000000
41168,-0.614457,-0.524306,0.262890,0.498244,0.377630,-0.609375,-0.531250,0.265625,0.500000,0.375000,89.000000,94.000000,17.000000,32.000000,24.000000
41224,-0.661209,-0.502912,0.284311,0.505295,0.374515,-0.656250,-0.500000,0.281250,0.500000,0.375000,86.000000,96.000000,18.000000,32.000000,24.000000
41232,-0.638505,-0.513528,0.264807,0.503974,0.383252,-0.640625,-0.515625,0.265625,0.500000,0.390625,87.000000,95.000000,17.000000,32.000000,25.000000
41288,-0.630021,-0.517210,0.269737,0.499740,0.377754,-0.625000,-0.515625,0.265625,0.500000,0.375000,88.000000,95.000000,17.000000,32.000000,24.000000
41352,-0.629318,-0.518930,0.268219,0.503199,0.376830,-0.625000,-0.515625,0.265625,0.500000,0.375000,88.000000,95.000000,17.000000,32.000000,24.000000
41360,-0.642450,-0.513279,0.285969,0.503140,0.366620,-0.640625,-0.515625,0.281250,0.500000,0.375000,87.000000,95.000000,18.000000,32.000000,24.000000
41416,-0.634385,-0.517341,0.270094,0.505913,0.375718,-0.625000,-0.515625,0.265625,0.500000,0.375000,88.000000,95.000000,17.000000,32.000000,24.000000
41424,-0.641905,-0.513040,0.286861,0.501577,0.366507,-0.640625,-0.515625,0.281250,0.500000,0.375000,87.000000,95.000000,18.000000,32.000000,24.000000
41480,-0.629403,-0.519106,0.268675,0.503755,0.376079,-0.625000,-0.515625,0.265625,0.500000,0.375000,88.000000,95.000000,17.000000,32.000000,24.000000
41488,-0.636339,-0.513266,0.272536,0.498378,0.378691,-0.640625,-0.515625,0.281250,0.500000,0.375000,87.000000,95.000000,18.000000,32.000000,24.000000
41496,-0.660881,-0.504621,0.295314,0.506066,0.364123,-0.656250,-0.500000,0.296875,0.500000,0.359375,86.000000,96.000000,19.000000,32.000000,23.000000
41544,-0.612865,-0.524297,0.260040,0.496614,0.380509,-0.609375,-0.531250,0.265625,0.500000,0.375000,89.000000,94.000000,17.000000,32.000000,24.000000
41552,-0.618032,-0.521074,0.255686,0.496869,0.386550,-0.625000,-0.515625,0.250000,0.500000,0.390625,88.000000,95.000000,16.000000,32.000000,25.000000
41608,-0.648173,-0.509381,0.284183,0.502061,0.371309,-0.640625,-0.515625,0.281250,0.500000,0.375000,87.000000,95.000000,18.000000,32.000000,24.000000
41672,-0.618939,-0.520963,0.260624,0.496466,0.382812,-0.625000,-0.515625,0.265625,0.500000,0.375000,88.000000,95.000000,17.000000,32.000000,24.000000
41680,-0.628149,-0.517134,0.264741,0.498554,0.381988,-0.625000,-0.515625,0.265625,0.500000,0.375000,88.000000,95.000000,17.000000,32.000000,24.000000
41736,-0.661104,-0.504623,0.302560,0.504572,0.358595,-0.656250,-0.500000,0.296875,0.500000,0.359375,86.000000,96.000000,19.000000,32.000000,23.000000
41800,-0.607979,-0.525768,0.263948,0.493021,0.376778,-0.609375,-0.531250,0.265625,0.500000,0.375000,89.000000,94.000000,17.000000,32.000000,24.000000
41808,-0.632226,-0.516054,0.286526,0.496031,0.365723,-0.625000,-0.515625,0.281250,0.500000,0.359375,88.000000,95.000000,18.000000,32.000000,23.000000
41864,-0.634189,-0.514295,0.281830,0.495235,0.371419,-0.640625,-0.515625,0.281250,0.500000,0.375000,87.000000,95.000000,18.000000,32.000000,24.000000
41872,-0.578804,-0.536584,0.241528,0.489213,0.384646,-0.578125,-0.531250,0.234375,0.484375,0.390625,91.000000,94.000000,15.000000,31.000000,25.000000
41928,-0.586049,-0.534154,0.251387,0.489587,0.379228,-0.578125,-0.531250,0.250000,0.484375,0.375000,91.000000,94.000000,16.000000,31.000000,24.000000
41992,-0.613070,-0.525909,0.271555,0.497699,0.369725,-0.609375,-0.531250,0.265625,0.500000,0.375000,89.000000,94.000000,17.000000,32.000000,24.000000
42056,-0.621910,-0.521911,0.280691,0.497259,0.365871,-0.625000,-0.515625,0.281250,0.500000,0.359375,88.000000,95.000000,18.000000,32.000000,23.000000
42120,-0.589148,-0.531702,0.246649,0.488210,0.385992,-0.593750,-0.531250,0.250000,0.484375,0.390625,90.000000,94.000000,16.000000,31.000000,25.000000
42184,-0.599992,-0.528768,0.261452,0.490647,0.376660,-0.593750,-0.531250,0.265625,0.484375,0.375000,90.000000,94.000000,17.000000,31.000000,24.000000
42192,-0.609392,-0.526466,0.275159,0.493472,0.367227,-0.609375,-0.531250,0.281250,0.500000,0.359375,89.000000,94.000000,18.000000,32.000000,23.000000
42248,-0.607685,-0.526689,0.269816,0.492937,0.371622,-0.609375,-0.531250,0.265625,0.500000,0.375000,89.000000,94.000000,17.000000,32.000000,24.000000
42256,-0.631117,-0.516283,0.282432,0.495840,0.369128,-0.640625,-0.515625,0.281250,0.500000,0.375000,87.000000,95.000000,18.000000,32.000000,24.000000
42376,-0.615191,-0.522183,0.268025,0.492673,0.376676,-0.609375,-0.515625,0.265625,0.484375,0.375000,89.000000,95.000000,17.000000,31.000000,24.000000
42504,-0.633037,-0.515810,0.280435,0.497640,0.370772,-0.640625,-0.515625,0.281250,0.500000,0.375000,87.000000,95.000000,18.000000,32.000000,24.000000
42632,-0.606954,-0.526487,0.261176,0.494166,0.378099,-0.609375,-0.531250,0.265625,0.500000,0.375000,89.000000,94.000000,17.000000,32.000000,24.000000
42640,-0.631096,-0.518479,0.277102,0.502172,0.370301,-0.640625,-0.515625,0.281250,0.500000,0.375000,87.000000,95.000000,18.000000,32.000000,24.000000
42760,-0.612774,-0.524392,0.267883,0.494779,0.374504,-0.609375,-0.531250,0.265625,0.500000,0.375000,89.000000,94.000000,17.000000,32.000000,24.000000
42768,-0.627678,-0.517780,0.277248,0.495870,0.372340,-0.625000,-0.515625,0.281250,0.484375,0.375000,88.000000,95.000000,18.000000,31.000000,24.000000
49224,-0.663093,-0.501359,0.274188,0.507345,0.382918,-0.656250,-0.500000,0.281250,0.500000,0.375000,86.000000,96.000000,18.000000,32.000000,24.000000
49232,-0.651418,-0.509056,0.281704,0.506890,0.371881,-0.656250,-0.515625,0.281250,0.515625,0.375000,86.000000,95.000000,18.000000,33.000000,24.000000
49288,-0.614041,-0.521188,0.238592,0.496558,0.400080,-0.609375,-0.515625,0.234375,0.500000,0.390625,89.000000,95.000000,15.000000,32.000000,25.000000
49296,-0.656839,-0.507103,0.290087,0.507429,0.366426,-0.656250,-0.500000,0.296875,0.500000,0.359375,86.000000,96.000000,19.000000,32.000000,23.000000
49352,-0.633666,-0.518220,0.271482,0.506647,0.373758,-0.625000,-0.515625,0.265625,0.500000,0.375000,88.000000,95.000000,17.000000,32.000000,24.000000
49360,-0.636045,-0.515681,0.270593,0.504288,0.376845,-0.640625,-0.515625,0.281250,0.500000,0.375000,87.000000,95.000000,18.000000,32.000000,24.000000
49416,-0.617745,-0.523492,0.259753,0.501259,0.380225,-0.625000,-0.515625,0.265625,0.500000,0.375000,88.000000,95.000000,17.000000,32.000000,24.000000
49424,-0.641495,-0.513604,0.272493,0.506218,0.376388,-0.640625,-0.515625,0.281250,0.500000,0.375000,87.000000,95.000000,18.000000,32.000000,24.000000
49432,-0.627845,-0.517731,0.257343,0.501487,0.386747,-0.625000,-0.515625,0.250000,0.500000,0.390625,88.000000,95.000000,16.000000,32.000000,25.000000
49480,-0.662216,-0.504547,0.289735,0.509234,0.367795,-0.656250,-0.500000,0.281250,0.515625,0.359375,86.000000,96.000000,18.000000,33.000000,23.000000
49488,-0.640122,-0.511847,0.268996,0.500879,0.382094,-0.640625,-0.515625,0.265625,0.500000,0.390625,87.000000,95.000000,17.000000,32.000000,25.000000
49496,-0.622679,-0.518889,0.253445,0.498347,0.389777,-0.625000,-0.515625,0.250000,0.500000,0.390625,88.000000,95.000000,16.000000,32.000000,25.000000
49544,-0.636629,-0.515347,0.276383,0.502670,0.372923,-0.640625,-0.515625,0.281250,0.500000,0.375000,87.000000,95.000000,18.000000,32.000000,24.000000
49552,-0.638599,-0.512096,0.264647,0.500553,0.385494,-0.640625,-0.515625,0.265625,0.500000,0.390625,87.000000,95.000000,17.000000,32.000000,25.000000
49608,-0.654812,-0.507634,0.287653,0.506542,0.368250,-0.656250,-0.500000,0.281250,0.500000,0.375000,86.000000,96.000000,18.000000,32.000000,24.000000
49616,-0.617552,-0.520678,0.257090,0.494942,0.386197,-0.625000,-0.515625,0.250000,0.500000,0.390625,88.000000,95.000000,16.000000,32.000000,25.000000
49672,-0.614533,-0.522297,0.252350,0.496034,0.388445,-0.609375,-0.531250,0.250000,0.500000,0.390625,89.000000,94.000000,16.000000,32.000000,25.000000
49736,-0.651022,-0.507776,0.280546,0.503350,0.374902,-0.656250,-0.500000,0.281250,0.500000,0.375000,86.000000,96.000000,18.000000,32.000000,24.000000
49800,-0.634307,-0.515788,0.274269,0.500838,0.374988,-0.640625,-0.515625,0.281250,0.500000,0.375000,87.000000,95.000000,18.000000,32.000000,24.000000
49808,-0.617332,-0.521572,0.255540,0.497234,0.386130,-0.625000,-0.515625,0.250000,0.500000,0.390625,88.000000,95.000000,16.000000,32.000000,25.000000
49864,-0.642463,-0.513513,0.280506,0.504939,0.370531,-0.640625,-0.515625,0.281250,0.500000,0.375000,87.000000,95.000000,18.000000,32.000000,24.000000
49928,-0.608456,-0.525507,0.250515,0.496560,0.386889,-0.609375,-0.531250,0.250000,0.500000,0.390625,89.000000,94.000000,16.000000,32.000000,25.000000
49936,-0.604452,-0.528111,0.256596,0.496107,0.379860,-0.609375,-0.531250,0.265625,0.500000,0.375000,89.000000,94.000000,17.000000,32.000000,24.000000
49992,-0.638366,-0.513036,0.278635,0.499152,0.373614,-0.640625,-0.515625,0.281250,0.500000,0.375000,87.000000,95.000000,18.000000,32.000000,24.000000
50056,-0.598468,-0.527331,0.253157,0.487618,0.385024,-0.593750,-0.531250,0.250000,0.484375,0.390625,90.000000,94.000000,16.000000,31.000000,25.000000
50120,-0.597450,-0.530657,0.248764,0.495622,0.383720,-0.593750,-0.531250,0.250000,0.500000,0.375000,90.000000,94.000000,16.000000,32.000000,24.000000
50128,-0.633925,-0.515894,0.278651,0.499832,0.371337,-0.640625,-0.515625,0.281250,0.500000,0.375000,87.000000,95.000000,18.000000,32.000000,24.000000
50184,-0.618676,-0.521376,0.265084,0.496089,0.378878,-0.625000,-0.515625,0.265625,0.500000,0.375000,88.000000,95.000000,17.000000,32.000000,24.000000
50192,-0.602154,-0.529420,0.252361,0.497564,0.381650,-0.593750,-0.531250,0.250000,0.500000,0.375000,90.000000,94.000000,16.000000,32.000000,24.000000
50248,-0.631321,-0.515988,0.277022,0.496576,0.373712,-0.640625,-0.515625,0.281250,0.500000,0.375000,87.000000,95.000000,18.000000,32.000000,24.000000
50256,-0.631680,-0.519046,0.289965,0.500950,0.359811,-0.625000,-0.515625,0.281250,0.500000,0.359375,88.000000,95.000000,18.000000,32.000000,23.000000
50312,-0.587815,-0.532157,0.242354,0.488934,0.388685,-0.593750,-0.531250,0.250000,0.484375,0.390625,90.000000,94.000000,16.000000,31.000000,25.000000
50320,-0.620049,-0.522737,0.275422,0.497995,0.369369,-0.625000,-0.531250,0.281250,0.500000,0.375000,88.000000,94.000000,18.000000,32.000000,24.000000
50376,-0.592025,-0.531991,0.248091,0.492145,0.383780,-0.593750,-0.531250,0.250000,0.484375,0.390625,90.000000,94.000000,16.000000,31.000000,25.000000
50440,-0.611739,-0.524346,0.266922,0.493458,0.375704,-0.609375,-0.531250,0.265625,0.500000,0.375000,89.000000,94.000000,17.000000,32.000000,24.000000
50568,-0.627038,-0.517770,0.279476,0.494426,0.370907,-0.625000,-0.515625,0.281250,0.484375,0.375000,88.000000,95.000000,18.000000,31.000000,24.000000
50696,-0.611980,-0.525548,0.280329,0.493321,0.363879,-0.609375,-0.531250,0.281250,0.500000,0.359375,89.000000,94.000000,18.000000,32.000000,23.000000
50824,-0.624835,-0.520283,0.274698,0.499008,0.371412,-0.625000,-0.515625,0.265625,0.500000,0.375000,88.000000,95.000000,17.000000,32.000000,24.000000
50832,-0.606264,-0.528684,0.263247,0.497886,0.373814,-0.609375,-0.531250,0.265625,0.500000,0.375000,89.000000,94.000000,17.000000,32.000000,24.000000
50952,-0.619915,-0.521769,0.276537,0.495257,0.369889,-0.625000,-0.531250,0.281250,0.500000,0.375000,88.000000,94.000000,18.000000,32.000000,24.000000
50960,-0.596699,-0.529067,0.254857,0.489136,0.381773,-0.593750,-0.531250,0.250000,0.484375,0.390625,90.000000,94.000000,16.000000,31.000000,25.000000
57416,-0.621648,-0.522061,0.258317,0.503323,0.382070,-0.625000,-0.515625,0.265625,0.500000,0.375000,88.000000,95.000000,17.000000,32.000000,24.000000
57424,-0.607304,-0.526917,0.246309,0.499645,0.388268,-0.609375,-0.531250,0.250000,0.500000,0.390625,89.000000,94.000000,16.000000,32.000000,25.000000
57480,-0.655245,-0.505916,0.275788,0.506212,0.379161,-0.656250,-0.500000,0.281250,0.500000,0.375000,86.000000,96.000000,18.000000,32.000000,24.000000
57488,-0.639202,-0.514531,0.279198,0.503375,0.371160,-0.640625,-0.515625,0.281250,0.500000,0.375000,87.000000,95.000000,18.000000,32.000000,24.000000
57544,-0.621521,-0.521440,0.261442,0.500917,0.380602,-0.625000,-0.515625,0.265625,0.500000,0.375000,88.000000,95.000000,17.000000,32.000000,24.000000
57552,-0.611394,-0.524995,0.258088,0.497124,0.381177,-0.609375,-0.531250,0.265625,0.500000,0.375000,89.000000,94.000000,17.000000,32.000000,24.000000
57608,-0.666851,-0.501847,0.289598,0.509597,0.369503,-0.671875,-0.500000,0.281250,0.515625,0.375000,85.000000,96.000000,18.000000,33.000000,24.000000
57616,-0.642171,-0.510774,0.264588,0.502309,0.386047,-0.640625,-0.515625,0.265625,0.500000,0.390625,87.000000,95.000000,17.000000,32.000000,25.000000
57672,-0.622277,-0.520393,0.258461,0.499913,0.384296,-0.625000,-0.515625,0.250000,0.500000,0.390625,88.000000,95.000000,16.000000,32.000000,25.000000
57680,-0.645731,-0.511317,0.282863,0.503983,0.370203,-0.640625,-0.515625,0.281250,0.500000,0.375000,87.000000,95.000000,18.000000,32.000000,24.000000
57736,-0.627535,-0.518021,0.260877,0.500936,0.383743,-0.625000,-0.515625,0.265625,0.500000,0.375000,88.000000,95.000000,17.000000,32.000000,24.000000
57744,-0.615000,-0.522729,0.246609,0.499530,0.391590,-0.609375,-0.531250,0.250000,0.500000,0.390625,89.000000,94.000000,16.000000,32.000000,25.000000
57800,-0.665721,-0.503725,0.300807,0.509450,0.359189,-0.671875,-0.500000,0.296875,0.515625,0.359375,85.000000,96.000000,19.000000,33.000000,23.000000
57864,-0.637541,-0.514862,0.270770,0.504090,0.377542,-0.640625,-0.515625,0.281250,0.500000,0.375000,87.000000,95.000000,18.000000,32.000000,24.000000
57872,-0.613376,-0.525182,0.263772,0.498459,0.376328,-0.609375,-0.531250,0.265625,0.500000,0.375000,89.000000,94.000000,17.000000,32.000000,24.000000
57928,-0.641946,-0.513386,0.281284,0.503904,0.370144,-0.640625,-0.515625,0.281250,0.500000,0.375000,87.000000,95.000000,18.000000,32.000000,24.000000
57936,-0.647529,-0.510636,0.287249,0.503510,0.367407,-0.640625,-0.515625,0.281250,0.500000,0.375000,87.000000,95.000000,18.000000,32.000000,24.000000
57992,-0.612288,-0.524981,0.259697,0.497685,0.379887,-0.609375,-0.531250,0.265625,0.500000,0.375000,89.000000,94.000000,17.000000,32.000000,24.000000
58056,-0.602182,-0.529289,0.249218,0.498141,0.384113,-0.609375,-0.531250,0.250000,0.500000,0.390625,89.000000,94.000000,16.000000,32.000000,25.000000
58064,-0.622325,-0.521820,0.268265,0.500776,0.375104,-0.625000,-0.515625,0.265625,0.500000,0.375000,88.000000,95.000000,17.000000,32.000000,24.000000
58120,-0.641280,-0.514228,0.283986,0.504280,0.367241,-0.640625,-0.515625,0.281250,0.500000,0.375000,87.000000,95.000000,18.000000,32.000000,24.000000
58128,-0.599280,-0.528397,0.248129,0.492608,0.386940,-0.593750,-0.531250,0.250000,0.484375,0.390625,90.000000,94.000000,16.000000,31.000000,25.000000
58184,-0.604403,-0.527255,0.252443,0.495070,0.384145,-0.609375,-0.531250,0.250000,0.500000,0.390625,89.000000,94.000000,16.000000,32.000000,25.000000
58192,-0.591065,-0.532702,0.242532,0.494435,0.386800,-0.593750,-0.531250,0.234375,0.500000,0.390625,90.000000,94.000000,15.000000,32.000000,25.000000
58248,-0.641802,-0.513958,0.285114,0.503883,0.366763,-0.640625,-0.515625,0.281250,0.500000,0.375000,87.000000,95.000000,18.000000,32.000000,24.000000
58312,-0.598407,-0.530514,0.265965,0.491766,0.371190,-0.593750,-0.531250,0.265625,0.484375,0.375000,90.000000,94.000000,17.000000,31.000000,24.000000
58320,-0.633680,-0.517346,0.279553,0.502313,0.369160,-0.640625,-0.515625,0.281250,0.500000,0.375000,87.000000,95.000000,18.000000,32.000000,24.000000
58376,-0.594450,-0.532630,0.254356,0.495067,0.377658,-0.593750,-0.531250,0.250000,0.500000,0.375000,90.000000,94.000000,16.000000,32.000000,24.000000
58440,-0.589469,-0.532633,0.241130,0.492651,0.388320,-0.593750,-0.531250,0.234375,0.500000,0.390625,90.000000,94.000000,15.000000,32.000000,25.000000
58504,-0.590133,-0.534821,0.252251,0.495661,0.377042,-0.593750,-0.531250,0.250000,0.500000,0.375000,90.000000,94.000000,16.000000,32.000000,24.000000
58568,-0.630663,-0.518525,0.284214,0.500029,0.364945,-0.625000,-0.515625,0.281250,0.500000,0.359375,88.000000,95.000000,18.000000,32.000000,23.000000
58632,-0.634763,-0.517259,0.287297,0.501495,0.363230,-0.640625,-0.515625,0.296875,0.500000,0.359375,87.000000,95.000000,19.000000,32.000000,23.000000
58760,-0.609000,-0.525659,0.267018,0.493031,0.374610,-0.609375,-0.531250,0.265625,0.500000,0.375000,89.000000,94.000000,17.000000,32.000000,24.000000
58768,-0.620866,-0.521640,0.274216,0.496752,0.371538,-0.625000,-0.515625,0.265625,0.500000,0.375000,88.000000,95.000000,17.000000,32.000000,24.000000
58776,-0.605951,-0.526620,0.258904,0.493629,0.380037,-0.609375,-0.531250,0.265625,0.500000,0.375000,89.000000,94.000000,17.000000,32.000000,24.000000
58888,-0.623798,-0.521193,0.274476,0.499567,0.370948,-0.625000,-0.515625,0.265625,0.500000,0.375000,88.000000,95.000000,17.000000,32.000000,24.000000
59016,-0.634071,-0.514144,0.292713,0.492288,0.363214,-0.640625,-0.515625,0.296875,0.500000,0.359375,87.000000,95.000000,19.000000,32.000000,23.000000
59144,-0.624498,-0.521732,0.282011,0.499705,0.364514,-0.625000,-0.515625,0.281250,0.500000,0.359375,88.000000,95.000000,18.000000,32.000000,23.000000
59152,-0.628857,-0.515988,0.267537,0.495653,0.381656,-0.625000,-0.515625,0.265625,0.500000,0.375000,88.000000,95.000000,17.000000,32.000000,24.000000
59160,-0.598974,-0.528435,0.251468,0.491207,0.384735,-0.593750,-0.531250,0.250000,0.484375,0.390625,90.000000,94.000000,16.000000,31.000000,25.000000
65608,-0.639760,-0.513944,0.267349,0.505878,0.380477,-0.640625,-0.515625,0.265625,0.515625,0.375000,87.000000,95.000000,17.000000,33.000000,24.000000
65616,-0.626685,-0.519172,0.259272,0.502855,0.383730,-0.625000,-0.515625,0.265625,0.500000,0.375000,88.000000,95.000000,17.000000,32.000000,24.000000
65672,-0.674906,-0.496880,0.279986,0.512538,0.379262,-0.671875,-0.500000,0.281250,0.515625,0.375000,85.000000,96.000000,18.000000,33.000000,24.000000
65680,-0.616875,-0.524497,0.271377,0.499154,0.370840,-0.609375,-0.531250,0.265625,0.500000,0.375000,89.000000,94.000000,17.000000,32.000000,24.000000
65736,-0.666967,-0.501067,0.283953,0.509480,0.374601,-0.671875,-0.500000,0.281250,0.515625,0.375000,85.000000,96.000000,18.000000,33.000000,24.000000
65744,-0.668823,-0.499445,0.279272,0.509930,0.379067,-0.671875,-0.500000,0.281250,0.515625,0.375000,85.000000,96.000000,18.000000,33.000000,24.000000
65800,-0.637332,-0.513951,0.259419,0.504703,0.387161,-0.640625,-0.515625,0.265625,0.500000,0.390625,87.000000,95.000000,17.000000,32.000000,25.000000
65808,-0.633281,-0.516876,0.271601,0.502880,0.375676,-0.625000,-0.515625,0.265625,0.500000,0.375000,88.000000,95.000000,17.000000,32.000000,24.000000
65864,-0.641614,-0.512426,0.283380,0.500724,0.369936,-0.640625,-0.515625,0.281250,0.500000,0.375000,87.000000,95.000000,18.000000,32.000000,24.000000
65872,-0.656594,-0.504642,0.290665,0.501359,0.369212,-0.656250,-0.500000,0.281250,0.500000,0.375000,86.000000,96.000000,18.000000,32.000000,24.000000
65928,-0.628476,-0.519739,0.275061,0.502106,0.371048,-0.625000,-0.515625,0.265625,0.500000,0.375000,88.000000,95.000000,17.000000,32.000000,24.000000
65992,-0.662246,-0.503857,0.289352,0.507949,0.368800,-0.656250,-0.500000,0.281250,0.500000,0.375000,86.000000,96.000000,18.000000,32.000000,24.000000
66000,-0.599843,-0.530579,0.251352,0.497673,0.381396,-0.593750,-0.531250,0.250000,0.500000,0.375000,90.000000,94.000000,16.000000,32.000000,24.000000
66056,-0.654341,-0.507403,0.283744,0.506376,0.371625,-0.656250,-0.500000,0.281250,0.500000,0.375000,86.000000,96.000000,18.000000,32.000000,24.000000
66120,-0.596528,-0.531644,0.254625,0.495094,0.378453,-0.593750,-0.531250,0.250000,0.500000,0.375000,90.000000,94.000000,16.000000,32.000000,24.000000
66128,-0.595763,-0.531583,0.245544,0.496550,0.385251,-0.593750,-0.531250,0.250000,0.500000,0.375000,90.000000,94.000000,16.000000,32.000000,24.000000
66184,-0.623550,-0.521963,0.272390,0.501949,0.371175,-0.625000,-0.515625,0.265625,0.500000,0.375000,88.000000,95.000000,17.000000,32.000000,24.000000
66192,-0.591180,-0.533801,0.250374,0.494851,0.379755,-0.593750,-0.531250,0.250000,0.500000,0.375000,90.000000,94.000000,16.000000,32.000000,24.000000
66248,-0.613524,-0.525693,0.266198,0.499189,0.373830,-0.609375,-0.531250,0.265625,0.500000,0.375000,89.000000,94.000000,17.000000,32.000000,24.000000
66256,-0.642002,-0.514015,0.292108,0.502547,0.361362,-0.640625,-0.515625,0.296875,0.500000,0.359375,87.000000,95.000000,19.000000,32.000000,23.000000
66312,-0.620487,-0.522458,0.269822,0.499573,0.373550,-0.625000,-0.515625,0.265625,0.500000,0.375000,88.000000,95.000000,17.000000,32.000000,24.000000
66320,-0.619172,-0.523523,0.269710,0.500331,0.372654,-0.625000,-0.515625,0.265625,0.500000,0.375000,88.000000,95.000000,17.000000,32.000000,24.000000
66376,-0.627246,-0.519922,0.271031,0.502382,0.373755,-0.625000,-0.515625,0.265625,0.500000,0.375000,88.000000,95.000000,17.000000,32.000000,24.000000
66384,-0.620264,-0.523162,0.275876,0.499423,0.368127,-0.625000,-0.531250,0.281250,0.500000,0.375000,88.000000,94.000000,18.000000,32.000000,24.000000
66440,-0.605853,-0.528058,0.256228,0.497714,0.379969,-0.609375,-0.531250,0.265625,0.500000,0.375000,89.000000,94.000000,17.000000,32.000000,24.000000
66504,-0.594671,-0.532830,0.258662,0.494482,0.374358,-0.593750,-0.531250,0.250000,0.500000,0.375000,90.000000,94.000000,16.000000,32.000000,24.000000
66568,-0.664798,-0.503127,0.300616,0.506785,0.360523,-0.656250,-0.500000,0.296875,0.500000,0.359375,86.000000,96.000000,19.000000,32.000000,23.000000
66576,-0.579513,-0.538455,0.249653,0.492212,0.376103,-0.578125,-0.531250,0.250000,0.484375,0.375000,91.000000,94.000000,16.000000,31.000000,24.000000
66632,-0.582829,-0.536862,0.252918,0.491515,0.375258,-0.578125,-0.531250,0.250000,0.484375,0.375000,91.000000,94.000000,16.000000,31.000000,24.000000
66640,-0.617548,-0.523521,0.274289,0.497340,0.369441,-0.625000,-0.531250,0.281250,0.500000,0.375000,88.000000,94.000000,18.000000,32.000000,24.000000
66696,-0.610599,-0.523866,0.258639,0.493202,0.382624,-0.609375,-0.531250,0.265625,0.500000,0.375000,89.000000,94.000000,17.000000,32.000000,24.000000
66704,-0.574475,-0.539958,0.246464,0.490886,0.377083,-0.578125,-0.531250,0.250000,0.484375,0.375000,91.000000,94.000000,16.000000,31.000000,24.000000
66760,-0.610866,-0.526848,0.276239,0.495656,0.365819,-0.609375,-0.531250,0.281250,0.500000,0.359375,89.000000,94.000000,18.000000,32.000000,23.000000
66824,-0.599150,-0.531569,0.266359,0.495115,0.369246,-0.593750,-0.531250,0.265625,0.500000,0.359375,90.000000,94.000000,17.000000,32.000000,23.000000
66952,-0.610133,-0.526986,0.280579,0.493910,0.362630,-0.609375,-0.531250,0.281250,0.500000,0.359375,89.000000,94.000000,18.000000,32.000000,23.000000
66960,-0.617637,-0.522917,0.276170,0.495297,0.369087,-0.625000,-0.531250,0.281250,0.500000,0.375000,88.000000,94.000000,18.000000,32.000000,24.000000
67080,-0.598784,-0.531633,0.261302,0.495935,0.373181,-0.609375,-0.531250,0.265625,0.500000,0.375000,89.000000,94.000000,17.000000,32.000000,24.000000
67088,-0.604660,-0.528429,0.264570,0.494862,0.373657,-0.609375,-0.531250,0.265625,0.500000,0.375000,89.000000,94.000000,17.000000,32.000000,24.000000
67208,-0.666859,-0.502273,0.284933,0.512331,0.371868,-0.671875,-0.500000,0.281250,0.515625,0.375000,85.000000,96.000000,18.000000,33.000000,24.000000
67336,-0.601626,-0.529017,0.264158,0.492417,0.374068,-0.609375,-0.531250,0.265625,0.500000,0.375000,89.000000,94.000000,17.000000,32.000000,24.000000
67344,-0.641728,-0.514583,0.295025,0.502945,0.358341,-0.640625,-0.515625,0.296875,0.500000,0.359375,87.000000,95.000000,19.000000,32.000000,23.000000
73800,-0.671446,-0.499092,0.294344,0.508884,0.367311,-0.671875,-0.500000,0.296875,0.515625,0.359375,85.000000,96.000000,19.000000,33.000000,23.000000
73808,-0.618289,-0.521986,0.246382,0.502012,0.391881,-0.625000,-0.515625,0.250000,0.500000,0.390625,88.000000,95.000000,16.000000,32.000000,25.000000
73864,-0.626958,-0.518318,0.261793,0.500370,0.383113,-0.625000,-0.515625,0.265625,0.500000,0.375000,88.000000,95.000000,17.000000,32.000000,24.000000
73872,-0.668418,-0.499698,0.296140,0.505407,0.366569,-0.671875,-0.500000,0.296875,0.500000,0.375000,85.000000,96.000000,19.000000,32.000000,24.000000
73928,-0.641753,-0.513708,0.275656,0.505756,0.374049,-0.640625,-0.515625,0.281250,0.500000,0.375000,87.000000,95.000000,18.000000,32.000000,24.000000
73936,-0.626350,-0.520452,0.267435,0.503079,0.376287,-0.625000,-0.515625,0.265625,0.500000,0.375000,88.000000,95.000000,17.000000,32.000000,24.000000
73944,-0.649552,-0.510474,0.285195,0.506461,0.368371,-0.640625,-0.515625,0.281250,0.500000,0.375000,87.000000,95.000000,18.000000,32.000000,24.000000
73992,-0.622132,-0.521879,0.264095,0.501794,0.378123,-0.625000,-0.515625,0.265625,0.500000,0.375000,88.000000,95.000000,17.000000,32.000000,24.000000
74000,-0.660021,-0.506169,0.303734,0.506406,0.356049,-0.656250,-0.500000,0.296875,0.500000,0.359375,86.000000,96.000000,19.000000,32.000000,23.000000
74056,-0.636715,-0.515532,0.278268,0.502707,0.371271,-0.640625,-0.515625,0.281250,0.500000,0.375000,87.000000,95.000000,18.000000,32.000000,24.000000
74064,-0.648697,-0.510811,0.283874,0.506493,0.369142,-0.640625,-0.515625,0.281250,0.500000,0.375000,87.000000,95.000000,18.000000,32.000000,24.000000
74120,-0.610745,-0.525253,0.250384,0.499051,0.386563,-0.609375,-0.531250,0.250000,0.500000,0.390625,89.000000,94.000000,16.000000,32.000000,25.000000
74128,-0.634822,-0.516842,0.278215,0.503016,0.370433,-0.640625,-0.515625,0.281250,0.500000,0.375000,87.000000,95.000000,18.000000,32.000000,24.000000
74184,-0.637488,-0.515158,0.276351,0.503542,0.372752,-0.640625,-0.515625,0.281250,0.500000,0.375000,87.000000,95.000000,18.000000,32.000000,24.000000
74248,-0.668031,-0.500780,0.298960,0.506676,0.363175,-0.671875,-0.500000,0.296875,0.515625,0.359375,85.000000,96.000000,19.000000,33.000000,23.000000
74256,-0.621949,-0.521766,0.270305,0.499769,0.373641,-0.625000,-0.515625,0.265625,0.500000,0.375000,88.000000,95.000000,17.000000,32.000000,24.000000
74312,-0.613876,-0.525127,0.262521,0.499287,0.377193,-0.609375,-0.531250,0.265625,0.500000,0.375000,89.000000,94.000000,17.000000,32.000000,24.000000
74376,-0.660435,-0.503031,0.292666,0.502424,0.368376,-0.656250,-0.500000,0.296875,0.500000,0.359375,86.000000,96.000000,19.000000,32.000000,23.000000
74384,-0.633013,-0.517617,0.277406,0.502600,0.370624,-0.640625,-0.515625,0.281250,0.500000,0.375000,87.000000,95.000000,18.000000,32.000000,24.000000
74440,-0.632724,-0.517613,0.275534,0.503043,0.371760,-0.640625,-0.515625,0.281250,0.500000,0.375000,87.000000,95.000000,18.000000,32.000000,24.000000
74448,-0.665644,-0.503229,0.300123,0.508597,0.360154,-0.671875,-0.500000,0.296875,0.515625,0.359375,85.000000,96.000000,19.000000,33.000000,23.000000
74504,-0.658470,-0.506889,0.297468,0.507358,0.360535,-0.656250,-0.500000,0.296875,0.500000,0.359375,86.000000,96.000000,19.000000,32.000000,23.000000
74568,-0.635796,-0.516625,0.274505,0.504816,0.373100,-0.640625,-0.515625,0.281250,0.500000,0.375000,87.000000,95.000000,18.000000,32.000000,24.000000
74632,-0.622724,-0.521531,0.270561,0.499972,0.373721,-0.625000,-0.515625,0.265625,0.500000,0.375000,88.000000,95.000000,17.000000,32.000000,24.000000
74640,-0.642018,-0.512789,0.285628,0.501936,0.367242,-0.640625,-0.515625,0.281250,0.500000,0.375000,87.000000,95.000000,18.000000,32.000000,24.000000
74696,-0.603890,-0.528894,0.257385,0.496915,0.378484,-0.609375,-0.531250,0.265625,0.500000,0.375000,89.000000,94.000000,17.000000,32.000000,24.000000
74704,-0.626176,-0.521086,0.279927,0.500908,0.366427,-0.625000,-0.515625,0.281250,0.500000,0.359375,88.000000,95.000000,18.000000,32.000000,23.000000
74760,-0.634607,-0.517364,0.284335,0.502212,0.365425,-0.640625,-0.515625,0.281250,0.500000,0.375000,87.000000,95.000000,18.000000,32.000000,24.000000
74768,-0.607855,-0.528187,0.270879,0.496597,0.368566,-0.609375,-0.531250,0.265625,0.500000,0.375000,89.000000,94.000000,17.000000,32.000000,24.000000
74824,-0.589251,-0.534295,0.248059,0.494432,0.381055,-0.593750,-0.531250,0.250000,0.500000,0.375000,90.000000,94.000000,16.000000,32.000000,24.000000
74888,-0.582641,-0.535659,0.243483,0.490890,0.383928,-0.578125,-0.531250,0.250000,0.484375,0.375000,91.000000,94.000000,16.000000,31.000000,24.000000
74952,-0.597757,-0.531997,0.257333,0.496622,0.375799,-0.593750,-0.531250,0.250000,0.500000,0.375000,90.000000,94.000000,16.000000,32.000000,24.000000
75016,-0.586630,-0.535167,0.244408,0.494446,0.382943,-0.593750,-0.531250,0.250000,0.500000,0.375000,90.000000,94.000000,16.000000,32.000000,24.000000
75144,-0.613064,-0.525147,0.267046,0.496919,0.374247,-0.609375,-0.531250,0.265625,0.500000,0.375000,89.000000,94.000000,17.000000,32.000000,24.000000
75152,-0.622608,-0.519258,0.270723,0.494482,0.376661,-0.625000,-0.515625,0.265625,0.500000,0.375000,88.000000,95.000000,17.000000,32.000000,24.000000
75160,-0.582906,-0.536468,0.252131,0.490845,0.376398,-0.578125,-0.531250,0.250000,0.484375,0.375000,91.000000,94.000000,16.000000,31.000000,24.000000
75272,-0.636227,-0.513963,0.280855,0.497552,0.371784,-0.640625,-0.515625,0.281250,0.500000,0.375000,87.000000,95.000000,18.000000,32.000000,24.000000
75400,-0.623751,-0.521245,0.279115,0.498301,0.367580,-0.625000,-0.515625,0.281250,0.500000,0.359375,88.000000,95.000000,18.000000,32.000000,23.000000
75528,-0.619761,-0.523753,0.285181,0.497638,0.360694,-0.625000,-0.515625,0.281250,0.500000,0.359375,88.000000,95.000000,18.000000,32.000000,23.000000
75536,-0.631289,-0.518560,0.286415,0.500024,0.363410,-0.625000,-0.515625,0.281250,0.500000,0.359375,88.000000,95.000000,18.000000,32.000000,23.000000
81992,-0.639759,-0.514455,0.272721,0.505706,0.375787,-0.640625,-0.515625,0.281250,0.500000,0.375000,87.000000,95.000000,18.000000,32.000000,24.000000
82000,-0.649409,-0.510364,0.288216,0.505363,0.366194,-0.640625,-0.515625,0.296875,0.500000,0.359375,87.000000,95.000000,19.000000,32.000000,23.000000
82056,-0.678991,-0.496712,0.302770,0.512150,0.360783,-0.671875,-0.500000,0.296875,0.515625,0.359375,85.000000,96.000000,19.000000,33.000000,23.000000
82064,-0.619105,-0.521563,0.254701,0.499711,0.386255,-0.625000,-0.515625,0.250000,0.500000,0.390625,88.000000,95.000000,16.000000,32.000000,25.000000
82120,-0.669901,-0.497979,0.292982,0.504380,0.370518,-0.671875,-0.500000,0.296875,0.500000,0.375000,85.000000,96.000000,19.000000,32.000000,24.000000
82128,-0.607251,-0.527305,0.249324,0.499740,0.385491,-0.609375,-0.531250,0.250000,0.500000,0.390625,89.000000,94.000000,16.000000,32.000000,25.000000
82184,-0.616915,-0.521255,0.251373,0.497006,0.389792,-0.625000,-0.515625,0.250000,0.500000,0.390625,88.000000,95.000000,16.000000,32.000000,25.000000
82192,-0.610458,-0.526796,0.255256,0.500863,0.381136,-0.609375,-0.531250,0.250000,0.500000,0.390625,89.000000,94.000000,16.000000,32.000000,25.000000
82248,-0.630655,-0.517515,0.269755,0.501261,0.377154,-0.625000,-0.515625,0.265625,0.500000,0.375000,88.000000,95.000000,17.000000,32.000000,24.000000
82256,-0.652816,-0.506362,0.286569,0.501177,0.371431,-0.656250,-0.500000,0.281250,0.500000,0.375000,86.000000,96.000000,18.000000,32.000000,24.000000
82312,-0.634064,-0.514873,0.267514,0.500272,0.381151,-0.625000,-0.515625,0.265625,0.500000,0.375000,88.000000,95.000000,17.000000,32.000000,24.000000
82320,-0.671853,-0.497467,0.294961,0.505390,0.368969,-0.671875,-0.500000,0.296875,0.500000,0.375000,85.000000,96.000000,19.000000,32.000000,24.000000
82328,-0.608329,-0.526442,0.248747,0.499200,0.386824,-0.609375,-0.531250,0.250000,0.500000,0.390625,89.000000,94.000000,16.000000,32.000000,25.000000
82376,-0.621454,-0.521711,0.269914,0.498917,0.374334,-0.625000,-0.515625,0.265625,0.500000,0.375000,88.000000,95.000000,17.000000,32.000000,24.000000
82384,-0.652445,-0.506520,0.284909,0.501236,0.372820,-0.656250,-0.500000,0.281250,0.500000,0.375000,86.000000,96.000000,18.000000,32.000000,24.000000
82392,-0.603350,-0.529738,0.253756,0.499336,0.379996,-0.593750,-0.531250,0.250000,0.500000,0.375000,90.000000,94.000000,16.000000,32.000000,24.000000
82440,-0.635394,-0.514501,0.266470,0.501392,0.382034,-0.640625,-0.515625,0.265625,0.500000,0.390625,87.000000,95.000000,17.000000,32.000000,25.000000
82448,-0.620149,-0.522877,0.268099,0.500607,0.374320,-0.625000,-0.515625,0.265625,0.500000,0.375000,88.000000,95.000000,17.000000,32.000000,24.000000
82504,-0.627634,-0.519631,0.274100,0.501356,0.371810,-0.625000,-0.515625,0.265625,0.500000,0.375000,88.000000,95.000000,17.000000,32.000000,24.000000
82512,-0.656955,-0.505207,0.292594,0.502755,0.366812,-0.656250,-0.500000,0.296875,0.500000,0.359375,86.000000,96.000000,19.000000,32.000000,23.000000
82568,-0.650981,-0.509489,0.293642,0.503789,0.363039,-0.656250,-0.500000,0.296875,0.500000,0.359375,86.000000,96.000000,19.000000,32.000000,23.000000
82632,-0.622090,-0.522189,0.264672,0.502323,0.377285,-0.625000,-0.515625,0.265625,0.500000,0.375000,88.000000,95.000000,17.000000,32.000000,24.000000
82696,-0.610120,-0.526719,0.258350,0.499477,0.379013,-0.609375,-0.531250,0.265625,0.500000,0.375000,89.000000,94.000000,17.000000,32.000000,24.000000
82704,-0.645453,-0.510523,0.284461,0.500989,0.370526,-0.640625,-0.515625,0.281250,0.500000,0.375000,87.000000,95.000000,18.000000,32.000000,24.000000
82760,-0.587295,-0.534447,0.236436,0.496034,0.389272,-0.593750,-0.531250,0.234375,0.500000,0.390625,90.000000,94.000000,15.000000,32.000000,25.000000
82824,-0.605902,-0.528172,0.257395,0.497760,0.378919,-0.609375,-0.531250,0.265625,0.500000,0.375000,89.000000,94.000000,17.000000,32.000000,24.000000
82888,-0.580353,-0.537417,0.242307,0.492989,0.382474,-0.578125,-0.531250,0.234375,0.500000,0.375000,91.000000,94.000000,15.000000,32.000000,24.000000
82952,-0.601310,-0.528638,0.250815,0.494872,0.384262,-0.609375,-0.531250,0.250000,0.500000,0.390625,89.000000,94.000000,16.000000,32.000000,25.000000
83016,-0.626372,-0.517938,0.272316,0.496054,0.375940,-0.625000,-0.515625,0.265625,0.500000,0.375000,88.000000,95.000000,17.000000,32.000000,24.000000
83024,-0.610606,-0.526616,0.267424,0.497197,0.372601,-0.609375,-0.531250,0.265625,0.500000,0.375000,89.000000,94.000000,17.000000,32.000000,24.000000
83080,-0.616954,-0.523954,0.270724,0.498588,0.371596,-0.609375,-0.531250,0.265625,0.500000,0.375000,89.000000,94.000000,17.000000,32.000000,24.000000
83088,-0.600202,-0.530900,0.261129,0.496092,0.373882,-0.609375,-0.531250,0.265625,0.500000,0.375000,89.000000,94.000000,17.000000,32.000000,24.000000
83144,-0.616662,-0.522801,0.270794,0.494988,0.373681,-0.625000,-0.515625,0.265625,0.500000,0.375000,88.000000,95.000000,17.000000,32.000000,24.000000
83152,-0.586326,-0.535395,0.262075,0.489595,0.370051,-0.593750,-0.531250,0.265625,0.484375,0.375000,90.000000,94.000000,17.000000,31.000000,24.000000
83208,-0.636530,-0.514238,0.278044,0.499196,0.373528,-0.640625,-0.515625,0.281250,0.500000,0.375000,87.000000,95.000000,18.000000,32.000000,24.000000
83216,-0.600150,-0.529427,0.260498,0.492772,0.376306,-0.593750,-0.531250,0.265625,0.484375,0.375000,90.000000,94.000000,17.000000,31.000000,24.000000
83336,-0.629205,-0.519272,0.283625,0.499777,0.365075,-0.625000,-0.515625,0.281250,0.500000,0.359375,88.000000,95.000000,18.000000,32.000000,23.000000
83464,-0.612992,-0.525532,0.270798,0.496698,0.371029,-0.609375,-0.531250,0.265625,0.500000,0.375000,89.000000,94.000000,17.000000,32.000000,24.000000
83592,-0.601867,-0.529868,0.264709,0.494567,0.372459,-0.609375,-0.531250,0.265625,0.500000,0.375000,89.000000,94.000000,17.000000,32.000000,24.000000
83600,-0.614836,-0.525620,0.279197,0.497226,0.364034,-0.609375,-0.531250,0.281250,0.500000,0.359375,89.000000,94.000000,18.000000,32.000000,23.000000
83720,-0.590821,-0.534539,0.258568,0.493790,0.373002,-0.593750,-0.531250,0.250000,0.500000,0.375000,90.000000,94.000000,16.000000,32.000000,24.000000
83728,-0.602745,-0.529655,0.272855,0.492887,0.366658,-0.609375,-0.531250,0.265625,0.500000,0.375000,89.000000,94.000000,17.000000,32.000000,24.000000
90184,-0.621243,-0.521271,0.255075,0.501828,0.385611,-0.625000,-0.515625,0.250000,0.500000,0.390625,88.000000,95.000000,16.000000,32.000000,25.000000
90192,-0.642859,-0.513575,0.281956,0.505310,0.369168,-0.640625,-0.515625,0.281250,0.500000,0.375000,87.000000,95.000000,18.000000,32.000000,24.000000
90248,-0.612948,-0.522862,0.247530,0.496733,0.391547,-0.609375,-0.531250,0.250000,0.500000,0.390625,89.000000,94.000000,16.000000,32.000000,25.000000
90256,-0.620218,-0.519273,0.253250,0.496257,0.389983,-0.625000,-0.515625,0.250000,0.500000,0.390625,88.000000,95.000000,16.000000,32.000000,25.000000
90264,-0.632604,-0.517257,0.274283,0.502083,0.373495,-0.640625,-0.515625,0.281250,0.500000,0.375000,87.000000,95.000000,18.000000,32.000000,24.000000
90312,-0.615544,-0.522086,0.249031,0.497802,0.390796,-0.609375,-0.531250,0.250000,0.500000,0.390625,89.000000,94.000000,16.000000,32.000000,25.000000
90320,-0.645705,-0.511542,0.278328,0.505529,0.373390,-0.640625,-0.515625,0.281250,0.500000,0.375000,87.000000,95.000000,18.000000,32.000000,24.000000
90376,-0.658206,-0.506179,0.284418,0.508962,0.371004,-0.656250,-0.500000,0.281250,0.500000,0.375000,86.000000,96.000000,18.000000,32.000000,24.000000
90384,-0.609802,-0.524732,0.261252,0.493413,0.379869,-0.609375,-0.531250,0.265625,0.500000,0.375000,89.000000,94.000000,17.000000,32.000000,24.000000
90440,-0.640291,-0.512368,0.265458,0.503329,0.383872,-0.640625,-0.515625,0.265625,0.500000,0.390625,87.000000,95.000000,17.000000,32.000000,25.000000
90448,-0.606715,-0.527189,0.247230,0.499380,0.387294,-0.609375,-0.531250,0.250000,0.500000,0.390625,89.000000,94.000000,16.000000,32.000000,25.000000
90504,-0.629601,-0.518467,0.268505,0.502661,0.376902,-0.625000,-0.515625,0.265625,0.500000,0.375000,88.000000,95.000000,17.000000,32.000000,24.000000
90568,-0.631307,-0.516128,0.266251,0.499733,0.381451,-0.625000,-0.515625,0.265625,0.500000,0.375000,88.000000,95.000000,17.000000,32.000000,24.000000
90576,-0.630294,-0.516778,0.263545,0.500793,0.382734,-0.625000,-0.515625,0.265625,0.500000,0.375000,88.000000,95.000000,17.000000,32.000000,24.000000
90632,-0.641692,-0.512928,0.276687,0.503828,0.374105,-0.640625,-0.515625,0.281250,0.500000,0.375000,87.000000,95.000000,18.000000,32.000000,24.000000
90640,-0.658573,-0.505129,0.293146,0.504535,0.366021,-0.656250,-0.500000,0.296875,0.500000,0.359375,86.000000,96.000000,19.000000,32.000000,23.000000
90696,-0.636722,-0.515599,0.275876,0.503304,0.373141,-0.640625,-0.515625,0.281250,0.500000,0.375000,87.000000,95.000000,18.000000,32.000000,24.000000
90760,-0.619090,-0.522825,0.260340,0.501240,0.380336,-0.625000,-0.515625,0.265625,0.500000,0.375000,88.000000,95.000000,17.000000,32.000000,24.000000
90768,-0.642054,-0.511777,0.276039,0.501550,0.376243,-0.640625,-0.515625,0.281250,0.500000,0.375000,87.000000,95.000000,18.000000,32.000000,24.000000
90824,-0.667180,-0.499792,0.291621,0.504787,0.370564,-0.671875,-0.500000,0.296875,0.500000,0.375000,85.000000,96.000000,19.000000,32.000000,24.000000
90832,-0.607409,-0.526964,0.259691,0.496256,0.378426,-0.609375,-0.531250,0.265625,0.500000,0.375000,89.000000,94.000000,17.000000,32.000000,24.000000
90888,-0.624450,-0.519094,0.267087,0.497458,0.378999,-0.625000,-0.515625,0.265625,0.500000,0.375000,88.000000,95.000000,17.000000,32.000000,24.000000
90952,-0.593412,-0.533220,0.254461,0.494985,0.377186,-0.593750,-0.531250,0.250000,0.500000,0.375000,90.000000,94.000000,16.000000,32.000000,24.000000
90960,-0.617937,-0.523064,0.269944,0.497419,0.373638,-0.625000,-0.515625,0.265625,0.500000,0.375000,88.000000,95.000000,17.000000,32.000000,24.000000
91016,-0.594604,-0.532352,0.254116,0.494495,0.378344,-0.593750,-0.531250,0.250000,0.500000,0.375000,90.000000,94.000000,16.000000,32.000000,24.000000
91024,-0.602796,-0.529583,0.264012,0.495439,0.372928,-0.609375,-0.531250,0.265625,0.500000,0.375000,89.000000,94.000000,17.000000,32.000000,24.000000
91080,-0.610149,-0.526167,0.265237,0.496276,0.374802,-0.609375,-0.531250,0.265625,0.500000,0.375000,89.000000,94.000000,17.000000,32.000000,24.000000
91088,-0.640309,-0.515233,0.294470,0.502424,0.358647,-0.640625,-0.515625,0.296875,0.500000,0.359375,87.000000,95.000000,19.000000,32.000000,23.000000
91144,-0.634666,-0.515418,0.282502,0.498292,0.369289,-0.640625,-0.515625,0.281250,0.500000,0.375000,87.000000,95.000000,18.000000,32.000000,24.000000
91208,-0.590574,-0.533429,0.250733,0.493257,0.380013,-0.593750,-0.531250,0.250000,0.500000,0.375000,90.000000,94.000000,16.000000,32.000000,24.000000
91272,-0.576888,-0.538307,0.247948,0.489179,0.378068,-0.578125,-0.531250,0.250000,0.484375,0.375000,91.000000,94.000000,16.000000,31.000000,24.000000
91336,-0.592573,-0.533259,0.253076,0.494775,0.377981,-0.593750,-0.531250,0.250000,0.500000,0.375000,90.000000,94.000000,16.000000,32.000000,24.000000
91400,-0.584451,-0.535999,0.253493,0.491260,0.375696,-0.578125,-0.531250,0.250000,0.484375,0.375000,91.000000,94.000000,16.000000,31.000000,24.000000
91528,-0.635520,-0.514598,0.284905,0.497313,0.367900,-0.640625,-0.515625,0.281250,0.500000,0.375000,87.000000,95.000000,18.000000,32.000000,24.000000
91656,-0.607702,-0.527416,0.271316,0.494424,0.369378,-0.609375,-0.531250,0.265625,0.500000,0.375000,89.000000,94.000000,17.000000,32.000000,24.000000
91664,-0.619749,-0.520793,0.275123,0.493390,0.372030,-0.625000,-0.515625,0.281250,0.484375,0.375000,88.000000,95.000000,18.000000,31.000000,24.000000
91672,-0.601199,-0.529726,0.264129,0.493714,0.373082,-0.609375,-0.531250,0.265625,0.500000,0.375000,89.000000,94.000000,17.000000,32.000000,24.000000
91784,-0.618860,-0.524034,0.277042,0.499194,0.366658,-0.625000,-0.531250,0.281250,0.500000,0.375000,88.000000,94.000000,18.000000,32.000000,24.000000
91792,-0.628312,-0.519433,0.293887,0.496523,0.357335,-0.625000,-0.531250,0.296875,0.500000,0.359375,88.000000,94.000000,19.000000,32.000000,23.000000
91912,-0.635709,-0.515950,0.290777,0.498707,0.362176,-0.640625,-0.515625,0.296875,0.500000,0.359375,87.000000,95.000000,19.000000,32.000000,23.000000
98376,-0.626258,-0.518887,0.262849,0.500511,0.381786,-0.625000,-0.515625,0.265625,0.500000,0.375000,88.000000,95.000000,17.000000,32.000000,24.000000
98384,-0.629091,-0.518501,0.268684,0.502018,0.376889,-0.625000,-0.515625,0.265625,0.500000,0.375000,88.000000,95.000000,17.000000,32.000000,24.000000
98440,-0.663930,-0.502814,0.280949,0.510198,0.375597,-0.671875,-0.500000,0.281250,0.515625,0.375000,85.000000,96.000000,18.000000,33.000000,24.000000
98448,-0.681485,-0.494112,0.299336,0.510870,0.365391,-0.687500,-0.500000,0.296875,0.515625,0.375000,84.000000,96.000000,19.000000,33.000000,24.000000
98504,-0.682055,-0.493632,0.293793,0.512090,0.369805,-0.687500,-0.500000,0.296875,0.515625,0.375000,84.000000,96.000000,19.000000,33.000000,24.000000
98512,-0.620052,-0.522576,0.255301,0.503531,0.383796,-0.625000,-0.515625,0.250000,0.500000,0.390625,88.000000,95.000000,16.000000,32.000000,25.000000
98568,-0.648136,-0.510895,0.283280,0.506002,0.369748,-0.640625,-0.515625,0.281250,0.500000,0.375000,87.000000,95.000000,18.000000,32.000000,24.000000
98576,-0.627391,-0.518997,0.265479,0.501696,0.379213,-0.625000,-0.515625,0.265625,0.500000,0.375000,88.000000,95.000000,17.000000,32.000000,24.000000
98632,-0.645702,-0.512152,0.287604,0.504497,0.365753,-0.640625,-0.515625,0.281250,0.500000,0.375000,87.000000,95.000000,18.000000,32.000000,24.000000
98696,-0.646719,-0.510551,0.282227,0.503658,0.371386,-0.640625,-0.515625,0.281250,0.500000,0.375000,87.000000,95.000000,18.000000,32.000000,24.000000
98760,-0.640520,-0.514004,0.276276,0.504577,0.373671,-0.640625,-0.515625,0.281250,0.500000,0.375000,87.000000,95.000000,18.000000,32.000000,24.000000
98768,-0.654167,-0.506919,0.286621,0.504199,0.370266,-0.656250,-0.500000,0.281250,0.500000,0.375000,86.000000,96.000000,18.000000,32.000000,24.000000
98824,-0.652893,-0.508260,0.275293,0.508651,0.377209,-0.656250,-0.515625,0.281250,0.515625,0.375000,86.000000,95.000000,18.000000,33.000000,24.000000
98888,-0.616527,-0.523689,0.267118,0.498035,0.375064,-0.609375,-0.531250,0.265625,0.500000,0.375000,89.000000,94.000000,17.000000,32.000000,24.000000
99024,-0.596862,-0.531599,0.249305,0.496966,0.382190,-0.593750,-0.531250,0.250000,0.500000,0.375000,90.000000,94.000000,16.000000,32.000000,24.000000
99080,-0.608185,-0.527932,0.255438,0.500693,0.379986,-0.609375,-0.531250,0.265625,0.500000,0.375000,89.000000,94.000000,17.000000,32.000000,24.000000
99088,-0.609352,-0.525386,0.259411,0.494849,0.380478,-0.609375,-0.531250,0.265625,0.500000,0.375000,89.000000,94.000000,17.000000,32.000000,24.000000
99144,-0.653822,-0.506074,0.292969,0.500286,0.366642,-0.656250,-0.500000,0.296875,0.500000,0.359375,86.000000,96.000000,19.000000,32.000000,23.000000
99152,-0.576626,-0.537174,0.237533,0.489094,0.387172,-0.578125,-0.531250,0.234375,0.484375,0.390625,91.000000,94.000000,15.000000,31.000000,25.000000
99208,-0.600542,-0.529872,0.259261,0.494774,0.376379,-0.609375,-0.531250,0.265625,0.500000,0.375000,89.000000,94.000000,17.000000,32.000000,24.000000
99272,-0.622410,-0.522047,0.276324,0.499280,0.368854,-0.625000,-0.531250,0.281250,0.500000,0.375000,88.000000,94.000000,18.000000,32.000000,24.000000
99280,-0.637691,-0.515522,0.290037,0.500700,0.362476,-0.640625,-0.515625,0.296875,0.500000,0.359375,87.000000,95.000000,19.000000,32.000000,23.000000
99336,-0.638761,-0.514496,0.285039,0.501070,0.367148,-0.640625,-0.515625,0.281250,0.500000,0.375000,87.000000,95.000000,18.000000,32.000000,24.000000
99400,-0.592444,-0.531755,0.243174,0.493854,0.387171,-0.593750,-0.531250,0.234375,0.500000,0.390625,90.000000,94.000000,15.000000,32.000000,25.000000
99464,-0.617502,-0.523919,0.279349,0.496459,0.365612,-0.609375,-0.531250,0.281250,0.500000,0.359375,89.000000,94.000000,18.000000,32.000000,23.000000
99528,-0.618267,-0.523537,0.271492,0.498984,0.371328,-0.625000,-0.515625,0.265625,0.500000,0.375000,88.000000,95.000000,17.000000,32.000000,24.000000
99536,-0.600219,-0.528938,0.258196,0.492122,0.378839,-0.593750,-0.531250,0.265625,0.484375,0.375000,90.000000,94.000000,17.000000,31.000000,24.000000
99592,-0.611687,-0.522977,0.266024,0.490462,0.378179,-0.609375,-0.515625,0.265625,0.484375,0.375000,89.000000,95.000000,17.000000,31.000000,24.000000
99600,-0.600064,-0.528796,0.256991,0.492053,0.379816,-0.593750,-0.531250,0.250000,0.500000,0.375000,90.000000,94.000000,16.000000,32.000000,24.000000
99720,-0.606368,-0.528581,0.269763,0.496076,0.369111,-0.609375,-0.531250,0.265625,0.500000,0.375000,89.000000,94.000000,17.000000,32.000000,24.000000
99848,-0.618613,-0.521319,0.275421,0.493215,0.371296,-0.625000,-0.515625,0.281250,0.484375,0.375000,88.000000,95.000000,18.000000,31.000000,24.000000
99856,-0.644716,-0.512409,0.296163,0.501606,0.359356,-0.640625,-0.515625,0.296875,0.500000,0.359375,87.000000,95.000000,19.000000,32.000000,23.000000
99976,-0.607684,-0.527158,0.268540,0.494931,0.371371,-0.609375,-0.531250,0.265625,0.500000,0.375000,89.000000,94.000000,17.000000,32.000000,24.000000
99984,-0.645969,-0.512155,0.296045,0.502448,0.359631,-0.640625,-0.515625,0.296875,0.500000,0.359375,87.000000,95.000000,19.000000,32.000000,23.000000
99992,-0.566815,-0.537779,0.211727,0.486385,0.406481,-0.562500,-0.531250,0.203125,0.484375,0.406250,92.000000,94.000000,13.000000,31.000000,26.000000
100104,-0.633842,-0.513757,0.265492,0.497875,0.384232,-0.640625,-0.515625,0.265625,0.500000,0.390625,87.000000,95.000000,17.000000,32.000000,25.000000
106568,-0.655756,-0.507101,0.289771,0.506118,0.366968,-0.656250,-0.500000,0.296875,0.500000,0.359375,86.000000,96.000000,19.000000,32.000000,23.000000
106576,-0.669370,-0.498816,0.291174,0.505884,0.371129,-0.671875,-0.500000,0.296875,0.500000,0.375000,85.000000,96.000000,19.000000,32.000000,24.000000
106632,-0.611453,-0.525139,0.247647,0.500446,0.388500,-0.609375,-0.531250,0.250000,0.500000,0.390625,89.000000,94.000000,16.000000,32.000000,25.000000
106640,-0.630406,-0.517706,0.269715,0.501591,0.376807,-0.625000,-0.515625,0.265625,0.500000,0.375000,88.000000,95.000000,17.000000,32.000000,24.000000
106696,-0.661339,-0.504088,0.290167,0.506786,0.368474,-0.656250,-0.500000,0.281250,0.500000,0.375000,86.000000,96.000000,18.000000,32.000000,24.000000
106704,-0.641746,-0.513007,0.278228,0.503393,0.373133,-0.640625,-0.515625,0.281250,0.500000,0.375000,87.000000,95.000000,18.000000,32.000000,24.000000
106760,-0.625879,-0.520234,0.263020,0.503143,0.379951,-0.625000,-0.515625,0.265625,0.500000,0.375000,88.000000,95.000000,17.000000,32.000000,24.000000
106768,-0.637320,-0.515693,0.277705,0.503777,0.371530,-0.640625,-0.515625,0.281250,0.500000,0.375000,87.000000,95.000000,18.000000,32.000000,24.000000
106824,-0.639332,-0.513902,0.277097,0.502483,0.373654,-0.640625,-0.515625,0.281250,0.500000,0.375000,87.000000,95.000000,18.000000,32.000000,24.000000
106832,-0.627636,-0.519626,0.270032,0.502142,0.375090,-0.625000,-0.515625,0.265625,0.500000,0.375000,88.000000,95.000000,17.000000,32.000000,24.000000
106888,-0.659241,-0.505511,0.293318,0.506398,0.365037,-0.656250,-0.500000,0.296875,0.500000,0.359375,86.000000,96.000000,19.000000,32.000000,23.000000
106952,-0.593693,-0.532399,0.242595,0.496844,0.386654,-0.593750,-0.531250,0.234375,0.500000,0.390625,90.000000,94.000000,15.000000,32.000000,25.000000
106960,-0.616842,-0.523674,0.264418,0.499155,0.376944,-0.609375,-0.531250,0.265625,0.500000,0.375000,89.000000,94.000000,17.000000,32.000000,24.000000
107016,-0.594508,-0.531173,0.238874,0.496119,0.390687,-0.593750,-0.531250,0.234375,0.500000,0.390625,90.000000,94.000000,15.000000,32.000000,25.000000
107024,-0.638477,-0.514982,0.282349,0.502703,0.368407,-0.640625,-0.515625,0.281250,0.500000,0.375000,87.000000,95.000000,18.000000,32.000000,24.000000
107080,-0.616684,-0.524041,0.261026,0.500801,0.378897,-0.609375,-0.531250,0.265625,0.500000,0.375000,89.000000,94.000000,17.000000,32.000000,24.000000
107088,-0.648007,-0.509032,0.280500,0.502163,0.374377,-0.640625,-0.515625,0.281250,0.500000,0.375000,87.000000,95.000000,18.000000,32.000000,24.000000
107144,-0.635769,-0.515837,0.275752,0.502525,0.373329,-0.640625,-0.515625,0.281250,0.500000,0.375000,87.000000,95.000000,18.000000,32.000000,24.000000
107152,-0.588656,-0.534029,0.241700,0.494927,0.386058,-0.593750,-0.531250,0.234375,0.500000,0.390625,90.000000,94.000000,15.000000,32.000000,25.000000
107208,-0.597499,-0.531104,0.248154,0.497080,0.383369,-0.593750,-0.531250,0.250000,0.500000,0.375000,90.000000,94.000000,16.000000,32.000000,24.000000
107272,-0.624558,-0.520840,0.269167,0.501084,0.375147,-0.625000,-0.515625,0.265625,0.500000,0.375000,88.000000,95.000000,17.000000,32.000000,24.000000
107280,-0.608966,-0.526059,0.267466,0.494717,0.372841,-0.609375,-0.531250,0.265625,0.500000,0.375000,89.000000,94.000000,17.000000,32.000000,24.000000
107336,-0.588033,-0.534799,0.248715,0.494036,0.380081,-0.593750,-0.531250,0.250000,0.500000,0.375000,90.000000,94.000000,16.000000,32.000000,24.000000
107400,-0.614746,-0.524570,0.273164,0.496111,0.370041,-0.609375,-0.531250,0.265625,0.500000,0.375000,89.000000,94.000000,17.000000,32.000000,24.000000
107408,-0.585398,-0.533108,0.247636,0.487076,0.383794,-0.593750,-0.531250,0.250000,0.484375,0.390625,90.000000,94.000000,16.000000,31.000000,25.000000
107464,-0.624947,-0.520795,0.278229,0.499125,0.368388,-0.625000,-0.515625,0.281250,0.500000,0.359375,88.000000,95.000000,18.000000,32.000000,23.000000
107528,-0.599556,-0.528530,0.250558,0.492546,0.384983,-0.593750,-0.531250,0.250000,0.484375,0.390625,90.000000,94.000000,16.000000,31.000000,25.000000
107536,-0.641777,-0.511942,0.281745,0.500059,0.371916,-0.640625,-0.515625,0.281250,0.500000,0.375000,87.000000,95.000000,18.000000,32.000000,24.000000
107592,-0.621058,-0.522949,0.278683,0.498890,0.366433,-0.625000,-0.515625,0.281250,0.500000,0.359375,88.000000,95.000000,18.000000,32.000000,23.000000
107656,-0.631070,-0.518950,0.290596,0.499656,0.359768,-0.625000,-0.515625,0.281250,0.500000,0.359375,88.000000,95.000000,18.000000,32.000000,23.000000
107720,-0.584748,-0.535859,0.245163,0.493618,0.381826,-0.593750,-0.531250,0.250000,0.500000,0.375000,90.000000,94.000000,16.000000,32.000000,24.000000
107784,-0.593536,-0.530116,0.249766,0.489040,0.384847,-0.593750,-0.531250,0.250000,0.484375,0.390625,90.000000,94.000000,16.000000,31.000000,25.000000
107912,-0.641696,-0.512083,0.290784,0.497893,0.365102,-0.640625,-0.515625,0.296875,0.500000,0.359375,87.000000,95.000000,19.000000,32.000000,23.000000
107920,-0.624489,-0.521299,0.283152,0.498444,0.364192,-0.625000,-0.515625,0.281250,0.500000,0.359375,88.000000,95.000000,18.000000,32.000000,23.000000
108040,-0.608507,-0.525340,0.267711,0.491553,0.374583,-0.609375,-0.531250,0.265625,0.500000,0.375000,89.000000,94.000000,17.000000,32.000000,24.000000
108048,-0.631496,-0.515183,0.280488,0.494154,0.372038,-0.640625,-0.515625,0.281250,0.500000,0.375000,87.000000,95.000000,18.000000,32.000000,24.000000
108056,-0.616157,-0.522507,0.268968,0.494142,0.375553,-0.609375,-0.531250,0.265625,0.500000,0.375000,89.000000,94.000000,17.000000,32.000000,24.000000
108168,-0.603583,-0.526433,0.250936,0.492812,0.386268,-0.609375,-0.531250,0.250000,0.500000,0.390625,89.000000,94.000000,16.000000,32.000000,25.000000
108176,-0.615818,-0.521409,0.266283,0.491780,0.379164,-0.609375,-0.515625,0.265625,0.484375,0.375000,89.000000,95.000000,17.000000,31.000000,24.000000
108296,-0.657602,-0.507074,0.311882,0.502891,0.349903,-0.656250,-0.500000,0.312500,0.500000,0.343750,86.000000,96.000000,20.000000,32.000000,22.000000
114760,-0.655764,-0.507291,0.286522,0.507610,0.368923,-0.656250,-0.500000,0.281250,0.500000,0.375000,86.000000,96.000000,18.000000,32.000000,24.000000
114768,-0.655723,-0.504894,0.280467,0.503309,0.376841,-0.656250,-0.500000,0.281250,0.500000,0.375000,86.000000,96.000000,18.000000,32.000000,24.000000
114776,-0.611016,-0.524345,0.251447,0.496731,0.387182,-0.609375,-0.531250,0.250000,0.500000,0.390625,89.000000,94.000000,16.000000,32.000000,25.000000
114824,-0.638424,-0.513467,0.267909,0.502716,0.381267,-0.640625,-0.515625,0.265625,0.500000,0.390625,87.000000,95.000000,17.000000,32.000000,25.000000
114832,-0.623851,-0.520238,0.258766,0.501829,0.383495,-0.625000,-0.515625,0.265625,0.500000,0.375000,88.000000,95.000000,17.000000,32.000000,24.000000
114888,-0.665242,-0.503357,0.298781,0.508498,0.361321,-0.671875,-0.500000,0.296875,0.515625,0.359375,85.000000,96.000000,19.000000,33.000000,23.000000
114896,-0.620432,-0.521701,0.256955,0.501243,0.383935,-0.625000,-0.515625,0.250000,0.500000,0.390625,88.000000,95.000000,16.000000,32.000000,25.000000
114952,-0.669386,-0.500487,0.290986,0.509963,0.368924,-0.671875,-0.500000,0.296875,0.515625,0.359375,85.000000,96.000000,19.000000,33.000000,23.000000
114960,-0.650507,-0.507916,0.280773,0.503037,0.374614,-0.656250,-0.500000,0.281250,0.500000,0.375000,86.000000,96.000000,18.000000,32.000000,24.000000
115016,-0.612201,-0.527378,0.262986,0.502491,0.374102,-0.609375,-0.531250,0.265625,0.500000,0.375000,89.000000,94.000000,17.000000,32.000000,24.000000
115080,-0.643108,-0.510906,0.272755,0.501742,0.379517,-0.640625,-0.515625,0.281250,0.500000,0.375000,87.000000,95.000000,18.000000,32.000000,24.000000
115088,-0.616736,-0.525379,0.264294,0.503121,0.374701,-0.609375,-0.531250,0.265625,0.500000,0.375000,89.000000,94.000000,17.000000,32.000000,24.000000
115144,-0.624881,-0.518459,0.253618,0.500231,0.389490,-0.625000,-0.515625,0.250000,0.500000,0.390625,88.000000,95.000000,16.000000,32.000000,25.000000
115152,-0.652880,-0.509693,0.288488,0.508316,0.365769,-0.656250,-0.515625,0.296875,0.515625,0.359375,86.000000,95.000000,19.000000,33.000000,23.000000
115208,-0.629479,-0.515227,0.258847,0.497340,0.388520,-0.625000,-0.515625,0.250000,0.500000,0.390625,88.000000,95.000000,16.000000,32.000000,25.000000
115216,-0.643834,-0.512179,0.277221,0.504699,0.374094,-0.640625,-0.515625,0.281250,0.500000,0.375000,87.000000,95.000000,18.000000,32.000000,24.000000
115224,-0.670665,-0.500307,0.297837,0.509521,0.363613,-0.671875,-0.500000,0.296875,0.515625,0.359375,85.000000,96.000000,19.000000,33.000000,23.000000
115272,-0.599185,-0.530521,0.248555,0.497441,0.383710,-0.593750,-0.531250,0.250000,0.500000,0.375000,90.000000,94.000000,16.000000,32.000000,24.000000
115280,-0.603233,-0.529070,0.249482,0.498697,0.384124,-0.609375,-0.531250,0.250000,0.500000,0.390625,89.000000,94.000000,16.000000,32.000000,25.000000
115336,-0.630989,-0.519164,0.274467,0.504373,0.371312,-0.625000,-0.515625,0.265625,0.500000,0.375000,88.000000,95.000000,17.000000,32.000000,24.000000
115400,-0.618627,-0.522011,0.255486,0.499849,0.385303,-0.625000,-0.515625,0.250000,0.500000,0.390625,88.000000,95.000000,16.000000,32.000000,25.000000
115408,-0.622740,-0.520124,0.262301,0.499018,0.381546,-0.625000,-0.515625,0.265625,0.500000,0.375000,88.000000,95.000000,17.000000,32.000000,24.000000
115464,-0.655435,-0.505250,0.282130,0.503286,0.375269,-0.656250,-0.500000,0.281250,0.500000,0.375000,86.000000,96.000000,18.000000,32.000000,24.000000
115528,-0.606909,-0.524310,0.254060,0.490781,0.386378,-0.609375,-0.515625,0.250000,0.484375,0.390625,89.000000,95.000000,16.000000,31.000000,25.000000
115536,-0.636819,-0.515692,0.281110,0.502400,0.369001,-0.640625,-0.515625,0.281250,0.500000,0.375000,87.000000,95.000000,18.000000,32.000000,24.000000
115592,-0.642309,-0.510584,0.281664,0.497817,0.373412,-0.640625,-0.515625,0.281250,0.500000,0.375000,87.000000,95.000000,18.000000,32.000000,24.000000
115600,-0.603569,-0.526579,0.249479,0.493099,0.387570,-0.609375,-0.531250,0.250000,0.500000,0.390625,89.000000,94.000000,16.000000,32.000000,25.000000
115656,-0.615386,-0.522050,0.260854,0.494484,0.382098,-0.609375,-0.531250,0.265625,0.500000,0.375000,89.000000,94.000000,17.000000,32.000000,24.000000
115720,-0.637097,-0.513933,0.278879,0.499284,0.372867,-0.640625,-0.515625,0.281250,0.500000,0.375000,87.000000,95.000000,18.000000,32.000000,24.000000
115784,-0.628542,-0.520107,0.284961,0.500446,0.363242,-0.625000,-0.515625,0.281250,0.500000,0.359375,88.000000,95.000000,18.000000,32.000000,23.000000
115848,-0.583214,-0.533685,0.242297,0.487030,0.387572,-0.578125,-0.531250,0.234375,0.484375,0.390625,91.000000,94.000000,15.000000,31.000000,25.000000
115912,-0.634860,-0.515268,0.282667,0.498538,0.368924,-0.640625,-0.515625,0.281250,0.500000,0.375000,87.000000,95.000000,18.000000,32.000000,24.000000
115920,-0.597420,-0.529062,0.256235,0.489687,0.380561,-0.593750,-0.531250,0.265625,0.484375,0.375000,90.000000,94.000000,17.000000,31.000000,24.000000
115976,-0.633393,-0.517707,0.290593,0.499847,0.360660,-0.640625,-0.515625,0.296875,0.500000,0.359375,87.000000,95.000000,19.000000,32.000000,23.000000
115984,-0.633852,-0.517103,0.281451,0.501453,0.368051,-0.640625,-0.515625,0.281250,0.500000,0.375000,87.000000,95.000000,18.000000,32.000000,24.000000
116104,-0.613051,-0.523154,0.263997,0.492893,0.379315,-0.609375,-0.531250,0.265625,0.500000,0.375000,89.000000,94.000000,17.000000,32.000000,24.000000
116232,-0.632981,-0.516400,0.287096,0.497084,0.365201,-0.625000,-0.515625,0.281250,0.500000,0.359375,88.000000,95.000000,18.000000,32.000000,23.000000
116360,-0.610126,-0.524326,0.264991,0.491991,0.377470,-0.609375,-0.531250,0.265625,0.500000,0.375000,89.000000,94.000000,17.000000,32.000000,24.000000
116368,-0.636926,-0.513487,0.282453,0.496998,0.370962,-0.640625,-0.515625,0.281250,0.500000,0.375000,87.000000,95.000000,18.000000,32.000000,24.000000
116488,-0.625848,-0.519974,0.278816,0.498202,0.368804,-0.625000,-0.515625,0.281250,0.500000,0.359375,88.000000,95.000000,18.000000,32.000000,23.000000
116496,-0.641736,-0.510829,0.285243,0.496382,0.370941,-0.640625,-0.515625,0.281250,0.500000,0.375000,87.000000,95.000000,18.000000,32.000000,24.000000
122952,-0.645060,-0.510757,0.275358,0.503603,0.376856,-0.640625,-0.515625,0.281250,0.500000,0.375000,87.000000,95.000000,18.000000,32.000000,24.000000
122960,-0.671097,-0.499300,0.297826,0.507868,0.364703,-0.671875,-0.500000,0.296875,0.515625,0.359375,85.000000,96.000000,19.000000,33.000000,23.000000
123016,-0.622121,-0.519631,0.254546,0.499309,0.387897,-0.625000,-0.515625,0.250000,0.500000,0.390625,88.000000,95.000000,16.000000,32.000000,25.000000
123024,-0.630156,-0.515748,0.262742,0.498531,0.384631,-0.625000,-0.515625,0.265625,0.500000,0.375000,88.000000,95.000000,17.000000,32.000000,24.000000
123080,-0.612175,-0.526024,0.252323,0.502157,0.383719,-0.609375,-0.531250,0.250000,0.500000,0.390625,89.000000,94.000000,16.000000,32.000000,25.000000
123088,-0.627416,-0.518918,0.270580,0.500039,0.375716,-0.625000,-0.515625,0.265625,0.500000,0.375000,88.000000,95.000000,17.000000,32.000000,24.000000
123144,-0.606451,-0.525582,0.253004,0.493569,0.385460,-0.609375,-0.531250,0.250000,0.500000,0.390625,89.000000,94.000000,16.000000,32.000000,25.000000
123152,-0.669602,-0.501430,0.299320,0.510381,0.361331,-0.671875,-0.500000,0.296875,0.515625,0.359375,85.000000,96.000000,19.000000,33.000000,23.000000
123160,-0.661310,-0.503475,0.290054,0.505591,0.369140,-0.656250,-0.500000,0.281250,0.500000,0.375000,86.000000,96.000000,18.000000,32.000000,24.000000
123208,-0.633841,-0.514915,0.278111,0.497377,0.373268,-0.640625,-0.515625,0.281250,0.500000,0.375000,87.000000,95.000000,18.000000,32.000000,24.000000
123216,-0.652664,-0.508900,0.286033,0.506819,0.368712,-0.656250,-0.515625,0.281250,0.515625,0.375000,86.000000,95.000000,18.000000,33.000000,24.000000
123224,-0.631756,-0.515713,0.267373,0.499355,0.380741,-0.625000,-0.515625,0.265625,0.500000,0.375000,88.000000,95.000000,17.000000,32.000000,24.000000
123272,-0.625552,-0.519833,0.268407,0.500290,0.376688,-0.625000,-0.515625,0.265625,0.500000,0.375000,88.000000,95.000000,17.000000,32.000000,24.000000
123280,-0.644604,-0.511427,0.279604,0.503221,0.373206,-0.640625,-0.515625,0.281250,0.500000,0.375000,87.000000,95.000000,18.000000,32.000000,24.000000
123336,-0.624514,-0.518747,0.266135,0.497036,0.380090,-0.625000,-0.515625,0.265625,0.500000,0.375000,88.000000,95.000000,17.000000,32.000000,24.000000
123344,-0.622945,-0.520417,0.265482,0.499203,0.378677,-0.625000,-0.515625,0.265625,0.500000,0.375000,88.000000,95.000000,17.000000,32.000000,24.000000
123400,-0.618911,-0.520783,0.263066,0.495195,0.381433,-0.625000,-0.515625,0.265625,0.500000,0.375000,88.000000,95.000000,17.000000,32.000000,24.000000
123464,-0.647629,-0.511982,0.298094,0.503795,0.357722,-0.640625,-0.515625,0.296875,0.500000,0.359375,87.000000,95.000000,19.000000,32.000000,23.000000
123528,-0.614698,-0.522632,0.265067,0.493701,0.378562,-0.609375,-0.531250,0.265625,0.500000,0.375000,89.000000,94.000000,17.000000,32.000000,24.000000
123536,-0.613858,-0.524717,0.263340,0.498083,0.377154,-0.609375,-0.531250,0.265625,0.500000,0.375000,89.000000,94.000000,17.000000,32.000000,24.000000
123592,-0.654276,-0.508053,0.295164,0.504737,0.362428,-0.656250,-0.500000,0.296875,0.500000,0.359375,86.000000,96.000000,19.000000,32.000000,23.000000
123656,-0.630813,-0.519165,0.281213,0.502207,0.366557,-0.625000,-0.515625,0.281250,0.500000,0.359375,88.000000,95.000000,18.000000,32.000000,23.000000
123664,-0.609526,-0.526058,0.259739,0.496563,0.379282,-0.609375,-0.531250,0.265625,0.500000,0.375000,89.000000,94.000000,17.000000,32.000000,24.000000
123856,-0.624145,-0.520161,0.279396,0.496552,0.368358,-0.625000,-0.515625,0.281250,0.500000,0.359375,88.000000,95.000000,18.000000,32.000000,23.000000
123912,-0.613295,-0.525810,0.271865,0.497652,0.369589,-0.609375,-0.531250,0.265625,0.500000,0.375000,89.000000,94.000000,17.000000,32.000000,24.000000
123920,-0.598402,-0.532191,0.259574,0.497572,0.373448,-0.593750,-0.531250,0.250000,0.500000,0.375000,90.000000,94.000000,16.000000,32.000000,24.000000
123976,-0.625824,-0.521055,0.288377,0.498534,0.359967,-0.625000,-0.515625,0.281250,0.500000,0.359375,88.000000,95.000000,18.000000,32.000000,23.000000
124040,-0.589288,-0.532544,0.257046,0.487907,0.376879,-0.593750,-0.531250,0.265625,0.484375,0.375000,90.000000,94.000000,17.000000,31.000000,24.000000
124104,-0.572705,-0.537071,0.239508,0.483613,0.386655,-0.578125,-0.531250,0.234375,0.484375,0.390625,91.000000,94.000000,15.000000,31.000000,25.000000
124168,-0.620308,-0.524244,0.287717,0.498906,0.357928,-0.625000,-0.515625,0.281250,0.500000,0.359375,88.000000,95.000000,18.000000,32.000000,23.000000
124296,-0.616350,-0.523086,0.270579,0.495358,0.373500,-0.609375,-0.531250,0.265625,0.500000,0.375000,89.000000,94.000000,17.000000,32.000000,24.000000
124424,-0.607913,-0.525492,0.267197,0.491255,0.374953,-0.609375,-0.531250,0.265625,0.500000,0.375000,89.000000,94.000000,17.000000,32.000000,24.000000
124552,-0.649001,-0.508296,0.290419,0.499441,0.367438,-0.656250,-0.515625,0.296875,0.500000,0.375000,86.000000,95.000000,19.000000,32.000000,24.000000
124560,-0.627380,-0.518803,0.276024,0.498379,0.371781,-0.625000,-0.515625,0.265625,0.500000,0.375000,88.000000,95.000000,17.000000,32.000000,24.000000
124680,-0.644185,-0.511287,0.287314,0.500370,0.367789,-0.640625,-0.515625,0.281250,0.500000,0.375000,87.000000,95.000000,18.000000,32.000000,24.000000
124688,-0.615598,-0.523193,0.267015,0.495721,0.376055,-0.609375,-0.531250,0.265625,0.500000,0.375000,89.000000,94.000000,17.000000,32.000000,24.000000
131144,-0.641420,-0.514230,0.279140,0.505541,0.370970,-0.640625,-0.515625,0.281250,0.500000,0.375000,87.000000,95.000000,18.000000,32.000000,24.000000
131152,-0.629495,-0.518222,0.265872,0.502627,0.379218,-0.625000,-0.515625,0.265625,0.500000,0.375000,88.000000,95.000000,17.000000,32.000000,24.000000
131208,-0.653300,-0.506512,0.284516,0.502797,0.372499,-0.656250,-0.500000,0.281250,0.500000,0.375000,86.000000,96.000000,18.000000,32.000000,24.000000
131216,-0.650948,-0.507486,0.283522,0.501882,0.373030,-0.656250,-0.500000,0.281250,0.500000,0.375000,86.000000,96.000000,18.000000,32.000000,24.000000
131272,-0.627891,-0.517968,0.261638,0.500828,0.383393,-0.625000,-0.515625,0.265625,0.500000,0.375000,88.000000,95.000000,17.000000,32.000000,24.000000
131280,-0.616700,-0.521406,0.244053,0.499132,0.394921,-0.625000,-0.515625,0.250000,0.500000,0.390625,88.000000,95.000000,16.000000,32.000000,25.000000
131336,-0.653636,-0.507177,0.281803,0.505464,0.373546,-0.656250,-0.500000,0.281250,0.500000,0.375000,86.000000,96.000000,18.000000,32.000000,24.000000
131344,-0.641648,-0.512588,0.273447,0.503625,0.377164,-0.640625,-0.515625,0.281250,0.500000,0.375000,87.000000,95.000000,18.000000,32.000000,24.000000
131400,-0.616517,-0.523146,0.255645,0.500030,0.383987,-0.609375,-0.531250,0.250000,0.500000,0.390625,89.000000,94.000000,16.000000,32.000000,25.000000
131408,-0.648715,-0.511483,0.291219,0.506148,0.362831,-0.640625,-0.515625,0.296875,0.500000,0.359375,87.000000,95.000000,19.000000,32.000000,23.000000
131464,-0.630255,-0.518350,0.277598,0.500748,0.370259,-0.640625,-0.515625,0.281250,0.500000,0.375000,87.000000,95.000000,18.000000,32.000000,24.000000
131472,-0.600561,-0.526375,0.241048,0.491238,0.394649,-0.593750,-0.531250,0.234375,0.500000,0.390625,90.000000,94.000000,15.000000,32.000000,25.000000
131528,-0.662362,-0.504060,0.294889,0.507237,0.364296,-0.656250,-0.500000,0.296875,0.500000,0.359375,86.000000,96.000000,19.000000,32.000000,23.000000
131592,-0.611115,-0.524820,0.259176,0.495759,0.381000,-0.609375,-0.531250,0.265625,0.500000,0.375000,89.000000,94.000000,17.000000,32.000000,24.000000
131600,-0.651732,-0.507926,0.286338,0.503243,0.370078,-0.656250,-0.500000,0.281250,0.500000,0.375000,86.000000,96.000000,18.000000,32.000000,24.000000
131656,-0.654154,-0.508456,0.292365,0.506879,0.363366,-0.656250,-0.500000,0.296875,0.500000,0.359375,86.000000,96.000000,19.000000,32.000000,23.000000
131664,-0.633813,-0.515799,0.276855,0.499585,0.373172,-0.640625,-0.515625,0.281250,0.500000,0.375000,87.000000,95.000000,18.000000,32.000000,24.000000
131720,-0.621019,-0.521054,0.263613,0.498534,0.379926,-0.625000,-0.515625,0.265625,0.500000,0.375000,88.000000,95.000000,17.000000,32.000000,24.000000
131784,-0.625438,-0.520463,0.272467,0.500717,0.372717,-0.625000,-0.515625,0.265625,0.500000,0.375000,88.000000,95.000000,17.000000,32.000000,24.000000
131792,-0.616581,-0.522157,0.264928,0.495190,0.378619,-0.625000,-0.515625,0.265625,0.500000,0.375000,88.000000,95.000000,17.000000,32.000000,24.000000
131848,-0.637685,-0.516169,0.284176,0.503700,0.365978,-0.640625,-0.515625,0.281250,0.500000,0.375000,87.000000,95.000000,18.000000,32.000000,24.000000
131856,-0.610537,-0.525581,0.261895,0.496133,0.378090,-0.609375,-0.531250,0.265625,0.500000,0.375000,89.000000,94.000000,17.000000,32.000000,24.000000
131912,-0.611190,-0.525440,0.266842,0.495301,0.374487,-0.609375,-0.531250,0.265625,0.500000,0.375000,89.000000,94.000000,17.000000,32.000000,24.000000
131920,-0.585513,-0.535479,0.247920,0.492920,0.380151,-0.593750,-0.531250,0.250000,0.500000,0.375000,90.000000,94.000000,16.000000,32.000000,24.000000
131976,-0.650861,-0.507384,0.288834,0.500010,0.369401,-0.656250,-0.500000,0.281250,0.500000,0.375000,86.000000,96.000000,18.000000,32.000000,24.000000
132040,-0.608717,-0.527798,0.268609,0.497277,0.370630,-0.609375,-0.531250,0.265625,0.500000,0.375000,89.000000,94.000000,17.000000,32.000000,24.000000
132048,-0.639084,-0.512692,0.279167,0.498973,0.373636,-0.640625,-0.515625,0.281250,0.500000,0.375000,87.000000,95.000000,18.000000,32.000000,24.000000
132104,-0.590027,-0.533335,0.249119,0.492647,0.381595,-0.593750,-0.531250,0.250000,0.500000,0.375000,90.000000,94.000000,16.000000,32.000000,24.000000
132168,-0.577258,-0.538515,0.248250,0.490329,0.377194,-0.578125,-0.531250,0.250000,0.484375,0.375000,91.000000,94.000000,16.000000,31.000000,24.000000
132232,-0.582250,-0.536642,0.248409,0.491594,0.378888,-0.578125,-0.531250,0.250000,0.484375,0.375000,91.000000,94.000000,16.000000,31.000000,24.000000
132296,-0.639269,-0.516051,0.296683,0.502305,0.356332,-0.640625,-0.515625,0.296875,0.500000,0.359375,87.000000,95.000000,19.000000,32.000000,23.000000
132360,-0.619321,-0.521601,0.272322,0.495169,0.373432,-0.625000,-0.515625,0.265625,0.500000,0.375000,88.000000,95.000000,17.000000,32.000000,24.000000
132488,-0.617074,-0.521823,0.272959,0.492845,0.373092,-0.625000,-0.515625,0.265625,0.500000,0.375000,88.000000,95.000000,17.000000,32.000000,24.000000
132496,-0.604594,-0.528102,0.264011,0.494159,0.374525,-0.609375,-0.531250,0.265625,0.500000,0.375000,89.000000,94.000000,17.000000,32.000000,24.000000
132504,-0.597074,-0.530437,0.259309,0.491520,0.376682,-0.593750,-0.531250,0.265625,0.484375,0.375000,90.000000,94.000000,17.000000,31.000000,24.000000
132616,-0.606842,-0.526244,0.262650,0.492780,0.377657,-0.609375,-0.531250,0.265625,0.500000,0.375000,89.000000,94.000000,17.000000,32.000000,24.000000
132744,-0.637453,-0.514296,0.284331,0.499005,0.368413,-0.640625,-0.515625,0.281250,0.500000,0.375000,87.000000,95.000000,18.000000,32.000000,24.000000
132872,-0.612122,-0.525524,0.264002,0.497770,0.375874,-0.609375,-0.531250,0.265625,0.500000,0.375000,89.000000,94.000000,17.000000,32.000000,24.000000
132888,-0.597236,-0.530102,0.253691,0.492390,0.381257,-0.593750,-0.531250,0.250000,0.500000,0.375000,90.000000,94.000000,16.000000,32.000000,24.000000
139336,-0.644107,-0.512468,0.280071,0.504895,0.371609,-0.640625,-0.515625,0.281250,0.500000,0.375000,87.000000,95.000000,18.000000,32.000000,24.000000
139344,-0.611575,-0.525072,0.256639,0.497896,0.382111,-0.609375,-0.531250,0.250000,0.500000,0.390625,89.000000,94.000000,16.000000,32.000000,25.000000
139400,-0.675227,-0.498237,0.301437,0.510598,0.361429,-0.671875,-0.500000,0.296875,0.515625,0.359375,85.000000,96.000000,19.000000,33.000000,23.000000
139408,-0.598816,-0.530233,0.250597,0.495710,0.382742,-0.593750,-0.531250,0.250000,0.500000,0.375000,90.000000,94.000000,16.000000,32.000000,24.000000
139464,-0.655617,-0.507272,0.284920,0.507543,0.370426,-0.656250,-0.500000,0.281250,0.500000,0.375000,86.000000,96.000000,18.000000,32.000000,24.000000
139472,-0.659805,-0.504424,0.285854,0.506501,0.371874,-0.656250,-0.500000,0.281250,0.500000,0.375000,86.000000,96.000000,18.000000,32.000000,24.000000
139528,-0.620203,-0.519437,0.255267,0.496033,0.388340,-0.625000,-0.515625,0.250000,0.500000,0.390625,88.000000,95.000000,16.000000,32.000000,25.000000
139536,-0.623373,-0.520829,0.260345,0.502021,0.381836,-0.625000,-0.515625,0.265625,0.500000,0.375000,88.000000,95.000000,17.000000,32.000000,24.000000
139592,-0.627962,-0.519333,0.273772,0.500949,0.372573,-0.625000,-0.515625,0.265625,0.500000,0.375000,88.000000,95.000000,17.000000,32.000000,24.000000
139600,-0.634103,-0.517635,0.281484,0.503297,0.366957,-0.640625,-0.515625,0.281250,0.500000,0.375000,87.000000,95.000000,18.000000,32.000000,24.000000
139656,-0.605532,-0.528297,0.256387,0.497848,0.379594,-0.609375,-0.531250,0.265625,0.500000,0.375000,89.000000,94.000000,17.000000,32.000000,24.000000
139720,-0.643830,-0.510860,0.272290,0.502932,0.379467,-0.640625,-0.515625,0.281250,0.500000,0.375000,87.000000,95.000000,18.000000,32.000000,24.000000
139728,-0.604240,-0.527374,0.248429,0.496329,0.386857,-0.609375,-0.531250,0.250000,0.500000,0.390625,89.000000,94.000000,16.000000,32.000000,25.000000
139784,-0.636215,-0.514990,0.271918,0.502160,0.377127,-0.640625,-0.515625,0.281250,0.500000,0.375000,87.000000,95.000000,18.000000,32.000000,24.000000
139848,-0.598218,-0.529427,0.247148,0.493889,0.386607,-0.593750,-0.531250,0.250000,0.484375,0.390625,90.000000,94.000000,16.000000,31.000000,25.000000
139856,-0.593602,-0.531853,0.244093,0.494852,0.386511,-0.593750,-0.531250,0.234375,0.500000,0.390625,90.000000,94.000000,15.000000,32.000000,25.000000
139912,-0.636171,-0.514354,0.273003,0.500517,0.377005,-0.640625,-0.515625,0.281250,0.500000,0.375000,87.000000,95.000000,18.000000,32.000000,24.000000
139920,-0.593450,-0.531615,0.244753,0.494003,0.386309,-0.593750,-0.531250,0.250000,0.484375,0.390625,90.000000,94.000000,16.000000,31.000000,25.000000
139976,-0.629362,-0.520177,0.280420,0.502953,0.366167,-0.625000,-0.515625,0.281250,0.500000,0.359375,88.000000,95.000000,18.000000,32.000000,23.000000
139984,-0.649484,-0.509348,0.291847,0.501859,0.365126,-0.640625,-0.515625,0.296875,0.500000,0.359375,87.000000,95.000000,19.000000,32.000000,23.000000
140040,-0.604108,-0.527212,0.251073,0.495006,0.385241,-0.609375,-0.531250,0.250000,0.500000,0.390625,89.000000,94.000000,16.000000,32.000000,25.000000
140048,-0.629480,-0.519633,0.277841,0.502421,0.368850,-0.625000,-0.515625,0.281250,0.500000,0.359375,88.000000,95.000000,18.000000,32.000000,23.000000
140104,-0.636588,-0.516449,0.283828,0.502971,0.366238,-0.640625,-0.515625,0.281250,0.500000,0.375000,87.000000,95.000000,18.000000,32.000000,24.000000
140112,-0.614619,-0.523256,0.261281,0.496099,0.380495,-0.609375,-0.531250,0.265625,0.500000,0.375000,89.000000,94.000000,17.000000,32.000000,24.000000
140168,-0.614420,-0.525346,0.273268,0.497466,0.369032,-0.609375,-0.531250,0.265625,0.500000,0.375000,89.000000,94.000000,17.000000,32.000000,24.000000
