stripid,w1,w2,w3,w4,w5,w1c,w2c,w3c,w4c,w5c,encw1,encw2,encw3,encw4,encw5
8264,-0.732996,-0.462348,0.336892,0.512998,0.345454,-0.734375,-0.46875,0.34375,0.515625,0.34375,81,98,22,33,22
8272,-0.732996,-0.462348,0.336892,0.512998,0.345454,-0.734375,-0.46875,0.34375,0.515625,0.34375,81,98,22,33,22
8328,-0.732996,-0.462348,0.336892,0.512998,0.345454,-0.734375,-0.46875,0.34375,0.515625,0.34375,81,98,22,33,22
8336,-0.732996,-0.462348,0.336892,0.512998,0.345454,-0.734375,-0.46875,0.34375,0.515625,0.34375,81,98,22,33,22
8392,-0.732996,-0.462348,0.336892,0.512998,0.345454,-0.734375,-0.46875,0.34375,0.515625,0.34375,81,98,22,33,22
8400,-0.732996,-0.462348,0.336892,0.512998,0.345454,-0.734375,-0.46875,0.34375,0.515625,0.34375,81,98,22,33,22
8456,-0.732996,-0.462348,0.336892,0.512998,0.345454,-0.734375,-0.46875,0.34375,0.515625,0.34375,81,98,22,33,22
8464,-0.732996,-0.462348,0.336892,0.512998,0.345454,-0.734375,-0.46875,0.34375,0.515625,0.34375,81,98,22,33,22
8520,-0.732996,-0.462348,0.336892,0.512998,0.345454,-0.734375,-0.46875,0.34375,0.515625,0.34375,81,98,22,33,22
8528,-0.732996,-0.462348,0.336892,0.512998,0.345454,-0.734375,-0.46875,0.34375,0.515625,0.34375,81,98,22,33,22
8584,-0.732996,-0.462348,0.336892,0.512998,0.345454,-0.734375,-0.46875,0.34375,0.515625,0.34375,81,98,22,33,22
8592,-0.732996,-0.462348,0.336892,0.512998,0.345454,-0.734375,-0.46875,0.34375,0.515625,0.34375,81,98,22,33,22
8600,-0.732996,-0.462348,0.336892,0.512998,0.345454,-0.734375,-0.46875,0.34375,0.515625,0.34375,81,98,22,33,22
8648,-0.732996,-0.462348,0.336892,0.512998,0.345454,-0.734375,-0.46875,0.34375,0.515625,0.34375,81,98,22,33,22
8656,-0.732996,-0.462348,0.336892,0.512998,0.345454,-0.734375,-0.46875,0.34375,0.515625,0.34375,81,98,22,33,22
8664,-0.732996,-0.462348,0.336892,0.512998,0.345454,-0.734375,-0.46875,0.34375,0.515625,0.34375,81,98,22,33,22
8712,-0.732996,-0.462348,0.336892,0.512998,0.345454,-0.734375,-0.46875,0.34375,0.515625,0.34375,81,98,22,33,22
8720,-0.732996,-0.462348,0.336892,0.512998,0.345454,-0.734375,-0.46875,0.34375,0.515625,0.34375,81,98,22,33,22
8776,-0.732996,-0.462348,0.336892,0.512998,0.345454,-0.734375,-0.46875,0.34375,0.515625,0.34375,81,98,22,33,22
8784,-0.732996,-0.462348,0.336892,0.512998,0.345454,-0.734375,-0.46875,0.34375,0.515625,0.34375,81,98,22,33,22
8840,-0.732996,-0.462348,0.336892,0.512998,0.345454,-0.734375,-0.46875,0.34375,0.515625,0.34375,81,98,22,33,22
8904,-0.732996,-0.462348,0.336892,0.512998,0.345454,-0.734375,-0.46875,0.34375,0.515625,0.34375,81,98,22,33,22
8968,-0.732996,-0.462348,0.336892,0.512998,0.345454,-0.734375,-0.46875,0.34375,0.515625,0.34375,81,98,22,33,22
8976,-0.732996,-0.462348,0.336892,0.512998,0.345454,-0.734375,-0.46875,0.34375,0.515625,0.34375,81,98,22,33,22
9032,-0.732996,-0.462348,0.336892,0.512998,0.345454,-0.734375,-0.46875,0.34375,0.515625,0.34375,81,98,22,33,22
9096,-0.732996,-0.462348,0.336892,0.512998,0.345454,-0.734375,-0.46875,0.34375,0.515625,0.34375,81,98,22,33,22
9160,-0.732996,-0.462348,0.336892,0.512998,0.345454,-0.734375,-0.46875,0.34375,0.515625,0.34375,81,98,22,33,22
9224,-0.732996,-0.462348,0.336892,0.512998,0.345454,-0.734375,-0.46875,0.34375,0.515625,0.34375,81,98,22,33,22
9288,-0.732996,-0.462348,0.336892,0.512998,0.345454,-0.734375,-0.46875,0.34375,0.515625,0.34375,81,98,22,33,22
9296,-0.732996,-0.462348,0.336892,0.512998,0.345454,-0.734375,-0.46875,0.34375,0.515625,0.34375,81,98,22,33,22
9352,-0.732996,-0.462348,0.336892,0.512998,0.345454,-0.734375,-0.46875,0.34375,0.515625,0.34375,81,98,22,33,22
9360,-0.732996,-0.462348,0.336892,0.512998,0.345454,-0.734375,-0.46875,0.34375,0.515625,0.34375,81,98,22,33,22
9416,-0.732996,-0.462348,0.336892,0.512998,0.345454,-0.734375,-0.46875,0.34375,0.515625,0.34375,81,98,22,33,22
9424,-0.732996,-0.462348,0.336892,0.512998,0.345454,-0.734375,-0.46875,0.34375,0.515625,0.34375,81,98,22,33,22
9480,-0.732996,-0.462348,0.336892,0.512998,0.345454,-0.734375,-0.46875,0.34375,0.515625,0.34375,81,98,22,33,22
9488,-0.732996,-0.462348,0.336892,0.512998,0.345454,-0.734375,-0.46875,0.34375,0.515625,0.34375,81,98,22,33,22
9608,-0.732996,-0.462348,0.336892,0.512998,0.345454,-0.734375,-0.46875,0.34375,0.515625,0.34375,81,98,22,33,22
9736,-0.732996,-0.462348,0.336892,0.512998,0.345454,-0.734375,-0.46875,0.34375,0.515625,0.34375,81,98,22,33,22
9864,-0.732996,-0.462348,0.336892,0.512998,0.345454,-0.734375,-0.46875,0.34375,0.515625,0.34375,81,98,22,33,22
9872,-0.732996,-0.462348,0.336892,0.512998,0.345454,-0.734375,-0.46875,0.34375,0.515625,0.34375,81,98,22,33,22
9992,-0.732996,-0.462348,0.336892,0.512998,0.345454,-0.734375,-0.46875,0.34375,0.515625,0.34375,81,98,22,33,22
10000,-0.732996,-0.462348,0.336892,0.512998,0.345454,-0.734375,-0.46875,0.34375,0.515625,0.34375,81,98,22,33,22
16456,-0.732996,-0.462348,0.336892,0.512998,0.345454,-0.734375,-0.46875,0.34375,0.515625,0.34375,81,98,22,33,22
16464,-0.732996,-0.462348,0.336892,0.512998,0.345454,-0.734375,-0.46875,0.34375,0.515625,0.34375,81,98,22,33,22
16520,-0.732996,-0.462348,0.336892,0.512998,0.345454,-0.734375,-0.46875,0.34375,0.515625,0.34375,81,98,22,33,22
16528,-0.732996,-0.462348,0.336892,0.512998,0.345454,-0.734375,-0.46875,0.34375,0.515625,0.34375,81,98,22,33,22
16536,-0.732996,-0.462348,0.336892,0.512998,0.345454,-0.734375,-0.46875,0.34375,0.515625,0.34375,81,98,22,33,22
16584,-0.732996,-0.462348,0.336892,0.512998,0.345454,-0.734375,-0.46875,0.34375,0.515625,0.34375,81,98,22,33,22
16592,-0.732996,-0.462348,0.336892,0.512998,0.345454,-0.734375,-0.46875,0.34375,0.515625,0.34375,81,98,22,33,22
16648,-0.732996,-0.462348,0.336892,0.512998,0.345454,-0.734375,-0.46875,0.34375,0.515625,0.34375,81,98,22,33,22
16656,-0.732996,-0.462348,0.336892,0.512998,0.345454,-0.734375,-0.46875,0.34375,0.515625,0.34375,81,98,22,33,22
16712,-0.732996,-0.462348,0.336892,0.512998,0.345454,-0.734375,-0.46875,0.34375,0.515625,0.34375,81,98,22,33,22
16720,-0.732996,-0.462348,0.336892,0.512998,0.345454,-0.734375,-0.46875,0.34375,0.515625,0.34375,81,98,22,33,22
16776,-0.732996,-0.462348,0.336892,0.512998,0.345454,-0.734375,-0.46875,0.34375,0.515625,0.34375,81,98,22,33,22
16840,-0.732996,-0.462348,0.336892,0.512998,0.345454,-0.734375,-0.46875,0.34375,0.515625,0.34375,81,98,22,33,22
16848,-0.732996,-0.462348,0.336892,0.512998,0.345454,-0.734375,-0.46875,0.34375,0.515625,0.34375,81,98,22,33,22
16904,-0.732996,-0.462348,0.336892,0.512998,0.345454,-0.734375,-0.46875,0.34375,0.515625,0.34375,81,98,22,33,22
16912,-0.732996,-0.462348,0.336892,0.512998,0.345454,-0.734375,-0.46875,0.34375,0.515625,0.34375,81,98,22,33,22
16968,-0.732996,-0.462348,0.336892,0.512998,0.345454,-0.734375,-0.46875,0.34375,0.515625,0.34375,81,98,22,33,22
17032,-0.732996,-0.462348,0.336892,0.512998,0.345454,-0.734375,-0.46875,0.34375,0.515625,0.34375,81,98,22,33,22
17040,-0.732996,-0.462348,0.336892,0.512998,0.345454,-0.734375,-0.46875,0.34375,0.515625,0.34375,81,98,22,33,22
17096,-0.732996,-0.462348,0.336892,0.512998,0.345454,-0.734375,-0.46875,0.34375,0.515625,0.34375,81,98,22,33,22
17104,-0.732996,-0.462348,0.336892,0.512998,0.345454,-0.734375,-0.46875,0.34375,0.515625,0.34375,81,98,22,33,22
17160,-0.732996,-0.462348,0.336892,0.512998,0.345454,-0.734375,-0.46875,0.34375,0.515625,0.34375,81,98,22,33,22
17224,-0.732996,-0.462348,0.336892,0.512998,0.345454,-0.734375,-0.46875,0.34375,0.515625,0.34375,81,98,22,33,22
17232,-0.732996,-0.462348,0.336892,0.512998,0.345454,-0.734375,-0.46875,0.34375,0.515625,0.34375,81,98,22,33,22
17288,-0.732996,-0.462348,0.336892,0.512998,0.345454,-0.734375,-0.46875,0.34375,0.515625,0.34375,81,98,22,33,22
17296,-0.732996,-0.462348,0.336892,0.512998,0.345454,-0.734375,-0.46875,0.34375,0.515625,0.34375,81,98,22,33,22
17352,-0.732996,-0.462348,0.336892,0.512998,0.345454,-0.734375,-0.46875,0.34375,0.515625,0.34375,81,98,22,33,22
17360,-0.732996,-0.462348,0.336892,0.512998,0.345454,-0.734375,-0.46875,0.34375,0.515625,0.34375,81,98,22,33,22
17416,-0.732996,-0.462348,0.336892,0.512998,0.345454,-0.734375,-0.46875,0.34375,0.515625,0.34375,81,98,22,33,22
17480,-0.732996,-0.462348,0.336892,0.512998,0.345454,-0.734375,-0.46875,0.34375,0.515625,0.34375,81,98,22,33,22
17544,-0.732996,-0.462348,0.336892,0.512998,0.345454,-0.734375,-0.46875,0.34375,0.515625,0.34375,81,98,22,33,22
17608,-0.732996,-0.462348,0.336892,0.512998,0.345454,-0.734375,-0.46875,0.34375,0.515625,0.34375,81,98,22,33,22
17672,-0.732996,-0.462348,0.336892,0.512998,0.345454,-0.734375,-0.46875,0.34375,0.515625,0.34375,81,98,22,33,22
17800,-0.732996,-0.462348,0.336892,0.512998,0.345454,-0.734375,-0.46875,0.34375,0.515625,0.34375,81,98,22,33,22
17928,-0.732996,-0.462348,0.336892,0.512998,0.345454,-0.734375,-0.46875,0.34375,0.515625,0.34375,81,98,22,33,22
17936,-0.732996,-0.462348,0.336892,0.512998,0.345454,-0.734375,-0.46875,0.34375,0.515625,0.34375,81,98,22,33,22
17944,-0.732996,-0.462348,0.336892,0.512998,0.345454,-0.734375,-0.46875,0.34375,0.515625,0.34375,81,98,22,33,22
18056,-0.732996,-0.462348,0.336892,0.512998,0.345454,-0.734375,-0.46875,0.34375,0.515625,0.34375,81,98,22,33,22
18064,-0.732996,-0.462348,0.336892,0.512998,0.345454,-0.734375,-0.46875,0.34375,0.515625,0.34375,81,98,22,33,22
18184,-0.732996,-0.462348,0.336892,0.512998,0.345454,-0.734375,-0.46875,0.34375,0.515625,0.34375,81,98,22,33,22
24648,-0.732996,-0.462348,0.336892,0.512998,0.345454,-0.734375,-0.46875,0.34375,0.515625,0.34375,81,98,22,33,22
24656,-0.732996,-0.462348,0.336892,0.512998,0.345454,-0.734375,-0.46875,0.34375,0.515625,0.34375,81,98,22,33,22
24712,-0.732996,-0.462348,0.336892,0.512998,0.345454,-0.734375,-0.46875,0.34375,0.515625,0.34375,81,98,22,33,22
24720,-0.732996,-0.462348,0.336892,0.512998,0.345454,-0.734375,-0.46875,0.34375,0.515625,0.34375,81,98,22,33,22
24776,-0.732996,-0.462348,0.336892,0.512998,0.345454,-0.734375,-0.46875,0.34375,0.515625,0.34375,81,98,22,33,22
24784,-0.732996,-0.462348,0.336892,0.512998,0.345454,-0.734375,-0.46875,0.34375,0.515625,0.34375,81,98,22,33,22
24840,-0.732996,-0.462348,0.336892,0.512998,0.345454,-0.734375,-0.46875,0.34375,0.515625,0.34375,81,98,22,33,22
24848,-0.732996,-0.462348,0.336892,0.512998,0.345454,-0.734375,-0.46875,0.34375,0.515625,0.34375,81,98,22,33,22
24904,-0.732996,-0.462348,0.336892,0.512998,0.345454,-0.734375,-0.46875,0.34375,0.515625,0.34375,81,98,22,33,22
24968,-0.732996,-0.462348,0.336892,0.512998,0.345454,-0.734375,-0.46875,0.34375,0.515625,0.34375,81,98,22,33,22
24976,-0.732996,-0.462348,0.336892,0.512998,0.345454,-0.734375,-0.46875,0.34375,0.515625,0.34375,81,98,22,33,22
25032,-0.732996,-0.462348,0.336892,0.512998,0.345454,-0.734375,-0.46875,0.34375,0.515625,0.34375,81,98,22,33,22
25040,-0.732996,-0.462348,0.336892,0.512998,0.345454,-0.734375,-0.46875,0.34375,0.515625,0.34375,81,98,22,33,22
25096,-0.732996,-0.462348,0.336892,0.512998,0.345454,-0.734375,-0.46875,0.34375,0.515625,0.34375,81,98,22,33,22
25160,-0.732996,-0.462348,0.336892,0.512998,0.345454,-0.734375,-0.46875,0.34375,0.515625,0.34375,81,98,22,33,22
25168,-0.732996,-0.462348,0.336892,0.512998,0.345454,-0.734375,-0.46875,0.34375,0.515625,0.34375,81,98,22,33,22
25224,-0.732996,-0.462348,0.336892,0.512998,0.345454,-0.734375,-0.46875,0.34375,0.515625,0.34375,81,98,22,33,22
25232,-0.732996,-0.462348,0.336892,0.512998,0.345454,-0.734375,-0.46875,0.34375,0.515625,0.34375,81,98,22,33,22
25288,-0.732996,-0.462348,0.336892,0.512998,0.345454,-0.734375,-0.46875,0.34375,0.515625,0.34375,81,98,22,33,22
25296,-0.732996,-0.462348,0.336892,0.512998,0.345454,-0.734375,-0.46875,0.34375,0.515625,0.34375,81,98,22,33,22
25352,-0.732996,-0.462348,0.336892,0.512998,0.345454,-0.734375,-0.46875,0.34375,0.515625,0.34375,81,98,22,33,22
25360,-0.732996,-0.462348,0.336892,0.512998,0.345454,-0.734375,-0.46875,0.34375,0.515625,0.34375,81,98,22,33,22
25416,-0.732996,-0.462348,0.336892,0.512998,0.345454,-0.734375,-0.46875,0.34375,0.515625,0.34375,81,98,22,33,22
25424,-0.732996,-0.462348,0.336892,0.512998,0.345454,-0.734375,-0.46875,0.34375,0.515625,0.34375,81,98,22,33,22
25480,-0.732996,-0.462348,0.336892,0.512998,0.345454,-0.734375,-0.46875,0.34375,0.515625,0.34375,81,98,22,33,22
25544,-0.732996,-0.462348,0.336892,0.512998,0.345454,-0.734375,-0.46875,0.34375,0.515625,0.34375,81,98,22,33,22
25552,-0.732996,-0.462348,0.336892,0.512998,0.345454,-0.734375,-0.46875,0.34375,0.515625,0.34375,81,98,22,33,22
25608,-0.732996,-0.462348,0.336892,0.512998,0.345454,-0.734375,-0.46875,0.34375,0.515625,0.34375,81,98,22,33,22
25672,-0.732996,-0.462348,0.336892,0.512998,0.345454,-0.734375,-0.46875,0.34375,0.515625,0.34375,81,98,22,33,22
25736,-0.732996,-0.462348,0.336892,0.512998,0.345454,-0.734375,-0.46875,0.34375,0.515625,0.34375,81,98,22,33,22
25800,-0.732996,-0.462348,0.336892,0.512998,0.345454,-0.734375,-0.46875,0.34375,0.515625,0.34375,81,98,22,33,22
25808,-0.732996,-0.462348,0.336892,0.512998,0.345454,-0.734375,-0.46875,0.34375,0.515625,0.34375,81,98,22,33,22
25864,-0.732996,-0.462348,0.336892,0.512998,0.345454,-0.734375,-0.46875,0.34375,0.515625,0.34375,81,98,22,33,22
25872,-0.732996,-0.462348,0.336892,0.512998,0.345454,-0.734375,-0.46875,0.34375,0.515625,0.34375,81,98,22,33,22
25992,-0.732996,-0.462348,0.336892,0.512998,0.345454,-0.734375,-0.46875,0.34375,0.515625,0.34375,81,98,22,33,22
26120,-0.732996,-0.462348,0.336892,0.512998,0.345454,-0.734375,-0.46875,0.34375,0.515625,0.34375,81,98,22,33,22
26128,-0.732996,-0.462348,0.336892,0.512998,0.345454,-0.734375,-0.46875,0.34375,0.515625,0.34375,81,98,22,33,22
26248,-0.732996,-0.462348,0.336892,0.512998,0.345454,-0.734375,-0.46875,0.34375,0.515625,0.34375,81,98,22,33,22
26256,-0.732996,-0.462348,0.336892,0.512998,0.345454,-0.734375,-0.46875,0.34375,0.515625,0.34375,81,98,22,33,22
26264,-0.732996,-0.462348,0.336892,0.512998,0.345454,-0.734375,-0.46875,0.34375,0.515625,0.34375,81,98,22,33,22
26376,-0.732996,-0.462348,0.336892,0.512998,0.345454,-0.734375,-0.46875,0.34375,0.515625,0.34375,81,98,22,33,22
32840,-0.732996,-0.462348,0.336892,0.512998,0.345454,-0.734375,-0.46875,0.34375,0.515625,0.34375,81,98,22,33,22
32848,-0.732996,-0.462348,0.336892,0.512998,0.345454,-0.734375,-0.46875,0.34375,0.515625,0.34375,81,98,22,33,22
32904,-0.732996,-0.462348,0.336892,0.512998,0.345454,-0.734375,-0.46875,0.34375,0.515625,0.34375,81,98,22,33,22
32912,-0.732996,-0.462348,0.336892,0.512998,0.345454,-0.734375,-0.46875,0.34375,0.515625,0.34375,81,98,22,33,22
32968,-0.732996,-0.462348,0.336892,0.512998,0.345454,-0.734375,-0.46875,0.34375,0.515625,0.34375,81,98,22,33,22
32976,-0.732996,-0.462348,0.336892,0.512998,0.345454,-0.734375,-0.46875,0.34375,0.515625,0.34375,81,98,22,33,22
33032,-0.732996,-0.462348,0.336892,0.512998,0.345454,-0.734375,-0.46875,0.34375,0.515625,0.34375,81,98,22,33,22
33040,-0.732996,-0.462348,0.336892,0.512998,0.345454,-0.734375,-0.46875,0.34375,0.515625,0.34375,81,98,22,33,22
33096,-0.732996,-0.462348,0.336892,0.512998,0.345454,-0.734375,-0.46875,0.34375,0.515625,0.34375,81,98,22,33,22
33104,-0.732996,-0.462348,0.336892,0.512998,0.345454,-0.734375,-0.46875,0.34375,0.515625,0.34375,81,98,22,33,22
33160,-0.732996,-0.462348,0.336892,0.512998,0.345454,-0.734375,-0.46875,0.34375,0.515625,0.34375,81,98,22,33,22
33224,-0.732996,-0.462348,0.336892,0.512998,0.345454,-0.734375,-0.46875,0.34375,0.515625,0.34375,81,98,22,33,22
33232,-0.732996,-0.462348,0.336892,0.512998,0.345454,-0.734375,-0.46875,0.34375,0.515625,0.34375,81,98,22,33,22
33288,-0.732996,-0.462348,0.336892,0.512998,0.345454,-0.734375,-0.46875,0.34375,0.515625,0.34375,81,98,22,33,22
33296,-0.732996,-0.462348,0.336892,0.512998,0.345454,-0.734375,-0.46875,0.34375,0.515625,0.34375,81,98,22,33,22
33352,-0.732996,-0.462348,0.336892,0.512998,0.345454,-0.734375,-0.46875,0.34375,0.515625,0.34375,81,98,22,33,22
33360,-0.732996,-0.462348,0.336892,0.512998,0.345454,-0.734375,-0.46875,0.34375,0.515625,0.34375,81,98,22,33,22
33416,-0.732996,-0.462348,0.336892,0.512998,0.345454,-0.734375,-0.46875,0.34375,0.515625,0.34375,81,98,22,33,22
33424,-0.732996,-0.462348,0.336892,0.512998,0.345454,-0.734375,-0.46875,0.34375,0.515625,0.34375,81,98,22,33,22
33480,-0.732996,-0.462348,0.336892,0.512998,0.345454,-0.734375,-0.46875,0.34375,0.515625,0.34375,81,98,22,33,22
33544,-0.732996,-0.462348,0.336892,0.512998,0.345454,-0.734375,-0.46875,0.34375,0.515625,0.34375,81,98,22,33,22
33552,-0.732996,-0.462348,0.336892,0.512998,0.345454,-0.734375,-0.46875,0.34375,0.515625,0.34375,81,98,22,33,22
33608,-0.732996,-0.462348,0.336892,0.512998,0.345454,-0.734375,-0.46875,0.34375,0.515625,0.34375,81,98,22,33,22
33672,-0.732996,-0.462348,0.336892,0.512998,0.345454,-0.734375,-0.46875,0.34375,0.515625,0.34375,81,98,22,33,22
33680,-0.732996,-0.462348,0.336892,0.512998,0.345454,-0.734375,-0.46875,0.34375,0.515625,0.34375,81,98,22,33,22
33736,-0.732996,-0.462348,0.336892,0.512998,0.345454,-0.734375,-0.46875,0.34375,0.515625,0.34375,81,98,22,33,22
33800,-0.732996,-0.462348,0.336892,0.512998,0.345454,-0.734375,-0.46875,0.34375,0.515625,0.34375,81,98,22,33,22
33808,-0.732996,-0.462348,0.336892,0.512998,0.345454,-0.734375,-0.46875,0.34375,0.515625,0.34375,81,98,22,33,22
33864,-0.732996,-0.462348,0.336892,0.512998,0.345454,-0.734375,-0.46875,0.34375,0.515625,0.34375,81,98,22,33,22
33928,-0.732996,-0.462348,0.336892,0.512998,0.345454,-0.734375,-0.46875,0.34375,0.515625,0.34375,81,98,22,33,22
33992,-0.732996,-0.462348,0.336892,0.512998,0.345454,-0.734375,-0.46875,0.34375,0.515625,0.34375,81,98,22,33,22
34056,-0.732996,-0.462348,0.336892,0.512998,0.345454,-0.734375,-0.46875,0.34375,0.515625,0.34375,81,98,22,33,22
34184,-0.732996,-0.462348,0.336892,0.512998,0.345454,-0.734375,-0.46875,0.34375,0.515625,0.34375,81,98,22,33,22
34192,-0.732996,-0.462348,0.336892,0.512998,0.345454,-0.734375,-0.46875,0.34375,0.515625,0.34375,81,98,22,33,22
34312,-0.732996,-0.462348,0.336892,0.512998,0.345454,-0.734375,-0.46875,0.34375,0.515625,0.34375,81,98,22,33,22
34320,-0.732996,-0.462348,0.336892,0.512998,0.345454,-0.734375,-0.46875,0.34375,0.515625,0.34375,81,98,22,33,22
34328,-0.732996,-0.462348,0.336892,0.512998,0.345454,-0.734375,-0.46875,0.34375,0.515625,0.34375,81,98,22,33,22
34440,-0.732996,-0.462348,0.336892,0.512998,0.345454,-0.734375,-0.46875,0.34375,0.515625,0.34375,81,98,22,33,22
34448,-0.732996,-0.462348,0.336892,0.512998,0.345454,-0.734375,-0.46875,0.34375,0.515625,0.34375,81,98,22,33,22
34568,-0.732996,-0.462348,0.336892,0.512998,0.345454,-0.734375,-0.46875,0.34375,0.515625,0.34375,81,98,22,33,22
41032,-0.732996,-0.462348,0.336892,0.512998,0.345454,-0.734375,-0.46875,0.34375,0.515625,0.34375,81,98,22,33,22
41040,-0.732996,-0.462348,0.336892,0.512998,0.345454,-0.734375,-0.46875,0.34375,0.515625,0.34375,81,98,22,33,22
41048,-0.732996,-0.462348,0.336892,0.512998,0.345454,-0.734375,-0.46875,0.34375,0.515625,0.34375,81,98,22,33,22
41096,-0.732996,-0.462348,0.336892,0.512998,0.345454,-0.734375,-0.46875,0.34375,0.515625,0.34375,81,98,22,33,22
41104,-0.732996,-0.462348,0.336892,0.512998,0.345454,-0.734375,-0.46875,0.34375,0.515625,0.34375,81,98,22,33,22
41160,-0.732996,-0.462348,0.336892,0.512998,0.345454,-0.734375,-0.46875,0.34375,0.515625,0.34375,81,98,22,33,22
41168,-0.732996,-0.462348,0.336892,0.512998,0.345454,-0.734375,-0.46875,0.34375,0.515625,0.34375,81,98,22,33,22
41224,-0.732996,-0.462348,0.336892,0.512998,0.345454,-0.734375,-0.46875,0.34375,0.515625,0.34375,81,98,22,33,22
41232,-0.732996,-0.462348,0.336892,0.512998,0.345454,-0.734375,-0.46875,0.34375,0.515625,0.34375,81,98,22,33,22
41288,-0.732996,-0.462348,0.336892,0.512998,0.345454,-0.734375,-0.46875,0.34375,0.515625,0.34375,81,98,22,33,22
41352,-0.732996,-0.462348,0.336892,0.512998,0.345454,-0.734375,-0.46875,0.34375,0.515625,0.34375,81,98,22,33,22
41360,-0.732996,-0.462348,0.336892,0.512998,0.345454,-0.734375,-0.46875,0.34375,0.515625,0.34375,81,98,22,33,22
41416,-0.732996,-0.462348,0.336892,0.512998,0.345454,-0.734375,-0.46875,0.34375,0.515625,0.34375,81,98,22,33,22
41424,-0.732996,-0.462348,0.336892,0.512998,0.345454,-0.734375,-0.46875,0.34375,0.515625,0.34375,81,98,22,33,22
41480,-0.732996,-0.462348,0.336892,0.512998,0.345454,-0.734375,-0.46875,0.34375,0.515625,0.34375,81,98,22,33,22
41488,-0.732996,-0.462348,0.336892,0.512998,0.345454,-0.734375,-0.46875,0.34375,0.515625,0.34375,81,98,22,33,22
41496,-0.732996,-0.462348,0.336892,0.512998,0.345454,-0.734375,-0.46875,0.34375,0.515625,0.34375,81,98,22,33,22
41544,-0.732996,-0.462348,0.336892,0.512998,0.345454,-0.734375,-0.46875,0.34375,0.515625,0.34375,81,98,22,33,22
41552,-0.732996,-0.462348,0.336892,0.512998,0.345454,-0.734375,-0.46875,0.34375,0.515625,0.34375,81,98,22,33,22
41608,-0.732996,-0.462348,0.336892,0.512998,0.345454,-0.734375,-0.46875,0.34375,0.515625,0.34375,81,98,22,33,22
41672,-0.732996,-0.462348,0.336892,0.512998,0.345454,-0.734375,-0.46875,0.34375,0.515625,0.34375,81,98,22,33,22
41680,-0.732996,-0.462348,0.336892,0.512998,0.345454,-0.734375,-0.46875,0.34375,0.515625,0.34375,81,98,22,33,22
41736,-0.732996,-0.462348,0.336892,0.512998,0.345454,-0.734375,-0.46875,0.34375,0.515625,0.34375,81,98,22,33,22
41800,-0.732996,-0.462348,0.336892,0.512998,0.345454,-0.734375,-0.46875,0.34375,0.515625,0.34375,81,98,22,33,22
41808,-0.732996,-0.462348,0.336892,0.512998,0.345454,-0.734375,-0.46875,0.34375,0.515625,0.34375,81,98,22,33,22
41864,-0.732996,-0.462348,0.336892,0.512998,0.345454,-0.734375,-0.46875,0.34375,0.515625,0.34375,81,98,22,33,22
41872,-0.732996,-0.462348,0.336892,0.512998,0.345454,-0.734375,-0.46875,0.34375,0.515625,0.34375,81,98,22,33,22
41928,-0.732996,-0.462348,0.336892,0.512998,0.345454,-0.734375,-0.46875,0.34375,0.515625,0.34375,81,98,22,33,22
41992,-0.732996,-0.462348,0.336892,0.512998,0.345454,-0.734375,-0.46875,0.34375,0.515625,0.34375,81,98,22,33,22
42056,-0.732996,-0.462348,0.336892,0.512998,0.345454,-0.734375,-0.46875,0.34375,0.515625,0.34375,81,98,22,33,22
42120,-0.732996,-0.462348,0.336892,0.512998,0.345454,-0.734375,-0.46875,0.34375,0.515625,0.34375,81,98,22,33,22
42184,-0.732996,-0.462348,0.336892,0.512998,0.345454,-0.734375,-0.46875,0.34375,0.515625,0.34375,81,98,22,33,22
42192,-0.732996,-0.462348,0.336892,0.512998,0.345454,-0.734375,-0.46875,0.34375,0.515625,0.34375,81,98,22,33,22
42248,-0.732996,-0.462348,0.336892,0.512998,0.345454,-0.734375,-0.46875,0.34375,0.515625,0.34375,81,98,22,33,22
42256,-0.732996,-0.462348,0.336892,0.512998,0.345454,-0.734375,-0.46875,0.34375,0.515625,0.34375,81,98,22,33,22
42376,-0.732996,-0.462348,0.336892,0.512998,0.345454,-0.734375,-0.46875,0.34375,0.515625,0.34375,81,98,22,33,22
42504,-0.732996,-0.462348,0.336892,0.512998,0.345454,-0.734375,-0.46875,0.34375,0.515625,0.34375,81,98,22,33,22
42632,-0.732996,-0.462348,0.336892,0.512998,0.345454,-0.734375,-0.46875,0.34375,0.515625,0.34375,81,98,22,33,22
42640,-0.732996,-0.462348,0.336892,0.512998,0.345454,-0.734375,-0.46875,0.34375,0.515625,0.34375,81,98,22,33,22
42760,-0.732996,-0.462348,0.336892,0.512998,0.345454,-0.734375,-0.46875,0.34375,0.515625,0.34375,81,98,22,33,22
42768,-0.732996,-0.462348,0.336892,0.512998,0.345454,-0.734375,-0.46875,0.34375,0.515625,0.34375,81,98,22,33,22
49224,-0.732996,-0.462348,0.336892,0.512998,0.345454,-0.734375,-0.46875,0.34375,0.515625,0.34375,81,98,22,33,22
49232,-0.732996,-0.462348,0.336892,0.512998,0.345454,-0.734375,-0.46875,0.34375,0.515625,0.34375,81,98,22,33,22
49288,-0.732996,-0.462348,0.336892,0.512998,0.345454,-0.734375,-0.46875,0.34375,0.515625,0.34375,81,98,22,33,22
49296,-0.732996,-0.462348,0.336892,0.512998,0.345454,-0.734375,-0.46875,0.34375,0.515625,0.34375,81,98,22,33,22
49352,-0.732996,-0.462348,0.336892,0.512998,0.345454,-0.734375,-0.46875,0.34375,0.515625,0.34375,81,98,22,33,22
49360,-0.732996,-0.462348,0.336892,0.512998,0.345454,-0.734375,-0.46875,0.34375,0.515625,0.34375,81,98,22,33,22
49416,-0.732996,-0.462348,0.336892,0.512998,0.345454,-0.734375,-0.46875,0.34375,0.515625,0.34375,81,98,22,33,22
49424,-0.732996,-0.462348,0.336892,0.512998,0.345454,-0.734375,-0.46875,0.34375,0.515625,0.34375,81,98,22,33,22
49432,-0.732996,-0.462348,0.336892,0.512998,0.345454,-0.734375,-0.46875,0.34375,0.515625,0.34375,81,98,22,33,22
49480,-0.732996,-0.462348,0.336892,0.512998,0.345454,-0.734375,-0.46875,0.34375,0.515625,0.34375,81,98,22,33,22
49488,-0.732996,-0.462348,0.336892,0.512998,0.345454,-0.734375,-0.46875,0.34375,0.515625,0.34375,81,98,22,33,22
49496,-0.732996,-0.462348,0.336892,0.512998,0.345454,-0.734375,-0.46875,0.34375,0.515625,0.34375,81,98,22,33,22
49544,-0.732996,-0.462348,0.336892,0.512998,0.345454,-0.734375,-0.46875,0.34375,0.515625,0.34375,81,98,22,33,22
49552,-0.732996,-0.462348,0.336892,0.512998,0.345454,-0.734375,-0.46875,0.34375,0.515625,0.34375,81,98,22,33,22
49608,-0.732996,-0.462348,0.336892,0.512998,0.345454,-0.734375,-0.46875,0.34375,0.515625,0.34375,81,98,22,33,22
49616,-0.732996,-0.462348,0.336892,0.512998,0.345454,-0.734375,-0.46875,0.34375,0.515625,0.34375,81,98,22,33,22
49672,-0.732996,-0.462348,0.336892,0.512998,0.345454,-0.734375,-0.46875,0.34375,0.515625,0.34375,81,98,22,33,22
49736,-0.732996,-0.462348,0.336892,0.512998,0.345454,-0.734375,-0.46875,0.34375,0.515625,0.34375,81,98,22,33,22
49800,-0.732996,-0.462348,0.336892,0.512998,0.345454,-0.734375,-0.46875,0.34375,0.515625,0.34375,81,98,22,33,22
49808,-0.732996,-0.462348,0.336892,0.512998,0.345454,-0.734375,-0.46875,0.34375,0.515625,0.34375,81,98,22,33,22
49864,-0.732996,-0.462348,0.336892,0.512998,0.345454,-0.734375,-0.46875,0.34375,0.515625,0.34375,81,98,22,33,22
49928,-0.732996,-0.462348,0.336892,0.512998,0.345454,-0.734375,-0.46875,0.34375,0.515625,0.34375,81,98,22,33,22
49936,-0.732996,-0.462348,0.336892,0.512998,0.345454,-0.734375,-0.46875,0.34375,0.515625,0.34375,81,98,22,33,22
49992,-0.732996,-0.462348,0.336892,0.512998,0.345454,-0.734375,-0.46875,0.34375,0.515625,0.34375,81,98,22,33,22
50056,-0.732996,-0.462348,0.336892,0.512998,0.345454,-0.734375,-0.46875,0.34375,0.515625,0.34375,81,98,22,33,22
50120,-0.732996,-0.462348,0.336892,0.512998,0.345454,-0.734375,-0.46875,0.34375,0.515625,0.34375,81,98,22,33,22
50128,-0.732996,-0.462348,0.336892,0.512998,0.345454,-0.734375,-0.46875,0.34375,0.515625,0.34375,81,98,22,33,22
50184,-0.732996,-0.462348,0.336892,0.512998,0.345454,-0.734375,-0.46875,0.34375,0.515625,0.34375,81,98,22,33,22
50192,-0.732996,-0.462348,0.336892,0.512998,0.345454,-0.734375,-0.46875,0.34375,0.515625,0.34375,81,98,22,33,22
50248,-0.732996,-0.462348,0.336892,0.512998,0.345454,-0.734375,-0.46875,0.34375,0.515625,0.34375,81,98,22,33,22
50256,-0.732996,-0.462348,0.336892,0.512998,0.345454,-0.734375,-0.46875,0.34375,0.515625,0.34375,81,98,22,33,22
50312,-0.732996,-0.462348,0.336892,0.512998,0.345454,-0.734375,-0.46875,0.34375,0.515625,0.34375,81,98,22,33,22
50320,-0.732996,-0.462348,0.336892,0.512998,0.345454,-0.734375,-0.46875,0.34375,0.515625,0.34375,81,98,22,33,22
50376,-0.732996,-0.462348,0.336892,0.512998,0.345454,-0.734375,-0.46875,0.34375,0.515625,0.34375,81,98,22,33,22
50440,-0.732996,-0.462348,0.336892,0.512998,0.345454,-0.734375,-0.46875,0.34375,0.515625,0.34375,81,98,22,33,22
50568,-0.732996,-0.462348,0.336892,0.512998,0.345454,-0.734375,-0.46875,0.34375,0.515625,0.34375,81,98,22,33,22
50696,-0.732996,-0.462348,0.336892,0.512998,0.345454,-0.734375,-0.46875,0.34375,0.515625,0.34375,81,98,22,33,22
50824,-0.732996,-0.462348,0.336892,0.512998,0.345454,-0.734375,-0.46875,0.34375,0.515625,0.34375,81,98,22,33,22
50832,-0.732996,-0.462348,0.336892,0.512998,0.345454,-0.734375,-0.46875,0.34375,0.515625,0.34375,81,98,22,33,22
50952,-0.732996,-0.462348,0.336892,0.512998,0.345454,-0.734375,-0.46875,0.34375,0.515625,0.34375,81,98,22,33,22
50960,-0.732996,-0.462348,0.336892,0.512998,0.345454,-0.734375,-0.46875,0.34375,0.515625,0.34375,81,98,22,33,22
57416,-0.732996,-0.462348,0.336892,0.512998,0.345454,-0.734375,-0.46875,0.34375,0.515625,0.34375,81,98,22,33,22
57424,-0.732996,-0.462348,0.336892,0.512998,0.345454,-0.734375,-0.46875,0.34375,0.515625,0.34375,81,98,22,33,22
57480,-0.732996,-0.462348,0.336892,0.512998,0.345454,-0.734375,-0.46875,0.34375,0.515625,0.34375,81,98,22,33,22
57488,-0.732996,-0.462348,0.336892,0.512998,0.345454,-0.734375,-0.46875,0.34375,0.515625,0.34375,81,98,22,33,22
57544,-0.732996,-0.462348,0.336892,0.512998,0.345454,-0.734375,-0.46875,0.34375,0.515625,0.34375,81,98,22,33,22
57552,-0.732996,-0.462348,0.336892,0.512998,0.345454,-0.734375,-0.46875,0.34375,0.515625,0.34375,81,98,22,33,22
57608,-0.732996,-0.462348,0.336892,0.512998,0.345454,-0.734375,-0.46875,0.34375,0.515625,0.34375,81,98,22,33,22
57616,-0.732996,-0.462348,0.336892,0.512998,0.345454,-0.734375,-0.46875,0.34375,0.515625,0.34375,81,98,22,33,22
57672,-0.732996,-0.462348,0.336892,0.512998,0.345454,-0.734375,-0.46875,0.34375,0.515625,0.34375,81,98,22,33,22
57680,-0.732996,-0.462348,0.336892,0.512998,0.345454,-0.734375,-0.46875,0.34375,0.515625,0.34375,81,98,22,33,22
57736,-0.732996,-0.462348,0.336892,0.512998,0.345454,-0.734375,-0.46875,0.34375,0.515625,0.34375,81,98,22,33,22
57744,-0.732996,-0.462348,0.336892,0.512998,0.345454,-0.734375,-0.46875,0.34375,0.515625,0.34375,81,98,22,33,22
57800,-0.732996,-0.462348,0.336892,0.512998,0.345454,-0.734375,-0.46875,0.34375,0.515625,0.34375,81,98,22,33,22
57864,-0.732996,-0.462348,0.336892,0.512998,0.345454,-0.734375,-0.46875,0.34375,0.515625,0.34375,81,98,22,33,22
57872,-0.732996,-0.462348,0.336892,0.512998,0.345454,-0.734375,-0.46875,0.34375,0.515625,0.34375,81,98,22,33,22
57928,-0.732996,-0.462348,0.336892,0.512998,0.345454,-0.734375,-0.46875,0.34375,0.515625,0.34375,81,98,22,33,22
57936,-0.732996,-0.462348,0.336892,0.512998,0.345454,-0.734375,-0.46875,0.34375,0.515625,0.34375,81,98,22,33,22
57992,-0.732996,-0.462348,0.336892,0.512998,0.345454,-0.734375,-0.46875,0.34375,0.515625,0.34375,81,98,22,33,22
58056,-0.732996,-0.462348,0.336892,0.512998,0.345454,-0.734375,-0.46875,0.34375,0.515625,0.34375,81,98,22,33,22
58064,-0.732996,-0.462348,0.336892,0.512998,0.345454,-0.734375,-0.46875,0.34375,0.515625,0.34375,81,98,22,33,22
58120,-0.732996,-0.462348,0.336892,0.512998,0.345454,-0.734375,-0.46875,0.34375,0.515625,0.34375,81,98,22,33,22
58128,-0.732996,-0.462348,0.336892,0.512998,0.345454,-0.734375,-0.46875,0.34375,0.515625,0.34375,81,98,22,33,22
58184,-0.732996,-0.462348,0.336892,0.512998,0.345454,-0.734375,-0.46875,0.34375,0.515625,0.34375,81,98,22,33,22
58192,-0.732996,-0.462348,0.336892,0.512998,0.345454,-0.734375,-0.46875,0.34375,0.515625,0.34375,81,98,22,33,22
58248,-0.732996,-0.462348,0.336892,0.512998,0.345454,-0.734375,-0.46875,0.34375,0.515625,0.34375,81,98,22,33,22
58312,-0.732996,-0.462348,0.336892,0.512998,0.345454,-0.734375,-0.46875,0.34375,0.515625,0.34375,81,98,22,33,22
58320,-0.732996,-0.462348,0.336892,0.512998,0.345454,-0.734375,-0.46875,0.34375,0.515625,0.34375,81,98,22,33,22
58376,-0.732996,-0.462348,0.336892,0.512998,0.345454,-0.734375,-0.46875,0.34375,0.515625,0.34375,81,98,22,33,22
58440,-0.732996,-0.462348,0.336892,0.512998,0.345454,-0.734375,-0.46875,0.34375,0.515625,0.34375,81,98,22,33,22
58504,-0.732996,-0.462348,0.336892,0.512998,0.345454,-0.734375,-0.46875,0.34375,0.515625,0.34375,81,98,22,33,22
58568,-0.732996,-0.462348,0.336892,0.512998,0.345454,-0.734375,-0.46875,0.34375,0.515625,0.34375,81,98,22,33,22
58632,-0.732996,-0.462348,0.336892,0.512998,0.345454,-0.734375,-0.46875,0.34375,0.515625,0.34375,81,98,22,33,22
58760,-0.732996,-0.462348,0.336892,0.512998,0.345454,-0.734375,-0.46875,0.34375,0.515625,0.34375,81,98,22,33,22
58768,-0.732996,-0.462348,0.336892,0.512998,0.345454,-0.734375,-0.46875,0.34375,0.515625,0.34375,81,98,22,33,22
58776,-0.732996,-0.462348,0.336892,0.512998,0.345454,-0.734375,-0.46875,0.34375,0.515625,0.34375,81,98,22,33,22
58888,-0.732996,-0.462348,0.336892,0.512998,0.345454,-0.734375,-0.46875,0.34375,0.515625,0.34375,81,98,22,33,22
59016,-0.732996,-0.462348,0.336892,0.512998,0.345454,-0.734375,-0.46875,0.34375,0.515625,0.34375,81,98,22,33,22
59144,-0.732996,-0.462348,0.336892,0.512998,0.345454,-0.734375,-0.46875,0.34375,0.515625,0.34375,81,98,22,33,22
59152,-0.732996,-0.462348,0.336892,0.512998,0.345454,-0.734375,-0.46875,0.34375,0.515625,0.34375,81,98,22,33,22
59160,-0.732996,-0.462348,0.336892,0.512998,0.345454,-0.734375,-0.46875,0.34375,0.515625,0.34375,81,98,22,33,22
65608,-0.732996,-0.462348,0.336892,0.512998,0.345454,-0.734375,-0.46875,0.34375,0.515625,0.34375,81,98,22,33,22
65616,-0.732996,-0.462348,0.336892,0.512998,0.345454,-0.734375,-0.46875,0.34375,0.515625,0.34375,81,98,22,33,22
65672,-0.732996,-0.462348,0.336892,0.512998,0.345454,-0.734375,-0.46875,0.34375,0.515625,0.34375,81,98,22,33,22
65680,-0.732996,-0.462348,0.336892,0.512998,0.345454,-0.734375,-0.46875,0.34375,0.515625,0.34375,81,98,22,33,22
65736,-0.732996,-0.462348,0.336892,0.512998,0.345454,-0.734375,-0.46875,0.34375,0.515625,0.34375,81,98,22,33,22
65744,-0.732996,-0.462348,0.336892,0.512998,0.345454,-0.734375,-0.46875,0.34375,0.515625,0.34375,81,98,22,33,22
65800,-0.732996,-0.462348,0.336892,0.512998,0.345454,-0.734375,-0.46875,0.34375,0.515625,0.34375,81,98,22,33,22
65808,-0.732996,-0.462348,0.336892,0.512998,0.345454,-0.734375,-0.46875,0.34375,0.515625,0.34375,81,98,22,33,22
65864,-0.732996,-0.462348,0.336892,0.512998,0.345454,-0.734375,-0.46875,0.34375,0.515625,0.34375,81,98,22,33,22
65872,-0.732996,-0.462348,0.336892,0.512998,0.345454,-0.734375,-0.46875,0.34375,0.515625,0.34375,81,98,22,33,22
65928,-0.732996,-0.462348,0.336892,0.512998,0.345454,-0.734375,-0.46875,0.34375,0.515625,0.34375,81,98,22,33,22
65992,-0.732996,-0.462348,0.336892,0.512998,0.345454,-0.734375,-0.46875,0.34375,0.515625,0.34375,81,98,22,33,22
66000,-0.732996,-0.462348,0.336892,0.512998,0.345454,-0.734375,-0.46875,0.34375,0.515625,0.34375,81,98,22,33,22
66056,-0.732996,-0.462348,0.336892,0.512998,0.345454,-0.734375,-0.46875,0.34375,0.515625,0.34375,81,98,22,33,22
66120,-0.732996,-0.462348,0.336892,0.512998,0.345454,-0.734375,-0.46875,0.34375,0.515625,0.34375,81,98,22,33,22
66128,-0.732996,-0.462348,0.336892,0.512998,0.345454,-0.734375,-0.46875,0.34375,0.515625,0.34375,81,98,22,33,22
66184,-0.732996,-0.462348,0.336892,0.512998,0.345454,-0.734375,-0.46875,0.34375,0.515625,0.34375,81,98,22,33,22
66192,-0.732996,-0.462348,0.336892,0.512998,0.345454,-0.734375,-0.46875,0.34375,0.515625,0.34375,81,98,22,33,22
66248,-0.732996,-0.462348,0.336892,0.512998,0.345454,-0.734375,-0.46875,0.34375,0.515625,0.34375,81,98,22,33,22
66256,-0.732996,-0.462348,0.336892,0.512998,0.345454,-0.734375,-0.46875,0.34375,0.515625,0.34375,81,98,22,33,22
66312,-0.732996,-0.462348,0.336892,0.512998,0.345454,-0.734375,-0.46875,0.34375,0.515625,0.34375,81,98,22,33,22
66320,-0.732996,-0.462348,0.336892,0.512998,0.345454,-0.734375,-0.46875,0.34375,0.515625,0.34375,81,98,22,33,22
66376,-0.732996,-0.462348,0.336892,0.512998,0.345454,-0.734375,-0.46875,0.34375,0.515625,0.34375,81,98,22,33,22
66384,-0.732996,-0.462348,0.336892,0.512998,0.345454,-0.734375,-0.46875,0.34375,0.515625,0.34375,81,98,22,33,22
66440,-0.732996,-0.462348,0.336892,0.512998,0.345454,-0.734375,-0.46875,0.34375,0.515625,0.34375,81,98,22,33,22
66504,-0.732996,-0.462348,0.336892,0.512998,0.345454,-0.734375,-0.46875,0.34375,0.515625,0.34375,81,98,22,33,22
66568,-0.732996,-0.462348,0.336892,0.512998,0.345454,-0.734375,-0.46875,0.34375,0.515625,0.34375,81,98,22,33,22
66576,-0.732996,-0.462348,0.336892,0.512998,0.345454,-0.734375,-0.46875,0.34375,0.515625,0.34375,81,98,22,33,22
66632,-0.732996,-0.462348,0.336892,0.512998,0.345454,-0.734375,-0.46875,0.34375,0.515625,0.34375,81,98,22,33,22
66640,-0.732996,-0.462348,0.336892,0.512998,0.345454,-0.734375,-0.46875,0.34375,0.515625,0.34375,81,98,22,33,22
66696,-0.732996,-0.462348,0.336892,0.512998,0.345454,-0.734375,-0.46875,0.34375,0.515625,0.34375,81,98,22,33,22
66704,-0.732996,-0.462348,0.336892,0.512998,0.345454,-0.734375,-0.46875,0.34375,0.515625,0.34375,81,98,22,33,22
66760,-0.732996,-0.462348,0.336892,0.512998,0.345454,-0.734375,-0.46875,0.34375,0.515625,0.34375,81,98,22,33,22
66824,-0.732996,-0.462348,0.336892,0.512998,0.345454,-0.734375,-0.46875,0.34375,0.515625,0.34375,81,98,22,33,22
66952,-0.732996,-0.462348,0.336892,0.512998,0.345454,-0.734375,-0.46875,0.34375,0.515625,0.34375,81,98,22,33,22
66960,-0.732996,-0.462348,0.336892,0.512998,0.345454,-0.734375,-0.46875,0.34375,0.515625,0.34375,81,98,22,33,22
67080,-0.732996,-0.462348,0.336892,0.512998,0.345454,-0.734375,-0.46875,0.34375,0.515625,0.34375,81,98,22,33,22
67088,-0.732996,-0.462348,0.336892,0.512998,0.345454,-0.734375,-0.46875,0.34375,0.515625,0.34375,81,98,22,33,22
67208,-0.732996,-0.462348,0.336892,0.512998,0.345454,-0.734375,-0.46875,0.34375,0.515625,0.34375,81,98,22,33,22
67336,-0.732996,-0.462348,0.336892,0.512998,0.345454,-0.734375,-0.46875,0.34375,0.515625,0.34375,81,98,22,33,22
67344,-0.732996,-0.462348,0.336892,0.512998,0.345454,-0.734375,-0.46875,0.34375,0.515625,0.34375,81,98,22,33,22
73800,-0.732996,-0.462348,0.336892,0.512998,0.345454,-0.734375,-0.46875,0.34375,0.515625,0.34375,81,98,22,33,22
73808,-0.732996,-0.462348,0.336892,0.512998,0.345454,-0.734375,-0.46875,0.34375,0.515625,0.34375,81,98,22,33,22
73864,-0.732996,-0.462348,0.336892,0.512998,0.345454,-0.734375,-0.46875,0.34375,0.515625,0.34375,81,98,22,33,22
73872,-0.732996,-0.462348,0.336892,0.512998,0.345454,-0.734375,-0.46875,0.34375,0.515625,0.34375,81,98,22,33,22
73928,-0.732996,-0.462348,0.336892,0.512998,0.345454,-0.734375,-0.46875,0.34375,0.515625,0.34375,81,98,22,33,22
73936,-0.732996,-0.462348,0.336892,0.512998,0.345454,-0.734375,-0.46875,0.34375,0.515625,0.34375,81,98,22,33,22
73944,-0.732996,-0.462348,0.336892,0.512998,0.345454,-0.734375,-0.46875,0.34375,0.515625,0.34375,81,98,22,33,22
73992,-0.732996,-0.462348,0.336892,0.512998,0.345454,-0.734375,-0.46875,0.34375,0.515625,0.34375,81,98,22,33,22
74000,-0.732996,-0.462348,0.336892,0.512998,0.345454,-0.734375,-0.46875,0.34375,0.515625,0.34375,81,98,22,33,22
74056,-0.732996,-0.462348,0.336892,0.512998,0.345454,-0.734375,-0.46875,0.34375,0.515625,0.34375,81,98,22,33,22
74064,-0.732996,-0.462348,0.336892,0.512998,0.345454,-0.734375,-0.46875,0.34375,0.515625,0.34375,81,98,22,33,22
74120,-0.732996,-0.462348,0.336892,0.512998,0.345454,-0.734375,-0.46875,0.34375,0.515625,0.34375,81,98,22,33,22
74128,-0.732996,-0.462348,0.336892,0.512998,0.345454,-0.734375,-0.46875,0.34375,0.515625,0.34375,81,98,22,33,22
74184,-0.732996,-0.462348,0.336892,0.512998,0.345454,-0.734375,-0.46875,0.34375,0.515625,0.34375,81,98,22,33,22
74248,-0.732996,-0.462348,0.336892,0.512998,0.345454,-0.734375,-0.46875,0.34375,0.515625,0.34375,81,98,22,33,22
74256,-0.732996,-0.462348,0.336892,0.512998,0.345454,-0.734375,-0.46875,0.34375,0.515625,0.34375,81,98,22,33,22
74312,-0.732996,-0.462348,0.336892,0.512998,0.345454,-0.734375,-0.46875,0.34375,0.515625,0.34375,81,98,22,33,22
74376,-0.732996,-0.462348,0.336892,0.512998,0.345454,-0.734375,-0.46875,0.34375,0.515625,0.34375,81,98,22,33,22
74384,-0.732996,-0.462348,0.336892,0.512998,0.345454,-0.734375,-0.46875,0.34375,0.515625,0.34375,81,98,22,33,22
74440,-0.732996,-0.462348,0.336892,0.512998,0.345454,-0.734375,-0.46875,0.34375,0.515625,0.34375,81,98,22,33,22
74448,-0.732996,-0.462348,0.336892,0.512998,0.345454,-0.734375,-0.46875,0.34375,0.515625,0.34375,81,98,22,33,22
74504,-0.732996,-0.462348,0.336892,0.512998,0.345454,-0.734375,-0.46875,0.34375,0.515625,0.34375,81,98,22,33,22
74568,-0.732996,-0.462348,0.336892,0.512998,0.345454,-0.734375,-0.46875,0.34375,0.515625,0.34375,81,98,22,33,22
74632,-0.732996,-0.462348,0.336892,0.512998,0.345454,-0.734375,-0.46875,0.34375,0.515625,0.34375,81,98,22,33,22
74640,-0.732996,-0.462348,0.336892,0.512998,0.345454,-0.734375,-0.46875,0.34375,0.515625,0.34375,81,98,22,33,22
74696,-0.732996,-0.462348,0.336892,0.512998,0.345454,-0.734375,-0.46875,0.34375,0.515625,0.34375,81,98,22,33,22
74704,-0.732996,-0.462348,0.336892,0.512998,0.345454,-0.734375,-0.46875,0.34375,0.515625,0.34375,81,98,22,33,22
74760,-0.732996,-0.462348,0.336892,0.512998,0.345454,-0.734375,-0.46875,0.34375,0.515625,0.34375,81,98,22,33,22
74768,-0.732996,-0.462348,0.336892,0.512998,0.345454,-0.734375,-0.46875,0.34375,0.515625,0.34375,81,98,22,33,22
74824,-0.732996,-0.462348,0.336892,0.512998,0.345454,-0.734375,-0.46875,0.34375,0.515625,0.34375,81,98,22,33,22
74888,-0.732996,-0.462348,0.336892,0.512998,0.345454,-0.734375,-0.46875,0.34375,0.515625,0.34375,81,98,22,33,22
74952,-0.732996,-0.462348,0.336892,0.512998,0.345454,-0.734375,-0.46875,0.34375,0.515625,0.34375,81,98,22,33,22
75016,-0.732996,-0.462348,0.336892,0.512998,0.345454,-0.734375,-0.46875,0.34375,0.515625,0.34375,81,98,22,33,22
75144,-0.732996,-0.462348,0.336892,0.512998,0.345454,-0.734375,-0.46875,0.34375,0.515625,0.34375,81,98,22,33,22
75152,-0.732996,-0.462348,0.336892,0.512998,0.345454,-0.734375,-0.46875,0.34375,0.515625,0.34375,81,98,22,33,22
75160,-0.732996,-0.462348,0.336892,0.512998,0.345454,-0.734375,-0.46875,0.34375,0.515625,0.34375,81,98,22,33,22
75272,-0.732996,-0.462348,0.336892,0.512998,0.345454,-0.734375,-0.46875,0.34375,0.515625,0.34375,81,98,22,33,22
75400,-0.732996,-0.462348,0.336892,0.512998,0.345454,-0.734375,-0.46875,0.34375,0.515625,0.34375,81,98,22,33,22
75528,-0.732996,-0.462348,0.336892,0.512998,0.345454,-0.734375,-0.46875,0.34375,0.515625,0.34375,81,98,22,33,22
75536,-0.732996,-0.462348,0.336892,0.512998,0.345454,-0.734375,-0.46875,0.34375,0.515625,0.34375,81,98,22,33,22
81992,-0.732996,-0.462348,0.336892,0.512998,0.345454,-0.734375,-0.46875,0.34375,0.515625,0.34375,81,98,22,33,22
82000,-0.732996,-0.462348,0.336892,0.512998,0.345454,-0.734375,-0.46875,0.34375,0.515625,0.34375,81,98,22,33,22
82056,-0.732996,-0.462348,0.336892,0.512998,0.345454,-0.734375,-0.46875,0.34375,0.515625,0.34375,81,98,22,33,22
82064,-0.732996,-0.462348,0.336892,0.512998,0.345454,-0.734375,-0.46875,0.34375,0.515625,0.34375,81,98,22,33,22
82120,-0.732996,-0.462348,0.336892,0.512998,0.345454,-0.734375,-0.46875,0.34375,0.515625,0.34375,81,98,22,33,22
82128,-0.732996,-0.462348,0.336892,0.512998,0.345454,-0.734375,-0.46875,0.34375,0.515625,0.34375,81,98,22,33,22
82184,-0.732996,-0.462348,0.336892,0.512998,0.345454,-0.734375,-0.46875,0.34375,0.515625,0.34375,81,98,22,33,22
82192,-0.732996,-0.462348,0.336892,0.512998,0.345454,-0.734375,-0.46875,0.34375,0.515625,0.34375,81,98,22,33,22
82248,-0.732996,-0.462348,0.336892,0.512998,0.345454,-0.734375,-0.46875,0.34375,0.515625,0.34375,81,98,22,33,22
82256,-0.732996,-0.462348,0.336892,0.512998,0.345454,-0.734375,-0.46875,0.34375,0.515625,0.34375,81,98,22,33,22
82312,-0.732996,-0.462348,0.336892,0.512998,0.345454,-0.734375,-0.46875,0.34375,0.515625,0.34375,81,98,22,33,22
82320,-0.732996,-0.462348,0.336892,0.512998,0.345454,-0.734375,-0.46875,0.34375,0.515625,0.34375,81,98,22,33,22
82328,-0.732996,-0.462348,0.336892,0.512998,0.345454,-0.734375,-0.46875,0.34375,0.515625,0.34375,81,98,22,33,22
82376,-0.732996,-0.462348,0.336892,0.512998,0.345454,-0.734375,-0.46875,0.34375,0.515625,0.34375,81,98,22,33,22
82384,-0.732996,-0.462348,0.336892,0.512998,0.345454,-0.734375,-0.46875,0.34375,0.515625,0.34375,81,98,22,33,22
82392,-0.732996,-0.462348,0.336892,0.512998,0.345454,-0.734375,-0.46875,0.34375,0.515625,0.34375,81,98,22,33,22
82440,-0.732996,-0.462348,0.336892,0.512998,0.345454,-0.734375,-0.46875,0.34375,0.515625,0.34375,81,98,22,33,22
82448,-0.732996,-0.462348,0.336892,0.512998,0.345454,-0.734375,-0.46875,0.34375,0.515625,0.34375,81,98,22,33,22
82504,-0.732996,-0.462348,0.336892,0.512998,0.345454,-0.734375,-0.46875,0.34375,0.515625,0.34375,81,98,22,33,22
82512,-0.732996,-0.462348,0.336892,0.512998,0.345454,-0.734375,-0.46875,0.34375,0.515625,0.34375,81,98,22,33,22
82568,-0.732996,-0.462348,0.336892,0.512998,0.345454,-0.734375,-0.46875,0.34375,0.515625,0.34375,81,98,22,33,22
82632,-0.732996,-0.462348,0.336892,0.512998,0.345454,-0.734375,-0.46875,0.34375,0.515625,0.34375,81,98,22,33,22
82696,-0.732996,-0.462348,0.336892,0.512998,0.345454,-0.734375,-0.46875,0.34375,0.515625,0.34375,81,98,22,33,22
82704,-0.732996,-0.462348,0.336892,0.512998,0.345454,-0.734375,-0.46875,0.34375,0.515625,0.34375,81,98,22,33,22
82760,-0.732996,-0.462348,0.336892,0.512998,0.345454,-0.734375,-0.46875,0.34375,0.515625,0.34375,81,98,22,33,22
82824,-0.732996,-0.462348,0.336892,0.512998,0.345454,-0.734375,-0.46875,0.34375,0.515625,0.34375,81,98,22,33,22
82888,-0.732996,-0.462348,0.336892,0.512998,0.345454,-0.734375,-0.46875,0.34375,0.515625,0.34375,81,98,22,33,22
82952,-0.732996,-0.462348,0.336892,0.512998,0.345454,-0.734375,-0.46875,0.34375,0.515625,0.34375,81,98,22,33,22
83016,-0.732996,-0.462348,0.336892,0.512998,0.345454,-0.734375,-0.46875,0.34375,0.515625,0.34375,81,98,22,33,22
83024,-0.732996,-0.462348,0.336892,0.512998,0.345454,-0.734375,-0.46875,0.34375,0.515625,0.34375,81,98,22,33,22
83080,-0.732996,-0.462348,0.336892,0.512998,0.345454,-0.734375,-0.46875,0.34375,0.515625,0.34375,81,98,22,33,22
83088,-0.732996,-0.462348,0.336892,0.512998,0.345454,-0.734375,-0.46875,0.34375,0.515625,0.34375,81,98,22,33,22
83144,-0.732996,-0.462348,0.336892,0.512998,0.345454,-0.734375,-0.46875,0.34375,0.515625,0.34375,81,98,22,33,22
83152,-0.732996,-0.462348,0.336892,0.512998,0.345454,-0.734375,-0.46875,0.34375,0.515625,0.34375,81,98,22,33,22
83208,-0.732996,-0.462348,0.336892,0.512998,0.345454,-0.734375,-0.46875,0.34375,0.515625,0.34375,81,98,22,33,22
83216,-0.732996,-0.462348,0.336892,0.512998,0.345454,-0.734375,-0.46875,0.34375,0.515625,0.34375,81,98,22,33,22
83336,-0.732996,-0.462348,0.336892,0.512998,0.345454,-0.734375,-0.46875,0.34375,0.515625,0.34375,81,98,22,33,22
83464,-0.732996,-0.462348,0.336892,0.512998,0.345454,-0.734375,-0.46875,0.34375,0.515625,0.34375,81,98,22,33,22
83592,-0.732996,-0.462348,0.336892,0.512998,0.345454,-0.734375,-0.46875,0.34375,0.515625,0.34375,81,98,22,33,22
83600,-0.732996,-0.462348,0.336892,0.512998,0.345454,-0.734375,-0.46875,0.34375,0.515625,0.34375,81,98,22,33,22
83720,-0.732996,-0.462348,0.336892,0.512998,0.345454,-0.734375,-0.46875,0.34375,0.515625,0.34375,81,98,22,33,22
83728,-0.732996,-0.462348,0.336892,0.512998,0.345454,-0.734375,-0.46875,0.34375,0.515625,0.34375,81,98,22,33,22
90184,-0.732996,-0.462348,0.336892,0.512998,0.345454,-0.734375,-0.46875,0.34375,0.515625,0.34375,81,98,22,33,22
90192,-0.732996,-0.462348,0.336892,0.512998,0.345454,-0.734375,-0.46875,0.34375,0.515625,0.34375,81,98,22,33,22
90248,-0.732996,-0.462348,0.336892,0.512998,0.345454,-0.734375,-0.46875,0.34375,0.515625,0.34375,81,98,22,33,22
90256,-0.732996,-0.462348,0.336892,0.512998,0.345454,-0.734375,-0.46875,0.34375,0.515625,0.34375,81,98,22,33,22
90264,-0.732996,-0.462348,0.336892,0.512998,0.345454,-0.734375,-0.46875,0.34375,0.515625,0.34375,81,98,22,33,22
90312,-0.732996,-0.462348,0.336892,0.512998,0.345454,-0.734375,-0.46875,0.34375,0.515625,0.34375,81,98,22,33,22
90320,-0.732996,-0.462348,0.336892,0.512998,0.345454,-0.734375,-0.46875,0.34375,0.515625,0.34375,81,98,22,33,22
90376,-0.732996,-0.462348,0.336892,0.512998,0.345454,-0.734375,-0.46875,0.34375,0.515625,0.34375,81,98,22,33,22
90384,-0.732996,-0.462348,0.336892,0.512998,0.345454,-0.734375,-0.46875,0.34375,0.515625,0.34375,81,98,22,33,22
90440,-0.732996,-0.462348,0.336892,0.512998,0.345454,-0.734375,-0.46875,0.34375,0.515625,0.34375,81,98,22,33,22
90448,-0.732996,-0.462348,0.336892,0.512998,0.345454,-0.734375,-0.46875,0.34375,0.515625,0.34375,81,98,22,33,22
90504,-0.732996,-0.462348,0.336892,0.512998,0.345454,-0.734375,-0.46875,0.34375,0.515625,0.34375,81,98,22,33,22
90568,-0.732996,-0.462348,0.336892,0.512998,0.345454,-0.734375,-0.46875,0.34375,0.515625,0.34375,81,98,22,33,22
90576,-0.732996,-0.462348,0.336892,0.512998,0.345454,-0.734375,-0.46875,0.34375,0.515625,0.34375,81,98,22,33,22
90632,-0.732996,-0.462348,0.336892,0.512998,0.345454,-0.734375,-0.46875,0.34375,0.515625,0.34375,81,98,22,33,22
90640,-0.732996,-0.462348,0.336892,0.512998,0.345454,-0.734375,-0.46875,0.34375,0.515625,0.34375,81,98,22,33,22
90696,-0.732996,-0.462348,0.336892,0.512998,0.345454,-0.734375,-0.46875,0.34375,0.515625,0.34375,81,98,22,33,22
90760,-0.732996,-0.462348,0.336892,0.512998,0.345454,-0.734375,-0.46875,0.34375,0.515625,0.34375,81,98,22,33,22
90768,-0.732996,-0.462348,0.336892,0.512998,0.345454,-0.734375,-0.46875,0.34375,0.515625,0.34375,81,98,22,33,22
90824,-0.732996,-0.462348,0.336892,0.512998,0.345454,-0.734375,-0.46875,0.34375,0.515625,0.34375,81,98,22,33,22
90832,-0.732996,-0.462348,0.336892,0.512998,0.345454,-0.734375,-0.46875,0.34375,0.515625,0.34375,81,98,22,33,22
90888,-0.732996,-0.462348,0.336892,0.512998,0.345454,-0.734375,-0.46875,0.34375,0.515625,0.34375,81,98,22,33,22
90952,-0.732996,-0.462348,0.336892,0.512998,0.345454,-0.734375,-0.46875,0.34375,0.515625,0.34375,81,98,22,33,22
90960,-0.732996,-0.462348,0.336892,0.512998,0.345454,-0.734375,-0.46875,0.34375,0.515625,0.34375,81,98,22,33,22
91016,-0.732996,-0.462348,0.336892,0.512998,0.345454,-0.734375,-0.46875,0.34375,0.515625,0.34375,81,98,22,33,22
91024,-0.732996,-0.462348,0.336892,0.512998,0.345454,-0.734375,-0.46875,0.34375,0.515625,0.34375,81,98,22,33,22
91080,-0.732996,-0.462348,0.336892,0.512998,0.345454,-0.734375,-0.46875,0.34375,0.515625,0.34375,81,98,22,33,22
91088,-0.732996,-0.462348,0.336892,0.512998,0.345454,-0.734375,-0.46875,0.34375,0.515625,0.34375,81,98,22,33,22
91144,-0.732996,-0.462348,0.336892,0.512998,0.345454,-0.734375,-0.46875,0.34375,0.515625,0.34375,81,98,22,33,22
91208,-0.732996,-0.462348,0.336892,0.512998,0.345454,-0.734375,-0.46875,0.34375,0.515625,0.34375,81,98,22,33,22
91272,-0.732996,-0.462348,0.336892,0.512998,0.345454,-0.734375,-0.46875,0.34375,0.515625,0.34375,81,98,22,33,22
91336,-0.732996,-0.462348,0.336892,0.512998,0.345454,-0.734375,-0.46875,0.34375,0.515625,0.34375,81,98,22,33,22
91400,-0.732996,-0.462348,0.336892,0.512998,0.345454,-0.734375,-0.46875,0.34375,0.515625,0.34375,81,98,22,33,22
91528,-0.732996,-0.462348,0.336892,0.512998,0.345454,-0.734375,-0.46875,0.34375,0.515625,0.34375,81,98,22,33,22
91656,-0.732996,-0.462348,0.336892,0.512998,0.345454,-0.734375,-0.46875,0.34375,0.515625,0.34375,81,98,22,33,22
91664,-0.732996,-0.462348,0.336892,0.512998,0.345454,-0.734375,-0.46875,0.34375,0.515625,0.34375,81,98,22,33,22
91672,-0.732996,-0.462348,0.336892,0.512998,0.345454,-0.734375,-0.46875,0.34375,0.515625,0.34375,81,98,22,33,22
91784,-0.732996,-0.462348,0.336892,0.512998,0.345454,-0.734375,-0.46875,0.34375,0.515625,0.34375,81,98,22,33,22
91792,-0.732996,-0.462348,0.336892,0.512998,0.345454,-0.734375,-0.46875,0.34375,0.515625,0.34375,81,98,22,33,22
91912,-0.732996,-0.462348,0.336892,0.512998,0.345454,-0.734375,-0.46875,0.34375,0.515625,0.34375,81,98,22,33,22
98376,-0.732996,-0.462348,0.336892,0.512998,0.345454,-0.734375,-0.46875,0.34375,0.515625,0.34375,81,98,22,33,22
98384,-0.732996,-0.462348,0.336892,0.512998,0.345454,-0.734375,-0.46875,0.34375,0.515625,0.34375,81,98,22,33,22
98440,-0.732996,-0.462348,0.336892,0.512998,0.345454,-0.734375,-0.46875,0.34375,0.515625,0.34375,81,98,22,33,22
98448,-0.732996,-0.462348,0.336892,0.512998,0.345454,-0.734375,-0.46875,0.34375,0.515625,0.34375,81,98,22,33,22
98504,-0.732996,-0.462348,0.336892,0.512998,0.345454,-0.734375,-0.46875,0.34375,0.515625,0.34375,81,98,22,33,22
98512,-0.732996,-0.462348,0.336892,0.512998,0.345454,-0.734375,-0.46875,0.34375,0.515625,0.34375,81,98,22,33,22
98568,-0.732996,-0.462348,0.336892,0.512998,0.345454,-0.734375,-0.46875,0.34375,0.515625,0.34375,81,98,22,33,22
98576,-0.732996,-0.462348,0.336892,0.512998,0.345454,-0.734375,-0.46875,0.34375,0.515625,0.34375,81,98,22,33,22
98632,-0.732996,-0.462348,0.336892,0.512998,0.345454,-0.734375,-0.46875,0.34375,0.515625,0.34375,81,98,22,33,22
98696,-0.732996,-0.462348,0.336892,0.512998,0.345454,-0.734375,-0.46875,0.34375,0.515625,0.34375,81,98,22,33,22
98760,-0.732996,-0.462348,0.336892,0.512998,0.345454,-0.734375,-0.46875,0.34375,0.515625,0.34375,81,98,22,33,22
98768,-0.732996,-0.462348,0.336892,0.512998,0.345454,-0.734375,-0.46875,0.34375,0.515625,0.34375,81,98,22,33,22
98824,-0.732996,-0.462348,0.336892,0.512998,0.345454,-0.734375,-0.46875,0.34375,0.515625,0.34375,81,98,22,33,22
98888,-0.732996,-0.462348,0.336892,0.512998,0.345454,-0.734375,-0.46875,0.34375,0.515625,0.34375,81,98,22,33,22
99024,-0.732996,-0.462348,0.336892,0.512998,0.345454,-0.734375,-0.46875,0.34375,0.515625,0.34375,81,98,22,33,22
99080,-0.732996,-0.462348,0.336892,0.512998,0.345454,-0.734375,-0.46875,0.34375,0.515625,0.34375,81,98,22,33,22
99088,-0.732996,-0.462348,0.336892,0.512998,0.345454,-0.734375,-0.46875,0.34375,0.515625,0.34375,81,98,22,33,22
99144,-0.732996,-0.462348,0.336892,0.512998,0.345454,-0.734375,-0.46875,0.34375,0.515625,0.34375,81,98,22,33,22
99152,-0.732996,-0.462348,0.336892,0.512998,0.345454,-0.734375,-0.46875,0.34375,0.515625,0.34375,81,98,22,33,22
99208,-0.732996,-0.462348,0.336892,0.512998,0.345454,-0.734375,-0.46875,0.34375,0.515625,0.34375,81,98,22,33,22
99272,-0.732996,-0.462348,0.336892,0.512998,0.345454,-0.734375,-0.46875,0.34375,0.515625,0.34375,81,98,22,33,22
99280,-0.732996,-0.462348,0.336892,0.512998,0.345454,-0.734375,-0.46875,0.34375,0.515625,0.34375,81,98,22,33,22
99336,-0.732996,-0.462348,0.336892,0.512998,0.345454,-0.734375,-0.46875,0.34375,0.515625,0.34375,81,98,22,33,22
99400,-0.732996,-0.462348,0.336892,0.512998,0.345454,-0.734375,-0.46875,0.34375,0.515625,0.34375,81,98,22,33,22
99464,-0.732996,-0.462348,0.336892,0.512998,0.345454,-0.734375,-0.46875,0.34375,0.515625,0.34375,81,98,22,33,22
99528,-0.732996,-0.462348,0.336892,0.512998,0.345454,-0.734375,-0.46875,0.34375,0.515625,0.34375,81,98,22,33,22
99536,-0.732996,-0.462348,0.336892,0.512998,0.345454,-0.734375,-0.46875,0.34375,0.515625,0.34375,81,98,22,33,22
99592,-0.732996,-0.462348,0.336892,0.512998,0.345454,-0.734375,-0.46875,0.34375,0.515625,0.34375,81,98,22,33,22
99600,-0.732996,-0.462348,0.336892,0.512998,0.345454,-0.734375,-0.46875,0.34375,0.515625,0.34375,81,98,22,33,22
99720,-0.732996,-0.462348,0.336892,0.512998,0.345454,-0.734375,-0.46875,0.34375,0.515625,0.34375,81,98,22,33,22
99848,-0.732996,-0.462348,0.336892,0.512998,0.345454,-0.734375,-0.46875,0.34375,0.515625,0.34375,81,98,22,33,22
99856,-0.732996,-0.462348,0.336892,0.512998,0.345454,-0.734375,-0.46875,0.34375,0.515625,0.34375,81,98,22,33,22
99976,-0.732996,-0.462348,0.336892,0.512998,0.345454,-0.734375,-0.46875,0.34375,0.515625,0.34375,81,98,22,33,22
99984,-0.732996,-0.462348,0.336892,0.512998,0.345454,-0.734375,-0.46875,0.34375,0.515625,0.34375,81,98,22,33,22
99992,-0.732996,-0.462348,0.336892,0.512998,0.345454,-0.734375,-0.46875,0.34375,0.515625,0.34375,81,98,22,33,22
100104,-0.732996,-0.462348,0.336892,0.512998,0.345454,-0.734375,-0.46875,0.34375,0.515625,0.34375,81,98,22,33,22
106568,-0.732996,-0.462348,0.336892,0.512998,0.345454,-0.734375,-0.46875,0.34375,0.515625,0.34375,81,98,22,33,22
106576,-0.732996,-0.462348,0.336892,0.512998,0.345454,-0.734375,-0.46875,0.34375,0.515625,0.34375,81,98,22,33,22
106632,-0.732996,-0.462348,0.336892,0.512998,0.345454,-0.734375,-0.46875,0.34375,0.515625,0.34375,81,98,22,33,22
106640,-0.732996,-0.462348,0.336892,0.512998,0.345454,-0.734375,-0.46875,0.34375,0.515625,0.34375,81,98,22,33,22
106696,-0.732996,-0.462348,0.336892,0.512998,0.345454,-0.734375,-0.46875,0.34375,0.515625,0.34375,81,98,22,33,22
106704,-0.732996,-0.462348,0.336892,0.512998,0.345454,-0.734375,-0.46875,0.34375,0.515625,0.34375,81,98,22,33,22
106760,-0.732996,-0.462348,0.336892,0.512998,0.345454,-0.734375,-0.46875,0.34375,0.515625,0.34375,81,98,22,33,22
106768,-0.732996,-0.462348,0.336892,0.512998,0.345454,-0.734375,-0.46875,0.34375,0.515625,0.34375,81,98,22,33,22
106824,-0.732996,-0.462348,0.336892,0.512998,0.345454,-0.734375,-0.46875,0.34375,0.515625,0.34375,81,98,22,33,22
106832,-0.732996,-0.462348,0.336892,0.512998,0.345454,-0.734375,-0.46875,0.34375,0.515625,0.34375,81,98,22,33,22
106888,-0.732996,-0.462348,0.336892,0.512998,0.345454,-0.734375,-0.46875,0.34375,0.515625,0.34375,81,98,22,33,22
106952,-0.732996,-0.462348,0.336892,0.512998,0.345454,-0.734375,-0.46875,0.34375,0.515625,0.34375,81,98,22,33,22
106960,-0.732996,-0.462348,0.336892,0.512998,0.345454,-0.734375,-0.46875,0.34375,0.515625,0.34375,81,98,22,33,22
107016,-0.732996,-0.462348,0.336892,0.512998,0.345454,-0.734375,-0.46875,0.34375,0.515625,0.34375,81,98,22,33,22
107024,-0.732996,-0.462348,0.336892,0.512998,0.345454,-0.734375,-0.46875,0.34375,0.515625,0.34375,81,98,22,33,22
107080,-0.732996,-0.462348,0.336892,0.512998,0.345454,-0.734375,-0.46875,0.34375,0.515625,0.34375,81,98,22,33,22
107088,-0.732996,-0.462348,0.336892,0.512998,0.345454,-0.734375,-0.46875,0.34375,0.515625,0.34375,81,98,22,33,22
107144,-0.732996,-0.462348,0.336892,0.512998,0.345454,-0.734375,-0.46875,0.34375,0.515625,0.34375,81,98,22,33,22
107152,-0.732996,-0.462348,0.336892,0.512998,0.345454,-0.734375,-0.46875,0.34375,0.515625,0.34375,81,98,22,33,22
107208,-0.732996,-0.462348,0.336892,0.512998,0.345454,-0.734375,-0.46875,0.34375,0.515625,0.34375,81,98,22,33,22
107272,-0.732996,-0.462348,0.336892,0.512998,0.345454,-0.734375,-0.46875,0.34375,0.515625,0.34375,81,98,22,33,22
107280,-0.732996,-0.462348,0.336892,0.512998,0.345454,-0.734375,-0.46875,0.34375,0.515625,0.34375,81,98,22,33,22
107336,-0.732996,-0.462348,0.336892,0.512998,0.345454,-0.734375,-0.46875,0.34375,0.515625,0.34375,81,98,22,33,22
107400,-0.732996,-0.462348,0.336892,0.512998,0.345454,-0.734375,-0.46875,0.34375,0.515625,0.34375,81,98,22,33,22
107408,-0.732996,-0.462348,0.336892,0.512998,0.345454,-0.734375,-0.46875,0.34375,0.515625,0.34375,81,98,22,33,22
107464,-0.732996,-0.462348,0.336892,0.512998,0.345454,-0.734375,-0.46875,0.34375,0.515625,0.34375,81,98,22,33,22
107528,-0.732996,-0.462348,0.336892,0.512998,0.345454,-0.734375,-0.46875,0.34375,0.515625,0.34375,81,98,22,33,22
107536,-0.732996,-0.462348,0.336892,0.512998,0.345454,-0.734375,-0.46875,0.34375,0.515625,0.34375,81,98,22,33,22
107592,-0.732996,-0.462348,0.336892,0.512998,0.345454,-0.734375,-0.46875,0.34375,0.515625,0.34375,81,98,22,33,22
107656,-0.732996,-0.462348,0.336892,0.512998,0.345454,-0.734375,-0.46875,0.34375,0.515625,0.34375,81,98,22,33,22
107720,-0.732996,-0.462348,0.336892,0.512998,0.345454,-0.734375,-0.46875,0.34375,0.515625,0.34375,81,98,22,33,22
107784,-0.732996,-0.462348,0.336892,0.512998,0.345454,-0.734375,-0.46875,0.34375,0.515625,0.34375,81,98,22,33,22
107912,-0.732996,-0.462348,0.336892,0.512998,0.345454,-0.734375,-0.46875,0.34375,0.515625,0.34375,81,98,22,33,22
107920,-0.732996,-0.462348,0.336892,0.512998,0.345454,-0.734375,-0.46875,0.34375,0.515625,0.34375,81,98,22,33,22
108040,-0.732996,-0.462348,0.336892,0.512998,0.345454,-0.734375,-0.46875,0.34375,0.515625,0.34375,81,98,22,33,22
108048,-0.732996,-0.462348,0.336892,0.512998,0.345454,-0.734375,-0.46875,0.34375,0.515625,0.34375,81,98,22,33,22
108056,-0.732996,-0.462348,0.336892,0.512998,0.345454,-0.734375,-0.46875,0.34375,0.515625,0.34375,81,98,22,33,22
108168,-0.732996,-0.462348,0.336892,0.512998,0.345454,-0.734375,-0.46875,0.34375,0.515625,0.34375,81,98,22,33,22
108176,-0.732996,-0.462348,0.336892,0.512998,0.345454,-0.734375,-0.46875,0.34375,0.515625,0.34375,81,98,22,33,22
108296,-0.732996,-0.462348,0.336892,0.512998,0.345454,-0.734375,-0.46875,0.34375,0.515625,0.34375,81,98,22,33,22
114760,-0.732996,-0.462348,0.336892,0.512998,0.345454,-0.734375,-0.46875,0.34375,0.515625,0.34375,81,98,22,33,22
114768,-0.732996,-0.462348,0.336892,0.512998,0.345454,-0.734375,-0.46875,0.34375,0.515625,0.34375,81,98,22,33,22
114776,-0.732996,-0.462348,0.336892,0.512998,0.345454,-0.734375,-0.46875,0.34375,0.515625,0.34375,81,98,22,33,22
114824,-0.732996,-0.462348,0.336892,0.512998,0.345454,-0.734375,-0.46875,0.34375,0.515625,0.34375,81,98,22,33,22
114832,-0.732996,-0.462348,0.336892,0.512998,0.345454,-0.734375,-0.46875,0.34375,0.515625,0.34375,81,98,22,33,22
114888,-0.732996,-0.462348,0.336892,0.512998,0.345454,-0.734375,-0.46875,0.34375,0.515625,0.34375,81,98,22,33,22
114896,-0.732996,-0.462348,0.336892,0.512998,0.345454,-0.734375,-0.46875,0.34375,0.515625,0.34375,81,98,22,33,22
114952,-0.732996,-0.462348,0.336892,0.512998,0.345454,-0.734375,-0.46875,0.34375,0.515625,0.34375,81,98,22,33,22
114960,-0.732996,-0.462348,0.336892,0.512998,0.345454,-0.734375,-0.46875,0.34375,0.515625,0.34375,81,98,22,33,22
115016,-0.732996,-0.462348,0.336892,0.512998,0.345454,-0.734375,-0.46875,0.34375,0.515625,0.34375,81,98,22,33,22
115080,-0.732996,-0.462348,0.336892,0.512998,0.345454,-0.734375,-0.46875,0.34375,0.515625,0.34375,81,98,22,33,22
115088,-0.732996,-0.462348,0.336892,0.512998,0.345454,-0.734375,-0.46875,0.34375,0.515625,0.34375,81,98,22,33,22
115144,-0.732996,-0.462348,0.336892,0.512998,0.345454,-0.734375,-0.46875,0.34375,0.515625,0.34375,81,98,22,33,22
115152,-0.732996,-0.462348,0.336892,0.512998,0.345454,-0.734375,-0.46875,0.34375,0.515625,0.34375,81,98,22,33,22
115208,-0.732996,-0.462348,0.336892,0.512998,0.345454,-0.734375,-0.46875,0.34375,0.515625,0.34375,81,98,22,33,22
115216,-0.732996,-0.462348,0.336892,0.512998,0.345454,-0.734375,-0.46875,0.34375,0.515625,0.34375,81,98,22,33,22
115224,-0.732996,-0.462348,0.336892,0.512998,0.345454,-0.734375,-0.46875,0.34375,0.515625,0.34375,81,98,22,33,22
115272,-0.732996,-0.462348,0.336892,0.512998,0.345454,-0.734375,-0.46875,0.34375,0.515625,0.34375,81,98,22,33,22
115280,-0.732996,-0.462348,0.336892,0.512998,0.345454,-0.734375,-0.46875,0.34375,0.515625,0.34375,81,98,22,33,22
115336,-0.732996,-0.462348,0.336892,0.512998,0.345454,-0.734375,-0.46875,0.34375,0.515625,0.34375,81,98,22,33,22
115400,-0.732996,-0.462348,0.336892,0.512998,0.345454,-0.734375,-0.46875,0.34375,0.515625,0.34375,81,98,22,33,22
115408,-0.732996,-0.462348,0.336892,0.512998,0.345454,-0.734375,-0.46875,0.34375,0.515625,0.34375,81,98,22,33,22
115464,-0.732996,-0.462348,0.336892,0.512998,0.345454,-0.734375,-0.46875,0.34375,0.515625,0.34375,81,98,22,33,22
115528,-0.732996,-0.462348,0.336892,0.512998,0.345454,-0.734375,-0.46875,0.34375,0.515625,0.34375,81,98,22,33,22
115536,-0.732996,-0.462348,0.336892,0.512998,0.345454,-0.734375,-0.46875,0.34375,0.515625,0.34375,81,98,22,33,22
115592,-0.732996,-0.462348,0.336892,0.512998,0.345454,-0.734375,-0.46875,0.34375,0.515625,0.34375,81,98,22,33,22
115600,-0.732996,-0.462348,0.336892,0.512998,0.345454,-0.734375,-0.46875,0.34375,0.515625,0.34375,81,98,22,33,22
115656,-0.732996,-0.462348,0.336892,0.512998,0.345454,-0.734375,-0.46875,0.34375,0.515625,0.34375,81,98,22,33,22
115720,-0.732996,-0.462348,0.336892,0.512998,0.345454,-0.734375,-0.46875,0.34375,0.515625,0.34375,81,98,22,33,22
115784,-0.732996,-0.462348,0.336892,0.512998,0.345454,-0.734375,-0.46875,0.34375,0.515625,0.34375,81,98,22,33,22
115848,-0.732996,-0.462348,0.336892,0.512998,0.345454,-0.734375,-0.46875,0.34375,0.515625,0.34375,81,98,22,33,22
115912,-0.732996,-0.462348,0.336892,0.512998,0.345454,-0.734375,-0.46875,0.34375,0.515625,0.34375,81,98,22,33,22
115920,-0.732996,-0.462348,0.336892,0.512998,0.345454,-0.734375,-0.46875,0.34375,0.515625,0.34375,81,98,22,33,22
115976,-0.732996,-0.462348,0.336892,0.512998,0.345454,-0.734375,-0.46875,0.34375,0.515625,0.34375,81,98,22,33,22
115984,-0.732996,-0.462348,0.336892,0.512998,0.345454,-0.734375,-0.46875,0.34375,0.515625,0.34375,81,98,22,33,22
116104,-0.732996,-0.462348,0.336892,0.512998,0.345454,-0.734375,-0.46875,0.34375,0.515625,0.34375,81,98,22,33,22
116232,-0.732996,-0.462348,0.336892,0.512998,0.345454,-0.734375,-0.46875,0.34375,0.515625,0.34375,81,98,22,33,22
116360,-0.732996,-0.462348,0.336892,0.512998,0.345454,-0.734375,-0.46875,0.34375,0.515625,0.34375,81,98,22,33,22
116368,-0.732996,-0.462348,0.336892,0.512998,0.345454,-0.734375,-0.46875,0.34375,0.515625,0.34375,81,98,22,33,22
116488,-0.732996,-0.462348,0.336892,0.512998,0.345454,-0.734375,-0.46875,0.34375,0.515625,0.34375,81,98,22,33,22
116496,-0.732996,-0.462348,0.336892,0.512998,0.345454,-0.734375,-0.46875,0.34375,0.515625,0.34375,81,98,22,33,22
122952,-0.732996,-0.462348,0.336892,0.512998,0.345454,-0.734375,-0.46875,0.34375,0.515625,0.34375,81,98,22,33,22
122960,-0.732996,-0.462348,0.336892,0.512998,0.345454,-0.734375,-0.46875,0.34375,0.515625,0.34375,81,98,22,33,22
123016,-0.732996,-0.462348,0.336892,0.512998,0.345454,-0.734375,-0.46875,0.34375,0.515625,0.34375,81,98,22,33,22
123024,-0.732996,-0.462348,0.336892,0.512998,0.345454,-0.734375,-0.46875,0.34375,0.515625,0.34375,81,98,22,33,22
123080,-0.732996,-0.462348,0.336892,0.512998,0.345454,-0.734375,-0.46875,0.34375,0.515625,0.34375,81,98,22,33,22
123088,-0.732996,-0.462348,0.336892,0.512998,0.345454,-0.734375,-0.46875,0.34375,0.515625,0.34375,81,98,22,33,22
123144,-0.732996,-0.462348,0.336892,0.512998,0.345454,-0.734375,-0.46875,0.34375,0.515625,0.34375,81,98,22,33,22
123152,-0.732996,-0.462348,0.336892,0.512998,0.345454,-0.734375,-0.46875,0.34375,0.515625,0.34375,81,98,22,33,22
123160,-0.732996,-0.462348,0.336892,0.512998,0.345454,-0.734375,-0.46875,0.34375,0.515625,0.34375,81,98,22,33,22
123208,-0.732996,-0.462348,0.336892,0.512998,0.345454,-0.734375,-0.46875,0.34375,0.515625,0.34375,81,98,22,33,22
123216,-0.732996,-0.462348,0.336892,0.512998,0.345454,-0.734375,-0.46875,0.34375,0.515625,0.34375,81,98,22,33,22
123224,-0.732996,-0.462348,0.336892,0.512998,0.345454,-0.734375,-0.46875,0.34375,0.515625,0.34375,81,98,22,33,22
123272,-0.732996,-0.462348,0.336892,0.512998,0.345454,-0.734375,-0.46875,0.34375,0.515625,0.34375,81,98,22,33,22
123280,-0.732996,-0.462348,0.336892,0.512998,0.345454,-0.734375,-0.46875,0.34375,0.515625,0.34375,81,98,22,33,22
123336,-0.732996,-0.462348,0.336892,0.512998,0.345454,-0.734375,-0.46875,0.34375,0.515625,0.34375,81,98,22,33,22
123344,-0.732996,-0.462348,0.336892,0.512998,0.345454,-0.734375,-0.46875,0.34375,0.515625,0.34375,81,98,22,33,22
123400,-0.732996,-0.462348,0.336892,0.512998,0.345454,-0.734375,-0.46875,0.34375,0.515625,0.34375,81,98,22,33,22
123464,-0.732996,-0.462348,0.336892,0.512998,0.345454,-0.734375,-0.46875,0.34375,0.515625,0.34375,81,98,22,33,22
123528,-0.732996,-0.462348,0.336892,0.512998,0.345454,-0.734375,-0.46875,0.34375,0.515625,0.34375,81,98,22,33,22
123536,-0.732996,-0.462348,0.336892,0.512998,0.345454,-0.734375,-0.46875,0.34375,0.515625,0.34375,81,98,22,33,22
123592,-0.732996,-0.462348,0.336892,0.512998,0.345454,-0.734375,-0.46875,0.34375,0.515625,0.34375,81,98,22,33,22
123656,-0.732996,-0.462348,0.336892,0.512998,0.345454,-0.734375,-0.46875,0.34375,0.515625,0.34375,81,98,22,33,22
123664,-0.732996,-0.462348,0.336892,0.512998,0.345454,-0.734375,-0.46875,0.34375,0.515625,0.34375,81,98,22,33,22
123856,-0.732996,-0.462348,0.336892,0.512998,0.345454,-0.734375,-0.46875,0.34375,0.515625,0.34375,81,98,22,33,22
123912,-0.732996,-0.462348,0.336892,0.512998,0.345454,-0.734375,-0.46875,0.34375,0.515625,0.34375,81,98,22,33,22
123920,-0.732996,-0.462348,0.336892,0.512998,0.345454,-0.734375,-0.46875,0.34375,0.515625,0.34375,81,98,22,33,22
123976,-0.732996,-0.462348,0.336892,0.512998,0.345454,-0.734375,-0.46875,0.34375,0.515625,0.34375,81,98,22,33,22
124040,-0.732996,-0.462348,0.336892,0.512998,0.345454,-0.734375,-0.46875,0.34375,0.515625,0.34375,81,98,22,33,22
124104,-0.732996,-0.462348,0.336892,0.512998,0.345454,-0.734375,-0.46875,0.34375,0.515625,0.34375,81,98,22,33,22
124168,-0.732996,-0.462348,0.336892,0.512998,0.345454,-0.734375,-0.46875,0.34375,0.515625,0.34375,81,98,22,33,22
124296,-0.732996,-0.462348,0.336892,0.512998,0.345454,-0.734375,-0.46875,0.34375,0.515625,0.34375,81,98,22,33,22
124424,-0.732996,-0.462348,0.336892,0.512998,0.345454,-0.734375,-0.46875,0.34375,0.515625,0.34375,81,98,22,33,22
124552,-0.732996,-0.462348,0.336892,0.512998,0.345454,-0.734375,-0.46875,0.34375,0.515625,0.34375,81,98,22,33,22
124560,-0.732996,-0.462348,0.336892,0.512998,0.345454,-0.734375,-0.46875,0.34375,0.515625,0.34375,81,98,22,33,22
124680,-0.732996,-0.462348,0.336892,0.512998,0.345454,-0.734375,-0.46875,0.34375,0.515625,0.34375,81,98,22,33,22
124688,-0.732996,-0.462348,0.336892,0.512998,0.345454,-0.734375,-0.46875,0.34375,0.515625,0.34375,81,98,22,33,22
131144,-0.732996,-0.462348,0.336892,0.512998,0.345454,-0.734375,-0.46875,0.34375,0.515625,0.34375,81,98,22,33,22
131152,-0.732996,-0.462348,0.336892,0.512998,0.345454,-0.734375,-0.46875,0.34375,0.515625,0.34375,81,98,22,33,22
131208,-0.732996,-0.462348,0.336892,0.512998,0.345454,-0.734375,-0.46875,0.34375,0.515625,0.34375,81,98,22,33,22
131216,-0.732996,-0.462348,0.336892,0.512998,0.345454,-0.734375,-0.46875,0.34375,0.515625,0.34375,81,98,22,33,22
131272,-0.732996,-0.462348,0.336892,0.512998,0.345454,-0.734375,-0.46875,0.34375,0.515625,0.34375,81,98,22,33,22
131280,-0.732996,-0.462348,0.336892,0.512998,0.345454,-0.734375,-0.46875,0.34375,0.515625,0.34375,81,98,22,33,22
131336,-0.732996,-0.462348,0.336892,0.512998,0.345454,-0.734375,-0.46875,0.34375,0.515625,0.34375,81,98,22,33,22
131344,-0.732996,-0.462348,0.336892,0.512998,0.345454,-0.734375,-0.46875,0.34375,0.515625,0.34375,81,98,22,33,22
131400,-0.732996,-0.462348,0.336892,0.512998,0.345454,-0.734375,-0.46875,0.34375,0.515625,0.34375,81,98,22,33,22
131408,-0.732996,-0.462348,0.336892,0.512998,0.345454,-0.734375,-0.46875,0.34375,0.515625,0.34375,81,98,22,33,22
131464,-0.732996,-0.462348,0.336892,0.512998,0.345454,-0.734375,-0.46875,0.34375,0.515625,0.34375,81,98,22,33,22
131472,-0.732996,-0.462348,0.336892,0.512998,0.345454,-0.734375,-0.46875,0.34375,0.515625,0.34375,81,98,22,33,22
131528,-0.732996,-0.462348,0.336892,0.512998,0.345454,-0.734375,-0.46875,0.34375,0.515625,0.34375,81,98,22,33,22
131592,-0.732996,-0.462348,0.336892,0.512998,0.345454,-0.734375,-0.46875,0.34375,0.515625,0.34375,81,98,22,33,22
131600,-0.732996,-0.462348,0.336892,0.512998,0.345454,-0.734375,-0.46875,0.34375,0.515625,0.34375,81,98,22,33,22
131656,-0.732996,-0.462348,0.336892,0.512998,0.345454,-0.734375,-0.46875,0.34375,0.515625,0.34375,81,98,22,33,22
131664,-0.732996,-0.462348,0.336892,0.512998,0.345454,-0.734375,-0.46875,0.34375,0.515625,0.34375,81,98,22,33,22
131720,-0.732996,-0.462348,0.336892,0.512998,0.345454,-0.734375,-0.46875,0.34375,0.515625,0.34375,81,98,22,33,22
131784,-0.732996,-0.462348,0.336892,0.512998,0.345454,-0.734375,-0.46875,0.34375,0.515625,0.34375,81,98,22,33,22
131792,-0.732996,-0.462348,0.336892,0.512998,0.345454,-0.734375,-0.46875,0.34375,0.515625,0.34375,81,98,22,33,22
131848,-0.732996,-0.462348,0.336892,0.512998,0.345454,-0.734375,-0.46875,0.34375,0.515625,0.34375,81,98,22,33,22
131856,-0.732996,-0.462348,0.336892,0.512998,0.345454,-0.734375,-0.46875,0.34375,0.515625,0.34375,81,98,22,33,22
131912,-0.732996,-0.462348,0.336892,0.512998,0.345454,-0.734375,-0.46875,0.34375,0.515625,0.34375,81,98,22,33,22
131920,-0.732996,-0.462348,0.336892,0.512998,0.345454,-0.734375,-0.46875,0.34375,0.515625,0.34375,81,98,22,33,22
131976,-0.732996,-0.462348,0.336892,0.512998,0.345454,-0.734375,-0.46875,0.34375,0.515625,0.34375,81,98,22,33,22
132040,-0.732996,-0.462348,0.336892,0.512998,0.345454,-0.734375,-0.46875,0.34375,0.515625,0.34375,81,98,22,33,22
132048,-0.732996,-0.462348,0.336892,0.512998,0.345454,-0.734375,-0.46875,0.34375,0.515625,0.34375,81,98,22,33,22
132104,-0.732996,-0.462348,0.336892,0.512998,0.345454,-0.734375,-0.46875,0.34375,0.515625,0.34375,81,98,22,33,22
132168,-0.732996,-0.462348,0.336892,0.512998,0.345454,-0.734375,-0.46875,0.34375,0.515625,0.34375,81,98,22,33,22
132232,-0.732996,-0.462348,0.336892,0.512998,0.345454,-0.734375,-0.46875,0.34375,0.515625,0.34375,81,98,22,33,22
132296,-0.732996,-0.462348,0.336892,0.512998,0.345454,-0.734375,-0.46875,0.34375,0.515625,0.34375,81,98,22,33,22
132360,-0.732996,-0.462348,0.336892,0.512998,0.345454,-0.734375,-0.46875,0.34375,0.515625,0.34375,81,98,22,33,22
132488,-0.732996,-0.462348,0.336892,0.512998,0.345454,-0.734375,-0.46875,0.34375,0.515625,0.34375,81,98,22,33,22
132496,-0.732996,-0.462348,0.336892,0.512998,0.345454,-0.734375,-0.46875,0.34375,0.515625,0.34375,81,98,22,33,22
132504,-0.732996,-0.462348,0.336892,0.512998,0.345454,-0.734375,-0.46875,0.34375,0.515625,0.34375,81,98,22,33,22
132616,-0.732996,-0.462348,0.336892,0.512998,0.345454,-0.734375,-0.46875,0.34375,0.515625,0.34375,81,98,22,33,22
132744,-0.732996,-0.462348,0.336892,0.512998,0.345454,-0.734375,-0.46875,0.34375,0.515625,0.34375,81,98,22,33,22
132872,-0.732996,-0.462348,0.336892,0.512998,0.345454,-0.734375,-0.46875,0.34375,0.515625,0.34375,81,98,22,33,22
132888,-0.732996,-0.462348,0.336892,0.512998,0.345454,-0.734375,-0.46875,0.34375,0.515625,0.34375,81,98,22,33,22
139336,-0.732996,-0.462348,0.336892,0.512998,0.345454,-0.734375,-0.46875,0.34375,0.515625,0.34375,81,98,22,33,22
139344,-0.732996,-0.462348,0.336892,0.512998,0.345454,-0.734375,-0.46875,0.34375,0.515625,0.34375,81,98,22,33,22
139400,-0.732996,-0.462348,0.336892,0.512998,0.345454,-0.734375,-0.46875,0.34375,0.515625,0.34375,81,98,22,33,22
139408,-0.732996,-0.462348,0.336892,0.512998,0.345454,-0.734375,-0.46875,0.34375,0.515625,0.34375,81,98,22,33,22
139464,-0.732996,-0.462348,0.336892,0.512998,0.345454,-0.734375,-0.46875,0.34375,0.515625,0.34375,81,98,22,33,22
139472,-0.732996,-0.462348,0.336892,0.512998,0.345454,-0.734375,-0.46875,0.34375,0.515625,0.34375,81,98,22,33,22
139528,-0.732996,-0.462348,0.336892,0.512998,0.345454,-0.734375,-0.46875,0.34375,0.515625,0.34375,81,98,22,33,22
139536,-0.732996,-0.462348,0.336892,0.512998,0.345454,-0.734375,-0.46875,0.34375,0.515625,0.34375,81,98,22,33,22
139592,-0.732996,-0.462348,0.336892,0.512998,0.345454,-0.734375,-0.46875,0.34375,0.515625,0.34375,81,98,22,33,22
139600,-0.732996,-0.462348,0.336892,0.512998,0.345454,-0.734375,-0.46875,0.34375,0.515625,0.34375,81,98,22,33,22
139656,-0.732996,-0.462348,0.336892,0.512998,0.345454,-0.734375,-0.46875,0.34375,0.515625,0.34375,81,98,22,33,22
139720,-0.732996,-0.462348,0.336892,0.512998,0.345454,-0.734375,-0.46875,0.34375,0.515625,0.34375,81,98,22,33,22
139728,-0.732996,-0.462348,0.336892,0.512998,0.345454,-0.734375,-0.46875,0.34375,0.515625,0.34375,81,98,22,33,22
139784,-0.732996,-0.462348,0.336892,0.512998,0.345454,-0.734375,-0.46875,0.34375,0.515625,0.34375,81,98,22,33,22
139848,-0.732996,-0.462348,0.336892,0.512998,0.345454,-0.734375,-0.46875,0.34375,0.515625,0.34375,81,98,22,33,22
139856,-0.732996,-0.462348,0.336892,0.512998,0.345454,-0.734375,-0.46875,0.34375,0.515625,0.34375,81,98,22,33,22
139912,-0.732996,-0.462348,0.336892,0.512998,0.345454,-0.734375,-0.46875,0.34375,0.515625,0.34375,81,98,22,33,22
139920,-0.732996,-0.462348,0.336892,0.512998,0.345454,-0.734375,-0.46875,0.34375,0.515625,0.34375,81,98,22,33,22
139976,-0.732996,-0.462348,0.336892,0.512998,0.345454,-0.734375,-0.46875,0.34375,0.515625,0.34375,81,98,22,33,22
139984,-0.732996,-0.462348,0.336892,0.512998,0.345454,-0.734375,-0.46875,0.34375,0.515625,0.34375,81,98,22,33,22
140040,-0.732996,-0.462348,0.336892,0.512998,0.345454,-0.734375,-0.46875,0.34375,0.515625,0.34375,81,98,22,33,22
140048,-0.732996,-0.462348,0.336892,0.512998,0.345454,-0.734375,-0.46875,0.34375,0.515625,0.34375,81,98,22,33,22
140104,-0.732996,-0.462348,0.336892,0.512998,0.345454,-0.734375,-0.46875,0.34375,0.515625,0.34375,81,98,22,33,22
140112,-0.732996,-0.462348,0.336892,0.512998,0.345454,-0.734375,-0.46875,0.34375,0.515625,0.34375,81,98,22,33,22
140168,-0.732996,-0.462348,0.336892,0.512998,0.345454,-0.734375,-0.46875,0.34375,0.515625,0.34375,81,98,22,33,22
140232,-0.732996,-0.462348,0.336892,0.512998,0.345454,-0.734375,-0.46875,0.34375,0.515625,0.34375,81,98,22,33,22
140296,-0.732996,-0.462348,0.336892,0.512998,0.345454,-0.734375,-0.46875,0.34375,0.515625,0.34375,81,98,22,33,22
140304,-0.732996,-0.462348,0.336892,0.512998,0.345454,-0.734375,-0.46875,0.34375,0.515625,0.34375,81,98,22,33,22
140360,-0.732996,-0.462348,0.336892,0.512998,0.345454,-0.734375,-0.46875,0.34375,0.515625,0.34375,81,98,22,33,22
140368,-0.732996,-0.462348,0.336892,0.512998,0.345454,-0.734375,-0.46875,0.34375,0.515625,0.34375,81,98,22,33,22
140424,-0.732996,-0.462348,0.336892,0.512998,0.345454,-0.734375,-0.46875,0.34375,0.515625,0.34375,81,98,22,33,22
140432,-0.732996,-0.462348,0.336892,0.512998,0.345454,-0.734375,-0.46875,0.34375,0.515625,0.34375,81,98,22,33,22
140488,-0.732996,-0.462348,0.336892,0.512998,0.345454,-0.734375,-0.46875,0.34375,0.515625,0.34375,81,98,22,33,22
140552,-0.732996,-0.462348,0.336892,0.512998,0.345454,-0.734375,-0.46875,0.34375,0.515625,0.34375,81,98,22,33,22
140680,-0.732996,-0.462348,0.336892,0.512998,0.345454,-0.734375,-0.46875,0.34375,0.515625,0.34375,81,98,22,33,22
140688,-0.732996,-0.462348,0.336892,0.512998,0.345454,-0.734375,-0.46875,0.34375,0.515625,0.34375,81,98,22,33,22
140808,-0.732996,-0.462348,0.336892,0.512998,0.345454,-0.734375,-0.46875,0.34375,0.515625,0.34375,81,98,22,33,22
140816,-0.732996,-0.462348,0.336892,0.512998,0.345454,-0.734375,-0.46875,0.34375,0.515625,0.34375,81,98,22,33,22
140936,-0.732996,-0.462348,0.336892,0.512998,0.345454,-0.734375,-0.46875,0.34375,0.515625,0.34375,81,98,22,33,22
141064,-0.732996,-0.462348,0.336892,0.512998,0.345454,-0.734375,-0.46875,0.34375,0.515625,0.34375,81,98,22,33,22
141072,-0.732996,-0.462348,0.336892,0.512998,0.345454,-0.734375,-0.46875,0.34375,0.515625,0.34375,81,98,22,33,22
147528,-0.732996,-0.462348,0.336892,0.512998,0.345454,-0.734375,-0.46875,0.34375,0.515625,0.34375,81,98,22,33,22
147536,-0.732996,-0.462348,0.336892,0.512998,0.345454,-0.734375,-0.46875,0.34375,0.515625,0.34375,81,98,22,33,22
147592,-0.732996,-0.462348,0.336892,0.512998,0.345454,-0.734375,-0.46875,0.34375,0.515625,0.34375,81,98,22,33,22
147600,-0.732996,-0.462348,0.336892,0.512998,0.345454,-0.734375,-0.46875,0.34375,0.515625,0.34375,81,98,22,33,22
147656,-0.732996,-0.462348,0.336892,0.512998,0.345454,-0.734375,-0.46875,0.34375,0.515625,0.34375,81,98,22,33,22
147664,-0.732996,-0.462348,0.336892,0.512998,0.345454,-0.734375,-0.46875,0.34375,0.515625,0.34375,81,98,22,33,22
147672,-0.732996,-0.462348,0.336892,0.512998,0.345454,-0.734375,-0.46875,0.34375,0.515625,0.34375,81,98,22,33,22
147720,-0.732996,-0.462348,0.336892,0.512998,0.345454,-0.734375,-0.46875,0.34375,0.515625,0.34375,81,98,22,33,22
147728,-0.732996,-0.462348,0.336892,0.512998,0.345454,-0.734375,-0.46875,0.34375,0.515625,0.34375,81,98,22,33,22
147784,-0.732996,-0.462348,0.336892,0.512998,0.345454,-0.734375,-0.46875,0.34375,0.515625,0.34375,81,98,22,33,22
147792,-0.732996,-0.462348,0.336892,0.512998,0.345454,-0.734375,-0.46875,0.34375,0.515625,0.34375,81,98,22,33,22
147848,-0.732996,-0.462348,0.336892,0.512998,0.345454,-0.734375,-0.46875,0.34375,0.515625,0.34375,81,98,22,33,22
147856,-0.732996,-0.462348,0.336892,0.512998,0.345454,-0.734375,-0.46875,0.34375,0.515625,0.34375,81,98,22,33,22
147912,-0.732996,-0.462348,0.336892,0.512998,0.345454,-0.734375,-0.46875,0.34375,0.515625,0.34375,81,98,22,33,22
147976,-0.732996,-0.462348,0.336892,0.512998,0.345454,-0.734375,-0.46875,0.34375,0.515625,0.34375,81,98,22,33,22
147984,-0.732996,-0.462348,0.336892,0.512998,0.345454,-0.734375,-0.46875,0.34375,0.515625,0.34375,81,98,22,33,22
148040,-0.732996,-0.462348,0.336892,0.512998,0.345454,-0.734375,-0.46875,0.34375,0.515625,0.34375,81,98,22,33,22
148104,-0.732996,-0.462348,0.336892,0.512998,0.345454,-0.734375,-0.46875,0.34375,0.515625,0.34375,81,98,22,33,22
148112,-0.732996,-0.462348,0.336892,0.512998,0.345454,-0.734375,-0.46875,0.34375,0.515625,0.34375,81,98,22,33,22
148168,-0.732996,-0.462348,0.336892,0.512998,0.345454,-0.734375,-0.46875,0.34375,0.515625,0.34375,81,98,22,33,22
148176,-0.732996,-0.462348,0.336892,0.512998,0.345454,-0.734375,-0.46875,0.34375,0.515625,0.34375,81,98,22,33,22
148232,-0.732996,-0.462348,0.336892,0.512998,0.345454,-0.734375,-0.46875,0.34375,0.515625,0.34375,81,98,22,33,22
148296,-0.732996,-0.462348,0.336892,0.512998,0.345454,-0.734375,-0.46875,0.34375,0.515625,0.34375,81,98,22,33,22
148360,-0.732996,-0.462348,0.336892,0.512998,0.345454,-0.734375,-0.46875,0.34375,0.515625,0.34375,81,98,22,33,22
148368,-0.732996,-0.462348,0.336892,0.512998,0.345454,-0.734375,-0.46875,0.34375,0.515625,0.34375,81,98,22,33,22
148424,-0.732996,-0.462348,0.336892,0.512998,0.345454,-0.734375,-0.46875,0.34375,0.515625,0.34375,81,98,22,33,22
148432,-0.732996,-0.462348,0.336892,0.512998,0.345454,-0.734375,-0.46875,0.34375,0.515625,0.34375,81,98,22,33,22
148488,-0.732996,-0.462348,0.336892,0.512998,0.345454,-0.734375,-0.46875,0.34375,0.515625,0.34375,81,98,22,33,22
148496,-0.732996,-0.462348,0.336892,0.512998,0.345454,-0.734375,-0.46875,0.34375,0.515625,0.34375,81,98,22,33,22
148552,-0.732996,-0.462348,0.336892,0.512998,0.345454,-0.734375,-0.46875,0.34375,0.515625,0.34375,81,98,22,33,22
148616,-0.732996,-0.462348,0.336892,0.512998,0.345454,-0.734375,-0.46875,0.34375,0.515625,0.34375,81,98,22,33,22
148680,-0.732996,-0.462348,0.336892,0.512998,0.345454,-0.734375,-0.46875,0.34375,0.515625,0.34375,81,98,22,33,22
148744,-0.732996,-0.462348,0.336892,0.512998,0.345454,-0.734375,-0.46875,0.34375,0.515625,0.34375,81,98,22,33,22
148872,-0.732996,-0.462348,0.336892,0.512998,0.345454,-0.734375,-0.46875,0.34375,0.515625,0.34375,81,98,22,33,22
148880,-0.732996,-0.462348,0.336892,0.512998,0.345454,-0.734375,-0.46875,0.34375,0.515625,0.34375,81,98,22,33,22
148888,-0.732996,-0.462348,0.336892,0.512998,0.345454,-0.734375,-0.46875,0.34375,0.515625,0.34375,81,98,22,33,22
149000,-0.732996,-0.462348,0.336892,0.512998,0.345454,-0.734375,-0.46875,0.34375,0.515625,0.34375,81,98,22,33,22
149128,-0.732996,-0.462348,0.336892,0.512998,0.345454,-0.734375,-0.46875,0.34375,0.515625,0.34375,81,98,22,33,22
149256,-0.732996,-0.462348,0.336892,0.512998,0.345454,-0.734375,-0.46875,0.34375,0.515625,0.34375,81,98,22,33,22
149264,-0.732996,-0.462348,0.336892,0.512998,0.345454,-0.734375,-0.46875,0.34375,0.515625,0.34375,81,98,22,33,22
155720,-0.732996,-0.462348,0.336892,0.512998,0.345454,-0.734375,-0.46875,0.34375,0.515625,0.34375,81,98,22,33,22
155728,-0.732996,-0.462348,0.336892,0.512998,0.345454,-0.734375,-0.46875,0.34375,0.515625,0.34375,81,98,22,33,22
155736,-0.732996,-0.462348,0.336892,0.512998,0.345454,-0.734375,-0.46875,0.34375,0.515625,0.34375,81,98,22,33,22
155784,-0.732996,-0.462348,0.336892,0.512998,0.345454,-0.734375,-0.46875,0.34375,0.515625,0.34375,81,98,22,33,22
155792,-0.732996,-0.462348,0.336892,0.512998,0.345454,-0.734375,-0.46875,0.34375,0.515625,0.34375,81,98,22,33,22
155800,-0.732996,-0.462348,0.336892,0.512998,0.345454,-0.734375,-0.46875,0.34375,0.515625,0.34375,81,98,22,33,22
155848,-0.732996,-0.462348,0.336892,0.512998,0.345454,-0.734375,-0.46875,0.34375,0.515625,0.34375,81,98,22,33,22
155856,-0.732996,-0.462348,0.336892,0.512998,0.345454,-0.734375,-0.46875,0.34375,0.515625,0.34375,81,98,22,33,22
155864,-0.732996,-0.462348,0.336892,0.512998,0.345454,-0.734375,-0.46875,0.34375,0.515625,0.34375,81,98,22,33,22
155912,-0.732996,-0.462348,0.336892,0.512998,0.345454,-0.734375,-0.46875,0.34375,0.515625,0.34375,81,98,22,33,22
155920,-0.732996,-0.462348,0.336892,0.512998,0.345454,-0.734375,-0.46875,0.34375,0.515625,0.34375,81,98,22,33,22
155928,-0.732996,-0.462348,0.336892,0.512998,0.345454,-0.734375,-0.46875,0.34375,0.515625,0.34375,81,98,22,33,22
155976,-0.732996,-0.462348,0.336892,0.512998,0.345454,-0.734375,-0.46875,0.34375,0.515625,0.34375,81,98,22,33,22
155984,-0.732996,-0.462348,0.336892,0.512998,0.345454,-0.734375,-0.46875,0.34375,0.515625,0.34375,81,98,22,33,22
155992,-0.732996,-0.462348,0.336892,0.512998,0.345454,-0.734375,-0.46875,0.34375,0.515625,0.34375,81,98,22,33,22
156040,-0.732996,-0.462348,0.336892,0.512998,0.345454,-0.734375,-0.46875,0.34375,0.515625,0.34375,81,98,22,33,22
156048,-0.732996,-0.462348,0.336892,0.512998,0.345454,-0.734375,-0.46875,0.34375,0.515625,0.34375,81,98,22,33,22
156056,-0.732996,-0.462348,0.336892,0.512998,0.345454,-0.734375,-0.46875,0.34375,0.515625,0.34375,81,98,22,33,22
156104,-0.732996,-0.462348,0.336892,0.512998,0.345454,-0.734375,-0.46875,0.34375,0.515625,0.34375,81,98,22,33,22
156112,-0.732996,-0.462348,0.336892,0.512998,0.345454,-0.734375,-0.46875,0.34375,0.515625,0.34375,81,98,22,33,22
156120,-0.732996,-0.462348,0.336892,0.512998,0.345454,-0.734375,-0.46875,0.34375,0.515625,0.34375,81,98,22,33,22
156168,-0.732996,-0.462348,0.336892,0.512998,0.345454,-0.734375,-0.46875,0.34375,0.515625,0.34375,81,98,22,33,22
156176,-0.732996,-0.462348,0.336892,0.512998,0.345454,-0.734375,-0.46875,0.34375,0.515625,0.34375,81,98,22,33,22
156184,-0.732996,-0.462348,0.336892,0.512998,0.345454,-0.734375,-0.46875,0.34375,0.515625,0.34375,81,98,22,33,22
156232,-0.732996,-0.462348,0.336892,0.512998,0.345454,-0.734375,-0.46875,0.34375,0.515625,0.34375,81,98,22,33,22
156240,-0.732996,-0.462348,0.336892,0.512998,0.345454,-0.734375,-0.46875,0.34375,0.515625,0.34375,81,98,22,33,22
156248,-0.732996,-0.462348,0.336892,0.512998,0.345454,-0.734375,-0.46875,0.34375,0.515625,0.34375,81,98,22,33,22
156256,-0.732996,-0.462348,0.336892,0.512998,0.345454,-0.734375,-0.46875,0.34375,0.515625,0.34375,81,98,22,33,22
156296,-0.732996,-0.462348,0.336892,0.512998,0.345454,-0.734375,-0.46875,0.34375,0.515625,0.34375,81,98,22,33,22
156304,-0.732996,-0.462348,0.336892,0.512998,0.345454,-0.734375,-0.46875,0.34375,0.515625,0.34375,81,98,22,33,22
156312,-0.732996,-0.462348,0.336892,0.512998,0.345454,-0.734375,-0.46875,0.34375,0.515625,0.34375,81,98,22,33,22
156360,-0.732996,-0.462348,0.336892,0.512998,0.345454,-0.734375,-0.46875,0.34375,0.515625,0.34375,81,98,22,33,22
156368,-0.732996,-0.462348,0.336892,0.512998,0.345454,-0.734375,-0.46875,0.34375,0.515625,0.34375,81,98,22,33,22
156376,-0.732996,-0.462348,0.336892,0.512998,0.345454,-0.734375,-0.46875,0.34375,0.515625,0.34375,81,98,22,33,22
156424,-0.732996,-0.462348,0.336892,0.512998,0.345454,-0.734375,-0.46875,0.34375,0.515625,0.34375,81,98,22,33,22
156432,-0.732996,-0.462348,0.336892,0.512998,0.345454,-0.734375,-0.46875,0.34375,0.515625,0.34375,81,98,22,33,22
156440,-0.732996,-0.462348,0.336892,0.512998,0.345454,-0.734375,-0.46875,0.34375,0.515625,0.34375,81,98,22,33,22
156448,-0.732996,-0.462348,0.336892,0.512998,0.345454,-0.734375,-0.46875,0.34375,0.515625,0.34375,81,98,22,33,22
156488,-0.732996,-0.462348,0.336892,0.512998,0.345454,-0.734375,-0.46875,0.34375,0.515625,0.34375,81,98,22,33,22
156496,-0.732996,-0.462348,0.336892,0.512998,0.345454,-0.734375,-0.46875,0.34375,0.515625,0.34375,81,98,22,33,22
156552,-0.732996,-0.462348,0.336892,0.512998,0.345454,-0.734375,-0.46875,0.34375,0.515625,0.34375,81,98,22,33,22
156560,-0.732996,-0.462348,0.336892,0.512998,0.345454,-0.734375,-0.46875,0.34375,0.515625,0.34375,81,98,22,33,22
156616,-0.732996,-0.462348,0.336892,0.512998,0.345454,-0.734375,-0.46875,0.34375,0.515625,0.34375,81,98,22,33,22
156624,-0.732996,-0.462348,0.336892,0.512998,0.345454,-0.734375,-0.46875,0.34375,0.515625,0.34375,81,98,22,33,22
156680,-0.732996,-0.462348,0.336892,0.512998,0.345454,-0.734375,-0.46875,0.34375,0.515625,0.34375,81,98,22,33,22
156688,-0.732996,-0.462348,0.336892,0.512998,0.345454,-0.734375,-0.46875,0.34375,0.515625,0.34375,81,98,22,33,22
163912,-0.732996,-0.462348,0.336892,0.512998,0.345454,-0.734375,-0.46875,0.34375,0.515625,0.34375,81,98,22,33,22
163920,-0.732996,-0.462348,0.336892,0.512998,0.345454,-0.734375,-0.46875,0.34375,0.515625,0.34375,81,98,22,33,22
163976,-0.732996,-0.462348,0.336892,0.512998,0.345454,-0.734375,-0.46875,0.34375,0.515625,0.34375,81,98,22,33,22
164040,-0.732996,-0.462348,0.336892,0.512998,0.345454,-0.734375,-0.46875,0.34375,0.515625,0.34375,81,98,22,33,22
164104,-0.732996,-0.462348,0.336892,0.512998,0.345454,-0.734375,-0.46875,0.34375,0.515625,0.34375,81,98,22,33,22
164112,-0.732996,-0.462348,0.336892,0.512998,0.345454,-0.734375,-0.46875,0.34375,0.515625,0.34375,81,98,22,33,22
164120,-0.732996,-0.462348,0.336892,0.512998,0.345454,-0.734375,-0.46875,0.34375,0.515625,0.34375,81,98,22,33,22
164168,-0.732996,-0.462348,0.336892,0.512998,0.345454,-0.734375,-0.46875,0.34375,0.515625,0.34375,81,98,22,33,22
164176,-0.732996,-0.462348,0.336892,0.512998,0.345454,-0.734375,-0.46875,0.34375,0.515625,0.34375,81,98,22,33,22
164232,-0.732996,-0.462348,0.336892,0.512998,0.345454,-0.734375,-0.46875,0.34375,0.515625,0.34375,81,98,22,33,22
164240,-0.732996,-0.462348,0.336892,0.512998,0.345454,-0.734375,-0.46875,0.34375,0.515625,0.34375,81,98,22,33,22
164248,-0.732996,-0.462348,0.336892,0.512998,0.345454,-0.734375,-0.46875,0.34375,0.515625,0.34375,81,98,22,33,22
164296,-0.732996,-0.462348,0.336892,0.512998,0.345454,-0.734375,-0.46875,0.34375,0.515625,0.34375,81,98,22,33,22
164304,-0.732996,-0.462348,0.336892,0.512998,0.345454,-0.734375,-0.46875,0.34375,0.515625,0.34375,81,98,22,33,22
164312,-0.732996,-0.462348,0.336892,0.512998,0.345454,-0.734375,-0.46875,0.34375,0.515625,0.34375,81,98,22,33,22
164360,-0.732996,-0.462348,0.336892,0.512998,0.345454,-0.734375,-0.46875,0.34375,0.515625,0.34375,81,98,22,33,22
164368,-0.732996,-0.462348,0.336892,0.512998,0.345454,-0.734375,-0.46875,0.34375,0.515625,0.34375,81,98,22,33,22
164376,-0.732996,-0.462348,0.336892,0.512998,0.345454,-0.734375,-0.46875,0.34375,0.515625,0.34375,81,98,22,33,22
164424,-0.732996,-0.462348,0.336892,0.512998,0.345454,-0.734375,-0.46875,0.34375,0.515625,0.34375,81,98,22,33,22
164432,-0.732996,-0.462348,0.336892,0.512998,0.345454,-0.734375,-0.46875,0.34375,0.515625,0.34375,81,98,22,33,22
164440,-0.732996,-0.462348,0.336892,0.512998,0.345454,-0.734375,-0.46875,0.34375,0.515625,0.34375,81,98,22,33,22
164488,-0.732996,-0.462348,0.336892,0.512998,0.345454,-0.734375,-0.46875,0.34375,0.515625,0.34375,81,98,22,33,22
164496,-0.732996,-0.462348,0.336892,0.512998,0.345454,-0.734375,-0.46875,0.34375,0.515625,0.34375,81,98,22,33,22
164504,-0.732996,-0.462348,0.336892,0.512998,0.345454,-0.734375,-0.46875,0.34375,0.515625,0.34375,81,98,22,33,22
164552,-0.732996,-0.462348,0.336892,0.512998,0.345454,-0.734375,-0.46875,0.34375,0.515625,0.34375,81,98,22,33,22
164560,-0.732996,-0.462348,0.336892,0.512998,0.345454,-0.734375,-0.46875,0.34375,0.515625,0.34375,81,98,22,33,22
164616,-0.732996,-0.462348,0.336892,0.512998,0.345454,-0.734375,-0.46875,0.34375,0.515625,0.34375,81,98,22,33,22
164624,-0.732996,-0.462348,0.336892,0.512998,0.345454,-0.734375,-0.46875,0.34375,0.515625,0.34375,81,98,22,33,22
164632,-0.732996,-0.462348,0.336892,0.512998,0.345454,-0.734375,-0.46875,0.34375,0.515625,0.34375,81,98,22,33,22
164680,-0.732996,-0.462348,0.336892,0.512998,0.345454,-0.734375,-0.46875,0.34375,0.515625,0.34375,81,98,22,33,22
164688,-0.732996,-0.462348,0.336892,0.512998,0.345454,-0.734375,-0.46875,0.34375,0.515625,0.34375,81,98,22,33,22
164744,-0.732996,-0.462348,0.336892,0.512998,0.345454,-0.734375,-0.46875,0.34375,0.515625,0.34375,81,98,22,33,22
164752,-0.732996,-0.462348,0.336892,0.512998,0.345454,-0.734375,-0.46875,0.34375,0.515625,0.34375,81,98,22,33,22
164808,-0.732996,-0.462348,0.336892,0.512998,0.345454,-0.734375,-0.46875,0.34375,0.515625,0.34375,81,98,22,33,22
164816,-0.732996,-0.462348,0.336892,0.512998,0.345454,-0.734375,-0.46875,0.34375,0.515625,0.34375,81,98,22,33,22
164824,-0.732996,-0.462348,0.336892,0.512998,0.345454,-0.734375,-0.46875,0.34375,0.515625,0.34375,81,98,22,33,22
164872,-0.732996,-0.462348,0.336892,0.512998,0.345454,-0.734375,-0.46875,0.34375,0.515625,0.34375,81,98,22,33,22
164880,-0.732996,-0.462348,0.336892,0.512998,0.345454,-0.734375,-0.46875,0.34375,0.515625,0.34375,81,98,22,33,22
164888,-0.732996,-0.462348,0.336892,0.512998,0.345454,-0.734375,-0.46875,0.34375,0.515625,0.34375,81,98,22,33,22
172104,-0.732996,-0.462348,0.336892,0.512998,0.345454,-0.734375,-0.46875,0.34375,0.515625,0.34375,81,98,22,33,22
172168,-0.732996,-0.462348,0.336892,0.512998,0.345454,-0.734375,-0.46875,0.34375,0.515625,0.34375,81,98,22,33,22
172232,-0.732996,-0.462348,0.336892,0.512998,0.345454,-0.734375,-0.46875,0.34375,0.515625,0.34375,81,98,22,33,22
172296,-0.732996,-0.462348,0.336892,0.512998,0.345454,-0.734375,-0.46875,0.34375,0.515625,0.34375,81,98,22,33,22
172368,-0.732996,-0.462348,0.336892,0.512998,0.345454,-0.734375,-0.46875,0.34375,0.515625,0.34375,81,98,22,33,22
172376,-0.732996,-0.462348,0.336892,0.512998,0.345454,-0.734375,-0.46875,0.34375,0.515625,0.34375,81,98,22,33,22
172440,-0.732996,-0.462348,0.336892,0.512998,0.345454,-0.734375,-0.46875,0.34375,0.515625,0.34375,81,98,22,33,22
172488,-0.732996,-0.462348,0.336892,0.512998,0.345454,-0.734375,-0.46875,0.34375,0.515625,0.34375,81,98,22,33,22
172496,-0.732996,-0.462348,0.336892,0.512998,0.345454,-0.734375,-0.46875,0.34375,0.515625,0.34375,81,98,22,33,22
172504,-0.732996,-0.462348,0.336892,0.512998,0.345454,-0.734375,-0.46875,0.34375,0.515625,0.34375,81,98,22,33,22
172512,-0.732996,-0.462348,0.336892,0.512998,0.345454,-0.734375,-0.46875,0.34375,0.515625,0.34375,81,98,22,33,22
172552,-0.732996,-0.462348,0.336892,0.512998,0.345454,-0.734375,-0.46875,0.34375,0.515625,0.34375,81,98,22,33,22
172560,-0.732996,-0.462348,0.336892,0.512998,0.345454,-0.734375,-0.46875,0.34375,0.515625,0.34375,81,98,22,33,22
172568,-0.732996,-0.462348,0.336892,0.512998,0.345454,-0.734375,-0.46875,0.34375,0.515625,0.34375,81,98,22,33,22
172576,-0.732996,-0.462348,0.336892,0.512998,0.345454,-0.734375,-0.46875,0.34375,0.515625,0.34375,81,98,22,33,22
172584,-0.732996,-0.462348,0.336892,0.512998,0.345454,-0.734375,-0.46875,0.34375,0.515625,0.34375,81,98,22,33,22
172616,-0.732996,-0.462348,0.336892,0.512998,0.345454,-0.734375,-0.46875,0.34375,0.515625,0.34375,81,98,22,33,22
172624,-0.732996,-0.462348,0.336892,0.512998,0.345454,-0.734375,-0.46875,0.34375,0.515625,0.34375,81,98,22,33,22
172632,-0.732996,-0.462348,0.336892,0.512998,0.345454,-0.734375,-0.46875,0.34375,0.515625,0.34375,81,98,22,33,22
172680,-0.732996,-0.462348,0.336892,0.512998,0.345454,-0.734375,-0.46875,0.34375,0.515625,0.34375,81,98,22,33,22
172688,-0.732996,-0.462348,0.336892,0.512998,0.345454,-0.734375,-0.46875,0.34375,0.515625,0.34375,81,98,22,33,22
172744,-0.732996,-0.462348,0.336892,0.512998,0.345454,-0.734375,-0.46875,0.34375,0.515625,0.34375,81,98,22,33,22
172752,-0.732996,-0.462348,0.336892,0.512998,0.345454,-0.734375,-0.46875,0.34375,0.515625,0.34375,81,98,22,33,22
172760,-0.732996,-0.462348,0.336892,0.512998,0.345454,-0.734375,-0.46875,0.34375,0.515625,0.34375,81,98,22,33,22
172808,-0.732996,-0.462348,0.336892,0.512998,0.345454,-0.734375,-0.46875,0.34375,0.515625,0.34375,81,98,22,33,22
172816,-0.732996,-0.462348,0.336892,0.512998,0.345454,-0.734375,-0.46875,0.34375,0.515625,0.34375,81,98,22,33,22
172824,-0.732996,-0.462348,0.336892,0.512998,0.345454,-0.734375,-0.46875,0.34375,0.515625,0.34375,81,98,22,33,22
172872,-0.732996,-0.462348,0.336892,0.512998,0.345454,-0.734375,-0.46875,0.34375,0.515625,0.34375,81,98,22,33,22
172880,-0.732996,-0.462348,0.336892,0.512998,0.345454,-0.734375,-0.46875,0.34375,0.515625,0.34375,81,98,22,33,22
172936,-0.732996,-0.462348,0.336892,0.512998,0.345454,-0.734375,-0.46875,0.34375,0.515625,0.34375,81,98,22,33,22
172944,-0.732996,-0.462348,0.336892,0.512998,0.345454,-0.734375,-0.46875,0.34375,0.515625,0.34375,81,98,22,33,22
173000,-0.732996,-0.462348,0.336892,0.512998,0.345454,-0.734375,-0.46875,0.34375,0.515625,0.34375,81,98,22,33,22
173008,-0.732996,-0.462348,0.336892,0.512998,0.345454,-0.734375,-0.46875,0.34375,0.515625,0.34375,81,98,22,33,22
173016,-0.732996,-0.462348,0.336892,0.512998,0.345454,-0.734375,-0.46875,0.34375,0.515625,0.34375,81,98,22,33,22
173064,-0.732996,-0.462348,0.336892,0.512998,0.345454,-0.734375,-0.46875,0.34375,0.515625,0.34375,81,98,22,33,22
173072,-0.732996,-0.462348,0.336892,0.512998,0.345454,-0.734375,-0.46875,0.34375,0.515625,0.34375,81,98,22,33,22
180296,-0.732996,-0.462348,0.336892,0.512998,0.345454,-0.734375,-0.46875,0.34375,0.515625,0.34375,81,98,22,33,22
180304,-0.732996,-0.462348,0.336892,0.512998,0.345454,-0.734375,-0.46875,0.34375,0.515625,0.34375,81,98,22,33,22
180360,-0.732996,-0.462348,0.336892,0.512998,0.345454,-0.734375,-0.46875,0.34375,0.515625,0.34375,81,98,22,33,22
180424,-0.732996,-0.462348,0.336892,0.512998,0.345454,-0.734375,-0.46875,0.34375,0.515625,0.34375,81,98,22,33,22
180432,-0.732996,-0.462348,0.336892,0.512998,0.345454,-0.734375,-0.46875,0.34375,0.515625,0.34375,81,98,22,33,22
180440,-0.732996,-0.462348,0.336892,0.512998,0.345454,-0.734375,-0.46875,0.34375,0.515625,0.34375,81,98,22,33,22
180488,-0.732996,-0.462348,0.336892,0.512998,0.345454,-0.734375,-0.46875,0.34375,0.515625,0.34375,81,98,22,33,22
180552,-0.732996,-0.462348,0.336892,0.512998,0.345454,-0.734375,-0.46875,0.34375,0.515625,0.34375,81,98,22,33,22
180560,-0.732996,-0.462348,0.336892,0.512998,0.345454,-0.734375,-0.46875,0.34375,0.515625,0.34375,81,98,22,33,22
180568,-0.732996,-0.462348,0.336892,0.512998,0.345454,-0.734375,-0.46875,0.34375,0.515625,0.34375,81,98,22,33,22
180576,-0.732996,-0.462348,0.336892,0.512998,0.345454,-0.734375,-0.46875,0.34375,0.515625,0.34375,81,98,22,33,22
180616,-0.732996,-0.462348,0.336892,0.512998,0.345454,-0.734375,-0.46875,0.34375,0.515625,0.34375,81,98,22,33,22
180624,-0.732996,-0.462348,0.336892,0.512998,0.345454,-0.734375,-0.46875,0.34375,0.515625,0.34375,81,98,22,33,22
180632,-0.732996,-0.462348,0.336892,0.512998,0.345454,-0.734375,-0.46875,0.34375,0.515625,0.34375,81,98,22,33,22
180680,-0.732996,-0.462348,0.336892,0.512998,0.345454,-0.734375,-0.46875,0.34375,0.515625,0.34375,81,98,22,33,22
180688,-0.732996,-0.462348,0.336892,0.512998,0.345454,-0.734375,-0.46875,0.34375,0.515625,0.34375,81,98,22,33,22
180696,-0.732996,-0.462348,0.336892,0.512998,0.345454,-0.734375,-0.46875,0.34375,0.515625,0.34375,81,98,22,33,22
180744,-0.732996,-0.462348,0.336892,0.512998,0.345454,-0.734375,-0.46875,0.34375,0.515625,0.34375,81,98,22,33,22
180752,-0.732996,-0.462348,0.336892,0.512998,0.345454,-0.734375,-0.46875,0.34375,0.515625,0.34375,81,98,22,33,22
180760,-0.732996,-0.462348,0.336892,0.512998,0.345454,-0.734375,-0.46875,0.34375,0.515625,0.34375,81,98,22,33,22
180808,-0.732996,-0.462348,0.336892,0.512998,0.345454,-0.734375,-0.46875,0.34375,0.515625,0.34375,81,98,22,33,22
180816,-0.732996,-0.462348,0.336892,0.512998,0.345454,-0.734375,-0.46875,0.34375,0.515625,0.34375,81,98,22,33,22
180872,-0.732996,-0.462348,0.336892,0.512998,0.345454,-0.734375,-0.46875,0.34375,0.515625,0.34375,81,98,22,33,22
180880,-0.732996,-0.462348,0.336892,0.512998,0.345454,-0.734375,-0.46875,0.34375,0.515625,0.34375,81,98,22,33,22
180888,-0.732996,-0.462348,0.336892,0.512998,0.345454,-0.734375,-0.46875,0.34375,0.515625,0.34375,81,98,22,33,22
180936,-0.732996,-0.462348,0.336892,0.512998,0.345454,-0.734375,-0.46875,0.34375,0.515625,0.34375,81,98,22,33,22
180944,-0.732996,-0.462348,0.336892,0.512998,0.345454,-0.734375,-0.46875,0.34375,0.515625,0.34375,81,98,22,33,22
180952,-0.732996,-0.462348,0.336892,0.512998,0.345454,-0.734375,-0.46875,0.34375,0.515625,0.34375,81,98,22,33,22
181000,-0.732996,-0.462348,0.336892,0.512998,0.345454,-0.734375,-0.46875,0.34375,0.515625,0.34375,81,98,22,33,22
181008,-0.732996,-0.462348,0.336892,0.512998,0.345454,-0.734375,-0.46875,0.34375,0.515625,0.34375,81,98,22,33,22
181064,-0.732996,-0.462348,0.336892,0.512998,0.345454,-0.734375,-0.46875,0.34375,0.515625,0.34375,81,98,22,33,22
181072,-0.732996,-0.462348,0.336892,0.512998,0.345454,-0.734375,-0.46875,0.34375,0.515625,0.34375,81,98,22,33,22
181128,-0.732996,-0.462348,0.336892,0.512998,0.345454,-0.734375,-0.46875,0.34375,0.515625,0.34375,81,98,22,33,22
181136,-0.732996,-0.462348,0.336892,0.512998,0.345454,-0.734375,-0.46875,0.34375,0.515625,0.34375,81,98,22,33,22
181192,-0.732996,-0.462348,0.336892,0.512998,0.345454,-0.734375,-0.46875,0.34375,0.515625,0.34375,81,98,22,33,22
181200,-0.732996,-0.462348,0.336892,0.512998,0.345454,-0.734375,-0.46875,0.34375,0.515625,0.34375,81,98,22,33,22
181208,-0.732996,-0.462348,0.336892,0.512998,0.345454,-0.734375,-0.46875,0.34375,0.515625,0.34375,81,98,22,33,22
181256,-0.732996,-0.462348,0.336892,0.512998,0.345454,-0.734375,-0.46875,0.34375,0.515625,0.34375,81,98,22,33,22
181264,-0.732996,-0.462348,0.336892,0.512998,0.345454,-0.734375,-0.46875,0.34375,0.515625,0.34375,81,98,22,33,22
181272,-0.732996,-0.462348,0.336892,0.512998,0.345454,-0.734375,-0.46875,0.34375,0.515625,0.34375,81,98,22,33,22
188488,-0.732996,-0.462348,0.336892,0.512998,0.345454,-0.734375,-0.46875,0.34375,0.515625,0.34375,81,98,22,33,22
188552,-0.732996,-0.462348,0.336892,0.512998,0.345454,-0.734375,-0.46875,0.34375,0.515625,0.34375,81,98,22,33,22
188560,-0.732996,-0.462348,0.336892,0.512998,0.345454,-0.734375,-0.46875,0.34375,0.515625,0.34375,81,98,22,33,22
188616,-0.732996,-0.462348,0.336892,0.512998,0.345454,-0.734375,-0.46875,0.34375,0.515625,0.34375,81,98,22,33,22
188624,-0.732996,-0.462348,0.336892,0.512998,0.345454,-0.734375,-0.46875,0.34375,0.515625,0.34375,81,98,22,33,22
188632,-0.732996,-0.462348,0.336892,0.512998,0.345454,-0.734375,-0.46875,0.34375,0.515625,0.34375,81,98,22,33,22
