stripid,w1,w2,w3,w4,w5,w1c,w2c,w3c,w4c,w5c,encw1,encw2,encw3,encw4,encw5
8264,-0.639888,-0.51233,0.271499,0.50228,0.37844,-0.640625,-0.515625,0.28125,0.5,0.375,87,95,18,32,24
8272,-0.639888,-0.51233,0.271499,0.50228,0.37844,-0.640625,-0.515625,0.28125,0.5,0.375,87,95,18,32,24
8328,-0.639888,-0.51233,0.271499,0.50228,0.37844,-0.640625,-0.515625,0.28125,0.5,0.375,87,95,18,32,24
8336,-0.639888,-0.51233,0.271499,0.50228,0.37844,-0.640625,-0.515625,0.28125,0.5,0.375,87,95,18,32,24
8392,-0.639888,-0.51233,0.271499,0.50228,0.37844,-0.640625,-0.515625,0.28125,0.5,0.375,87,95,18,32,24
8400,-0.639888,-0.51233,0.271499,0.50228,0.37844,-0.640625,-0.515625,0.28125,0.5,0.375,87,95,18,32,24
8456,-0.639888,-0.51233,0.271499,0.50228,0.37844,-0.640625,-0.515625,0.28125,0.5,0.375,87,95,18,32,24
8464,-0.639888,-0.51233,0.271499,0.50228,0.37844,-0.640625,-0.515625,0.28125,0.5,0.375,87,95,18,32,24
8520,-0.639888,-0.51233,0.271499,0.50228,0.37844,-0.640625,-0.515625,0.28125,0.5,0.375,87,95,18,32,24
8528,-0.639888,-0.51233,0.271499,0.50228,0.37844,-0.640625,-0.515625,0.28125,0.5,0.375,87,95,18,32,24
8584,-0.639888,-0.51233,0.271499,0.50228,0.37844,-0.640625,-0.515625,0.28125,0.5,0.375,87,95,18,32,24
8592,-0.639888,-0.51233,0.271499,0.50228,0.37844,-0.640625,-0.515625,0.28125,0.5,0.375,87,95,18,32,24
8600,-0.639888,-0.51233,0.271499,0.50228,0.37844,-0.640625,-0.515625,0.28125,0.5,0.375,87,95,18,32,24
8648,-0.639888,-0.51233,0.271499,0.50228,0.37844,-0.640625,-0.515625,0.28125,0.5,0.375,87,95,18,32,24
8656,-0.639888,-0.51233,0.271499,0.50228,0.37844,-0.640625,-0.515625,0.28125,0.5,0.375,87,95,18,32,24
8664,-0.639888,-0.51233,0.271499,0.50228,0.37844,-0.640625,-0.515625,0.28125,0.5,0.375,87,95,18,32,24
8712,-0.639888,-0.51233,0.271499,0.50228,0.37844,-0.640625,-0.515625,0.28125,0.5,0.375,87,95,18,32,24
8720,-0.639888,-0.51233,0.271499,0.50228,0.37844,-0.640625,-0.515625,0.28125,0.5,0.375,87,95,18,32,24
8776,-0.639888,-0.51233,0.271499,0.50228,0.37844,-0.640625,-0.515625,0.28125,0.5,0.375,87,95,18,32,24
8784,-0.639888,-0.51233,0.271499,0.50228,0.37844,-0.640625,-0.515625,0.28125,0.5,0.375,87,95,18,32,24
8840,-0.639888,-0.51233,0.271499,0.50228,0.37844,-0.640625,-0.515625,0.28125,0.5,0.375,87,95,18,32,24
8904,-0.639888,-0.51233,0.271499,0.50228,0.37844,-0.640625,-0.515625,0.28125,0.5,0.375,87,95,18,32,24
8968,-0.639888,-0.51233,0.271499,0.50228,0.37844,-0.640625,-0.515625,0.28125,0.5,0.375,87,95,18,32,24
8976,-0.639888,-0.51233,0.271499,0.50228,0.37844,-0.640625,-0.515625,0.28125,0.5,0.375,87,95,18,32,24
9032,-0.639888,-0.51233,0.271499,0.50228,0.37844,-0.640625,-0.515625,0.28125,0.5,0.375,87,95,18,32,24
9096,-0.639888,-0.51233,0.271499,0.50228,0.37844,-0.640625,-0.515625,0.28125,0.5,0.375,87,95,18,32,24
9160,-0.639888,-0.51233,0.271499,0.50228,0.37844,-0.640625,-0.515625,0.28125,0.5,0.375,87,95,18,32,24
9224,-0.639888,-0.51233,0.271499,0.50228,0.37844,-0.640625,-0.515625,0.28125,0.5,0.375,87,95,18,32,24
9288,-0.639888,-0.51233,0.271499,0.50228,0.37844,-0.640625,-0.515625,0.28125,0.5,0.375,87,95,18,32,24
9296,-0.639888,-0.51233,0.271499,0.50228,0.37844,-0.640625,-0.515625,0.28125,0.5,0.375,87,95,18,32,24
9352,-0.639888,-0.51233,0.271499,0.50228,0.37844,-0.640625,-0.515625,0.28125,0.5,0.375,87,95,18,32,24
9360,-0.639888,-0.51233,0.271499,0.50228,0.37844,-0.640625,-0.515625,0.28125,0.5,0.375,87,95,18,32,24
9416,-0.639888,-0.51233,0.271499,0.50228,0.37844,-0.640625,-0.515625,0.28125,0.5,0.375,87,95,18,32,24
9424,-0.639888,-0.51233,0.271499,0.50228,0.37844,-0.640625,-0.515625,0.28125,0.5,0.375,87,95,18,32,24
9480,-0.639888,-0.51233,0.271499,0.50228,0.37844,-0.640625,-0.515625,0.28125,0.5,0.375,87,95,18,32,24
9488,-0.639888,-0.51233,0.271499,0.50228,0.37844,-0.640625,-0.515625,0.28125,0.5,0.375,87,95,18,32,24
9608,-0.639888,-0.51233,0.271499,0.50228,0.37844,-0.640625,-0.515625,0.28125,0.5,0.375,87,95,18,32,24
9736,-0.639888,-0.51233,0.271499,0.50228,0.37844,-0.640625,-0.515625,0.28125,0.5,0.375,87,95,18,32,24
9864,-0.639888,-0.51233,0.271499,0.50228,0.37844,-0.640625,-0.515625,0.28125,0.5,0.375,87,95,18,32,24
9872,-0.639888,-0.51233,0.271499,0.50228,0.37844,-0.640625,-0.515625,0.28125,0.5,0.375,87,95,18,32,24
9992,-0.639888,-0.51233,0.271499,0.50228,0.37844,-0.640625,-0.515625,0.28125,0.5,0.375,87,95,18,32,24
10000,-0.639888,-0.51233,0.271499,0.50228,0.37844,-0.640625,-0.515625,0.28125,0.5,0.375,87,95,18,32,24
16456,-0.639888,-0.51233,0.271499,0.50228,0.37844,-0.640625,-0.515625,0.28125,0.5,0.375,87,95,18,32,24
16464,-0.639888,-0.51233,0.271499,0.50228,0.37844,-0.640625,-0.515625,0.28125,0.5,0.375,87,95,18,32,24
16520,-0.639888,-0.51233,0.271499,0.50228,0.37844,-0.640625,-0.515625,0.28125,0.5,0.375,87,95,18,32,24
16528,-0.639888,-0.51233,0.271499,0.50228,0.37844,-0.640625,-0.515625,0.28125,0.5,0.375,87,95,18,32,24
16536,-0.639888,-0.51233,0.271499,0.50228,0.37844,-0.640625,-0.515625,0.28125,0.5,0.375,87,95,18,32,24
16584,-0.639888,-0.51233,0.271499,0.50228,0.37844,-0.640625,-0.515625,0.28125,0.5,0.375,87,95,18,32,24
16592,-0.639888,-0.51233,0.271499,0.50228,0.37844,-0.640625,-0.515625,0.28125,0.5,0.375,87,95,18,32,24
16648,-0.639888,-0.51233,0.271499,0.50228,0.37844,-0.640625,-0.515625,0.28125,0.5,0.375,87,95,18,32,24
16656,-0.639888,-0.51233,0.271499,0.50228,0.37844,-0.640625,-0.515625,0.28125,0.5,0.375,87,95,18,32,24
16712,-0.639888,-0.51233,0.271499,0.50228,0.37844,-0.640625,-0.515625,0.28125,0.5,0.375,87,95,18,32,24
16720,-0.639888,-0.51233,0.271499,0.50228,0.37844,-0.640625,-0.515625,0.28125,0.5,0.375,87,95,18,32,24
16776,-0.639888,-0.51233,0.271499,0.50228,0.37844,-0.640625,-0.515625,0.28125,0.5,0.375,87,95,18,32,24
16840,-0.639888,-0.51233,0.271499,0.50228,0.37844,-0.640625,-0.515625,0.28125,0.5,0.375,87,95,18,32,24
16848,-0.639888,-0.51233,0.271499,0.50228,0.37844,-0.640625,-0.515625,0.28125,0.5,0.375,87,95,18,32,24
16904,-0.639888,-0.51233,0.271499,0.50228,0.37844,-0.640625,-0.515625,0.28125,0.5,0.375,87,95,18,32,24
16912,-0.639888,-0.51233,0.271499,0.50228,0.37844,-0.640625,-0.515625,0.28125,0.5,0.375,87,95,18,32,24
16968,-0.639888,-0.51233,0.271499,0.50228,0.37844,-0.640625,-0.515625,0.28125,0.5,0.375,87,95,18,32,24
17032,-0.639888,-0.51233,0.271499,0.50228,0.37844,-0.640625,-0.515625,0.28125,0.5,0.375,87,95,18,32,24
17040,-0.639888,-0.51233,0.271499,0.50228,0.37844,-0.640625,-0.515625,0.28125,0.5,0.375,87,95,18,32,24
17096,-0.639888,-0.51233,0.271499,0.50228,0.37844,-0.640625,-0.515625,0.28125,0.5,0.375,87,95,18,32,24
17104,-0.639888,-0.51233,0.271499,0.50228,0.37844,-0.640625,-0.515625,0.28125,0.5,0.375,87,95,18,32,24
17160,-0.639888,-0.51233,0.271499,0.50228,0.37844,-0.640625,-0.515625,0.28125,0.5,0.375,87,95,18,32,24
17224,-0.639888,-0.51233,0.271499,0.50228,0.37844,-0.640625,-0.515625,0.28125,0.5,0.375,87,95,18,32,24
17232,-0.639888,-0.51233,0.271499,0.50228,0.37844,-0.640625,-0.515625,0.28125,0.5,0.375,87,95,18,32,24
17288,-0.639888,-0.51233,0.271499,0.50228,0.37844,-0.640625,-0.515625,0.28125,0.5,0.375,87,95,18,32,24
17296,-0.639888,-0.51233,0.271499,0.50228,0.37844,-0.640625,-0.515625,0.28125,0.5,0.375,87,95,18,32,24
17352,-0.639888,-0.51233,0.271499,0.50228,0.37844,-0.640625,-0.515625,0.28125,0.5,0.375,87,95,18,32,24
17360,-0.639888,-0.51233,0.271499,0.50228,0.37844,-0.640625,-0.515625,0.28125,0.5,0.375,87,95,18,32,24
17416,-0.639888,-0.51233,0.271499,0.50228,0.37844,-0.640625,-0.515625,0.28125,0.5,0.375,87,95,18,32,24
17480,-0.639888,-0.51233,0.271499,0.50228,0.37844,-0.640625,-0.515625,0.28125,0.5,0.375,87,95,18,32,24
17544,-0.639888,-0.51233,0.271499,0.50228,0.37844,-0.640625,-0.515625,0.28125,0.5,0.375,87,95,18,32,24
17608,-0.639888,-0.51233,0.271499,0.50228,0.37844,-0.640625,-0.515625,0.28125,0.5,0.375,87,95,18,32,24
17672,-0.639888,-0.51233,0.271499,0.50228,0.37844,-0.640625,-0.515625,0.28125,0.5,0.375,87,95,18,32,24
17800,-0.639888,-0.51233,0.271499,0.50228,0.37844,-0.640625,-0.515625,0.28125,0.5,0.375,87,95,18,32,24
17928,-0.639888,-0.51233,0.271499,0.50228,0.37844,-0.640625,-0.515625,0.28125,0.5,0.375,87,95,18,32,24
17936,-0.639888,-0.51233,0.271499,0.50228,0.37844,-0.640625,-0.515625,0.28125,0.5,0.375,87,95,18,32,24
17944,-0.639888,-0.51233,0.271499,0.50228,0.37844,-0.640625,-0.515625,0.28125,0.5,0.375,87,95,18,32,24
18056,-0.639888,-0.51233,0.271499,0.50228,0.37844,-0.640625,-0.515625,0.28125,0.5,0.375,87,95,18,32,24
18064,-0.639888,-0.51233,0.271499,0.50228,0.37844,-0.640625,-0.515625,0.28125,0.5,0.375,87,95,18,32,24
18184,-0.639888,-0.51233,0.271499,0.50228,0.37844,-0.640625,-0.515625,0.28125,0.5,0.375,87,95,18,32,24
24648,-0.639888,-0.51233,0.271499,0.50228,0.37844,-0.640625,-0.515625,0.28125,0.5,0.375,87,95,18,32,24
24656,-0.639888,-0.51233,0.271499,0.50228,0.37844,-0.640625,-0.515625,0.28125,0.5,0.375,87,95,18,32,24
24712,-0.639888,-0.51233,0.271499,0.50228,0.37844,-0.640625,-0.515625,0.28125,0.5,0.375,87,95,18,32,24
24720,-0.639888,-0.51233,0.271499,0.50228,0.37844,-0.640625,-0.515625,0.28125,0.5,0.375,87,95,18,32,24
24776,-0.639888,-0.51233,0.271499,0.50228,0.37844,-0.640625,-0.515625,0.28125,0.5,0.375,87,95,18,32,24
24784,-0.639888,-0.51233,0.271499,0.50228,0.37844,-0.640625,-0.515625,0.28125,0.5,0.375,87,95,18,32,24
24840,-0.639888,-0.51233,0.271499,0.50228,0.37844,-0.640625,-0.515625,0.28125,0.5,0.375,87,95,18,32,24
24848,-0.639888,-0.51233,0.271499,0.50228,0.37844,-0.640625,-0.515625,0.28125,0.5,0.375,87,95,18,32,24
24904,-0.639888,-0.51233,0.271499,0.50228,0.37844,-0.640625,-0.515625,0.28125,0.5,0.375,87,95,18,32,24
24968,-0.639888,-0.51233,0.271499,0.50228,0.37844,-0.640625,-0.515625,0.28125,0.5,0.375,87,95,18,32,24
24976,-0.639888,-0.51233,0.271499,0.50228,0.37844,-0.640625,-0.515625,0.28125,0.5,0.375,87,95,18,32,24
25032,-0.639888,-0.51233,0.271499,0.50228,0.37844,-0.640625,-0.515625,0.28125,0.5,0.375,87,95,18,32,24
25040,-0.639888,-0.51233,0.271499,0.50228,0.37844,-0.640625,-0.515625,0.28125,0.5,0.375,87,95,18,32,24
25096,-0.639888,-0.51233,0.271499,0.50228,0.37844,-0.640625,-0.515625,0.28125,0.5,0.375,87,95,18,32,24
25160,-0.639888,-0.51233,0.271499,0.50228,0.37844,-0.640625,-0.515625,0.28125,0.5,0.375,87,95,18,32,24
25168,-0.639888,-0.51233,0.271499,0.50228,0.37844,-0.640625,-0.515625,0.28125,0.5,0.375,87,95,18,32,24
25224,-0.639888,-0.51233,0.271499,0.50228,0.37844,-0.640625,-0.515625,0.28125,0.5,0.375,87,95,18,32,24
25232,-0.639888,-0.51233,0.271499,0.50228,0.37844,-0.640625,-0.515625,0.28125,0.5,0.375,87,95,18,32,24
25288,-0.639888,-0.51233,0.271499,0.50228,0.37844,-0.640625,-0.515625,0.28125,0.5,0.375,87,95,18,32,24
25296,-0.639888,-0.51233,0.271499,0.50228,0.37844,-0.640625,-0.515625,0.28125,0.5,0.375,87,95,18,32,24
25352,-0.639888,-0.51233,0.271499,0.50228,0.37844,-0.640625,-0.515625,0.28125,0.5,0.375,87,95,18,32,24
25360,-0.639888,-0.51233,0.271499,0.50228,0.37844,-0.640625,-0.515625,0.28125,0.5,0.375,87,95,18,32,24
25416,-0.639888,-0.51233,0.271499,0.50228,0.37844,-0.640625,-0.515625,0.28125,0.5,0.375,87,95,18,32,24
25424,-0.639888,-0.51233,0.271499,0.50228,0.37844,-0.640625,-0.515625,0.28125,0.5,0.375,87,95,18,32,24
25480,-0.639888,-0.51233,0.271499,0.50228,0.37844,-0.640625,-0.515625,0.28125,0.5,0.375,87,95,18,32,24
25544,-0.639888,-0.51233,0.271499,0.50228,0.37844,-0.640625,-0.515625,0.28125,0.5,0.375,87,95,18,32,24
25552,-0.639888,-0.51233,0.271499,0.50228,0.37844,-0.640625,-0.515625,0.28125,0.5,0.375,87,95,18,32,24
25608,-0.639888,-0.51233,0.271499,0.50228,0.37844,-0.640625,-0.515625,0.28125,0.5,0.375,87,95,18,32,24
25672,-0.639888,-0.51233,0.271499,0.50228,0.37844,-0.640625,-0.515625,0.28125,0.5,0.375,87,95,18,32,24
25736,-0.639888,-0.51233,0.271499,0.50228,0.37844,-0.640625,-0.515625,0.28125,0.5,0.375,87,95,18,32,24
25800,-0.639888,-0.51233,0.271499,0.50228,0.37844,-0.640625,-0.515625,0.28125,0.5,0.375,87,95,18,32,24
25808,-0.639888,-0.51233,0.271499,0.50228,0.37844,-0.640625,-0.515625,0.28125,0.5,0.375,87,95,18,32,24
25864,-0.639888,-0.51233,0.271499,0.50228,0.37844,-0.640625,-0.515625,0.28125,0.5,0.375,87,95,18,32,24
25872,-0.639888,-0.51233,0.271499,0.50228,0.37844,-0.640625,-0.515625,0.28125,0.5,0.375,87,95,18,32,24
25992,-0.639888,-0.51233,0.271499,0.50228,0.37844,-0.640625,-0.515625,0.28125,0.5,0.375,87,95,18,32,24
26120,-0.639888,-0.51233,0.271499,0.50228,0.37844,-0.640625,-0.515625,0.28125,0.5,0.375,87,95,18,32,24
26128,-0.639888,-0.51233,0.271499,0.50228,0.37844,-0.640625,-0.515625,0.28125,0.5,0.375,87,95,18,32,24
26248,-0.639888,-0.51233,0.271499,0.50228,0.37844,-0.640625,-0.515625,0.28125,0.5,0.375,87,95,18,32,24
26256,-0.639888,-0.51233,0.271499,0.50228,0.37844,-0.640625,-0.515625,0.28125,0.5,0.375,87,95,18,32,24
26264,-0.639888,-0.51233,0.271499,0.50228,0.37844,-0.640625,-0.515625,0.28125,0.5,0.375,87,95,18,32,24
26376,-0.639888,-0.51233,0.271499,0.50228,0.37844,-0.640625,-0.515625,0.28125,0.5,0.375,87,95,18,32,24
32840,-0.639888,-0.51233,0.271499,0.50228,0.37844,-0.640625,-0.515625,0.28125,0.5,0.375,87,95,18,32,24
32848,-0.639888,-0.51233,0.271499,0.50228,0.37844,-0.640625,-0.515625,0.28125,0.5,0.375,87,95,18,32,24
32904,-0.639888,-0.51233,0.271499,0.50228,0.37844,-0.640625,-0.515625,0.28125,0.5,0.375,87,95,18,32,24
32912,-0.639888,-0.51233,0.271499,0.50228,0.37844,-0.640625,-0.515625,0.28125,0.5,0.375,87,95,18,32,24
32968,-0.639888,-0.51233,0.271499,0.50228,0.37844,-0.640625,-0.515625,0.28125,0.5,0.375,87,95,18,32,24
32976,-0.639888,-0.51233,0.271499,0.50228,0.37844,-0.640625,-0.515625,0.28125,0.5,0.375,87,95,18,32,24
33032,-0.639888,-0.51233,0.271499,0.50228,0.37844,-0.640625,-0.515625,0.28125,0.5,0.375,87,95,18,32,24
33040,-0.639888,-0.51233,0.271499,0.50228,0.37844,-0.640625,-0.515625,0.28125,0.5,0.375,87,95,18,32,24
33096,-0.639888,-0.51233,0.271499,0.50228,0.37844,-0.640625,-0.515625,0.28125,0.5,0.375,87,95,18,32,24
33104,-0.639888,-0.51233,0.271499,0.50228,0.37844,-0.640625,-0.515625,0.28125,0.5,0.375,87,95,18,32,24
33160,-0.639888,-0.51233,0.271499,0.50228,0.37844,-0.640625,-0.515625,0.28125,0.5,0.375,87,95,18,32,24
33224,-0.639888,-0.51233,0.271499,0.50228,0.37844,-0.640625,-0.515625,0.28125,0.5,0.375,87,95,18,32,24
33232,-0.639888,-0.51233,0.271499,0.50228,0.37844,-0.640625,-0.515625,0.28125,0.5,0.375,87,95,18,32,24
33288,-0.639888,-0.51233,0.271499,0.50228,0.37844,-0.640625,-0.515625,0.28125,0.5,0.375,87,95,18,32,24
33296,-0.639888,-0.51233,0.271499,0.50228,0.37844,-0.640625,-0.515625,0.28125,0.5,0.375,87,95,18,32,24
33352,-0.639888,-0.51233,0.271499,0.50228,0.37844,-0.640625,-0.515625,0.28125,0.5,0.375,87,95,18,32,24
33360,-0.639888,-0.51233,0.271499,0.50228,0.37844,-0.640625,-0.515625,0.28125,0.5,0.375,87,95,18,32,24
33416,-0.639888,-0.51233,0.271499,0.50228,0.37844,-0.640625,-0.515625,0.28125,0.5,0.375,87,95,18,32,24
33424,-0.639888,-0.51233,0.271499,0.50228,0.37844,-0.640625,-0.515625,0.28125,0.5,0.375,87,95,18,32,24
33480,-0.639888,-0.51233,0.271499,0.50228,0.37844,-0.640625,-0.515625,0.28125,0.5,0.375,87,95,18,32,24
33544,-0.639888,-0.51233,0.271499,0.50228,0.37844,-0.640625,-0.515625,0.28125,0.5,0.375,87,95,18,32,24
33552,-0.639888,-0.51233,0.271499,0.50228,0.37844,-0.640625,-0.515625,0.28125,0.5,0.375,87,95,18,32,24
33608,-0.639888,-0.51233,0.271499,0.50228,0.37844,-0.640625,-0.515625,0.28125,0.5,0.375,87,95,18,32,24
33672,-0.639888,-0.51233,0.271499,0.50228,0.37844,-0.640625,-0.515625,0.28125,0.5,0.375,87,95,18,32,24
33680,-0.639888,-0.51233,0.271499,0.50228,0.37844,-0.640625,-0.515625,0.28125,0.5,0.375,87,95,18,32,24
33736,-0.639888,-0.51233,0.271499,0.50228,0.37844,-0.640625,-0.515625,0.28125,0.5,0.375,87,95,18,32,24
33800,-0.639888,-0.51233,0.271499,0.50228,0.37844,-0.640625,-0.515625,0.28125,0.5,0.375,87,95,18,32,24
33808,-0.639888,-0.51233,0.271499,0.50228,0.37844,-0.640625,-0.515625,0.28125,0.5,0.375,87,95,18,32,24
33864,-0.639888,-0.51233,0.271499,0.50228,0.37844,-0.640625,-0.515625,0.28125,0.5,0.375,87,95,18,32,24
33928,-0.639888,-0.51233,0.271499,0.50228,0.37844,-0.640625,-0.515625,0.28125,0.5,0.375,87,95,18,32,24
33992,-0.639888,-0.51233,0.271499,0.50228,0.37844,-0.640625,-0.515625,0.28125,0.5,0.375,87,95,18,32,24
34056,-0.639888,-0.51233,0.271499,0.50228,0.37844,-0.640625,-0.515625,0.28125,0.5,0.375,87,95,18,32,24
34184,-0.639888,-0.51233,0.271499,0.50228,0.37844,-0.640625,-0.515625,0.28125,0.5,0.375,87,95,18,32,24
34192,-0.639888,-0.51233,0.271499,0.50228,0.37844,-0.640625,-0.515625,0.28125,0.5,0.375,87,95,18,32,24
34312,-0.639888,-0.51233,0.271499,0.50228,0.37844,-0.640625,-0.515625,0.28125,0.5,0.375,87,95,18,32,24
34320,-0.639888,-0.51233,0.271499,0.50228,0.37844,-0.640625,-0.515625,0.28125,0.5,0.375,87,95,18,32,24
34328,-0.639888,-0.51233,0.271499,0.50228,0.37844,-0.640625,-0.515625,0.28125,0.5,0.375,87,95,18,32,24
34440,-0.639888,-0.51233,0.271499,0.50228,0.37844,-0.640625,-0.515625,0.28125,0.5,0.375,87,95,18,32,24
34448,-0.639888,-0.51233,0.271499,0.50228,0.37844,-0.640625,-0.515625,0.28125,0.5,0.375,87,95,18,32,24
34568,-0.639888,-0.51233,0.271499,0.50228,0.37844,-0.640625,-0.515625,0.28125,0.5,0.375,87,95,18,32,24
41032,-0.639888,-0.51233,0.271499,0.50228,0.37844,-0.640625,-0.515625,0.28125,0.5,0.375,87,95,18,32,24
41040,-0.639888,-0.51233,0.271499,0.50228,0.37844,-0.640625,-0.515625,0.28125,0.5,0.375,87,95,18,32,24
41048,-0.639888,-0.51233,0.271499,0.50228,0.37844,-0.640625,-0.515625,0.28125,0.5,0.375,87,95,18,32,24
41096,-0.639888,-0.51233,0.271499,0.50228,0.37844,-0.640625,-0.515625,0.28125,0.5,0.375,87,95,18,32,24
41104,-0.639888,-0.51233,0.271499,0.50228,0.37844,-0.640625,-0.515625,0.28125,0.5,0.375,87,95,18,32,24
41160,-0.639888,-0.51233,0.271499,0.50228,0.37844,-0.640625,-0.515625,0.28125,0.5,0.375,87,95,18,32,24
41168,-0.639888,-0.51233,0.271499,0.50228,0.37844,-0.640625,-0.515625,0.28125,0.5,0.375,87,95,18,32,24
41224,-0.639888,-0.51233,0.271499,0.50228,0.37844,-0.640625,-0.515625,0.28125,0.5,0.375,87,95,18,32,24
41232,-0.639888,-0.51233,0.271499,0.50228,0.37844,-0.640625,-0.515625,0.28125,0.5,0.375,87,95,18,32,24
41288,-0.639888,-0.51233,0.271499,0.50228,0.37844,-0.640625,-0.515625,0.28125,0.5,0.375,87,95,18,32,24
41352,-0.639888,-0.51233,0.271499,0.50228,0.37844,-0.640625,-0.515625,0.28125,0.5,0.375,87,95,18,32,24
41360,-0.639888,-0.51233,0.271499,0.50228,0.37844,-0.640625,-0.515625,0.28125,0.5,0.375,87,95,18,32,24
41416,-0.639888,-0.51233,0.271499,0.50228,0.37844,-0.640625,-0.515625,0.28125,0.5,0.375,87,95,18,32,24
41424,-0.639888,-0.51233,0.271499,0.50228,0.37844,-0.640625,-0.515625,0.28125,0.5,0.375,87,95,18,32,24
41480,-0.639888,-0.51233,0.271499,0.50228,0.37844,-0.640625,-0.515625,0.28125,0.5,0.375,87,95,18,32,24
41488,-0.639888,-0.51233,0.271499,0.50228,0.37844,-0.640625,-0.515625,0.28125,0.5,0.375,87,95,18,32,24
41496,-0.639888,-0.51233,0.271499,0.50228,0.37844,-0.640625,-0.515625,0.28125,0.5,0.375,87,95,18,32,24
41544,-0.639888,-0.51233,0.271499,0.50228,0.37844,-0.640625,-0.515625,0.28125,0.5,0.375,87,95,18,32,24
41552,-0.639888,-0.51233,0.271499,0.50228,0.37844,-0.640625,-0.515625,0.28125,0.5,0.375,87,95,18,32,24
41608,-0.639888,-0.51233,0.271499,0.50228,0.37844,-0.640625,-0.515625,0.28125,0.5,0.375,87,95,18,32,24
41672,-0.639888,-0.51233,0.271499,0.50228,0.37844,-0.640625,-0.515625,0.28125,0.5,0.375,87,95,18,32,24
41680,-0.639888,-0.51233,0.271499,0.50228,0.37844,-0.640625,-0.515625,0.28125,0.5,0.375,87,95,18,32,24
41736,-0.639888,-0.51233,0.271499,0.50228,0.37844,-0.640625,-0.515625,0.28125,0.5,0.375,87,95,18,32,24
41800,-0.639888,-0.51233,0.271499,0.50228,0.37844,-0.640625,-0.515625,0.28125,0.5,0.375,87,95,18,32,24
41808,-0.639888,-0.51233,0.271499,0.50228,0.37844,-0.640625,-0.515625,0.28125,0.5,0.375,87,95,18,32,24
41864,-0.639888,-0.51233,0.271499,0.50228,0.37844,-0.640625,-0.515625,0.28125,0.5,0.375,87,95,18,32,24
41872,-0.639888,-0.51233,0.271499,0.50228,0.37844,-0.640625,-0.515625,0.28125,0.5,0.375,87,95,18,32,24
41928,-0.639888,-0.51233,0.271499,0.50228,0.37844,-0.640625,-0.515625,0.28125,0.5,0.375,87,95,18,32,24
41992,-0.639888,-0.51233,0.271499,0.50228,0.37844,-0.640625,-0.515625,0.28125,0.5,0.375,87,95,18,32,24
42056,-0.639888,-0.51233,0.271499,0.50228,0.37844,-0.640625,-0.515625,0.28125,0.5,0.375,87,95,18,32,24
42120,-0.639888,-0.51233,0.271499,0.50228,0.37844,-0.640625,-0.515625,0.28125,0.5,0.375,87,95,18,32,24
42184,-0.639888,-0.51233,0.271499,0.50228,0.37844,-0.640625,-0.515625,0.28125,0.5,0.375,87,95,18,32,24
42192,-0.639888,-0.51233,0.271499,0.50228,0.37844,-0.640625,-0.515625,0.28125,0.5,0.375,87,95,18,32,24
42248,-0.639888,-0.51233,0.271499,0.50228,0.37844,-0.640625,-0.515625,0.28125,0.5,0.375,87,95,18,32,24
42256,-0.639888,-0.51233,0.271499,0.50228,0.37844,-0.640625,-0.515625,0.28125,0.5,0.375,87,95,18,32,24
42376,-0.639888,-0.51233,0.271499,0.50228,0.37844,-0.640625,-0.515625,0.28125,0.5,0.375,87,95,18,32,24
42504,-0.639888,-0.51233,0.271499,0.50228,0.37844,-0.640625,-0.515625,0.28125,0.5,0.375,87,95,18,32,24
42632,-0.639888,-0.51233,0.271499,0.50228,0.37844,-0.640625,-0.515625,0.28125,0.5,0.375,87,95,18,32,24
42640,-0.639888,-0.51233,0.271499,0.50228,0.37844,-0.640625,-0.515625,0.28125,0.5,0.375,87,95,18,32,24
42760,-0.639888,-0.51233,0.271499,0.50228,0.37844,-0.640625,-0.515625,0.28125,0.5,0.375,87,95,18,32,24
42768,-0.639888,-0.51233,0.271499,0.50228,0.37844,-0.640625,-0.515625,0.28125,0.5,0.375,87,95,18,32,24
49224,-0.639888,-0.51233,0.271499,0.50228,0.37844,-0.640625,-0.515625,0.28125,0.5,0.375,87,95,18,32,24
49232,-0.639888,-0.51233,0.271499,0.50228,0.37844,-0.640625,-0.515625,0.28125,0.5,0.375,87,95,18,32,24
49288,-0.639888,-0.51233,0.271499,0.50228,0.37844,-0.640625,-0.515625,0.28125,0.5,0.375,87,95,18,32,24
49296,-0.639888,-0.51233,0.271499,0.50228,0.37844,-0.640625,-0.515625,0.28125,0.5,0.375,87,95,18,32,24
49352,-0.639888,-0.51233,0.271499,0.50228,0.37844,-0.640625,-0.515625,0.28125,0.5,0.375,87,95,18,32,24
49360,-0.639888,-0.51233,0.271499,0.50228,0.37844,-0.640625,-0.515625,0.28125,0.5,0.375,87,95,18,32,24
49416,-0.639888,-0.51233,0.271499,0.50228,0.37844,-0.640625,-0.515625,0.28125,0.5,0.375,87,95,18,32,24
49424,-0.639888,-0.51233,0.271499,0.50228,0.37844,-0.640625,-0.515625,0.28125,0.5,0.375,87,95,18,32,24
49432,-0.639888,-0.51233,0.271499,0.50228,0.37844,-0.640625,-0.515625,0.28125,0.5,0.375,87,95,18,32,24
49480,-0.639888,-0.51233,0.271499,0.50228,0.37844,-0.640625,-0.515625,0.28125,0.5,0.375,87,95,18,32,24
49488,-0.639888,-0.51233,0.271499,0.50228,0.37844,-0.640625,-0.515625,0.28125,0.5,0.375,87,95,18,32,24
49496,-0.639888,-0.51233,0.271499,0.50228,0.37844,-0.640625,-0.515625,0.28125,0.5,0.375,87,95,18,32,24
49544,-0.639888,-0.51233,0.271499,0.50228,0.37844,-0.640625,-0.515625,0.28125,0.5,0.375,87,95,18,32,24
49552,-0.639888,-0.51233,0.271499,0.50228,0.37844,-0.640625,-0.515625,0.28125,0.5,0.375,87,95,18,32,24
49608,-0.639888,-0.51233,0.271499,0.50228,0.37844,-0.640625,-0.515625,0.28125,0.5,0.375,87,95,18,32,24
49616,-0.639888,-0.51233,0.271499,0.50228,0.37844,-0.640625,-0.515625,0.28125,0.5,0.375,87,95,18,32,24
49672,-0.639888,-0.51233,0.271499,0.50228,0.37844,-0.640625,-0.515625,0.28125,0.5,0.375,87,95,18,32,24
49736,-0.639888,-0.51233,0.271499,0.50228,0.37844,-0.640625,-0.515625,0.28125,0.5,0.375,87,95,18,32,24
49800,-0.639888,-0.51233,0.271499,0.50228,0.37844,-0.640625,-0.515625,0.28125,0.5,0.375,87,95,18,32,24
49808,-0.639888,-0.51233,0.271499,0.50228,0.37844,-0.640625,-0.515625,0.28125,0.5,0.375,87,95,18,32,24
49864,-0.639888,-0.51233,0.271499,0.50228,0.37844,-0.640625,-0.515625,0.28125,0.5,0.375,87,95,18,32,24
49928,-0.639888,-0.51233,0.271499,0.50228,0.37844,-0.640625,-0.515625,0.28125,0.5,0.375,87,95,18,32,24
49936,-0.639888,-0.51233,0.271499,0.50228,0.37844,-0.640625,-0.515625,0.28125,0.5,0.375,87,95,18,32,24
49992,-0.639888,-0.51233,0.271499,0.50228,0.37844,-0.640625,-0.515625,0.28125,0.5,0.375,87,95,18,32,24
50056,-0.639888,-0.51233,0.271499,0.50228,0.37844,-0.640625,-0.515625,0.28125,0.5,0.375,87,95,18,32,24
50120,-0.639888,-0.51233,0.271499,0.50228,0.37844,-0.640625,-0.515625,0.28125,0.5,0.375,87,95,18,32,24
50128,-0.639888,-0.51233,0.271499,0.50228,0.37844,-0.640625,-0.515625,0.28125,0.5,0.375,87,95,18,32,24
50184,-0.639888,-0.51233,0.271499,0.50228,0.37844,-0.640625,-0.515625,0.28125,0.5,0.375,87,95,18,32,24
50192,-0.639888,-0.51233,0.271499,0.50228,0.37844,-0.640625,-0.515625,0.28125,0.5,0.375,87,95,18,32,24
50248,-0.639888,-0.51233,0.271499,0.50228,0.37844,-0.640625,-0.515625,0.28125,0.5,0.375,87,95,18,32,24
50256,-0.639888,-0.51233,0.271499,0.50228,0.37844,-0.640625,-0.515625,0.28125,0.5,0.375,87,95,18,32,24
50312,-0.639888,-0.51233,0.271499,0.50228,0.37844,-0.640625,-0.515625,0.28125,0.5,0.375,87,95,18,32,24
50320,-0.639888,-0.51233,0.271499,0.50228,0.37844,-0.640625,-0.515625,0.28125,0.5,0.375,87,95,18,32,24
50376,-0.639888,-0.51233,0.271499,0.50228,0.37844,-0.640625,-0.515625,0.28125,0.5,0.375,87,95,18,32,24
50440,-0.639888,-0.51233,0.271499,0.50228,0.37844,-0.640625,-0.515625,0.28125,0.5,0.375,87,95,18,32,24
50568,-0.639888,-0.51233,0.271499,0.50228,0.37844,-0.640625,-0.515625,0.28125,0.5,0.375,87,95,18,32,24
50696,-0.639888,-0.51233,0.271499,0.50228,0.37844,-0.640625,-0.515625,0.28125,0.5,0.375,87,95,18,32,24
50824,-0.639888,-0.51233,0.271499,0.50228,0.37844,-0.640625,-0.515625,0.28125,0.5,0.375,87,95,18,32,24
50832,-0.639888,-0.51233,0.271499,0.50228,0.37844,-0.640625,-0.515625,0.28125,0.5,0.375,87,95,18,32,24
50952,-0.639888,-0.51233,0.271499,0.50228,0.37844,-0.640625,-0.515625,0.28125,0.5,0.375,87,95,18,32,24
50960,-0.639888,-0.51233,0.271499,0.50228,0.37844,-0.640625,-0.515625,0.28125,0.5,0.375,87,95,18,32,24
57416,-0.639888,-0.51233,0.271499,0.50228,0.37844,-0.640625,-0.515625,0.28125,0.5,0.375,87,95,18,32,24
57424,-0.639888,-0.51233,0.271499,0.50228,0.37844,-0.640625,-0.515625,0.28125,0.5,0.375,87,95,18,32,24
57480,-0.639888,-0.51233,0.271499,0.50228,0.37844,-0.640625,-0.515625,0.28125,0.5,0.375,87,95,18,32,24
57488,-0.639888,-0.51233,0.271499,0.50228,0.37844,-0.640625,-0.515625,0.28125,0.5,0.375,87,95,18,32,24
57544,-0.639888,-0.51233,0.271499,0.50228,0.37844,-0.640625,-0.515625,0.28125,0.5,0.375,87,95,18,32,24
57552,-0.639888,-0.51233,0.271499,0.50228,0.37844,-0.640625,-0.515625,0.28125,0.5,0.375,87,95,18,32,24
57608,-0.639888,-0.51233,0.271499,0.50228,0.37844,-0.640625,-0.515625,0.28125,0.5,0.375,87,95,18,32,24
57616,-0.639888,-0.51233,0.271499,0.50228,0.37844,-0.640625,-0.515625,0.28125,0.5,0.375,87,95,18,32,24
57672,-0.639888,-0.51233,0.271499,0.50228,0.37844,-0.640625,-0.515625,0.28125,0.5,0.375,87,95,18,32,24
57680,-0.639888,-0.51233,0.271499,0.50228,0.37844,-0.640625,-0.515625,0.28125,0.5,0.375,87,95,18,32,24
57736,-0.639888,-0.51233,0.271499,0.50228,0.37844,-0.640625,-0.515625,0.28125,0.5,0.375,87,95,18,32,24
57744,-0.639888,-0.51233,0.271499,0.50228,0.37844,-0.640625,-0.515625,0.28125,0.5,0.375,87,95,18,32,24
57800,-0.639888,-0.51233,0.271499,0.50228,0.37844,-0.640625,-0.515625,0.28125,0.5,0.375,87,95,18,32,24
57864,-0.639888,-0.51233,0.271499,0.50228,0.37844,-0.640625,-0.515625,0.28125,0.5,0.375,87,95,18,32,24
57872,-0.639888,-0.51233,0.271499,0.50228,0.37844,-0.640625,-0.515625,0.28125,0.5,0.375,87,95,18,32,24
57928,-0.639888,-0.51233,0.271499,0.50228,0.37844,-0.640625,-0.515625,0.28125,0.5,0.375,87,95,18,32,24
57936,-0.639888,-0.51233,0.271499,0.50228,0.37844,-0.640625,-0.515625,0.28125,0.5,0.375,87,95,18,32,24
57992,-0.639888,-0.51233,0.271499,0.50228,0.37844,-0.640625,-0.515625,0.28125,0.5,0.375,87,95,18,32,24
58056,-0.639888,-0.51233,0.271499,0.50228,0.37844,-0.640625,-0.515625,0.28125,0.5,0.375,87,95,18,32,24
58064,-0.639888,-0.51233,0.271499,0.50228,0.37844,-0.640625,-0.515625,0.28125,0.5,0.375,87,95,18,32,24
58120,-0.639888,-0.51233,0.271499,0.50228,0.37844,-0.640625,-0.515625,0.28125,0.5,0.375,87,95,18,32,24
58128,-0.639888,-0.51233,0.271499,0.50228,0.37844,-0.640625,-0.515625,0.28125,0.5,0.375,87,95,18,32,24
58184,-0.639888,-0.51233,0.271499,0.50228,0.37844,-0.640625,-0.515625,0.28125,0.5,0.375,87,95,18,32,24
58192,-0.639888,-0.51233,0.271499,0.50228,0.37844,-0.640625,-0.515625,0.28125,0.5,0.375,87,95,18,32,24
58248,-0.639888,-0.51233,0.271499,0.50228,0.37844,-0.640625,-0.515625,0.28125,0.5,0.375,87,95,18,32,24
58312,-0.639888,-0.51233,0.271499,0.50228,0.37844,-0.640625,-0.515625,0.28125,0.5,0.375,87,95,18,32,24
58320,-0.639888,-0.51233,0.271499,0.50228,0.37844,-0.640625,-0.515625,0.28125,0.5,0.375,87,95,18,32,24
58376,-0.639888,-0.51233,0.271499,0.50228,0.37844,-0.640625,-0.515625,0.28125,0.5,0.375,87,95,18,32,24
58440,-0.639888,-0.51233,0.271499,0.50228,0.37844,-0.640625,-0.515625,0.28125,0.5,0.375,87,95,18,32,24
58504,-0.639888,-0.51233,0.271499,0.50228,0.37844,-0.640625,-0.515625,0.28125,0.5,0.375,87,95,18,32,24
58568,-0.639888,-0.51233,0.271499,0.50228,0.37844,-0.640625,-0.515625,0.28125,0.5,0.375,87,95,18,32,24
58632,-0.639888,-0.51233,0.271499,0.50228,0.37844,-0.640625,-0.515625,0.28125,0.5,0.375,87,95,18,32,24
58760,-0.639888,-0.51233,0.271499,0.50228,0.37844,-0.640625,-0.515625,0.28125,0.5,0.375,87,95,18,32,24
58768,-0.639888,-0.51233,0.271499,0.50228,0.37844,-0.640625,-0.515625,0.28125,0.5,0.375,87,95,18,32,24
58776,-0.639888,-0.51233,0.271499,0.50228,0.37844,-0.640625,-0.515625,0.28125,0.5,0.375,87,95,18,32,24
58888,-0.639888,-0.51233,0.271499,0.50228,0.37844,-0.640625,-0.515625,0.28125,0.5,0.375,87,95,18,32,24
59016,-0.639888,-0.51233,0.271499,0.50228,0.37844,-0.640625,-0.515625,0.28125,0.5,0.375,87,95,18,32,24
59144,-0.639888,-0.51233,0.271499,0.50228,0.37844,-0.640625,-0.515625,0.28125,0.5,0.375,87,95,18,32,24
59152,-0.639888,-0.51233,0.271499,0.50228,0.37844,-0.640625,-0.515625,0.28125,0.5,0.375,87,95,18,32,24
59160,-0.639888,-0.51233,0.271499,0.50228,0.37844,-0.640625,-0.515625,0.28125,0.5,0.375,87,95,18,32,24
65608,-0.639888,-0.51233,0.271499,0.50228,0.37844,-0.640625,-0.515625,0.28125,0.5,0.375,87,95,18,32,24
65616,-0.639888,-0.51233,0.271499,0.50228,0.37844,-0.640625,-0.515625,0.28125,0.5,0.375,87,95,18,32,24
65672,-0.639888,-0.51233,0.271499,0.50228,0.37844,-0.640625,-0.515625,0.28125,0.5,0.375,87,95,18,32,24
65680,-0.639888,-0.51233,0.271499,0.50228,0.37844,-0.640625,-0.515625,0.28125,0.5,0.375,87,95,18,32,24
65736,-0.639888,-0.51233,0.271499,0.50228,0.37844,-0.640625,-0.515625,0.28125,0.5,0.375,87,95,18,32,24
65744,-0.639888,-0.51233,0.271499,0.50228,0.37844,-0.640625,-0.515625,0.28125,0.5,0.375,87,95,18,32,24
65800,-0.639888,-0.51233,0.271499,0.50228,0.37844,-0.640625,-0.515625,0.28125,0.5,0.375,87,95,18,32,24
65808,-0.639888,-0.51233,0.271499,0.50228,0.37844,-0.640625,-0.515625,0.28125,0.5,0.375,87,95,18,32,24
65864,-0.639888,-0.51233,0.271499,0.50228,0.37844,-0.640625,-0.515625,0.28125,0.5,0.375,87,95,18,32,24
65872,-0.639888,-0.51233,0.271499,0.50228,0.37844,-0.640625,-0.515625,0.28125,0.5,0.375,87,95,18,32,24
65928,-0.639888,-0.51233,0.271499,0.50228,0.37844,-0.640625,-0.515625,0.28125,0.5,0.375,87,95,18,32,24
65992,-0.639888,-0.51233,0.271499,0.50228,0.37844,-0.640625,-0.515625,0.28125,0.5,0.375,87,95,18,32,24
66000,-0.639888,-0.51233,0.271499,0.50228,0.37844,-0.640625,-0.515625,0.28125,0.5,0.375,87,95,18,32,24
66056,-0.639888,-0.51233,0.271499,0.50228,0.37844,-0.640625,-0.515625,0.28125,0.5,0.375,87,95,18,32,24
66120,-0.639888,-0.51233,0.271499,0.50228,0.37844,-0.640625,-0.515625,0.28125,0.5,0.375,87,95,18,32,24
66128,-0.639888,-0.51233,0.271499,0.50228,0.37844,-0.640625,-0.515625,0.28125,0.5,0.375,87,95,18,32,24
66184,-0.639888,-0.51233,0.271499,0.50228,0.37844,-0.640625,-0.515625,0.28125,0.5,0.375,87,95,18,32,24
66192,-0.639888,-0.51233,0.271499,0.50228,0.37844,-0.640625,-0.515625,0.28125,0.5,0.375,87,95,18,32,24
66248,-0.639888,-0.51233,0.271499,0.50228,0.37844,-0.640625,-0.515625,0.28125,0.5,0.375,87,95,18,32,24
66256,-0.639888,-0.51233,0.271499,0.50228,0.37844,-0.640625,-0.515625,0.28125,0.5,0.375,87,95,18,32,24
66312,-0.639888,-0.51233,0.271499,0.50228,0.37844,-0.640625,-0.515625,0.28125,0.5,0.375,87,95,18,32,24
66320,-0.639888,-0.51233,0.271499,0.50228,0.37844,-0.640625,-0.515625,0.28125,0.5,0.375,87,95,18,32,24
66376,-0.639888,-0.51233,0.271499,0.50228,0.37844,-0.640625,-0.515625,0.28125,0.5,0.375,87,95,18,32,24
66384,-0.639888,-0.51233,0.271499,0.50228,0.37844,-0.640625,-0.515625,0.28125,0.5,0.375,87,95,18,32,24
66440,-0.639888,-0.51233,0.271499,0.50228,0.37844,-0.640625,-0.515625,0.28125,0.5,0.375,87,95,18,32,24
66504,-0.639888,-0.51233,0.271499,0.50228,0.37844,-0.640625,-0.515625,0.28125,0.5,0.375,87,95,18,32,24
66568,-0.639888,-0.51233,0.271499,0.50228,0.37844,-0.640625,-0.515625,0.28125,0.5,0.375,87,95,18,32,24
66576,-0.639888,-0.51233,0.271499,0.50228,0.37844,-0.640625,-0.515625,0.28125,0.5,0.375,87,95,18,32,24
66632,-0.639888,-0.51233,0.271499,0.50228,0.37844,-0.640625,-0.515625,0.28125,0.5,0.375,87,95,18,32,24
66640,-0.639888,-0.51233,0.271499,0.50228,0.37844,-0.640625,-0.515625,0.28125,0.5,0.375,87,95,18,32,24
66696,-0.639888,-0.51233,0.271499,0.50228,0.37844,-0.640625,-0.515625,0.28125,0.5,0.375,87,95,18,32,24
66704,-0.639888,-0.51233,0.271499,0.50228,0.37844,-0.640625,-0.515625,0.28125,0.5,0.375,87,95,18,32,24
66760,-0.639888,-0.51233,0.271499,0.50228,0.37844,-0.640625,-0.515625,0.28125,0.5,0.375,87,95,18,32,24
66824,-0.639888,-0.51233,0.271499,0.50228,0.37844,-0.640625,-0.515625,0.28125,0.5,0.375,87,95,18,32,24
66952,-0.639888,-0.51233,0.271499,0.50228,0.37844,-0.640625,-0.515625,0.28125,0.5,0.375,87,95,18,32,24
66960,-0.639888,-0.51233,0.271499,0.50228,0.37844,-0.640625,-0.515625,0.28125,0.5,0.375,87,95,18,32,24
67080,-0.639888,-0.51233,0.271499,0.50228,0.37844,-0.640625,-0.515625,0.28125,0.5,0.375,87,95,18,32,24
67088,-0.639888,-0.51233,0.271499,0.50228,0.37844,-0.640625,-0.515625,0.28125,0.5,0.375,87,95,18,32,24
67208,-0.639888,-0.51233,0.271499,0.50228,0.37844,-0.640625,-0.515625,0.28125,0.5,0.375,87,95,18,32,24
67336,-0.639888,-0.51233,0.271499,0.50228,0.37844,-0.640625,-0.515625,0.28125,0.5,0.375,87,95,18,32,24
67344,-0.639888,-0.51233,0.271499,0.50228,0.37844,-0.640625,-0.515625,0.28125,0.5,0.375,87,95,18,32,24
73800,-0.639888,-0.51233,0.271499,0.50228,0.37844,-0.640625,-0.515625,0.28125,0.5,0.375,87,95,18,32,24
73808,-0.639888,-0.51233,0.271499,0.50228,0.37844,-0.640625,-0.515625,0.28125,0.5,0.375,87,95,18,32,24
73864,-0.639888,-0.51233,0.271499,0.50228,0.37844,-0.640625,-0.515625,0.28125,0.5,0.375,87,95,18,32,24
73872,-0.639888,-0.51233,0.271499,0.50228,0.37844,-0.640625,-0.515625,0.28125,0.5,0.375,87,95,18,32,24
73928,-0.639888,-0.51233,0.271499,0.50228,0.37844,-0.640625,-0.515625,0.28125,0.5,0.375,87,95,18,32,24
73936,-0.639888,-0.51233,0.271499,0.50228,0.37844,-0.640625,-0.515625,0.28125,0.5,0.375,87,95,18,32,24
73944,-0.639888,-0.51233,0.271499,0.50228,0.37844,-0.640625,-0.515625,0.28125,0.5,0.375,87,95,18,32,24
73992,-0.639888,-0.51233,0.271499,0.50228,0.37844,-0.640625,-0.515625,0.28125,0.5,0.375,87,95,18,32,24
74000,-0.639888,-0.51233,0.271499,0.50228,0.37844,-0.640625,-0.515625,0.28125,0.5,0.375,87,95,18,32,24
74056,-0.639888,-0.51233,0.271499,0.50228,0.37844,-0.640625,-0.515625,0.28125,0.5,0.375,87,95,18,32,24
74064,-0.639888,-0.51233,0.271499,0.50228,0.37844,-0.640625,-0.515625,0.28125,0.5,0.375,87,95,18,32,24
74120,-0.639888,-0.51233,0.271499,0.50228,0.37844,-0.640625,-0.515625,0.28125,0.5,0.375,87,95,18,32,24
74128,-0.639888,-0.51233,0.271499,0.50228,0.37844,-0.640625,-0.515625,0.28125,0.5,0.375,87,95,18,32,24
74184,-0.639888,-0.51233,0.271499,0.50228,0.37844,-0.640625,-0.515625,0.28125,0.5,0.375,87,95,18,32,24
74248,-0.639888,-0.51233,0.271499,0.50228,0.37844,-0.640625,-0.515625,0.28125,0.5,0.375,87,95,18,32,24
74256,-0.639888,-0.51233,0.271499,0.50228,0.37844,-0.640625,-0.515625,0.28125,0.5,0.375,87,95,18,32,24
74312,-0.639888,-0.51233,0.271499,0.50228,0.37844,-0.640625,-0.515625,0.28125,0.5,0.375,87,95,18,32,24
74376,-0.639888,-0.51233,0.271499,0.50228,0.37844,-0.640625,-0.515625,0.28125,0.5,0.375,87,95,18,32,24
74384,-0.639888,-0.51233,0.271499,0.50228,0.37844,-0.640625,-0.515625,0.28125,0.5,0.375,87,95,18,32,24
74440,-0.639888,-0.51233,0.271499,0.50228,0.37844,-0.640625,-0.515625,0.28125,0.5,0.375,87,95,18,32,24
74448,-0.639888,-0.51233,0.271499,0.50228,0.37844,-0.640625,-0.515625,0.28125,0.5,0.375,87,95,18,32,24
74504,-0.639888,-0.51233,0.271499,0.50228,0.37844,-0.640625,-0.515625,0.28125,0.5,0.375,87,95,18,32,24
74568,-0.639888,-0.51233,0.271499,0.50228,0.37844,-0.640625,-0.515625,0.28125,0.5,0.375,87,95,18,32,24
74632,-0.639888,-0.51233,0.271499,0.50228,0.37844,-0.640625,-0.515625,0.28125,0.5,0.375,87,95,18,32,24
74640,-0.639888,-0.51233,0.271499,0.50228,0.37844,-0.640625,-0.515625,0.28125,0.5,0.375,87,95,18,32,24
74696,-0.639888,-0.51233,0.271499,0.50228,0.37844,-0.640625,-0.515625,0.28125,0.5,0.375,87,95,18,32,24
74704,-0.639888,-0.51233,0.271499,0.50228,0.37844,-0.640625,-0.515625,0.28125,0.5,0.375,87,95,18,32,24
74760,-0.639888,-0.51233,0.271499,0.50228,0.37844,-0.640625,-0.515625,0.28125,0.5,0.375,87,95,18,32,24
74768,-0.639888,-0.51233,0.271499,0.50228,0.37844,-0.640625,-0.515625,0.28125,0.5,0.375,87,95,18,32,24
74824,-0.639888,-0.51233,0.271499,0.50228,0.37844,-0.640625,-0.515625,0.28125,0.5,0.375,87,95,18,32,24
74888,-0.639888,-0.51233,0.271499,0.50228,0.37844,-0.640625,-0.515625,0.28125,0.5,0.375,87,95,18,32,24
74952,-0.639888,-0.51233,0.271499,0.50228,0.37844,-0.640625,-0.515625,0.28125,0.5,0.375,87,95,18,32,24
75016,-0.639888,-0.51233,0.271499,0.50228,0.37844,-0.640625,-0.515625,0.28125,0.5,0.375,87,95,18,32,24
75144,-0.639888,-0.51233,0.271499,0.50228,0.37844,-0.640625,-0.515625,0.28125,0.5,0.375,87,95,18,32,24
75152,-0.639888,-0.51233,0.271499,0.50228,0.37844,-0.640625,-0.515625,0.28125,0.5,0.375,87,95,18,32,24
75160,-0.639888,-0.51233,0.271499,0.50228,0.37844,-0.640625,-0.515625,0.28125,0.5,0.375,87,95,18,32,24
75272,-0.639888,-0.51233,0.271499,0.50228,0.37844,-0.640625,-0.515625,0.28125,0.5,0.375,87,95,18,32,24
75400,-0.639888,-0.51233,0.271499,0.50228,0.37844,-0.640625,-0.515625,0.28125,0.5,0.375,87,95,18,32,24
75528,-0.639888,-0.51233,0.271499,0.50228,0.37844,-0.640625,-0.515625,0.28125,0.5,0.375,87,95,18,32,24
75536,-0.639888,-0.51233,0.271499,0.50228,0.37844,-0.640625,-0.515625,0.28125,0.5,0.375,87,95,18,32,24
81992,-0.639888,-0.51233,0.271499,0.50228,0.37844,-0.640625,-0.515625,0.28125,0.5,0.375,87,95,18,32,24
82000,-0.639888,-0.51233,0.271499,0.50228,0.37844,-0.640625,-0.515625,0.28125,0.5,0.375,87,95,18,32,24
82056,-0.639888,-0.51233,0.271499,0.50228,0.37844,-0.640625,-0.515625,0.28125,0.5,0.375,87,95,18,32,24
82064,-0.639888,-0.51233,0.271499,0.50228,0.37844,-0.640625,-0.515625,0.28125,0.5,0.375,87,95,18,32,24
82120,-0.639888,-0.51233,0.271499,0.50228,0.37844,-0.640625,-0.515625,0.28125,0.5,0.375,87,95,18,32,24
82128,-0.639888,-0.51233,0.271499,0.50228,0.37844,-0.640625,-0.515625,0.28125,0.5,0.375,87,95,18,32,24
82184,-0.639888,-0.51233,0.271499,0.50228,0.37844,-0.640625,-0.515625,0.28125,0.5,0.375,87,95,18,32,24
82192,-0.639888,-0.51233,0.271499,0.50228,0.37844,-0.640625,-0.515625,0.28125,0.5,0.375,87,95,18,32,24
82248,-0.639888,-0.51233,0.271499,0.50228,0.37844,-0.640625,-0.515625,0.28125,0.5,0.375,87,95,18,32,24
82256,-0.639888,-0.51233,0.271499,0.50228,0.37844,-0.640625,-0.515625,0.28125,0.5,0.375,87,95,18,32,24
82312,-0.639888,-0.51233,0.271499,0.50228,0.37844,-0.640625,-0.515625,0.28125,0.5,0.375,87,95,18,32,24
82320,-0.639888,-0.51233,0.271499,0.50228,0.37844,-0.640625,-0.515625,0.28125,0.5,0.375,87,95,18,32,24
82328,-0.639888,-0.51233,0.271499,0.50228,0.37844,-0.640625,-0.515625,0.28125,0.5,0.375,87,95,18,32,24
82376,-0.639888,-0.51233,0.271499,0.50228,0.37844,-0.640625,-0.515625,0.28125,0.5,0.375,87,95,18,32,24
82384,-0.639888,-0.51233,0.271499,0.50228,0.37844,-0.640625,-0.515625,0.28125,0.5,0.375,87,95,18,32,24
82392,-0.639888,-0.51233,0.271499,0.50228,0.37844,-0.640625,-0.515625,0.28125,0.5,0.375,87,95,18,32,24
82440,-0.639888,-0.51233,0.271499,0.50228,0.37844,-0.640625,-0.515625,0.28125,0.5,0.375,87,95,18,32,24
82448,-0.639888,-0.51233,0.271499,0.50228,0.37844,-0.640625,-0.515625,0.28125,0.5,0.375,87,95,18,32,24
82504,-0.639888,-0.51233,0.271499,0.50228,0.37844,-0.640625,-0.515625,0.28125,0.5,0.375,87,95,18,32,24
82512,-0.639888,-0.51233,0.271499,0.50228,0.37844,-0.640625,-0.515625,0.28125,0.5,0.375,87,95,18,32,24
82568,-0.639888,-0.51233,0.271499,0.50228,0.37844,-0.640625,-0.515625,0.28125,0.5,0.375,87,95,18,32,24
82632,-0.639888,-0.51233,0.271499,0.50228,0.37844,-0.640625,-0.515625,0.28125,0.5,0.375,87,95,18,32,24
82696,-0.639888,-0.51233,0.271499,0.50228,0.37844,-0.640625,-0.515625,0.28125,0.5,0.375,87,95,18,32,24
82704,-0.639888,-0.51233,0.271499,0.50228,0.37844,-0.640625,-0.515625,0.28125,0.5,0.375,87,95,18,32,24
82760,-0.639888,-0.51233,0.271499,0.50228,0.37844,-0.640625,-0.515625,0.28125,0.5,0.375,87,95,18,32,24
82824,-0.639888,-0.51233,0.271499,0.50228,0.37844,-0.640625,-0.515625,0.28125,0.5,0.375,87,95,18,32,24
82888,-0.639888,-0.51233,0.271499,0.50228,0.37844,-0.640625,-0.515625,0.28125,0.5,0.375,87,95,18,32,24
82952,-0.639888,-0.51233,0.271499,0.50228,0.37844,-0.640625,-0.515625,0.28125,0.5,0.375,87,95,18,32,24
83016,-0.639888,-0.51233,0.271499,0.50228,0.37844,-0.640625,-0.515625,0.28125,0.5,0.375,87,95,18,32,24
83024,-0.639888,-0.51233,0.271499,0.50228,0.37844,-0.640625,-0.515625,0.28125,0.5,0.375,87,95,18,32,24
83080,-0.639888,-0.51233,0.271499,0.50228,0.37844,-0.640625,-0.515625,0.28125,0.5,0.375,87,95,18,32,24
83088,-0.639888,-0.51233,0.271499,0.50228,0.37844,-0.640625,-0.515625,0.28125,0.5,0.375,87,95,18,32,24
83144,-0.639888,-0.51233,0.271499,0.50228,0.37844,-0.640625,-0.515625,0.28125,0.5,0.375,87,95,18,32,24
83152,-0.639888,-0.51233,0.271499,0.50228,0.37844,-0.640625,-0.515625,0.28125,0.5,0.375,87,95,18,32,24
83208,-0.639888,-0.51233,0.271499,0.50228,0.37844,-0.640625,-0.515625,0.28125,0.5,0.375,87,95,18,32,24
83216,-0.639888,-0.51233,0.271499,0.50228,0.37844,-0.640625,-0.515625,0.28125,0.5,0.375,87,95,18,32,24
83336,-0.639888,-0.51233,0.271499,0.50228,0.37844,-0.640625,-0.515625,0.28125,0.5,0.375,87,95,18,32,24
83464,-0.639888,-0.51233,0.271499,0.50228,0.37844,-0.640625,-0.515625,0.28125,0.5,0.375,87,95,18,32,24
83592,-0.639888,-0.51233,0.271499,0.50228,0.37844,-0.640625,-0.515625,0.28125,0.5,0.375,87,95,18,32,24
83600,-0.639888,-0.51233,0.271499,0.50228,0.37844,-0.640625,-0.515625,0.28125,0.5,0.375,87,95,18,32,24
83720,-0.639888,-0.51233,0.271499,0.50228,0.37844,-0.640625,-0.515625,0.28125,0.5,0.375,87,95,18,32,24
83728,-0.639888,-0.51233,0.271499,0.50228,0.37844,-0.640625,-0.515625,0.28125,0.5,0.375,87,95,18,32,24
90184,-0.639888,-0.51233,0.271499,0.50228,0.37844,-0.640625,-0.515625,0.28125,0.5,0.375,87,95,18,32,24
90192,-0.639888,-0.51233,0.271499,0.50228,0.37844,-0.640625,-0.515625,0.28125,0.5,0.375,87,95,18,32,24
90248,-0.639888,-0.51233,0.271499,0.50228,0.37844,-0.640625,-0.515625,0.28125,0.5,0.375,87,95,18,32,24
90256,-0.639888,-0.51233,0.271499,0.50228,0.37844,-0.640625,-0.515625,0.28125,0.5,0.375,87,95,18,32,24
90264,-0.639888,-0.51233,0.271499,0.50228,0.37844,-0.640625,-0.515625,0.28125,0.5,0.375,87,95,18,32,24
90312,-0.639888,-0.51233,0.271499,0.50228,0.37844,-0.640625,-0.515625,0.28125,0.5,0.375,87,95,18,32,24
90320,-0.639888,-0.51233,0.271499,0.50228,0.37844,-0.640625,-0.515625,0.28125,0.5,0.375,87,95,18,32,24
90376,-0.639888,-0.51233,0.271499,0.50228,0.37844,-0.640625,-0.515625,0.28125,0.5,0.375,87,95,18,32,24
90384,-0.639888,-0.51233,0.271499,0.50228,0.37844,-0.640625,-0.515625,0.28125,0.5,0.375,87,95,18,32,24
90440,-0.639888,-0.51233,0.271499,0.50228,0.37844,-0.640625,-0.515625,0.28125,0.5,0.375,87,95,18,32,24
90448,-0.639888,-0.51233,0.271499,0.50228,0.37844,-0.640625,-0.515625,0.28125,0.5,0.375,87,95,18,32,24
90504,-0.639888,-0.51233,0.271499,0.50228,0.37844,-0.640625,-0.515625,0.28125,0.5,0.375,87,95,18,32,24
90568,-0.639888,-0.51233,0.271499,0.50228,0.37844,-0.640625,-0.515625,0.28125,0.5,0.375,87,95,18,32,24
90576,-0.639888,-0.51233,0.271499,0.50228,0.37844,-0.640625,-0.515625,0.28125,0.5,0.375,87,95,18,32,24
90632,-0.639888,-0.51233,0.271499,0.50228,0.37844,-0.640625,-0.515625,0.28125,0.5,0.375,87,95,18,32,24
90640,-0.639888,-0.51233,0.271499,0.50228,0.37844,-0.640625,-0.515625,0.28125,0.5,0.375,87,95,18,32,24
90696,-0.639888,-0.51233,0.271499,0.50228,0.37844,-0.640625,-0.515625,0.28125,0.5,0.375,87,95,18,32,24
90760,-0.639888,-0.51233,0.271499,0.50228,0.37844,-0.640625,-0.515625,0.28125,0.5,0.375,87,95,18,32,24
90768,-0.639888,-0.51233,0.271499,0.50228,0.37844,-0.640625,-0.515625,0.28125,0.5,0.375,87,95,18,32,24
90824,-0.639888,-0.51233,0.271499,0.50228,0.37844,-0.640625,-0.515625,0.28125,0.5,0.375,87,95,18,32,24
90832,-0.639888,-0.51233,0.271499,0.50228,0.37844,-0.640625,-0.515625,0.28125,0.5,0.375,87,95,18,32,24
90888,-0.639888,-0.51233,0.271499,0.50228,0.37844,-0.640625,-0.515625,0.28125,0.5,0.375,87,95,18,32,24
90952,-0.639888,-0.51233,0.271499,0.50228,0.37844,-0.640625,-0.515625,0.28125,0.5,0.375,87,95,18,32,24
90960,-0.639888,-0.51233,0.271499,0.50228,0.37844,-0.640625,-0.515625,0.28125,0.5,0.375,87,95,18,32,24
91016,-0.639888,-0.51233,0.271499,0.50228,0.37844,-0.640625,-0.515625,0.28125,0.5,0.375,87,95,18,32,24
91024,-0.639888,-0.51233,0.271499,0.50228,0.37844,-0.640625,-0.515625,0.28125,0.5,0.375,87,95,18,32,24
91080,-0.639888,-0.51233,0.271499,0.50228,0.37844,-0.640625,-0.515625,0.28125,0.5,0.375,87,95,18,32,24
91088,-0.639888,-0.51233,0.271499,0.50228,0.37844,-0.640625,-0.515625,0.28125,0.5,0.375,87,95,18,32,24
91144,-0.639888,-0.51233,0.271499,0.50228,0.37844,-0.640625,-0.515625,0.28125,0.5,0.375,87,95,18,32,24
91208,-0.639888,-0.51233,0.271499,0.50228,0.37844,-0.640625,-0.515625,0.28125,0.5,0.375,87,95,18,32,24
91272,-0.639888,-0.51233,0.271499,0.50228,0.37844,-0.640625,-0.515625,0.28125,0.5,0.375,87,95,18,32,24
91336,-0.639888,-0.51233,0.271499,0.50228,0.37844,-0.640625,-0.515625,0.28125,0.5,0.375,87,95,18,32,24
91400,-0.639888,-0.51233,0.271499,0.50228,0.37844,-0.640625,-0.515625,0.28125,0.5,0.375,87,95,18,32,24
91528,-0.639888,-0.51233,0.271499,0.50228,0.37844,-0.640625,-0.515625,0.28125,0.5,0.375,87,95,18,32,24
91656,-0.639888,-0.51233,0.271499,0.50228,0.37844,-0.640625,-0.515625,0.28125,0.5,0.375,87,95,18,32,24
91664,-0.639888,-0.51233,0.271499,0.50228,0.37844,-0.640625,-0.515625,0.28125,0.5,0.375,87,95,18,32,24
91672,-0.639888,-0.51233,0.271499,0.50228,0.37844,-0.640625,-0.515625,0.28125,0.5,0.375,87,95,18,32,24
91784,-0.639888,-0.51233,0.271499,0.50228,0.37844,-0.640625,-0.515625,0.28125,0.5,0.375,87,95,18,32,24
91792,-0.639888,-0.51233,0.271499,0.50228,0.37844,-0.640625,-0.515625,0.28125,0.5,0.375,87,95,18,32,24
91912,-0.639888,-0.51233,0.271499,0.50228,0.37844,-0.640625,-0.515625,0.28125,0.5,0.375,87,95,18,32,24
98376,-0.639888,-0.51233,0.271499,0.50228,0.37844,-0.640625,-0.515625,0.28125,0.5,0.375,87,95,18,32,24
98384,-0.639888,-0.51233,0.271499,0.50228,0.37844,-0.640625,-0.515625,0.28125,0.5,0.375,87,95,18,32,24
98440,-0.639888,-0.51233,0.271499,0.50228,0.37844,-0.640625,-0.515625,0.28125,0.5,0.375,87,95,18,32,24
98448,-0.639888,-0.51233,0.271499,0.50228,0.37844,-0.640625,-0.515625,0.28125,0.5,0.375,87,95,18,32,24
98504,-0.639888,-0.51233,0.271499,0.50228,0.37844,-0.640625,-0.515625,0.28125,0.5,0.375,87,95,18,32,24
98512,-0.639888,-0.51233,0.271499,0.50228,0.37844,-0.640625,-0.515625,0.28125,0.5,0.375,87,95,18,32,24
98568,-0.639888,-0.51233,0.271499,0.50228,0.37844,-0.640625,-0.515625,0.28125,0.5,0.375,87,95,18,32,24
98576,-0.639888,-0.51233,0.271499,0.50228,0.37844,-0.640625,-0.515625,0.28125,0.5,0.375,87,95,18,32,24
98632,-0.639888,-0.51233,0.271499,0.50228,0.37844,-0.640625,-0.515625,0.28125,0.5,0.375,87,95,18,32,24
98696,-0.639888,-0.51233,0.271499,0.50228,0.37844,-0.640625,-0.515625,0.28125,0.5,0.375,87,95,18,32,24
98760,-0.639888,-0.51233,0.271499,0.50228,0.37844,-0.640625,-0.515625,0.28125,0.5,0.375,87,95,18,32,24
98768,-0.639888,-0.51233,0.271499,0.50228,0.37844,-0.640625,-0.515625,0.28125,0.5,0.375,87,95,18,32,24
98824,-0.639888,-0.51233,0.271499,0.50228,0.37844,-0.640625,-0.515625,0.28125,0.5,0.375,87,95,18,32,24
98888,-0.639888,-0.51233,0.271499,0.50228,0.37844,-0.640625,-0.515625,0.28125,0.5,0.375,87,95,18,32,24
99024,-0.639888,-0.51233,0.271499,0.50228,0.37844,-0.640625,-0.515625,0.28125,0.5,0.375,87,95,18,32,24
99080,-0.639888,-0.51233,0.271499,0.50228,0.37844,-0.640625,-0.515625,0.28125,0.5,0.375,87,95,18,32,24
99088,-0.639888,-0.51233,0.271499,0.50228,0.37844,-0.640625,-0.515625,0.28125,0.5,0.375,87,95,18,32,24
99144,-0.639888,-0.51233,0.271499,0.50228,0.37844,-0.640625,-0.515625,0.28125,0.5,0.375,87,95,18,32,24
99152,-0.639888,-0.51233,0.271499,0.50228,0.37844,-0.640625,-0.515625,0.28125,0.5,0.375,87,95,18,32,24
99208,-0.639888,-0.51233,0.271499,0.50228,0.37844,-0.640625,-0.515625,0.28125,0.5,0.375,87,95,18,32,24
99272,-0.639888,-0.51233,0.271499,0.50228,0.37844,-0.640625,-0.515625,0.28125,0.5,0.375,87,95,18,32,24
99280,-0.639888,-0.51233,0.271499,0.50228,0.37844,-0.640625,-0.515625,0.28125,0.5,0.375,87,95,18,32,24
99336,-0.639888,-0.51233,0.271499,0.50228,0.37844,-0.640625,-0.515625,0.28125,0.5,0.375,87,95,18,32,24
99400,-0.639888,-0.51233,0.271499,0.50228,0.37844,-0.640625,-0.515625,0.28125,0.5,0.375,87,95,18,32,24
99464,-0.639888,-0.51233,0.271499,0.50228,0.37844,-0.640625,-0.515625,0.28125,0.5,0.375,87,95,18,32,24
99528,-0.639888,-0.51233,0.271499,0.50228,0.37844,-0.640625,-0.515625,0.28125,0.5,0.375,87,95,18,32,24
99536,-0.639888,-0.51233,0.271499,0.50228,0.37844,-0.640625,-0.515625,0.28125,0.5,0.375,87,95,18,32,24
99592,-0.639888,-0.51233,0.271499,0.50228,0.37844,-0.640625,-0.515625,0.28125,0.5,0.375,87,95,18,32,24
99600,-0.639888,-0.51233,0.271499,0.50228,0.37844,-0.640625,-0.515625,0.28125,0.5,0.375,87,95,18,32,24
99720,-0.639888,-0.51233,0.271499,0.50228,0.37844,-0.640625,-0.515625,0.28125,0.5,0.375,87,95,18,32,24
99848,-0.639888,-0.51233,0.271499,0.50228,0.37844,-0.640625,-0.515625,0.28125,0.5,0.375,87,95,18,32,24
99856,-0.639888,-0.51233,0.271499,0.50228,0.37844,-0.640625,-0.515625,0.28125,0.5,0.375,87,95,18,32,24
99976,-0.639888,-0.51233,0.271499,0.50228,0.37844,-0.640625,-0.515625,0.28125,0.5,0.375,87,95,18,32,24
99984,-0.639888,-0.51233,0.271499,0.50228,0.37844,-0.640625,-0.515625,0.28125,0.5,0.375,87,95,18,32,24
99992,-0.639888,-0.51233,0.271499,0.50228,0.37844,-0.640625,-0.515625,0.28125,0.5,0.375,87,95,18,32,24
100104,-0.639888,-0.51233,0.271499,0.50228,0.37844,-0.640625,-0.515625,0.28125,0.5,0.375,87,95,18,32,24
106568,-0.639888,-0.51233,0.271499,0.50228,0.37844,-0.640625,-0.515625,0.28125,0.5,0.375,87,95,18,32,24
106576,-0.639888,-0.51233,0.271499,0.50228,0.37844,-0.640625,-0.515625,0.28125,0.5,0.375,87,95,18,32,24
106632,-0.639888,-0.51233,0.271499,0.50228,0.37844,-0.640625,-0.515625,0.28125,0.5,0.375,87,95,18,32,24
106640,-0.639888,-0.51233,0.271499,0.50228,0.37844,-0.640625,-0.515625,0.28125,0.5,0.375,87,95,18,32,24
106696,-0.639888,-0.51233,0.271499,0.50228,0.37844,-0.640625,-0.515625,0.28125,0.5,0.375,87,95,18,32,24
106704,-0.639888,-0.51233,0.271499,0.50228,0.37844,-0.640625,-0.515625,0.28125,0.5,0.375,87,95,18,32,24
106760,-0.639888,-0.51233,0.271499,0.50228,0.37844,-0.640625,-0.515625,0.28125,0.5,0.375,87,95,18,32,24
106768,-0.639888,-0.51233,0.271499,0.50228,0.37844,-0.640625,-0.515625,0.28125,0.5,0.375,87,95,18,32,24
106824,-0.639888,-0.51233,0.271499,0.50228,0.37844,-0.640625,-0.515625,0.28125,0.5,0.375,87,95,18,32,24
106832,-0.639888,-0.51233,0.271499,0.50228,0.37844,-0.640625,-0.515625,0.28125,0.5,0.375,87,95,18,32,24
106888,-0.639888,-0.51233,0.271499,0.50228,0.37844,-0.640625,-0.515625,0.28125,0.5,0.375,87,95,18,32,24
106952,-0.639888,-0.51233,0.271499,0.50228,0.37844,-0.640625,-0.515625,0.28125,0.5,0.375,87,95,18,32,24
106960,-0.639888,-0.51233,0.271499,0.50228,0.37844,-0.640625,-0.515625,0.28125,0.5,0.375,87,95,18,32,24
107016,-0.639888,-0.51233,0.271499,0.50228,0.37844,-0.640625,-0.515625,0.28125,0.5,0.375,87,95,18,32,24
107024,-0.639888,-0.51233,0.271499,0.50228,0.37844,-0.640625,-0.515625,0.28125,0.5,0.375,87,95,18,32,24
107080,-0.639888,-0.51233,0.271499,0.50228,0.37844,-0.640625,-0.515625,0.28125,0.5,0.375,87,95,18,32,24
107088,-0.639888,-0.51233,0.271499,0.50228,0.37844,-0.640625,-0.515625,0.28125,0.5,0.375,87,95,18,32,24
107144,-0.639888,-0.51233,0.271499,0.50228,0.37844,-0.640625,-0.515625,0.28125,0.5,0.375,87,95,18,32,24
107152,-0.639888,-0.51233,0.271499,0.50228,0.37844,-0.640625,-0.515625,0.28125,0.5,0.375,87,95,18,32,24
107208,-0.639888,-0.51233,0.271499,0.50228,0.37844,-0.640625,-0.515625,0.28125,0.5,0.375,87,95,18,32,24
107272,-0.639888,-0.51233,0.271499,0.50228,0.37844,-0.640625,-0.515625,0.28125,0.5,0.375,87,95,18,32,24
107280,-0.639888,-0.51233,0.271499,0.50228,0.37844,-0.640625,-0.515625,0.28125,0.5,0.375,87,95,18,32,24
107336,-0.639888,-0.51233,0.271499,0.50228,0.37844,-0.640625,-0.515625,0.28125,0.5,0.375,87,95,18,32,24
107400,-0.639888,-0.51233,0.271499,0.50228,0.37844,-0.640625,-0.515625,0.28125,0.5,0.375,87,95,18,32,24
107408,-0.639888,-0.51233,0.271499,0.50228,0.37844,-0.640625,-0.515625,0.28125,0.5,0.375,87,95,18,32,24
107464,-0.639888,-0.51233,0.271499,0.50228,0.37844,-0.640625,-0.515625,0.28125,0.5,0.375,87,95,18,32,24
107528,-0.639888,-0.51233,0.271499,0.50228,0.37844,-0.640625,-0.515625,0.28125,0.5,0.375,87,95,18,32,24
107536,-0.639888,-0.51233,0.271499,0.50228,0.37844,-0.640625,-0.515625,0.28125,0.5,0.375,87,95,18,32,24
107592,-0.639888,-0.51233,0.271499,0.50228,0.37844,-0.640625,-0.515625,0.28125,0.5,0.375,87,95,18,32,24
107656,-0.639888,-0.51233,0.271499,0.50228,0.37844,-0.640625,-0.515625,0.28125,0.5,0.375,87,95,18,32,24
107720,-0.639888,-0.51233,0.271499,0.50228,0.37844,-0.640625,-0.515625,0.28125,0.5,0.375,87,95,18,32,24
107784,-0.639888,-0.51233,0.271499,0.50228,0.37844,-0.640625,-0.515625,0.28125,0.5,0.375,87,95,18,32,24
107912,-0.639888,-0.51233,0.271499,0.50228,0.37844,-0.640625,-0.515625,0.28125,0.5,0.375,87,95,18,32,24
107920,-0.639888,-0.51233,0.271499,0.50228,0.37844,-0.640625,-0.515625,0.28125,0.5,0.375,87,95,18,32,24
108040,-0.639888,-0.51233,0.271499,0.50228,0.37844,-0.640625,-0.515625,0.28125,0.5,0.375,87,95,18,32,24
108048,-0.639888,-0.51233,0.271499,0.50228,0.37844,-0.640625,-0.515625,0.28125,0.5,0.375,87,95,18,32,24
108056,-0.639888,-0.51233,0.271499,0.50228,0.37844,-0.640625,-0.515625,0.28125,0.5,0.375,87,95,18,32,24
108168,-0.639888,-0.51233,0.271499,0.50228,0.37844,-0.640625,-0.515625,0.28125,0.5,0.375,87,95,18,32,24
108176,-0.639888,-0.51233,0.271499,0.50228,0.37844,-0.640625,-0.515625,0.28125,0.5,0.375,87,95,18,32,24
108296,-0.639888,-0.51233,0.271499,0.50228,0.37844,-0.640625,-0.515625,0.28125,0.5,0.375,87,95,18,32,24
114760,-0.639888,-0.51233,0.271499,0.50228,0.37844,-0.640625,-0.515625,0.28125,0.5,0.375,87,95,18,32,24
114768,-0.639888,-0.51233,0.271499,0.50228,0.37844,-0.640625,-0.515625,0.28125,0.5,0.375,87,95,18,32,24
114776,-0.639888,-0.51233,0.271499,0.50228,0.37844,-0.640625,-0.515625,0.28125,0.5,0.375,87,95,18,32,24
114824,-0.639888,-0.51233,0.271499,0.50228,0.37844,-0.640625,-0.515625,0.28125,0.5,0.375,87,95,18,32,24
114832,-0.639888,-0.51233,0.271499,0.50228,0.37844,-0.640625,-0.515625,0.28125,0.5,0.375,87,95,18,32,24
114888,-0.639888,-0.51233,0.271499,0.50228,0.37844,-0.640625,-0.515625,0.28125,0.5,0.375,87,95,18,32,24
114896,-0.639888,-0.51233,0.271499,0.50228,0.37844,-0.640625,-0.515625,0.28125,0.5,0.375,87,95,18,32,24
114952,-0.639888,-0.51233,0.271499,0.50228,0.37844,-0.640625,-0.515625,0.28125,0.5,0.375,87,95,18,32,24
114960,-0.639888,-0.51233,0.271499,0.50228,0.37844,-0.640625,-0.515625,0.28125,0.5,0.375,87,95,18,32,24
115016,-0.639888,-0.51233,0.271499,0.50228,0.37844,-0.640625,-0.515625,0.28125,0.5,0.375,87,95,18,32,24
115080,-0.639888,-0.51233,0.271499,0.50228,0.37844,-0.640625,-0.515625,0.28125,0.5,0.375,87,95,18,32,24
115088,-0.639888,-0.51233,0.271499,0.50228,0.37844,-0.640625,-0.515625,0.28125,0.5,0.375,87,95,18,32,24
115144,-0.639888,-0.51233,0.271499,0.50228,0.37844,-0.640625,-0.515625,0.28125,0.5,0.375,87,95,18,32,24
115152,-0.639888,-0.51233,0.271499,0.50228,0.37844,-0.640625,-0.515625,0.28125,0.5,0.375,87,95,18,32,24
115208,-0.639888,-0.51233,0.271499,0.50228,0.37844,-0.640625,-0.515625,0.28125,0.5,0.375,87,95,18,32,24
115216,-0.639888,-0.51233,0.271499,0.50228,0.37844,-0.640625,-0.515625,0.28125,0.5,0.375,87,95,18,32,24
115224,-0.639888,-0.51233,0.271499,0.50228,0.37844,-0.640625,-0.515625,0.28125,0.5,0.375,87,95,18,32,24
115272,-0.639888,-0.51233,0.271499,0.50228,0.37844,-0.640625,-0.515625,0.28125,0.5,0.375,87,95,18,32,24
115280,-0.639888,-0.51233,0.271499,0.50228,0.37844,-0.640625,-0.515625,0.28125,0.5,0.375,87,95,18,32,24
115336,-0.639888,-0.51233,0.271499,0.50228,0.37844,-0.640625,-0.515625,0.28125,0.5,0.375,87,95,18,32,24
115400,-0.639888,-0.51233,0.271499,0.50228,0.37844,-0.640625,-0.515625,0.28125,0.5,0.375,87,95,18,32,24
115408,-0.639888,-0.51233,0.271499,0.50228,0.37844,-0.640625,-0.515625,0.28125,0.5,0.375,87,95,18,32,24
115464,-0.639888,-0.51233,0.271499,0.50228,0.37844,-0.640625,-0.515625,0.28125,0.5,0.375,87,95,18,32,24
115528,-0.639888,-0.51233,0.271499,0.50228,0.37844,-0.640625,-0.515625,0.28125,0.5,0.375,87,95,18,32,24
115536,-0.639888,-0.51233,0.271499,0.50228,0.37844,-0.640625,-0.515625,0.28125,0.5,0.375,87,95,18,32,24
115592,-0.639888,-0.51233,0.271499,0.50228,0.37844,-0.640625,-0.515625,0.28125,0.5,0.375,87,95,18,32,24
115600,-0.639888,-0.51233,0.271499,0.50228,0.37844,-0.640625,-0.515625,0.28125,0.5,0.375,87,95,18,32,24
115656,-0.639888,-0.51233,0.271499,0.50228,0.37844,-0.640625,-0.515625,0.28125,0.5,0.375,87,95,18,32,24
115720,-0.639888,-0.51233,0.271499,0.50228,0.37844,-0.640625,-0.515625,0.28125,0.5,0.375,87,95,18,32,24
115784,-0.639888,-0.51233,0.271499,0.50228,0.37844,-0.640625,-0.515625,0.28125,0.5,0.375,87,95,18,32,24
115848,-0.639888,-0.51233,0.271499,0.50228,0.37844,-0.640625,-0.515625,0.28125,0.5,0.375,87,95,18,32,24
115912,-0.639888,-0.51233,0.271499,0.50228,0.37844,-0.640625,-0.515625,0.28125,0.5,0.375,87,95,18,32,24
115920,-0.639888,-0.51233,0.271499,0.50228,0.37844,-0.640625,-0.515625,0.28125,0.5,0.375,87,95,18,32,24
115976,-0.639888,-0.51233,0.271499,0.50228,0.37844,-0.640625,-0.515625,0.28125,0.5,0.375,87,95,18,32,24
115984,-0.639888,-0.51233,0.271499,0.50228,0.37844,-0.640625,-0.515625,0.28125,0.5,0.375,87,95,18,32,24
116104,-0.639888,-0.51233,0.271499,0.50228,0.37844,-0.640625,-0.515625,0.28125,0.5,0.375,87,95,18,32,24
116232,-0.639888,-0.51233,0.271499,0.50228,0.37844,-0.640625,-0.515625,0.28125,0.5,0.375,87,95,18,32,24
116360,-0.639888,-0.51233,0.271499,0.50228,0.37844,-0.640625,-0.515625,0.28125,0.5,0.375,87,95,18,32,24
116368,-0.639888,-0.51233,0.271499,0.50228,0.37844,-0.640625,-0.515625,0.28125,0.5,0.375,87,95,18,32,24
116488,-0.639888,-0.51233,0.271499,0.50228,0.37844,-0.640625,-0.515625,0.28125,0.5,0.375,87,95,18,32,24
116496,-0.639888,-0.51233,0.271499,0.50228,0.37844,-0.640625,-0.515625,0.28125,0.5,0.375,87,95,18,32,24
122952,-0.639888,-0.51233,0.271499,0.50228,0.37844,-0.640625,-0.515625,0.28125,0.5,0.375,87,95,18,32,24
122960,-0.639888,-0.51233,0.271499,0.50228,0.37844,-0.640625,-0.515625,0.28125,0.5,0.375,87,95,18,32,24
123016,-0.639888,-0.51233,0.271499,0.50228,0.37844,-0.640625,-0.515625,0.28125,0.5,0.375,87,95,18,32,24
123024,-0.639888,-0.51233,0.271499,0.50228,0.37844,-0.640625,-0.515625,0.28125,0.5,0.375,87,95,18,32,24
123080,-0.639888,-0.51233,0.271499,0.50228,0.37844,-0.640625,-0.515625,0.28125,0.5,0.375,87,95,18,32,24
123088,-0.639888,-0.51233,0.271499,0.50228,0.37844,-0.640625,-0.515625,0.28125,0.5,0.375,87,95,18,32,24
123144,-0.639888,-0.51233,0.271499,0.50228,0.37844,-0.640625,-0.515625,0.28125,0.5,0.375,87,95,18,32,24
123152,-0.639888,-0.51233,0.271499,0.50228,0.37844,-0.640625,-0.515625,0.28125,0.5,0.375,87,95,18,32,24
123160,-0.639888,-0.51233,0.271499,0.50228,0.37844,-0.640625,-0.515625,0.28125,0.5,0.375,87,95,18,32,24
123208,-0.639888,-0.51233,0.271499,0.50228,0.37844,-0.640625,-0.515625,0.28125,0.5,0.375,87,95,18,32,24
123216,-0.639888,-0.51233,0.271499,0.50228,0.37844,-0.640625,-0.515625,0.28125,0.5,0.375,87,95,18,32,24
123224,-0.639888,-0.51233,0.271499,0.50228,0.37844,-0.640625,-0.515625,0.28125,0.5,0.375,87,95,18,32,24
123272,-0.639888,-0.51233,0.271499,0.50228,0.37844,-0.640625,-0.515625,0.28125,0.5,0.375,87,95,18,32,24
123280,-0.639888,-0.51233,0.271499,0.50228,0.37844,-0.640625,-0.515625,0.28125,0.5,0.375,87,95,18,32,24
123336,-0.639888,-0.51233,0.271499,0.50228,0.37844,-0.640625,-0.515625,0.28125,0.5,0.375,87,95,18,32,24
123344,-0.639888,-0.51233,0.271499,0.50228,0.37844,-0.640625,-0.515625,0.28125,0.5,0.375,87,95,18,32,24
123400,-0.639888,-0.51233,0.271499,0.50228,0.37844,-0.640625,-0.515625,0.28125,0.5,0.375,87,95,18,32,24
123464,-0.639888,-0.51233,0.271499,0.50228,0.37844,-0.640625,-0.515625,0.28125,0.5,0.375,87,95,18,32,24
123528,-0.639888,-0.51233,0.271499,0.50228,0.37844,-0.640625,-0.515625,0.28125,0.5,0.375,87,95,18,32,24
123536,-0.639888,-0.51233,0.271499,0.50228,0.37844,-0.640625,-0.515625,0.28125,0.5,0.375,87,95,18,32,24
123592,-0.639888,-0.51233,0.271499,0.50228,0.37844,-0.640625,-0.515625,0.28125,0.5,0.375,87,95,18,32,24
123656,-0.639888,-0.51233,0.271499,0.50228,0.37844,-0.640625,-0.515625,0.28125,0.5,0.375,87,95,18,32,24
123664,-0.639888,-0.51233,0.271499,0.50228,0.37844,-0.640625,-0.515625,0.28125,0.5,0.375,87,95,18,32,24
123856,-0.639888,-0.51233,0.271499,0.50228,0.37844,-0.640625,-0.515625,0.28125,0.5,0.375,87,95,18,32,24
123912,-0.639888,-0.51233,0.271499,0.50228,0.37844,-0.640625,-0.515625,0.28125,0.5,0.375,87,95,18,32,24
123920,-0.639888,-0.51233,0.271499,0.50228,0.37844,-0.640625,-0.515625,0.28125,0.5,0.375,87,95,18,32,24
123976,-0.639888,-0.51233,0.271499,0.50228,0.37844,-0.640625,-0.515625,0.28125,0.5,0.375,87,95,18,32,24
124040,-0.639888,-0.51233,0.271499,0.50228,0.37844,-0.640625,-0.515625,0.28125,0.5,0.375,87,95,18,32,24
124104,-0.639888,-0.51233,0.271499,0.50228,0.37844,-0.640625,-0.515625,0.28125,0.5,0.375,87,95,18,32,24
124168,-0.639888,-0.51233,0.271499,0.50228,0.37844,-0.640625,-0.515625,0.28125,0.5,0.375,87,95,18,32,24
124296,-0.639888,-0.51233,0.271499,0.50228,0.37844,-0.640625,-0.515625,0.28125,0.5,0.375,87,95,18,32,24
124424,-0.639888,-0.51233,0.271499,0.50228,0.37844,-0.640625,-0.515625,0.28125,0.5,0.375,87,95,18,32,24
124552,-0.639888,-0.51233,0.271499,0.50228,0.37844,-0.640625,-0.515625,0.28125,0.5,0.375,87,95,18,32,24
124560,-0.639888,-0.51233,0.271499,0.50228,0.37844,-0.640625,-0.515625,0.28125,0.5,0.375,87,95,18,32,24
124680,-0.639888,-0.51233,0.271499,0.50228,0.37844,-0.640625,-0.515625,0.28125,0.5,0.375,87,95,18,32,24
124688,-0.639888,-0.51233,0.271499,0.50228,0.37844,-0.640625,-0.515625,0.28125,0.5,0.375,87,95,18,32,24
131144,-0.639888,-0.51233,0.271499,0.50228,0.37844,-0.640625,-0.515625,0.28125,0.5,0.375,87,95,18,32,24
131152,-0.639888,-0.51233,0.271499,0.50228,0.37844,-0.640625,-0.515625,0.28125,0.5,0.375,87,95,18,32,24
131208,-0.639888,-0.51233,0.271499,0.50228,0.37844,-0.640625,-0.515625,0.28125,0.5,0.375,87,95,18,32,24
131216,-0.639888,-0.51233,0.271499,0.50228,0.37844,-0.640625,-0.515625,0.28125,0.5,0.375,87,95,18,32,24
131272,-0.639888,-0.51233,0.271499,0.50228,0.37844,-0.640625,-0.515625,0.28125,0.5,0.375,87,95,18,32,24
131280,-0.639888,-0.51233,0.271499,0.50228,0.37844,-0.640625,-0.515625,0.28125,0.5,0.375,87,95,18,32,24
131336,-0.639888,-0.51233,0.271499,0.50228,0.37844,-0.640625,-0.515625,0.28125,0.5,0.375,87,95,18,32,24
131344,-0.639888,-0.51233,0.271499,0.50228,0.37844,-0.640625,-0.515625,0.28125,0.5,0.375,87,95,18,32,24
131400,-0.639888,-0.51233,0.271499,0.50228,0.37844,-0.640625,-0.515625,0.28125,0.5,0.375,87,95,18,32,24
131408,-0.639888,-0.51233,0.271499,0.50228,0.37844,-0.640625,-0.515625,0.28125,0.5,0.375,87,95,18,32,24
131464,-0.639888,-0.51233,0.271499,0.50228,0.37844,-0.640625,-0.515625,0.28125,0.5,0.375,87,95,18,32,24
131472,-0.639888,-0.51233,0.271499,0.50228,0.37844,-0.640625,-0.515625,0.28125,0.5,0.375,87,95,18,32,24
131528,-0.639888,-0.51233,0.271499,0.50228,0.37844,-0.640625,-0.515625,0.28125,0.5,0.375,87,95,18,32,24
131592,-0.639888,-0.51233,0.271499,0.50228,0.37844,-0.640625,-0.515625,0.28125,0.5,0.375,87,95,18,32,24
131600,-0.639888,-0.51233,0.271499,0.50228,0.37844,-0.640625,-0.515625,0.28125,0.5,0.375,87,95,18,32,24
131656,-0.639888,-0.51233,0.271499,0.50228,0.37844,-0.640625,-0.515625,0.28125,0.5,0.375,87,95,18,32,24
131664,-0.639888,-0.51233,0.271499,0.50228,0.37844,-0.640625,-0.515625,0.28125,0.5,0.375,87,95,18,32,24
131720,-0.639888,-0.51233,0.271499,0.50228,0.37844,-0.640625,-0.515625,0.28125,0.5,0.375,87,95,18,32,24
131784,-0.639888,-0.51233,0.271499,0.50228,0.37844,-0.640625,-0.515625,0.28125,0.5,0.375,87,95,18,32,24
131792,-0.639888,-0.51233,0.271499,0.50228,0.37844,-0.640625,-0.515625,0.28125,0.5,0.375,87,95,18,32,24
131848,-0.639888,-0.51233,0.271499,0.50228,0.37844,-0.640625,-0.515625,0.28125,0.5,0.375,87,95,18,32,24
131856,-0.639888,-0.51233,0.271499,0.50228,0.37844,-0.640625,-0.515625,0.28125,0.5,0.375,87,95,18,32,24
131912,-0.639888,-0.51233,0.271499,0.50228,0.37844,-0.640625,-0.515625,0.28125,0.5,0.375,87,95,18,32,24
131920,-0.639888,-0.51233,0.271499,0.50228,0.37844,-0.640625,-0.515625,0.28125,0.5,0.375,87,95,18,32,24
131976,-0.639888,-0.51233,0.271499,0.50228,0.37844,-0.640625,-0.515625,0.28125,0.5,0.375,87,95,18,32,24
132040,-0.639888,-0.51233,0.271499,0.50228,0.37844,-0.640625,-0.515625,0.28125,0.5,0.375,87,95,18,32,24
132048,-0.639888,-0.51233,0.271499,0.50228,0.37844,-0.640625,-0.515625,0.28125,0.5,0.375,87,95,18,32,24
132104,-0.639888,-0.51233,0.271499,0.50228,0.37844,-0.640625,-0.515625,0.28125,0.5,0.375,87,95,18,32,24
132168,-0.639888,-0.51233,0.271499,0.50228,0.37844,-0.640625,-0.515625,0.28125,0.5,0.375,87,95,18,32,24
132232,-0.639888,-0.51233,0.271499,0.50228,0.37844,-0.640625,-0.515625,0.28125,0.5,0.375,87,95,18,32,24
132296,-0.639888,-0.51233,0.271499,0.50228,0.37844,-0.640625,-0.515625,0.28125,0.5,0.375,87,95,18,32,24
132360,-0.639888,-0.51233,0.271499,0.50228,0.37844,-0.640625,-0.515625,0.28125,0.5,0.375,87,95,18,32,24
132488,-0.639888,-0.51233,0.271499,0.50228,0.37844,-0.640625,-0.515625,0.28125,0.5,0.375,87,95,18,32,24
132496,-0.639888,-0.51233,0.271499,0.50228,0.37844,-0.640625,-0.515625,0.28125,0.5,0.375,87,95,18,32,24
132504,-0.639888,-0.51233,0.271499,0.50228,0.37844,-0.640625,-0.515625,0.28125,0.5,0.375,87,95,18,32,24
132616,-0.639888,-0.51233,0.271499,0.50228,0.37844,-0.640625,-0.515625,0.28125,0.5,0.375,87,95,18,32,24
132744,-0.639888,-0.51233,0.271499,0.50228,0.37844,-0.640625,-0.515625,0.28125,0.5,0.375,87,95,18,32,24
132872,-0.639888,-0.51233,0.271499,0.50228,0.37844,-0.640625,-0.515625,0.28125,0.5,0.375,87,95,18,32,24
132888,-0.639888,-0.51233,0.271499,0.50228,0.37844,-0.640625,-0.515625,0.28125,0.5,0.375,87,95,18,32,24
139336,-0.639888,-0.51233,0.271499,0.50228,0.37844,-0.640625,-0.515625,0.28125,0.5,0.375,87,95,18,32,24
139344,-0.639888,-0.51233,0.271499,0.50228,0.37844,-0.640625,-0.515625,0.28125,0.5,0.375,87,95,18,32,24
139400,-0.639888,-0.51233,0.271499,0.50228,0.37844,-0.640625,-0.515625,0.28125,0.5,0.375,87,95,18,32,24
139408,-0.639888,-0.51233,0.271499,0.50228,0.37844,-0.640625,-0.515625,0.28125,0.5,0.375,87,95,18,32,24
139464,-0.639888,-0.51233,0.271499,0.50228,0.37844,-0.640625,-0.515625,0.28125,0.5,0.375,87,95,18,32,24
139472,-0.639888,-0.51233,0.271499,0.50228,0.37844,-0.640625,-0.515625,0.28125,0.5,0.375,87,95,18,32,24
139528,-0.639888,-0.51233,0.271499,0.50228,0.37844,-0.640625,-0.515625,0.28125,0.5,0.375,87,95,18,32,24
139536,-0.639888,-0.51233,0.271499,0.50228,0.37844,-0.640625,-0.515625,0.28125,0.5,0.375,87,95,18,32,24
139592,-0.639888,-0.51233,0.271499,0.50228,0.37844,-0.640625,-0.515625,0.28125,0.5,0.375,87,95,18,32,24
139600,-0.639888,-0.51233,0.271499,0.50228,0.37844,-0.640625,-0.515625,0.28125,0.5,0.375,87,95,18,32,24
139656,-0.639888,-0.51233,0.271499,0.50228,0.37844,-0.640625,-0.515625,0.28125,0.5,0.375,87,95,18,32,24
139720,-0.639888,-0.51233,0.271499,0.50228,0.37844,-0.640625,-0.515625,0.28125,0.5,0.375,87,95,18,32,24
139728,-0.639888,-0.51233,0.271499,0.50228,0.37844,-0.640625,-0.515625,0.28125,0.5,0.375,87,95,18,32,24
139784,-0.639888,-0.51233,0.271499,0.50228,0.37844,-0.640625,-0.515625,0.28125,0.5,0.375,87,95,18,32,24
139848,-0.639888,-0.51233,0.271499,0.50228,0.37844,-0.640625,-0.515625,0.28125,0.5,0.375,87,95,18,32,24
139856,-0.639888,-0.51233,0.271499,0.50228,0.37844,-0.640625,-0.515625,0.28125,0.5,0.375,87,95,18,32,24
139912,-0.639888,-0.51233,0.271499,0.50228,0.37844,-0.640625,-0.515625,0.28125,0.5,0.375,87,95,18,32,24
139920,-0.639888,-0.51233,0.271499,0.50228,0.37844,-0.640625,-0.515625,0.28125,0.5,0.375,87,95,18,32,24
139976,-0.639888,-0.51233,0.271499,0.50228,0.37844,-0.640625,-0.515625,0.28125,0.5,0.375,87,95,18,32,24
139984,-0.639888,-0.51233,0.271499,0.50228,0.37844,-0.640625,-0.515625,0.28125,0.5,0.375,87,95,18,32,24
140040,-0.639888,-0.51233,0.271499,0.50228,0.37844,-0.640625,-0.515625,0.28125,0.5,0.375,87,95,18,32,24
140048,-0.639888,-0.51233,0.271499,0.50228,0.37844,-0.640625,-0.515625,0.28125,0.5,0.375,87,95,18,32,24
140104,-0.639888,-0.51233,0.271499,0.50228,0.37844,-0.640625,-0.515625,0.28125,0.5,0.375,87,95,18,32,24
140112,-0.639888,-0.51233,0.271499,0.50228,0.37844,-0.640625,-0.515625,0.28125,0.5,0.375,87,95,18,32,24
140168,-0.639888,-0.51233,0.271499,0.50228,0.37844,-0.640625,-0.515625,0.28125,0.5,0.375,87,95,18,32,24
140232,-0.639888,-0.51233,0.271499,0.50228,0.37844,-0.640625,-0.515625,0.28125,0.5,0.375,87,95,18,32,24
140296,-0.639888,-0.51233,0.271499,0.50228,0.37844,-0.640625,-0.515625,0.28125,0.5,0.375,87,95,18,32,24
140304,-0.639888,-0.51233,0.271499,0.50228,0.37844,-0.640625,-0.515625,0.28125,0.5,0.375,87,95,18,32,24
140360,-0.639888,-0.51233,0.271499,0.50228,0.37844,-0.640625,-0.515625,0.28125,0.5,0.375,87,95,18,32,24
140368,-0.639888,-0.51233,0.271499,0.50228,0.37844,-0.640625,-0.515625,0.28125,0.5,0.375,87,95,18,32,24
140424,-0.639888,-0.51233,0.271499,0.50228,0.37844,-0.640625,-0.515625,0.28125,0.5,0.375,87,95,18,32,24
140432,-0.639888,-0.51233,0.271499,0.50228,0.37844,-0.640625,-0.515625,0.28125,0.5,0.375,87,95,18,32,24
140488,-0.639888,-0.51233,0.271499,0.50228,0.37844,-0.640625,-0.515625,0.28125,0.5,0.375,87,95,18,32,24
140552,-0.639888,-0.51233,0.271499,0.50228,0.37844,-0.640625,-0.515625,0.28125,0.5,0.375,87,95,18,32,24
140680,-0.639888,-0.51233,0.271499,0.50228,0.37844,-0.640625,-0.515625,0.28125,0.5,0.375,87,95,18,32,24
140688,-0.639888,-0.51233,0.271499,0.50228,0.37844,-0.640625,-0.515625,0.28125,0.5,0.375,87,95,18,32,24
140808,-0.639888,-0.51233,0.271499,0.50228,0.37844,-0.640625,-0.515625,0.28125,0.5,0.375,87,95,18,32,24
140816,-0.639888,-0.51233,0.271499,0.50228,0.37844,-0.640625,-0.515625,0.28125,0.5,0.375,87,95,18,32,24
140936,-0.639888,-0.51233,0.271499,0.50228,0.37844,-0.640625,-0.515625,0.28125,0.5,0.375,87,95,18,32,24
141064,-0.639888,-0.51233,0.271499,0.50228,0.37844,-0.640625,-0.515625,0.28125,0.5,0.375,87,95,18,32,24
141072,-0.639888,-0.51233,0.271499,0.50228,0.37844,-0.640625,-0.515625,0.28125,0.5,0.375,87,95,18,32,24
147528,-0.639888,-0.51233,0.271499,0.50228,0.37844,-0.640625,-0.515625,0.28125,0.5,0.375,87,95,18,32,24
147536,-0.639888,-0.51233,0.271499,0.50228,0.37844,-0.640625,-0.515625,0.28125,0.5,0.375,87,95,18,32,24
147592,-0.639888,-0.51233,0.271499,0.50228,0.37844,-0.640625,-0.515625,0.28125,0.5,0.375,87,95,18,32,24
147600,-0.639888,-0.51233,0.271499,0.50228,0.37844,-0.640625,-0.515625,0.28125,0.5,0.375,87,95,18,32,24
147656,-0.639888,-0.51233,0.271499,0.50228,0.37844,-0.640625,-0.515625,0.28125,0.5,0.375,87,95,18,32,24
147664,-0.639888,-0.51233,0.271499,0.50228,0.37844,-0.640625,-0.515625,0.28125,0.5,0.375,87,95,18,32,24
147672,-0.639888,-0.51233,0.271499,0.50228,0.37844,-0.640625,-0.515625,0.28125,0.5,0.375,87,95,18,32,24
147720,-0.639888,-0.51233,0.271499,0.50228,0.37844,-0.640625,-0.515625,0.28125,0.5,0.375,87,95,18,32,24
147728,-0.639888,-0.51233,0.271499,0.50228,0.37844,-0.640625,-0.515625,0.28125,0.5,0.375,87,95,18,32,24
147784,-0.639888,-0.51233,0.271499,0.50228,0.37844,-0.640625,-0.515625,0.28125,0.5,0.375,87,95,18,32,24
147792,-0.639888,-0.51233,0.271499,0.50228,0.37844,-0.640625,-0.515625,0.28125,0.5,0.375,87,95,18,32,24
147848,-0.639888,-0.51233,0.271499,0.50228,0.37844,-0.640625,-0.515625,0.28125,0.5,0.375,87,95,18,32,24
147856,-0.639888,-0.51233,0.271499,0.50228,0.37844,-0.640625,-0.515625,0.28125,0.5,0.375,87,95,18,32,24
147912,-0.639888,-0.51233,0.271499,0.50228,0.37844,-0.640625,-0.515625,0.28125,0.5,0.375,87,95,18,32,24
147976,-0.639888,-0.51233,0.271499,0.50228,0.37844,-0.640625,-0.515625,0.28125,0.5,0.375,87,95,18,32,24
147984,-0.639888,-0.51233,0.271499,0.50228,0.37844,-0.640625,-0.515625,0.28125,0.5,0.375,87,95,18,32,24
148040,-0.639888,-0.51233,0.271499,0.50228,0.37844,-0.640625,-0.515625,0.28125,0.5,0.375,87,95,18,32,24
148104,-0.639888,-0.51233,0.271499,0.50228,0.37844,-0.640625,-0.515625,0.28125,0.5,0.375,87,95,18,32,24
148112,-0.639888,-0.51233,0.271499,0.50228,0.37844,-0.640625,-0.515625,0.28125,0.5,0.375,87,95,18,32,24
148168,-0.639888,-0.51233,0.271499,0.50228,0.37844,-0.640625,-0.515625,0.28125,0.5,0.375,87,95,18,32,24
148176,-0.639888,-0.51233,0.271499,0.50228,0.37844,-0.640625,-0.515625,0.28125,0.5,0.375,87,95,18,32,24
148232,-0.639888,-0.51233,0.271499,0.50228,0.37844,-0.640625,-0.515625,0.28125,0.5,0.375,87,95,18,32,24
148296,-0.639888,-0.51233,0.271499,0.50228,0.37844,-0.640625,-0.515625,0.28125,0.5,0.375,87,95,18,32,24
148360,-0.639888,-0.51233,0.271499,0.50228,0.37844,-0.640625,-0.515625,0.28125,0.5,0.375,87,95,18,32,24
148368,-0.639888,-0.51233,0.271499,0.50228,0.37844,-0.640625,-0.515625,0.28125,0.5,0.375,87,95,18,32,24
148424,-0.639888,-0.51233,0.271499,0.50228,0.37844,-0.640625,-0.515625,0.28125,0.5,0.375,87,95,18,32,24
148432,-0.639888,-0.51233,0.271499,0.50228,0.37844,-0.640625,-0.515625,0.28125,0.5,0.375,87,95,18,32,24
148488,-0.639888,-0.51233,0.271499,0.50228,0.37844,-0.640625,-0.515625,0.28125,0.5,0.375,87,95,18,32,24
148496,-0.639888,-0.51233,0.271499,0.50228,0.37844,-0.640625,-0.515625,0.28125,0.5,0.375,87,95,18,32,24
148552,-0.639888,-0.51233,0.271499,0.50228,0.37844,-0.640625,-0.515625,0.28125,0.5,0.375,87,95,18,32,24
148616,-0.639888,-0.51233,0.271499,0.50228,0.37844,-0.640625,-0.515625,0.28125,0.5,0.375,87,95,18,32,24
148680,-0.639888,-0.51233,0.271499,0.50228,0.37844,-0.640625,-0.515625,0.28125,0.5,0.375,87,95,18,32,24
148744,-0.639888,-0.51233,0.271499,0.50228,0.37844,-0.640625,-0.515625,0.28125,0.5,0.375,87,95,18,32,24
148872,-0.639888,-0.51233,0.271499,0.50228,0.37844,-0.640625,-0.515625,0.28125,0.5,0.375,87,95,18,32,24
148880,-0.639888,-0.51233,0.271499,0.50228,0.37844,-0.640625,-0.515625,0.28125,0.5,0.375,87,95,18,32,24
148888,-0.639888,-0.51233,0.271499,0.50228,0.37844,-0.640625,-0.515625,0.28125,0.5,0.375,87,95,18,32,24
149000,-0.639888,-0.51233,0.271499,0.50228,0.37844,-0.640625,-0.515625,0.28125,0.5,0.375,87,95,18,32,24
149128,-0.639888,-0.51233,0.271499,0.50228,0.37844,-0.640625,-0.515625,0.28125,0.5,0.375,87,95,18,32,24
149256,-0.639888,-0.51233,0.271499,0.50228,0.37844,-0.640625,-0.515625,0.28125,0.5,0.375,87,95,18,32,24
149264,-0.639888,-0.51233,0.271499,0.50228,0.37844,-0.640625,-0.515625,0.28125,0.5,0.375,87,95,18,32,24
155720,-0.639888,-0.51233,0.271499,0.50228,0.37844,-0.640625,-0.515625,0.28125,0.5,0.375,87,95,18,32,24
155728,-0.639888,-0.51233,0.271499,0.50228,0.37844,-0.640625,-0.515625,0.28125,0.5,0.375,87,95,18,32,24
155736,-0.639888,-0.51233,0.271499,0.50228,0.37844,-0.640625,-0.515625,0.28125,0.5,0.375,87,95,18,32,24
155784,-0.639888,-0.51233,0.271499,0.50228,0.37844,-0.640625,-0.515625,0.28125,0.5,0.375,87,95,18,32,24
155792,-0.639888,-0.51233,0.271499,0.50228,0.37844,-0.640625,-0.515625,0.28125,0.5,0.375,87,95,18,32,24
155800,-0.639888,-0.51233,0.271499,0.50228,0.37844,-0.640625,-0.515625,0.28125,0.5,0.375,87,95,18,32,24
155848,-0.639888,-0.51233,0.271499,0.50228,0.37844,-0.640625,-0.515625,0.28125,0.5,0.375,87,95,18,32,24
155856,-0.639888,-0.51233,0.271499,0.50228,0.37844,-0.640625,-0.515625,0.28125,0.5,0.375,87,95,18,32,24
155864,-0.639888,-0.51233,0.271499,0.50228,0.37844,-0.640625,-0.515625,0.28125,0.5,0.375,87,95,18,32,24
155912,-0.639888,-0.51233,0.271499,0.50228,0.37844,-0.640625,-0.515625,0.28125,0.5,0.375,87,95,18,32,24
155920,-0.639888,-0.51233,0.271499,0.50228,0.37844,-0.640625,-0.515625,0.28125,0.5,0.375,87,95,18,32,24
155928,-0.639888,-0.51233,0.271499,0.50228,0.37844,-0.640625,-0.515625,0.28125,0.5,0.375,87,95,18,32,24
155976,-0.639888,-0.51233,0.271499,0.50228,0.37844,-0.640625,-0.515625,0.28125,0.5,0.375,87,95,18,32,24
155984,-0.639888,-0.51233,0.271499,0.50228,0.37844,-0.640625,-0.515625,0.28125,0.5,0.375,87,95,18,32,24
155992,-0.639888,-0.51233,0.271499,0.50228,0.37844,-0.640625,-0.515625,0.28125,0.5,0.375,87,95,18,32,24
156040,-0.639888,-0.51233,0.271499,0.50228,0.37844,-0.640625,-0.515625,0.28125,0.5,0.375,87,95,18,32,24
156048,-0.639888,-0.51233,0.271499,0.50228,0.37844,-0.640625,-0.515625,0.28125,0.5,0.375,87,95,18,32,24
156056,-0.639888,-0.51233,0.271499,0.50228,0.37844,-0.640625,-0.515625,0.28125,0.5,0.375,87,95,18,32,24
156104,-0.639888,-0.51233,0.271499,0.50228,0.37844,-0.640625,-0.515625,0.28125,0.5,0.375,87,95,18,32,24
156112,-0.639888,-0.51233,0.271499,0.50228,0.37844,-0.640625,-0.515625,0.28125,0.5,0.375,87,95,18,32,24
156120,-0.639888,-0.51233,0.271499,0.50228,0.37844,-0.640625,-0.515625,0.28125,0.5,0.375,87,95,18,32,24
156168,-0.639888,-0.51233,0.271499,0.50228,0.37844,-0.640625,-0.515625,0.28125,0.5,0.375,87,95,18,32,24
156176,-0.639888,-0.51233,0.271499,0.50228,0.37844,-0.640625,-0.515625,0.28125,0.5,0.375,87,95,18,32,24
156184,-0.639888,-0.51233,0.271499,0.50228,0.37844,-0.640625,-0.515625,0.28125,0.5,0.375,87,95,18,32,24
156232,-0.639888,-0.51233,0.271499,0.50228,0.37844,-0.640625,-0.515625,0.28125,0.5,0.375,87,95,18,32,24
156240,-0.639888,-0.51233,0.271499,0.50228,0.37844,-0.640625,-0.515625,0.28125,0.5,0.375,87,95,18,32,24
156248,-0.639888,-0.51233,0.271499,0.50228,0.37844,-0.640625,-0.515625,0.28125,0.5,0.375,87,95,18,32,24
156256,-0.639888,-0.51233,0.271499,0.50228,0.37844,-0.640625,-0.515625,0.28125,0.5,0.375,87,95,18,32,24
156296,-0.639888,-0.51233,0.271499,0.50228,0.37844,-0.640625,-0.515625,0.28125,0.5,0.375,87,95,18,32,24
156304,-0.639888,-0.51233,0.271499,0.50228,0.37844,-0.640625,-0.515625,0.28125,0.5,0.375,87,95,18,32,24
156312,-0.639888,-0.51233,0.271499,0.50228,0.37844,-0.640625,-0.515625,0.28125,0.5,0.375,87,95,18,32,24
156360,-0.639888,-0.51233,0.271499,0.50228,0.37844,-0.640625,-0.515625,0.28125,0.5,0.375,87,95,18,32,24
156368,-0.639888,-0.51233,0.271499,0.50228,0.37844,-0.640625,-0.515625,0.28125,0.5,0.375,87,95,18,32,24
156376,-0.639888,-0.51233,0.271499,0.50228,0.37844,-0.640625,-0.515625,0.28125,0.5,0.375,87,95,18,32,24
156424,-0.639888,-0.51233,0.271499,0.50228,0.37844,-0.640625,-0.515625,0.28125,0.5,0.375,87,95,18,32,24
156432,-0.639888,-0.51233,0.271499,0.50228,0.37844,-0.640625,-0.515625,0.28125,0.5,0.375,87,95,18,32,24
156440,-0.639888,-0.51233,0.271499,0.50228,0.37844,-0.640625,-0.515625,0.28125,0.5,0.375,87,95,18,32,24
156448,-0.639888,-0.51233,0.271499,0.50228,0.37844,-0.640625,-0.515625,0.28125,0.5,0.375,87,95,18,32,24
156488,-0.639888,-0.51233,0.271499,0.50228,0.37844,-0.640625,-0.515625,0.28125,0.5,0.375,87,95,18,32,24
156496,-0.639888,-0.51233,0.271499,0.50228,0.37844,-0.640625,-0.515625,0.28125,0.5,0.375,87,95,18,32,24
156552,-0.639888,-0.51233,0.271499,0.50228,0.37844,-0.640625,-0.515625,0.28125,0.5,0.375,87,95,18,32,24
156560,-0.639888,-0.51233,0.271499,0.50228,0.37844,-0.640625,-0.515625,0.28125,0.5,0.375,87,95,18,32,24
156616,-0.639888,-0.51233,0.271499,0.50228,0.37844,-0.640625,-0.515625,0.28125,0.5,0.375,87,95,18,32,24
156624,-0.639888,-0.51233,0.271499,0.50228,0.37844,-0.640625,-0.515625,0.28125,0.5,0.375,87,95,18,32,24
156680,-0.639888,-0.51233,0.271499,0.50228,0.37844,-0.640625,-0.515625,0.28125,0.5,0.375,87,95,18,32,24
156688,-0.639888,-0.51233,0.271499,0.50228,0.37844,-0.640625,-0.515625,0.28125,0.5,0.375,87,95,18,32,24
163912,-0.639888,-0.51233,0.271499,0.50228,0.37844,-0.640625,-0.515625,0.28125,0.5,0.375,87,95,18,32,24
163920,-0.639888,-0.51233,0.271499,0.50228,0.37844,-0.640625,-0.515625,0.28125,0.5,0.375,87,95,18,32,24
163976,-0.639888,-0.51233,0.271499,0.50228,0.37844,-0.640625,-0.515625,0.28125,0.5,0.375,87,95,18,32,24
164040,-0.639888,-0.51233,0.271499,0.50228,0.37844,-0.640625,-0.515625,0.28125,0.5,0.375,87,95,18,32,24
164104,-0.639888,-0.51233,0.271499,0.50228,0.37844,-0.640625,-0.515625,0.28125,0.5,0.375,87,95,18,32,24
164112,-0.639888,-0.51233,0.271499,0.50228,0.37844,-0.640625,-0.515625,0.28125,0.5,0.375,87,95,18,32,24
164120,-0.639888,-0.51233,0.271499,0.50228,0.37844,-0.640625,-0.515625,0.28125,0.5,0.375,87,95,18,32,24
164168,-0.639888,-0.51233,0.271499,0.50228,0.37844,-0.640625,-0.515625,0.28125,0.5,0.375,87,95,18,32,24
164176,-0.639888,-0.51233,0.271499,0.50228,0.37844,-0.640625,-0.515625,0.28125,0.5,0.375,87,95,18,32,24
164232,-0.639888,-0.51233,0.271499,0.50228,0.37844,-0.640625,-0.515625,0.28125,0.5,0.375,87,95,18,32,24
164240,-0.639888,-0.51233,0.271499,0.50228,0.37844,-0.640625,-0.515625,0.28125,0.5,0.375,87,95,18,32,24
164248,-0.639888,-0.51233,0.271499,0.50228,0.37844,-0.640625,-0.515625,0.28125,0.5,0.375,87,95,18,32,24
164296,-0.639888,-0.51233,0.271499,0.50228,0.37844,-0.640625,-0.515625,0.28125,0.5,0.375,87,95,18,32,24
164304,-0.639888,-0.51233,0.271499,0.50228,0.37844,-0.640625,-0.515625,0.28125,0.5,0.375,87,95,18,32,24
164312,-0.639888,-0.51233,0.271499,0.50228,0.37844,-0.640625,-0.515625,0.28125,0.5,0.375,87,95,18,32,24
164360,-0.639888,-0.51233,0.271499,0.50228,0.37844,-0.640625,-0.515625,0.28125,0.5,0.375,87,95,18,32,24
164368,-0.639888,-0.51233,0.271499,0.50228,0.37844,-0.640625,-0.515625,0.28125,0.5,0.375,87,95,18,32,24
164376,-0.639888,-0.51233,0.271499,0.50228,0.37844,-0.640625,-0.515625,0.28125,0.5,0.375,87,95,18,32,24
164424,-0.639888,-0.51233,0.271499,0.50228,0.37844,-0.640625,-0.515625,0.28125,0.5,0.375,87,95,18,32,24
164432,-0.639888,-0.51233,0.271499,0.50228,0.37844,-0.640625,-0.515625,0.28125,0.5,0.375,87,95,18,32,24
164440,-0.639888,-0.51233,0.271499,0.50228,0.37844,-0.640625,-0.515625,0.28125,0.5,0.375,87,95,18,32,24
164488,-0.639888,-0.51233,0.271499,0.50228,0.37844,-0.640625,-0.515625,0.28125,0.5,0.375,87,95,18,32,24
164496,-0.639888,-0.51233,0.271499,0.50228,0.37844,-0.640625,-0.515625,0.28125,0.5,0.375,87,95,18,32,24
164504,-0.639888,-0.51233,0.271499,0.50228,0.37844,-0.640625,-0.515625,0.28125,0.5,0.375,87,95,18,32,24
164552,-0.639888,-0.51233,0.271499,0.50228,0.37844,-0.640625,-0.515625,0.28125,0.5,0.375,87,95,18,32,24
164560,-0.639888,-0.51233,0.271499,0.50228,0.37844,-0.640625,-0.515625,0.28125,0.5,0.375,87,95,18,32,24
164616,-0.639888,-0.51233,0.271499,0.50228,0.37844,-0.640625,-0.515625,0.28125,0.5,0.375,87,95,18,32,24
164624,-0.639888,-0.51233,0.271499,0.50228,0.37844,-0.640625,-0.515625,0.28125,0.5,0.375,87,95,18,32,24
164632,-0.639888,-0.51233,0.271499,0.50228,0.37844,-0.640625,-0.515625,0.28125,0.5,0.375,87,95,18,32,24
164680,-0.639888,-0.51233,0.271499,0.50228,0.37844,-0.640625,-0.515625,0.28125,0.5,0.375,87,95,18,32,24
164688,-0.639888,-0.51233,0.271499,0.50228,0.37844,-0.640625,-0.515625,0.28125,0.5,0.375,87,95,18,32,24
164744,-0.639888,-0.51233,0.271499,0.50228,0.37844,-0.640625,-0.515625,0.28125,0.5,0.375,87,95,18,32,24
164752,-0.639888,-0.51233,0.271499,0.50228,0.37844,-0.640625,-0.515625,0.28125,0.5,0.375,87,95,18,32,24
164808,-0.639888,-0.51233,0.271499,0.50228,0.37844,-0.640625,-0.515625,0.28125,0.5,0.375,87,95,18,32,24
164816,-0.639888,-0.51233,0.271499,0.50228,0.37844,-0.640625,-0.515625,0.28125,0.5,0.375,87,95,18,32,24
164824,-0.639888,-0.51233,0.271499,0.50228,0.37844,-0.640625,-0.515625,0.28125,0.5,0.375,87,95,18,32,24
164872,-0.639888,-0.51233,0.271499,0.50228,0.37844,-0.640625,-0.515625,0.28125,0.5,0.375,87,95,18,32,24
164880,-0.639888,-0.51233,0.271499,0.50228,0.37844,-0.640625,-0.515625,0.28125,0.5,0.375,87,95,18,32,24
164888,-0.639888,-0.51233,0.271499,0.50228,0.37844,-0.640625,-0.515625,0.28125,0.5,0.375,87,95,18,32,24
172104,-0.639888,-0.51233,0.271499,0.50228,0.37844,-0.640625,-0.515625,0.28125,0.5,0.375,87,95,18,32,24
172168,-0.639888,-0.51233,0.271499,0.50228,0.37844,-0.640625,-0.515625,0.28125,0.5,0.375,87,95,18,32,24
172232,-0.639888,-0.51233,0.271499,0.50228,0.37844,-0.640625,-0.515625,0.28125,0.5,0.375,87,95,18,32,24
172296,-0.639888,-0.51233,0.271499,0.50228,0.37844,-0.640625,-0.515625,0.28125,0.5,0.375,87,95,18,32,24
172368,-0.639888,-0.51233,0.271499,0.50228,0.37844,-0.640625,-0.515625,0.28125,0.5,0.375,87,95,18,32,24
172376,-0.639888,-0.51233,0.271499,0.50228,0.37844,-0.640625,-0.515625,0.28125,0.5,0.375,87,95,18,32,24
172440,-0.639888,-0.51233,0.271499,0.50228,0.37844,-0.640625,-0.515625,0.28125,0.5,0.375,87,95,18,32,24
172488,-0.639888,-0.51233,0.271499,0.50228,0.37844,-0.640625,-0.515625,0.28125,0.5,0.375,87,95,18,32,24
172496,-0.639888,-0.51233,0.271499,0.50228,0.37844,-0.640625,-0.515625,0.28125,0.5,0.375,87,95,18,32,24
172504,-0.639888,-0.51233,0.271499,0.50228,0.37844,-0.640625,-0.515625,0.28125,0.5,0.375,87,95,18,32,24
172512,-0.639888,-0.51233,0.271499,0.50228,0.37844,-0.640625,-0.515625,0.28125,0.5,0.375,87,95,18,32,24
172552,-0.639888,-0.51233,0.271499,0.50228,0.37844,-0.640625,-0.515625,0.28125,0.5,0.375,87,95,18,32,24
172560,-0.639888,-0.51233,0.271499,0.50228,0.37844,-0.640625,-0.515625,0.28125,0.5,0.375,87,95,18,32,24
172568,-0.639888,-0.51233,0.271499,0.50228,0.37844,-0.640625,-0.515625,0.28125,0.5,0.375,87,95,18,32,24
172576,-0.639888,-0.51233,0.271499,0.50228,0.37844,-0.640625,-0.515625,0.28125,0.5,0.375,87,95,18,32,24
172584,-0.639888,-0.51233,0.271499,0.50228,0.37844,-0.640625,-0.515625,0.28125,0.5,0.375,87,95,18,32,24
172616,-0.639888,-0.51233,0.271499,0.50228,0.37844,-0.640625,-0.515625,0.28125,0.5,0.375,87,95,18,32,24
172624,-0.639888,-0.51233,0.271499,0.50228,0.37844,-0.640625,-0.515625,0.28125,0.5,0.375,87,95,18,32,24
172632,-0.639888,-0.51233,0.271499,0.50228,0.37844,-0.640625,-0.515625,0.28125,0.5,0.375,87,95,18,32,24
172680,-0.639888,-0.51233,0.271499,0.50228,0.37844,-0.640625,-0.515625,0.28125,0.5,0.375,87,95,18,32,24
172688,-0.639888,-0.51233,0.271499,0.50228,0.37844,-0.640625,-0.515625,0.28125,0.5,0.375,87,95,18,32,24
172744,-0.639888,-0.51233,0.271499,0.50228,0.37844,-0.640625,-0.515625,0.28125,0.5,0.375,87,95,18,32,24
172752,-0.639888,-0.51233,0.271499,0.50228,0.37844,-0.640625,-0.515625,0.28125,0.5,0.375,87,95,18,32,24
172760,-0.639888,-0.51233,0.271499,0.50228,0.37844,-0.640625,-0.515625,0.28125,0.5,0.375,87,95,18,32,24
172808,-0.639888,-0.51233,0.271499,0.50228,0.37844,-0.640625,-0.515625,0.28125,0.5,0.375,87,95,18,32,24
172816,-0.639888,-0.51233,0.271499,0.50228,0.37844,-0.640625,-0.515625,0.28125,0.5,0.375,87,95,18,32,24
172824,-0.639888,-0.51233,0.271499,0.50228,0.37844,-0.640625,-0.515625,0.28125,0.5,0.375,87,95,18,32,24
172872,-0.639888,-0.51233,0.271499,0.50228,0.37844,-0.640625,-0.515625,0.28125,0.5,0.375,87,95,18,32,24
172880,-0.639888,-0.51233,0.271499,0.50228,0.37844,-0.640625,-0.515625,0.28125,0.5,0.375,87,95,18,32,24
172936,-0.639888,-0.51233,0.271499,0.50228,0.37844,-0.640625,-0.515625,0.28125,0.5,0.375,87,95,18,32,24
172944,-0.639888,-0.51233,0.271499,0.50228,0.37844,-0.640625,-0.515625,0.28125,0.5,0.375,87,95,18,32,24
173000,-0.639888,-0.51233,0.271499,0.50228,0.37844,-0.640625,-0.515625,0.28125,0.5,0.375,87,95,18,32,24
173008,-0.639888,-0.51233,0.271499,0.50228,0.37844,-0.640625,-0.515625,0.28125,0.5,0.375,87,95,18,32,24
173016,-0.639888,-0.51233,0.271499,0.50228,0.37844,-0.640625,-0.515625,0.28125,0.5,0.375,87,95,18,32,24
173064,-0.639888,-0.51233,0.271499,0.50228,0.37844,-0.640625,-0.515625,0.28125,0.5,0.375,87,95,18,32,24
173072,-0.639888,-0.51233,0.271499,0.50228,0.37844,-0.640625,-0.515625,0.28125,0.5,0.375,87,95,18,32,24
180296,-0.639888,-0.51233,0.271499,0.50228,0.37844,-0.640625,-0.515625,0.28125,0.5,0.375,87,95,18,32,24
180304,-0.639888,-0.51233,0.271499,0.50228,0.37844,-0.640625,-0.515625,0.28125,0.5,0.375,87,95,18,32,24
180360,-0.639888,-0.51233,0.271499,0.50228,0.37844,-0.640625,-0.515625,0.28125,0.5,0.375,87,95,18,32,24
180424,-0.639888,-0.51233,0.271499,0.50228,0.37844,-0.640625,-0.515625,0.28125,0.5,0.375,87,95,18,32,24
180432,-0.639888,-0.51233,0.271499,0.50228,0.37844,-0.640625,-0.515625,0.28125,0.5,0.375,87,95,18,32,24
180440,-0.639888,-0.51233,0.271499,0.50228,0.37844,-0.640625,-0.515625,0.28125,0.5,0.375,87,95,18,32,24
180488,-0.639888,-0.51233,0.271499,0.50228,0.37844,-0.640625,-0.515625,0.28125,0.5,0.375,87,95,18,32,24
180552,-0.639888,-0.51233,0.271499,0.50228,0.37844,-0.640625,-0.515625,0.28125,0.5,0.375,87,95,18,32,24
180560,-0.639888,-0.51233,0.271499,0.50228,0.37844,-0.640625,-0.515625,0.28125,0.5,0.375,87,95,18,32,24
180568,-0.639888,-0.51233,0.271499,0.50228,0.37844,-0.640625,-0.515625,0.28125,0.5,0.375,87,95,18,32,24
180576,-0.639888,-0.51233,0.271499,0.50228,0.37844,-0.640625,-0.515625,0.28125,0.5,0.375,87,95,18,32,24
180616,-0.639888,-0.51233,0.271499,0.50228,0.37844,-0.640625,-0.515625,0.28125,0.5,0.375,87,95,18,32,24
180624,-0.639888,-0.51233,0.271499,0.50228,0.37844,-0.640625,-0.515625,0.28125,0.5,0.375,87,95,18,32,24
180632,-0.639888,-0.51233,0.271499,0.50228,0.37844,-0.640625,-0.515625,0.28125,0.5,0.375,87,95,18,32,24
180680,-0.639888,-0.51233,0.271499,0.50228,0.37844,-0.640625,-0.515625,0.28125,0.5,0.375,87,95,18,32,24
180688,-0.639888,-0.51233,0.271499,0.50228,0.37844,-0.640625,-0.515625,0.28125,0.5,0.375,87,95,18,32,24
180696,-0.639888,-0.51233,0.271499,0.50228,0.37844,-0.640625,-0.515625,0.28125,0.5,0.375,87,95,18,32,24
180744,-0.639888,-0.51233,0.271499,0.50228,0.37844,-0.640625,-0.515625,0.28125,0.5,0.375,87,95,18,32,24
180752,-0.639888,-0.51233,0.271499,0.50228,0.37844,-0.640625,-0.515625,0.28125,0.5,0.375,87,95,18,32,24
180760,-0.639888,-0.51233,0.271499,0.50228,0.37844,-0.640625,-0.515625,0.28125,0.5,0.375,87,95,18,32,24
180808,-0.639888,-0.51233,0.271499,0.50228,0.37844,-0.640625,-0.515625,0.28125,0.5,0.375,87,95,18,32,24
180816,-0.639888,-0.51233,0.271499,0.50228,0.37844,-0.640625,-0.515625,0.28125,0.5,0.375,87,95,18,32,24
180872,-0.639888,-0.51233,0.271499,0.50228,0.37844,-0.640625,-0.515625,0.28125,0.5,0.375,87,95,18,32,24
180880,-0.639888,-0.51233,0.271499,0.50228,0.37844,-0.640625,-0.515625,0.28125,0.5,0.375,87,95,18,32,24
180888,-0.639888,-0.51233,0.271499,0.50228,0.37844,-0.640625,-0.515625,0.28125,0.5,0.375,87,95,18,32,24
180936,-0.639888,-0.51233,0.271499,0.50228,0.37844,-0.640625,-0.515625,0.28125,0.5,0.375,87,95,18,32,24
180944,-0.639888,-0.51233,0.271499,0.50228,0.37844,-0.640625,-0.515625,0.28125,0.5,0.375,87,95,18,32,24
180952,-0.639888,-0.51233,0.271499,0.50228,0.37844,-0.640625,-0.515625,0.28125,0.5,0.375,87,95,18,32,24
181000,-0.639888,-0.51233,0.271499,0.50228,0.37844,-0.640625,-0.515625,0.28125,0.5,0.375,87,95,18,32,24
181008,-0.639888,-0.51233,0.271499,0.50228,0.37844,-0.640625,-0.515625,0.28125,0.5,0.375,87,95,18,32,24
181064,-0.639888,-0.51233,0.271499,0.50228,0.37844,-0.640625,-0.515625,0.28125,0.5,0.375,87,95,18,32,24
181072,-0.639888,-0.51233,0.271499,0.50228,0.37844,-0.640625,-0.515625,0.28125,0.5,0.375,87,95,18,32,24
181128,-0.639888,-0.51233,0.271499,0.50228,0.37844,-0.640625,-0.515625,0.28125,0.5,0.375,87,95,18,32,24
181136,-0.639888,-0.51233,0.271499,0.50228,0.37844,-0.640625,-0.515625,0.28125,0.5,0.375,87,95,18,32,24
181192,-0.639888,-0.51233,0.271499,0.50228,0.37844,-0.640625,-0.515625,0.28125,0.5,0.375,87,95,18,32,24
181200,-0.639888,-0.51233,0.271499,0.50228,0.37844,-0.640625,-0.515625,0.28125,0.5,0.375,87,95,18,32,24
181208,-0.639888,-0.51233,0.271499,0.50228,0.37844,-0.640625,-0.515625,0.28125,0.5,0.375,87,95,18,32,24
181256,-0.639888,-0.51233,0.271499,0.50228,0.37844,-0.640625,-0.515625,0.28125,0.5,0.375,87,95,18,32,24
181264,-0.639888,-0.51233,0.271499,0.50228,0.37844,-0.640625,-0.515625,0.28125,0.5,0.375,87,95,18,32,24
181272,-0.639888,-0.51233,0.271499,0.50228,0.37844,-0.640625,-0.515625,0.28125,0.5,0.375,87,95,18,32,24
188488,-0.639888,-0.51233,0.271499,0.50228,0.37844,-0.640625,-0.515625,0.28125,0.5,0.375,87,95,18,32,24
188552,-0.639888,-0.51233,0.271499,0.50228,0.37844,-0.640625,-0.515625,0.28125,0.5,0.375,87,95,18,32,24
188560,-0.639888,-0.51233,0.271499,0.50228,0.37844,-0.640625,-0.515625,0.28125,0.5,0.375,87,95,18,32,24
188616,-0.639888,-0.51233,0.271499,0.50228,0.37844,-0.640625,-0.515625,0.28125,0.5,0.375,87,95,18,32,24
188624,-0.639888,-0.51233,0.271499,0.50228,0.37844,-0.640625,-0.515625,0.28125,0.5,0.375,87,95,18,32,24
188632,-0.639888,-0.51233,0.271499,0.50228,0.37844,-0.640625,-0.515625,0.28125,0.5,0.375,87,95,18,32,24
188680,-0.639888,-0.51233,0.271499,0.50228,0.37844,-0.640625,-0.515625,0.28125,0.5,0.375,87,95,18,32,24
188688,-0.639888,-0.51233,0.271499,0.50228,0.37844,-0.640625,-0.515625,0.28125,0.5,0.375,87,95,18,32,24
188696,-0.639888,-0.51233,0.271499,0.50228,0.37844,-0.640625,-0.515625,0.28125,0.5,0.375,87,95,18,32,24
188744,-0.639888,-0.51233,0.271499,0.50228,0.37844,-0.640625,-0.515625,0.28125,0.5,0.375,87,95,18,32,24
188752,-0.639888,-0.51233,0.271499,0.50228,0.37844,-0.640625,-0.515625,0.28125,0.5,0.375,87,95,18,32,24
188760,-0.639888,-0.51233,0.271499,0.50228,0.37844,-0.640625,-0.515625,0.28125,0.5,0.375,87,95,18,32,24
188808,-0.639888,-0.51233,0.271499,0.50228,0.37844,-0.640625,-0.515625,0.28125,0.5,0.375,87,95,18,32,24
188816,-0.639888,-0.51233,0.271499,0.50228,0.37844,-0.640625,-0.515625,0.28125,0.5,0.375,87,95,18,32,24
188872,-0.639888,-0.51233,0.271499,0.50228,0.37844,-0.640625,-0.515625,0.28125,0.5,0.375,87,95,18,32,24
188880,-0.639888,-0.51233,0.271499,0.50228,0.37844,-0.640625,-0.515625,0.28125,0.5,0.375,87,95,18,32,24
188888,-0.639888,-0.51233,0.271499,0.50228,0.37844,-0.640625,-0.515625,0.28125,0.5,0.375,87,95,18,32,24
188936,-0.639888,-0.51233,0.271499,0.50228,0.37844,-0.640625,-0.515625,0.28125,0.5,0.375,87,95,18,32,24
188944,-0.639888,-0.51233,0.271499,0.50228,0.37844,-0.640625,-0.515625,0.28125,0.5,0.375,87,95,18,32,24
188952,-0.639888,-0.51233,0.271499,0.50228,0.37844,-0.640625,-0.515625,0.28125,0.5,0.375,87,95,18,32,24
189000,-0.639888,-0.51233,0.271499,0.50228,0.37844,-0.640625,-0.515625,0.28125,0.5,0.375,87,95,18,32,24
189008,-0.639888,-0.51233,0.271499,0.50228,0.37844,-0.640625,-0.515625,0.28125,0.5,0.375,87,95,18,32,24
189016,-0.639888,-0.51233,0.271499,0.50228,0.37844,-0.640625,-0.515625,0.28125,0.5,0.375,87,95,18,32,24
189064,-0.639888,-0.51233,0.271499,0.50228,0.37844,-0.640625,-0.515625,0.28125,0.5,0.375,87,95,18,32,24
189072,-0.639888,-0.51233,0.271499,0.50228,0.37844,-0.640625,-0.515625,0.28125,0.5,0.375,87,95,18,32,24
189080,-0.639888,-0.51233,0.271499,0.50228,0.37844,-0.640625,-0.515625,0.28125,0.5,0.375,87,95,18,32,24
189128,-0.639888,-0.51233,0.271499,0.50228,0.37844,-0.640625,-0.515625,0.28125,0.5,0.375,87,95,18,32,24
189136,-0.639888,-0.51233,0.271499,0.50228,0.37844,-0.640625,-0.515625,0.28125,0.5,0.375,87,95,18,32,24
189144,-0.639888,-0.51233,0.271499,0.50228,0.37844,-0.640625,-0.515625,0.28125,0.5,0.375,87,95,18,32,24
189152,-0.639888,-0.51233,0.271499,0.50228,0.37844,-0.640625,-0.515625,0.28125,0.5,0.375,87,95,18,32,24
189192,-0.639888,-0.51233,0.271499,0.50228,0.37844,-0.640625,-0.515625,0.28125,0.5,0.375,87,95,18,32,24
189200,-0.639888,-0.51233,0.271499,0.50228,0.37844,-0.640625,-0.515625,0.28125,0.5,0.375,87,95,18,32,24
189208,-0.639888,-0.51233,0.271499,0.50228,0.37844,-0.640625,-0.515625,0.28125,0.5,0.375,87,95,18,32,24
189256,-0.639888,-0.51233,0.271499,0.50228,0.37844,-0.640625,-0.515625,0.28125,0.5,0.375,87,95,18,32,24
189264,-0.639888,-0.51233,0.271499,0.50228,0.37844,-0.640625,-0.515625,0.28125,0.5,0.375,87,95,18,32,24
189320,-0.639888,-0.51233,0.271499,0.50228,0.37844,-0.640625,-0.515625,0.28125,0.5,0.375,87,95,18,32,24
189328,-0.639888,-0.51233,0.271499,0.50228,0.37844,-0.640625,-0.515625,0.28125,0.5,0.375,87,95,18,32,24
189384,-0.639888,-0.51233,0.271499,0.50228,0.37844,-0.640625,-0.515625,0.28125,0.5,0.375,87,95,18,32,24
189392,-0.639888,-0.51233,0.271499,0.50228,0.37844,-0.640625,-0.515625,0.28125,0.5,0.375,87,95,18,32,24
189448,-0.639888,-0.51233,0.271499,0.50228,0.37844,-0.640625,-0.515625,0.28125,0.5,0.375,87,95,18,32,24
189456,-0.639888,-0.51233,0.271499,0.50228,0.37844,-0.640625,-0.515625,0.28125,0.5,0.375,87,95,18,32,24
196680,-0.639888,-0.51233,0.271499,0.50228,0.37844,-0.640625,-0.515625,0.28125,0.5,0.375,87,95,18,32,24
196688,-0.639888,-0.51233,0.271499,0.50228,0.37844,-0.640625,-0.515625,0.28125,0.5,0.375,87,95,18,32,24
196696,-0.639888,-0.51233,0.271499,0.50228,0.37844,-0.640625,-0.515625,0.28125,0.5,0.375,87,95,18,32,24
196744,-0.639888,-0.51233,0.271499,0.50228,0.37844,-0.640625,-0.515625,0.28125,0.5,0.375,87,95,18,32,24
196752,-0.639888,-0.51233,0.271499,0.50228,0.37844,-0.640625,-0.515625,0.28125,0.5,0.375,87,95,18,32,24
196760,-0.639888,-0.51233,0.271499,0.50228,0.37844,-0.640625,-0.515625,0.28125,0.5,0.375,87,95,18,32,24
196808,-0.639888,-0.51233,0.271499,0.50228,0.37844,-0.640625,-0.515625,0.28125,0.5,0.375,87,95,18,32,24
196816,-0.639888,-0.51233,0.271499,0.50228,0.37844,-0.640625,-0.515625,0.28125,0.5,0.375,87,95,18,32,24
196872,-0.639888,-0.51233,0.271499,0.50228,0.37844,-0.640625,-0.515625,0.28125,0.5,0.375,87,95,18,32,24
196936,-0.639888,-0.51233,0.271499,0.50228,0.37844,-0.640625,-0.515625,0.28125,0.5,0.375,87,95,18,32,24
196944,-0.639888,-0.51233,0.271499,0.50228,0.37844,-0.640625,-0.515625,0.28125,0.5,0.375,87,95,18,32,24
196952,-0.639888,-0.51233,0.271499,0.50228,0.37844,-0.640625,-0.515625,0.28125,0.5,0.375,87,95,18,32,24
197000,-0.639888,-0.51233,0.271499,0.50228,0.37844,-0.640625,-0.515625,0.28125,0.5,0.375,87,95,18,32,24
197008,-0.639888,-0.51233,0.271499,0.50228,0.37844,-0.640625,-0.515625,0.28125,0.5,0.375,87,95,18,32,24
197016,-0.639888,-0.51233,0.271499,0.50228,0.37844,-0.640625,-0.515625,0.28125,0.5,0.375,87,95,18,32,24
197064,-0.639888,-0.51233,0.271499,0.50228,0.37844,-0.640625,-0.515625,0.28125,0.5,0.375,87,95,18,32,24
197072,-0.639888,-0.51233,0.271499,0.50228,0.37844,-0.640625,-0.515625,0.28125,0.5,0.375,87,95,18,32,24
197128,-0.639888,-0.51233,0.271499,0.50228,0.37844,-0.640625,-0.515625,0.28125,0.5,0.375,87,95,18,32,24
197136,-0.639888,-0.51233,0.271499,0.50228,0.37844,-0.640625,-0.515625,0.28125,0.5,0.375,87,95,18,32,24
197144,-0.639888,-0.51233,0.271499,0.50228,0.37844,-0.640625,-0.515625,0.28125,0.5,0.375,87,95,18,32,24
197192,-0.639888,-0.51233,0.271499,0.50228,0.37844,-0.640625,-0.515625,0.28125,0.5,0.375,87,95,18,32,24
197200,-0.639888,-0.51233,0.271499,0.50228,0.37844,-0.640625,-0.515625,0.28125,0.5,0.375,87,95,18,32,24
197208,-0.639888,-0.51233,0.271499,0.50228,0.37844,-0.640625,-0.515625,0.28125,0.5,0.375,87,95,18,32,24
197256,-0.639888,-0.51233,0.271499,0.50228,0.37844,-0.640625,-0.515625,0.28125,0.5,0.375,87,95,18,32,24
197264,-0.639888,-0.51233,0.271499,0.50228,0.37844,-0.640625,-0.515625,0.28125,0.5,0.375,87,95,18,32,24
197272,-0.639888,-0.51233,0.271499,0.50228,0.37844,-0.640625,-0.515625,0.28125,0.5,0.375,87,95,18,32,24
197280,-0.639888,-0.51233,0.271499,0.50228,0.37844,-0.640625,-0.515625,0.28125,0.5,0.375,87,95,18,32,24
197320,-0.639888,-0.51233,0.271499,0.50228,0.37844,-0.640625,-0.515625,0.28125,0.5,0.375,87,95,18,32,24
197328,-0.639888,-0.51233,0.271499,0.50228,0.37844,-0.640625,-0.515625,0.28125,0.5,0.375,87,95,18,32,24
197336,-0.639888,-0.51233,0.271499,0.50228,0.37844,-0.640625,-0.515625,0.28125,0.5,0.375,87,95,18,32,24
197384,-0.639888,-0.51233,0.271499,0.50228,0.37844,-0.640625,-0.515625,0.28125,0.5,0.375,87,95,18,32,24
197392,-0.639888,-0.51233,0.271499,0.50228,0.37844,-0.640625,-0.515625,0.28125,0.5,0.375,87,95,18,32,24
197400,-0.639888,-0.51233,0.271499,0.50228,0.37844,-0.640625,-0.515625,0.28125,0.5,0.375,87,95,18,32,24
197448,-0.639888,-0.51233,0.271499,0.50228,0.37844,-0.640625,-0.515625,0.28125,0.5,0.375,87,95,18,32,24
197456,-0.639888,-0.51233,0.271499,0.50228,0.37844,-0.640625,-0.515625,0.28125,0.5,0.375,87,95,18,32,24
197512,-0.639888,-0.51233,0.271499,0.50228,0.37844,-0.640625,-0.515625,0.28125,0.5,0.375,87,95,18,32,24
197520,-0.639888,-0.51233,0.271499,0.50228,0.37844,-0.640625,-0.515625,0.28125,0.5,0.375,87,95,18,32,24
197576,-0.639888,-0.51233,0.271499,0.50228,0.37844,-0.640625,-0.515625,0.28125,0.5,0.375,87,95,18,32,24
197584,-0.639888,-0.51233,0.271499,0.50228,0.37844,-0.640625,-0.515625,0.28125,0.5,0.375,87,95,18,32,24
197640,-0.639888,-0.51233,0.271499,0.50228,0.37844,-0.640625,-0.515625,0.28125,0.5,0.375,87,95,18,32,24
197648,-0.639888,-0.51233,0.271499,0.50228,0.37844,-0.640625,-0.515625,0.28125,0.5,0.375,87,95,18,32,24
204872,-0.639888,-0.51233,0.271499,0.50228,0.37844,-0.640625,-0.515625,0.28125,0.5,0.375,87,95,18,32,24
